{"layers":[{"neurons":[{"bias":0.1775204,"weights":[-0.6896095,-0.7802658,-0.57130736,-0.0120180845,-0.61040133,0.75827456,-0.7839608,0.9432235,-0.95139766,0.022420049,-0.64450264,-0.41235155,-0.6706381,0.5205836,0.878315,-0.8866422,0.6654322,-0.8379679,0.0114218,-0.15270817,-0.1354059,-0.8361187,-0.5622811,-0.47626156,0.9769585,-0.1662587,0.062349677,0.43242157,-0.052853942,-0.16640389]},{"bias":0.1077162,"weights":[0.38952196,0.9408362,0.8320408,0.8801379,-0.84521604,0.28974855,-0.09227455,-0.43598503,-0.6904459,-0.17148888,-0.6133577,-0.7609806,0.47985446,-0.93125796,-0.073848605,-0.8210802,-0.98262453,-0.6356604,0.82476115,-0.076085925,-0.7363713,-0.65041184,0.324386,-0.45020407,0.95741725,0.15003645,0.096907735,-0.88647676,-0.26829976,-0.5769929]},{"bias":0.28644,"weights":[0.8714416,-0.0030716658,-0.7183285,-0.25083297,0.026583314,-0.4623534,0.15138161,-0.83662605,0.54407024,-0.498681,0.057704568,-0.85509586,-0.3732285,-0.7325773,-0.69818187,0.8128712,-0.4683115,0.20640528,-0.026653886,0.5282545,0.9080262,-0.80259943,-0.6268301,0.18857849,-0.5121679,-0.040801167,-0.074080825,0.8433764,0.47954476,0.43698776]},{"bias":0.2261504,"weights":[0.27778637,0.2745961,0.7975457,0.72303486,0.6414857,0.91183615,0.42481625,0.19963825,-0.32494086,-0.5553004,-0.017262578,-0.8362169,0.14663756,0.1278938,0.8800516,0.11259067,0.797395,0.24821556,-0.13359272,0.4167899,-0.77185607,0.94151855,-0.798687,-0.009986043,-0.5633549,-0.818099,-0.05511415,0.9618261,-0.7623949,-0.17805827]},{"bias":-0.10510981,"weights":[0.8610532,0.24875796,-0.035781503,-0.11172426,0.6024604,0.39992964,-0.41017193,-0.74403954,-0.6498232,-0.21476018,-0.48014206,-0.82799435,-0.09986651,0.9016819,0.37345874,-0.9567363,0.043896317,0.21905506,0.59772444,-0.8919041,0.53479123,-0.089392066,-0.035431266,-0.3508863,0.78584266,0.63381624,0.24974215,0.66992307,-0.43640465,0.64919496]},{"bias":-0.37723702,"weights":[0.9481225,-0.41111726,-0.66860676,-0.16018093,-0.24278486,0.51692986,0.23444617,0.3321582,-0.57684726,0.27344167,-0.92567015,0.7910259,0.0012799501,-0.3362183,0.53493357,0.41877258,-0.6447151,0.79863286,-0.15724409,-0.78855515,0.7302108,0.8865385,0.83194923,-0.62796354,-0.52036136,0.3409356,-0.8512428,-0.6974907,-0.4856035,-0.2693109]},{"bias":0.72223663,"weights":[-0.23122418,0.25247252,0.6944127,-0.9300041,0.114035964,0.88245344,-0.07829559,0.9764333,-0.6861396,0.63768554,0.5225527,0.35896575,0.42340338,-0.7520387,0.47767556,-0.60017747,-0.35006374,-0.6123528,-0.48618263,0.6970012,-0.6895864,0.9544575,0.9908924,-0.06970203,0.23707902,-0.30568975,-0.24107873,-0.26203436,-0.9323268,-0.58741444]},{"bias":0.016087174,"weights":[0.0067430735,0.2111224,-0.11097562,-0.21495521,-0.95117044,-0.43947333,-0.35821313,-0.03714645,0.9291265,0.64038086,0.43366158,0.54661775,-0.79053044,-0.48997158,0.948699,-0.14493167,0.59743357,-0.8316629,0.6770129,-0.7976694,-0.23488104,-0.025404572,-0.74952483,-0.17141426,-0.06967294,0.7624066,0.1954726,0.082051635,-0.5454959,0.43604004]},{"bias":-0.45497555,"weights":[-0.88093686,0.046196103,0.1636399,-0.3749444,-0.3973071,0.1812216,-0.54105014,-0.92533183,-0.9959693,-0.9401963,-0.6652849,0.25276315,0.28695476,0.27890098,-0.9278288,0.7784128,0.66915584,-0.6119763,-0.30488294,-0.59824365,-0.6415932,-0.22696626,-0.6039514,0.20643651,0.6499877,-0.76686096,0.28881252,0.95622563,-0.23894703,-0.943146]},{"bias":-0.5739586,"weights":[-0.24682653,-0.43180722,-0.77647066,-0.90603566,0.7325673,0.27231133,-0.3665554,-0.761214,0.46477187,-0.46895355,0.3044027,-0.8313906,-0.795388,-0.56618685,-0.07616103,0.23008382,0.9937942,-0.23784196,-0.88977695,0.74454546,-0.41667908,0.20801866,0.8498175,-0.5587396,-0.45204252,-0.007073045,0.25362766,-0.53789634,-0.1619066,-0.90418124]},{"bias":0.31419337,"weights":[0.52874637,-0.46152586,0.8511095,-0.25283903,0.35535157,0.7434697,0.62268424,0.058279395,-0.6231262,0.17310703,0.5780113,-0.5991036,-0.46918434,0.8680358,0.44252145,0.039736867,-0.4418673,0.9604099,-0.71821475,0.24319327,0.18787563,-0.743912,0.6477773,-0.81429124,-0.6112961,-0.99825406,0.07847321,0.26777542,-0.25748938,0.4402343]},{"bias":-0.4575705,"weights":[0.66722536,0.57947326,-0.3596453,0.441136,-0.8553803,0.7384298,0.12900198,0.028890729,-0.7037506,-0.35683316,-0.07397902,0.16984093,-0.25340003,0.11952937,-0.767225,-0.7902608,0.6291311,-0.7945955,0.6020863,-0.16565573,0.32274592,-0.100367665,-0.21680987,-0.76542497,-0.9751532,-0.7084513,0.8857093,0.122318625,0.06564844,-0.64954686]},{"bias":0.87557316,"weights":[-0.26741427,0.34991205,0.2828499,-0.3016798,-0.33535117,-0.8614552,-0.33211106,0.16681874,-0.9345472,0.3163532,0.9812305,-0.21901,-0.75161195,-0.742913,0.9898138,0.931751,-0.13750803,0.80197144,-0.660568,-0.8891163,-0.41118044,0.17396343,0.0541929,-0.41224664,-0.6028673,-0.114171624,-0.55782574,-0.6368823,0.043492198,0.1306032]},{"bias":-0.5181846,"weights":[0.024246097,-0.14797175,0.3572601,0.28440845,-0.38587445,0.049255252,0.80810046,-0.14678347,0.7471967,0.25845706,0.4468757,-0.9542513,-0.05903232,0.1058861,-0.04026878,-0.86031103,0.09912217,-0.74309874,0.28282154,0.89985657,-0.7192972,0.9657624,0.27170074,-0.012480617,-0.9678056,0.20846617,0.5098429,0.6179898,0.23922884,-0.45937365]},{"bias":0.064763665,"weights":[-0.58431834,-0.1703428,0.76931167,0.4395312,0.21724427,-0.16468513,0.7124896,0.54938054,0.5111368,-0.62385005,-0.010743976,0.43170297,0.8478286,-0.27846998,0.92137694,0.8371651,0.9992857,0.64457536,0.9430735,0.9945502,0.18189514,0.9310565,0.32769597,0.7747779,0.31324613,0.04286349,-0.75322247,-0.37340945,-0.8809309,-0.43121117]},{"bias":0.7876985,"weights":[0.7035651,0.7957356,0.91058445,0.9752412,0.061515212,0.87409854,0.30513585,-0.27459615,0.84023786,-0.8719659,-0.47569984,-0.67310214,-0.13031304,-0.6162397,-0.7543187,-0.4640507,-0.6436975,0.35337698,-0.6999178,-0.25095767,0.29597294,-0.2900204,-0.74810576,-0.44676822,-0.44293994,0.80135274,-0.71161175,0.8294635,-0.83804107,0.9248669]},{"bias":0.5819969,"weights":[-0.28327554,-0.40946263,0.098584056,-0.79053664,0.18847859,-0.8481343,-0.003523469,0.709115,0.99648523,0.41674864,-0.60780734,-0.83448005,-0.7330611,0.8847785,0.5491383,0.675612,0.056767344,-0.907171,0.59260297,0.16925204,0.94506025,0.61738586,0.37308633,-0.7690375,0.8318696,-0.048918128,0.07705414,0.6336942,-0.6123962,-0.89011073]},{"bias":0.7510381,"weights":[0.10354841,-0.887177,0.045634866,-0.712306,0.23404515,0.4881636,-0.9773598,0.9099567,-0.9531417,0.9690776,-0.9195204,-0.6296747,0.07285941,0.7357578,-0.37884563,0.69963264,0.099362254,0.19768012,0.40847504,-0.9616518,0.22281659,-0.21814692,0.17050469,-0.3203215,-0.20185387,0.9011278,0.98606944,0.7967136,0.8624532,0.6943195]},{"bias":0.24363959,"weights":[0.041198134,-0.08585107,-0.9675679,0.8245101,0.37088454,-0.803401,-0.2388848,0.8117912,0.8940923,-0.46094054,-0.37644786,0.897104,0.86614347,0.31476128,0.9549377,-0.7894168,-0.5946943,0.14895833,0.67549586,-0.486242,-0.8150537,0.6660669,-0.09574616,-0.35744733,-0.21224797,-0.05008161,0.6128783,-0.7215178,-0.943331,0.32966053]},{"bias":0.37546432,"weights":[-0.9656763,0.5290983,-0.5359239,-0.93385935,-0.17600739,0.1933707,0.76340675,-0.5780348,0.4010688,0.3962692,-0.38371795,-0.16207182,0.7598393,0.5870435,-0.15532005,0.7938156,-0.8644409,0.6863942,-0.02722013,0.11506021,0.9292786,0.6483159,0.9152279,-0.57663053,0.91274524,0.18251884,-0.6603868,0.9470501,0.0017367601,-0.22863662]},{"bias":-0.7320132,"weights":[-0.11419189,-0.9719658,-0.9097483,-0.9654064,-0.097467065,0.4337479,0.84679985,0.5963743,-0.40276474,-0.7691362,-0.24351919,0.3340224,0.123110175,0.6333544,-0.98339033,0.4650122,0.8687179,-0.6906631,-0.6829405,-0.8768029,-0.18211257,-0.13962662,0.6916082,0.090957046,0.3580624,-0.8193548,-0.09418094,-0.18017018,0.33812153,0.2763778]},{"bias":-0.22066295,"weights":[-0.068820596,0.2558018,0.6239805,-0.44100374,0.09773815,-0.64972186,0.23277152,-0.03919351,-0.28562278,-0.93872833,-0.4382283,0.96846175,-0.2618317,-0.07180202,-0.7690871,0.7537992,-0.19467986,0.28228343,-0.3753633,-0.4251029,-0.49302024,-0.73407364,0.6059258,-0.55408424,-0.36351746,-0.55769795,0.37430632,0.7850714,-0.64510775,-0.7011266]},{"bias":0.9909229,"weights":[-0.02692926,0.39303505,-0.28411525,0.16677392,0.55207944,0.67872715,-0.090595365,0.43919146,-0.9408889,-0.15383756,-0.8166423,-0.5713009,-0.5557715,-0.60721797,-0.22366273,-0.44669145,-0.621236,0.6730466,-0.81620526,-0.9130261,0.9531243,-0.9677961,0.64197445,-0.40042728,0.8439126,0.07309663,-0.12826145,0.5407922,-0.46557707,-0.6692381]},{"bias":-0.32880515,"weights":[0.96786356,-0.23145974,0.98786783,0.87825775,0.07926881,0.013319135,-0.36382812,-0.2198199,0.16672695,0.5015888,0.863013,-0.13699281,-0.45547098,-0.39527506,0.109369636,-0.43114942,-0.3363039,0.768065,0.9863355,0.76879954,0.084413886,-0.5438618,-0.5907354,0.99435544,-0.09757817,-0.19826329,0.5630727,-0.35609144,0.17251194,0.14521158]},{"bias":0.6385062,"weights":[-0.7873421,-0.08559978,-0.9194834,0.8857715,0.9527848,-0.77426195,-0.34827942,0.07418454,0.15828168,-0.18342268,0.2243098,0.64588976,-0.93620944,0.34565032,-0.49701875,0.1125263,-0.96062684,0.50416803,0.8179531,0.19559371,0.8388288,0.2732395,0.6607239,0.47326553,-0.82813144,-0.6772113,0.8537426,0.04613769,-0.74819493,0.1710161]},{"bias":0.9720588,"weights":[0.9114804,-0.978807,-0.9256573,0.9778209,0.5690017,-0.94484615,-0.5749678,-0.9012425,-0.4723577,-0.7720058,-0.14142168,-0.2927243,-0.75363135,-0.7240832,0.07317126,0.5549927,0.54390335,-0.062059283,0.24854887,0.107693076,0.400118,-0.16091335,0.10442841,0.9046414,0.62903833,0.56975317,0.3727399,-0.71697164,0.5294142,-0.6720128]},{"bias":-0.7386794,"weights":[-0.54074305,0.6636269,-0.2745611,-0.5636937,0.9867034,-0.47848958,0.36558568,0.09970105,-0.40005988,0.5476074,-0.54384893,-0.31008595,-0.118205905,-0.66871834,0.19545996,-0.5884313,-0.53634685,-0.42406267,0.38708222,0.09065354,0.6512642,-0.78091955,0.15450275,-0.55151886,0.5301902,0.3284682,0.27488863,0.8083916,-0.34401435,0.6187167]},{"bias":0.16159093,"weights":[0.011344314,0.9392774,0.48915207,-0.044348598,-0.42860836,-0.056545377,-0.0845567,-0.4813196,0.51286936,0.5749104,0.8058758,0.21159518,-0.9203136,0.17984855,-0.602642,-0.82806206,0.565366,-0.27876824,-0.8299453,-0.17346132,-0.49126762,0.82778,-0.27234143,0.24732482,0.15764987,-0.1377536,-0.66833377,0.3112539,0.56496835,-0.885324]},{"bias":0.8351898,"weights":[-0.8488524,0.43312323,0.20744884,0.5238917,0.28516304,0.0024217367,-0.0017894506,-0.33932108,0.6075363,-0.89415216,-0.53114384,-0.20322645,0.65333176,-0.6434822,0.86218596,0.5241821,-0.7200968,-0.9773395,-0.5105788,-0.61643976,-0.5514247,0.33461607,-0.8927944,-0.046707034,-0.8764281,-0.13172686,-0.9671595,-0.92909026,-0.81733084,-0.77399707]},{"bias":0.23874342,"weights":[-0.20315969,-0.07296336,0.6497636,0.20273554,-0.97673464,-0.9035034,0.5788791,-0.6927211,-0.9788232,0.90885115,0.3292817,0.81058407,0.63759136,-0.12128794,0.7752824,-0.5267934,0.38740766,0.26911342,0.2688886,0.1876663,-0.6185834,0.22651708,0.12890518,0.23642218,-0.8094456,-0.3676328,-0.19480622,-0.9054382,0.8008106,0.7071357]}]},{"neurons":[{"bias":-0.9502411,"weights":[-0.8230109,-0.5788953,0.3878516,0.38014328,-0.5505039,0.11736834,-0.9866462,-0.9579587,0.6835065,0.56925106,-0.5488221,-0.1643914,-0.9139633,0.6654842,0.24731457,-0.8090532,-0.21497452,0.87157035,-0.7220309,-0.9839804,-0.2699241,-0.17654335,-0.5403225,0.9717405,0.82240725,-0.4475066,-0.71081877,0.68099904,-0.33358854,-0.86354804]}]}]}