{"layers":[{"neurons":[{"bias":0.1775204,"weights":[-0.6896095,-0.7858917,-0.57130736,-0.0120180845,0.38429344,-0.29421538,0.94698477,0.97266847,-0.8120403,0.022420049,-0.095805764,-0.41235155,0.20377147,0.5205836,0.304762,-0.8866422,-0.45732516,0.9789448,-0.83345675,-0.16154298,0.5626273,-0.74198294,-0.5622811,-0.47626156,0.9769585,-0.1662587,0.14590037,-0.70978045,-0.12797582,0.6078768]},{"bias":0.1077162,"weights":[0.36786425,0.29705656,0.8320408,-0.49516624,-0.84521604,0.52868366,-0.09227455,-0.43598503,0.5277362,-0.32438964,-0.615906,0.77394676,0.4259956,-0.93125796,-0.74379015,-0.8973177,-0.93885845,-0.6356604,0.82476115,-0.076085925,-0.7363713,-0.5927098,0.40450606,-0.47804865,0.95741725,0.14157647,-0.962764,0.24134052,-0.9998231,-0.5769929]},{"bias":0.28644,"weights":[0.8714416,-0.0030716658,-0.37182754,-0.878263,-0.6375756,-0.38469905,0.6009083,-0.08910215,-0.4750852,-0.498681,0.057704568,-0.88886255,-0.58739656,-0.73513186,-0.43052524,0.78133464,-0.4683115,0.107380696,-0.013243757,0.5282545,0.9305087,-0.80259943,0.43920386,0.14076987,-0.5121679,0.41666448,0.9139066,0.88286614,-0.8712735,-0.7757249]},{"bias":-0.2745661,"weights":[0.27778637,0.2745961,0.14862001,-0.45636266,0.17551935,-0.64517665,0.42481625,-0.9890363,-0.37402079,0.14391887,0.06895273,-0.37454218,0.2823397,-0.52585,0.97409004,0.20034322,0.7651693,-0.12564719,-0.20218489,0.81097436,0.8839452,-0.20916522,0.37369525,-0.009986043,0.0961231,0.3274051,-0.05511415,0.9618261,-0.66746426,-0.10236656]},{"bias":-0.10510981,"weights":[0.93428934,-0.75997853,-0.15472662,0.04862702,0.6024604,0.4686311,-0.41017193,-0.6935256,-0.6498232,-0.11960868,-0.885288,-0.76246494,0.77656054,0.9016819,0.34659803,0.9330003,-0.5237989,0.21905506,0.6039296,-0.8919041,0.5437508,-0.711411,-0.035431266,-0.5643248,-0.3761353,0.6881993,0.24974215,0.5843598,0.07791579,0.64919496]},{"bias":0.30084217,"weights":[-0.7861433,-0.4285273,0.49558103,0.66144085,-0.32302034,0.5168996,-0.5125434,0.242021,-0.57684726,0.2834245,-0.16964996,0.7910259,0.0012799501,-0.9421544,0.6326306,0.49301875,-0.94605494,0.7921141,-0.98740077,-0.78855515,-0.50721186,-0.21773899,0.8548744,-0.62796354,-0.5198768,0.2547483,-0.25813478,-0.6974907,-0.45987186,-0.8059113]},{"bias":0.72223663,"weights":[-0.2810705,0.25247252,0.6944127,-0.94004184,0.14580023,0.94478506,-0.41870373,0.91764235,0.23023474,0.057451367,0.29412138,0.20410717,0.11499131,-0.7520387,-0.017176032,-0.60017747,0.47797883,0.18837702,-0.50042915,0.6970012,-0.6998227,0.89680123,0.9254563,-0.06970203,-0.32919592,0.29251778,-0.20344913,-0.46816176,-0.8403053,-0.58741444]},{"bias":-0.11821377,"weights":[0.0067430735,-0.8743062,-0.07179635,-0.09955442,-0.95117044,0.3789779,-0.43745744,-0.26657385,-0.74183846,-0.53894037,0.45120943,0.6105007,-0.79053044,-0.10517681,0.92025346,0.68287516,-0.3837828,-0.8316629,0.6770129,0.13726509,-0.57827777,-0.025404572,-0.74952483,-0.12846005,-0.09985866,0.7133263,0.26886067,-0.27605313,-0.62870586,0.4675349]},{"bias":-0.22515047,"weights":[-0.88093686,0.7807908,0.7158544,-0.41409835,-0.17398489,0.1812216,-0.54105014,-0.92533183,-1.0,0.22500288,-0.29182023,-0.07107055,-0.48984736,0.27890098,-0.9278288,0.89999914,-0.0026353598,-0.40580338,-0.30488294,0.43962467,-0.6626516,-0.7557094,-0.60819185,0.20643651,-0.35640806,-0.13576663,0.25541553,1.0,0.8900938,-0.943146]},{"bias":-0.16647613,"weights":[-0.867578,-0.9159868,-0.77647066,0.1503216,0.53953815,0.3413033,0.022494435,-0.4205088,0.46477187,-0.4672862,0.3044027,-0.7563217,0.45141613,-0.8157809,-0.02508559,0.22786275,-0.0499357,-0.24562204,0.9107218,-0.3484487,-0.49461648,-0.35367078,0.025657058,-0.4640579,0.88346505,0.50398827,0.21572429,0.7571151,0.69821763,-0.90418124]},{"bias":0.31419337,"weights":[0.49319473,-0.46152586,0.25631392,-0.28064576,0.35535157,-0.8119292,0.5477984,-0.1259774,-0.50329703,0.9947746,0.64730835,0.059550405,-0.89922357,0.8317171,0.5333574,0.039736867,-0.4418673,0.9604099,-0.71821475,-0.30206317,-0.4972114,-0.74588597,0.6064689,-0.79952985,-0.64824927,0.70982766,0.62176704,0.21629226,0.34952056,0.42553186]},{"bias":-0.4575705,"weights":[0.7091411,0.60392785,-0.3596453,0.441136,-0.8553803,0.7384298,0.06031447,-0.67889595,-0.7037506,-0.42771763,-0.0059059635,0.4033457,-0.25340003,0.11952937,-0.767225,-0.79730916,0.48745453,-0.73085713,0.6020863,-0.13700137,0.32274592,-0.14596015,-0.17189437,0.722028,-0.8952603,0.6821766,0.8871883,0.6560519,0.69422865,-0.62341243]},{"bias":-0.48288935,"weights":[0.42235458,0.44933784,0.2828499,-0.506411,-0.38061947,-0.8614552,-0.33211106,0.22859636,0.69221926,0.3163532,-0.96408415,-0.21901,0.6487155,-0.19708025,0.9898138,0.7517576,0.60364246,0.80197144,-0.50839156,-0.8703955,-0.41118044,-0.6691351,0.07572496,-0.22282088,-0.6028673,0.27752674,-0.55782574,-0.58943796,0.12746969,0.23021773]},{"bias":-0.7971511,"weights":[0.024246097,-0.54665774,-0.59178275,0.85303116,-0.38770592,0.049255252,0.80810046,-0.1212328,-0.36862558,-0.5410859,0.4391824,-0.928703,-0.05903232,0.09310843,-0.04026878,0.26694214,-0.4449181,0.97426033,0.28282154,0.8186848,-0.7192972,0.9854686,0.27170074,-0.012480617,0.88474345,0.20846617,0.5281563,0.70036745,-0.092440486,-0.92117596]},{"bias":0.064763665,"weights":[0.08056724,0.64342546,-0.1896919,0.3687075,0.28464472,-0.12084615,0.6620338,-0.42496103,0.41143623,-0.62385005,-0.55334014,0.5157259,-0.66662407,-0.54793876,-0.5341529,-0.34499568,0.9992857,-0.33355802,0.95222926,-0.53679484,0.18189514,0.9152604,0.32769597,0.7747779,0.31324613,-0.5039653,0.33822906,-0.37340945,-0.9441958,0.9642384]},{"bias":0.7876985,"weights":[0.67335826,-0.5767407,0.91058445,0.87739307,0.00014093518,0.87409854,-0.46734494,0.5355642,-0.8659177,-0.8199759,-0.39561772,0.6412835,0.25711858,-0.30037206,-0.8359246,-0.524311,-0.58566415,0.4214493,-0.40209812,0.85537815,0.2622832,-0.2900204,-0.74810576,-0.44676822,-0.13461626,0.7375033,-0.53696984,0.9060126,0.36336648,0.85631305]},{"bias":0.01114428,"weights":[-0.28327554,0.27966034,0.19715151,-0.7352855,-0.3154332,-0.7928241,-0.003523469,0.6616962,-0.7781794,0.37799776,-0.6193431,-0.83448005,0.5602474,-0.70903826,0.45084238,0.675612,0.056767344,-0.907171,0.59260297,0.48855174,0.32770026,0.614349,0.3224551,-0.733004,-0.045026183,-0.40723008,0.07705414,0.6501349,-0.6123962,-0.8597575]},{"bias":0.5372555,"weights":[-0.9586067,0.6309037,0.004051335,-0.0824641,0.29992563,0.603225,0.4809903,0.4612068,-1.0,-0.8786738,-0.7738354,0.74975085,0.07285941,-0.19658244,-0.7710891,0.29946578,0.32476842,0.23813552,-0.45413107,-0.9616518,0.25150508,-0.009245753,-0.034621596,0.5622761,-0.20185387,0.81947553,0.98606944,-0.90130496,0.867813,-0.36823267]},{"bias":-0.90194845,"weights":[-0.15884554,-0.08585107,-0.16568792,0.3724872,0.69550395,-0.3640563,-0.29369345,-0.4749269,0.35489237,0.5426419,-0.37644786,0.9107427,0.5084584,0.07884586,0.8080418,-0.7446746,-0.55053896,0.14895833,0.8186786,-0.486242,-0.72819096,0.5836611,-0.16780892,-0.66514516,-0.21224797,-0.06283921,0.2598244,-0.13395107,-0.8496437,0.32966053]},{"bias":0.37546432,"weights":[-0.9656763,-0.740031,0.19768679,-0.8418928,-0.17600739,-0.9284117,-0.26702446,-0.6084401,0.4010688,-0.958056,-0.017603993,-0.21585584,0.2561878,-0.21206701,0.64602566,0.9597552,0.90888166,0.6863942,-0.02722013,-0.54640335,-0.8299544,-0.5040826,0.98540854,0.68667245,0.9738187,-0.83912444,-0.22431505,0.9470501,-0.87070084,-0.8540895]},{"bias":-0.7320132,"weights":[-0.17304498,-0.7050519,-0.8848718,-1.0,-0.097467065,-0.47780675,-0.12228453,0.5061112,-0.40276474,-0.6114833,-0.24351919,0.3340224,0.1557897,0.53792465,-0.044784427,0.4650122,0.8687179,0.9993241,-0.5862903,0.8848827,-0.034911275,-0.13962662,-0.5845408,-0.16422355,0.3365421,0.114534974,-0.08027728,-0.18017018,-0.030758262,0.3050946]},{"bias":0.9955883,"weights":[-0.11049234,-0.054588914,0.5720682,0.08791745,0.16719082,0.2659098,-0.8363838,-0.03919351,-0.28562278,-0.93872833,-0.052883744,0.8931668,0.63021946,0.22278011,-0.11995828,0.7537992,0.18038023,0.7710154,-0.15879261,-0.4814473,-0.49265236,-0.73407364,0.6059258,-0.96481967,-0.37044913,-0.55769795,-0.5952744,0.7850714,-0.6926386,-0.6395935]},{"bias":0.6375811,"weights":[0.7831104,0.348817,-0.5683302,0.10708964,0.55207944,0.74001074,-0.090595365,-0.85427356,-0.68524194,-0.15383756,0.7577238,-0.5713009,-0.5557715,-0.82176065,0.6169164,-0.52220285,-0.08476198,0.59938574,0.15251696,-0.62270826,0.7036555,0.7332859,0.64197445,-0.4987593,0.082936645,0.031426962,-0.12826145,0.48691675,-0.4031526,-0.6692381]},{"bias":0.40560806,"weights":[0.96786356,0.15873754,0.98786783,0.87825775,0.07926881,0.013319135,0.55483365,-0.2198199,0.16672695,-0.7339206,-0.868989,-0.10681928,-0.9262831,-0.86739516,0.17940012,-0.49806118,0.4272002,0.84840035,0.9129005,0.7043897,-0.49025744,-0.49245903,-0.5907354,1.0,0.9695225,-0.19826329,0.5630727,-0.35609144,-0.15360844,0.7106497]},{"bias":-0.3681118,"weights":[0.55748343,-0.12485999,-0.9194834,0.8857715,0.57031584,-0.7475729,0.3738197,0.1000729,0.15828168,-0.17384863,0.88405776,0.5429878,0.98680544,-0.7637522,0.8977382,0.18965954,0.689178,0.51281774,0.60118246,-0.04521668,0.49088013,0.825335,0.05630982,0.47326553,-0.82813144,0.8800039,-0.1444596,-0.44305295,-0.74819493,-0.3846807]},{"bias":0.73182344,"weights":[-0.16749084,-0.978807,-0.8872155,-0.3239383,0.5690017,-0.93834716,-0.6195098,0.8802812,-0.5669735,-0.7720058,0.9751072,-0.21272752,0.21769273,-0.7240832,0.07317126,0.62107104,0.65270615,-0.66511583,0.1860088,0.06714953,0.46806204,-0.08760772,0.10442841,-0.9209604,0.83604956,-0.3907675,0.27985096,-0.71697164,0.7988775,-0.96141624]},{"bias":0.38498366,"weights":[0.5598283,-0.050540805,-0.2745611,-0.055645823,-0.6843829,0.9424758,-0.6098394,0.87898135,-0.60066766,0.68728685,0.19171607,0.9792383,0.99268794,0.05557525,-0.89746404,-0.5884313,0.7784269,0.48424947,0.38708222,0.6718056,-0.14952862,0.14761746,0.15450275,-0.13229597,-0.089417815,0.6824951,-0.38068384,0.80415905,-0.36162853,0.6187167]},{"bias":0.16159093,"weights":[0.00895156,0.70432377,-0.65735555,-0.12019164,-0.482218,-0.056545377,0.5310743,-0.49724132,0.63596034,0.5749104,0.8058758,-0.92127585,-0.9203136,0.9959495,-0.602642,-0.50390834,0.58618724,-0.26897568,-0.8299453,-0.22751153,0.43987858,-0.026272655,-0.27234143,0.14881715,0.24557129,0.20850456,-0.021131635,0.3144585,0.5368393,-0.885324]},{"bias":-0.1128,"weights":[-0.8488524,0.34884948,-0.29398888,0.43430203,0.2727905,-0.42668504,-0.0017894506,0.7587476,0.6075363,-0.47333068,-0.53114384,-0.13862821,-0.9728191,-0.046585917,0.849607,0.24433744,0.52231145,0.12725794,-0.5105788,-0.537306,-0.97727203,0.33461607,-0.8337159,-0.046707034,-0.95740277,-0.07630501,-0.9721126,-0.9530813,0.51029015,0.37494862]},{"bias":0.23874342,"weights":[0.36663926,-0.07296336,0.6486506,0.20273554,0.84765697,-0.8257828,0.5788791,-0.6051623,-1.0,0.90885115,0.74090695,0.88740873,0.5637038,-0.028794564,0.7752824,-0.5869241,0.38740766,-0.3135292,0.12886703,0.1876663,-0.66714513,-0.6042294,0.08983639,-0.66653633,-0.8094456,-0.31609496,-0.62403077,-0.0478729,0.7746091,0.6116731]}]},{"neurons":[{"bias":-0.5226533,"weights":[-0.8715291,-0.5853213,0.36635327,0.38014328,-0.62803936,0.07869588,-0.65701365,-0.9579587,0.031962276,0.56925106,-0.5488221,-0.22491747,-0.9139633,0.57966655,0.20629519,-0.6537111,0.06273329,0.77217555,-0.7220309,-0.9839804,-0.2699241,-0.37311643,-0.073070645,0.9717405,0.7856864,0.85864973,-0.13653004,-0.7381611,-0.33358854,-0.35482854]}]}]}