{"layers":[{"neurons":[{"bias":0.3812381,"weights":[-0.3021552,-0.36642998,0.25506282,-0.7431865,-0.6303818,-0.8177643,-0.17221053,-0.6961255,0.2242707,-0.18537906,-0.6842675,-0.63853097,0.7620239,-0.36182794,-0.74517536,-0.14896381,-0.4558861,-0.9474268,0.16619097,0.10112679,-0.9406103,-0.21034738,0.33504117,0.8321414,-0.6720836,0.8709707,0.27202258,0.42886478,0.58648884,0.25910556]},{"bias":-0.57657117,"weights":[-0.79886883,-0.68059814,-0.37304166,0.10707273,-0.8529804,-0.6628117,0.33654654,-0.9126997,-0.087290645,-0.1837014,0.84749484,-0.5735165,-0.18084252,0.34864375,-0.32212824,-0.97870255,-0.7740226,0.57829046,0.5604036,-0.89986205,0.6682112,-0.64588237,0.25893593,0.4173106,-0.9279927,0.11376506,-0.8491497,-0.43619913,0.59059495,0.8952186]},{"bias":-0.88935184,"weights":[-0.6059167,-0.38184708,-0.014638171,-0.8322394,-0.51128405,-0.22169793,0.4328779,-0.48923534,-0.40212008,-0.85823727,0.94375277,-0.26767462,0.77080464,0.4547757,0.08749068,0.55623245,0.010594338,-0.53246284,-0.9573488,-0.083625674,0.045422673,-0.6602113,-0.70824385,-0.947171,0.40985692,-0.9342981,-0.790015,0.6854887,-0.6709547,-0.14453405]},{"bias":-0.67737436,"weights":[-0.34456104,-0.20987213,0.2227023,-0.48584193,0.07518256,-0.702165,-0.8140054,-0.10344422,-0.46885386,0.84735847,0.74173045,-0.99716806,-0.19170463,-0.39054817,-0.4739234,0.003759265,-0.10435432,0.32877028,-0.55445176,0.8099168,-0.7711556,0.10809028,0.3425689,-0.35692185,-0.35940522,-0.7049718,0.20701921,0.94357705,-0.029271722,-0.9872732]},{"bias":-0.4563076,"weights":[-0.5598948,0.89467746,-0.35666397,-0.57646793,0.41380155,0.49849093,-0.9358375,-0.73454285,-0.013665557,-0.15319714,0.9604058,-0.05511439,-0.22437775,0.36333907,0.257519,-0.27966738,0.64408994,-0.22906148,-0.7951169,-0.2071325,-0.84611607,0.97070384,-0.91643333,0.97247124,-0.4472341,0.68590146,-0.5492961,0.09027517,-0.9329922,-0.58859605]},{"bias":-0.012302756,"weights":[-0.47454047,-0.100165725,-0.7998019,-0.2181946,0.6877656,-0.3342542,-0.57808244,0.6245971,-0.71519375,-0.6042258,-0.24955142,-0.98681664,-0.06835568,-0.8619876,-0.33560914,-0.35512802,0.5363357,0.35530508,0.19988573,0.48665464,0.26780546,0.0706321,-0.39100343,-0.19653523,-0.2577992,0.7500124,-0.5436315,0.06660757,0.17374434,-0.570843]},{"bias":-0.74642754,"weights":[-0.18049276,0.69247526,0.42061096,-0.60434955,-0.99917245,0.24710834,0.28524774,0.5128635,0.6875298,0.50544,-0.8975084,0.2547859,0.9952085,0.1598345,0.10339987,-0.8655679,0.85911536,0.8270029,-0.9187238,-1.0,-0.34590578,0.48352063,0.771753,0.2729505,0.7724261,0.7750349,-0.7628119,-0.047056794,-0.17531717,0.21594363]},{"bias":-0.6607373,"weights":[-0.7907316,0.10670173,-0.77375287,-0.35595244,0.560431,0.3209659,0.7926245,0.90471816,-0.08894379,0.00019395351,0.54472494,0.2780453,-0.3076359,-1.0,-0.8619151,-0.30165547,-0.40909666,-0.05077088,0.58131766,0.049129367,0.807889,-0.50958735,-0.26211107,-0.24985015,0.19624937,0.4183582,-0.61515373,0.97876,-0.22107375,-0.24673682]},{"bias":0.9115591,"weights":[-0.9632659,-0.028792262,-0.78781736,0.075183034,-0.21445477,0.9248245,0.8301022,-0.47487682,0.34059513,0.06545099,-0.09822502,-0.4346828,-0.23660767,-0.44316357,0.79303694,-0.5899642,-0.33764666,0.3618201,-0.61304516,0.29745644,0.67082024,0.33806762,0.13363397,-0.9391749,0.88723683,-0.77080655,0.9139027,-0.39786023,0.81079125,-0.51972216]},{"bias":-0.4054901,"weights":[-0.9629934,0.19721735,-0.53425545,0.75183606,0.58637285,0.30964485,-0.9461582,-0.7771661,0.086248994,0.45992178,-0.5926986,-0.3149484,0.2871563,-0.2602455,0.28628552,0.6717582,0.3831967,0.1743921,0.19399339,-0.94744945,0.6550021,-0.6819299,0.5273824,-1.0,0.9544985,0.87721014,0.024585128,-0.74514866,0.82578754,0.10238454]},{"bias":0.24861467,"weights":[-0.4228559,0.61124253,0.46662366,0.9274168,-0.8638787,-0.39807957,0.41309988,-0.099620506,0.4798457,-0.11594784,-0.73314357,0.13148534,0.53841805,-0.6399417,0.7079935,0.31055662,0.58430696,-0.4090802,-0.72140074,-0.36730617,0.014106393,0.74060297,0.5288694,0.3983208,-0.46810907,-0.45667547,-0.24283874,0.10249531,0.39634869,-0.5972118]},{"bias":-0.27401918,"weights":[-0.21352997,0.76129293,0.53946114,0.7291424,0.73756814,-0.32357913,0.5716479,0.68334395,0.07789021,-0.041958213,0.7616183,0.038851857,0.5669675,0.712339,0.7044842,0.6296114,0.8372357,0.7788048,0.8226824,-0.28958634,0.60777766,-0.710469,0.71541923,0.67674303,-0.26546633,0.054818273,-0.7627058,-0.490925,0.38358772,0.82252]},{"bias":-0.2686128,"weights":[0.35403764,0.9296732,-0.72795844,-0.09777415,0.49769318,-0.6209878,-0.7269223,-0.76609206,-0.24990347,-0.293621,0.27941817,-0.03453648,-0.12852776,-0.73235345,-0.17708182,-0.20299566,0.8266363,-0.4097368,-0.65871143,0.3784355,-0.08909679,0.8643558,-0.30901998,-0.052909255,-0.5130083,0.2388101,-0.8688538,0.41517627,0.6123462,-0.052550673]},{"bias":0.35950863,"weights":[0.1637286,0.012242913,-0.6127669,-0.8203814,0.36839092,-0.09074986,0.6522536,-0.50044215,0.2076329,-0.39263162,-0.06441796,-0.34256023,-0.33873552,0.9420631,0.7505407,0.6982224,0.44793928,0.14195502,-0.2355789,-0.7744417,0.5501678,0.31905854,-0.8436457,-0.89341664,0.5245385,0.5107603,0.20758139,-0.32082695,-0.10770823,-0.42714828]},{"bias":-0.18914068,"weights":[0.031476617,0.17553404,-0.42441186,0.1769408,0.812191,0.90263397,0.7594342,-0.7036822,0.7763722,-0.7065569,0.6305101,0.3448001,0.6776974,-0.91000676,-0.098836064,-0.7005911,0.3606633,0.4001488,0.088392854,0.115884185,0.61176205,0.8314305,0.8152156,-0.6402037,0.92178035,0.22174418,-0.3680417,0.9903195,-0.0026295595,-0.60668725]},{"bias":-0.7849314,"weights":[0.7563299,0.813488,-0.18349612,0.14830291,0.09666479,-0.27706236,-0.71970177,-0.32176465,0.80326337,-0.96753263,0.8912811,-0.19383848,-0.3966795,0.3270725,-0.66945195,-0.61754483,0.13189209,-0.8537843,-0.5213224,-0.8665788,0.34404773,0.91977,0.98223495,-0.76528907,-0.779464,-0.6134883,0.6018575,-0.7294822,-0.4871252,0.63231236]},{"bias":0.34880602,"weights":[-0.35525364,0.5830765,0.59000945,0.054530263,-0.34570926,0.8775511,0.019588962,0.95983315,-0.9363798,0.22541556,0.07834375,0.4146465,-0.8555,-0.82892966,-0.8864198,0.8839095,0.99479055,-0.3904292,-0.5496352,-0.98142004,0.92563844,-0.51657146,-0.38914412,-0.39834112,0.71532154,-0.70735955,-0.9296649,0.41972867,-0.59280694,0.6630662]},{"bias":0.83291006,"weights":[0.024011452,0.8539698,0.6535177,-0.74595195,0.115802884,-0.24470401,-0.6766579,0.05460918,0.71633273,-0.7635186,-1.0,-0.20784175,-0.1397034,-0.7525842,0.15851176,0.82108444,0.8413681,-0.0027717352,-0.28381008,-0.9690623,0.78122973,0.6939008,-0.63539386,0.53464115,0.7814646,-0.112260245,-0.7399349,-0.92723346,-0.13548481,0.46738327]},{"bias":-0.6176593,"weights":[0.99591637,-0.8473308,0.61669254,-0.09765828,0.86903477,-0.10211766,0.84676003,-0.29103297,0.5391488,-0.5034945,0.7940652,0.60947967,-0.29817384,-0.2672531,-0.3666423,0.6152587,-0.23082602,-0.23916757,-0.36483735,-0.15266168,-0.19977367,0.018328309,0.12542498,0.24587286,0.7746634,0.72112346,-0.16019869,0.89406633,0.7359385,0.41436708]},{"bias":0.30868423,"weights":[0.20841396,-0.62813807,-0.0066738836,0.59005207,-0.061392665,-0.2758497,0.8712473,-0.8879967,0.27598298,0.31882274,-0.99519086,-0.5075497,0.05172336,-0.3977906,0.8274529,-0.90658164,0.027572036,-0.9482998,0.3224815,-0.39964336,0.77443576,0.210073,0.802913,-0.3341486,0.29217374,-0.9564488,-0.33293217,0.72621274,0.71536434,-0.9093157]},{"bias":0.12887251,"weights":[0.08577441,-0.21091044,0.27420184,-0.40250853,-0.82162595,-0.008500934,0.17123377,-0.08765972,0.82533216,-0.19506133,-0.14547837,0.52849185,-0.11240828,-0.42247623,0.12011707,-0.7716296,-0.9189875,-0.85155916,-0.4638111,-0.27415437,0.8068242,0.84555626,0.5418606,0.20338964,0.94817835,0.9082067,-0.74005485,-0.5556964,0.68298244,0.46842945]},{"bias":-0.06233442,"weights":[-0.88149285,-0.52424705,0.71743083,0.55888885,0.85925794,0.12660897,0.87784535,-0.24743712,-0.8224263,-0.49830002,-0.4101562,-0.4877252,-0.31042236,-0.254914,0.4003382,0.90917414,-0.5912749,0.036681533,0.6874249,0.31184733,-0.3599369,-0.24153936,-0.74585426,0.79790354,0.419937,0.45676267,0.16852844,-0.026200652,-0.7026101,0.14196718]},{"bias":0.992146,"weights":[0.17965376,-0.39457768,-0.20606297,0.03842008,1.0,0.5261407,-0.55449575,0.82985735,0.5906732,0.64208454,-0.20637596,0.22791922,-0.4687146,0.16497481,0.5385318,-0.17068484,0.28853714,0.112577125,-0.04502356,-1.0,0.43901145,-0.84854364,-0.55181354,0.62634444,0.006752372,-0.7481284,-0.7234175,-0.15919934,0.48733222,0.70081234]},{"bias":-0.1979214,"weights":[0.2704407,0.52778983,-0.87035894,-0.9088788,-0.34503812,-0.7118859,-0.69632816,0.35627759,-0.9034429,0.6503911,0.66923755,-0.5905112,0.6141465,-0.18418887,0.64273286,-0.24935281,0.42162836,-0.8691201,0.522262,0.037946112,-0.44514054,-0.21382153,0.06847235,0.9984751,0.17009944,-0.5108747,0.76618505,0.16183245,0.24311912,-0.55587214]},{"bias":-0.025000691,"weights":[-0.34704942,-0.06598132,-0.778226,-0.27730578,0.037704125,0.7580707,0.42793664,-0.51992226,0.5540807,0.47393763,-0.529815,-0.8936565,-0.01310198,-0.8729956,-0.60455054,-0.9034605,-0.007912993,0.0039898604,-0.8283063,0.54603124,0.89292955,0.6051769,0.061705947,0.74061966,-0.7259836,-0.36629313,-0.6958902,-0.16311991,0.7949757,0.21936262]},{"bias":0.9961331,"weights":[0.025622614,0.40792453,-0.7731643,0.39930984,-0.66993546,0.3912531,-0.02586162,0.40491188,-0.002688527,-0.19209826,0.9126849,-0.40657014,-0.09316528,0.19829547,0.8063412,-0.81117594,-0.6233849,0.7257786,-0.9172385,-0.1540736,0.8548705,-0.9108076,0.75658464,0.3758186,-0.8820889,0.43509367,0.8266256,-0.15764582,0.15354264,0.9108207]},{"bias":-0.002485156,"weights":[-0.83462405,-0.7746184,-0.36808777,0.73168755,0.19504312,-0.8790262,0.1564132,-0.7618947,0.2275871,-0.37948698,-0.592129,-0.67891145,0.4920656,0.9345474,0.2626196,0.6389549,-0.67193,0.25786006,0.7796309,0.12863123,0.25617373,0.2229194,0.24290916,0.8871355,0.7433636,-1.0,0.40111935,0.13561904,0.58523756,-0.10782206]},{"bias":0.81744504,"weights":[-0.5406787,-0.14861,0.8863628,0.4249884,0.7446482,-0.8789821,-0.49060267,0.090939544,-0.5543665,-0.97849154,-0.7057451,0.5664972,-0.56974286,0.032143712,0.6704457,0.9349425,-0.7806611,-0.83290964,-0.9441228,0.03003347,0.2770532,0.14178121,0.49034178,-0.6986418,-0.19850051,0.833736,0.43340778,-0.5387668,0.49044812,0.17657506]},{"bias":-0.075879455,"weights":[0.48746073,0.5106066,0.10490053,-0.05776775,-0.53130436,-0.25356263,-0.34338945,0.09480059,0.16246784,-0.49157235,-0.26873583,0.7425539,0.10886529,0.17087758,-0.7611911,0.6487148,0.5379002,0.16497147,0.0008581877,-0.01685483,-0.13182652,0.9883137,0.87881804,0.7892108,0.040935397,-0.99497485,0.82985055,-0.37370414,0.37349904,-0.8027439]},{"bias":0.40561354,"weights":[-0.86050797,-0.6373465,-0.6367085,0.47949326,0.6245339,-0.91762924,0.24039662,0.3364347,0.5529556,-0.24576342,0.4897288,0.45569232,0.5387367,-0.71430254,-0.5833176,0.87476397,-0.8813548,-0.6043484,0.0727146,0.8810477,0.08863318,-0.19758141,0.7022034,-0.33210558,-0.31918973,-0.9774914,0.96733403,-0.03194511,-0.7974067,0.44096458]}]},{"neurons":[{"bias":-0.6745572,"weights":[0.55550885,0.22193897,-0.75761676,0.023008943,0.36325014,0.040878274,0.85854065,-0.1652211,0.651772,-0.65464044,0.5504265,0.49876463,0.05897844,-0.6638882,0.11930525,-0.91506726,-0.3346426,-0.77014756,0.461954,0.066222996,0.11850822,-0.8233166,-0.14461493,-0.506718,-0.3133282,0.7179165,0.9003916,0.3290168,0.7445538,-0.4997921]}]}]}