{"layers":[{"neurons":[{"bias":0.62001824,"weights":[-0.7137196,0.41208375,0.5588999,0.39856112,0.648386,-0.8377476,0.13324799,0.9586065,-0.042106748,0.09072745,0.6541072,0.88495755,-0.09907496,0.5570063,0.9213455,-0.04586065,0.7811122,-0.20412004,-0.66632104,0.60405684,0.5519421,0.61207485,-0.030440927,0.48418844,0.025015712,-0.027148366,-0.41521195,-0.80647516,0.61658525,0.50377077]},{"bias":0.64538574,"weights":[0.022555709,0.54755235,0.67390466,-0.69651365,0.90488625,-0.29134005,-0.9171469,0.25390446,-0.45131773,-0.8121574,-0.25669616,-1.0,0.015339971,0.6290312,-0.9212005,-0.14850299,0.39949715,0.77450085,0.097821385,0.35852408,-0.52122575,0.025906205,-0.28350824,0.39810306,-0.95610833,0.335019,-0.206442,-0.95000625,-0.44079542,0.7704371]},{"bias":-0.20691931,"weights":[-0.86826897,0.55594134,0.15470016,-0.5449118,0.81177354,-0.11443055,-0.029345393,0.8685868,0.920779,0.92395115,0.43854916,-0.5730328,0.99961686,0.55473113,0.16047141,0.4198345,-0.48686284,0.68359804,-0.45591956,-0.5748834,0.58006716,-0.17078245,0.63584703,0.9769459,0.6451373,-0.51099986,0.66850245,-0.44585103,0.8504088,-0.11070073]},{"bias":0.935375,"weights":[-0.26504606,-0.40835637,-0.08536979,0.42125404,0.80454326,0.861449,-0.4680637,-0.022326589,-0.74018645,-0.094456665,0.67860746,0.55962896,-0.26050466,-0.18024507,-0.6330991,0.506569,0.6019214,0.59819865,0.20693386,0.82756054,0.44178903,-0.36724013,-0.43838352,0.30862415,0.2631532,-0.19534433,0.4606005,0.7686734,0.81458855,-0.34751195]},{"bias":-0.016663909,"weights":[0.7994981,-0.92441845,-0.28337806,-0.6921749,0.4129938,-0.7072923,-0.88811797,-0.89903647,0.6418824,-0.35217303,0.61183786,-0.383866,-0.097902894,-0.15947926,-0.16839528,0.60009193,0.04947467,-0.26075956,0.75228333,0.599751,0.4244988,0.7758815,-0.51888436,0.6270265,-0.48099226,0.0515455,-0.82865214,-0.4975056,0.25869024,0.16238582]},{"bias":-0.11856544,"weights":[0.32347715,0.87522876,-0.73942584,0.30945194,0.15159452,0.77027464,0.32500374,-0.108136296,0.11485235,0.074976325,-0.69345474,0.36785734,-0.14675629,-0.44558448,-0.65490675,0.08665224,0.8339877,0.87614155,0.23494256,0.45086062,-0.07582152,0.73697424,0.6565859,0.48019636,0.55872035,-0.5142004,0.8983455,-0.8946681,0.019411683,-0.9080548]},{"bias":-0.87694407,"weights":[-0.24612343,0.5101476,-0.7385752,0.61822844,0.4939474,-0.92817473,-0.41249412,-0.20673096,0.3181635,0.6529763,0.704026,0.28052104,-0.97480494,-0.6037404,-0.78735185,-0.2584769,-0.12883651,0.36953557,-0.67951083,0.6470599,0.62336373,-0.96581554,-0.2001487,0.73553944,0.68805003,-0.9016769,0.73360205,-0.14500815,0.39470804,0.23330009]},{"bias":0.22031581,"weights":[-0.8450482,0.30075157,-0.6007716,-0.44270843,-0.562699,0.043271795,0.7240522,-0.014449716,-0.50164646,-0.005186677,0.67451715,-0.14890897,0.091294184,0.9911988,0.7012911,-0.16713557,0.7998313,-0.12602982,-0.352055,0.9932637,-0.12169348,-0.19763172,0.36477172,0.9811983,-0.10597111,-0.7859024,0.69297934,-0.30833477,-0.52002543,-0.7187624]},{"bias":0.70082664,"weights":[0.29279196,-0.9619119,-0.16914761,-0.84370613,-0.25665182,0.7100706,0.77692366,-0.77312493,-0.4761824,-0.040261142,-0.24200517,0.5330457,-0.49084896,-0.1507529,-0.012001157,0.23503387,0.49905217,-0.110204816,-0.22164857,0.050017968,0.5593728,0.14924467,-0.84085965,-0.93975306,-0.29007548,-0.59215707,-0.6892116,-0.13726237,0.44780156,-0.9310196]},{"bias":-0.6990576,"weights":[0.45636475,-0.49337047,-0.7654853,-0.018790364,0.6498654,0.93303573,0.34794486,0.9319813,-0.12647808,0.034795642,-0.5956697,0.08714477,0.580904,0.14418423,0.22033878,0.7557156,-0.6686636,-0.5304846,-0.8386767,-0.84413314,-0.61681455,0.38709667,-0.42254278,-0.6179169,-0.19997677,-0.3731286,-0.7726116,-0.618935,0.79320157,-0.13444936]},{"bias":-0.98912954,"weights":[-0.55505526,0.32287872,-0.8639895,-0.78236103,-0.6362586,-0.27899426,-0.7129767,0.61240673,-0.57883,0.014480948,-0.09502852,-0.1821351,-0.061190598,0.75114226,-0.3254332,-0.4863264,-0.012101725,-0.51063555,-0.35963744,-0.8195641,-0.73682296,-0.7661961,-0.7334516,-0.09577368,-0.58974737,0.042202592,-0.03473556,-0.26886696,0.9679988,0.57665324]},{"bias":-0.25972837,"weights":[0.9595848,1.0,0.2791561,0.06506431,0.67400885,0.15443838,0.33193925,-0.69051456,0.3387597,-0.26539654,0.5184369,0.91698575,-0.91325593,0.5581939,-0.13398159,0.50698566,0.8550966,-0.016449675,-0.6391779,-0.29941362,0.9514365,0.20302808,0.33736694,-0.8944862,0.63974595,0.8362858,-0.529293,0.95549434,0.46088517,0.79226995]},{"bias":-0.81190896,"weights":[0.4814049,0.51705074,-0.23417497,0.2599808,0.8299668,-0.00092852116,-0.22512615,0.6877632,-0.47010657,-0.48487252,0.46113288,-0.29057115,0.94690275,0.14071977,-0.22561067,-0.6937835,-0.5710177,0.3537949,0.83101416,0.684137,0.09894836,0.31054902,-0.6422062,-0.3129179,0.90995646,-0.22575103,-0.9848225,-0.17907417,0.9815688,0.4328643]},{"bias":0.9316387,"weights":[-0.58133,0.5288665,0.29521206,0.88409925,-0.8547237,0.13319623,-0.9057825,-0.58113986,-0.12081439,-0.7384778,-0.63715357,0.24344361,-0.35874432,0.8867464,0.95662427,0.1361891,-0.80864644,-0.15820158,0.35460445,0.8968847,-0.64038044,-0.52087134,0.56339115,-0.23011005,-0.66452575,0.86898446,0.48709115,-0.7770418,0.6690445,-0.099328876]},{"bias":-0.71199536,"weights":[0.738266,0.4819556,-0.6341944,0.7980591,-0.3880369,-0.26737857,-0.28676605,0.95066,-0.38547248,0.99205065,0.9445243,-0.5028977,-0.30337763,-0.80423474,-0.32524985,0.7658009,-0.7113455,0.58815765,0.9642134,-0.27491495,0.48542845,-0.791009,-0.23306048,-0.7674751,0.79043436,0.8300121,0.35512555,-0.34624904,-0.43182033,0.8372214]},{"bias":0.6210184,"weights":[-0.02799309,0.6980097,0.6390977,-0.026930042,-0.58313674,-0.4947824,0.5524777,-0.8593123,0.044977285,0.7828903,0.39644277,0.6295573,0.50577784,0.81643224,-0.4445352,0.89365816,-0.030742764,-0.15615794,-0.7948556,-0.28919846,0.7993574,-0.26692432,0.012660623,-0.22131574,0.078494176,0.93827224,0.5105958,0.61314845,0.100497365,0.06939591]},{"bias":-0.6388843,"weights":[-0.74608403,-0.073135495,-0.9841833,-0.47924894,0.99320555,0.6757691,0.17063755,0.34823126,0.692024,0.7882173,0.6674806,-0.6787393,-0.65584683,0.45799387,0.42266548,-0.85646033,0.87376326,0.37564743,-0.48094282,0.92107147,0.5477395,0.47246397,-0.46163887,0.57772183,-0.6552539,0.72677803,0.6564939,0.15475667,0.19189823,-1.0]},{"bias":-0.3694157,"weights":[-0.349369,-0.97285104,-0.67685056,-0.62542343,-0.6148397,0.044628024,-0.38393277,-0.71269536,-0.88965774,0.58041215,0.5106742,0.8724301,0.76554203,-0.47966307,0.36335003,0.8989253,0.1662946,0.0920046,-0.6078519,0.49907625,0.6718114,-0.77524704,-0.51050586,0.18792829,0.49771821,-0.45521253,0.32248607,0.62306786,-0.77193165,-0.6790724]},{"bias":0.5917051,"weights":[-0.6816659,-0.5099083,-0.14182675,-0.2607214,-0.10551822,-0.5671057,-0.57150465,-0.49525064,0.18818176,0.103089966,0.13532221,0.52269775,0.8491318,-0.05558876,0.23664376,-0.57653064,0.5663488,-0.69179606,0.8169925,-0.013385043,0.5345123,0.031633325,-0.3301658,0.08362327,-0.25779194,0.5099087,0.92042947,-0.9204736,-0.6301105,0.77726746]},{"bias":0.3714677,"weights":[-0.41762036,0.7870834,0.9424883,-0.5702786,0.47520027,-0.54276717,0.03805571,-0.16660345,0.28223193,-0.9022763,0.20224726,0.40641582,0.4439572,0.72042143,0.5205035,-0.413145,-0.9665437,0.17064488,0.74047685,-0.9847388,-0.44126529,0.36340037,0.332981,-0.55374724,0.8257265,-0.26529998,0.519387,0.21062696,0.13415945,-0.3264091]},{"bias":-0.41999143,"weights":[0.9939487,-0.9861951,-0.28475732,-0.017963525,-0.69300723,0.67069817,0.7208258,-0.5368553,0.31793225,0.7862997,0.07453687,1.0,-0.23100555,0.67056036,-0.26331562,-0.5752587,0.7769296,0.44355375,-0.108555436,0.92894983,0.19787347,-0.115270734,0.7725291,0.7517245,-0.8830519,-0.46466917,-0.7737944,-0.645658,-0.68331265,-0.5762114]},{"bias":-0.33190864,"weights":[-0.46298522,0.7652404,-0.3715183,-0.47458318,0.3293374,0.93531823,0.7914904,-0.53126687,0.4412676,0.63948435,0.46314725,0.8692425,0.18026905,0.22716725,0.30667293,0.64619344,-0.32990497,0.58725715,-0.21941364,-0.9895191,-0.12160814,0.86792946,0.43383634,0.051153064,-0.9961511,-0.13586289,0.03162968,-0.31903595,-0.83932763,-0.83509094]},{"bias":0.49641788,"weights":[0.07609284,-0.80448675,0.32774532,0.67037725,-0.077808976,-0.08848512,0.8538302,0.49603808,0.0029376745,-0.89125705,-0.46000618,0.40197122,0.643584,-0.4518307,-0.7412796,0.51779985,-0.42804712,0.7714516,-0.1417694,-0.75625896,-0.32511538,0.040263534,0.10249436,0.13527477,-0.90715826,-0.6879649,0.18535763,-0.2769239,0.42110753,0.59842426]},{"bias":-0.8337543,"weights":[-0.79094577,0.17194521,-0.80834126,-0.6836419,-0.3532142,-0.2260884,0.3232423,0.14467624,0.18074977,-0.56408566,0.9067255,0.77599955,0.34582436,0.14565122,0.69390935,-0.77612066,-0.92147166,0.4348179,-0.8859904,-0.6960561,0.3176261,-0.6950035,0.2520939,0.677758,0.8549762,0.55100083,0.038652398,-0.17796642,-0.19006033,-0.2991597]},{"bias":0.507828,"weights":[0.32864714,-0.78452337,-0.42618382,0.9425473,0.040082812,-0.6012725,-0.8366709,0.022848248,-0.8062291,0.9187715,-0.66361094,-0.737846,0.26282585,0.27210498,-0.6484721,0.19263804,-0.95056844,-0.29361814,-0.070748925,-0.2615754,-0.2375207,0.6825501,-0.07634914,-0.4754171,-0.01910486,0.4218652,-0.35629624,0.7955621,-0.13217,-0.91555786]},{"bias":0.12010515,"weights":[0.12290394,-0.35940403,-0.4381587,0.12819207,-0.46176046,0.85792536,0.65701675,-0.220729,-0.21304402,0.3606161,-0.3206635,-0.50862974,0.37873805,-0.4925694,0.62225986,0.27452123,0.8433254,0.60618544,0.6845627,0.6948595,0.44198668,-0.44267768,-0.46907634,-0.63498545,-0.69608307,-0.25168297,-0.57760483,-0.3919159,0.45108378,0.5216315]},{"bias":-0.11663926,"weights":[0.82400703,-0.3589129,-0.6140667,-0.5924375,0.046413302,0.59088516,-0.5687453,0.4987581,0.888446,0.831903,-0.12414987,0.7653693,0.119089484,0.8626182,-0.54031616,0.8045478,0.9331522,-0.32320064,0.627656,0.74995565,-0.3064446,-0.009098887,-0.32883924,-0.47450608,0.014336705,0.36786497,-0.008066528,0.6646702,0.92869115,-0.7547078]},{"bias":-0.045426488,"weights":[0.4391332,-0.01917398,0.041397214,-0.54315346,0.2054187,-0.22239506,0.30329996,-0.840441,-0.1863023,0.78882265,-0.8065684,0.9204545,-0.675397,-0.20354784,0.70895004,0.043175656,-0.5901417,-0.124320626,-0.946851,0.7117517,0.5997,0.18373907,0.82922196,-0.43356484,0.4439987,0.57571626,0.6988611,0.99613166,0.3651518,-0.98627543]},{"bias":-0.36135596,"weights":[0.039915204,-0.1910249,0.97059846,-0.1576482,-0.8044088,-0.6118545,0.639097,-0.31568688,0.12133372,0.82282025,0.5604234,-0.16635,-0.34258336,0.48269236,0.14952958,-0.49362177,-0.27574748,-0.20659721,-0.8437206,0.22109115,-0.9893377,-0.79577273,0.022012591,-0.8766725,0.34851587,0.371997,0.26189125,-0.8208778,0.34988382,-0.7331489]},{"bias":-0.44529742,"weights":[0.20308653,0.6807177,-0.019229934,0.99180436,0.6090877,0.3480953,0.42603743,0.65009594,-0.79410887,0.55529916,0.32802713,0.7139659,0.88321567,0.043198466,0.7139952,-0.38923877,0.76890016,-0.9115756,0.13125135,0.21015899,-0.3093905,-0.048624873,0.7712071,-0.5585564,0.46914336,-0.60035795,-0.42682427,-0.50570935,-0.5669656,0.7809608]}]},{"neurons":[{"bias":0.37432683,"weights":[0.6542077,0.81960154,0.4906073,0.091149144,-0.02064979,0.82644916,0.2276684,0.4604057,0.048760533,0.47222668,-0.36556584,-0.38108885,0.21068347,0.22842586,-0.34691614,0.59767175,-0.36039704,-0.17624366,0.7141905,0.7378863,0.7208133,0.8619827,0.2911018,0.16199744,0.76811576,0.75154305,0.32324952,-0.10698664,-0.8068378,-0.5649075]}]}]}