{"layers":[{"neurons":[{"bias":-0.2573194,"weights":[-0.16378772,-0.052055717,-0.33612746,-0.64038706,-0.1775626,0.76991296,0.8960552,-0.505572,-0.9804237,0.4005431,0.1708554,0.4140097,-0.12042725,0.92129374,0.45831263,-0.7092793,0.76661825,0.82130885,-0.089606166,-0.61514515,0.9921274,0.64012384,0.3055414,0.4997214,0.830894,0.19233787,0.069636226,0.45030105,-0.11904585,-0.26048845]},{"bias":-0.73942804,"weights":[-0.3816933,0.12720454,-0.60469836,0.20506585,-0.22312605,0.25287735,-0.91472983,0.52706933,0.9259107,-0.9453194,0.649544,0.021065593,0.94519687,-0.62848043,-0.45446438,-0.19449413,0.6131072,0.92835236,-0.81423926,0.48851097,-0.4936127,0.6670997,0.4374951,0.43120682,-0.26860803,-0.9235363,0.9463093,0.9068227,-0.14166296,-0.059671283]},{"bias":-0.9151325,"weights":[-0.6685829,-0.95647264,-0.8816068,-0.37029904,0.05846417,-0.25701207,-0.47640747,-0.959049,0.5756993,0.7289753,-0.17674601,0.15237391,0.7630732,0.40180457,0.92596793,0.11406505,0.16602623,0.6875937,-0.2771284,-0.8644867,0.24779594,-0.68008137,-0.4449963,-0.6656673,-0.5967075,0.097871184,-0.5368404,0.8582082,-0.38338894,-0.36978954]},{"bias":-0.566163,"weights":[0.5354779,0.7008314,0.61458373,-0.58982605,0.7558031,-0.9224801,0.38739717,0.82758474,-0.2522673,0.8451717,-0.74952507,-0.30610126,-0.30372757,-0.9610126,-0.8586409,-0.79443645,0.0030449629,-0.8810673,0.080008626,-0.4446568,0.37592137,0.28457963,0.4303254,0.13900936,0.020201087,-0.28071398,0.6540792,0.6884618,0.15848291,-0.12940753]},{"bias":0.06854665,"weights":[0.8148024,-0.34808272,0.91723704,0.9775524,0.7940781,-0.75154734,-0.117513776,0.92539096,-0.053483367,0.52540565,0.74798584,0.485947,-0.98175144,-0.7000272,0.8858776,0.1620928,0.85070467,0.34206355,0.9191227,0.37641466,0.0608114,-0.9555099,0.9870169,0.5632348,-0.460746,0.66186666,-0.62871933,0.5709379,0.9534302,-0.5508117]},{"bias":-0.5641703,"weights":[-0.8743012,-0.31017298,0.94820714,-0.8930266,-0.8546765,-0.0046161413,0.7221432,0.6822965,0.66480136,-0.1440624,0.74249196,0.6181717,-0.3394248,0.09975779,0.15608251,0.09933245,0.66981006,0.7775302,0.64631534,0.35037792,-0.7812159,0.70579743,0.11003435,0.28747284,0.710804,0.67342544,0.35368574,0.5109434,0.29173028,-0.44053882]},{"bias":-0.39564556,"weights":[-0.6872668,-0.07767713,-0.18565023,0.12846959,0.018022895,-0.5930638,0.05443442,-0.9256978,-0.569771,-0.46492547,-0.2747864,-0.33291262,0.046650767,0.7711644,-0.34597462,0.028858304,-0.5262384,-0.48936528,-0.7178297,-0.39128846,0.057879806,-0.62865543,0.7496166,-0.99385595,-0.14008057,-0.15803444,0.9670458,0.7459521,0.1561414,0.60590506]},{"bias":-0.8968036,"weights":[-0.39800376,-0.06592548,0.5727236,-0.61955494,-0.3110568,0.010160565,0.15338552,-0.7563398,0.7475178,-0.744848,0.46759188,0.8321631,-0.92793417,-0.45002002,0.90804434,0.052995086,0.4635805,0.8337159,-0.5896372,0.5042193,-0.63738036,0.73835516,-0.80157375,0.9222002,0.95522714,0.19244039,0.2361356,-0.5434043,0.5482125,0.68241596]},{"bias":-0.9533675,"weights":[0.465335,-0.4128098,-0.89922047,-0.4399764,-0.19957292,-0.92486525,0.01873219,-0.7407448,-0.078000665,0.06379783,0.98625684,-0.6962571,-0.59864825,-0.20382893,-0.62503767,-0.7298708,0.12890136,-0.9118631,-0.7789111,-0.5538358,-0.7431655,0.9294956,0.3085128,0.18272126,0.8864336,0.6037073,-0.9541695,-0.004701972,-0.40158314,0.7828202]},{"bias":0.73357916,"weights":[-0.054716468,0.9507065,0.416633,0.75716376,0.81380415,0.037203193,0.23197854,-0.64540815,0.6303983,0.67043996,0.9060459,0.8515885,-0.6031367,0.630528,0.93306017,-0.08368766,-0.93467546,-0.7973597,-0.29167598,-0.78862643,-0.13467538,0.1804949,-0.069358945,0.9657397,0.93614745,-0.9433274,-0.15786016,-0.8687351,-0.49986166,-0.63874936]},{"bias":-0.38643044,"weights":[-0.9958172,0.088086724,0.20516098,0.7669883,0.34253347,0.6389601,0.9574828,-0.42050618,-0.23634946,0.3665222,0.9816141,0.9969952,-0.73136973,-0.5799739,-0.093254685,-0.28513044,-0.65769863,-0.21140134,0.3350302,0.37225306,0.3861524,-0.14426911,0.47469652,0.68901205,-0.7668085,0.09179485,0.36335576,-0.17604125,-0.09894717,0.19312918]},{"bias":-0.6973572,"weights":[0.16240108,-0.27988976,0.4975096,-0.4547338,0.7256801,0.16917694,0.2925564,0.10508549,-0.08354795,0.57511115,0.9625764,-0.49780124,0.41652668,-0.33317012,-0.9788201,0.7801051,0.40034807,0.60921764,0.7253394,-0.25471514,-0.23717368,-0.17226708,0.10774171,-0.6855116,0.6983285,-0.13399088,0.81835485,-0.6502595,-0.9798336,0.45849955]},{"bias":-0.011069417,"weights":[0.97157526,0.79213357,-0.9034412,-0.8646102,0.30210483,-0.77555084,0.6913314,-0.8858812,-0.76849437,0.08842409,-0.64088464,-0.13196242,-0.49585432,0.89988375,0.3535484,-0.44272178,-0.392183,0.54773974,0.34580386,0.48039663,0.16231668,0.9607079,-0.20464122,-0.71149564,0.13030899,0.17772257,0.12482369,0.57617307,-0.52868336,-0.0008081198]},{"bias":0.8975067,"weights":[-0.069188,0.34870112,-0.4384293,-0.20016587,0.050982118,0.68435717,-0.43168133,-0.012487769,-0.9854598,-0.4801609,0.10419643,0.95770454,0.40398037,-0.3541152,-0.42043728,0.19551837,0.40976465,0.58823967,0.104899764,0.6489532,-0.45041054,-0.3456704,-0.11835158,-0.94358516,0.7693465,-0.8841107,-0.5391397,0.884109,-0.51238245,-0.6792979]},{"bias":0.9838412,"weights":[-0.3827352,-0.1689688,0.27296793,0.79170084,0.18645799,-0.9246993,-0.13443029,-0.22553885,-0.27783173,-0.49677366,-0.42453307,0.18196332,0.36339223,-0.4934346,-0.43153614,0.42815173,-0.42984122,-0.9529128,-0.93688107,0.9764662,-0.7882221,0.6038549,0.99407625,-0.958374,-0.01670587,0.8787117,0.93393564,0.631119,-0.039110303,-0.15101755]},{"bias":-0.30023807,"weights":[0.59119534,-0.813401,-0.3256864,0.87930274,0.3626634,-0.8461473,-0.37563962,-0.83037853,-0.3214342,-0.50784105,0.032204032,-0.18547904,-0.10571015,0.18156254,0.5636275,0.5068519,-0.10414708,-0.8771739,0.48891246,-0.73602295,0.15159214,0.7243457,0.9272151,0.77092886,0.4694711,-0.9697013,-0.30113572,0.602993,-0.36731595,0.28347003]},{"bias":0.39996994,"weights":[-0.31190842,-0.7263782,0.9848249,0.85126686,0.9647198,0.29277146,-0.89184237,-0.5319757,-0.86070347,0.20494378,0.6944907,-0.3971457,-0.17280424,-0.691149,0.20006001,-0.98931766,-0.79013515,0.48852527,-0.19341362,0.6671269,0.49051344,0.51616716,0.68879724,-0.66521764,0.7164805,-0.82964635,0.90708137,-0.65217185,-0.754266,0.88972974]},{"bias":-0.5746991,"weights":[-0.65525174,-0.08985627,-0.85445094,-0.8329263,-0.8615346,0.2618283,-0.060335994,0.013359189,-0.7819102,0.46078122,0.47825658,-0.66030407,0.07973993,-0.3372242,0.74481225,0.873049,0.6181915,-0.7993634,-0.10438216,0.3924874,-0.28946584,0.38368165,0.558681,0.951416,-0.7476094,-0.61319774,0.06667507,0.142681,-0.5226261,0.28218853]},{"bias":0.47260368,"weights":[-0.018923402,0.1443206,-0.4635393,0.95212126,-0.7008679,0.25136912,0.72265935,-0.8924997,0.005077958,0.2876507,-0.40812653,0.27281988,0.25499046,0.34648764,-0.53114265,0.25198042,0.6854079,0.38562453,-0.28630394,0.3003863,-0.52602714,0.22623122,0.4973935,0.5078535,-0.23862422,0.5382781,0.972342,-0.084032655,-0.6169779,0.44952023]},{"bias":-0.37615818,"weights":[-0.36549658,0.5222235,0.20828784,0.7398112,0.05180967,-0.89664745,-0.79596806,-0.71630764,0.66028833,-0.4564523,-0.59469837,-0.68846345,-0.36091727,0.36360967,-0.32010406,0.6067574,0.2032057,-0.6933017,-0.5592882,0.75287795,0.4144491,0.7076132,-0.5115301,-0.14626873,0.50225925,0.102693915,-0.13592756,-0.09681952,0.28507555,0.01563561]},{"bias":-0.8861232,"weights":[0.058695436,0.24144232,0.20938289,-0.7429395,0.81497145,-0.3561241,-0.18906438,-0.80770516,-0.41903037,0.8187394,0.5986142,-0.91474724,0.8566606,0.82225585,-0.06638682,-0.40227383,-0.6052155,0.021362424,0.37986314,-0.5550727,-0.35404676,0.7860668,-0.14361751,-0.07006085,-0.9194181,0.36296046,0.53561187,-0.032361865,0.2745551,-0.40731138]},{"bias":0.84349203,"weights":[-0.49680132,0.66485333,-0.4858784,-0.10159004,0.17035902,-0.16224015,0.95075464,0.06254876,0.115035415,-0.577218,0.5453558,0.5189514,-0.16303384,0.87949634,-0.2984559,-0.81833935,0.570065,-0.7348151,0.8244264,-0.23214042,0.4820217,0.7690871,0.7858932,0.2956468,-0.3288297,0.2974044,0.38270104,0.77649164,0.43474352,-0.17241395]},{"bias":-0.23667467,"weights":[-0.5791866,0.75011206,-0.3931641,-0.21550763,-0.8904109,0.40849626,0.8073404,0.29167926,0.53682375,0.51226497,0.543345,-0.86221457,0.43182957,-0.42621845,0.30128968,-0.6715658,-0.046622396,0.14235985,0.4114312,-0.5767123,0.9241133,0.66820216,-0.9709542,-0.27272457,-0.25040787,0.6163683,0.118442655,0.36820042,0.21436846,-0.69089866]},{"bias":-0.03791845,"weights":[-0.988508,-0.6311021,0.43195188,0.7560153,0.38029563,-0.2628042,0.9622395,-0.25747246,-0.97163343,0.2007314,0.75854754,-0.25093406,0.8811343,-0.275706,0.14412344,0.5328467,0.9768162,0.31892478,0.5482831,0.6981759,0.4733609,0.14650619,-0.94010663,0.58879876,0.42863333,-0.58115953,0.57998013,-0.045437694,-0.26767343,0.7147591]},{"bias":0.25038946,"weights":[0.24524057,0.07125771,0.8993106,-0.73207307,0.92399955,-0.53680795,0.6572068,0.83422446,0.67943907,-0.041788697,-0.39720196,-0.17116201,-0.9728241,-0.8307338,0.23277724,-0.22830021,0.14646304,0.08614957,-0.5056216,-0.4429173,0.6520791,-0.16567886,-0.06910622,0.6156304,0.5200169,-0.07885635,-0.7663412,0.0017215014,-0.29923218,0.25850022]},{"bias":0.7939303,"weights":[-0.11953294,0.45345724,-0.39377302,0.8150921,-0.16400564,-0.7253897,0.9150653,0.4702257,0.91499734,-0.5901751,0.2666384,0.45173872,0.9255526,0.9646101,0.136711,-0.91768026,0.71000624,0.3548311,0.02415669,-0.7404885,-0.32105345,0.7114928,-0.53523034,0.19853103,0.29421318,0.36083496,0.79905295,0.53433776,-0.95025396,-0.09302461]},{"bias":-0.84007883,"weights":[-0.30334967,0.15510142,-0.5322899,-0.54236716,-0.49210113,0.41460598,-0.22144234,-0.39832872,0.5904913,-0.48091286,0.6342046,0.14714658,-0.039023995,0.9099281,-0.4511301,-0.5170476,0.23769152,0.0069817305,-0.79000187,-0.054730058,0.51629424,-0.6775243,-0.8758857,-0.6336136,-0.9482384,-0.15716016,-0.12784016,0.7904203,0.6347568,-0.96724343]},{"bias":-0.65794826,"weights":[0.082295775,0.43626463,-0.033428073,0.13588703,0.8795676,-0.52235144,0.8164015,0.85685754,0.10251129,0.50102043,0.8682389,-0.82070184,-0.9398134,0.39105785,-0.49040622,-0.29591364,0.9817996,-0.2215358,0.19164145,0.246714,0.7014189,0.0874306,-0.3306765,0.61180115,-0.87366104,-0.36977333,-0.10975754,0.836658,-0.46368068,0.975261]},{"bias":-0.91579485,"weights":[-0.62930703,-0.62643814,0.4404317,-0.22786844,-0.27972502,-0.32150167,0.3674816,-0.4273681,-0.61864823,0.32015383,-0.67677236,-0.056636214,0.86988115,0.6636369,0.97127795,0.58814716,-0.8856375,0.23921216,-0.6698885,-0.3444628,0.18481839,-0.8838136,0.6179061,-0.09521091,0.93365645,-0.11399257,-0.7452171,-0.93652105,0.6576841,-0.66834736]},{"bias":-0.55749553,"weights":[-0.47535032,0.06820452,-0.68663,0.23093379,0.63213897,-0.078128695,0.60798264,0.30989015,-0.63220286,-0.25320452,-0.66819143,0.5483713,0.9894705,0.31016362,0.53516984,0.30157912,-0.6341493,0.8382764,0.6183791,0.5247319,0.7042959,0.6177912,0.9748304,0.20876896,0.61581945,0.040109277,-0.7601323,-0.6180989,-0.6511607,0.65898967]}]},{"neurons":[{"bias":-0.10155666,"weights":[0.0747987,0.74747944,0.037598968,-0.06852496,0.1076833,0.98244405,0.47313035,0.29249036,0.28042448,0.3791963,-0.7957516,-0.045401216,-0.07192433,-0.59556645,-0.93964386,0.05625975,0.19436777,-0.0068711042,0.19798815,0.7663338,-0.6209504,0.5224321,0.4092201,-0.13360775,0.72879815,0.24991095,-0.042746663,0.32376206,-0.90248775,0.7469673]}]}]}