{"layers":[{"neurons":[{"bias":0.3812381,"weights":[0.13863361,-0.5648934,0.21632761,-0.6666789,-0.66950667,-0.8177643,-0.25035942,-0.7353344,-0.77398825,-0.63378286,-0.6842675,-0.6477958,0.768159,-0.3440736,-0.7480372,-0.09619921,-0.416305,-0.9992605,0.09128891,-0.30927485,-0.9406103,-0.21987903,0.40275335,0.8321414,0.4139334,0.8709707,0.3410733,0.41071746,0.58648884,0.7209096]},{"bias":-0.57657117,"weights":[-0.79886883,-0.73365486,-0.37304166,0.993016,-0.8529804,0.535604,0.33654654,-0.98010695,-0.087290645,0.41916287,-0.56196517,-0.10575616,-0.098885916,-0.35535187,0.8270271,-0.9421918,-0.7577798,0.57829046,-0.6083228,-0.89986205,-0.97566867,-0.717142,0.9656818,0.4173106,-0.7017851,-0.27770776,-0.79313993,-0.011826873,0.64427483,-0.17672193]},{"bias":-0.88935184,"weights":[-0.043681502,-0.39221448,-0.019776225,-0.3043322,-0.47519812,-0.13451615,0.77382445,-0.8208854,-0.30699915,-0.7537894,0.9918392,-0.26767462,-0.81323385,0.19206727,0.08749068,0.25859916,0.010594338,-0.4660552,-0.92203975,-0.083625674,0.045422673,-0.3007328,-0.757882,-0.947171,0.44990796,-0.02088511,-0.790015,0.6099596,-0.57180417,-0.14453405]},{"bias":-0.67737436,"weights":[-0.1949755,-0.20987213,-0.09305751,-0.022755742,0.81375957,-0.702165,0.16634858,-0.10344422,-0.46885386,0.84735847,0.74173045,0.9830694,-0.19170463,-0.3020156,-0.4739234,0.003759265,-0.06565169,0.22973041,-0.55445176,0.9085456,0.7990134,0.10809028,0.3425689,-0.35692185,0.93991804,-0.67225957,0.20701921,0.94357705,-0.09877021,0.761662]},{"bias":-0.4563076,"weights":[-0.017172694,0.89467746,-0.35666397,-0.33908838,0.3691374,0.42796808,-0.12360442,-0.7809256,0.46358788,-0.23751391,-0.27883857,-0.05511439,-0.22437775,0.28584808,0.21102375,-0.6708615,-0.5250637,-0.22906148,-0.7951169,0.64132214,0.10642421,0.9206382,-1.0,0.97247124,-0.4472341,0.68590146,-0.049328923,-0.16368186,-0.9329922,0.46421754]},{"bias":-0.012302756,"weights":[-0.49818844,-0.10886637,-0.7998019,-0.16872442,0.730289,-0.3342542,0.6884382,0.58545744,-0.56421846,-0.6958141,0.2828294,-0.98681664,-0.7733965,0.686676,0.0018559694,-0.2832672,-0.6784625,0.4077242,-0.8911276,0.1878897,-0.8709974,0.3307613,-0.46800044,-0.36219352,0.58126044,0.8903842,0.52045584,0.06660757,-0.7767608,-0.8776448]},{"bias":-0.74642754,"weights":[0.37055576,-0.3939144,-0.7799485,-0.5891921,-0.99917245,0.24710834,0.12292731,0.27886593,-0.7616739,-0.90154266,0.58970594,0.2547859,0.9478884,0.6755707,-0.47974628,-0.95669705,-0.8318939,-0.57478064,-0.055504203,-1.0,-0.4191845,0.5168064,0.771753,0.18156049,0.5840373,-0.40679997,-0.7471999,-0.9848721,0.4282652,0.38620937]},{"bias":-0.6304853,"weights":[-0.08983219,0.083442174,-0.77375287,-0.58498305,0.560431,0.3209659,0.7557535,0.82488465,-0.67345,-0.28484696,0.54472494,0.20745471,-0.3076359,-1.0,-0.019755006,-0.30165547,-0.9814272,-0.09079072,-0.7129438,-0.4608683,0.89704573,0.97448087,0.8675716,-0.24985015,0.19624937,-0.37232012,-0.6465748,0.9273453,-0.22107375,-0.24673682]},{"bias":0.9115591,"weights":[-0.9632659,0.71323156,-0.78781736,0.075183034,0.67013144,0.55775404,0.8746487,-0.35147804,-0.16047537,0.06545099,-0.19580968,0.4743513,-0.14894393,-0.17675531,0.79303694,0.107898355,0.46172297,0.3618201,-0.019984841,0.13152063,0.67082024,0.33806762,0.13363397,-0.9391749,0.88723683,-0.77080655,1.0,-0.92877364,0.43471944,-0.217394]},{"bias":-0.4054901,"weights":[-0.9629934,-0.12845051,-0.57738155,-0.12636101,-0.8611064,0.13868248,-0.88778174,0.61939836,0.086248994,-0.098513484,-0.6153672,-0.35932946,0.2503441,-0.2602455,0.28628552,-0.9033942,0.4043218,0.1743921,0.19399339,-0.94445777,-0.79321575,0.5431521,0.42058027,-1.0,1.0,0.87721014,0.024585128,0.5857389,-0.17768347,-0.9176147]},{"bias":0.689101,"weights":[-0.3883497,0.43946564,0.8403034,-0.44755834,-0.8952046,-0.3929502,0.34337223,-0.099620506,0.44313243,0.07777226,0.57315755,0.13148534,0.63285524,-0.6399417,0.17603362,0.5505123,0.64486545,-0.39677587,-0.72140074,0.8770056,-0.26785225,0.8259387,0.5288694,0.4721921,-0.75367355,-0.45667547,-0.32827187,0.19447884,-0.23248279,0.6124835]},{"bias":-0.27401918,"weights":[0.6218312,0.78904706,0.6263746,0.7291424,-0.2640316,-0.32357913,0.5716479,0.68334395,0.15080066,0.37372243,-0.7246897,0.038851857,-0.21077812,0.712339,0.1509937,0.6296114,0.78732294,0.5931933,0.8226824,0.94399357,0.60777766,0.70067334,0.71541923,0.5890957,0.9705703,-0.86020017,0.18176615,-0.490925,0.38358772,0.82252]},{"bias":-0.48811048,"weights":[0.64848256,0.9296732,-0.72795844,-0.42016476,-0.5727319,-0.6209878,-0.6508918,-0.69475365,-0.272021,-0.8367672,0.31961727,0.039538555,-0.33777112,-0.66027415,-0.17708182,0.8601098,0.8266363,-0.4097368,-0.6742791,0.3784355,-0.022421777,-0.104228616,0.9303756,-0.7107353,-0.5130083,0.93279743,0.9226384,-0.04804933,0.6123462,-0.052550673]},{"bias":0.35950863,"weights":[-0.48918694,-0.23126328,-0.10146558,-0.45074052,-0.05505693,-0.18283749,0.6522536,-0.18944824,0.14942014,-0.3377612,0.60028005,-0.34256023,-0.24154994,0.94941974,0.8125937,-0.086649776,0.5266888,0.14084095,-0.2355789,-0.77837443,-0.8270359,0.40733445,0.22785985,-0.8487719,0.5610477,-0.5901796,0.9942024,0.2587341,-0.10770823,-0.42714828]},{"bias":0.5294738,"weights":[0.66713643,0.17553404,0.9080751,0.24578798,0.812191,0.8620018,0.684225,-0.57473963,-0.69576,0.3318733,0.6305101,0.3448001,0.6124453,-0.91000676,0.9538667,-0.7005911,0.3923408,-0.45482677,0.17583793,-0.15268028,-0.30197233,0.037859797,0.54251623,0.92412305,0.92178035,-0.67336035,-0.3680417,0.96597606,-0.038912136,0.7045541]},{"bias":-0.20016634,"weights":[0.69594383,0.813488,-0.1587702,0.14830291,0.09666479,0.6144352,0.7699728,-0.2771553,0.15505087,0.24705303,0.8464912,-0.19383848,-0.37875062,0.38404143,-0.66945195,-0.041861176,0.10097009,-0.41998667,-0.5213224,-0.8665788,0.44201928,0.852983,0.9774401,-0.9049616,-0.779464,-0.64674187,0.6018575,-0.39703983,-0.4871252,0.60334396]},{"bias":-0.92160726,"weights":[-0.44328934,-0.44959158,0.5394404,0.054530263,0.7233014,0.8775511,0.019588962,0.1414727,-0.9363798,0.21377864,-0.92583084,0.4146465,-0.8555,-0.7416414,-0.83233845,0.8361182,1.0,-0.3904292,-0.48839748,-0.98142004,0.9338758,-0.51657146,0.39638722,0.10050094,0.101371884,-0.76875764,-0.9296649,0.41972867,0.19347513,-0.37190098]},{"bias":0.6200266,"weights":[0.33643186,0.8539698,-0.9491992,-0.27039117,0.115802884,-0.38255876,-0.6311122,0.13267028,0.71633273,0.800349,-0.36615676,-0.4563269,-0.1397034,-0.7525842,-0.5607633,0.23474133,0.85834336,0.030955575,-0.21063584,-1.0,0.8361043,0.7369465,-0.55019337,-0.7387707,0.7814646,-0.09710637,-0.70244193,-0.8705139,-0.13548481,0.46738327]},{"bias":0.84614587,"weights":[1.0,-0.8506891,-0.32875222,-0.9018078,0.90086406,-0.13189542,-0.122124076,-0.29103297,0.55903625,0.053066134,0.7940652,0.6546608,-0.29214317,-0.5683071,-0.7445595,0.64945275,-0.64025116,-0.23916757,-0.8442533,0.8359673,-0.42270988,0.9881263,-0.2797019,0.24587286,0.92683935,0.5944257,-0.15270317,0.9279821,0.8696046,0.41436708]},{"bias":0.30868423,"weights":[0.008753896,-0.62813807,0.98794675,0.6015034,0.024858318,-0.39104193,0.88662124,-0.82412255,0.07358158,-0.8996253,-0.59010667,-0.41946182,0.9364376,-0.3977906,0.9429238,0.22281301,-0.7045052,0.3335172,0.33455035,-0.38506234,0.8156581,0.3548633,0.825862,-0.16732323,0.29217374,-0.20811999,0.24067676,0.87274957,0.8092715,-0.76705766]},{"bias":0.12887251,"weights":[-0.65984774,0.7118144,0.28942624,-0.8838661,-0.82162595,-0.008500934,0.25120112,0.47063172,-0.5130884,0.9991603,-0.14547837,0.47080463,-0.040122606,-0.6457131,0.9548793,-0.7898183,-0.8340179,-0.49352592,-0.4638111,-0.27415437,0.8068242,-0.6554587,0.5418606,-0.3870787,-0.3111214,0.33884394,0.26268876,0.016312718,0.71318275,0.41771585]},{"bias":-0.06233442,"weights":[0.23348868,0.59287596,0.6929083,-0.08059847,0.8603587,-0.027775884,0.8404559,-0.7647674,-0.90464246,-0.43496212,0.25532877,-0.4944445,-0.3474819,-0.4632954,-0.25530404,0.90917414,-0.5912749,0.036681533,0.6335658,0.43872964,-0.025170445,-0.1814462,-0.74585426,0.4552244,0.21419609,0.45676267,0.44052732,-0.026200652,-0.25896233,0.47296464]},{"bias":0.992146,"weights":[0.91200805,0.16623056,-0.20606297,-0.56176895,0.90721726,0.52992606,0.07748425,0.82985735,0.7902174,0.0010334253,-0.18115887,-0.5451996,0.7570782,0.6680398,0.624853,-0.18044895,-0.6924541,0.70458555,0.11393201,0.06880748,0.43901145,0.093614936,-0.1484493,0.6682898,-0.3670618,-0.7481284,-0.73184323,-0.17521942,-0.34088558,0.70081234]},{"bias":0.49786794,"weights":[0.2704407,0.94678926,-0.87035894,-0.6029462,-0.29706758,-0.7118859,-0.6526607,0.3794452,0.021375775,0.66283184,0.7636468,0.5006695,0.68203616,-0.1898117,0.24034345,-0.20280367,0.72025204,-0.88325644,0.5307334,0.08051939,0.6056404,-0.4024133,0.12960565,0.9984751,0.6988931,-0.5499184,0.81072116,0.12678063,-0.9077079,-0.99730086]},{"bias":0.68004847,"weights":[-0.9190042,-0.12467703,-0.778226,-0.480354,0.38536632,0.12461555,0.38093653,-0.46600074,0.5688719,0.9860568,-0.529815,-0.89438087,-0.091554284,-0.29948682,-0.5387069,-0.7417407,-0.027339853,-0.18085659,-0.8283063,0.54603124,0.89292955,-0.14888442,0.104322724,0.74061966,-0.73329026,0.72560716,-0.7035362,-0.09930327,0.2780758,0.21936262]},{"bias":0.99662805,"weights":[0.44454825,-0.15316617,0.20228183,-0.050600648,-0.7373891,0.24596679,0.05754397,0.4367765,0.18801391,-0.0900718,0.9126849,-0.32228702,-0.06955188,-0.01068604,0.8063412,-0.8683231,-0.83326745,0.9983349,-0.9172385,-0.44396013,0.822498,0.6312969,0.35256183,0.8743303,-0.9348273,0.42390376,0.8266256,-0.15764582,0.86209536,-0.85754514]},{"bias":-0.002485156,"weights":[0.8810694,-0.8366108,-0.36808777,-0.07873428,0.1376316,-0.07731545,0.22459674,-0.7618947,0.7132251,0.18491304,-0.592129,-0.6895725,0.4389961,0.9345474,0.2626196,0.6389549,-0.30392474,0.25786006,0.74205595,0.8711591,-0.8444555,0.2888621,0.24744856,0.9770513,0.41101277,-1.0,0.40111935,0.04767382,-0.432167,-0.5847482]},{"bias":0.81744504,"weights":[0.3406099,0.2528168,0.8863628,-0.34046048,-0.72365594,0.60109735,0.964097,0.33517373,-0.80770946,-1.0,0.008758664,0.5664972,-0.5678766,0.032143712,0.6704457,0.84648806,0.51878023,-0.7988382,-0.9424235,-0.09055364,0.2770532,-0.22150242,0.36114848,-0.74801457,-0.19850051,0.833736,-0.3149299,-0.5387668,0.46991196,0.17657506]},{"bias":-0.075879455,"weights":[0.7182436,0.5106066,0.10490053,0.66266274,0.2952317,-0.2827542,-0.37344167,0.11145019,0.16246784,-0.49157235,-0.26873583,0.83798265,-0.6982732,0.24232492,-0.0011349916,-0.55036277,-0.89696956,0.22136408,-0.02828943,-0.066752926,-0.16078117,0.9883137,0.9175988,0.88242173,0.05132544,0.7198708,0.8863472,0.18517697,0.30883813,-0.8722916]},{"bias":0.601702,"weights":[-0.8973071,-0.6343825,-0.6367085,0.60657454,-0.20403564,-0.91762924,0.24039662,0.3364347,0.003430009,-0.24576342,0.14423859,0.44176757,0.54839563,-0.61837924,-0.25995582,0.54053974,-0.46578878,-0.6043484,-0.40639037,-0.5664477,0.0673122,0.5944302,0.6746027,-0.25916195,-0.28960937,0.42222893,-0.7068453,-0.03194511,-0.5243663,0.0952481]}]},{"neurons":[{"bias":-0.6745572,"weights":[-0.16651642,0.22193897,-0.042163968,0.16465819,0.36325014,0.8157828,0.92684484,-0.18251711,0.5132015,-0.67479753,0.5504265,0.4736181,-0.23964441,0.3438176,0.048268437,-0.91506726,-0.3346426,-0.7513,-0.0973655,0.066222996,0.11850822,-0.9035028,0.6496625,-0.8094015,-0.3133282,0.62425864,0.9196708,0.26155794,-0.4789936,-0.4997921]}]}]}