{"layers":[{"neurons":[{"bias":-0.2573194,"weights":[-0.16378772,-0.052055717,-0.33612746,-0.64038706,-0.1775626,0.76991296,0.8960552,-0.505572,0.48162735,0.4005431,0.1708554,-0.43737453,-0.12042725,0.92129374,0.45831263,-0.7092793,0.76661825,0.82130885,-0.089606166,-0.61514515,-0.86600447,0.64012384,0.3055414,0.4997214,0.830894,0.19233787,0.069636226,0.45030105,-0.11904585,0.07376039]},{"bias":-0.73942804,"weights":[0.9336865,-0.14783514,-0.60469836,0.20506585,-0.22312605,0.25287735,-0.91472983,-0.24482286,0.9259107,-0.84572005,0.649544,0.021065593,0.94519687,-0.62848043,-0.45446438,-0.19449413,0.6131072,0.64341664,-0.070732236,0.48851097,-0.4936127,0.6670997,0.4374951,0.43120682,-0.26860803,0.087084174,0.9463093,0.9068227,0.757673,-0.059671283]},{"bias":-0.9151325,"weights":[-0.6685829,-0.95647264,-0.8816068,-0.37029904,0.05846417,-0.25701207,-0.47640747,-0.959049,0.12097132,-0.8182552,-0.17674601,0.15237391,0.7630732,0.40180457,0.8712306,0.11406505,0.08496773,0.6875937,0.2662245,-0.8644867,0.24779594,-0.48571748,-0.4449963,-0.6656673,-0.5967075,0.097871184,-0.5368404,0.8582082,0.03409493,-0.36978954]},{"bias":-0.566163,"weights":[0.5354779,0.7008314,0.61458373,-0.58982605,0.7558031,-0.9224801,0.38739717,0.82758474,-0.2522673,-0.9274199,-0.74952507,-0.30610126,-0.30372757,-0.9610126,-0.8586409,-0.68184066,0.0030449629,-0.8810673,0.080008626,-0.4446568,0.37592137,0.28457963,0.4303254,0.13900936,0.020201087,-0.28071398,0.6540792,0.6884618,0.13686574,-0.23390639]},{"bias":-0.9986086,"weights":[0.8148024,-0.34808272,0.91723704,-0.6412647,0.7940781,-0.75154734,0.9677901,0.92539096,-0.053483367,0.52540565,0.74798584,0.485947,-0.98175144,-0.7000272,0.8858776,0.33684242,0.4067086,0.34206355,0.9191227,0.37641466,-0.99585176,-0.9555099,0.31395733,0.5632348,-0.460746,-0.5379998,-0.62871933,-0.30373114,0.9534302,-0.5508117]},{"bias":-0.7547829,"weights":[-0.8743012,-0.31017298,0.94820714,-0.5862641,-0.8546765,-0.0046161413,0.7221432,0.6822965,0.66480136,-0.1440624,0.74249196,0.6181717,0.40453875,0.09975779,0.15608251,0.09933245,0.66981006,0.7775302,0.64631534,0.6661043,-0.7812159,0.70579743,0.11003435,0.27678454,0.710804,-0.11989224,0.35368574,0.5109434,0.29173028,-0.44053882]},{"bias":-0.9338529,"weights":[-0.6872668,-0.07767713,-0.18565023,0.12846959,0.018022895,-0.5930638,0.05443442,-0.9256978,-0.569771,0.8055806,-0.2747864,-0.33291262,0.8896315,0.7711644,-0.34597462,0.028858304,-0.5262384,-0.48936528,-0.7178297,-0.39128846,0.057879806,0.06764114,0.7496166,-0.99385595,-0.14008057,-0.15803444,0.29581773,0.7459521,0.1561414,0.60590506]},{"bias":-0.8968036,"weights":[0.50746584,-0.06592548,0.5727236,-0.61955494,-0.3110568,0.010160565,0.15338552,-0.7563398,0.7475178,-0.744848,0.46759188,0.8321631,-0.92793417,-0.45002002,0.90804434,0.052995086,0.4635805,0.8337159,-0.5896372,0.5042193,-0.63738036,0.73835516,-0.80157375,0.9222002,0.95522714,0.19244039,0.2361356,-0.5434043,0.5482125,0.68241596]},{"bias":-0.9533675,"weights":[0.465335,-0.4128098,-0.89922047,-0.4399764,-0.19957292,-0.92486525,0.01873219,-0.7407448,-0.078000665,0.06379783,0.98625684,-0.7316179,-0.59864825,-0.20382893,-0.62503767,-0.18033826,0.12890136,-0.9118631,-0.7789111,-0.5538358,-0.7431655,0.9294956,0.3085128,0.18272126,0.8864336,0.6037073,-0.9541695,-0.004701972,-0.40158314,-0.8997221]},{"bias":0.73357916,"weights":[-0.054716468,0.9507065,0.416633,0.75716376,0.81380415,0.037203193,0.23197854,-0.64540815,0.6303983,0.67043996,0.9060459,0.24581063,0.08537042,0.630528,0.93306017,-0.08368766,-0.3553862,-0.7973597,-0.29167598,-0.98986506,-0.13467538,0.1804949,-0.069358945,0.9657397,0.93614745,0.9974685,-0.15786016,0.0070165396,-0.49986166,-0.63874936]},{"bias":-0.38643044,"weights":[-0.9958172,0.088086724,0.20516098,0.12835538,0.34253347,0.6389601,0.9574828,-0.42050618,-0.23634946,0.3665222,0.5628755,-0.34141225,-0.73136973,-0.5799739,-0.093254685,-0.28513044,-0.65769863,-0.21140134,-0.8451214,-0.1522423,0.3861524,-0.14426911,0.47469652,0.68901205,-0.7668085,0.09179485,0.36335576,-0.17604125,-0.21658146,0.19312918]},{"bias":-0.6973572,"weights":[0.16240108,-0.27988976,-0.9618497,-0.4547338,0.7256801,0.16917694,0.2925564,0.26485693,-0.08354795,-0.040825725,0.9625764,-0.49780124,0.41652668,-0.33317012,-0.9788201,0.7801051,0.40034807,-0.64650154,0.7253394,-0.25471514,-0.23717368,0.7319288,0.10774171,-0.6855116,0.9757016,-0.13399088,0.81835485,-0.6502595,-0.9798336,0.45849955]},{"bias":-0.011069417,"weights":[0.97157526,0.79213357,-0.9034412,-0.8646102,0.30210483,-0.77555084,0.6913314,-0.8858812,-0.76849437,0.08842409,-0.64088464,-0.47530955,-0.49585432,0.89988375,0.3535484,-0.44272178,-0.392183,0.54773974,0.9744613,0.48039663,0.16231668,-0.6360855,-0.20464122,-0.71149564,0.13030899,0.17772257,-0.78874516,0.57617307,-0.52868336,-0.0008081198]},{"bias":0.8975067,"weights":[-0.069188,0.34870112,-0.4384293,-0.20016587,0.050982118,0.68435717,-0.43168133,-0.012487769,-0.9854598,-0.4801609,0.10419643,0.95770454,0.6388619,-0.3541152,-0.42043728,0.19551837,0.40976465,0.58823967,0.104899764,0.6489532,-0.45041054,-0.3456704,-0.11835158,-0.94358516,0.7693465,-0.8841107,-0.5391397,0.884109,-0.51238245,-0.6792979]},{"bias":0.9838412,"weights":[-0.3827352,-0.1689688,0.27296793,0.79170084,0.18645799,-0.9246993,-0.13443029,-0.22553885,-0.27783173,-0.49677366,-0.42453307,0.0020526648,0.36339223,-0.4934346,-0.43153614,0.42815173,-0.42984122,-0.9529128,-0.93688107,0.9764662,-0.7882221,0.6038549,0.91539407,-0.958374,-0.01670587,0.8787117,0.93393564,0.631119,-0.039110303,-0.15101755]},{"bias":-0.30023807,"weights":[0.59119534,-0.813401,-0.6462431,0.87930274,0.3626634,-0.8461473,-0.37563962,-0.83037853,-0.3214342,-0.50784105,0.032204032,-0.18547904,-0.10571015,0.18156254,0.5636275,-0.7999773,-0.10414708,-0.8771739,-0.51944727,-0.73602295,0.15159214,0.7243457,0.9272151,0.77092886,0.4694711,-0.9697013,-0.30113572,0.602993,-0.36731595,0.28347003]},{"bias":0.39996994,"weights":[-0.31190842,-0.7263782,0.9848249,0.85126686,0.9647198,0.29277146,-0.89184237,-0.5319757,-0.9462178,0.20494378,0.6944907,-0.3971457,-0.17280424,-0.691149,0.20006001,-0.98931766,-0.79013515,0.48852527,-0.19341362,0.6671269,0.49051344,0.51616716,0.68879724,-0.66521764,0.7164805,-0.82964635,0.90708137,-0.65217185,-0.754266,0.88972974]},{"bias":0.734437,"weights":[-0.65525174,-0.08985627,-0.85445094,-0.8329263,0.46521246,0.2618283,-0.5335712,0.013359189,-0.7819102,0.61183715,0.47825658,-0.66030407,0.07973993,-0.3372242,0.74481225,0.873049,0.6181915,-0.7993634,-0.10438216,0.3924874,-0.28946584,0.38368165,-0.98632073,-0.9303484,-0.7476094,-0.61319774,0.06667507,0.5919659,-0.5226261,-0.4176008]},{"bias":0.47260368,"weights":[-0.018923402,0.1443206,-0.4635393,0.95212126,-0.7008679,0.25136912,0.72265935,-0.8924997,0.005077958,0.2876507,-0.40812653,0.27281988,0.25499046,0.34648764,-0.53114265,0.25198042,0.6854079,0.38562453,-0.28630394,0.3003863,-0.52602714,0.22623122,0.64601445,0.5078535,-0.23862422,0.5382781,0.972342,-0.084032655,-0.6169779,0.44952023]},{"bias":-0.37615818,"weights":[-0.36549658,-0.6088049,0.20828784,0.7398112,0.05180967,-0.89664745,-0.79596806,0.7876332,0.66028833,0.96840143,-0.59469837,-0.68846345,-0.36091727,0.36360967,-0.32010406,-0.79945326,0.2032057,-0.8507998,-0.5592882,0.75287795,0.4144491,-0.14930451,-0.5115301,-0.14626873,0.50225925,0.102693915,-0.13592756,-0.09681952,0.28507555,0.01563561]},{"bias":-0.8438444,"weights":[0.058695436,0.24144232,0.20938289,-0.7429395,0.81497145,0.30751765,-0.18906438,-0.80770516,-0.41903037,0.8187394,0.5986142,-0.91474724,0.8566606,0.82225585,-0.06638682,-0.40227383,-0.6052155,0.05321014,0.37986314,-0.5550727,-0.35404676,0.7860668,-0.14361751,0.47170937,-0.9194181,-0.2477814,0.53561187,-0.032361865,0.2745551,-0.40731138]},{"bias":0.84349203,"weights":[-0.3661055,0.66485333,-0.4858784,-0.10159004,0.17035902,-0.16224015,0.95075464,0.06254876,0.115035415,-0.577218,0.16333187,0.6392698,-0.16303384,0.87949634,-0.2984559,-0.81833935,0.570065,0.8586719,0.8244264,-0.23214042,0.4820217,0.7690871,0.7858932,0.2956468,-0.3288297,0.2974044,0.16028869,0.77649164,0.11888754,-0.17241395]},{"bias":-0.23667467,"weights":[-0.5791866,0.75011206,0.65614986,0.32046783,-0.8904109,0.40849626,0.8073404,0.47346509,0.53682375,0.51226497,0.543345,-0.86221457,0.43182957,-0.42621845,0.30128968,-0.6715658,-0.046622396,-0.25601667,0.4114312,-0.5767123,0.9241133,0.66820216,-0.9709542,-0.27272457,-0.25040787,0.6163683,0.118442655,-0.36855143,0.21436846,-0.69089866]},{"bias":-0.03791845,"weights":[-0.988508,0.11295736,0.43195188,0.5833883,-0.14149058,-0.2628042,0.9622395,-0.25747246,-0.97163343,0.36306822,0.75854754,-0.6074888,-0.04961741,-0.275706,0.37132132,0.5328467,0.9768162,0.31892478,0.5482831,0.6981759,0.4733609,0.14650619,0.13996065,0.58879876,0.42863333,0.17825997,0.57998013,-0.045437694,-0.26767343,0.7147591]},{"bias":0.25038946,"weights":[0.24524057,-0.32204336,0.8993106,-0.73207307,0.92399955,-0.53680795,-0.6226079,0.83422446,0.9866121,-0.041788697,-0.39720196,-0.17116201,-0.9728241,-0.424123,0.23277724,0.9947188,0.14646304,0.08614957,-0.5056216,-0.4429173,0.6520791,-0.16567886,-0.06910622,0.6156304,0.5200169,-0.07885635,-0.7663412,0.04240215,-0.29923218,0.25850022]},{"bias":0.7939303,"weights":[-0.11953294,0.45345724,-0.39377302,0.8150921,-0.16400564,-0.7253897,0.9150653,0.4702257,0.91499734,-0.5901751,0.2666384,0.45173872,0.9255526,0.9646101,0.136711,-0.91768026,0.71000624,0.3548311,0.02415669,-0.7404885,-0.32105345,0.7114928,-0.53523034,0.19853103,0.29421318,0.36083496,0.79905295,0.53433776,-0.95025396,-0.09302461]},{"bias":-0.27878827,"weights":[-0.30334967,0.15510142,-0.5322899,-0.54236716,-0.49210113,0.41460598,-0.22144234,-0.74486685,0.39895213,-0.48091286,0.6342046,0.14714658,-0.039023995,0.530843,-0.5872316,-0.5170476,-0.7543626,0.0069817305,-0.79000187,-0.054730058,0.51629424,-0.6775243,-0.8758857,-0.6336136,0.62162185,0.54071784,-0.12784016,0.7904203,0.9162288,-0.96724343]},{"bias":-0.65794826,"weights":[0.9425807,0.43626463,-0.033428073,0.13588703,0.8795676,-0.52235144,0.8164015,0.85685754,0.10251129,0.50102043,0.8682389,0.97457767,-0.9398134,0.39105785,-0.49040622,-0.29591364,-0.9717679,-0.2215358,0.19164145,0.9049263,-0.9519849,0.0874306,-0.3306765,0.61180115,-0.87366104,-0.36977333,-0.10975754,-0.35457176,-0.8918402,0.975261]},{"bias":-0.91579485,"weights":[0.53127384,-0.4985475,0.82354975,-0.22786844,-0.27972502,0.6473081,0.3674816,-0.4273681,-0.61864823,0.32015383,-0.67677236,-0.8744571,-0.8062289,0.6636369,0.97127795,0.58814716,-0.8856375,0.23921216,-0.6698885,-0.3444628,0.18481839,-0.8838136,0.6179061,-0.09521091,0.085081935,-0.11399257,-0.4373626,-0.93652105,0.6576841,-0.66834736]},{"bias":-0.55749553,"weights":[-0.23030508,0.06820452,-0.6083922,0.23093379,0.3834988,-0.078128695,0.60798264,0.30989015,-0.63220286,-0.25320452,-0.66819143,0.5483713,-0.8493588,0.31016362,0.53516984,0.97011757,-0.6341493,0.8382764,0.6183791,0.5247319,0.7042959,0.6177912,0.9748304,0.20876896,0.68826914,0.040109277,-0.7601323,-0.6180989,-0.6511607,-0.31890625]}]},{"neurons":[{"bias":-0.10155666,"weights":[0.0747987,0.74747944,0.037598968,-0.06852496,0.1076833,0.98244405,0.47313035,0.29249036,0.28042448,0.3791963,-0.7957516,-0.045401216,-0.07192433,-0.8145237,-0.93964386,0.05625975,0.19436777,-0.0068711042,0.19798815,0.7663338,-0.6209504,0.5224321,0.4092201,-0.13360775,0.72879815,0.24991095,-0.042746663,0.32376206,-0.90248775,0.7469673]}]}]}