{"layers":[{"neurons":[{"bias":-0.7268963,"weights":[-0.92682576,-0.6197142,0.8120773,-0.5774116,0.04246843,-0.9070053,0.4671489,0.7784903,-0.697237,0.86832666,0.8462753,-0.6733837,0.27249873,0.7100382,0.43866765,0.7776046,-0.70745635,-0.53075665,-0.25739235,-0.09685385,0.6492672,0.108367324,0.5558083,-0.0132757425,0.8068578,-0.3416025,-0.5509607,-0.78825235,-0.89731145,-0.7093239]},{"bias":-0.75554323,"weights":[-0.7793319,-0.624186,0.46402252,-0.55306596,0.16799247,0.4386474,0.88452244,0.79232836,-0.8180797,0.16255438,-0.13603318,0.8212321,0.67712593,-0.51374286,-0.26020902,0.40877807,-0.18951452,-0.37938827,-0.0036703348,0.88552976,0.02465713,-0.74317884,0.36471236,0.40127194,-0.102933764,0.21631253,-0.5690848,-0.63857675,0.8608115,0.2700101]},{"bias":-0.9109132,"weights":[0.71880984,-0.29050297,-0.07755649,0.46586668,-0.59279555,-0.34351844,-0.73964167,0.019481301,-0.23240888,0.78562164,-0.43047684,-0.18881786,-0.93011904,0.7926154,-0.26745743,0.47953546,-0.76239777,-0.23446786,-0.80993795,0.39364636,-0.17831552,0.39236104,-0.81197023,0.6604805,-0.85228395,0.7616346,-0.909585,-0.46992368,-0.57741994,0.92418456]},{"bias":-0.9007466,"weights":[0.05090916,-0.28175205,0.20939195,-0.9964149,0.7225535,-0.5024027,0.8061967,-0.8209715,0.09787452,-0.5480837,-0.14599621,0.33805597,-0.45927185,-0.028107524,0.0007506609,-0.5574569,0.90447545,0.018115163,0.9600513,0.33821404,0.4531716,0.28783453,0.49606788,-0.97585416,0.15622818,-0.8939929,-0.48838657,0.57953763,0.12367141,-0.84801173]},{"bias":0.9127779,"weights":[-0.5595705,0.41092622,-0.29895228,-0.22137749,-0.15429413,-0.30028385,-0.70746875,0.823756,0.44058383,0.8857665,0.8023019,-0.6688731,0.32952845,0.9240694,0.41199028,0.56143475,0.16229403,0.35783398,-0.50362676,0.11388147,0.545593,-0.07782805,-0.1401335,0.23976934,0.80115294,0.9685857,0.15633976,-0.28381485,-0.4276821,-0.27331418]},{"bias":-0.9127233,"weights":[-0.23118365,0.036318183,-0.82930803,-0.712862,-0.0070046186,-0.9310112,0.5442033,0.8074405,0.96101785,0.95045924,-0.79280066,0.65169597,0.09829891,0.2080754,0.74096036,-0.6549053,-0.53588027,-0.16261089,0.8074155,-0.059817433,0.18658912,-0.44542545,0.92055154,-0.5544912,-0.67306376,0.6321182,0.50453854,-0.7334585,-0.49231762,0.20228636]},{"bias":-0.104061484,"weights":[-0.4569146,0.93885064,-0.32824534,-0.60633177,-0.51061934,0.25501168,0.74079776,-0.835829,-0.45586985,-0.3169965,0.01817143,0.62080455,-0.19152105,-0.66349864,0.53671694,-0.7484577,-0.8361335,-0.07976854,0.32864726,-0.98503375,-0.76053786,0.07774246,0.005515933,0.98001146,-0.47750133,0.3581096,0.3292452,-0.43368214,-0.4270138,0.6080842]},{"bias":-0.49606174,"weights":[0.26937997,-0.10002744,0.7016902,-0.6285529,-0.75504994,0.17992961,-0.384849,0.49184835,0.4745053,-0.6019713,-0.7718482,-0.29970378,0.70632315,0.34847915,0.6337724,0.96790576,0.23776257,0.1975075,0.52950335,-0.9262438,-0.31996745,-0.071026444,0.65328646,0.3843664,0.77332234,-0.44792408,0.7030692,0.36219227,-0.62306994,0.43599546]},{"bias":-0.23586094,"weights":[0.54495835,0.026534915,0.5921886,-0.5736279,-0.7025659,0.10017574,0.97301793,0.16080415,-0.9557364,-0.5597426,0.7253523,-0.9993968,0.8467481,-0.78540397,-0.4413163,0.29439127,-0.9666946,-0.056121945,-0.43244523,-0.5790672,-0.95038295,0.66405296,0.4147786,0.5637889,0.15992177,0.3180896,-0.39941734,-0.4735002,-0.23405683,-0.5314707]},{"bias":-0.33978266,"weights":[-0.3437974,0.46052158,0.69256806,-0.49338478,-0.40996712,0.19272125,0.7303419,-0.23986328,-0.3391785,0.43612158,-0.021653771,-0.10269344,0.117833495,-0.6948483,-0.6065275,0.23601401,-0.8187728,-0.44008464,-0.99699545,-0.10057747,0.31624663,-0.20486796,-0.86740994,-0.016255021,0.9118619,-0.4289164,-0.31098646,0.22112024,-0.25753683,0.16510499]},{"bias":-0.18024552,"weights":[0.6152723,-0.4413399,-0.53952664,0.6245861,-0.21574795,0.25964677,-0.79173875,-0.17631638,-0.04010141,0.14746821,0.69738364,-0.5793089,-0.8069539,0.4817146,0.4418522,0.82591677,0.36918604,-0.60602087,0.2191757,0.069146276,0.43546712,-0.9811001,0.54787135,0.35843456,0.7227552,0.035226703,-0.5778572,-0.69276595,0.36318147,0.4365126]},{"bias":-0.3131656,"weights":[0.6260004,0.61291575,0.23043764,0.23134768,0.2351042,-0.2940547,-0.8759451,0.3444656,-0.7514782,-0.85974646,-0.4926352,-0.6130499,0.5679152,0.014346242,-0.50554985,-0.8129561,-0.00302279,0.11806166,-0.78446937,-0.116876006,-0.083155036,0.61489725,-0.49401373,-0.49723762,-0.117416024,-0.54919714,0.56927896,0.0949415,-0.098709226,0.79366636]},{"bias":0.58010507,"weights":[0.20072329,0.15008748,-0.92128253,0.48625624,0.17656434,0.32883132,0.3475126,0.2198106,0.33659136,0.31168878,0.2549373,-0.82572365,-0.7405853,0.07099092,-0.22372782,-0.27445787,-0.5482001,0.65161467,-0.44142932,0.47473705,-0.51395935,-0.5978865,0.7643218,0.47124493,0.6038697,-0.61455244,0.89463735,-0.39561242,0.037155032,-0.97397566]},{"bias":-0.12366712,"weights":[-0.3490023,-0.6964772,-0.83653617,-0.28559703,-0.036380887,-0.36486644,-0.35703725,-0.18431866,0.6650989,-0.2907793,0.5221894,-0.73994803,-0.17901695,0.2055322,0.30711758,-0.8056848,0.11596429,-0.6284404,0.97006917,-0.19897187,0.4749285,0.9037368,-0.5472736,0.62411475,0.6129904,-0.7992513,-0.036286235,0.28093398,-0.11584842,-0.6877811]},{"bias":0.7197437,"weights":[0.35857022,-0.5829963,-0.23687732,-0.1912297,-0.43612283,-0.3701014,0.27244675,-0.8153033,-0.45877188,0.94587517,0.8909042,0.30700362,0.19303286,-0.8701463,-0.9420185,0.023324609,-0.89241624,0.54330206,-0.5693597,0.10100639,-0.5667507,-0.82509995,0.045743823,0.5151632,0.16251004,0.61076045,-0.32289547,-0.8306949,-0.53929514,0.354046]},{"bias":0.78462744,"weights":[-0.3165378,0.18100607,0.06735575,0.07861626,-0.6175403,-0.46645302,-0.5282518,0.07830846,0.96135783,-0.7944448,0.3871709,0.32281744,0.96059155,0.68479705,-0.708303,-0.5832471,0.4370898,0.88724256,0.08704364,-0.27529567,-0.09175384,-0.7342942,0.31972134,-0.7555735,-0.36752957,-0.93172956,-0.22709525,-0.44520062,-0.26900834,-0.93380046]},{"bias":0.88259006,"weights":[0.6557162,0.10084665,-0.16406167,-0.058301568,-0.9487643,0.72785616,0.09803426,0.65220904,0.7401173,0.26118553,-0.7483263,0.85719347,0.6699202,-0.79368377,0.75105906,0.72720957,0.09645784,0.077859044,-0.98843956,-0.121065974,-0.40780348,-0.007960439,-0.9123094,-0.5650684,-0.44129533,0.4910723,-0.8390219,-0.13201296,-0.47594422,-0.027453542]},{"bias":-0.6618998,"weights":[-0.6345241,0.40441,0.39108622,0.12262714,-0.46230477,-0.8016236,-0.878618,-0.3276469,0.3837949,-0.19469488,-0.826638,0.62680316,-0.9167681,-0.3365435,0.100248456,-0.5417947,-0.22783196,-0.5483162,-0.7653594,-0.23366559,-0.29112405,-0.32361645,0.538929,-0.25683588,-0.9907675,-0.26323193,-0.566421,0.8166919,0.41639006,0.9710665]},{"bias":-0.6790407,"weights":[0.97432804,-0.31667632,0.64824915,-0.33881897,-0.2812876,-0.26068205,0.9395647,0.70876527,0.14420569,-0.97613025,-0.15331185,0.6962414,-0.23054135,0.33430874,0.5700567,0.66703653,0.05514133,0.1415416,0.88494825,0.66931295,-0.57430357,0.47761023,0.3380407,-0.22079003,-0.18269289,-0.49356502,0.9509847,0.71669173,-0.6822319,0.9290652]},{"bias":-0.15703261,"weights":[0.7391405,-0.7794397,-0.6807473,-0.650368,-0.14121616,-0.9560578,-0.006256938,0.4136759,-0.04114139,0.7067747,-0.41336936,0.9034188,-0.46719092,-0.15309799,0.77544737,-0.34803027,0.45263302,-0.28277916,-0.3152055,0.6226647,0.47463882,0.30263913,0.23204553,-0.54016656,-0.7695377,0.4531132,-0.7959304,-0.8637445,0.8480935,0.21383774]},{"bias":0.16575825,"weights":[0.91478515,-0.272386,-0.6731427,0.6496072,0.059390664,-0.44139355,-0.19954145,0.60765314,-0.3804168,0.49456465,-0.09527457,-0.698066,-0.017017484,-0.94863653,-0.7433095,0.787513,0.96831083,-0.8910787,-0.39078063,0.54072547,-0.048324943,0.8053727,-0.27519387,-0.9187999,0.044103026,0.91721773,-0.6596477,0.44718206,-0.34703082,0.04378712]},{"bias":-0.5929124,"weights":[-0.37151045,0.5282564,0.5499618,-0.35139126,-0.5060372,0.8888078,0.043609977,0.029412866,-0.59174985,0.9257364,-0.6758528,0.20158231,-0.24339211,0.043163896,0.7116611,0.59294176,-0.27275556,-0.82716703,-0.7581639,0.20992959,0.7827916,0.76316404,0.15758216,-0.81047726,0.27895582,0.15873563,0.4940027,-0.29765815,-0.40521044,-0.040492654]},{"bias":0.5378096,"weights":[-0.6778488,-0.11066449,-0.62438816,0.7166121,0.6380122,0.55268,-0.9217036,-0.57022804,0.103298545,0.8449664,0.3953222,-0.09537256,-0.5088307,0.08005297,0.83533716,0.19838798,0.23362553,0.91358876,-0.9237256,-0.6800053,-0.18790424,-0.058364987,0.091106296,0.52585363,0.40511835,0.5146146,0.08381212,0.2988578,0.038134933,-0.30170196]},{"bias":0.30414784,"weights":[-0.87899876,-0.6378262,-0.6182868,0.86150026,0.014472604,-0.62558484,0.47314823,0.34753788,-0.1061331,-0.21457303,0.38059103,-0.2744488,0.33838332,-0.5495967,0.2390455,-0.36604995,0.64226246,-0.3045997,-0.6685877,0.66520905,0.6311724,0.058683038,0.026431918,0.626313,-0.2935571,0.4759072,0.9202006,0.9297154,0.8700416,-0.49890107]},{"bias":-0.11206496,"weights":[-0.63977194,-0.38318342,0.9671259,-0.2730989,-0.3571996,0.54362464,0.3126279,-0.018748641,0.11047304,0.9740281,0.21457803,0.7102845,0.7729144,-0.45249957,-0.79031444,-0.94472146,-0.05257809,-0.29586357,0.5298407,0.986392,-0.50842756,0.29440057,-0.8776276,-0.18937123,0.3792597,0.45902884,0.4379202,-0.01814568,0.5041249,0.74823165]},{"bias":0.3761152,"weights":[-0.9334693,-0.85257816,0.04644811,0.65869904,-0.0785898,-0.034285903,-0.1314727,-0.99429846,0.5970495,0.5746703,-0.69386125,-0.19776428,-0.5643222,-0.79301405,0.13333738,-0.22719562,-0.33429235,0.4076568,-0.18504107,-0.16184747,-0.31646627,0.67733526,0.5257132,-0.61341876,0.71815586,0.8201325,0.7630508,-0.6341996,0.9281249,0.26881278]},{"bias":0.53365874,"weights":[-0.10417998,0.30453074,0.8250148,0.89090395,-0.5483143,0.020585418,-0.11357105,0.8087592,-0.3213455,-0.19441688,-0.92987704,0.5512724,0.76695204,-0.9020524,0.033253074,0.9671428,0.32877004,-0.72303224,-0.5121123,0.28646457,-0.41775817,-0.7258227,-0.12813818,-0.64804626,-0.23494422,0.4051739,-0.98797655,-0.12542117,0.92750406,-0.99291015]},{"bias":0.17336428,"weights":[-0.003949046,0.58697486,-0.19573867,-0.35143417,-0.17877209,-0.3092274,0.25965726,-0.5291583,-0.24763978,0.15183198,-0.0061758757,0.7100358,0.5562084,-0.4957835,-0.22219718,-0.84108925,-0.27895945,-0.6630833,0.6004157,0.22973979,0.43747437,-0.15084088,-0.38965195,0.51660705,0.8836844,-0.4253978,-0.3097548,-0.59581393,-0.25907964,-0.19767654]},{"bias":-0.7023246,"weights":[-0.47050613,-0.32651728,-0.678421,0.2541374,-0.076693654,0.10127938,-0.1010443,0.32828915,-0.8149011,-0.77579,0.81771946,0.521044,-0.12963665,0.4586414,0.71772647,-0.49038786,-0.046067595,0.6513481,-0.11201584,0.5616257,0.4736761,-0.9671712,0.30034173,0.16855371,0.32623827,0.27761447,-0.39323157,-0.21614659,0.6366837,0.70340157]},{"bias":-0.77168536,"weights":[-0.7429335,0.924834,0.4330207,0.8530235,0.1413387,-0.89855814,0.30918133,0.70928717,0.123072505,-0.58812064,-0.6293051,0.17901814,0.36461318,0.11873734,-0.45117182,-0.11580908,-0.9639313,0.88771605,-0.54048556,0.4591874,0.53181005,-0.914294,-0.7779567,-0.72235703,0.0004786253,0.10710561,-0.14248693,0.22119272,0.43144548,0.15743291]}]},{"neurons":[{"bias":-0.4138345,"weights":[-0.04222071,-0.6128344,-0.7969196,0.40293205,0.6095276,-0.21764553,-0.48292512,0.0951463,0.8460784,-0.662822,-0.088454604,0.9810233,-0.23087871,0.059743524,-0.10095394,0.22461188,-0.5599145,-0.46863073,0.043655276,0.95893645,0.9649861,-0.16965663,0.022372365,0.3717059,0.4794644,-0.36950153,0.13731205,-0.5626802,0.46465027,-0.95784044]}]}]}