{"layers":[{"neurons":[{"bias":-0.778944,"weights":[-0.25588793,-0.5648934,0.12938172,0.59155726,-0.66950667,-0.67679286,-0.16212794,-0.8309114,0.967093,-0.63378286,-0.5523061,-0.507734,0.67155164,-0.15696657,-0.77226025,-0.09619921,0.55139494,-0.9992605,0.13261819,-0.30927485,-0.8504281,-0.045484185,0.36634338,-0.36572546,0.48219967,0.95933986,-0.23432934,0.36942685,0.58648884,0.7209096]},{"bias":0.6187968,"weights":[-0.8403435,-0.2756819,-0.34396917,-0.28031772,0.9845433,0.252432,0.0077234507,-1.0,-0.23622072,0.96493363,-0.4400186,-0.16875657,0.579216,-0.35535187,0.8270271,-0.9421918,0.23919117,0.6713784,-0.59721184,-0.06345904,0.29274,0.16146529,0.9659565,-0.865921,0.62731504,0.020977378,0.21355498,0.8480525,0.64368093,-0.17672193]},{"bias":0.96775055,"weights":[-0.081313014,-0.5888397,-0.47154063,0.5428426,0.06257188,-0.9237094,-0.2507376,-0.8208854,-0.40563288,0.11379564,0.9918392,-0.25728002,-0.76537114,0.24285275,0.08385429,-0.92237496,-0.04892342,-0.5559157,-0.92203975,-0.8485756,0.045422673,-0.82302856,-0.095708966,-0.947171,0.03563273,-0.03624691,-0.8779857,0.5660456,-0.90488815,-0.14453405]},{"bias":-0.67737436,"weights":[-0.20629309,-0.20987213,-0.09305751,-0.0009878725,0.9115996,-0.702165,0.15406074,-0.10344422,-0.46885386,0.84735847,0.74173045,-0.66384983,-0.19170463,0.4592563,-0.5305783,0.7651191,-0.06565169,0.22973041,0.8395896,0.6971085,0.8326965,0.10809028,0.94795394,0.3224696,0.3988241,-0.5961249,-0.89345527,0.94357705,0.57001257,-0.43060297]},{"bias":-0.4563076,"weights":[-0.10015569,-0.13259208,-0.39590868,-0.30745885,0.44761416,0.42796808,-0.0803793,-0.70904255,-0.015173078,-0.17510569,-0.27883857,0.4383098,-0.80968475,-0.7252605,-0.1450733,-0.6592893,-0.5785567,-0.87374926,-0.8546608,0.64132214,0.10642421,-0.15868485,-0.9403057,0.8893688,-0.45737264,0.68590146,-0.3537497,-0.07178857,0.811635,-0.192428]},{"bias":-0.012302756,"weights":[-0.49818844,0.27273023,-0.8497248,-0.20489174,0.730289,-0.26352805,-0.24976027,0.48904297,-0.52917093,-0.7779514,0.2828294,-0.98681664,-0.9280648,0.56883,0.09808648,0.43468368,-0.7539167,-0.58896965,0.41581357,0.1878897,0.34206855,0.49159944,-0.46800044,0.48742592,0.58126044,0.9576931,0.52045584,0.7943075,-0.2039057,-0.344881]},{"bias":-0.5050921,"weights":[0.055108905,-0.38263497,-0.7799485,0.041671157,-0.99917245,0.24710834,-0.17472708,0.2530078,-0.2016331,-0.95956206,0.58970594,0.3151139,0.9478884,-0.9189036,-0.38219684,-0.8894367,0.397488,-0.93112135,-0.20741928,-0.8927171,-0.6920488,0.5311978,0.771753,0.18156049,0.53294766,-0.63073087,-0.6771122,-0.027347684,0.4282652,0.38620937]},{"bias":0.57385635,"weights":[-0.046371557,0.083442174,0.112012744,-0.8102286,0.49484307,-0.55658907,0.7266198,0.7336607,0.94791245,-0.327652,0.6443846,0.1687941,0.77695394,0.10677016,-0.019755006,-0.1793791,-0.03506744,-0.09079072,0.9293785,-0.44588268,0.89704573,0.9632585,0.91305554,0.6382346,0.1636337,-0.8613839,-0.6465748,0.7668495,-0.22483689,-0.24673682]},{"bias":0.9115591,"weights":[-1.0,0.64232975,-0.78781736,0.12722766,0.662827,0.20036042,0.79880124,-0.41531408,-0.4178905,-0.58256644,-0.8306742,0.4743513,-0.65697074,-0.21502294,0.58372855,0.98390365,0.5471371,-0.68507934,-0.7007761,0.25332797,0.92916155,0.39843905,0.13363397,-0.006295562,0.88723683,0.35718477,0.90803415,-0.4561438,-0.66740084,-0.67497396]},{"bias":-0.4054901,"weights":[-0.9629934,-0.1851722,-0.50159687,-0.12636101,0.11612761,-0.11820972,0.18967593,-0.7486267,0.086248994,0.13348353,-0.6153672,-0.4765193,0.73873305,-0.2602455,0.28628552,-0.35940546,0.6057997,0.02846849,-0.5249354,-0.023702025,0.875283,0.8163023,0.80619836,-1.0,-0.31720465,-0.8782277,-0.0057546496,-0.11812341,-0.17461208,0.03982246]},{"bias":0.689101,"weights":[-0.3883497,0.78781366,0.79976445,-0.3923812,-0.7989916,-0.6005916,0.3756376,-0.06827641,0.44313243,-0.32519525,0.29732764,-0.259942,-0.85894966,-0.64370817,-0.201172,0.5505123,0.64486545,-0.39677587,-0.72140074,-0.018471122,-0.48709625,0.83807373,0.44410372,0.81166506,-0.09633362,-0.6555004,-0.3106063,0.19447884,-0.08042562,0.24307334]},{"bias":-0.27401918,"weights":[0.6247505,-0.90600634,-0.30688447,0.7291424,-0.2640316,0.040533185,0.5716479,0.68334395,0.18586871,-0.5297312,-0.7246897,0.038851857,-0.21077812,0.49339736,0.1509937,-0.59767646,0.78732294,0.54073805,-0.21759737,0.94399357,-0.66271496,-0.10668123,0.7265937,0.5932674,0.9121279,-0.7058494,0.6490245,-0.490925,0.97902155,-0.42083973]},{"bias":-0.48811048,"weights":[0.64848256,0.40552866,0.9980078,-0.42016476,-0.5835141,-0.72586656,0.44482124,-0.69475365,-0.62593985,-0.8383131,-0.11551225,-0.042736553,-0.3711365,0.28771055,-0.4720735,0.4611112,0.8266363,-0.4097368,0.36922014,0.37535965,-0.05379474,-0.12825,0.91259307,0.053849578,-0.5130083,0.93279743,0.9226384,0.9070051,0.31651533,-0.052550673]},{"bias":-0.30884093,"weights":[-0.5749981,0.2143203,-0.10146558,-0.45074052,0.13416517,0.7155628,-0.6161656,-0.11146147,0.070690155,0.31135452,0.5746197,-0.3782822,-0.24154994,0.94941974,0.8125937,-0.12576336,0.31597507,0.66567063,-0.74579453,-0.8364041,-0.8270359,0.40733445,0.22785985,-0.781393,0.26176536,-0.5901796,0.9942024,0.7640197,-0.13406046,-0.54748243]},{"bias":0.18494117,"weights":[0.7443877,0.1365704,0.8342735,-0.025168777,0.8827855,0.9006057,0.684225,-0.57473963,-0.64470744,0.27760887,0.57719773,-0.42411584,0.30923045,0.27639258,-0.6458714,-0.9502547,0.3923408,-0.45482677,0.17583793,-0.88917565,-0.6189589,0.11237348,0.54251623,0.92412305,-0.92768764,-0.67336035,-0.36070096,0.96597606,-0.095214464,0.7123724]},{"bias":0.7028711,"weights":[-0.95084095,0.3046795,-0.1587702,0.14830291,0.09666479,0.42845213,-0.65716314,-0.2771553,0.19591558,-0.97661734,0.427436,0.34893978,-0.37875062,0.7848499,0.5650382,-0.041861176,-0.7874551,-0.41998667,-0.5213224,-0.9372113,0.4849435,-0.119342685,1.0,-0.9049616,-0.91733694,-0.7085267,0.5155061,0.025904775,-0.4871252,0.86122227]},{"bias":-0.92160726,"weights":[-0.4268497,-0.50931036,0.4584599,0.3948208,0.36550796,0.8775511,0.019588962,-0.44491404,-0.9363798,0.19546808,0.22075355,-0.6568861,-0.93958366,-0.7416414,-0.83233845,0.65028715,1.0,-0.3904292,-0.15610778,-0.98142004,0.9338758,0.8278065,-0.8933754,0.10050094,0.39974463,0.8785298,-0.4757554,0.41972867,-0.9313836,-0.3900637]},{"bias":0.17464054,"weights":[0.42361078,0.8539698,0.5455015,-0.83436155,0.115802884,-0.8273666,0.70207596,0.19670427,0.80086493,0.4042071,-0.28528258,-0.524515,-0.1397034,-0.83831525,-0.83756256,0.28399,-0.44949478,0.0867974,-0.21063584,-1.0,-0.12635005,0.15811837,-0.19522083,-0.7387707,0.7814646,-0.09710637,0.25722468,-0.8705139,-0.13548481,-0.36579937]},{"bias":-0.58529204,"weights":[-0.89762354,-0.8506891,-0.42528862,-0.82032657,-0.22638524,0.14843643,-0.122124076,-0.34429514,0.55903625,0.056917682,0.7940652,0.6904839,0.4054104,-0.5683071,0.49191916,0.64945275,0.39418447,0.2387358,-0.8442533,-0.28325504,-0.42270988,0.9881263,-0.2797019,0.86692333,0.8268705,0.58696985,-0.15270317,0.913523,0.8696046,0.8126607]},{"bias":0.30868423,"weights":[0.06906903,-0.11620152,-0.40005893,0.17798221,0.49386513,-0.355828,0.87407404,0.8267572,-0.14413726,-0.8996253,-0.54572225,0.078277946,-0.51073426,-0.3977906,0.9651449,0.22281301,-0.77105004,0.3335172,0.20665324,-0.08006036,-0.25366896,0.32580996,0.9945588,-0.11150663,0.28069508,-0.2414934,0.9925997,-0.9099989,0.871893,0.44385517]},{"bias":0.12887251,"weights":[-0.65984774,0.94129586,0.20945719,-0.2319802,-0.82162595,-0.15822256,0.49924695,-0.028926253,-0.4395182,0.2153107,-0.20740585,0.3980447,-0.22067297,-0.3392231,-0.78834486,0.8602884,-0.8340179,0.057549357,-0.4638111,0.3574208,0.79126686,-0.6554587,0.6042933,-0.3794787,-0.76056075,0.2888652,0.22068012,0.016312718,0.71318275,0.41771585]},{"bias":-0.06233442,"weights":[0.23754913,-0.5159125,0.91653395,-0.79242826,0.7814264,-0.027775884,-0.155182,-0.69411445,-0.8721886,0.699754,0.5660875,-0.40245306,-0.373524,-0.4632954,-0.69353867,-0.09280074,-0.39152497,-0.03743927,0.5378298,-0.84279895,-0.025170445,0.019022584,-0.69986457,0.3680781,0.26774654,0.4159322,0.15917885,-0.026200652,-0.25896233,0.37759727]},{"bias":-0.2826144,"weights":[-0.9244406,0.16623056,-0.20606297,0.9472203,0.90721726,-0.29986852,0.1504327,0.82985735,-0.50712603,0.0010334253,-0.18115887,-0.56840557,0.718265,0.5364578,0.58204013,0.16534412,-0.6733414,0.65823,0.1946649,-0.25956982,-0.02323234,0.7661562,-0.1484493,-0.027980447,-0.34427184,-0.5532698,-0.69630915,0.0015650988,0.25243652,-0.3477549]},{"bias":0.6342337,"weights":[0.23445633,0.8634696,-0.64222765,-0.57157475,0.25945127,-0.62212884,-0.6526607,0.33389276,-0.90444636,0.5681921,-0.256509,0.4919715,0.72658056,-0.1375643,0.67374015,-0.19217628,0.72025204,0.28616107,-0.6334734,0.91320634,0.22968686,-0.36847135,0.12960565,0.9170772,0.6988931,0.18861616,0.8449007,-0.18903697,-0.9077079,0.8480456]},{"bias":-0.650738,"weights":[-0.9593993,-0.12467703,0.2717923,0.2516762,0.39742225,-0.21201599,-0.380598,-0.7893133,0.03274405,0.9485429,-0.529815,-0.89438087,-0.091554284,-0.28081673,-0.6377128,-0.7417407,0.05956179,0.025666356,-0.8283063,0.5982518,0.89292955,-0.88451004,0.104322724,0.74061966,-0.24217021,0.79312575,0.2644819,-0.99805975,-0.13893402,0.15985079]},{"bias":0.77837515,"weights":[-0.8803246,-0.15316617,0.1749458,-0.017160513,-0.79080087,0.24596679,0.7308862,0.45843792,0.18801391,-0.4576711,0.21040356,0.7180836,-0.78105545,0.53582096,0.6544485,-0.80237985,0.9127886,1.0,0.5933919,-0.16461098,-0.4731683,-0.24208605,0.35256183,0.8743303,-0.9222431,0.42390376,0.8712775,0.9330466,-0.907145,-0.85754514]},{"bias":0.22058427,"weights":[0.8810694,-0.8366108,0.46431363,-0.68549895,0.1376316,-0.1409739,0.2264426,0.43359435,0.7132251,0.18491304,0.506757,-0.107207656,-0.39490956,1.0,0.2626196,0.62381387,0.11776745,0.13849223,0.74205595,-0.67927575,0.8893461,0.34852082,0.29076847,0.9770513,0.9137881,-1.0,0.39099222,-0.0230195,-0.432167,-0.5847482]},{"bias":0.81744504,"weights":[0.43733534,0.2528168,0.8863628,-0.31652153,-0.8999586,-0.50267094,0.58168745,-0.11819756,-0.80770946,-1.0,0.008758664,0.58339953,0.67002606,0.066519774,0.6704457,0.84648806,0.43294367,-0.75812,-0.15052807,-0.09055364,-0.36137122,0.27874553,0.40076554,-0.74801457,-0.27752218,0.833736,-0.31758648,-0.51732767,0.40834963,-0.8865845]},{"bias":-0.075879455,"weights":[-0.89024305,0.49447897,-0.0311445,0.9455912,0.2952317,-0.30802056,0.79504395,0.11145019,0.27074134,0.30822074,-0.26873583,-0.96277213,0.43257916,0.26794302,-0.03292054,0.592505,-0.83780754,-0.10731852,-0.08122309,-0.48463434,-0.06849391,-0.5818009,0.83537686,0.88242173,-0.7818599,-0.14241636,0.8696294,0.18517697,0.30883813,0.079518676]},{"bias":0.601702,"weights":[-0.8438206,-0.6832317,-0.6367085,0.8170965,0.82407546,-0.19424093,0.3515581,0.59742665,-0.0085174665,0.6884258,0.2173335,0.34655374,0.4830333,-0.22461617,-0.16544268,0.47171903,-0.4578067,-0.6043484,0.28601587,0.46635973,0.0673122,-0.6990495,0.051938415,-0.23922157,-0.8685889,0.6957288,-0.7068453,-0.03194511,-0.65787315,-0.74516344]}]},{"neurons":[{"bias":0.40670478,"weights":[-0.16651642,0.22193897,0.43433273,0.5503993,0.6120715,0.8157828,0.8733983,-0.13555148,0.03856337,-0.66553926,0.5504265,0.4736181,-0.33752966,0.33118045,-0.036192752,0.07630837,0.6634691,-0.9280906,0.4508065,0.3497697,0.56267166,-0.9035028,0.37804997,-0.38520163,0.6390629,0.67356896,0.98413104,0.26155794,-0.41716087,-0.51241213]}]}]}