{"layers":[{"neurons":[{"bias":0.29245412,"weights":[0.55219793,0.50282073,-0.20867145,-0.7636237,0.8724489,0.36763918,0.08135378,0.631207,-0.4928047,-0.64065576,0.17839801,-0.968272,0.25407207,0.9705336,0.17658603,-0.64936304,-0.8655031,-0.044751287,-0.11616194,0.07021606,0.41347992,-0.27408022,0.015653968,-0.8500464,0.081985354,-0.11444175,0.085558295,0.71296906,0.2595352,0.2946812]},{"bias":-0.044539332,"weights":[0.31662405,0.44088852,0.57628393,0.23749673,-0.9721587,0.7218447,0.14209783,-0.9355264,-0.5409762,-0.95125484,0.62699485,-0.3284034,-0.024086833,-0.64378023,-0.72562695,-0.84542155,-0.7078366,0.66053104,-0.08775127,-0.10502231,-0.39680308,0.32410944,-0.77012396,0.27810824,-0.9566674,0.23902595,-0.8729844,0.7112112,-0.3216831,-0.11146009]},{"bias":-0.584855,"weights":[-0.66850257,-0.5192961,-0.24954712,0.75295424,0.12886083,0.9283166,0.87694,0.2411617,-0.06526744,-0.9346278,-0.1090492,0.049744964,0.3749751,0.039647937,0.25802863,0.84785175,-0.49245995,-0.6171221,-0.31557387,0.13024652,-0.2733907,0.5890467,0.71332693,0.19314873,0.332739,-0.098691106,0.5182557,0.26839578,-0.70590067,0.35473835]},{"bias":-0.40139216,"weights":[0.22749603,0.21012819,-0.47872204,0.9831128,0.8153641,0.57889533,-0.14638293,0.16458952,-0.48172802,0.914505,-0.8611431,-0.011337876,-0.15138495,0.79360914,0.10386264,-0.3979637,0.7654002,0.0061374903,-0.39925808,-0.97803926,-0.2834429,0.28443086,-0.47878855,0.25943577,-0.24426758,-0.757848,-0.44149536,-0.27152294,-0.08308089,-0.30825943]},{"bias":0.6784661,"weights":[0.089830995,-0.7130463,-0.67580605,0.63192177,0.07226169,-0.2889871,0.47110236,0.31843722,0.9070158,0.9604852,0.925462,-0.74723077,-0.05259621,0.36235583,0.44024527,0.10399759,-0.056837916,-0.84512854,-0.30623835,-0.87607956,0.43483865,0.27196777,0.71556616,-0.927299,-0.9860761,0.7698729,0.19398892,0.066818595,-0.41870373,0.08425748]},{"bias":-0.17639005,"weights":[0.5113156,-0.4608342,0.6067207,0.22308147,-0.39143556,-0.00707376,-0.16830671,0.1270951,0.52420354,0.2647711,-0.09216678,-0.078133464,0.9063399,-0.21722734,-0.78908396,-0.24790132,-0.9464133,0.024751306,-0.2143861,0.37261498,-0.043581605,0.5037596,0.35098302,0.7145529,0.9762325,-0.79133034,-0.6051151,-0.9450116,0.19642627,-0.2934224]},{"bias":-0.7507446,"weights":[0.8703239,-0.5065655,-0.7059438,-0.56454605,-0.8815925,0.9291575,0.81666017,-0.1611749,-0.5634822,0.5941148,-0.43957824,-0.30111402,-0.6625171,-0.8260627,0.61515737,0.6877289,-0.041807294,0.26210058,-0.8574796,-0.23937285,-0.22900283,-0.68081474,0.7228503,0.2331034,-0.8951123,-0.25892252,0.33781397,0.3543867,-0.047327638,-0.6800904]},{"bias":0.85188174,"weights":[0.6371672,0.3025247,-0.50804824,0.5004368,-0.18376148,-0.612848,-0.77492166,-0.90523386,-0.39273995,0.9456854,-0.8774607,0.77950764,-0.35211915,0.16270554,0.46892726,0.82491016,0.7357254,-0.093912005,0.1310302,-0.7083297,0.28839052,-0.24762928,-0.8676553,0.52843523,-0.73389554,-0.5212564,-0.855541,-0.93551016,-0.05931866,-0.20437872]},{"bias":-0.8988118,"weights":[0.03255737,-0.85369563,0.94366264,-0.5240955,0.2368139,-0.37115258,0.92667246,0.6567178,0.58403206,0.2984544,0.25490677,0.44108474,0.77425814,0.8552618,-0.6714933,0.88576746,0.71088743,-0.7110467,-0.28008145,0.710623,0.87246466,0.16527069,-0.6808827,0.9454541,-0.42680424,0.5415523,-0.44902343,-0.08799541,0.0945915,-0.64396524]},{"bias":0.8458533,"weights":[-0.06565988,0.37442863,0.82721925,-0.30353326,-0.061800122,0.66192865,-0.040418744,0.33251488,-0.5047421,0.66271996,-0.3407597,0.95741487,-0.14878881,0.8356786,0.0868057,0.115314126,-0.98921156,0.34733975,-0.010997653,-0.08688891,-0.24071586,0.7668946,0.25049746,0.73550963,0.65216064,-0.11587918,-0.7564726,-0.517986,-0.8856416,-0.4345972]},{"bias":-0.1291982,"weights":[-0.17241704,0.11641276,-0.86968184,0.9326582,-0.57660645,0.5780592,-0.41956133,0.95149994,0.45031273,0.44062364,-0.42219967,0.81906223,-0.8598552,-0.29954523,0.25364125,0.363366,-0.20123112,-0.2651295,-0.70735264,-0.34934086,-0.84471536,-0.14584625,-0.6742101,0.72416306,0.42044866,-0.4690563,0.007734418,0.08110154,-0.76904035,-0.3469426]},{"bias":0.6098995,"weights":[0.33445466,0.18150294,-0.39764422,-0.55328625,0.5568352,0.32344687,0.3494364,-0.72220206,-0.2093097,0.64661,0.5806005,-0.99320173,-0.13500822,0.13812125,-0.80212927,-0.7985425,-0.012296081,0.5273876,0.87805414,-0.5935847,-0.5801222,-0.88656545,0.8095455,-0.007072091,0.35154402,0.7239585,-0.27638596,0.6731076,-0.7644968,0.0073059797]},{"bias":-0.2582342,"weights":[0.14646876,0.11739504,-0.19072306,0.8798373,-0.8714323,0.23770154,0.3627435,-0.7325895,-0.90410495,0.93115973,-0.9709203,0.84644794,0.6125622,0.07192004,0.55656195,-0.64835405,0.44996083,-0.9615407,0.88616586,-0.3111202,-0.5860061,-0.20899999,0.7558882,-0.6972251,-0.9501152,-0.9873402,0.099928975,0.17843091,-0.9962919,0.68508387]},{"bias":0.87219834,"weights":[0.31999767,0.2682811,-0.403737,-0.42860383,-0.30645484,-0.946038,0.24465144,0.30144918,-0.59911937,0.36768687,0.1627487,0.932678,0.8563273,0.3187188,-0.8434222,0.013954759,-0.2839393,-0.3504929,0.950536,-0.26404852,-0.31203026,0.9476621,0.91504693,-0.93938255,0.6208947,0.19881332,0.6610284,0.33640707,0.37895238,-0.70083165]},{"bias":0.6706574,"weights":[-0.22739923,-0.73219776,-0.27135104,0.41145313,-0.5684771,-0.87346935,0.19087017,0.95602727,-0.14074767,0.909647,-0.101694465,-0.49666494,-0.9618044,0.72953486,-0.28259748,0.48053586,-0.9414096,-0.32633013,0.9790466,0.8733864,0.41231334,0.5247078,0.94902325,-0.6558161,-0.7106762,0.78726363,0.97647953,0.1772598,0.7485163,-0.2996487]},{"bias":-0.9261818,"weights":[-0.9617567,-0.72323203,0.27479947,-0.9342103,0.3134278,0.25144827,0.4891349,0.93266916,0.22683036,-0.016844392,-0.14913094,-0.6402278,-0.35514373,-0.03251493,-0.035190463,-0.8227277,-0.26574534,-0.78616667,0.9624717,0.9830482,0.29485476,0.79873395,-0.6796429,0.15151155,-0.17061985,0.7287476,-0.61451954,-0.65833473,-0.7570269,0.24892938]},{"bias":0.796298,"weights":[0.8713889,-0.2163881,0.1415788,0.9957814,0.8929286,0.06040585,0.7981069,0.41535723,0.96409106,-0.9725187,0.2213589,-0.2580523,-0.6788242,0.01024878,0.15037143,0.3578297,-0.20495856,0.65043044,0.31563246,0.29933012,0.44932353,-0.54654163,-0.29357427,-0.61002964,-0.093254924,-0.52691287,0.3470384,-0.09342277,0.6283989,-0.29342502]},{"bias":0.93262124,"weights":[-0.3182134,-0.7305336,0.16482961,-0.73649454,-0.47177595,-0.36447114,0.8524213,0.31595004,-0.84016705,0.8923969,0.8768165,0.39205348,0.3315941,0.5436909,0.6219301,-0.1881088,-0.5038175,0.4848889,-0.030295253,-0.28322834,-0.46803707,-0.904094,-0.08169043,-0.7964432,0.423025,-0.08930409,0.80035615,0.19274986,0.726742,-0.68203497]},{"bias":-0.64638853,"weights":[0.27874005,0.9330728,0.5664804,0.64950824,-0.8976271,-0.66662073,-0.8376565,0.13917243,-0.17883384,-0.420978,-0.3951754,-0.381406,-0.050691485,0.3890494,0.6418655,0.16262996,-0.85364795,-0.39577287,-0.75089073,-0.38126463,0.8898792,0.8867886,-0.11405361,-0.7710612,-0.73217344,-0.3322639,-0.04626119,0.64066195,-0.4606759,0.7994256]},{"bias":0.2662884,"weights":[-0.47881907,-0.8916962,0.6019578,-0.12254107,0.13315165,0.7681625,0.02352202,0.47344148,-0.40617365,0.92379236,0.6721494,-0.9499004,-0.76281786,0.50295067,0.18879378,-0.5691895,0.5649891,-0.57614297,0.50322485,-0.9207463,0.083307624,0.006687045,-0.73200274,-0.07518375,0.32512367,0.008547902,-0.27254337,-0.43460077,-0.5211174,-0.18355453]},{"bias":0.8782072,"weights":[0.04574883,0.4978844,-0.013807178,-0.7110319,0.025268674,-0.6169142,-0.39186567,-0.70961165,-0.90438104,-0.8120446,-0.6768191,0.08851111,-0.10610616,-0.27206033,-0.17928183,0.516469,0.9777305,-0.48951453,-0.54570025,-0.1601218,-0.47036952,0.5026841,0.91487265,-0.65689635,0.80759215,0.3080219,0.683383,0.8070352,-0.11368835,0.94728994]},{"bias":-0.07273567,"weights":[0.4016627,0.7527199,-0.82630634,-0.39369196,0.8317919,-0.8556552,-0.7662647,0.34457433,0.8402784,-0.85493755,0.45921195,-0.069958806,-0.6745043,0.17245638,0.096785426,0.9209063,-0.6470201,-0.78157616,-0.6935296,0.2542261,0.5076015,-0.20957935,0.26868355,0.7055526,-0.2835955,-0.7195401,-0.08345401,0.23478949,-0.52588123,-0.73456]},{"bias":0.17740428,"weights":[0.9661865,0.046489835,0.79465127,-0.1272682,-0.16474354,0.38532007,-0.045634866,-0.69307756,-0.23393929,-0.44082087,0.52340627,0.4981538,-0.85185695,0.18643248,-0.8243439,0.3577968,-0.8163774,-0.7405691,0.92501426,0.9687748,0.5946741,0.5948777,-0.51972145,0.16618145,0.50460625,0.47706163,-0.4815852,0.7545886,0.26221287,0.5793092]},{"bias":-0.39416736,"weights":[0.049795747,-0.90712047,-0.7327864,-0.8226297,0.22856247,-0.18587625,-0.99861884,0.42827237,0.53834176,-0.32143253,0.53763056,-0.71388984,-0.8322246,-0.21765149,0.25842988,0.14841473,0.39271867,0.11352265,-0.490889,0.09348333,-0.862834,0.50026584,-0.5697486,-0.4041006,-0.7901206,0.13177621,0.75047207,0.76295114,-0.95315385,0.26139724]},{"bias":-0.40689272,"weights":[-0.2299062,-0.9293659,0.7847979,0.96400714,0.30990922,-0.2660467,0.62824273,0.4668771,0.21399629,-0.5673246,-0.6966679,0.506655,-0.2261759,0.19840634,0.5739391,0.74135447,-0.9689672,0.44050157,-0.6560128,-0.07772362,0.3829509,-0.9945214,-0.84456825,-0.9311125,0.748569,0.42697608,-0.80677056,0.5353975,-0.48183554,0.24726069]},{"bias":0.58981895,"weights":[0.4535693,0.7970035,0.020644546,0.050729632,0.5258341,-0.5989308,-0.550862,0.97493124,-0.7941687,0.48854053,0.10013449,-0.4986505,-0.8663988,-0.8352642,-0.7953918,-0.2965321,-0.6613486,0.2946409,0.7579708,-0.60204643,0.42491996,-0.014709115,-0.33009237,-0.7238879,-0.046047807,-0.81679106,0.63423204,0.9644134,-0.90498495,0.71478724]},{"bias":0.1850189,"weights":[-0.63334274,0.92989445,-0.6040668,0.9763415,-0.7075646,0.5642617,-0.13125432,0.090637326,0.6965132,0.9626529,0.21174109,-0.27818817,0.5429394,0.29862654,-0.1525048,-0.23591316,-0.40745157,0.81785107,0.2134155,0.5831609,0.32883894,0.07069886,-0.16853416,0.2059449,-0.2081486,-0.7651124,-0.47574896,-0.63700986,0.9457216,-0.8480902]},{"bias":-0.82067394,"weights":[-0.8789675,0.22545278,0.07519877,-0.5826449,0.86442995,-0.5227315,-0.15986717,0.91662717,-0.9936161,0.71054864,-0.3809225,-0.73783875,-0.3653962,0.32766998,-0.992574,-0.8189323,-0.44079608,-0.11772144,-0.8861697,-0.75844574,-0.36200446,-0.35313553,0.19387066,-0.27343196,-0.5073492,-0.38328117,0.77608275,0.895592,0.68843055,0.016792178]},{"bias":0.42526996,"weights":[0.80999804,-0.07400501,0.28113687,-0.2525198,-0.09143841,0.262761,-0.5557253,-0.80430293,0.08196461,-0.841902,0.6944754,0.85594726,-0.5128004,-0.86739063,-0.2410177,-0.09195602,0.29477465,0.91111636,-0.013869882,-0.27784628,0.16616452,-0.65168595,0.6188762,0.18190587,-0.7203114,0.11906803,0.87946534,0.12164652,0.86490726,0.25433576]},{"bias":-0.21477449,"weights":[-0.76645947,0.029885888,-0.556107,0.48018944,0.563961,0.3317114,-0.9911475,-0.94746685,-0.26859874,0.6616168,-0.15794337,0.82599497,0.7777207,0.99620247,-0.11802447,-0.83555174,-0.87487936,-0.03350818,0.14995635,-0.74214816,0.0036331415,-0.9501569,-0.53632253,-0.68175554,-0.6513488,0.4865924,0.6416886,0.28151977,0.8174436,-0.96533275]}]},{"neurons":[{"bias":0.24396288,"weights":[0.1414262,-0.2479521,0.15995347,0.448779,0.11150801,0.61335444,0.8282151,-0.0035008192,-0.95686436,-0.0975889,-0.4515614,-0.5277187,0.34304392,-0.2313546,0.4769994,-0.43528265,0.5071795,-0.34802002,-0.6940186,-0.09665954,0.16283166,-0.90047383,0.39231622,-0.60419816,-0.32031363,0.9306712,-0.8703046,0.10714114,0.650738,0.0538224]}]}]}