{"layers":[{"neurons":[{"bias":-0.778944,"weights":[-0.36457723,-0.61076,0.12938172,0.59155726,-0.7549194,-0.24837029,-0.16212794,-0.7472379,0.9011463,-0.7002067,0.50140905,-0.52973676,-0.15964615,0.5706074,-0.006496787,-0.12997401,-0.48661417,-0.9448292,0.13261819,-0.30927485,-0.7536565,0.97247934,0.43108743,-0.54304713,-0.062270045,0.6608155,0.4177388,0.45519593,0.5478623,0.74389523]},{"bias":0.37504256,"weights":[0.106291175,-0.59640497,0.06642711,-0.73267174,-0.22591221,-0.7640815,0.97091746,0.46435797,-0.23622072,0.7744849,-0.39288774,-0.26401955,0.5981635,-0.29942968,-0.8534746,0.9037695,-0.3326406,0.74186444,-0.59721184,-0.1445159,-0.07445586,-0.43425983,0.5920446,-0.93265647,-0.050674796,0.14015424,0.11780965,0.91392195,0.63517684,-0.22590499]},{"bias":0.96775055,"weights":[0.16993058,-0.6536678,-0.56703293,0.63090944,0.020979412,-0.9109994,-0.2507376,-0.91606593,-0.84726,0.15865266,0.9918392,-0.25728002,0.8152802,0.35328853,0.067478664,0.8592284,-0.04892342,-0.5559157,-0.92203975,-0.885869,0.9432194,-0.82302856,-0.8849709,0.9105017,-0.032702178,0.007982694,-0.579524,-0.020506024,-0.90488815,0.40177238]},{"bias":0.2577175,"weights":[-0.20629309,-0.20987213,0.9985554,0.091388695,-0.25880927,-0.702165,0.08501233,-0.1773954,-0.46885386,0.8724448,-0.82267714,-0.66384983,-0.7750716,0.18770015,0.38293922,0.84401643,0.1712941,0.23829569,0.8395896,0.4953152,0.8326965,0.10809028,0.088148475,0.34219968,0.3988241,-0.5961249,-0.8577176,0.88003874,0.009884477,-0.6534493]},{"bias":-0.7087457,"weights":[-0.10015569,0.9299226,-0.98448277,-0.33260977,0.56933737,0.22557437,-0.0803793,-0.5846891,-0.0019998625,-0.2185785,0.69806623,-0.028195024,0.31208527,-0.20432532,-0.1450733,-0.6592893,0.03926742,0.26607692,-0.22166145,0.64132214,0.77458334,-0.20848052,-0.26776427,0.8893688,-0.45737264,-0.62996054,-0.35931307,-0.11482662,0.47806633,-0.14134195]},{"bias":-0.84222007,"weights":[-0.56387264,-0.11818588,0.017406821,0.08093202,0.730289,0.2642194,-0.30610114,0.48904297,-0.9316366,0.54524755,0.2828294,-1.0,0.8235817,-0.40414184,0.015288144,-0.72541404,-0.38640255,-0.53210706,-0.15887344,-0.9138336,0.3163079,0.9433131,0.29795778,-0.6132609,0.4814696,0.77330565,0.52045584,0.679523,0.41486585,-0.9541192]},{"bias":-0.80192184,"weights":[0.964988,-0.4156069,-0.022823453,0.05205235,-0.99917245,0.1936951,-0.17472708,0.2530078,-0.17584321,-0.61386365,0.03527844,0.3151139,-0.03181541,0.76592016,-0.34711125,0.6127515,0.4711067,-0.92303187,0.04953587,-0.8855529,0.47393048,-0.29741424,-0.17539203,0.18156049,0.1644553,-0.6338178,-0.65432113,-0.42999023,0.4282652,0.38620937]},{"bias":-0.16925633,"weights":[-0.046371557,-0.47225422,0.19667399,-0.3578133,0.49484307,0.47981966,0.3072325,0.07189882,0.94791245,-0.3952507,-0.2693259,0.115877196,0.50392103,0.10677016,0.07561461,0.3446051,0.012305856,0.65917945,-0.014291406,0.024348617,0.97876453,-0.5132143,-0.11659658,-0.8385997,-0.59455794,0.24801385,-0.24796665,0.81943715,-0.22483689,-0.033415437]},{"bias":0.78110456,"weights":[0.17585075,0.64232975,-0.055339217,0.34526336,0.9424062,0.18661346,0.2712015,-0.8385925,-0.23250806,-0.6082715,-0.8306742,0.4743513,0.17061937,-0.092243314,0.6815024,0.98390365,0.5471371,-0.68507934,-0.7007761,0.51745176,1.0,0.39843905,0.2781576,-0.07380068,-0.6982498,0.25950706,0.99213624,-0.4561438,0.5099969,-0.67497396]},{"bias":0.58156466,"weights":[0.72733617,-0.1851722,-0.50159687,-0.2000961,0.11612761,-0.11606446,0.13177443,-0.67795116,-0.49644536,0.13348353,-0.70988804,-0.36319774,0.3455459,-0.2769403,-0.370763,-0.35940546,0.6057997,0.02846849,-0.57721114,-0.3453831,0.875283,0.8644593,-0.41214532,-0.9739871,0.7927487,-0.8707566,-0.0057546496,0.50281334,-0.8978424,0.03982246]},{"bias":-0.7661357,"weights":[-0.547249,0.21830618,0.73125327,-0.3923812,-0.78582597,-0.6643604,-0.52967685,-0.06827641,0.44313243,-0.32519525,0.95970416,-0.9745009,-0.8136523,-0.26390117,0.38337147,0.23884785,-0.7206309,-0.39677587,-0.6927799,-0.7014506,-0.12904394,0.83807373,-0.80285215,0.75148636,0.30428803,-0.6532619,-0.49208134,0.18832165,-0.89237666,0.24307334]},{"bias":-0.27401918,"weights":[0.68494064,-0.96446985,-0.30688447,0.9833126,-0.28393272,0.040533185,0.5716479,0.15707862,0.36423934,-0.5559119,0.36915982,-0.20351541,-0.2533952,0.80237174,0.53028965,-0.54950476,0.78732294,0.5380587,-0.89077353,-0.91654325,-0.66271496,-0.10668123,0.6998744,0.655628,-0.6008808,-0.7058494,0.6181926,-0.490925,-0.060177684,-0.46520555]},{"bias":-0.8070495,"weights":[-0.6396494,-0.023840308,0.9980078,-0.3461876,-0.66073155,-0.72586656,0.44482124,-0.69475365,-0.7955463,-0.6310439,-0.8727691,-0.0410749,-0.28819606,-0.8560183,0.38618457,0.21777761,0.8266363,-0.22207367,0.36922014,0.39661825,-0.05379474,-0.12825,0.8137975,0.31723678,-0.441961,0.93279743,-0.5744688,-0.19304931,-0.7587831,-0.052550673]},{"bias":-0.30884093,"weights":[-0.5122371,0.12820967,-0.10146558,-0.44594947,0.10541308,0.7155628,-0.6161656,-0.054809466,0.9094789,0.31135452,0.6195014,-0.3782822,-0.1444248,-0.60069364,0.8125937,-0.7771497,0.31597507,0.65603286,-0.76769835,-0.9079559,0.09624159,0.41385654,0.2939333,-0.861099,0.47098625,-0.17918217,0.93267477,0.9490166,-0.75067186,-0.11946213]},{"bias":-0.29292005,"weights":[0.7728594,0.14765501,0.8342735,-0.00073587894,-0.1102854,0.950771,-0.04217422,-0.84168625,0.6023278,0.27760887,0.5357729,0.8048861,-0.95504093,0.7729578,-0.6070782,-0.7028191,0.3613776,-0.5118039,0.17583793,-0.69166183,0.17173803,0.11237348,0.5048597,0.8578754,-0.92768764,0.39330447,-0.3560952,0.4302231,-0.095214464,0.64955264]},{"bias":0.14973629,"weights":[-0.26280755,0.03245318,-0.12895674,0.14830291,0.09666479,-0.8068261,-0.65716314,-0.2771553,0.22872713,-0.97661734,0.38620973,0.5357785,0.03913462,0.73897254,-0.72725725,0.9486265,-0.9820175,-0.36027595,-0.51890916,-0.91886383,0.89006615,-0.12589692,0.08606875,-0.82655066,-0.91733694,-0.7085267,-0.68282986,0.07809942,0.3331908,0.9395935]},{"bias":0.33603704,"weights":[-0.4268497,0.4968139,-0.46350664,-0.7019346,-0.20137274,0.05970776,0.7263689,-0.46864673,-0.9363798,0.6265919,0.28726417,0.73724794,-0.76016283,-0.7416414,-0.8080255,0.7110623,1.0,-0.3904292,-0.19565727,-0.90894246,0.9338758,0.8278065,-0.25858754,-0.06972635,0.38625094,0.9369355,0.5549433,0.38512084,-0.12239921,-0.3900637]},{"bias":0.17464054,"weights":[0.49706408,0.8539698,-0.41864413,-0.9308214,-0.29795593,-0.7895085,0.7109763,-0.47076982,0.33860505,0.4042071,-0.26949993,-0.524515,0.5241618,-0.85676056,-0.83756256,0.24691582,-0.44949478,-0.51311225,-0.13195857,-0.93801916,-0.12635005,0.24725458,-0.767936,-0.7430326,-0.3991124,-0.18932746,0.3024461,0.34968746,-0.006194949,0.6137104]},{"bias":-0.58529204,"weights":[-0.85656744,-0.8506891,0.946537,-0.28119963,-0.17687118,0.42759502,0.9702027,-0.3254143,-0.7044411,0.08779096,0.8149594,-0.6607809,-0.91767573,0.45879757,-0.38044566,-0.19702113,0.39418447,0.2387358,0.5059335,-0.28325504,-0.42270988,0.9881263,0.8902662,0.66598225,0.7976346,0.50061184,0.45475304,0.62548065,0.8696046,0.8126607]},{"bias":0.30868423,"weights":[-0.96745324,-0.8621466,-0.31783924,-0.7005031,0.49386513,-0.355828,0.87407404,0.8267572,-0.2267464,-0.8996253,-0.29389042,0.8362911,0.3091253,-0.98367333,0.727973,0.22281301,-0.80377007,0.36480975,-0.09646809,-0.91410327,0.9168711,0.38942885,0.9945588,-0.027264237,0.37133917,0.7258525,0.9925997,-0.9099989,0.29672492,0.44385517]},{"bias":-0.020613074,"weights":[0.35848582,-0.03799498,0.15033305,0.71050525,-0.3274135,-0.4049434,0.19529784,-0.009983547,-0.9211893,-0.32441467,-0.21349648,-0.62828183,0.45831573,0.883945,-0.75265133,0.8722478,-0.92157245,0.057549357,-0.4638111,0.3574208,0.8804564,-0.6554587,0.5245633,0.41374218,-0.52171916,-0.63615584,0.9270787,-0.0835573,0.63281345,0.3561262]},{"bias":-0.06233442,"weights":[0.23754913,-0.5293905,-0.9135375,-0.513678,0.8356497,-0.40834826,-0.08623829,-0.69411445,-0.85594296,0.5295234,-0.63589525,-0.40245306,-0.55191964,-0.4632954,-0.69353867,0.21602333,-0.9647386,-0.04406815,-0.63214374,0.49997532,-0.025170445,-0.8409617,0.27902925,-0.41640753,0.26774654,0.4159322,0.65994096,0.27214587,-0.16951445,-0.8396926]},{"bias":0.90645313,"weights":[-0.9244406,0.16623056,-0.305654,-0.6614251,-0.35264271,0.014729142,0.1504327,0.41899168,0.40355957,0.12489736,0.8475385,0.62663555,0.65905404,0.5364578,0.58204013,-0.93091893,0.7343869,0.8040912,0.13375427,0.030341506,0.29105437,0.8134586,0.9933424,-0.12572962,0.5144565,0.30875218,-0.69630915,0.86470604,0.17501314,-0.3477549]},{"bias":-0.7451582,"weights":[0.23445633,0.8634696,-0.27407235,0.18914974,-0.3839025,-0.62212884,0.52318096,-0.22308028,-0.90444636,0.5681921,-0.256509,0.41445187,0.7380679,0.15001333,0.7059878,-0.17255034,0.6630929,-0.4035086,-0.6334734,-0.2465924,-0.42610043,-0.27608258,0.12960565,0.94260144,-0.43875784,0.19298154,0.9272658,-0.2724759,-0.93013567,0.30683482]},{"bias":-0.650738,"weights":[-1.0,-0.5310797,0.2717923,0.26432762,0.36799285,-0.26560846,-0.5849475,-0.87243396,0.8872137,0.8953018,-0.529815,-0.9804774,-0.091554284,-0.41435713,0.6681814,-0.7417407,-0.22263539,-0.028949637,-0.8780074,-0.13579977,0.17066252,-0.7050054,-0.4143619,0.7418161,-0.24217021,0.37393272,0.28363854,-0.99805975,-0.59635204,0.15985079]},{"bias":0.77837515,"weights":[-0.81294584,-0.15316617,0.5385268,-0.017160513,-0.86965835,0.23944497,0.76159286,0.3867826,-0.49545115,-0.51345354,0.21040356,0.7380512,-0.21081793,0.6308081,-0.20896423,-0.80237985,0.9127886,0.964551,0.66324854,-0.20610306,-0.2728111,0.31604254,0.37481606,0.7782008,-0.9222431,0.1823622,-0.26674074,0.7508335,-0.907145,-0.85754514]},{"bias":0.0638057,"weights":[0.8001112,-0.8232119,0.8941972,-0.6847265,0.1376316,-0.16854241,0.40143168,-0.309673,0.75800186,-0.4059624,0.50903726,-0.7980356,-0.36648235,1.0,-0.36413807,0.18412197,0.21040946,0.08122705,0.13854682,0.902298,0.76487327,0.29121152,0.61529684,-0.47086972,0.95045054,-0.75737834,0.48050946,-0.0230195,-0.3784864,-0.6775286]},{"bias":0.10734975,"weights":[0.87580705,0.24691571,0.46366584,-0.7271917,0.9453058,-0.56486505,0.7795019,0.58960366,-0.8283858,0.32942045,0.33657825,0.58339953,0.07930291,0.066519774,-0.631135,-0.51067466,0.43102288,-0.79786605,-0.15428351,-0.09055364,0.34051454,0.20246837,0.37011835,0.36162436,-0.27752218,0.85516906,-0.3342252,-0.69339204,0.7995858,0.6089611]},{"bias":0.95402026,"weights":[-0.89024305,-0.9777243,-0.0311445,0.92256093,-0.40589303,-0.30802056,0.79504395,0.11145019,0.034924388,0.30822074,-0.26873583,-0.96277213,0.43257916,0.5413685,-0.30169505,-0.6345787,-0.92396575,0.17757976,0.43253314,-0.23672163,-0.06849391,-0.52284837,0.83537686,0.9822208,-0.7818599,-0.8795676,-0.9155328,0.11510151,0.30883813,0.079518676]},{"bias":0.601702,"weights":[-0.23800123,0.397838,-0.6367085,0.83532286,-0.8880975,0.31801832,-0.019983888,0.59641224,0.63355494,0.21616423,-0.7441919,0.34655374,-0.817847,0.3685931,-0.16544268,-0.16997826,0.4450487,-0.6043484,0.33409235,0.45792782,0.0673122,-0.6990495,-0.6030702,-0.23922157,-0.8685889,0.2673205,-0.7068453,-0.03194511,0.03759682,0.7751956]}]},{"neurons":[{"bias":0.8688638,"weights":[-0.70042276,0.22193897,0.43433273,0.5503993,-0.6841252,0.80728453,0.971472,-0.67892265,0.03856337,-0.6203773,0.49749172,0.39182124,0.066186786,0.14808142,-0.036192752,0.680485,0.5645453,-0.6100649,0.6758597,0.35322586,-0.8437779,-0.07927668,0.40289772,-0.69538975,-0.070301175,0.67356896,0.98413104,0.26155794,-0.4944924,0.49344194]}]}]}