{"layers":[{"neurons":[{"bias":-0.27898043,"weights":[-0.05247867,0.91677094,-0.052348256,0.8383193,-0.74674034,-0.40762347,0.026542068,0.50258374,0.42091763,-0.2512228,0.21850908,0.121008515,-0.94765925,-0.7886841,0.62644315,0.37107742,0.12324464,0.9427037,-0.26735348,-0.035754323,0.9451282,0.44006526,-0.9291916,-0.4851138,-0.91114235,0.6655724,-0.8141196,0.70109797,-0.6026642,0.20158541]},{"bias":-0.13607848,"weights":[-0.0056215525,0.2597593,-0.6419294,0.055028558,-0.7207782,0.8960736,0.5825529,-0.97276235,0.22871888,-0.18507469,0.89468765,-0.066295266,-0.9003928,-0.5467047,-0.19543707,0.10426271,0.27606213,0.40794718,0.023238063,-0.18462002,0.8123424,-0.115983605,-0.0024741888,-0.16035736,0.920799,-0.9103286,-0.0038477182,0.7484894,0.84237933,-0.7301452]},{"bias":0.69965506,"weights":[0.6565063,-0.32231516,-0.91733646,-0.8809285,-0.9929464,-0.23362887,0.8697624,-0.32489556,-0.9736066,0.30130446,-0.121439815,0.8103094,0.52060294,0.32030928,0.19685495,0.46189773,0.35047233,-0.8395927,-0.5235962,0.95641994,0.3990382,0.9101255,0.088024974,0.28058517,-0.9138198,-0.9723797,-0.9004934,0.97716355,-0.7932522,-0.13653004]},{"bias":0.36546242,"weights":[0.2770344,0.14437616,0.9967921,0.25188553,-0.7470896,-0.88504386,-0.19523656,-0.6772599,0.23145115,0.4618858,-0.39357084,-0.057206273,-0.39464515,0.0866617,-0.4074437,0.27699602,-0.37986273,-0.10408127,-0.24309719,-0.8105991,0.5585556,-0.41723222,-0.88371015,0.7790711,-0.8159785,0.21383536,0.17410648,0.02213633,-0.5515167,0.91179824]},{"bias":0.20057738,"weights":[-0.61471146,-0.8544886,-0.19462669,0.032791495,0.0216645,0.18806827,0.48286402,-0.8407624,0.9064927,0.947134,-0.08492458,0.23776734,-0.7744446,-0.38724607,0.8137469,-0.32439893,-0.67145896,-0.9827602,0.9667671,-0.29491347,0.45085204,0.073369145,-0.12523091,0.3130952,0.13349307,-0.16390145,0.051564336,-0.87876725,-0.57699794,0.52780914]},{"bias":0.72193384,"weights":[-0.16090906,-0.31044692,-0.450139,0.88732123,-0.8056319,-0.6119203,-0.6016018,-0.5609245,0.5696571,0.440503,-0.019274592,-0.1136502,-0.9971359,-0.3340525,-0.36092967,-0.5009355,-0.9776461,0.5437498,-0.6950083,0.5691652,0.9513242,-0.06455982,0.4233209,0.92139554,0.5119026,0.3410462,0.85968614,-0.250035,0.6652243,0.60213256]},{"bias":0.8723116,"weights":[0.68443894,0.5263202,-0.42861432,-0.8426876,-0.34462947,-0.003817916,-0.7763531,0.18952191,0.334144,-0.5921537,-0.52381366,-0.19055712,0.22241294,0.17365777,-0.13746774,0.99167633,0.46685803,0.40423954,0.48739254,0.4661063,-0.22310174,0.21350491,0.25420845,-0.448152,0.96270275,-0.3630218,0.20310652,0.24058998,0.7117958,0.013616204]},{"bias":0.85392904,"weights":[0.9279051,-0.29145902,-0.42814487,0.3748523,0.07452595,-0.50549453,0.98614335,0.67208743,0.3276235,-0.02124846,-0.23575628,-0.3859126,0.18154442,-0.35890597,0.05133331,-0.4678232,0.6701772,-0.3236813,0.3974303,-0.3398084,-0.3129205,-0.37385982,-0.771899,-0.08051121,0.55979013,0.22851288,0.8893683,-0.93279386,-0.35202545,-0.088548064]},{"bias":0.73105097,"weights":[-0.7500329,-0.3654639,-0.99854183,-0.26989,-0.9142096,-0.6816857,-0.72588515,-0.9510181,0.7915368,0.9260733,-0.8503883,-0.87602544,0.7836075,-0.92127895,0.1382438,-0.63673615,0.07669747,0.17584527,-0.8829932,0.28593147,-0.048219085,0.9334593,0.042617917,0.38161457,0.7150738,0.7401607,-0.45968765,-0.40418142,-0.883826,-0.60574263]},{"bias":-0.08999336,"weights":[0.059281707,0.6076596,0.52895737,0.8380058,-0.7264087,-0.33451718,0.26021826,0.76805544,0.6859617,0.82300806,0.89135766,-0.16362369,-0.7403505,0.896194,-0.51987714,-0.7683234,0.29686916,0.6634238,0.8089664,-0.80029845,0.22674024,0.8529208,-0.97280407,-0.31825727,0.72886324,-0.34444445,-0.87959504,-0.6550715,0.6123383,-0.0018771887]},{"bias":0.9169686,"weights":[-0.7065129,0.7816243,-0.0016072989,0.38716066,-0.51774234,-0.40876764,-0.48015422,-0.92359114,0.2104522,-0.5476281,0.032787204,0.8537605,-0.5875589,0.28084338,-0.34803838,0.5321574,0.60492206,-0.42948407,0.5449567,-0.52857107,-0.11147797,-0.917294,-0.5304305,0.039320827,-0.86374784,0.5511322,-0.068606496,-0.33963817,0.31294143,-0.7670469]},{"bias":-0.2741143,"weights":[-0.3276295,-0.80502105,-0.63552094,0.32012808,0.26762855,-0.9816263,-0.31508774,0.79575133,-0.5052838,-0.06204307,-0.74793506,-0.7963648,0.1662327,0.27925432,-0.77531505,0.27424634,-0.09531605,-0.22668421,0.596982,0.4429289,-0.8167176,0.05272901,0.24218929,0.2565788,0.20031917,-0.84046507,0.53663015,0.5716655,0.4814657,0.3845805]},{"bias":-0.5065946,"weights":[0.48280966,0.5520928,-0.5729968,-0.9540913,-0.85328484,0.011000514,0.7627442,0.18857658,-0.93076086,-0.82810235,0.46225727,0.6727221,0.06024015,-0.01441586,-0.22689998,0.99538994,-0.6937535,0.6093254,0.41592634,0.77393603,-0.0030726194,0.5753865,-0.5431344,-0.4312176,0.48299992,0.57279134,-0.1466459,0.6027014,-0.10941899,-0.9113622]},{"bias":-0.27070135,"weights":[-0.5854723,-0.58162874,-0.801373,-0.74245024,0.096538424,-0.19927227,-0.30323356,0.14725769,-0.40069264,-0.26624507,0.06389248,0.5219352,0.19198692,-0.26231927,0.617393,0.24632347,-0.007743001,-0.018473744,0.030651212,-0.8480792,-0.05792272,-0.83281446,-0.97393155,-0.58622426,0.7990992,-0.35707396,0.20275652,-0.66425824,0.032438636,0.41091383]},{"bias":-0.15114653,"weights":[0.24116743,0.62528586,-0.06429565,0.5777652,-0.84108424,0.8984449,0.7990236,0.44920456,0.13075888,-0.56920975,-0.6959207,-0.4916448,0.3669678,0.28769863,0.5274348,0.20257485,-0.04383719,0.7313757,-0.16113865,-0.99356055,0.66503215,0.8276918,0.7560916,0.6544075,-0.2292713,0.255077,-0.3113348,-0.1789378,0.60583806,0.021982074]},{"bias":-0.17963278,"weights":[0.686105,-0.58315676,0.7274661,-0.45742553,0.39977634,0.5206163,-0.25182265,0.54949975,0.5850768,-0.067373395,0.8006506,0.40485823,-0.2503988,-0.12521493,0.48551476,0.5813315,0.28560793,-0.49694842,0.19377792,-0.6530237,0.35947287,-0.44779724,-0.29035395,-0.8065417,-0.6013345,-0.5803842,0.24434721,0.73669505,0.2223221,-0.039739966]},{"bias":-0.7474742,"weights":[0.2736796,0.10657585,-0.12352693,0.53551745,-0.07975185,0.28335154,0.915874,-0.30265135,0.4695109,0.8217852,0.43531144,0.10625875,0.503849,-0.3814401,0.27091777,0.9463322,0.78909135,0.5759597,-0.62902427,0.021404862,0.7659681,0.77132344,0.5622566,0.95853114,-0.60810393,0.06131804,0.4431225,0.014066577,-0.022212863,-0.33307856]},{"bias":0.70734835,"weights":[-0.82743216,-0.99982905,0.3393041,0.9838929,0.5581503,-0.7150974,0.32285345,0.09299481,-0.720448,0.16871107,-0.756053,-0.6168081,0.49238026,-0.6910217,-0.80829334,-0.9865787,-0.019123435,-0.58631295,-0.04424107,-0.32488006,0.88620734,-0.7028408,0.8899839,-0.5767037,-0.7857368,-0.8143158,-0.43603557,-0.21145785,0.0011714697,0.43605506]},{"bias":-0.08466828,"weights":[-0.691833,-0.3242008,-0.5672483,-0.8981507,0.4986905,0.6143539,0.55021095,-0.17253506,-0.34579867,-0.6930587,-0.047376513,0.203776,-0.021184087,-0.3845839,0.37441838,-0.14058435,0.6832893,-0.65686464,0.30732286,0.029613614,-0.36574858,-0.9516432,0.8892274,0.46975577,-0.8313515,-0.87360096,-0.8678813,0.45952213,-0.13146985,0.74186397]},{"bias":-0.8430643,"weights":[0.37366974,-0.36100358,0.730217,0.8084774,-0.6394541,-0.39806718,0.23126018,0.4723469,-0.5528638,0.63631773,0.044941068,-0.74037075,-0.78494906,-0.86965466,-0.17200005,0.6002195,0.031200051,-0.6614015,-0.3991403,0.61961174,-0.8198495,-0.27681798,0.5946832,0.5511267,0.7080054,-0.81816626,-0.6278219,-0.22745454,-0.1919483,-0.41857117]},{"bias":0.35141838,"weights":[0.9943316,0.29435432,-0.64488673,0.29263508,0.37695062,-0.13087904,-0.8351078,0.50405073,0.9525051,-0.97329545,0.19485605,0.029008746,-0.83440495,0.35697925,0.98018265,-0.31020778,0.00089132786,-0.96142507,0.13523543,-0.5925855,0.15573967,-0.5370359,-0.1926533,-0.410711,-0.5814864,0.2880081,-0.685791,-0.78763795,-0.21554577,0.14690506]},{"bias":0.81985617,"weights":[0.8298507,-0.01669538,-0.7374866,0.6821463,0.20956051,0.4253894,0.9628544,-0.40049237,0.52302146,-0.6291764,-0.019214034,-0.054174304,-0.31184143,0.7163172,-0.11342776,-0.96891475,0.39069092,-0.3806612,-0.0490309,0.8484199,0.97611785,0.67770934,0.6236577,0.7134855,-0.7337847,0.7295501,0.3242966,0.11505234,-0.12415326,0.059957862]},{"bias":-0.708096,"weights":[0.3064102,0.8860669,0.24224913,-0.4266712,0.46047342,-0.15761459,0.25254452,0.063543916,-0.8480401,0.29907024,0.28590357,0.8011279,-0.37772626,-0.31965965,0.06211102,0.64690685,-0.42511028,-0.11121118,-0.8537717,-0.96185327,-0.8357098,-0.5947911,-0.16678727,-0.24530041,0.31936824,0.9330535,0.34505093,-0.85130644,0.32907546,0.05537069]},{"bias":-0.024511218,"weights":[-0.36760253,0.09446204,-0.9564581,-0.32509822,-0.654814,-0.74197555,0.12461603,0.7317796,0.07661855,-0.58934134,0.57692957,-0.26629704,0.9222398,0.056129336,-0.6216318,0.56237936,0.06801808,0.30394566,0.29792082,-0.79420877,0.90399885,-0.5568442,0.7266867,0.3682598,-0.8281758,-0.63931537,-0.16957271,-0.07021415,-0.55753344,-0.8429227]},{"bias":0.09046471,"weights":[0.738498,-0.6072101,0.28041995,-0.8663893,-0.35403985,-0.47519416,0.4944433,0.43700898,0.38174856,-0.7054939,-0.6874385,0.0029860735,0.20250857,-0.27171582,-0.22208393,-0.047670245,0.51669955,-0.92745876,0.22028935,0.3799566,-0.935622,-0.86900735,0.74671865,-0.031221747,0.12529743,-0.8669243,0.098019004,-0.63324594,-0.8874812,0.64585567]},{"bias":-0.43942446,"weights":[-0.1433531,-0.9331279,-0.9442899,-0.8953657,0.42839444,-0.7963295,0.21459782,0.31804836,0.6955831,0.4365741,-0.18102825,0.59230447,-0.70423436,-0.69687486,-0.5442249,-0.5575475,0.46441448,0.11222875,0.7695148,-0.30148047,0.9026971,-0.41275805,0.74659467,0.23622596,-0.34528583,-0.30898994,0.3909074,-0.68035007,0.39605367,-0.6577809]},{"bias":-0.26560277,"weights":[-0.86767673,-0.7322054,-0.22686541,0.3609048,0.78832126,-0.16567934,0.1690656,0.4728335,-0.72981906,-0.9987004,-0.06416595,-0.21411669,-0.052185178,-0.40600055,-0.35719007,-0.2781052,0.82649755,-0.44882625,0.27239597,-0.28211135,-0.31126565,-0.030756831,0.12222397,-0.2829439,0.15108359,0.95542693,0.80446315,-0.4338743,-0.53306264,0.5590286]},{"bias":0.87777543,"weights":[-0.76759315,0.7255783,0.61676264,0.9410143,0.5553796,0.15681946,-0.2712621,0.54541326,-0.8848839,-0.6440661,0.6884067,-0.12892854,0.2356664,0.0216614,0.79473305,-0.576605,-0.81169343,0.804626,0.7089734,-0.19553363,0.41706502,-0.45291203,0.33663905,-0.90164804,0.79956317,0.68461084,-0.6019661,-0.23536599,0.5999892,0.4083141]},{"bias":-0.34374613,"weights":[0.6685343,-0.017753482,0.9817002,-0.8425791,0.7597852,0.16008818,-0.5121705,0.7435534,0.65296364,-0.41662186,-0.13747585,0.04658854,0.8886149,-0.08799064,-0.09181559,0.995877,-0.07361901,0.09643853,-0.9230716,-0.61953205,-0.82025266,-0.390994,-0.28227872,-0.45426577,0.4786266,-0.97989225,-0.48113626,-0.9612653,-0.405389,-0.98350334]},{"bias":0.21020949,"weights":[0.9797251,0.9182129,-0.5902011,-0.9601457,0.9184351,0.5794182,0.635308,0.6833062,-0.97410774,-0.9299524,-0.051062226,0.6785519,0.30804694,-0.5915362,-0.68795085,-0.51596874,0.81768656,-0.33740467,-0.8229935,0.7453618,0.507828,-0.63497686,0.5702107,-0.40337032,-0.1880151,-0.5794751,0.4816817,-0.9148309,0.90488386,0.46400607]}]},{"neurons":[{"bias":-0.0809015,"weights":[-0.23686063,-0.72616434,0.59769917,0.4806558,-0.6681771,-0.0061570406,0.41990578,-0.1055938,0.9530945,-0.6295235,-0.13623583,-0.81623936,-0.897769,0.6822212,-0.8007529,0.665365,-0.49105686,0.2584244,0.3144375,0.13528025,0.9100237,-0.56585616,-0.75110507,0.99318147,0.47424233,-0.30354518,-0.32524198,-0.7511647,0.9397211,0.3419193]}]}]}