{"layers":[{"neurons":[{"bias":-0.63968563,"weights":[0.41938508,-0.1871587,0.68367386,-0.9179108,-0.9819515,-0.31321663,0.601557,-0.429743,-0.3759653,-0.2729172,-0.4880454,0.12623107,0.5383582,-0.060974002,0.40135205,-0.43450612,0.4142884,0.7261853,0.10708201,0.2870518,-0.96452546,0.24876177,-0.18042934,0.9628835,-0.22005284,0.27510583,-0.8622787,0.81600714,0.17068756,-0.10797608]},{"bias":-0.17113459,"weights":[0.79900384,-0.5545868,-0.022289634,-0.37488168,-0.614665,0.99277186,-0.68337154,-0.026321292,-0.52879566,-0.8457463,0.38518488,-0.66288733,0.515291,0.83840513,0.8618624,-0.49206513,-0.24434292,-0.6721442,-0.3060717,0.63372684,0.56488657,0.9576454,0.19973242,-0.49028438,-0.24991262,-0.48718852,0.89338493,0.8978665,-0.02367127,0.52730036]},{"bias":-0.3880729,"weights":[0.77702355,0.91971016,0.6101022,-0.53404707,-0.05694616,0.41215146,0.8665192,0.5128784,0.56017685,0.7235787,0.73954487,0.9270854,0.58928585,-0.026987433,0.05724132,-0.28588694,-0.17081034,-0.45937723,0.8059583,-0.6385634,-0.664299,-0.33859056,-0.98653173,-0.01174891,0.6816547,0.002315402,0.060750365,-0.5343358,0.41850626,0.46256888]},{"bias":0.30197346,"weights":[-0.14564717,0.40599644,-0.77599764,-0.19994247,0.11923468,0.62956834,-0.31806487,-0.68219113,-0.3054704,0.989722,-0.29152864,-0.876338,-0.88113093,-0.82324815,-0.41324323,0.937021,0.7341943,-0.0047672987,0.64022017,-0.5971238,-0.52894896,-0.7334769,0.5478406,0.3653823,-0.63089776,0.70994973,-0.9975686,0.18988478,-0.698858,0.4571222]},{"bias":-0.5269603,"weights":[-0.6252675,-0.53569955,0.8263757,0.71890426,-0.2448653,-0.74520993,-0.60457224,-0.29109663,0.89006186,0.077566266,0.41850054,0.7823508,-0.45375007,0.3681208,-0.26062077,0.5087187,-0.2703845,0.58812594,-0.23188293,0.78664994,0.2957741,-0.8696673,0.27177393,-0.49472803,0.32163703,0.7295222,-0.87957454,0.21819532,0.95165443,-0.13281024]},{"bias":-0.54095215,"weights":[-0.7924981,0.91919494,0.8894577,0.10022199,0.38329232,-0.88072205,-0.9471164,0.97584987,-0.45314378,0.4670955,-0.85471034,0.9567497,-0.67662764,0.18716967,0.86979866,-0.7026274,0.081721425,0.8586941,0.5502548,0.8969171,0.9776523,-0.7921727,-0.2917301,0.240677,-0.48951644,-0.996474,0.016560674,0.7948184,0.052289844,0.76392746]},{"bias":0.308612,"weights":[-0.37941736,0.7609434,0.542778,-0.3222763,0.21033609,-0.90659285,0.6732056,0.3974713,-0.06390655,0.9094026,0.70606875,0.09399402,-0.7891116,0.592015,-0.7304976,-0.0918473,-0.20581067,0.84773874,-0.6460228,-0.7767229,-0.80166626,-0.81818295,-0.13703859,-0.5916006,-0.6800189,0.18256223,-0.22281373,0.94855046,-0.089049935,-0.86395144]},{"bias":-0.46459788,"weights":[-0.7259338,-0.9419184,0.27891052,-0.9037647,0.20645392,-0.24999297,0.49907196,-0.8855438,0.6285355,-0.47508472,0.022968888,0.7708914,-0.22935092,0.83284163,-0.22466218,0.638643,0.12389815,-0.31066078,-0.0034252405,-0.66159534,0.59031296,0.4260701,0.30735767,-0.60525984,-0.94459224,0.049173474,0.9052737,0.33937228,-0.7062938,0.46468604]},{"bias":0.67466736,"weights":[0.87625337,-0.09969723,0.282992,-0.6313267,-0.34242648,-0.39577597,0.4094745,0.47665775,0.8211477,0.2384063,-0.6106283,-0.45726508,-0.12902248,-0.96260905,0.84368443,-0.30376476,0.16433585,-0.3509645,-0.12196386,-0.062214494,-0.32373136,0.44674242,0.16886151,-0.30832833,-0.77685714,0.79172206,-0.86573243,-0.023397326,-0.24965227,-0.70107937]},{"bias":0.18557227,"weights":[-0.6520939,-0.38881034,0.48064792,-0.86496615,-0.2892837,-0.42605156,0.009051919,-0.64752245,0.9679692,0.23938572,0.39291012,-0.4371826,0.97540617,0.6694348,-0.6289413,0.9392543,0.12248576,0.32628405,0.8204615,-0.872144,0.18136513,-0.052572846,-0.794539,-0.4965896,0.19255698,0.14403856,0.60246515,0.22995102,-0.3136658,-0.2081021]},{"bias":0.20294201,"weights":[0.49806035,0.38783824,0.47801387,-0.56553453,0.87269545,-0.57069916,0.7745364,-0.416511,0.21129692,0.5082059,0.16147745,-0.6123242,0.07452667,0.27509797,-0.14005125,0.9504254,-0.09171045,0.40994012,-0.65493464,-0.37905258,-0.9422996,-0.5355603,0.61722875,0.52470374,-0.10094035,-0.6296768,-0.19569623,-0.31562346,0.3568393,0.3306116]},{"bias":-0.92415166,"weights":[0.35842216,0.26322877,-0.5854599,0.50319886,0.28035772,0.15917623,0.8487017,-0.14554536,0.52769995,0.18033254,0.5180838,-0.36629003,-0.6822746,-0.76498604,-0.21689689,0.8164425,0.17683446,0.35855734,0.8051281,-0.918118,-0.9559996,0.7228606,0.84429836,0.9615352,0.55004764,0.99197316,-0.81881857,0.6019447,0.32883823,0.1831497]},{"bias":-0.961082,"weights":[-0.08090961,-0.7085068,-0.52276796,0.3028034,-0.21098268,0.059132934,0.86868334,0.30899227,0.5207412,0.23747122,0.5314698,-0.9513655,-0.41914648,-0.888293,-0.53921026,-0.685092,-0.3439936,0.36235583,0.52874494,0.38063133,0.7184565,0.5571327,-0.3008868,-0.3281719,0.6711421,-0.11380279,0.69293594,-0.8175645,-0.5806152,0.55623865]},{"bias":-0.8301337,"weights":[-0.45096725,0.8162739,0.16938412,0.77322054,0.3489555,-0.21406162,0.18611562,-0.5121545,-0.19557965,-0.048761725,-0.7178488,-0.41810268,-0.92203593,-0.6886785,0.3646022,-0.37306827,0.963696,-0.43423504,-0.4249515,0.58151054,0.5801554,-0.042684674,-0.60426253,0.6125064,0.139521,0.57827497,0.40107596,0.8296685,-0.5823247,-0.6533239]},{"bias":-0.20864737,"weights":[0.059664845,-0.80463624,0.18478549,-0.58111876,-0.16015017,0.60680985,0.5579145,0.8627949,-0.9354892,-0.948951,-0.8539934,0.57295585,-0.40290517,-0.054819226,0.928257,0.13139117,0.6432648,-0.36809248,0.8495159,0.5496588,-0.62933755,-0.98695517,-0.24989974,-0.09909594,0.14058363,-0.58410066,-0.8721702,-0.6245076,0.382609,-0.49988574]},{"bias":-0.34678906,"weights":[-0.8813696,-0.4062056,0.6366322,-0.059209704,0.5799725,-0.6124801,-0.7483573,0.5967283,-0.6295576,-0.5698046,-0.89103174,-0.010108352,-0.91394687,-0.88661695,-0.4251253,0.17666352,0.48838222,0.200647,-0.7210877,0.0066746473,-0.9391854,0.37731278,-0.98724866,-0.9542248,-0.8607259,0.94963527,-0.3009004,-0.4737057,-0.36670297,0.7039237]},{"bias":0.5342212,"weights":[0.3612076,0.37959015,0.24670804,-0.47307342,-0.18745768,-0.99013877,-0.3398618,0.3843447,0.3302325,0.6156213,0.40186775,-0.6382015,0.2578913,-0.35040277,0.7005992,-0.37419862,-0.48682326,0.02432549,0.7847729,0.71155715,-0.90807295,0.5530567,0.14845002,0.8342445,-0.58955234,-0.6332762,-0.78533125,-0.59320444,-0.49574822,0.04151261]},{"bias":-0.027147174,"weights":[-0.25861663,-0.5069558,-0.12923253,0.423725,0.5575743,-0.34819788,0.64853907,0.84821177,0.95721436,0.7032516,-0.027258039,-0.32118052,-0.7304883,-0.9096174,0.8019178,-0.8361075,0.6853545,-0.8211818,-0.46118802,-0.65998363,-0.36883157,0.07574999,0.6203253,0.63197684,0.6497936,0.79138017,0.725955,0.021660209,0.4211496,0.59500813]},{"bias":-0.7978325,"weights":[0.88977623,0.34874904,0.4073559,0.9359534,-0.44393367,-0.71387625,-0.3889498,0.027351737,0.47085083,-0.8713958,0.32373345,-0.43629974,-0.27882928,-0.22925603,-0.56014556,-0.19647944,-0.3234355,-0.7572491,-0.7918742,0.20449126,-0.18842614,0.1465081,0.041617036,0.7015674,-0.80314946,-0.84645987,-0.80181193,0.019673467,0.9534912,-0.24634588]},{"bias":0.548399,"weights":[-0.096129775,0.83815837,-0.3626873,-0.7607343,-0.95605564,-0.19708788,0.35833657,-0.9336748,-0.29533142,0.5838878,-0.31493324,-0.9501648,0.113830686,-0.5479407,0.018972516,-0.095712304,-0.9497125,-0.93329597,-0.94235206,0.97814345,0.21438062,0.82927585,0.013883233,-0.8247578,-0.76102495,-0.08319652,-0.41438073,0.8339157,-0.37864894,-0.2739727]},{"bias":0.24104631,"weights":[-0.31889743,-0.34189886,0.6888931,-0.25287598,0.55847526,0.5999644,-0.19822657,-0.6569047,-0.8567865,0.48834956,-0.68893147,0.9857483,0.06580746,0.0687598,0.03085196,0.56457734,0.20471346,-0.08135879,0.07788479,0.794296,-0.840606,0.26873767,-0.76535916,0.35869634,-0.5289187,-0.88427305,0.8381221,-0.0016139746,0.66948843,-0.39643735]},{"bias":0.96507597,"weights":[-0.89023423,0.27677357,0.9419596,-0.28642744,0.3999244,-0.56566113,-0.39045662,-0.67673016,0.21798718,-0.33905095,0.9723921,0.97946453,0.79340124,0.12666166,-0.86413884,0.37300646,0.36526287,-0.53538865,0.41389096,0.27472937,0.2846619,-0.8157139,0.1279372,-0.4839,-0.9277122,-0.10489452,-0.15288198,-0.5839867,-0.94846964,-0.6246008]},{"bias":0.568789,"weights":[0.12424052,-0.749681,0.14288628,0.07473576,-0.17876256,-0.323039,-0.52672166,0.43058383,-0.9471142,-0.51019067,0.39504135,0.50117135,0.066435695,-0.93995833,0.13915646,0.0018275976,0.41076434,-0.21668923,-0.2278856,0.35330236,-0.8383343,-0.8223238,-0.40280598,-0.90132093,-0.8252051,0.17341721,0.42435896,0.09000051,0.08912289,0.09884131]},{"bias":-0.5951051,"weights":[0.93091846,-0.17134345,-0.4010262,-0.37996453,-0.78354955,0.2225126,0.3094815,0.16464603,-0.4876625,-0.21517408,-0.7376592,-0.15162766,-0.7663064,-0.2778291,-0.64898634,-0.6562693,0.5488746,-0.7605994,0.49305022,-0.18566239,0.71083665,0.8434007,-0.25423163,0.5113559,0.016405225,-0.59397334,-0.030733228,0.18224013,0.83514404,-0.44487685]},{"bias":0.9420428,"weights":[-0.30934018,-0.5793714,-0.35646194,0.23924601,0.10119927,0.32756627,0.81303287,0.24630105,-0.47310227,-0.06055963,-0.82664466,-0.3228063,0.86853004,-0.34099525,-0.48323244,0.5924716,-0.34802192,0.71454716,-0.16234982,-0.7291534,0.26975214,0.7951534,-0.07984388,0.815712,0.6340656,0.8159919,-0.84932804,0.9369199,-0.58677334,0.044644]},{"bias":-0.97718,"weights":[0.70253205,-0.2623865,0.17960012,0.68574405,0.4888059,-0.10813248,-0.6042027,0.039737344,-0.21904695,-0.51590794,-0.7278404,-0.31566638,-0.40071052,-0.3092386,-0.89856124,0.17689884,-0.050224185,0.60090184,0.68277407,-0.43959993,0.032972217,-0.18483078,-0.56693476,0.18343914,0.2718023,-0.88644767,-0.09075272,-0.5067107,-0.3703391,0.45080173]},{"bias":0.46003377,"weights":[-0.07149637,0.32671487,-0.9074526,-0.31695265,-0.9394481,-0.7057059,0.58504295,0.023368716,0.032974124,0.44361413,-0.03854835,-0.6068668,0.9681401,-0.74527097,-0.06617129,0.55614376,0.8637755,0.98278403,-0.55250067,-0.94682384,-0.42352408,-0.009768605,-0.59071773,-0.19122565,0.8336513,0.39532697,0.65822625,0.72724724,-0.30463952,0.9506316]},{"bias":-0.5501432,"weights":[-0.41854542,-0.42829078,-0.48028988,-0.95776224,0.01763308,-0.037525773,-0.44825882,-0.79529,-0.064133525,0.7133784,-0.57267755,-0.38543433,-0.8808558,0.58644867,-0.5595047,-0.5006849,0.4992062,0.0483557,-0.22656333,-0.056539178,-0.41152877,0.90232086,-0.86872077,0.023832917,0.5318177,0.14075601,-0.2628178,0.94595003,0.48269904,-0.13213694]},{"bias":-0.7198684,"weights":[0.21810305,-0.031298757,-0.011633277,-0.37553042,0.87515616,-0.91716146,0.9155781,0.13705814,-0.27340406,0.37284172,-0.31733698,-0.6641538,0.65359473,-0.25289577,-0.61660427,-0.511331,0.19950116,0.4593259,-0.8397684,-0.21156847,-0.6106369,-0.7536614,-0.9958861,0.18711698,0.95717525,0.32113612,-0.9084549,0.24492109,-0.6077265,-0.5676171]},{"bias":0.6925216,"weights":[0.8959956,0.75175834,-0.8999977,-0.99875855,-0.19467986,-0.9515083,0.36349928,0.410015,0.69143105,-0.96066666,0.9690728,0.23771465,-0.82873464,0.31178272,0.84888935,0.85173845,-0.7325816,0.38530076,0.32085288,-0.9104755,0.30652893,0.79235125,0.43062747,-0.57835096,0.06193316,-0.32496065,-0.79122496,0.5568402,0.52055097,0.6788099]}]},{"neurons":[{"bias":0.30149758,"weights":[-0.7123563,-0.45032543,0.27539027,0.59061146,-0.42274302,-0.6749048,0.68576145,0.9876466,0.3712591,0.95451,0.37362778,0.04171288,0.71572256,0.62136626,0.14942634,0.17642534,0.80974936,0.35815847,-0.87306905,0.753469,0.9484072,-0.58463615,-0.715292,0.6209576,-0.915463,0.61244345,0.16158807,-0.33219284,0.9232087,-0.50607866]}]}]}