{"layers":[{"neurons":[{"bias":0.53039885,"weights":[-0.7522731,-0.13838685,0.7757435,-0.6863878,0.42849934,-0.031666875,0.2883159,-0.27593035,-0.99001694,0.604115,0.28050888,0.21965468,-0.69817185,0.49574983,-0.14758623,-0.00931704,0.9694998,0.68582654,-0.44800013,0.5019672,0.83633494,-0.1979717,-0.5902347,-0.982429,-0.39683622,-0.12685597,-0.23736775,0.9852679,0.15824568,-0.95487094]},{"bias":-0.71266913,"weights":[0.5710151,-0.719568,0.85273767,-0.656692,-0.82758904,-0.33378047,-0.4506163,0.4535352,0.2643906,0.6952343,0.15130436,-0.68609977,0.4678372,0.97272253,0.35529172,-0.99111104,-0.40024418,-0.32663816,0.6077888,-0.30071896,0.17642581,-0.61102957,0.5755017,0.8920224,0.8081236,0.56266904,0.17672455,-0.12879026,0.88881946,-0.20150888]},{"bias":0.27230513,"weights":[-0.45722455,0.46413934,-0.36145085,-0.08042586,-0.3551981,-0.85718083,-0.0997802,-0.28606695,-0.41182464,0.62785625,0.24085295,-0.73701143,0.8775954,0.8527081,0.65398836,0.106508136,0.12303054,0.80809903,-0.5735797,-0.6981015,0.09374225,-0.2518348,-0.6696141,-0.22039473,-0.15640533,-0.16017258,-0.7276907,0.7475605,-0.97930264,-0.5952534]},{"bias":-0.0634228,"weights":[-0.66127396,-0.676821,-0.5694768,-0.16436398,-0.16738021,0.45420015,-0.6560154,0.13758194,-0.10799563,0.40318072,-0.8192749,0.7632241,0.4149164,-0.9074371,-0.00007069111,-0.5962786,0.93870044,-0.52484316,-0.16255963,0.5950067,-0.47913736,-0.19695985,0.11861384,0.10536206,-0.028412461,0.30151618,-0.18031275,0.3571912,0.7451236,0.16407931]},{"bias":0.4225632,"weights":[-0.99056625,-0.44102472,0.95954514,0.70338845,0.35051668,0.6264627,0.36881173,0.78945446,0.5599704,0.6475973,-0.62096566,0.40209138,-0.0137399435,-0.83971214,0.45357,-0.46676964,0.69149375,-0.9771488,-0.20817196,-0.3846957,-0.112125754,-0.18577754,0.078421235,0.42620528,-0.27224725,-0.14539254,0.2105614,0.5373106,0.054371,0.58116937]},{"bias":0.42921913,"weights":[0.22642386,-0.13917863,-0.7958782,-0.07953012,0.13188398,0.5851276,0.2533039,0.18184221,-0.7745199,-0.96548104,0.9484689,0.059414506,-0.02550733,-0.6564362,-0.17866075,-0.20198357,0.22756016,0.44605267,0.60810804,-0.16890109,0.4724697,-0.5187883,-0.72182703,-0.47807997,0.32424438,0.10030091,0.1024276,-0.31755728,-0.5511934,-0.40575713]},{"bias":-0.4594199,"weights":[-0.17888653,-0.89578533,-0.8312037,0.3267342,-0.7108934,0.5907469,-0.6614139,0.985806,0.50073695,0.35049927,0.0624007,-0.5694887,0.3479544,-0.39716834,0.26514518,0.25860655,-0.31049913,-0.6493647,0.130813,-0.15585577,0.25676286,0.3026904,-0.20903623,-0.16358793,-0.16277683,-0.5033073,-0.4336204,-0.8821933,-0.63447714,0.6319003]},{"bias":0.11959469,"weights":[0.79218936,0.088593364,-0.56554,0.2558583,-0.09817445,0.20829976,0.4951681,-0.034064412,0.93811417,0.1195389,0.66364384,-0.12893808,-0.67903185,0.45270646,-0.30527467,0.7285981,0.5261586,-0.32950777,0.9914615,0.46472538,0.8778775,0.7058499,0.70360184,-0.2392813,-0.19484985,0.26207316,0.25731266,0.6371286,0.8482785,0.21746671]},{"bias":0.50834846,"weights":[0.14979684,-0.5096423,0.8209727,-0.87972736,-0.6661382,-0.23801672,0.21122277,-0.45626754,0.1215328,0.8859458,0.5984509,0.7853935,0.41813934,0.57678723,-0.16233408,0.03904164,0.9715121,0.51221585,0.26833546,0.31331527,0.06902468,0.8100271,0.5614941,-0.5571448,0.4899348,-0.96742487,-0.38415068,-0.083108544,0.7862108,0.09779513]},{"bias":0.27584803,"weights":[0.6903846,0.037389874,0.9168248,-0.67234325,-0.10768187,-0.46637315,-0.531275,0.5707617,-0.8911977,0.2002052,0.14373553,0.5775001,0.4616369,0.5211959,0.589545,0.9244435,0.31274903,-0.19847381,-0.90991426,-0.3421139,-0.17309177,0.62702966,0.514879,0.913224,0.5555208,-0.16308415,-0.0054370165,-0.12142646,-0.5198936,0.6554439]},{"bias":0.81535506,"weights":[-0.31875676,0.056837916,0.7072289,0.6318085,-0.52708405,0.7437,0.7224679,-0.5840673,0.95811915,0.30918562,0.7439897,0.86793566,0.37860143,0.5274217,-0.04590261,-0.28734702,-0.4801237,0.7313032,0.7023022,-0.102187514,-0.10176742,0.899225,0.18794382,-0.5750465,-0.5108542,-0.6935682,-0.28579825,-0.6686785,-0.4267308,0.40203035]},{"bias":0.25332057,"weights":[-0.30572003,0.87248254,0.33212268,0.28543293,-0.26556438,0.81018496,-0.52531236,-0.80990744,0.8054714,-0.40895528,-0.3665251,-0.051780105,0.053025603,0.9891648,0.857543,-0.34520668,-0.7674751,-0.37951964,-0.60205144,-0.3071651,0.62876225,-0.890229,-0.07300818,0.30291498,-0.05937612,-0.33433956,-0.05183971,-0.8834157,0.37475502,-0.038106084]},{"bias":-0.35544366,"weights":[-0.3662054,0.31056035,0.6080048,-0.5163402,-0.34866232,-0.5603346,-0.46236557,-0.57032675,-0.105033755,-0.3368625,-0.97618866,0.23886526,0.9670427,-0.6486609,0.40110528,0.8873234,-0.07027781,0.87440753,-0.842134,0.51717114,0.79025817,-0.3354141,0.27445233,0.98283744,-0.6596675,0.06521523,0.7955589,-0.4694869,-0.35117954,0.25933135]},{"bias":0.008485913,"weights":[-0.16510046,0.0597924,0.02600944,-0.81822443,-0.25770396,-0.85827017,0.94753647,-0.6324196,-0.18237269,-0.6966388,0.30265296,0.5504961,-0.89549017,0.49894655,0.56337404,-0.15077794,-0.8161726,0.8574593,0.37904584,-0.7434101,0.3795756,0.017532468,-0.3189308,0.9171486,0.171677,0.48992956,0.12740242,-0.3613667,-0.41961974,0.67340636]},{"bias":0.13038957,"weights":[-0.15514839,-0.567856,-0.9742267,0.18945658,-0.34945482,0.024772286,-0.73580647,-0.23347032,0.20705116,-0.7095809,-0.77278996,-0.48969096,0.9733913,0.45947993,0.76342916,-0.34337777,0.01362884,0.18738306,-0.9116938,0.55203414,-0.2764837,-0.7101369,-0.49934763,0.50769734,0.3523432,0.9228921,0.26413882,0.26235354,0.08044088,-0.47375983]},{"bias":-0.10002172,"weights":[-0.5543863,-0.31327647,-0.29243773,-0.027247548,0.14958155,-0.40279382,-0.96010566,-0.6107735,-0.0120590925,-0.32631582,0.7694576,0.8212118,-0.83385396,0.41671956,0.7304666,-0.1201576,-0.81816125,-0.19105852,-0.85963583,0.8423834,-0.71520877,-0.52058524,-0.5165884,-0.18138993,0.9906411,0.9436474,0.93207836,0.15573633,-0.030269265,0.81303334]},{"bias":-0.8001399,"weights":[0.9772613,-0.64988995,-0.2005266,0.4493314,-0.30347055,0.15052474,-0.4343347,-0.9087529,-0.673748,-0.67543316,-0.33653468,0.0056465864,0.45219123,0.4192003,0.34218705,0.56953096,-0.46732897,0.114956975,0.5918777,0.38732922,0.3812977,0.008927941,-0.71812105,-0.61444014,0.6688578,0.33668816,-0.8515117,0.88222694,0.35141098,0.12024844]},{"bias":0.05660069,"weights":[-0.3865487,-0.30876368,0.04249513,0.32367742,-0.94494605,-0.05268085,0.34108102,0.5957155,0.7539525,0.97538424,-0.7575989,-0.71960807,-0.33513635,-0.9937713,0.29635537,0.4386822,0.6645789,-0.9028709,-0.13001835,-0.55097026,0.15456188,-0.4547941,0.28893793,-0.7419045,-0.90468144,-0.44579238,-0.96733737,0.11675751,-0.54877657,-0.25232834]},{"bias":-0.7335,"weights":[0.55432916,0.69677997,-0.9052608,-0.23543322,0.110728145,0.20246589,0.5463824,-0.20676982,-0.5059733,0.68007684,-0.3477921,-0.1813463,-0.3491735,0.26889503,-0.3249256,0.81556773,-0.55518335,0.3471979,0.17714894,-0.4910738,-0.2910704,-0.23525631,-0.670773,0.5497947,0.3117634,-0.52016777,0.864444,0.41500604,-0.3463797,0.655498]},{"bias":-0.8896651,"weights":[-0.10613811,-0.26096147,-0.09294212,0.3943249,-0.531136,-0.1576649,0.7962196,-0.26789945,-0.0981673,0.43551195,0.981653,-0.9004061,-0.17394435,0.010381341,0.92718244,0.111124635,0.5572152,-0.2873215,-0.1633271,-0.81719136,-0.29817218,-0.21117532,-0.52183956,-0.30833596,-0.6895509,0.11051023,0.9246392,-0.011444211,0.7587421,0.44541395]},{"bias":0.39224136,"weights":[-0.7576337,-0.93230104,0.87433195,0.7410104,-0.5811867,-0.14011419,0.9993229,-0.41468757,0.2077874,-0.057439923,0.31431162,-0.085186124,-0.33227175,0.6139939,0.47556913,-0.29790992,0.63033605,-0.52034205,0.34946287,-0.9279642,0.18627107,-0.4883539,0.15959036,0.40469587,-0.3179292,0.021339297,0.2073394,0.9840882,-0.63198423,0.6358557]},{"bias":-0.69749284,"weights":[0.9178202,0.6731856,-0.26461262,0.98427486,-0.6054477,-0.513194,0.76794744,-0.6389022,0.31655347,0.46247828,-0.9260936,-0.8561363,-0.86746335,0.6671288,0.12306726,0.7862637,0.691056,-0.7693515,-0.9981508,0.42090046,0.45171058,-0.024575591,0.84116197,0.35294044,-0.98398757,0.023165345,-0.6486287,0.14748561,0.13153684,-0.17504013]},{"bias":-0.6076233,"weights":[0.5473213,0.6600361,0.26995242,-0.12625897,-0.17548645,-0.79589224,0.3742906,-0.58848614,-0.28360027,0.76547,-0.92497253,-0.30666655,0.39994037,-0.41582412,-0.84756017,-0.5525388,0.6506636,-0.47588414,-0.34697527,-0.54718345,-0.1778065,-0.89582396,-0.5449762,-0.18908226,-0.83389616,0.5806706,0.872246,-0.6106047,-0.16873682,-0.81954217]},{"bias":0.07451069,"weights":[-0.24973333,0.18092334,0.54080033,-0.34351343,0.11950219,0.08750093,-0.043359876,0.20881641,0.16337264,0.016631484,0.19066942,0.3545493,0.9807081,0.2894317,-0.47535652,0.4348234,0.008626819,0.2132529,-0.10332167,0.9551604,0.9259765,-0.3995239,-0.9871321,0.5580678,0.6103332,-0.6827886,0.7105746,0.08837688,0.3597306,-0.32703966]},{"bias":-0.6195306,"weights":[-0.5305647,-0.38213414,0.53956366,0.05636251,-0.92675257,-0.31908816,-0.3162164,-0.42364734,-0.4511971,0.051955104,-0.76475906,0.23495305,0.83148766,0.9286854,-0.71717954,-0.7702794,-0.022208333,-0.46739262,-0.72500086,0.23801458,0.82076526,0.06861174,0.7239897,-0.8046689,0.95871377,-0.15684664,-0.065695405,-0.63770723,0.7115798,-0.15550864]},{"bias":-0.09725082,"weights":[0.32940114,-0.9480231,0.85814977,0.501811,-0.86636305,-0.74736094,0.60266066,-0.22744715,0.7055068,-0.2603385,0.86892843,0.13430989,0.67627716,-0.57428616,-0.15167367,0.1449858,-0.5140261,0.45700347,0.48244894,-0.19625914,0.78289485,-0.9489629,0.18849337,0.73631,0.8671584,-0.16510665,0.88715315,-0.014304757,-0.7038927,0.8341527]},{"bias":-0.20332682,"weights":[0.09612763,-0.2169596,-0.8347187,0.62895226,0.26844442,-0.0031353235,0.9436605,-0.15204418,0.10303199,-0.3331241,0.31622517,0.9809532,-0.94616103,-0.57475847,-0.0139244795,-0.7332034,0.88479877,0.29476702,0.62096786,0.8316176,-0.27550572,0.27467978,0.36993706,-0.47950834,-0.9118304,0.9136355,-0.9928546,0.44039762,0.7546642,-0.18505394]},{"bias":0.018499255,"weights":[0.8350935,0.60989,-0.6304605,0.02710545,-0.4943673,-0.8308387,0.25656974,-0.9468577,-0.9831557,0.21968901,0.4218341,0.9848473,0.19640648,-0.64479375,0.67934704,-0.9061351,0.5928333,-0.35816187,-0.642611,0.48632634,0.32337105,0.17495048,-0.05496466,-0.6792517,0.6252713,-0.6670146,0.6673384,-0.57019085,-0.3831343,0.7389307]},{"bias":0.33345783,"weights":[0.3779279,0.21577728,0.7854383,0.4008764,0.25756943,0.52730346,-0.18236005,-0.33639592,-0.93132997,0.5674951,0.4589361,-0.038396716,-0.5345885,0.7909124,0.6011274,0.5604341,-0.38299984,-0.085168004,0.999568,-0.39678925,0.18650353,0.12963331,0.6033993,0.9734323,0.54075766,0.648051,-0.20188773,-0.39970797,0.07556546,0.15847361]},{"bias":-0.0014406443,"weights":[0.6887808,0.24872577,-0.3781306,0.20887291,-0.9824991,0.25681388,0.98435235,-0.14872587,-0.37684244,-0.108766675,0.4065994,-0.26768702,-0.27324003,-0.07529104,0.36132395,0.27373374,0.008296609,-0.96616054,0.7615435,0.3409487,0.50261617,-0.115771174,-0.0074771643,0.67641854,-0.6320958,-0.17636716,0.5269377,0.63799715,0.7921467,0.27298343]}]},{"neurons":[{"bias":0.26696742,"weights":[0.29483473,0.8862889,0.35896432,-0.48462075,0.16312659,-0.915462,-0.3591923,-0.6502664,-0.9500525,-0.91321325,-0.26089138,-0.09129083,0.5399494,-0.46446222,-0.5819723,0.37144673,-0.14464891,-0.06502783,0.738219,0.16971958,-0.7089441,-0.15463006,0.3790394,0.4083215,0.57174253,0.57139254,-0.084139705,0.51785755,0.08629668,0.85637593]}]}]}