{"layers":[{"neurons":[{"bias":-0.94977546,"weights":[-0.61534613,-0.1865381,0.43850005,-0.5736031,0.31548035,-0.055295825,0.80398655,0.41289747,-0.16808331,-0.7309704,0.41163194,-0.9285841,0.63591456,-0.6610651,-0.58712095,-0.32551783,0.9694998,0.7147732,-0.87074566,-0.21966612,0.66094685,-0.23657167,0.88760257,-0.30204505,-0.56609553,0.65445924,0.28254855,-0.26802295,0.8964889,0.5008471]},{"bias":0.019831061,"weights":[0.33589184,0.43767154,0.85273767,-0.9730468,-0.82758904,-0.68005776,0.9523604,0.2824725,-0.4183597,0.36341512,-0.14562619,-0.7584901,-0.7903168,-0.706136,-0.21454346,-0.008639216,-0.29517645,-0.13410413,-0.9078722,0.009514451,0.6820893,-0.34765333,0.4065312,0.8920224,-0.28796548,-0.733901,0.13621485,0.47272336,0.33011448,0.1563667]},{"bias":-0.0026499033,"weights":[0.6335795,-0.15250313,0.42462766,-0.18093193,-0.659276,-0.6539054,-0.9390445,0.113880515,0.47834933,0.70695615,-0.36678118,-0.73701143,-0.09576094,0.67488885,-0.13376033,0.8431785,0.12303054,0.9759624,-0.3221156,-0.22868693,-0.96145725,-0.60742635,0.8761053,0.14173949,0.55885696,0.853014,0.011597753,0.98010635,-0.3667099,0.056345344]},{"bias":-0.7482517,"weights":[-0.26106113,-0.886384,-0.5741076,-0.63247585,0.2240156,-0.23673236,-0.76287246,-0.6819725,-0.10799563,0.3025924,0.20090616,-0.9408243,-0.87434864,0.5027251,-0.44309276,0.76234436,-0.6870537,0.4107486,-0.18078196,0.5950067,0.8873007,-0.688154,0.11861384,0.10536206,-0.24764311,0.9948003,-0.6773522,-0.9541483,0.9250591,0.046682477]},{"bias":0.9584029,"weights":[-0.99056625,-0.44102472,0.353423,-0.7187519,0.35051668,-0.81185555,0.94552374,0.78945446,-0.7400553,-0.24097931,0.5301306,0.9351325,0.95519066,-0.11894977,0.31464708,0.85112953,0.50049067,0.8727691,-0.20817196,-0.103266835,0.7449367,-0.69529605,0.60637355,0.69536185,0.48523462,-0.88020134,0.9009235,0.9629071,0.9688103,-0.7748549]},{"bias":-0.42976946,"weights":[0.18287194,-0.6334796,-0.4636044,-0.07953012,-0.5392961,0.4130386,-0.1562463,0.8486576,0.35912454,-0.9408779,0.9820254,0.08823073,-0.32758707,-0.0043367147,-0.3394391,0.9651754,-0.3445248,-0.4537565,-0.70557666,0.08410108,0.278103,-0.70597243,-0.34906763,-0.40373272,0.71868205,0.028973222,0.8266125,0.9747784,0.66520715,-0.48684162]},{"bias":-0.1441189,"weights":[0.37851965,-0.38629574,-0.8312037,-0.6004452,-0.2022711,0.07327902,0.12694371,0.1099354,-0.96915865,-0.35314697,0.5185585,-0.043043494,0.9936142,-0.055814147,-0.4704234,0.632421,-0.03432381,0.5152767,-0.52893895,0.9647126,-0.5119445,-0.45288795,0.031225085,-0.16358793,0.9038205,-0.41808623,-0.6501305,0.664099,0.20060146,0.012673974]},{"bias":-0.3254668,"weights":[0.79218936,0.97529817,0.42027557,-0.6304934,0.035415053,-0.30967945,-0.559102,-0.6521435,0.89718413,0.072527766,-0.81649137,-0.3725719,-0.89970565,0.574131,0.8726754,0.86636543,0.5261586,-0.32950777,-0.23966897,0.46472538,0.39706767,0.00045621395,0.36786115,-0.0038119555,-0.19484985,0.8349631,0.88248825,-0.32188767,0.040350795,0.5417373]},{"bias":-0.6933341,"weights":[-0.41847295,-0.56507105,0.36309993,-0.3003053,-0.9729974,0.9091058,0.45970857,0.98364973,0.33310187,0.5066259,-0.59629196,-0.87369967,0.46406448,0.5099783,-0.81506467,0.03904164,0.9584491,-0.6030044,0.10571158,0.33248127,-0.035215735,0.711298,0.5614941,-0.22608626,0.6651418,-0.14977372,0.51568985,-0.7577169,0.08002365,0.4292413]},{"bias":0.5738292,"weights":[0.17457569,-0.083791375,-0.3720612,0.913007,-0.7869494,-0.9932585,-0.40586847,0.41531098,0.37737858,0.91106987,0.33920205,0.8909044,0.97930217,0.27919877,-0.1419822,-0.635108,-0.11808312,-0.73494387,0.6599343,0.047620893,-0.5363993,0.99974775,0.036007524,-0.38870353,0.5785527,0.066767335,-0.0054370165,-0.56424755,0.17403948,0.6554439]},{"bias":-0.6770184,"weights":[0.48533976,-0.1213249,-0.760973,0.4054531,-0.52708405,-0.4806401,-0.8044932,0.26503956,0.367051,-0.28025645,-0.5588133,0.12285912,0.4131478,-0.60637444,-0.9167788,-0.2111913,0.3202299,-0.35246962,0.5501754,-0.8135998,0.6205816,-0.37555164,0.09320319,-0.9739015,-0.5108542,0.39207423,0.17179906,0.87815046,-0.9836829,-0.80989075]},{"bias":-0.622163,"weights":[-0.50306815,0.57165074,0.41170037,0.4398297,-0.02980411,-0.37533826,-0.9298663,0.2065891,-0.051680684,-0.6202442,-0.5329179,-0.3653261,-0.46167153,-0.1668328,0.857543,0.58956814,-0.5516488,-0.40338987,-0.028445363,-0.5858266,-0.08190262,0.83498883,0.45679724,-0.99979806,0.7530899,-0.9081538,-0.6867919,0.64939904,0.026804328,-0.6441541]},{"bias":-0.35544366,"weights":[0.43231952,0.11264336,-0.57909554,0.55868196,0.08794272,-0.5603346,0.5644567,0.93691015,-0.14291966,-0.08705056,-0.7704606,0.23886526,0.51995826,-0.00014078617,0.08218682,0.98270273,-0.07027781,0.87440753,0.3191024,-0.67543864,0.91028476,0.57432294,-0.725718,-0.07320869,0.19898713,0.45919693,0.50554585,-0.4694869,0.94296384,0.8177166]},{"bias":0.008485913,"weights":[0.5872028,0.20835197,-0.17655003,0.68892956,0.7412467,-0.9716716,0.6306217,-0.70848227,-0.18237269,0.6995511,0.4024533,0.96892595,-0.4561774,0.46509278,-0.09819996,-0.8825567,0.34284985,0.31011117,0.51600003,0.85887647,0.9427352,0.017532468,0.76735616,-0.6023063,0.09642422,-0.93458486,-0.3522951,0.9529333,-0.32533902,0.4870783]},{"bias":-0.51729554,"weights":[0.22680652,-0.71926975,-0.09171307,0.86078405,0.69726515,-0.94764566,-0.22273147,-0.8846092,0.20705116,-0.42681807,-0.6210422,0.54533887,-0.8352146,0.15011275,0.4321288,0.84963846,0.92092156,0.55054116,0.35016596,-0.1304034,-0.27713197,-0.010772586,0.14882362,-0.37411064,-0.054638743,0.9228921,-0.57667035,0.68720746,-0.7472153,-0.44978064]},{"bias":0.49812615,"weights":[-0.73182774,0.28793156,-0.40381426,-0.6268966,-0.052384496,0.30700767,-0.38780445,-0.40724868,0.64006615,-0.46047038,0.72171116,0.44328582,-0.71988606,-0.8025727,0.86497116,0.17950499,-0.056191564,0.4052099,0.040522695,0.38707483,-0.94829583,0.5055711,-0.29907554,-0.76095796,-0.93772745,0.904953,0.3098718,0.61352897,-0.030269265,0.6262121]},{"bias":0.8674655,"weights":[0.28548563,0.104341865,-0.6334665,-0.86128426,-0.30347055,0.070681214,0.24686348,-0.37656754,0.24567378,0.072433114,-0.108872056,-0.60637516,-0.18187535,0.8747544,0.66484,-0.49844617,-0.07205355,0.679456,0.2598685,-0.51085323,0.7847736,-0.47942132,-0.76879025,0.5896485,0.7458687,-0.64582396,0.26786482,0.4213966,-0.42136806,0.12024844]},{"bias":-0.71427107,"weights":[0.9703114,-0.5452785,-0.07781327,-0.7147846,0.50849843,-0.04840219,0.48202026,-0.14140165,0.6018982,0.5398507,0.95293117,-0.92303586,-0.2923922,-0.9937713,-0.6069431,-0.8901262,-0.3915338,0.030388713,-0.97492075,-0.5462279,0.15456188,-0.4547941,0.9605782,0.9387021,-0.6625061,-0.8729968,-0.8729749,0.358173,-0.54877657,-0.68664193]},{"bias":-0.9951589,"weights":[0.55432916,0.90241814,-0.31264895,-0.20469749,-0.86684084,-0.11191356,-0.81445146,0.66053295,0.42523515,0.4260348,0.45223844,-0.7416861,0.6817992,-0.31116694,-0.3249256,0.24663007,-0.55518335,-0.116199136,0.21321023,-0.7186825,0.7656145,0.79167676,-0.24022949,0.19187558,-0.5353834,0.07057798,-0.3298995,0.41500604,0.08473098,0.5488367]},{"bias":-0.1349746,"weights":[-0.07542431,0.62537,0.04752004,-0.07057822,0.015657306,-0.7576122,0.47674096,-0.31900376,-0.026401639,-0.3376891,0.8993037,-0.9004061,-0.9151516,0.5987773,0.8575611,-0.23797166,-0.9628391,0.4272865,-0.66331077,-0.40313715,-0.4548487,-0.5506546,-0.52183956,0.08600938,-0.6895509,0.33411157,-0.16378653,-0.7054274,-0.4297902,0.42043054]},{"bias":0.752172,"weights":[-0.13480556,-0.19498026,0.99536896,-0.7749157,0.6167333,0.33235013,-0.34477156,-0.41468757,0.56535125,0.49794114,-0.11171496,-0.085186124,0.2457124,0.7704463,0.60206056,0.11466682,0.14876807,-0.43885297,0.9504781,-0.92457247,0.9760568,0.6168015,-0.36124104,-0.8554051,0.44396842,0.043187976,-0.6810088,0.9840882,-0.69797564,0.92560124]},{"bias":-0.69749284,"weights":[0.65969515,0.6731856,-0.8333144,0.7181356,-0.84558344,0.9917934,-0.74790955,0.071208596,-0.8913944,0.4722947,0.4041921,0.57680655,0.16668808,-0.86625886,-0.899976,-0.95832753,0.64841056,-0.80002785,-0.9981508,-0.92378545,0.503793,0.73809767,-0.05182612,0.812644,0.37175572,0.10573518,-0.6486287,0.7729299,0.7228091,0.50897026]},{"bias":-0.6894231,"weights":[-0.5211746,0.30176842,0.7763803,0.060866,0.72169256,0.093283534,0.3982545,-0.85620165,0.5328319,-0.3354048,0.98578,0.15419924,-0.23013937,-0.41582412,-0.7540567,-0.8280499,-0.63124776,0.43834627,0.5002403,0.75934124,-0.27098507,-0.89582396,-0.34563893,-0.9192016,-0.69156003,-0.40247196,-0.2596249,0.6567395,-0.1339649,0.8197396]},{"bias":0.18855035,"weights":[-0.24973333,-0.5576822,-0.7419851,0.01695168,-0.20968807,0.8736193,0.51152635,0.20881641,0.7542684,0.016631484,-0.20039856,0.8934367,-0.76715446,-0.105231404,-0.47535652,0.0775429,0.5577891,-0.88323283,0.9662781,0.8590884,-0.6520121,-0.3995239,0.43284714,-0.89278984,-0.23957813,0.7795305,-0.3762874,-0.10635245,0.7078805,-0.89607453]},{"bias":-0.7488606,"weights":[0.29042852,0.9346533,0.42804134,-0.48275036,-0.09433687,-0.5728485,-0.3162164,-0.4122793,-0.18021262,-0.8211217,-0.76475906,0.99365973,0.52394676,-0.4127826,-0.07840335,-0.031878114,-0.03867376,-0.44988507,0.14107978,0.23801458,-0.2558269,-0.87354636,0.7239897,0.841197,-0.691597,0.7340958,0.394189,0.026034713,0.49680722,-0.7132671]},{"bias":0.5274627,"weights":[-0.9906461,0.012175202,0.80154395,0.16533649,-0.7174516,-0.4100296,0.879164,-0.77570367,0.6173985,-0.10368264,-0.996475,-0.16227353,0.67627716,0.11024845,-0.15167367,-0.51374143,0.15872276,0.49692404,0.48244894,-0.19625914,0.9168093,0.45974934,-0.9739082,0.5483258,0.6135149,0.060604215,0.5102103,0.36642015,-0.6120638,0.2990471]},{"bias":-0.47636455,"weights":[0.65435123,-0.2169596,-0.2403568,0.62895226,-0.542268,-0.87519,-0.26821202,-0.99222255,-0.74971104,0.40709746,0.31622517,-0.8931198,0.47502172,-0.6802306,0.051264405,0.2725073,0.16683424,0.4168197,-0.742893,0.45007288,-0.72035885,0.27467978,0.36993706,-0.4264626,-0.70013356,0.19833982,0.63799167,0.11198175,-0.7173891,0.47982585]},{"bias":0.7599578,"weights":[0.3532561,0.5948868,0.73678064,0.02710545,-0.94679904,-0.4324538,0.30367386,0.08154714,0.0738641,0.21968901,-0.4094655,0.82097507,-0.75111294,0.4441291,-0.47962016,-0.36006254,-0.0843488,-0.8308065,0.71369576,-0.7272737,0.11357105,-0.5854866,-0.4550678,-0.38244623,-0.80723,-0.09575617,-0.39941067,0.50519323,-0.9964607,0.3764745]},{"bias":0.09026301,"weights":[-0.34427565,-0.38654655,-0.8062413,-0.32343882,0.53694344,0.23972642,0.117672324,-0.4968273,-0.76855993,-0.94580936,0.815233,-0.7200067,-0.5345885,-0.15242565,-0.11005318,-0.45989937,-0.97033215,-0.3962502,0.4829141,0.48809302,-0.6873388,0.15019166,-0.0031260252,0.9734323,0.84105444,0.5005827,0.2957505,0.60499024,-0.9240291,-0.57459325]},{"bias":-0.32099098,"weights":[0.9359679,-0.21298325,-0.3781306,-0.52246493,-0.9824991,-0.7853706,0.3870157,-0.9353056,-0.37684244,0.7379112,0.4065994,0.97569036,-0.27324003,0.6966469,0.8650725,-0.12098253,0.8032043,-0.35126108,-0.7152846,-0.009626985,-0.32209367,0.8448019,0.8865576,0.67641854,0.19285452,-0.17636716,0.1546725,0.2578796,-0.04058802,0.73814034]}]},{"neurons":[{"bias":-0.37084287,"weights":[0.33956373,0.5826807,0.35896432,0.79662514,-0.90188193,0.12602699,-0.28250498,-0.6502664,-0.70721245,-0.0019146204,0.78731775,-0.09129083,0.5399494,-0.091704726,-0.6526408,-0.13637078,-0.6452358,0.28159463,0.26804864,0.6177354,-0.21321476,0.7037184,-0.26319045,-0.5006675,-0.96465635,0.35766947,-0.050263047,-0.8858082,0.5207181,0.85637593]}]}]}