{"layers":[{"neurons":[{"bias":0.61742234,"weights":[0.40409076,0.727273,-0.00885427,0.98550177,0.44099557,-0.27602786,0.15345323,0.19276011,-0.7903564,0.73462653,-0.67648363,-0.47352308,0.3560027,0.8147199,0.38668048,-0.13290465,-0.94584775,0.005597949,-0.80945945,0.5920887,0.5561521,-0.75138307,-0.31596965,-0.11753762,0.32324064,-0.25632304,-0.5942208,0.046325326,-0.10878384,-0.93265295]},{"bias":0.019887567,"weights":[0.9842725,-0.6450124,-0.4137568,0.9425955,0.113434434,-0.9349661,0.983778,-0.73221993,0.5336721,-0.028844237,0.3992344,-0.7332678,-0.070865035,-0.721843,-0.43676347,0.7730942,0.6978097,-0.52015203,0.8824055,0.99546623,-0.23959506,0.256122,0.75040126,-0.93881464,-0.47023767,-0.15561712,-0.299375,0.7493589,-0.45369977,-0.622256]},{"bias":-0.31777352,"weights":[0.3947531,0.7910657,0.24711287,0.5470989,0.8160167,-0.4718489,-0.013564229,-0.96962523,-0.60784525,0.9103997,-0.29355925,0.635422,0.45142543,-0.4572844,0.4773804,0.97570086,0.31119835,0.2649039,0.35533535,-0.7522261,0.6276412,0.313367,-0.77127147,0.1657809,-0.493046,-0.8113556,-0.5025615,-0.9039185,-0.14466989,0.21123588]},{"bias":-0.1488105,"weights":[-0.5750541,0.60449004,0.141199,0.060882688,-0.6559937,0.7523773,0.27081764,-0.84548855,-0.67785525,0.8473151,0.6032245,0.516047,0.20182836,0.5604887,0.9279423,-0.23501098,0.58266425,-0.7722447,0.76784515,-0.94119215,0.6073339,0.40666902,-0.420587,-0.35837454,0.9003904,-0.7765248,-0.15875113,0.3912195,-0.10898888,-0.93228006]},{"bias":-0.04094827,"weights":[-0.80239797,-0.19018185,-0.048225522,-0.52396315,-0.03053844,-0.042583585,0.39926016,-0.25898975,0.15646398,-0.86404586,0.95420504,0.55925107,0.05992806,-0.84471273,-0.07883227,0.5691371,-0.47260183,0.12348449,0.59834313,-0.84279203,0.71733856,0.8436115,-0.3557536,-0.5737123,-0.4281265,0.31948745,0.9645481,-0.6737821,-0.86782336,-0.7246094]},{"bias":-0.7835355,"weights":[-0.6698823,0.8351412,0.5196414,0.497244,-0.15931928,0.621573,-0.53824586,-0.46114725,0.64170337,0.010987639,0.8754511,0.2516812,-0.30734056,-0.528711,0.18783557,-0.2673983,0.72879887,0.23229396,-0.066663146,-0.5048904,-0.5974774,0.8658104,0.52540445,-0.019174695,0.17407095,-0.6285746,0.6417093,-0.424421,-0.27886385,0.15522826]},{"bias":-0.025115132,"weights":[0.03647983,0.050980687,-0.4856109,-0.58330435,0.23628199,-0.45653647,-0.7747352,0.6608732,0.98715544,-0.9174032,0.73650336,0.1652013,-0.48946947,0.11870301,-0.83855605,-0.07904565,-0.20650661,-0.1059345,-0.85312915,-0.6645527,-0.79309964,0.74446344,0.13777196,0.52686,0.016595244,-0.16382515,-0.57176656,-0.04877889,-0.6974404,-0.917228]},{"bias":0.7723768,"weights":[-0.31622285,0.3032676,-0.20289576,0.32185614,-0.52144283,0.59708524,0.80854917,0.63485646,-0.41263646,-0.8371637,0.6879108,-0.8845751,-0.35325974,0.3657378,-0.8895204,-0.8740797,0.48440182,-0.5927252,0.19210637,-0.14618814,0.8067796,-0.52918476,0.12384045,-0.19455159,0.03261912,-0.34740037,0.34240305,0.8758402,-0.06160772,0.007412076]},{"bias":-0.97430205,"weights":[0.61349654,0.08898938,-0.23548925,-0.081294894,-0.7285745,-0.6204063,0.90422964,-0.44152492,-0.68830514,0.555105,0.68197656,0.31178176,0.8285556,0.4583279,0.75047565,-0.40323633,-0.819154,0.8660703,-0.25067943,-0.5007219,0.694257,-0.21923006,-0.7610018,-0.58676475,0.78393316,0.46612942,0.26401103,0.13142693,0.70705414,-0.020274282]},{"bias":-0.15748084,"weights":[0.1262685,0.64310575,0.9462733,0.5100486,0.5883672,-0.5205156,-0.23835647,-0.15717757,0.7986622,-0.7210982,0.523581,0.59275174,-0.54309124,-0.12402904,-0.42402095,0.6695852,0.9244113,0.8931575,-0.5946705,-0.8292091,-0.7247393,0.5693519,-0.41852826,-0.98878,-0.115296006,0.53918886,-0.84488225,-0.5490317,-0.7955158,-0.37529486]},{"bias":-0.25847477,"weights":[-0.46408743,-0.24640858,0.50633216,0.6426234,-0.9938669,-0.50121015,-0.57557744,0.48211348,-0.9015298,-0.5378906,-0.5952596,0.56241775,0.5281887,0.022359967,0.91466284,-0.94210744,-0.9263215,0.5081992,-0.07470143,0.18439186,-0.8034351,-0.7793548,-0.8113749,-0.7040231,0.7482753,-0.8421428,-0.14539516,-0.40381855,0.9720211,0.8539338]},{"bias":-0.21395051,"weights":[0.95838046,0.86655235,-0.5324637,-0.46728343,0.29747188,0.9912021,-0.49428982,-0.15379202,0.6181965,0.70281696,-0.20133698,-0.5650615,0.13862932,-0.24528491,0.7102883,0.38182008,0.20284402,0.93516064,-0.51583236,0.030057788,-0.5070984,-0.08269966,0.23080266,-0.52218074,-0.30996364,0.4158312,0.041367173,-0.3057961,0.06567681,-0.67469025]},{"bias":0.9766202,"weights":[0.6376343,0.416731,-0.2442621,0.7790234,0.78403664,0.9002454,-0.08729565,0.92399955,-0.103687406,0.5711453,0.13637841,0.7270076,0.62533975,0.4720658,0.038167596,0.64932966,0.45736825,-0.12182081,0.2569009,0.8526659,-0.10903132,0.8879564,0.35953963,0.7029929,-0.15292966,0.71704817,0.5050018,0.5127735,0.4735595,-0.996248]},{"bias":-0.47068113,"weights":[0.57715726,-0.42085546,-0.607361,-0.75507903,-0.2945847,-0.6980567,-0.9376116,-0.66869426,0.01430428,-0.54241604,0.74927115,-0.42734212,-0.54649895,-0.36796588,0.5343337,-0.7763541,0.8310969,0.45716083,-0.634238,-0.75641084,0.74337626,0.4385041,0.83664083,-0.119971395,-0.7327013,0.5070815,0.15341556,0.98511004,0.7812586,-0.52453774]},{"bias":0.59609175,"weights":[-0.94672036,-0.8339238,0.21250165,-0.4391014,-0.3862669,-0.9048891,0.033745646,0.21407449,0.48230207,-0.2467326,-0.7924135,-0.58063906,0.82432675,0.86804914,-0.14677823,-0.2881605,0.3073176,0.88992906,0.49620426,0.9261384,0.29677403,0.98986816,-0.75395584,-0.1872431,0.9927354,-0.32552594,0.5041537,-0.9362519,0.7242317,-0.13845599]},{"bias":-0.3579325,"weights":[0.39743507,-0.3080501,0.73222065,-0.8622782,-0.9919801,0.31136954,-0.32506412,-0.8165996,0.035429597,-0.57119626,0.17252433,0.556839,0.38324702,0.91660476,-0.7824135,-0.883302,-0.10436833,0.4832195,0.010076404,0.3205508,0.4823414,-0.6173646,-0.50431055,-0.42930692,-0.047631383,-0.043552995,0.73506594,0.0054763556,-0.14074814,0.7996588]},{"bias":0.8003688,"weights":[0.94492245,0.5001807,0.98267245,0.2444607,-0.22672307,-0.16443765,-0.5890724,0.10737336,-0.9563832,-0.21487248,0.26368368,0.98899245,-0.2818424,-0.83280754,-0.6672139,-0.80639267,0.9784126,0.088724256,-0.041748166,0.5440142,-0.8460789,0.5061946,-0.63749456,0.63371277,0.0860039,0.5448494,0.18894947,0.9565551,-0.21723378,-0.7026336]},{"bias":0.27368224,"weights":[-0.7587855,-0.72045255,0.83497906,-0.8496387,0.9460318,-0.19299018,-0.86215806,-0.07043874,0.9270735,0.19277728,0.19786179,0.68756557,0.9095843,-0.38856572,-0.15443075,0.21271122,-0.028089643,-0.721447,-0.6133191,-0.24960244,-0.4320678,0.7834761,-0.61589354,-0.9067147,0.79023814,-0.42987818,0.03900063,-0.54395956,0.68627405,0.52681446]},{"bias":0.4112829,"weights":[0.048674226,-0.0677768,-0.8930719,-0.85559034,0.081238866,-0.27318257,-0.1821028,-0.512247,-0.39757508,-0.38514465,-0.77518916,0.28785098,-0.32586354,0.45722854,-0.6567428,-0.22094,-0.031376958,-0.5669164,0.23235881,-0.34662718,0.32425773,0.12484348,-0.5862817,-0.0083812475,0.4931816,-0.3017289,0.63445234,0.831331,0.08137691,0.5511198]},{"bias":-0.9457233,"weights":[-0.9329796,0.34345043,0.71598935,0.28434718,0.52939606,-0.6708343,0.20996463,0.09182131,-0.6706376,0.29044378,0.7236998,0.45250022,0.21464956,-0.102127194,0.3066646,0.6853442,0.36098635,0.11089051,-0.38681763,-0.9540825,0.8511307,-0.08277118,0.78739834,0.55490065,0.45198786,0.60334945,-0.2139641,0.78928924,0.5833719,-0.28691262]},{"bias":0.41085088,"weights":[-0.9044397,0.5467541,-0.87765956,-0.47131485,0.90368843,0.45146906,0.99995756,-0.65679336,0.8745618,0.49245727,-0.84385586,0.4630171,0.78544545,0.9107945,0.52799034,-0.004925132,0.95252013,-0.56714004,-0.76802015,-0.77912617,-0.7828572,0.91694427,-0.73811316,-0.8534663,-0.86190987,0.40074766,-0.6757195,-0.04654944,0.6755545,-0.28976554]},{"bias":-0.117741466,"weights":[-0.77974415,-0.5514974,0.75441337,-0.82746625,0.056715846,0.9217565,-0.09576118,-0.19721615,0.43116844,0.1477691,-0.42005652,0.7012744,-0.9578533,0.63430095,-0.38891524,-0.12387383,-0.49233407,-0.7889526,0.48098648,0.3837148,-0.38065046,0.56428146,0.36912286,-0.59012145,0.80013967,-0.42454928,0.60697937,0.55562425,0.60696435,0.21209419]},{"bias":0.19921339,"weights":[-0.4310202,-0.73138475,-0.521527,-0.45293683,-0.84485364,0.7915337,0.88725495,-0.44467896,0.4710325,0.94834757,-0.33953136,-0.7014327,0.08296621,0.35662878,-0.61494225,-0.63847756,-0.31506985,0.99015284,-0.8701041,0.8604815,0.57468057,0.40780652,0.7987554,-0.16761982,-0.8839781,-0.51394194,-0.057971835,0.4773742,-0.4310686,-0.33488935]},{"bias":0.12216079,"weights":[-0.055790782,-0.9861529,0.79636,-0.0032087564,0.67552996,-0.9619386,-0.45108908,0.8805833,0.3589915,-0.5388815,-0.07451165,0.7521262,0.55421114,-0.8963096,0.20190775,0.71709394,0.60955024,0.08446586,-0.51998633,-0.042077422,0.12776482,-0.98023987,0.99800825,-0.7677734,0.45002377,0.85298085,-0.35561126,-0.85764194,0.82429004,0.32519138]},{"bias":0.7229419,"weights":[-0.58158606,-0.5043201,0.3826381,0.75021815,0.6459131,-0.96542454,-0.67994475,0.13230622,-0.56188124,-0.8820517,-0.05690229,-0.113007426,-0.54398197,0.40289986,0.61917806,-0.06410587,0.67247033,0.4460553,0.16903675,0.35492456,-0.67984915,-0.5515396,-0.10492957,0.70992446,-0.6757281,-0.81220937,0.6843364,0.8177438,-0.5083546,0.7771814]},{"bias":-0.34353846,"weights":[0.91993046,-0.4888305,0.90653086,-0.12533867,0.093880534,0.3987633,-0.90787864,-0.108172536,0.5273111,-0.37503356,-0.30505294,-0.297661,0.41233504,0.20060194,-0.2953779,-0.86737156,-0.38464707,0.14047849,-0.85939693,-0.7863445,-0.2998609,0.7183399,0.7263961,-0.6344311,-0.800298,0.022852302,-0.7096796,0.6720419,-0.2797274,0.735162]},{"bias":-0.78245854,"weights":[-0.6949549,-0.01841247,-0.08865535,-0.8445256,0.5495801,0.1309768,-0.59375376,-0.24966514,-0.38000363,-0.33644098,0.35454404,0.10411203,0.4460956,-0.2653622,0.058659196,-0.7653773,0.7310324,-0.70730376,-0.001562953,-0.8874819,-0.4172067,0.06893599,-0.74656534,-0.45138186,-0.5341734,0.355466,0.830353,-0.9360709,-0.73490524,0.73027134]},{"bias":-0.6664827,"weights":[0.997977,0.059843898,0.94329715,-0.02746284,0.16795719,-0.7749715,0.9712441,-0.17618668,0.007748008,0.5907986,0.9839914,-0.6470928,-0.76485467,0.2702633,-0.79398966,-0.41451782,-0.032718778,-0.44605345,-0.6798384,-0.4489414,-0.45249242,0.88224506,-0.6552086,-0.793802,0.7271397,0.7729051,-0.78291035,0.3560115,0.6848335,-0.03390014]},{"bias":-0.22239006,"weights":[0.82796836,-0.84443927,0.37072408,-0.8328779,0.3749987,-0.58555907,0.7494025,-0.763896,0.08086717,-0.79390407,-0.34088725,-0.8715043,-0.37132186,-0.44846386,0.7198081,0.031467795,0.049830317,-0.41336483,-0.22160804,-0.39395612,-0.019279122,-0.004197955,-0.5909416,0.857033,-0.18857682,-0.07819164,-0.10787761,-0.65005565,-0.6371732,0.69723153]},{"bias":0.2295388,"weights":[0.10083592,0.87787294,0.12308347,0.60449076,0.20844257,0.46741545,-0.43545312,0.70817065,0.75554657,-0.55302733,-0.9381745,0.6651523,-0.7972586,-0.5454475,-0.13439381,-0.8138139,-0.592853,-0.5199391,0.24671304,0.48424637,0.90638757,-0.1644212,-0.52085966,-0.99264765,-0.29652542,-0.32169956,-0.8093052,-0.6604893,0.27256095,0.39782345]}]},{"neurons":[{"bias":-0.03312099,"weights":[-0.6822572,0.09734142,-0.52639216,0.040562272,0.10693395,0.43811285,-0.81435704,-0.9068141,0.5122745,-0.47200197,0.15695798,-0.75593233,-0.37590355,-0.49014848,-0.45751256,0.0395056,-0.72381306,0.057508588,0.54002166,-0.18109238,-0.75378156,0.8365445,-0.9657037,0.18788612,-0.76666975,-0.47046822,0.1727866,-0.31393903,0.7328918,-0.4970159]}]}]}