{"layers":[{"neurons":[{"bias":0.94736004,"weights":[0.28311074,0.8579135,-0.00885427,0.98550177,-0.50300235,0.8289697,-0.13653862,0.36097085,0.20222557,-0.5426876,-0.6920285,-0.47352308,0.08951914,-0.30731004,0.3238412,0.2729422,-0.8780637,-0.9467919,0.53458405,0.40179384,-0.1003927,0.6723199,0.19474494,0.7668257,-0.45124978,-0.59552664,0.26491487,-0.5363397,-0.10878384,-0.6288192]},{"bias":-0.5623724,"weights":[0.2805878,-0.47485822,-0.13411939,0.9425955,0.44063413,-0.15914834,0.51004505,-0.110416055,0.6041577,-0.40119666,0.3963257,-0.7302747,0.3647815,-0.27814192,-0.50090784,0.19684279,-0.8925643,-0.01718676,-0.06294811,0.94920516,0.2176038,0.3193332,0.1416372,0.92698765,0.1324259,-0.8169534,-0.9299364,-0.23810351,-0.3013255,-0.5784058]},{"bias":-0.31777352,"weights":[-0.13574684,-0.1587106,0.0812093,-0.69986796,-0.30638546,-0.4718489,-0.7925048,-0.33417147,0.85566545,0.34465802,0.939626,0.6678598,0.9315319,-0.2669806,-0.81782794,-0.06584442,0.6706245,0.03761518,-0.64289355,-0.964694,0.55273294,-0.4688658,-0.08255327,-0.87886024,0.1881007,0.5265157,-0.5025615,0.78738046,-0.3721103,0.08968556]},{"bias":0.15821922,"weights":[-0.5750541,-0.98679066,-0.68960476,-0.3261673,0.44578207,0.7523773,-0.51797885,-0.2910666,-0.7752161,-0.3730976,-0.73870873,-0.11187923,0.30984533,0.7493746,0.89922786,-0.23501098,0.5477834,-0.55192846,0.21808398,0.8794024,-0.0139817,0.058446765,-0.13387787,-0.35837454,0.9002824,0.82178664,0.91050696,0.78677344,0.3072883,-0.09100473]},{"bias":0.070337415,"weights":[-0.80239797,-0.2928354,-0.5632855,-0.19831645,-0.96395326,-0.5801229,0.01695335,0.82215714,0.15646398,-0.007369876,-0.14538491,-0.43999666,-0.2895071,0.5026624,-0.12096369,0.2955259,-0.27335137,0.12348449,-0.48328227,-0.84279203,-0.5149104,-0.55890936,-0.5221142,-0.5737123,0.89998174,0.13156188,0.17647135,-0.34549636,0.20590031,-0.6565175]},{"bias":-0.7815492,"weights":[0.33909428,-0.9465883,0.17623293,-0.10118234,-0.43526095,-0.935879,0.6137316,0.9530556,0.9695265,-0.07569063,0.9011071,-0.2620234,0.46375287,0.047163844,0.4118961,0.08331478,-0.3231203,0.5784385,-0.066663146,0.50804543,0.58100224,0.10194337,-0.5851523,-0.019174695,-0.7318933,-0.12582147,-0.028434634,-0.96362686,0.8833797,0.15522826]},{"bias":-0.22708976,"weights":[-0.69503164,-0.889987,-0.16428602,-0.74845076,0.23628199,0.64675736,-0.24712408,0.1578852,-0.7918472,-0.032802224,-0.53345126,0.06563866,0.43615758,-0.9809654,0.83484864,-0.07904565,-0.6184072,-0.21668375,0.6742058,0.21724379,-0.9380269,-0.7334418,0.016545653,0.52686,0.2822727,-0.09034932,-0.09013355,0.17341697,0.6772387,0.8976755]},{"bias":0.13074076,"weights":[0.52386546,-0.07105887,0.87392616,-0.38975257,0.3395537,0.59708524,-0.33786076,-0.8096254,0.288391,0.2309519,-0.28568977,-0.072809815,-0.5745432,0.4048506,0.20220721,0.9042878,-0.41407174,0.12665665,0.6250315,-0.18047893,0.24319541,0.9246943,0.16767013,-0.85512614,-0.062122703,0.36377203,-0.089079976,0.95519304,-0.06160772,-0.002678275]},{"bias":0.9098413,"weights":[0.8179951,0.4111346,0.17398274,-0.28278178,0.19096005,-0.92663264,-0.31276292,-0.44152492,0.6043749,0.42962372,0.68197656,-0.9634299,0.56147623,0.5334048,0.6052141,-0.40323633,-0.25151318,0.93186545,0.28011453,0.7835705,0.3153473,0.32285178,-0.7610018,-0.17035115,0.103856206,0.46612942,-0.9940963,-0.023893237,0.53716016,0.63622]},{"bias":-0.5501239,"weights":[0.1262685,0.64310575,0.6462662,0.73814106,0.97579575,-0.5504872,-0.7011032,-0.14177024,-0.22105563,-0.7210982,0.8604994,-0.059100986,-0.663579,-0.12402904,0.13164079,0.006389022,-0.41544908,-0.87618184,-0.61544937,-0.1024915,-0.044877887,0.45005572,0.25034297,0.6664252,0.8141453,-0.15336406,-0.8642218,0.64533377,0.79453707,0.30490315]},{"bias":-0.25847477,"weights":[0.5777838,-0.48077983,0.27813828,0.5082202,0.6150627,-0.50121015,0.28794634,-0.073521495,-0.9015298,-0.6513381,-0.122749686,0.5651512,-0.36323255,0.036851525,-0.7049644,0.040902257,-0.9263215,-0.8013451,0.36023748,0.60292125,-0.8034351,-0.95628047,-0.28864044,0.45942628,0.7482753,-0.14240015,-0.52637905,0.44501197,0.63361144,-0.07057774]},{"bias":0.7869446,"weights":[0.4087428,-0.57660264,0.46850073,0.088317275,0.45008218,0.70370007,-0.49428982,0.4313563,-0.61745614,0.8947754,0.81683254,-0.9313829,-0.8190584,-0.8286705,0.7102883,-0.15012395,0.9604876,0.11369717,-0.92953944,-0.7676177,0.9000311,-0.08269966,0.3831941,0.92993355,0.44703734,-0.58787173,-0.3913812,0.87558603,0.96648335,-0.9038985]},{"bias":0.29146993,"weights":[0.51539207,0.13433492,-0.1928066,-0.44814247,0.63572717,0.9002454,0.25062788,0.83612084,-0.27337688,-0.24225819,-0.016318679,-0.98923635,-0.63436127,-0.7553303,-0.70905805,0.60095143,-0.52362007,-0.46931905,-0.35301393,0.8526659,-0.6274936,0.57742834,0.21852958,0.07743752,-0.86807585,-0.28700727,-0.8383777,0.36388266,0.049791694,0.0418061]},{"bias":-0.25730127,"weights":[-0.5997521,0.058918357,0.6372962,-0.026366591,0.37005508,0.66117406,-0.9921005,-0.87071824,0.01430428,-0.3866517,0.9582436,0.15061128,0.20065439,-0.11353886,0.053881526,-0.10657656,-0.7538874,-0.09541619,0.059278846,-0.75641084,-0.39878505,0.047708154,-0.67333555,-0.96002936,-0.77364445,-0.7294638,0.9631505,0.030234694,-0.32936114,-0.11472499]},{"bias":0.24840248,"weights":[0.44191492,0.13533628,-0.29668373,0.44143736,0.056849122,-0.9048891,0.39541233,-0.4290926,-0.779583,-0.2467326,0.9492862,-0.0735296,0.7736182,0.24533284,-0.2207228,-0.2881605,-0.3789789,0.026994824,-0.061543584,0.5696051,0.5025513,0.7347326,0.81298304,0.07876909,-0.6782937,0.8218348,0.1322912,-0.1984688,-0.2235614,0.7279482]},{"bias":0.09042966,"weights":[-0.79443836,0.5703654,0.88933253,0.23941886,0.20970571,0.47561228,-0.676502,-0.4360568,-0.20096648,-0.098091245,-0.042755008,0.49772632,0.38324702,0.25479162,-0.2503807,-0.19620645,0.032128453,0.45144975,0.68304706,0.6002338,0.6199529,0.99095464,-0.69943833,0.3909992,-0.72001886,-0.4322943,0.24776566,-0.065518975,-0.92110157,0.7166152]},{"bias":0.0767287,"weights":[0.93194485,0.14971054,0.7729027,0.5279169,0.93889165,0.61735296,0.78207254,0.064723134,0.060013413,-0.14183104,-0.8540275,-0.5169775,-0.13222396,-0.7919166,0.9565406,-0.65362716,0.9292004,0.86881137,0.9091413,-0.7492566,-0.21251357,-0.34993857,-0.6690111,-0.20873153,0.9570234,-0.5971107,0.84539795,0.09971917,-0.98279524,0.36150157]},{"bias":-0.14361203,"weights":[-0.16317523,0.20146692,-0.36815828,0.4372667,-0.08897889,-0.6307187,-0.7019677,-0.061035275,0.43207562,-0.9125583,0.71592903,0.0700382,0.9198649,-0.91947675,-0.7732434,-0.8755896,0.57305956,-0.68079376,-0.5955314,-0.06178868,-0.19307029,-0.6428063,-0.4193539,0.35821927,0.7247474,-0.8213339,0.51616406,-0.20110595,-0.10482371,0.40614402]},{"bias":0.122828126,"weights":[-0.45541614,0.9185467,0.8564892,0.2621218,0.87397575,0.11216247,0.051680207,-0.37860674,-0.9902561,0.5023062,-0.1519891,0.9647894,0.7722337,-0.04357326,-0.56494635,-0.9830687,-0.38885874,-0.9136231,-0.13382947,0.21846735,-0.9800441,-0.10994232,0.27935302,-0.0083812475,-0.22136605,0.59433365,0.8528445,-0.35613865,0.6952326,-0.38437194]},{"bias":-0.68138504,"weights":[0.5874591,-0.09657109,0.87358236,0.28434718,0.06930864,-0.37182683,-0.7583189,0.38649,-0.6706376,-0.63842297,-0.45776266,-0.55384034,-0.50326437,0.25845277,0.15490353,0.4073385,0.40486705,-0.9139402,-0.23029864,-0.19997013,-0.81949854,0.5075519,0.29298723,-0.4981026,0.89044714,-0.17609632,-0.34599203,-0.26822084,-0.70864415,-0.28691262]},{"bias":-0.59671754,"weights":[0.99393034,-0.2880656,0.11176002,0.2066356,0.33632147,0.45146906,-0.005321622,-0.37537473,0.269585,0.018444419,-0.43085426,0.76910853,-0.099562526,0.71620345,0.56836796,0.37005007,0.78338933,0.25802076,0.08292258,0.57928896,0.29959047,0.65287805,0.7761426,-0.42352766,-0.86190987,-0.03344071,-0.2332505,0.86192846,0.68756866,0.33705032]},{"bias":-0.117741466,"weights":[0.07608855,-0.5514974,0.373536,0.96794605,0.35089815,-0.96965027,-0.5731484,-0.95146656,-0.8845713,-0.7366657,0.5843792,0.82745814,0.065831065,-0.53097385,0.55085397,-0.8717015,0.9155526,0.9424622,0.48098648,0.7314055,-0.38065046,0.3637923,-0.23371232,-0.35964698,-0.011474967,-0.19698155,-0.26098078,-0.25172132,0.37928307,0.24665463]},{"bias":0.44579136,"weights":[0.21092951,0.28031433,-0.65677047,0.46505296,0.25010145,0.5069914,-0.010716796,0.7494762,-0.88334703,-0.5523345,-0.33953136,-0.041094422,0.55103564,0.8352046,0.5709958,-0.95247364,0.8685348,-0.3641054,0.8999891,0.43771493,-0.41527718,-0.50545186,0.92157125,0.69512653,0.5360451,-0.07207167,-0.057971835,0.4390465,0.76946235,-0.655123]},{"bias":0.25446212,"weights":[-0.90116715,0.18825209,-0.5921492,-0.6974051,0.24544156,0.80861235,0.37651765,0.7333951,0.8263149,0.16042292,0.79844856,-0.8838496,0.011392474,-0.8963096,-0.6081893,-0.43867606,0.23224747,0.952698,-0.07687533,-0.042077422,-0.78226113,0.9902892,0.9721625,0.20684779,0.75445557,-0.16862547,0.42494118,-0.85764194,0.7174306,0.3749014]},{"bias":0.54132986,"weights":[-0.14130104,-0.5043201,0.769367,0.40563738,0.6629131,0.129367,-0.67994475,-0.091285825,0.51639056,0.6063423,0.023311973,-0.33722252,-0.13189685,0.44683182,0.48300183,0.6686547,-0.56464237,0.10386646,0.18174374,0.35492456,-0.66734076,0.9232328,0.34801376,0.699214,-0.8758311,0.8180535,-0.90043426,0.009331346,-0.8236289,-0.1792587]},{"bias":-0.96703076,"weights":[0.9058602,-0.44747084,0.90653086,-0.12533867,0.093880534,-0.7852895,0.06587827,0.52737236,0.91464233,0.7036741,0.9613774,-0.4443919,0.64852357,-0.3539638,0.62571454,0.09298241,0.9696069,0.14047849,-0.85939693,-0.9384656,-0.44131392,0.7826791,-0.3298058,-0.50141495,0.737097,0.7556329,-0.71290874,-0.691026,0.48017395,-0.36456174]},{"bias":-0.640887,"weights":[0.7191708,0.7171953,0.7879262,-0.08702052,0.3349253,0.07655704,-0.0022364855,-0.0024145842,-0.38000363,-0.39672035,0.35454404,-0.089063525,-0.6515744,0.0078161955,-0.39347667,-0.03638351,0.1860677,-0.10088003,-0.76734877,-0.7671704,0.8671143,0.6649902,-0.3644647,0.85417414,-0.6817069,0.15600407,0.09046638,-0.3931014,0.9994354,0.42249]},{"bias":0.46063507,"weights":[-0.782037,-0.86691236,0.56375813,-0.7021005,0.16358006,-0.8126726,0.6515689,0.008148789,-0.23355186,0.43027127,0.6305914,-0.012146115,0.22244179,0.26303303,-0.73026156,-0.41451782,-0.032718778,-0.44605345,-0.40199894,0.77389765,0.9871056,0.008533835,0.25390494,0.16367233,0.37538493,-0.7170782,-0.25944155,0.50217605,0.7944255,0.53007984]},{"bias":-0.7183187,"weights":[-0.11313498,-0.5509996,-0.35885924,-0.9696684,0.43515337,-0.6526377,-0.7915168,-0.24926889,0.06327951,-0.36972278,0.6112716,-0.4275443,-0.37132186,-0.53917783,0.31339896,-0.18764532,0.12098944,-0.64080596,0.54865336,0.72296524,-0.5257072,0.6020577,0.54501987,0.99033475,0.33668983,-0.57473296,-0.8255639,0.3653189,-0.6575005,-0.11526787]},{"bias":0.79477406,"weights":[-0.4054789,-0.70924425,-0.9243076,0.46944654,0.6586547,0.4009496,-0.43545312,0.70817065,0.9542501,0.117893815,0.9399965,0.6497259,-0.7972586,0.2858137,0.1979686,0.50987315,-0.087777495,-0.6333971,0.7324269,-0.7180886,0.19145095,-0.41621345,-0.52085966,-0.31272572,0.057981372,-0.88392496,-0.8023629,-0.3218307,-0.9798372,0.21025145]}]},{"neurons":[{"bias":-0.65831685,"weights":[0.91736937,-0.48179907,0.30921972,-0.21020067,-0.23021805,0.46750104,-0.81435704,0.26023233,0.5122745,-0.47200197,-0.3055293,-0.6735475,0.11477792,-0.14928806,-0.18240893,-0.25369328,-0.873255,0.057508588,-0.5563893,0.91857815,-0.4681484,0.053349376,-0.060352683,-0.07767022,-0.76666975,-0.62195677,-0.58629864,0.17149532,0.73960733,0.87249756]}]}]}