{"layers":[{"neurons":[{"bias":-0.9591398,"weights":[0.11188471,0.8579135,-0.8860142,-0.022988439,-0.50300235,-0.31166524,-0.25660533,0.4406122,0.20222557,-0.072435975,0.124930024,0.26302135,0.16258991,0.779346,0.005873561,0.2729422,0.0527817,-0.81794643,0.53458405,-0.2212888,-0.14662755,-0.06642902,0.19474494,0.98428106,-0.5406441,-0.29559392,-0.88861585,0.197765,0.892411,-0.6288192]},{"bias":0.56286263,"weights":[0.2805878,-0.6307087,0.44215453,-0.90666795,-0.6098601,-0.4483053,0.5056367,0.58487844,-0.30520004,-0.21131647,-0.8079965,-0.7302747,-0.5107171,-0.33111018,-0.45572513,0.6657374,0.5620079,-0.46542305,0.28872502,0.94920516,0.2176038,-0.8059623,-0.5861706,-0.50548977,0.1324259,0.27319372,-0.4195065,-0.109939694,-0.3013255,0.46701467]},{"bias":0.44076812,"weights":[0.61671877,0.434919,-0.51981467,-0.428966,0.35337245,-0.92572975,-0.7925048,-0.8986182,-0.62639976,0.5368023,0.8845389,-0.32822126,-0.32710594,-0.2669806,-0.051926255,-0.06584442,-0.045194745,-0.16971529,-0.64289355,0.66639686,0.55273294,-0.48039693,-0.08255327,-0.87886024,0.18852222,-0.14437902,-0.5025615,-0.11904299,0.52704406,-0.19200695]},{"bias":0.9718189,"weights":[-0.18722618,-0.87977767,-0.6260874,-0.5514175,0.76937985,0.22712171,-0.1308595,0.9196019,0.34959257,-0.67410254,-0.26892608,-0.54429835,-0.19121206,0.8004837,-0.9765253,-0.40384525,-0.25673217,-0.21436608,0.9509785,-0.31065053,-0.62165636,0.5111506,-0.13387787,-0.35837454,-0.67170835,-0.053017735,0.91050696,0.78677344,-0.14730895,-0.8662405]},{"bias":-0.4177329,"weights":[-0.80239797,0.11327398,-0.18823707,0.23586166,-0.0902406,-0.41792697,-0.67020583,-0.9820392,0.8331921,0.69456077,0.21238983,0.2864555,-0.2019962,-0.4629764,-0.9779043,0.36810052,0.5737827,-0.5547411,-0.48328227,0.8118582,-0.3447017,-0.870492,-0.5352804,0.8854234,0.16361296,0.13156188,0.7684603,-0.22515547,-0.26779264,-0.5495433]},{"bias":0.2928208,"weights":[0.33909428,-0.9465883,0.009305835,0.6169188,0.11877453,-0.20772159,0.43288434,0.9530556,-0.19991314,0.98723245,0.35170066,-0.2620234,0.20724308,0.14481962,0.3378991,0.5780351,-0.12109554,0.41253436,0.28282273,-0.66846204,0.68283916,-0.64291215,0.58928037,-0.7096901,0.15791905,0.38114464,-0.13695514,-0.5295996,-0.955915,0.15522826]},{"bias":-0.9776592,"weights":[0.15126097,0.38747776,-0.34839815,-0.42513007,0.844255,0.64675736,-0.009801745,0.87963367,-0.30685514,-0.032802224,0.34892428,0.96962,0.58467746,-0.5495698,-0.36867136,-0.35334224,-0.8384943,0.30310857,0.9264531,0.9379618,-0.7223234,-0.49840087,0.7402067,-0.7115507,0.49463356,-0.3916418,0.15166008,-0.5577695,0.5364764,0.23628032]},{"bias":-0.5437581,"weights":[0.14586174,-0.07105887,-0.8185098,0.052413344,0.3395537,0.004478097,0.030038,0.04717338,0.46150315,0.285226,0.8186023,0.7821572,-0.804749,-0.056824327,0.20220721,-0.5596208,0.86451054,0.61031747,0.01479733,0.352239,0.42165482,-0.9213209,-0.9017532,-0.94380856,-0.9461992,0.82097363,-0.6372597,-0.47438163,-0.99828863,0.6280329]},{"bias":-0.16047323,"weights":[-0.24639523,-0.15913165,0.17398274,0.24983704,0.7105055,0.96637106,0.039068818,0.27694643,0.23881567,0.025342822,-0.5199873,-0.014273763,0.14789927,0.74852705,-0.28058285,0.28874576,0.9739673,-0.59490746,0.28011453,-0.1849631,-0.16670811,0.32285178,0.2899593,-0.8899274,0.103856206,-0.2994184,0.9220176,0.85177445,0.5443933,0.512346]},{"bias":-0.34416956,"weights":[-0.035375476,-0.7106581,0.6462662,0.30508268,0.4802593,-0.86480427,-0.6528251,-0.6542971,-0.20824158,-0.5180537,-0.7607858,-0.6993072,-0.663579,-0.12402904,-0.49884886,-0.137478,-0.2445997,-0.97145844,-0.35177082,0.7980299,-0.39383548,0.88379645,0.09350765,-0.64232826,0.9103861,0.44336188,0.824847,0.5462389,-0.42191452,0.546716]},{"bias":0.7415788,"weights":[0.06497228,-0.48077983,0.6507523,0.8333194,-0.06816065,-0.80552936,-0.89951754,-0.06628072,-0.83522654,-0.6513381,-0.122749686,0.43443286,-0.34410375,-0.782964,0.6866338,0.95514226,0.7633774,-0.91437817,0.39431584,0.66322994,-0.9076874,0.5697911,0.25296915,-0.26148313,0.50445056,0.72805476,-0.97992325,0.5262275,-0.72019124,0.5158155]},{"bias":0.8068199,"weights":[0.033578992,-0.7630887,-0.6308043,0.6280441,-0.1019088,-0.07739556,-0.5398242,-0.13159883,0.4490167,0.8947754,0.79997206,0.5069847,-0.75071216,-0.531753,0.9596453,-0.27078098,-0.05948174,0.37585437,-0.34481806,0.9357519,0.9000311,0.5495281,0.3831941,-0.5443079,0.44703734,-0.58787173,-0.77744365,0.52636313,0.96648335,0.29865682]},{"bias":0.44626057,"weights":[0.69657826,-0.55535525,0.15185988,0.9572115,-0.6218652,0.045714974,-0.67330503,-0.14959419,-0.27337688,-0.35895413,0.0024892092,-0.98923635,0.61253476,-0.64577556,0.7739277,0.5378151,-0.52362007,-0.46931905,-0.35301393,-0.17899024,-0.79046726,0.9271054,0.60898566,-0.0037513971,-0.86807585,0.9382591,0.6727109,0.2449435,-0.25661176,0.32435167]},{"bias":-0.608313,"weights":[0.06759679,-0.50608915,-0.43701094,-0.9624691,0.37005508,0.28483808,-0.4150614,0.53248596,0.8415761,0.55986476,-0.527024,-0.8708632,0.42669165,0.6862261,0.9338124,0.9435551,0.33711708,0.11472142,-0.6226563,-0.9664011,-0.39878505,-0.21674502,-0.19220436,0.09316981,-0.9358103,0.70505,0.9631505,0.82848954,-0.8279531,0.7425127]},{"bias":-0.4332127,"weights":[0.37652528,-0.41570896,-0.81019473,-0.8457651,-0.09889734,-0.9048891,0.31750882,0.3062309,0.27111614,-0.2467326,-0.9077735,0.99376965,-0.40971678,0.88854194,-0.692971,0.5791178,-0.15213954,-0.68493915,-0.64324665,-0.5240235,0.22273958,0.3752848,0.81298304,0.9148326,-0.57899326,-0.5049378,0.5021529,-0.1984688,-0.5683817,0.97182465]},{"bias":-0.97981954,"weights":[0.55717254,0.24602497,0.5968087,-0.21219051,0.20970571,-0.62361354,-0.06755507,0.80019784,0.34130204,0.6312356,-0.30742878,0.04403436,-0.5194358,-0.08851874,-0.18399274,-0.42352098,-0.56259674,-0.26551956,0.68304706,0.43372095,-0.3892092,0.43901002,-0.40603966,-0.18533504,-0.18000972,-0.71395254,0.7885344,0.12097633,0.37941635,-0.9874487]},{"bias":0.21086013,"weights":[0.30095255,-0.94887066,0.7301798,-0.8554156,0.93889165,-0.6350796,0.05476272,-0.31551522,-0.61236256,0.2745241,0.3441738,-0.5169775,0.84543014,0.5302341,0.8392701,0.039133668,0.9817133,0.40148652,-0.5558607,-0.6645489,-0.597676,0.100210786,-0.029855847,0.2258631,-0.9330704,0.7223213,0.84539795,0.09971917,-0.58924645,-0.6520102]},{"bias":0.41537893,"weights":[0.15744197,-0.80625486,-0.17319572,0.511739,0.8282287,-0.6307187,-0.7019677,-0.50587267,-0.8940799,-0.6774545,0.50599456,0.40361726,0.6900029,-0.70633435,-0.7732434,-0.24457443,-0.11692059,0.546216,0.65946484,0.5657594,-0.19307029,-0.23355639,0.7733023,-0.051466346,0.86237097,-0.021187901,-0.34245747,0.48512518,0.0127516985,-0.42764658]},{"bias":-0.8033054,"weights":[-0.42762226,-0.06687009,-0.2760207,0.56993484,-0.33754462,0.13838756,0.051680207,-0.9389107,-0.49035877,-0.29445666,-0.92994237,0.6132858,-0.7561331,-0.9675524,0.68070555,0.20852935,0.19277513,0.22887313,0.89609504,0.5092592,-0.83676004,0.22596705,0.6690304,0.5912552,0.46929467,0.68890333,0.3764056,0.62368464,0.6952326,0.050186038]},{"bias":0.97087955,"weights":[0.15800846,-0.7997031,0.8347609,0.28434718,0.76416826,0.11525428,-0.48398465,0.23592937,0.63377404,0.05193436,0.33265507,-0.55384034,0.3427099,0.33134854,-0.891763,-0.87741065,-0.34630507,0.5846896,-0.5956647,-0.78940344,-0.059038043,-0.8309877,0.2747537,-0.402188,0.89044714,-0.17609632,-0.14328563,0.021059155,0.98269415,0.39105046]},{"bias":-0.98941493,"weights":[-0.059645057,-0.2880656,-0.72744226,-0.06830847,0.33632147,0.6778147,-0.005321622,-0.4621057,0.9548538,0.7128253,-0.83604574,0.2824806,0.34791124,0.071776986,0.41893494,0.37005007,0.07486522,0.41136968,-0.2432245,0.7418206,0.44275534,-0.0036691427,0.7761426,-0.91453576,-0.21336234,0.90482855,0.5659623,-0.6152615,-0.47789973,-0.15905964]},{"bias":0.486076,"weights":[0.022281528,-0.21950758,-0.195624,-0.20260108,-0.9996519,0.39326608,-0.2732026,-0.13846743,0.90307045,-0.8625767,0.08590925,-0.9859693,0.44640648,0.22639,-0.8708904,-0.905612,0.9155526,-0.8915291,0.13282669,0.7314055,-0.18173039,0.3637923,-0.4494018,-0.35902256,-0.62650657,0.9185133,-0.91821337,0.132496,-0.86476135,0.9968543]},{"bias":0.25557864,"weights":[0.21092951,-0.69784284,0.47726762,-0.96268344,0.25010145,-0.560142,-0.6414931,-0.4687342,0.7521026,-0.979655,-0.945765,0.041576505,-0.16744626,-0.04437816,0.17304647,0.6877043,-0.01999247,-0.35355252,0.50528264,-0.7714653,-0.26344198,-0.3508045,-0.6638384,0.69512653,0.5360451,0.95067215,0.2424084,-0.5592095,-0.99950767,0.35875952]},{"bias":0.53811574,"weights":[-0.90116715,0.86430025,0.37234676,-0.6711433,0.3417815,0.80861235,0.5848069,0.12414825,0.75635743,0.55546904,0.33165014,-0.98916173,-0.88562393,-0.9099331,-0.072256684,0.4155885,-0.3306064,-0.4118895,-0.07687533,0.9380772,0.9139404,0.9950955,-0.5328993,-0.6958914,0.9891577,0.9764919,0.17279637,-0.7608547,-0.54159135,-0.39562505]},{"bias":0.9701016,"weights":[-0.14130104,-0.39367503,0.769367,-0.47091573,-0.47312468,0.10909164,0.09682739,-0.74062085,-0.6911278,0.061782718,-0.107483506,-0.33722252,0.34145558,-0.8017144,-0.36570328,0.31912315,0.60990715,0.9991219,0.41359556,-0.2409488,0.73317885,0.29782116,-0.6503897,0.699214,-0.59519666,0.83291006,-0.64099693,-0.20419657,-0.5058009,0.36571062]},{"bias":-0.06382167,"weights":[0.9058602,0.27845395,0.47889054,-0.23686326,-0.3868727,0.33735192,-0.056766152,0.44760048,0.91464233,-0.22797883,0.47232163,-0.91378427,-0.3003239,-0.7646675,0.21040595,0.18782437,-0.9984925,0.7922933,-0.5614199,-0.26338214,0.16533363,0.6975527,0.26959956,-0.9776211,-0.54240316,0.50131583,0.70593786,-0.20649374,0.7880602,-0.92820525]},{"bias":0.88442945,"weights":[-0.20352685,0.7510748,0.8348458,-0.55881804,0.14333808,0.07655704,-0.9797592,-0.0024145842,-0.97192883,0.016214252,0.35454404,-0.5588531,0.03350842,0.0078161955,-0.381993,-0.03638351,0.1860677,-0.10088003,-0.76734877,-0.7671704,-0.4899313,-0.68084574,-0.8219979,0.6471667,0.949826,0.38453686,0.09046638,-0.027593732,0.72559667,-0.9631214]},{"bias":0.46063507,"weights":[-0.6339731,-0.6717608,-0.49447173,-0.15209067,0.23965871,-0.6182086,0.6515689,0.0331918,-0.23355186,0.43027127,0.96466064,-0.3738436,-0.5686564,-0.20767915,-0.68899345,-0.41451782,-0.06506288,-0.97116876,-0.89294124,-0.74429345,0.6887255,0.8571596,-0.2583236,-0.9850216,-0.8823457,0.68129945,0.2899233,-0.44837087,0.14407098,0.4162432]},{"bias":-0.10755837,"weights":[0.16395772,-0.20366514,-0.6030008,-0.9898491,0.58746576,0.33845866,0.47939265,0.95486784,0.06327951,-0.3461532,-0.04096353,-0.4275443,-0.37132186,-0.7308507,0.07172477,0.6234691,-0.48649353,-0.8955047,-0.80982494,-0.7609525,-0.6735883,0.5104017,-0.24880612,-0.7671635,-0.46843308,-0.7178235,-0.11155188,0.37915528,0.53820825,0.20032656]},{"bias":0.30598247,"weights":[0.9095776,0.46043622,-0.034740806,0.46944654,0.18229353,0.17337215,0.3348025,-0.11100161,0.52902746,0.67238426,-0.46467322,-0.8715117,0.45810306,-0.98085713,0.5587239,-0.101089835,0.38484633,0.10694611,-0.9173322,0.294186,-0.18552625,0.93162584,-0.3698005,-0.31272572,0.34335124,0.5758984,0.90707254,0.2519778,-0.9798372,-0.80232143]}]},{"neurons":[{"bias":0.30110133,"weights":[-0.764261,0.5783448,-0.74595547,0.5070417,-0.23021805,-0.19362485,-0.84924054,-0.05554521,-0.28604692,0.08081257,-0.3055293,0.080396295,-0.2767796,-0.1698693,-0.788033,0.36328733,0.1419133,0.062206388,-0.40037745,-0.33844322,-0.4681484,0.18464196,-0.6447139,-0.6267917,-0.9342663,-0.9930384,-0.49553603,0.57492185,-0.040121436,0.32211745]}]}]}