{"layers":[{"neurons":[{"bias":-0.31147808,"weights":[0.714766,-0.24436128,-0.33589405,-0.8166199,-0.036035895,-0.6410668,0.64547086,0.4406122,-0.13385546,-0.04282248,0.35461605,0.50356126,0.3109299,0.25351608,0.15921032,-0.6297164,0.53060937,-0.03230059,0.31656373,-0.41553038,0.90308285,0.04605472,-0.78768635,-0.543498,-0.29846424,0.16513479,-0.8207078,-0.18524468,-0.2707941,-0.30151957]},{"bias":0.20763361,"weights":[0.12868917,-0.6149227,-0.0419358,-0.055973172,-0.9446862,-0.5360727,-0.8735008,-0.20981729,-0.080372214,-0.45055884,-0.68808675,-0.5595135,0.26706684,-0.19922554,-0.43174094,-0.23889196,-0.880409,0.17425072,0.4665581,0.36326206,0.009067655,-0.33280486,0.8874054,0.6546328,0.0017009974,-0.43532294,-0.56083006,-0.50767916,-0.19504154,-0.04767096]},{"bias":-0.13062418,"weights":[0.1514777,0.7095654,-0.08982384,0.2992419,-0.7749162,-0.7092819,0.6695442,0.077420354,-0.9613831,-0.7340598,0.95805573,0.7434795,0.8988757,0.19210565,0.43304956,0.4730953,0.9596894,-0.028222203,0.1565131,0.19191968,0.29127514,-0.9528675,-0.28622,-0.70209527,-0.8777783,-0.024129272,0.7384808,-0.089565635,0.6264143,-0.94179726]},{"bias":-0.5260207,"weights":[-0.49407762,-0.53294677,0.10460627,-0.23598635,-0.55578727,0.191239,-0.97889256,-0.4838969,-0.21599066,-0.36090797,-0.03684461,-0.26280898,0.004674554,0.4755615,0.3249699,-0.76530194,0.18303311,-0.684917,-0.31825918,0.967911,0.21551192,0.0016950369,0.10774863,-0.8012264,-0.62542176,-0.5352878,-0.62012213,0.9811578,-0.45002836,0.19387996]},{"bias":0.6731305,"weights":[0.23975408,-0.078802705,-0.9510627,0.627682,-0.9581106,0.046794772,-0.9200921,0.40503204,-0.9050791,-0.50341934,0.38512337,0.0730294,-0.68481016,0.6068289,0.56549335,0.51502585,-0.39102405,-0.17304122,-0.6773956,-0.43832392,0.88093996,-0.6886277,0.25351036,0.17864072,0.2039789,0.67252135,0.9523847,-0.3201775,0.01836121,-0.25581592]},{"bias":0.38725507,"weights":[0.72982836,0.44431674,-0.82519794,0.69035244,0.55421543,-0.79901457,0.9951284,0.9049301,0.91253495,-0.37096018,0.27710998,-0.35602516,-0.1587795,-0.15058792,0.7776983,0.088272214,0.19533694,0.54579735,0.6043992,-0.27353734,0.7704809,0.09673488,0.6365447,0.28266418,0.4358133,0.9526336,-0.5389108,0.3273958,0.42267406,0.80870795]},{"bias":0.15991127,"weights":[-0.3138165,0.77935743,-0.0918082,0.07973182,-0.3543777,0.727998,-0.093366265,0.26043808,-0.16842353,0.027124286,0.37247884,-0.7506056,-0.105749965,-0.32821935,-0.25363773,-0.9868932,0.52663827,0.21945012,0.43067777,-0.97447085,-0.5804855,-0.8871546,-0.8319588,0.47164404,0.10016072,0.14520657,-0.52538794,0.8339114,-0.391818,0.92844486]},{"bias":0.21759403,"weights":[0.6365707,0.95071197,0.57532644,0.99467516,-0.7446759,-0.67191124,-0.06765568,-0.26941532,-0.6837826,0.94258785,0.833071,0.43586218,-0.17799914,-0.9544418,-0.637558,0.8877964,0.19944489,0.06309211,0.98798203,0.2083441,0.30235946,-0.42936105,0.49632418,0.19375527,-0.45556277,0.099919915,0.20638216,-0.56716174,-0.82016015,0.8006711]},{"bias":0.031692624,"weights":[-0.20999897,-0.630244,0.1318754,0.45847976,0.11701238,-0.71486807,-0.9676027,-0.19721925,-0.5449073,-0.6815276,0.066155076,0.8360524,0.8987417,0.3985814,0.77520895,0.32520497,0.32026255,0.9825194,-0.16072524,-0.22609651,-0.6797309,0.5377629,-0.13789308,0.14987719,-0.31292933,-0.28899497,-0.48573726,0.66290855,0.6100733,0.15374815]},{"bias":0.4877292,"weights":[0.3333367,-0.93774295,-0.5634386,0.05670798,0.45490086,0.58432627,0.3123616,0.120477796,-0.9180939,0.9727392,-0.1579212,-0.42859095,-0.70124197,0.83192825,-0.5668046,-0.8787601,0.27223504,0.9851942,-0.6643419,-0.07917631,0.11996639,-0.26643866,-0.77493477,0.7171476,0.3731848,0.35423386,-0.56901044,-0.54351324,-0.25497383,0.61042213]},{"bias":0.61860275,"weights":[0.8913698,0.07750547,-0.06399977,-0.90897846,0.80107903,0.76322746,-0.29245394,0.95065165,0.92968535,-0.7436316,0.6635606,-0.12578237,-0.21435702,0.69206977,0.76509666,0.48082483,0.8369465,0.9625747,0.4660107,-0.21337903,-0.8023875,-0.6287644,-0.2579648,0.9751854,0.97914124,-0.58386606,-0.88215804,0.6312392,-0.03050983,0.6708815]},{"bias":0.570549,"weights":[-0.3023836,-0.55418676,0.5572531,0.62188005,-0.08045757,-0.82081056,0.8707235,-0.82737255,-0.29891914,0.49642456,0.54884934,-0.18587172,-0.29128832,-0.42470163,0.09458268,-0.9747708,0.5116708,0.9342239,0.0387336,-0.10609734,0.64927197,0.02310121,-0.34780902,-0.88732624,0.97361445,0.28345025,-0.053372502,-0.66036224,-0.45284933,0.77686787]},{"bias":0.48332417,"weights":[0.35163248,0.36002672,0.06140673,-0.49006575,-0.037466407,-0.97769475,-0.058664918,0.4021181,0.25313318,0.0045689344,-0.119087815,0.9266057,-0.50707906,-0.40805024,0.748018,0.3762163,0.57165074,-0.76237917,-0.45149964,-0.5420911,0.93265057,-0.11933339,0.64801025,0.13147056,0.3469957,-0.31495804,-0.74555326,-0.794543,0.7652943,-0.4298386]},{"bias":-0.9406104,"weights":[0.38746893,0.12909567,-0.31341332,0.14257658,0.17683256,0.31976783,-0.64997506,-0.6738148,0.113547206,-0.017143607,-0.4750697,0.35526168,0.42669165,0.27650487,0.34080803,0.12779891,0.90659475,0.038657546,0.6492474,0.68153286,-0.8514905,-0.28189725,-0.31208462,-0.7709899,-0.61442536,0.52560735,-0.4982118,0.78786945,0.75757456,-0.6938746]},{"bias":0.13524044,"weights":[0.63636446,0.5917599,0.16119874,0.32753956,-0.4094357,0.74010444,0.43352187,0.82477283,0.6383033,0.77015305,-0.7382498,-0.4288041,0.8723228,0.84295297,-0.72594166,0.41333497,-0.04898107,-0.3183226,-0.820735,-0.7335057,0.080637574,-0.21169722,-0.65524864,0.056059957,0.25602043,-0.09330261,0.2645787,0.40840018,-0.09661281,0.62002516]},{"bias":-0.90094614,"weights":[0.16829646,-0.93965554,-0.7462287,0.5606952,0.7200916,-0.42917794,0.32974255,-0.6370239,0.16998208,0.793643,0.89942884,0.46065795,-0.63794136,-0.52267903,-0.29954523,-0.48993105,0.83534265,0.4010018,-0.8068993,-0.5240497,-0.41631168,0.42997777,-0.08726537,0.40072834,-0.08071792,-0.14424145,0.6814928,-0.7561691,0.42522871,-0.57027334]},{"bias":-0.22675622,"weights":[-0.22563088,-0.5441937,0.723454,-0.73818254,-0.62206215,-0.28247088,-0.67291236,0.5472536,-0.21118939,0.39035642,-0.8190198,-0.7309649,0.41404378,0.7858615,-0.5117361,-0.9282522,-0.011453509,0.966429,-0.02223742,0.06647241,0.5424757,-0.9091284,-0.079757094,-0.9442742,0.45853674,-0.9851482,-0.6907284,-0.088748336,0.046503425,0.990253]},{"bias":0.91180444,"weights":[0.51637745,0.827626,0.3521651,-0.6688132,0.847342,0.9963627,0.3592106,0.17975032,0.7934778,0.55177927,0.0042654276,0.69818044,-0.44021147,0.6507323,-0.658139,-0.7580931,0.28291094,0.43185842,0.16379702,0.036037564,-0.7286377,0.5091288,-0.46877617,0.17901528,0.4663118,-0.6152927,0.19166195,-0.7525213,-0.51859444,0.83164954]},{"bias":0.6980591,"weights":[0.99520016,0.2485236,-0.7143066,0.5638623,-0.8306029,0.62099147,0.9318023,-0.38852924,0.2857517,0.7947047,-0.69283223,-0.18749678,-0.17795718,0.72656584,0.52956486,0.035368085,-0.9143946,-0.6918578,-0.83350825,-0.4978928,-0.5142483,-0.4310333,-0.5030708,0.51916933,0.7779441,-0.5146188,-0.41333216,-0.7126093,0.5515311,0.5264025]},{"bias":0.4554597,"weights":[0.7950182,-0.8068981,0.6984613,0.8448844,0.92627454,0.7803638,0.44508374,-0.694227,-0.65669537,-0.7904005,-0.08270967,0.7633574,-0.57407516,0.95383286,0.7439358,-0.84338784,-0.34630507,0.053228498,0.43310797,-0.33538145,-0.48812097,0.29942477,-0.6093909,0.4057094,0.79055786,-0.024533868,-0.54450935,-0.10570562,0.24763477,0.78795505]},{"bias":-0.3400237,"weights":[-0.6152827,-0.41425198,0.33720577,-0.30648035,-0.44597262,-0.7705877,-0.52210516,0.8627684,0.24420011,0.23376286,-0.2965657,-0.18117774,0.7086003,-0.1694721,-0.37975878,-0.3084001,0.43945348,0.8658681,-0.6365776,-0.4081754,0.17790926,-0.74286675,-0.36862057,0.5042212,0.38570726,-0.9960215,0.62481356,0.31280267,-0.6996558,0.61460185]},{"bias":-0.0065757036,"weights":[0.029566407,0.94307995,-0.38411897,0.95963454,0.83841753,-0.88158774,-0.66908455,-0.29209203,0.2729665,0.75794554,0.34289896,0.14401639,0.016413808,0.1565324,0.48133504,-0.9079206,0.57188654,-0.22590435,-0.4811799,-0.5135364,-0.7394085,0.77051973,0.32145822,-0.4110796,0.9902606,-0.19723737,-0.11668408,-0.19631326,0.41273797,-0.533158]},{"bias":-0.32747644,"weights":[-0.92249465,0.21269166,-0.13105452,0.881551,-0.3554427,0.40219295,-0.017154098,-0.9475658,0.9873779,0.8470013,0.48405325,-0.94780636,-0.04284227,0.53737354,0.051550508,-0.62339586,0.24395883,0.77563214,-0.31387442,0.3402511,-0.34551352,0.82042336,0.006615758,0.37331593,-0.10708153,0.7764001,0.08718121,0.8038821,0.43110907,-0.3029639]},{"bias":-0.1585511,"weights":[0.5064995,0.4532467,0.019124389,-0.7473874,-0.6753907,0.07452953,-0.5356743,0.82289433,0.13152277,-0.06961405,-0.6499846,0.85157704,0.30581605,0.10208738,-0.2666058,-0.22963822,-0.56474346,-0.52051514,-0.08003104,0.15687573,-0.8109505,0.77423906,-0.77463126,0.49093258,0.5243685,-0.3025493,-0.5991542,0.50051546,-0.43707174,0.29993618]},{"bias":0.21786344,"weights":[0.67615914,-0.4292211,0.4135772,-0.73442173,0.97456336,-0.7773669,0.34580052,-0.57388514,-0.961998,0.2283727,0.25230563,-0.8354244,-0.9726219,0.57809854,0.6032357,0.38622725,0.33467257,0.6965177,0.9931812,-0.28292888,-0.8745487,0.18608105,0.35431254,0.9665766,-0.23493898,0.32773006,-0.6817906,0.55493236,-0.80815196,-0.09971011]},{"bias":0.3960563,"weights":[0.82153344,0.27845395,0.016765714,-0.22434509,0.54356766,-0.29466814,0.73885083,-0.44027156,-0.06638563,0.6804147,-0.25464886,0.7229762,0.9564433,-0.28949946,0.3794905,0.5967448,0.40964806,-0.14994943,0.51788616,-0.29842514,0.7666497,-0.6315348,-0.664166,-0.9069178,-0.7973144,0.96336937,0.32535994,-0.022612214,-0.79912496,-0.61152]},{"bias":-0.11001098,"weights":[0.38136876,-0.59462994,0.79710555,0.58373237,-0.22463572,0.06046164,0.9850619,-0.24275482,0.41614258,-0.9445946,0.223302,-0.4126479,0.6910317,0.18711078,-0.12143695,-0.05298364,-0.6808672,-0.93328834,0.51989794,-0.12065208,-0.30002183,0.82389927,0.3985008,-0.12431061,0.3301121,0.22014034,-0.8622701,0.75324726,-0.6042754,0.5918336]},{"bias":-0.27122372,"weights":[0.28981817,-0.46186036,0.18734181,0.5746567,0.34822357,-0.2696435,0.96222496,-0.28523773,-0.10526717,0.32888377,0.54906416,-0.16196382,0.067821145,-0.4917814,-0.16430128,0.74347067,-0.41913432,-0.82295537,0.1275338,0.6271305,-0.2622525,-0.297471,-0.77081966,0.013298154,0.26909196,-0.14608419,-0.18922532,0.52460337,-0.8185768,0.43451202]},{"bias":-0.4898023,"weights":[-0.7741437,-0.06620562,-0.17974985,0.07455003,-0.33561343,0.030471683,-0.8611498,0.09385049,-0.23646271,-0.37796134,0.23764884,-0.6855688,-0.21585834,0.68461823,-0.086387515,0.8807483,0.95373154,0.8168931,-0.6969199,0.0228647,0.099594,-0.6829419,0.8923409,-0.67952776,-0.6757219,0.7017839,0.24352348,-0.099912286,-0.8642595,0.6576817]},{"bias":-0.79689646,"weights":[-0.62506604,-0.47428077,0.100192666,0.33120286,0.0092407465,-0.07297814,0.45120633,-0.11112249,0.6942725,0.6200292,0.9032824,0.12381089,0.36603057,0.7018542,0.7895169,0.59380007,0.91874766,-0.91389513,0.57931376,0.48012245,-0.33946675,-0.7110946,0.20986211,-0.25033277,0.17339146,-0.24032986,0.8125212,0.18718207,0.7277441,0.85356045]}]},{"neurons":[{"bias":-0.6200039,"weights":[-0.9133117,-0.7020843,-0.3336193,-0.495439,0.22859323,0.13790715,0.46221483,0.65798783,0.46253908,-0.64686275,0.09182632,0.25783718,-0.35955352,-0.16259563,0.579823,0.24656355,0.6220341,-0.6439059,0.054784656,-0.49022073,0.22868216,0.31503928,-0.94749427,0.4797789,0.02620399,-0.22427142,0.5856302,0.70936394,0.08335984,-0.7088921]}]}]}