{"layers":[{"neurons":[{"bias":-0.20416296,"weights":[-0.77939796,0.1465441,-0.6626618,-0.64141965,0.4750682,-0.31262487,-0.6490698,-0.007841229,0.2323407,-0.95736957,0.4523381,-0.09462583,0.3109299,0.25351608,-0.33868474,-0.39849538,0.53060937,0.7804868,-0.09369123,-0.8879442,0.90308285,0.04605472,-0.78768635,-0.03913462,-0.29846424,0.18664587,-0.8207078,0.034356475,-0.95671964,0.7941644]},{"bias":-0.38496846,"weights":[-0.29636902,-0.6149227,0.4476441,-0.581232,-0.90598106,0.53732705,0.08816469,0.11184895,-0.055902123,0.65095925,-0.856905,-0.17137563,-0.28353304,-0.6278653,-0.28594583,0.12572515,0.14858353,0.9705441,0.02897346,0.55839944,0.18727839,0.15438378,0.29636633,0.8040297,-0.58257383,0.023313165,0.3456875,0.62437296,-0.3347296,0.2513994]},{"bias":0.4895457,"weights":[-0.53737825,-0.17957366,0.65117097,0.09139049,0.16956246,-0.008524299,0.03722799,0.3697282,0.694119,0.54722524,0.3977493,0.44075263,0.8988757,0.3991059,0.8220234,-0.6664367,-0.16047513,0.86697507,0.48848736,-0.68653107,-0.5630657,0.7461026,-0.3450443,-0.74602437,-0.95080423,0.37049162,0.50371456,0.68685603,0.07848561,-0.44968694]},{"bias":0.2226485,"weights":[-0.2723598,-0.95577955,0.6579547,0.70103073,0.43079484,-0.8793235,-0.97889256,0.5995054,0.6225462,-0.66600156,0.24861062,-0.46031946,0.6541941,0.39902842,-0.19759572,0.6173935,0.4964341,0.8383658,-0.69602466,-0.4085676,0.81313586,0.06450975,-0.44452947,-0.8012264,0.16019356,-0.045990825,0.6432016,-0.90685415,-0.47776026,-0.6682191]},{"bias":0.6731305,"weights":[0.6142278,0.017915845,0.29700887,0.8943744,0.51692057,0.2575251,-0.3502342,0.26793873,0.24241292,-0.50341934,-0.81892586,0.7890487,-0.4232561,-0.91972756,0.14692843,-0.7990749,0.7112489,-0.49865454,-0.085262656,0.5162215,-0.084225774,-0.6886277,0.2846936,-0.13714683,-0.62968206,-0.9024415,-0.1940552,-0.44345373,0.5042188,-0.25581592]},{"bias":-0.08103907,"weights":[-0.49902052,-0.13619864,-0.9963901,-0.0754379,-0.81098175,0.1315633,0.9910271,0.9343474,-0.6513519,-0.33383936,0.27710998,-0.22000158,-0.1587795,-0.6056389,-0.8693218,-0.34976095,0.19533694,0.54579735,-0.47426862,0.76145244,-0.8321271,0.33091056,-0.8591945,-0.9508462,-0.11721027,0.75463295,-0.5389108,0.8282089,-0.56626576,0.381961]},{"bias":0.15991127,"weights":[-0.32414263,-0.011633515,0.7974591,-0.2407428,0.64129806,-0.8610704,0.511462,0.58405375,-0.33642524,-0.10138881,0.67203784,0.7687721,-0.92304873,-0.22819221,-0.7681215,0.4594103,0.46569812,0.5439346,0.9049077,0.36788833,-0.043756127,-0.2533993,-0.44328946,0.3643161,-0.4893102,-0.36524242,-0.21048582,0.58138895,0.4082328,0.6883812]},{"bias":0.7708204,"weights":[0.6365707,-0.83975697,0.57532644,-0.9890983,-0.7446759,-0.9648061,0.07813609,0.13430178,0.694072,0.45920527,-0.39179558,-0.61866254,-0.5592434,0.99933934,0.15520656,0.27254045,-0.59322613,0.3020228,0.585155,0.14609444,-0.44327325,-0.8396473,0.49632418,-0.79726124,-0.6159987,0.699718,-0.73495483,-0.059349418,0.0023132563,-0.48556012]},{"bias":-0.35391158,"weights":[-0.9321914,-0.4262063,0.36753714,-0.425955,0.51065326,0.5261526,0.9452126,-0.1464318,-0.23336613,-0.6399622,0.50384307,0.20191419,0.44149625,0.759274,-0.49108976,0.7091391,0.32026255,0.89656854,-0.16072524,0.9228952,-0.66044784,-0.36501306,0.09396994,-0.8339884,0.19503987,0.73440003,-0.48573726,0.12182462,-0.50841945,0.15374815]},{"bias":0.24306548,"weights":[-0.1601063,-0.93774295,-0.88437843,0.26287258,0.12330186,-0.09628856,0.08735049,0.120477796,0.19054592,-0.1734761,0.9012029,0.7403724,0.9522717,-0.8037212,0.48351467,0.8214507,0.77459884,-0.74241304,0.51862884,0.5132201,0.496678,-0.06931126,0.19386613,-0.33453172,0.9728863,0.13151443,-0.703074,-0.40594095,-0.20275748,0.8104079]},{"bias":0.84375834,"weights":[0.8913698,0.73951936,-0.6671443,-0.53888816,0.870198,-0.84968853,-0.301408,0.99443793,-0.71170783,0.71699476,0.22653282,-0.31316656,-0.50109595,0.99906254,0.94136953,0.4494995,0.05542004,-0.09294355,0.02353561,-0.76510286,0.2163471,-0.17677534,-0.31083363,-0.522345,0.028925776,-0.58386606,-0.23493421,-0.83652115,0.3074156,0.45014846]},{"bias":-0.81183434,"weights":[0.1556977,-0.9228759,0.9082515,0.21357071,0.25433934,-0.82081056,0.10534966,-0.3117482,0.96208334,-0.972944,-0.46888274,0.09529555,-0.77214384,0.90695214,0.14737523,0.21692812,0.60089827,-0.24515307,-0.19014847,0.73490095,-0.20994651,0.02310121,-0.4962482,-0.15386784,0.6033735,0.0608083,-0.3218016,-0.66036224,-0.15645874,-0.3774175]},{"bias":0.35611522,"weights":[-0.63549685,-0.5257892,-0.29240245,-0.2997436,-0.037466407,-0.91931105,0.90881443,0.97871804,0.25313318,0.0045689344,-0.119087815,0.20603216,0.4116763,-0.7109163,0.80458856,0.6541195,0.82349825,-0.41805857,0.87286973,0.46091616,0.1479119,0.41614258,-0.38637966,0.27149665,-0.1862241,0.9014931,-0.74555326,0.14891446,-0.7937083,-0.4298386]},{"bias":0.5005295,"weights":[0.38746893,-0.7981093,-0.13851607,-0.10438168,-0.940845,-0.29372877,-0.9134433,0.51465416,-0.5170526,0.15247977,-0.05106485,0.4557954,0.42669165,-0.2772693,0.98008204,0.49982917,0.061537147,-0.1607219,-0.020642161,0.8751173,0.86148477,-0.5446798,-0.0039004087,0.64440084,0.77358484,-0.6734388,-0.633461,-0.22888458,0.35633457,-0.64715505]},{"bias":0.81597567,"weights":[-0.7728412,0.64677286,0.6930046,-0.107026935,0.042115808,0.5821233,0.052862763,-0.53322643,0.035865903,0.6786771,0.16623962,0.15746129,-0.94804144,0.793303,0.9255085,-0.3756277,0.97711134,-0.081805825,0.7647972,-0.25909323,0.3638538,0.64384866,0.29182184,-0.18330872,-0.5473282,0.436314,-0.12827814,-0.74132633,-0.09661281,0.2411722]},{"bias":0.8412485,"weights":[0.06896913,0.3701595,-0.98402476,0.23032439,0.31667602,-0.42917794,-0.6005303,-0.6370239,0.91358614,0.14851439,-0.19577062,-0.7341695,-0.41476148,0.034413457,0.13386095,0.18172228,0.83534265,0.9513531,-0.86351466,-0.9113488,0.76100373,0.037387967,-0.8430023,-0.87948036,0.10528171,0.80860543,0.6109319,-0.83614135,-0.90930986,0.90300274]},{"bias":0.8322308,"weights":[-0.22102034,0.38656557,-0.9252391,-0.4492013,0.3153423,-0.05336535,0.42940152,-0.015571713,0.91948414,-0.9433081,0.2501768,0.7623725,-0.14831102,-0.24555528,-0.4966635,0.84749675,0.4907385,0.6616471,-0.26998252,-0.6719909,-0.7981672,-0.16801536,-0.5695228,0.7447369,0.5157099,0.29742944,0.5426295,0.53363776,0.8465464,0.50795436]},{"bias":-0.93277836,"weights":[-0.7802789,-0.1356448,0.44721234,0.44492066,-0.34591287,0.84456134,0.39256704,0.578851,0.7934778,0.6160016,0.25518835,-0.84640074,-0.30264992,0.7540071,0.13937151,0.6351199,0.62958646,0.9893534,0.81417704,0.9808202,-0.7337916,0.43100822,0.7311666,-0.77849007,0.5918796,-0.60686725,0.19166195,-0.70276093,-0.65287995,-0.67977834]},{"bias":-0.67964435,"weights":[0.30308092,-0.10008371,0.25186384,0.56041837,0.45666277,-0.667814,-0.9501493,0.8686886,0.2857517,-0.75669885,-0.21570265,-0.18749678,0.19146931,0.62162066,0.52956486,0.40310943,0.78463125,-0.11477864,0.15914428,-0.4978928,-0.1506573,-0.76633954,0.6547451,-0.3084759,-0.9814801,-0.5146188,0.12082636,0.43040812,0.08150041,0.09434116]},{"bias":-0.18382561,"weights":[0.08797538,-0.4953267,0.67518234,0.59908843,0.092826724,0.7803638,-0.7657454,-0.77726984,-0.65669537,0.49743593,0.44749725,0.41114533,-0.2494458,-0.70528674,0.7439358,-0.3061959,-0.7628095,-0.20595396,-0.12369645,-0.30677027,0.22844422,-0.2638585,0.43761432,0.4057094,0.7751062,0.97945833,-0.54450935,0.05728686,0.61469936,0.28807724]},{"bias":0.35616958,"weights":[0.8863523,-0.33840102,-0.5333621,0.8528397,0.7998667,0.48565853,0.019447923,0.8627684,0.17067635,-0.2483064,-0.26090354,-0.39238137,0.7086003,0.12208974,0.0944618,0.48913825,-0.48385233,0.10385716,-0.6365776,-0.4865796,-0.7845719,0.290923,0.7350402,0.41700566,-0.33437032,0.040410638,-0.38132232,0.8270016,-0.008764386,0.5728793]},{"bias":-0.16274488,"weights":[0.029566407,-0.6723516,0.060898423,0.2695688,0.9710841,0.16700017,0.3337778,-0.5988342,0.2729665,-0.49099463,-0.8791516,0.14401639,-0.6245243,-0.8154409,-0.27551788,-0.9079206,-0.76528,0.2522074,0.2817775,0.262648,-0.38500375,-0.56283563,-0.3604955,0.37580693,0.090370536,0.19111907,0.66908026,-0.029676318,-0.13409746,-0.6649256]},{"bias":-0.41449398,"weights":[0.9118507,-0.9326675,0.46689284,0.881551,-0.07497656,-0.86919856,-0.35935777,-0.9536376,0.850163,-0.946913,-0.26289386,0.47114193,-0.9990692,0.62422633,0.22062886,-0.9848888,0.44616497,-0.15068018,-0.49113554,0.49797022,-0.946563,-0.08270991,0.8903024,0.92254424,0.07183087,-0.7541878,-0.25901073,0.73379827,-0.18360889,0.035919785]},{"bias":-0.62258047,"weights":[-0.025153756,0.455783,0.84929013,0.5827172,-0.4977278,-0.003092885,-0.98485684,0.912972,-0.48772115,0.07751,0.40742123,-0.09541547,0.68551373,-0.4949922,-0.36762947,-0.7054012,-0.2366687,0.83666444,-0.08003104,-0.9413898,-0.70005584,-0.67469597,-0.8580272,0.49093258,0.4613608,0.22502387,-0.045941234,-0.12919128,-0.36593932,-0.54339665]},{"bias":-0.1950475,"weights":[-0.7766919,0.921005,-0.16504753,-0.79355097,0.05500281,0.26498926,0.8115406,-0.10040057,0.4446069,0.3502692,-0.4914357,0.3257333,0.13704288,0.39247787,-0.018853784,0.07586372,-0.30697888,-0.5926928,0.6577854,0.34212244,-0.24642837,0.9026015,-0.17254174,0.44191563,-0.265588,0.7220123,0.21875012,0.012107015,-0.80815196,-0.24638283]},{"bias":-0.7713599,"weights":[-0.5176961,0.5150559,0.8944297,-0.28800505,-0.7324934,-0.6222853,-0.24246395,-0.20174563,-0.6639488,-0.08083594,-0.88465476,-0.88988066,0.3982073,-0.74340606,-0.06804669,-0.4839658,0.40964806,-0.70906115,-0.48419613,-0.3278646,0.1825136,-0.51444405,-0.664166,0.19629657,0.05143726,0.2879423,-0.9878254,0.7834432,-0.31468266,-0.14187467]},{"bias":0.057766557,"weights":[0.38136876,-0.0062094927,0.79710555,0.40767276,0.7255204,0.9235954,-0.76583767,-0.886024,-0.40000957,0.7152376,-0.9315767,0.69088197,-0.5503506,0.18711078,-0.23909962,-0.05298364,0.24216616,-0.93328834,-0.15772903,-0.5276031,-0.30002183,0.5024817,-0.44094938,0.3855101,-0.99788976,0.22014034,-0.15551293,0.9651871,-0.6042754,0.58131695]},{"bias":-0.27122372,"weights":[-0.1583916,-0.57989424,-0.28313082,0.71493983,-0.19246566,-0.62274235,0.41711533,0.56079817,-0.8596699,0.80443835,-0.650445,-0.6289954,-0.8250909,0.6414411,0.0004981756,-0.78523684,-0.8947859,-0.55823225,0.1275338,-0.3413245,0.61524034,0.083625436,0.36916745,0.099368215,-0.8639481,0.91757226,-0.18922532,-0.48546976,0.81956816,-0.9983971]},{"bias":-0.5953526,"weights":[0.24505103,0.35450566,-0.5475854,-0.33388203,-0.33561343,0.1536187,-0.3708176,0.37553442,-0.61624783,-0.17460239,0.96229553,-0.28217095,-0.025831103,0.4428829,-0.42302722,-0.24075592,0.039051175,-0.4912066,0.8353758,0.8708837,-0.3369338,-0.53135794,0.8923409,0.2282883,-0.023826957,-0.049476504,0.9398582,0.32216775,-0.13915956,0.6576817]},{"bias":-0.7211652,"weights":[0.87957835,-0.47428077,-0.82266164,-0.5586445,0.63674974,-0.39384955,-0.04605925,0.11783302,-0.9456477,-0.44579476,0.97344804,0.22391784,0.72976065,-0.6863904,-0.9089699,0.5122807,0.58249426,-0.051598907,0.57931376,0.57298565,0.4727739,-0.7110946,0.20986211,-0.83593297,-0.53303045,-0.39357752,0.6664927,0.18718207,0.7277441,-0.0732497]}]},{"neurons":[{"bias":0.46746337,"weights":[-0.45888394,-0.35523075,-0.9175265,-0.50054854,-0.29001063,0.7379832,0.9061134,-0.8032093,-0.10064614,-0.39629573,0.5816934,-0.55715483,-0.22275484,-0.5328235,0.9811008,0.5969937,-0.70437837,0.8596957,0.46065152,-0.5431816,-0.26670402,0.31503928,0.10371339,-0.069507,-0.22871554,0.9819281,-0.35814852,0.15942228,0.7024343,-0.76092887]}]}]}