{"layers":[{"neurons":[{"bias":0.38819277,"weights":[-0.43043703,0.11279619,-0.6626618,-0.23929751,0.98564315,-0.18623483,0.94841933,0.27943766,0.2323407,-0.5935163,0.15767634,-0.6228563,0.12136567,-0.97471976,-0.3901779,0.23432362,0.39444983,0.88497233,-0.2601003,0.7436228,0.90308285,0.49491036,0.948838,0.42940247,0.30533206,-0.18408763,0.006706834,-0.795815,-0.615148,-0.42582124]},{"bias":0.22920287,"weights":[-0.6977048,-0.8366051,0.2198497,-0.1261729,-0.38904065,-0.79794955,0.13754284,-0.34716076,-0.16528118,0.25467288,-0.72748256,-0.85370994,-0.28353304,0.97744393,0.047839522,0.10974276,-0.28465647,0.9705441,-0.162593,0.7646594,-0.3272869,-0.37327164,0.2920109,0.7953315,0.26491773,-0.59273714,0.3456875,-0.14898813,-0.3347296,-0.6183242]},{"bias":-0.40150756,"weights":[0.5127549,-0.17957366,-0.2577464,-0.8952255,-0.7623153,0.4011973,-0.23307717,-0.89909506,-0.75116205,-0.33254737,-0.32169145,-0.8729267,0.2557057,0.3382429,-0.29059714,0.5827019,-0.3596446,0.27425992,-0.34967273,0.32149422,-0.65692353,-0.19838393,0.695596,0.48081386,0.5491636,0.471233,-0.049747586,-0.9966419,0.5820539,0.7427764]},{"bias":-0.9544213,"weights":[0.95632386,-0.4082474,-0.8374846,0.91047955,-0.7490699,0.065647006,0.2929505,0.1247617,-0.25484294,-0.27344102,0.6857984,0.6604717,0.6541941,0.39902842,-0.48109144,0.18643677,0.7636666,0.15715492,-0.33312172,0.62842035,-0.039960742,0.06450975,0.7847371,0.8536279,-0.6311891,0.0064405203,-0.91206336,0.4210106,0.5407777,0.16403997]},{"bias":0.41462505,"weights":[0.95941734,0.053923965,-0.26330537,-0.3066613,0.40448606,-0.47782105,0.69362974,0.19669783,0.76053643,-0.17817605,-0.4834389,0.049331307,-0.6118445,-0.73061705,-0.93381834,-0.7395234,-0.8790889,0.3323325,0.579144,0.120401025,-0.72193503,-0.04696524,-0.8056059,-0.26334137,-0.2760288,-0.4936511,0.54411674,-0.44345373,0.7674084,0.54772353]},{"bias":0.13997471,"weights":[0.22097862,0.31288612,-0.4586448,0.0019356012,0.5606849,0.43209755,0.9910271,0.04663837,0.9410536,0.46974123,0.27710998,-0.6076011,0.8630433,-0.010189176,0.32609284,0.23486745,0.64416766,-0.7509706,0.38580143,0.07413399,-0.96070933,-0.05616653,0.4042791,0.36851394,0.97172356,0.75463295,0.11450446,-0.78755236,-0.09695971,0.48570883]},{"bias":-0.49143285,"weights":[0.39668715,-0.011633515,-0.99124503,0.41604698,0.9820163,0.05043471,0.13346994,-0.49249214,0.2207588,-0.10138881,0.45558608,0.83248615,-0.6596956,0.5438509,-0.054593682,-0.7950151,-0.16221511,0.048408866,0.41828144,-0.10652506,-0.6219663,0.74725986,0.72732544,0.6186793,-0.48970383,-0.2620389,-0.80506086,-0.3704366,-0.21139061,0.45035875]},{"bias":0.43254006,"weights":[-0.8072324,0.2673725,-0.41066736,-0.64996266,-0.18760121,-0.6650851,-0.89358735,0.5209353,-0.58608335,-0.55005807,0.7344022,0.4597553,0.7262764,-0.22506416,0.070200086,0.964072,-0.59322613,0.5527978,0.59627557,0.82174397,-0.4186632,0.20887864,0.7203388,-0.95155954,-0.6801009,0.54448175,-0.73495483,0.91024995,0.7387161,-0.43032354]},{"bias":-0.21162307,"weights":[0.25399935,-0.61781114,-0.14207876,-0.40658778,-0.7079849,0.35851228,0.5202317,0.95876837,-0.9040909,-0.8491795,-0.74390936,-0.3736443,-0.21638048,0.43736517,-0.17869365,0.4597999,-0.17227876,0.89656854,-0.9719081,-0.24780142,0.11334288,-0.79070807,0.09396994,-0.30463666,0.83853483,0.49367678,0.02502215,0.15155494,-0.28946108,-0.25709265]},{"bias":0.6574826,"weights":[-0.42174786,-0.7764616,0.22010529,-0.51966065,0.065731645,-0.6929238,0.24430406,0.4025756,0.19054592,-0.82046056,0.1743418,-0.13292086,0.9522717,0.75700784,-0.21673334,0.20706809,0.8370786,0.068029284,-0.62854886,0.05979097,-0.5938012,-0.1405226,0.51284647,-0.9639716,0.9728863,0.06567347,-0.7827568,0.95030546,-0.7800946,0.24037802]},{"bias":-0.47942442,"weights":[-0.7051258,-0.15012395,-0.6671443,-0.55429024,-0.43942088,0.31807768,0.6743784,-0.8482189,0.49459565,0.71699476,0.20204389,-0.31316656,-0.7108731,-0.9416487,0.25629961,0.4494995,0.4988824,0.6477213,0.29576313,-0.18985593,0.6583514,-0.17677534,0.89661026,-0.107969165,-0.18778932,0.17128551,-0.96282434,0.9243195,-0.97757316,-0.82758355]},{"bias":-0.17232811,"weights":[0.13344872,0.5023377,0.7983217,-0.4333505,-0.961555,-0.89691997,-0.16930687,-0.8897457,0.84969854,0.8765249,0.22075117,0.09529555,0.8206506,0.25636017,-0.97439265,0.9651394,0.60089827,0.3662411,-0.8100219,0.91166043,0.23684323,0.8770492,-0.83091164,-0.6228835,0.22707021,0.7864375,0.69195485,0.5100436,-0.15645874,-0.02818048]},{"bias":0.35611522,"weights":[-0.63549685,-0.99927187,0.3034109,-0.8325734,0.6729646,0.33758008,-0.07675803,-0.12727988,0.25313318,-0.9960911,0.690202,0.20603216,-0.8292823,-0.7109163,-0.34375495,-0.8731015,0.70259166,0.6076119,-0.48768967,-0.40105242,0.35930097,-0.44583124,-0.06744254,0.19170582,0.34338725,0.5281408,0.060356736,-0.12575305,-0.96847606,-0.4298386]},{"bias":0.5005295,"weights":[-0.27603024,0.07605612,0.71713114,0.14513099,-0.2545032,-0.3275165,0.04570639,0.39256895,0.55558944,0.14179265,-0.09975302,0.13003075,0.42669165,-0.9741707,-0.6318934,0.28395426,0.061537147,0.7156577,0.6619253,0.47807443,0.86148477,-0.89525175,0.06832087,0.64440084,-0.20046866,-0.46297663,0.6311643,0.60433936,0.35633457,-0.6885512]},{"bias":-0.095469356,"weights":[0.019852042,0.5163553,0.84302807,0.36882627,-0.32226056,0.18587959,0.65139484,0.16561282,0.56410813,-0.9009607,0.70667195,0.2848488,-0.94804144,0.048755765,0.1838969,-0.8375292,0.1511563,0.062675595,-0.21663415,0.023262858,0.8488803,-0.7843282,-0.09505236,-0.2561037,-0.5473282,-0.51330036,-0.17864144,-0.69052005,-0.09661281,0.018309712]},{"bias":0.6766336,"weights":[0.6202903,-0.60254997,-0.49286002,-0.0007580519,-0.11430323,0.021420121,-0.8333192,-0.6974795,-0.9564264,-0.878788,-0.7622318,0.013916135,-0.37916392,0.29741108,0.08948362,-0.6553564,0.6692889,-0.8799937,-0.936883,0.5069642,0.76100373,0.037387967,0.62257075,-0.24135387,0.2823037,-0.88681865,0.6109319,-0.5208952,0.31151903,-0.9151592]},{"bias":0.67174935,"weights":[0.57032084,0.77578044,0.59368896,-0.32855362,0.6345985,0.57863426,0.4528643,0.66539,0.6996207,-0.28116125,0.15341032,0.91083384,-0.90846944,-0.24555528,0.08159554,0.84749675,0.11426318,-0.5752227,0.5210488,-0.6719909,-0.8546841,0.5500004,0.82547545,-0.073948026,-0.015177608,0.41374457,0.747931,0.50278115,-0.6542928,-0.7055354]},{"bias":0.22154224,"weights":[0.4560169,-0.33368534,0.6950791,0.31369007,-0.34591287,-0.33302373,-0.015194297,0.015462279,0.52867913,0.8149924,-0.83761907,-0.5013711,0.63708854,0.2092799,0.48949778,0.74089193,0.8552494,0.8745711,-0.801564,-0.9478543,-0.71661234,-0.2798378,0.7139747,-0.16234863,-0.9346144,-0.49401706,0.055774808,-0.22942078,0.93197966,-0.67977834]},{"bias":-0.67964435,"weights":[-0.10537422,0.31570613,-0.5963511,-0.43829125,-0.41509598,-0.663975,0.43254793,-0.92884326,-0.5206458,-0.75669885,0.7543566,0.21003282,0.87457156,-0.30504102,-0.08885968,0.40310943,0.4396106,-0.11477864,0.15447056,0.94036174,-0.28933758,0.48044598,-0.029473424,0.5488553,0.2534045,-0.5146188,0.12082636,-0.050290465,-0.3301453,-0.047061563]},{"bias":-0.14340198,"weights":[0.44852173,-0.7310045,0.3859235,-0.18184173,0.8821659,0.7803638,0.95944476,-0.46272558,-0.121139884,0.22860563,0.48934042,-0.66105247,-0.6354959,0.16229689,0.7439358,0.8484669,-0.1868726,-0.20595396,-0.15803611,-0.451245,-0.10096872,0.45400035,0.43761432,-0.17520177,0.40604937,-0.97681856,0.024653554,0.72435975,-0.48222512,-0.07704055]},{"bias":0.048953652,"weights":[-0.5106539,0.3498956,0.76466846,0.8644321,0.5043597,0.21867836,-0.1683718,-0.11058009,0.34432828,-0.40861624,0.19618881,-0.74402165,-0.8031204,-0.36345428,-0.21662867,0.809093,0.86969185,-0.36459392,0.15867078,0.5978098,-0.12106836,-0.18973362,0.95278,0.03598368,-0.23996198,-0.72322965,-0.70616007,0.8270016,0.07885134,0.3640257]},{"bias":0.826087,"weights":[0.029566407,0.40486133,-0.7175169,0.007127404,0.48410094,0.8687818,0.089499354,-0.7968917,0.23132098,-0.0027946234,-0.029943824,-0.8169606,0.05483544,0.5541949,0.11657584,-0.20831835,-0.4459254,0.5310159,0.59308004,0.0465616,-0.2527091,0.010915875,0.1130327,0.14226449,-0.45214576,-0.2367729,0.31684673,-0.29485506,-0.6431806,-0.6649256]},{"bias":-0.7458074,"weights":[0.570873,0.74182796,-0.8377073,-0.5860931,0.6533382,0.7612586,-0.6107835,-0.9536376,0.6868479,-0.18627012,0.8133602,0.47114193,-0.6880727,0.37845528,0.89306927,-0.09675419,0.44616497,-0.82184505,0.79692745,0.95630765,-0.946563,-0.08270991,0.8156078,0.23247993,0.86923504,-0.35304946,-0.8508177,-0.39263624,-0.22077453,-0.55086535]},{"bias":0.35769308,"weights":[-0.64282656,-0.652262,-0.83870673,0.5827172,-0.3677432,-0.003092885,-0.98485684,0.9810097,0.9803796,-0.3956284,0.4304067,0.9400542,0.8706348,0.37162697,-0.16048801,0.60461426,-0.4917037,0.16906917,-0.4394161,0.6048839,-0.75967693,-0.16554534,-0.84439754,0.39419568,-0.10416615,0.030172467,0.6406684,0.06000507,0.09946048,0.9534292]},{"bias":-0.5361435,"weights":[0.25680935,0.921005,0.9842434,0.4838153,0.99093103,-0.43415588,-0.41170877,0.28195918,-0.6411104,-0.38200086,0.8576224,0.20971072,-0.5855829,-0.94779134,0.53121686,0.15264285,0.8442013,0.9918823,0.6899047,-0.95857453,-0.26758164,0.9465256,0.6657474,-0.16421974,-0.6183173,-0.0335809,-0.075258374,-0.5195705,-0.99126244,-0.24638283]},{"bias":-0.5591852,"weights":[0.11575687,0.5150559,-0.6706288,-0.58378977,-0.16289818,-0.37239236,-0.24246395,0.06653726,0.9084399,0.7614002,0.30692637,-0.9315853,-0.6132285,0.2510265,-0.9969642,-0.9393945,0.7898431,-0.27538127,-0.09844434,0.18366659,0.1825136,-0.6223013,0.55619216,-0.4011988,-0.11875141,0.78879476,-0.9878254,0.7834432,0.95015717,-0.4581985]},{"bias":0.057766557,"weights":[0.48964727,-0.03650582,-0.22792208,0.68470454,-0.88886976,0.73744464,0.50318146,-0.12417972,-0.40000957,-0.2268771,0.35580742,0.5850339,0.5043671,0.59990835,0.08371818,-0.3678059,-0.64324,-0.13544595,0.98297644,0.41783607,-0.8126633,-0.8098254,-0.6106877,0.8023355,-0.99788976,-0.90288377,0.9017265,-0.3058583,0.34945977,0.006521344]},{"bias":-0.27122372,"weights":[-0.048942924,0.6955459,0.4136473,-0.6889336,0.96600366,-0.9652281,0.6801288,0.85085535,0.22847426,0.80443835,-0.650445,-0.1931175,-0.8878751,0.6414411,0.7421448,-0.5897142,0.19174826,0.6384134,-0.42531723,-0.3413245,-0.7690022,0.5518553,-0.97731805,0.41252148,-0.8639481,-0.8722606,0.6097529,-0.19821942,0.44027102,0.6551666]},{"bias":-0.8468535,"weights":[-0.7686889,-0.23096645,-0.25689524,0.35355008,-0.9476366,-0.8325069,-0.16454852,0.65221167,-0.61624783,-0.116515756,-0.62262076,-0.89274883,-0.54540795,-0.6325762,0.60675263,-0.24075592,0.38339746,0.13639987,0.8353758,-0.2911691,0.5158205,-0.67869616,0.69228935,0.57929134,-0.17014182,0.48519528,0.9398582,0.5691323,-0.9140737,-0.25824445]},{"bias":-0.30146068,"weights":[0.6494422,-0.33320063,-0.86751413,-0.5586445,0.5949807,-0.9043374,-0.7970445,-0.8124504,0.206586,0.027217269,-0.7699282,0.22391784,0.38782346,-0.08733904,-0.9089699,0.5869615,0.9162719,0.9546683,0.46034348,-0.048530698,-0.7545285,-0.91567564,0.63985825,-0.36744803,-0.3244087,0.96669364,0.42031634,0.9376304,0.45524633,-0.19177783]}]},{"neurons":[{"bias":0.19684184,"weights":[0.5467603,0.9128585,-0.4190876,0.62494636,-0.3346364,-0.642365,0.7198367,-0.30420488,-0.10064614,0.94364786,0.7925954,-0.55715483,-0.22275484,-0.0075796843,-0.5048637,0.74335,-0.93981814,0.82095337,-0.60525364,0.5353837,0.21181643,-0.65635324,-0.9755554,0.9372196,0.7816067,-0.45489734,-0.35018247,0.40973604,0.51039696,-0.63307166]}]}]}