{"layers":[{"neurons":[{"bias":-0.6767695,"weights":[-0.31841367,0.48241866,-0.5573625,0.23720658,0.008717656,-0.35057777,-0.31342858,0.9399257,-0.46222395,0.08754742,-0.20284784,-0.6228563,-0.71834445,0.08597624,-0.4955048,0.62709785,-0.04049623,0.3004936,0.54202795,0.107459426,-0.28111786,0.7306726,-0.1533705,-0.38786787,-0.87927413,0.13997829,0.946157,-0.15492547,-0.598298,0.7701776]},{"bias":-0.42054123,"weights":[-0.47773165,-0.6711283,-0.927228,0.18713033,0.5982895,-0.70250416,-0.28372496,0.9058416,-0.57930964,0.9876869,-0.7572477,0.06517112,0.44863904,-0.23986852,-0.17057121,0.23389208,0.65648985,0.44031775,0.7097497,0.36960614,0.5804715,0.44071424,0.4742614,0.8090744,0.5391872,-0.59273714,0.38963878,0.41822731,0.09645331,0.10237658]},{"bias":-0.40150756,"weights":[0.40588105,0.45504248,0.6472237,-0.40375346,-0.7623153,-0.1275543,0.20239651,-0.2941715,-0.64474773,0.02427113,0.21884692,-0.08443606,0.2557057,0.8332057,-0.41355103,-0.22223437,-0.9234588,0.17302597,-0.50020736,0.10197961,0.11680496,-0.34961694,-0.005490899,-0.6807711,0.60715485,0.94271064,0.51736426,-0.7223666,0.69697285,0.7427764]},{"bias":-0.8206434,"weights":[0.67319775,0.83157325,0.69165874,0.064911485,-0.9321468,0.4813317,0.14214694,0.9135902,-0.4737093,-0.32177204,-0.19068015,0.48692286,0.5497651,-0.4860558,-0.6343124,-0.37107962,0.9279282,-0.958832,-0.64817405,0.7853508,-0.81173086,0.68831396,-0.9094143,-0.5929317,-0.8752918,0.7299552,0.9380963,-0.7135112,0.5407777,0.8817277]},{"bias":0.71487164,"weights":[0.7510643,0.057486176,-0.25496763,-0.08584702,0.40448606,0.8732536,0.9869399,-0.85423684,0.76793385,-0.24102914,0.14157069,0.66057444,0.37535703,0.69827676,-0.14982426,0.39163768,0.16417754,-0.9133296,-0.81384015,-0.8931439,0.9025512,-0.662266,0.8845341,-0.04523766,0.20480144,-0.30979437,-0.46118945,-0.44345373,0.11058843,0.54772353]},{"bias":0.7838032,"weights":[-0.85865426,0.13488328,-0.04244125,-0.22257388,-0.4801094,0.16859353,0.9910271,0.61191154,-0.32710403,-0.5422742,0.9080949,0.65584064,0.039410233,-0.72139096,-0.17593968,0.7967205,-0.81827307,0.7042589,0.75816774,0.3952309,-0.2354151,-0.30579466,-0.89365983,-0.34627432,-0.4981374,0.91241884,0.13080752,-0.61022705,-0.87672186,-0.9766493]},{"bias":0.23416555,"weights":[0.39668715,0.6568868,-0.91391826,-0.48091,0.048722148,-0.39082998,-0.4351794,0.8177314,0.64204454,0.88771105,-0.47296852,0.9656322,0.19917905,0.712353,0.16355765,0.009075284,-0.6889136,-0.4036476,0.15213168,-0.08653581,0.4140216,0.521816,-0.124902606,-0.007757306,0.62551594,-0.8784845,-0.21644771,-0.3738672,-0.21139061,-0.30852908]},{"bias":0.02121389,"weights":[0.9366808,0.5728917,-0.13042295,-0.64996266,0.9117973,0.7910273,0.6793847,-0.9683869,-0.71268487,-0.74364734,-0.30762714,-0.42083663,0.9200094,-0.6128318,0.66039944,-0.9698863,-0.71947813,-0.99106956,0.78403616,0.724494,-0.674438,0.8272371,0.021158814,0.7634301,0.8207233,0.12994373,0.89195013,0.28437078,0.041972518,0.252159]},{"bias":-0.9739046,"weights":[0.4513296,-0.22589266,-0.16276658,-0.40658778,0.15042436,0.3058287,-0.14711845,0.4511932,-0.14960039,-0.8491795,-0.012112021,0.68707633,-0.050339103,-0.38693923,0.8021989,-0.46471852,-0.58021206,-0.2923953,0.9597137,0.9753609,0.5563388,-0.8998656,-0.5516457,0.11952031,0.5978167,-0.7167523,0.18793976,-0.06189835,0.7761171,0.8090515]},{"bias":0.749979,"weights":[0.1331855,0.8364048,-0.49602455,0.5843015,-0.63297415,-0.92488647,0.47253716,-0.3933465,0.027850986,0.10294163,-0.46471208,-0.42505807,-0.56300586,0.7177098,-0.21673334,0.20706809,-0.8655331,0.068029284,-0.7718375,-0.009281039,-0.44640082,-0.89008045,0.00565207,-0.24838173,0.24599421,0.06567347,-0.069998145,0.95030546,0.8772962,0.7836993]},{"bias":0.9913478,"weights":[0.22674072,-0.4640605,-0.6671443,-0.3600797,0.95410585,-0.16741192,0.6743784,-0.5942969,-0.45270723,0.2444309,0.69761896,0.46803248,0.35017145,0.6067884,0.08933532,0.4494995,0.4885627,-0.23674095,0.94835234,-0.8607538,-0.6035113,-0.17677534,0.90724325,0.7623658,-0.9379978,0.9440472,0.73314357,0.65188336,-0.5313963,0.5576303]},{"bias":0.04110062,"weights":[0.21215093,0.2598573,-0.8706248,-0.55283993,-0.23151886,0.85916543,-0.1595465,-0.75302124,0.783658,0.8765249,0.9957113,-0.36725682,0.672194,0.41964304,-0.8951278,0.5007684,-0.5835723,-0.025248885,0.99255204,0.6742089,0.2582537,0.4975499,0.7684872,-0.6228835,0.77742434,0.33591187,0.46429837,0.7962198,-0.8342881,-0.0019420385]},{"bias":0.27453482,"weights":[0.8479054,-0.5890164,0.92482376,-0.93445134,-0.32426757,0.33758008,0.4890846,0.6759386,0.6020944,0.53467226,-0.94795346,-0.6208927,0.91900015,-0.9668658,-0.9328923,-0.25402087,0.026247144,-0.27855843,-0.50900286,-0.40105242,-0.39299887,-0.5461919,0.7482333,-0.42116326,0.6135495,0.11603129,-0.91246843,-0.18596828,-0.48555487,0.9002204]},{"bias":0.26244175,"weights":[0.4559456,-0.835794,-0.40236038,0.8784056,-0.43973583,-0.3275165,-0.8957553,-0.87334156,-0.96456146,-0.47363895,-0.5829844,-0.7046211,-0.44917864,0.23467481,-0.6318934,-0.10113394,0.4601127,0.22507513,0.90659857,0.604589,-0.74625206,-0.89525175,-0.819021,-0.25824207,0.52380824,-0.19370663,-0.4657182,-0.91760445,0.4590732,-0.76136494]},{"bias":-0.095469356,"weights":[0.8959949,-0.47403973,0.87079215,-0.1364609,-0.32226056,-0.68470335,0.65139484,0.56281376,0.19311821,-0.15014637,-0.8939216,0.9711509,0.21173775,0.25577366,0.5103328,0.14099443,-0.54421324,0.97094727,-0.84387827,-0.38573045,-0.84617877,-0.015550733,-0.09505236,0.90405035,-0.7151897,-0.51330036,0.040402055,-0.02992475,0.16027272,0.22800648]},{"bias":0.9689381,"weights":[-0.26009053,0.42983449,0.7743988,-0.0007580519,-0.79617333,-0.10259831,0.6062515,-0.16369545,-0.719285,0.15581143,-0.7622318,-0.7919731,0.16097271,0.34858382,0.4692818,0.7643223,0.74186516,-0.9251523,-0.936883,0.2604226,-0.9928942,-0.324279,0.13477218,-0.24135387,-0.71872735,-0.50251526,-0.9240439,-0.5208952,0.25473416,-0.49986166]},{"bias":-0.8022704,"weights":[-0.6099917,-0.8664079,0.59368896,0.29669464,-0.049822927,0.43209374,-0.786016,-0.9310887,0.41717708,0.70394826,0.20761502,0.91083384,-0.8865018,0.8035586,0.6266813,0.607939,-0.44449848,-0.38768786,-0.9858005,-0.040508628,-0.69740057,0.9882915,0.56575346,-0.18921244,0.34978712,0.41374457,-0.4048733,-0.1027993,0.32741654,0.061957]},{"bias":-0.19986069,"weights":[0.89267015,0.19155943,0.018733859,-0.7605226,-0.12898433,-0.11799824,0.20774591,0.015462279,0.52867913,0.8675349,0.3393823,0.47880924,-0.8889477,-0.86523867,0.582932,0.61006594,0.26072943,0.78896475,-0.801564,0.436885,-0.042506814,-0.8780682,0.7139747,0.10182798,-0.9346144,-0.96172595,-0.8537271,0.7187159,0.5842886,-0.7005763]},{"bias":0.5892072,"weights":[0.96834683,0.3320073,-0.36750597,-0.43829125,-0.84049344,-0.043239713,-0.7815125,0.63608575,-0.19312108,0.97488713,0.5067456,-0.024041533,0.3941306,-0.1402775,-0.07932603,-0.45013708,-0.7909441,0.41121447,0.38914692,0.7333174,-0.646878,0.5592301,-0.4455616,0.8514106,-0.9029417,-0.3826825,0.19687498,-0.12745726,-0.71017885,0.78840995]},{"bias":-0.014991641,"weights":[-0.8470595,0.5946014,0.4688748,-0.31974906,-0.009426713,0.7803638,-0.0812341,0.9059849,0.06339848,-0.8623791,0.43963778,0.37747276,0.90679884,0.16229689,-0.37318295,-0.46061963,-0.1868726,-0.368792,-0.5524561,0.7026961,0.7606485,0.4730419,0.993356,0.060490727,0.8166058,-0.43773097,0.51209044,0.19567716,-0.4415688,0.9715717]},{"bias":0.048953652,"weights":[0.6707709,-0.6799321,-0.9283869,0.35054553,-0.30687088,-0.43190235,0.63003516,0.78521824,0.44855845,-0.40861624,0.9995742,0.15913641,0.7719159,-0.24672401,0.89830303,0.83737826,0.039550662,-0.1802479,0.33984697,0.4859873,-0.6598792,0.3395828,0.25599086,-0.8639598,-0.6900041,0.00899446,0.9583399,0.6402583,-0.91016746,0.3640257]},{"bias":-0.5386562,"weights":[0.9031167,0.9843168,-0.28651685,-0.29360145,-0.83344483,-0.3516969,-0.9984176,0.019269347,-0.8624246,-0.041336656,-0.59685796,0.7277987,0.6957936,-0.80197024,-0.64898276,0.38821113,-0.72480226,0.84427,0.65172553,-0.21828234,-0.5944125,-0.18057549,0.07519162,-0.68460464,-0.6493182,-0.27918357,0.31684673,-0.027751088,0.48268306,0.036350608]},{"bias":-0.6975906,"weights":[0.6676614,-0.06431043,-0.8377073,0.48327887,0.74419355,0.56620765,-0.41934127,-0.17767823,-0.48388785,-0.18627012,0.8133602,0.47114193,-0.51648253,-0.41192645,-0.8913834,-0.72376966,-0.86425614,-0.5869393,0.79692745,-0.9721236,0.5088973,0.48112404,-0.23417485,0.42248118,-0.71043277,0.20602047,0.537132,0.15034997,-0.15905082,-0.55086535]},{"bias":-0.81281924,"weights":[-0.64282656,-0.7972069,-0.3375587,-0.5502655,-0.10186255,-0.5696811,-0.28403705,-0.5167362,-0.61886066,0.09843242,-0.41254753,-0.7976239,0.9606161,-0.57692903,0.8776641,0.12796581,-0.4917037,0.16906917,-0.08564174,0.9770427,0.31059062,0.4395784,0.84755516,0.6705179,0.98331165,-0.32970113,-0.40269297,-0.9286506,0.09946048,-0.4054603]},{"bias":-0.063378215,"weights":[-0.55522174,-0.39657182,-0.38880152,0.12560356,0.7888205,0.18724978,-0.41170877,-0.11441648,0.1310054,0.12595332,0.81497216,-0.42172974,-0.5855829,-0.597856,-0.69897294,0.5380025,0.30605614,-0.8447883,-0.9782171,0.089545846,-0.26758164,-0.7980623,-0.90407944,0.48933065,-0.76311207,0.49847353,-0.075258374,0.6079614,-0.99126244,0.6047375]},{"bias":-0.46451753,"weights":[-0.6289985,-0.95720124,-0.6706288,-0.1395644,0.84985137,0.29325497,-0.68274784,0.9953613,0.40865982,0.7614002,0.67624164,0.038419366,-0.1308006,-0.8609195,0.9350326,0.23518574,0.9139061,-0.18696702,-0.09844434,-0.2925145,0.20430839,-0.5922932,-0.203107,0.18255651,0.67222524,0.32026637,0.3209015,-0.6517484,0.056482434,0.4103247]},{"bias":-0.19299734,"weights":[0.9508581,0.6975436,-0.82636595,0.68470454,-0.5474035,0.73744464,-0.26877993,0.7156656,0.8152883,-0.45784897,0.39263666,-0.5098831,0.77351904,0.5762825,0.70810485,-0.34849733,0.00055873394,0.18596041,-0.714262,0.12012994,0.011443257,0.5514271,-0.20993364,-0.07843459,-0.9672787,0.025298476,0.12221277,-0.8311446,-0.7384126,0.11820948]},{"bias":0.08267772,"weights":[0.418563,0.6955459,-0.6928878,0.232108,-0.69802403,0.1276921,-0.15927541,0.4114741,0.69714,0.80443835,-0.650445,-0.6359501,-0.9902632,-0.7256799,0.51115155,0.5636933,-0.2931859,-0.7490878,-0.7025356,-0.3413245,0.99175644,0.046871305,-0.97731805,-0.7845359,-0.9742093,0.06359851,-0.747386,-0.19821942,-0.71522164,0.85863495]},{"bias":0.5661447,"weights":[-0.31569356,-0.95159626,0.12648499,0.26412308,-0.8422184,-0.62731504,0.69436765,0.1397034,0.25212848,-0.8010814,0.0017558336,0.95740056,-0.32913774,-0.47789282,0.70300126,-0.25669092,-0.8407352,-0.40254658,-0.4040293,-0.2911691,-0.69453764,0.6697085,-0.6867554,0.57929134,0.11752474,0.48519528,-0.3574838,0.04049766,-0.45359677,0.83587027]},{"bias":0.8061826,"weights":[0.15223396,0.316347,-0.57643074,-0.2080394,0.6801119,-0.272314,0.22647822,-0.8124504,0.78277874,-0.2741813,-0.82183623,0.97184634,-0.8854697,-0.9107759,0.5581701,-0.036188483,-0.21508515,0.93806577,-0.67204976,0.88050246,0.05081165,0.6800945,0.68094134,0.95835185,0.19779146,-0.8477106,-0.8276408,0.9376304,0.20834363,-0.19177783]}]},{"neurons":[{"bias":0.832371,"weights":[0.5467603,0.4981526,0.76830506,0.3984064,-0.8206508,0.23719442,-0.65295124,-0.72112226,0.2916392,-0.5096249,0.5272174,0.8359623,-0.21831334,0.922153,-0.5048637,-0.583661,-0.60619706,-0.64265394,0.2583481,0.0959152,0.45458686,-0.2696032,-0.8510406,0.9897797,0.24855793,0.2143966,-0.35018247,-0.86576414,0.51039696,0.25668323]}]}]}