{"layers":[{"neurons":[{"bias":0.9075303,"weights":[-0.61514515,-0.8195276,-0.6431434,0.06911051,-0.30633897,-0.77560186,0.0761708,-0.896626,0.07054412,-0.94917893,0.044901967,-0.91485524,-0.68237925,0.08597624,-0.4955048,0.5024407,0.23453796,0.3004936,0.69056416,0.13669622,-0.95231247,0.3659631,0.30103981,-0.9880345,0.26881802,0.6201005,-0.5602364,0.8613913,0.6985123,0.7701776]},{"bias":-0.25558633,"weights":[0.8474648,-0.911896,0.5726526,0.9054239,0.97529984,0.58252,-0.37401432,0.9058416,-0.6352093,-0.60250324,-0.77279305,0.2581905,-0.4873516,0.80727386,-0.62262124,-0.43842143,-0.30926841,0.44031775,0.11639941,-0.23223221,-0.21189845,-0.89415073,0.4742614,-0.8556683,0.93061996,0.42615592,-0.8128147,-0.5659575,-0.9539964,0.26735842]},{"bias":0.51592803,"weights":[0.32939327,0.4558102,-0.41304082,-0.6074802,-0.5655524,0.2876569,-0.54478234,-0.20794761,-0.94054127,-0.11651409,0.22805274,-0.08443606,-0.24933827,0.2748462,-0.0696193,-0.16920221,0.0038241148,-0.2643692,0.67208886,0.49090636,0.27740753,0.8605015,-0.005490899,-0.7980342,0.63322544,-0.24878943,-0.26920956,-0.38800234,-0.3845622,-0.9713738]},{"bias":0.5227599,"weights":[0.46218407,-0.8650162,0.69165874,-0.7166927,0.2793082,0.70150757,0.14214694,0.32927215,0.91971326,-0.32177204,-0.53545326,-0.90411496,0.7371149,0.02675569,-0.9104254,0.49094212,-0.93836784,-0.3514356,0.3520478,0.7853508,0.27961624,0.17679012,0.819515,-0.1234113,-0.45573157,-0.96890664,-0.39358896,0.10451949,0.28554952,0.5315099]},{"bias":-0.99756265,"weights":[0.7609,0.30227435,-0.16835654,0.73873425,0.18347132,-0.5924484,-0.33320588,0.73323226,0.8759098,-0.057041764,0.7013712,-0.48106712,0.25209582,-0.28185052,-0.1374284,-0.32173818,-0.19952714,0.31943047,0.10771859,-0.46586102,0.93978524,-0.662266,-0.5052635,0.22191155,-0.9185972,0.05586803,-0.07634199,-0.170421,0.5158539,-0.162794]},{"bias":-0.38025826,"weights":[-0.40972584,0.8154266,0.7032571,-0.40180343,-0.47951645,-0.6765249,0.24376166,0.13048375,-0.16900289,-0.13259184,0.4601413,0.7802172,-0.64451766,-0.52426404,-0.9652419,0.49722826,-0.22541702,-0.55056447,-0.46023506,-0.8171332,0.53568125,-0.12840617,-0.4456126,0.4251014,-0.8589792,-0.23479402,-0.48985642,-0.06006992,0.7196522,0.38468516]},{"bias":-0.11460793,"weights":[0.39668715,-0.4758944,-0.33671826,-0.14618433,0.048722148,-0.39082998,-0.14372265,0.99454355,-0.446963,0.88771105,-0.47709364,0.18930471,-0.94545436,-0.098038316,0.16355765,0.9408963,-0.6040177,-0.41427916,0.012565732,-0.16585648,0.4140216,0.07194698,0.5516989,-0.62365025,-0.6554587,-0.8784845,-0.027314067,0.47970617,-0.87393,0.063500285]},{"bias":-0.4846701,"weights":[-0.13628113,0.509336,-0.6462426,-0.8119917,-0.9515934,-0.6215736,0.69134045,0.07167852,0.86029124,-0.36706442,-0.9109795,-0.9656334,0.16133058,0.07769406,0.5013604,-0.9698863,-0.89499784,-0.33647913,-0.38498253,0.22191393,-0.0854398,-0.18402302,-0.45067424,0.12203324,-0.15810978,0.4541875,-0.6038236,-0.8598194,0.60567975,-0.2565784]},{"bias":0.35212648,"weights":[0.83362865,-0.02993977,0.23696935,0.14851868,-0.2589993,0.13879311,-0.7359326,0.7930987,-0.24414575,-0.3994934,0.5707073,-0.14622653,-0.16529977,-0.9892404,-0.27506202,-0.24570382,0.034629703,0.9297452,-0.78425884,-0.11414969,0.5563388,0.8585446,-0.4945094,0.4477347,0.5978167,-0.7167523,0.8471868,-0.580095,0.32866657,-0.2622947]},{"bias":-0.16977346,"weights":[-0.305283,-0.3612978,-0.8904791,-0.4575023,0.9781463,0.1609298,-0.9294009,0.06657016,-0.31653303,0.33691657,0.9243915,0.62363386,-0.56300586,0.7177098,0.4193312,0.6807308,-0.76018953,0.797766,-0.056929946,0.15755188,-0.72034454,0.08658993,0.00565207,-0.28411883,0.24599421,-0.4932701,-0.9148576,0.9764347,-0.92968607,-0.22553003]},{"bias":0.6753881,"weights":[0.5995543,0.541003,-0.4199912,0.037568927,0.45132744,0.9754758,0.46433842,-0.5942969,-0.48261112,-0.5320124,-0.51809543,0.7320864,-0.049878,0.008809924,0.25645173,0.38995588,-0.32145494,-0.24769199,0.55467653,-0.232427,-0.13158333,-0.2685148,0.459813,0.63204265,-0.0090328455,0.27270257,0.64899325,-0.9296465,-0.97181964,0.19620335]},{"bias":-0.34002417,"weights":[0.7730577,0.2598573,-0.7582433,-0.55283993,-0.37391275,0.08257282,-0.1619097,-0.30813116,0.37242615,0.6660006,0.5744884,-0.36725682,0.6518159,0.41964304,-0.42571515,0.7112436,-0.3191902,0.8196869,-0.28033465,0.3255347,0.2582537,-0.5243172,-0.18787229,-0.6228835,0.85990644,0.87433195,-0.78700566,0.13372552,0.80163765,-0.0019420385]},{"bias":0.6196375,"weights":[0.020959973,-0.36872143,-0.84412026,0.73202515,0.09419286,-0.55959386,0.91592073,0.48413646,0.5979078,0.53467226,0.7483227,0.33362377,0.8441875,0.037854314,0.54374194,0.6741648,-0.13836491,0.25084817,-0.32156485,0.5804167,-0.18069613,-0.56099385,0.7433677,0.10929549,0.08283913,-0.40725845,-0.91246843,-0.18596828,-0.96404076,0.9002204]},{"bias":0.9621253,"weights":[-0.73249984,0.56239057,-0.42353386,0.8784056,0.27055824,-0.59923834,0.20157468,-0.87334156,-0.39423174,0.032796264,0.40581143,-0.57624406,-0.44917864,0.81291723,0.17169583,0.5274191,0.4601127,0.65586376,0.520844,0.30119264,-0.84905887,0.76024866,-0.14157999,0.5484736,-0.59405106,-0.38457268,0.30045092,-0.64258766,-0.6828549,-0.8239536]},{"bias":0.7348666,"weights":[-0.20919693,0.5108688,0.5306463,-0.1364609,-0.27240366,-0.59801096,0.65139484,-0.3845722,-0.3336231,0.6782856,0.39630377,0.9711509,-0.13483799,0.83358526,-0.7773466,0.07077372,0.6128323,0.46708167,-0.98627067,-0.13627017,-0.900481,0.008264184,-0.42510384,0.121798635,-0.26943058,-0.71638775,-0.5807521,0.40515316,-0.3077938,0.22800648]},{"bias":-0.35918874,"weights":[0.15001667,-0.4428107,0.33670866,0.24875939,-0.23870075,0.379439,0.87614083,-0.6557834,-0.719285,0.12758172,0.021337867,0.025745988,0.2709626,-0.74475265,0.4692818,0.9526582,0.047630906,0.64409375,0.8077805,0.9186976,0.94584346,-0.4199323,-0.6745925,0.9478681,-0.76561785,-0.68958545,0.9980476,0.92266965,0.25473416,0.14369047]},{"bias":-0.43248528,"weights":[-0.6099917,0.54770184,0.2603072,0.29669464,0.62069654,-0.60261315,0.4509815,-0.5380785,0.41717708,0.4669062,-0.35699624,0.11363256,-0.7025485,0.9440086,-0.9628427,-0.49845976,0.92248034,-0.4277689,-0.39634985,0.8798647,0.45276344,0.84057164,0.20714462,0.6573403,-0.13380969,-0.5055527,-0.8478198,-0.24910581,-0.40481704,0.7738185]},{"bias":-0.19986069,"weights":[-0.17416155,-0.7672467,-0.036569238,0.30797637,0.11549723,0.015585542,-0.6203794,0.6266916,0.52867913,0.2311033,0.3730358,-0.5340399,-0.6849787,-0.7614744,0.16610324,-0.19938385,0.26072943,0.78896475,-0.5870072,0.9045949,-0.6576321,0.787447,0.22503173,-0.39832443,-0.6605828,-0.32115144,-0.8537271,0.9679451,0.87255454,0.66866255]},{"bias":0.5892072,"weights":[-0.42137688,0.13877738,-0.36750597,-0.6902468,0.07469499,-0.72247195,0.8518419,0.6413107,0.30383766,-0.8540478,-0.7167249,0.6217115,-0.39879435,-0.1402775,0.78938746,0.029080987,-0.4802372,0.89578533,0.7310443,0.41188705,-0.646878,0.735517,0.005560279,0.12055004,-0.17087328,-0.9366386,-0.6894245,0.90355754,0.83366084,-0.6171116]},{"bias":-0.9018314,"weights":[-0.8470595,-0.20621717,-0.13536799,0.38032997,-0.009426713,-0.68210554,0.3724121,-0.41493577,-0.20718944,0.62618566,-0.16772282,0.30444944,0.29347718,0.86587596,-0.37318295,0.38199198,0.6205237,0.45453393,-0.5524561,-0.7849376,0.7606485,0.56315327,-0.7529671,0.060490727,-0.4407553,-0.2683918,-0.67400837,0.8872814,0.028577209,-0.95134926]},{"bias":0.048953652,"weights":[-0.8410232,-0.29381126,0.16740501,0.9261606,-0.7327137,0.23486555,0.3739499,-0.7131007,-0.74230814,-0.40861624,-0.92710924,-0.88751316,-0.20564497,-0.579899,0.5785954,0.039753318,-0.19716537,-0.1802479,0.51640606,0.48624718,0.00018393993,0.45011866,0.25599086,-0.9143009,0.48254812,-0.16855061,-0.56181115,0.5471728,-0.6997154,-0.48479503]},{"bias":-0.5172538,"weights":[0.9031167,-0.013628364,0.24918377,-0.5663292,-0.38312978,-0.93113065,0.7662029,0.0056391954,0.99654245,0.8517313,-0.51454943,-0.3245744,0.65129995,-0.001861453,0.7597046,0.91087294,0.31012714,0.82556844,0.5909493,-0.3511259,-0.35111374,-0.21360171,-0.72348404,-0.6545441,-0.9787979,-0.5709278,-0.14387119,-0.8973756,-0.88933635,-0.95742416]},{"bias":-0.6975906,"weights":[-0.21973455,0.8590636,0.9878745,0.4296075,-0.70301104,-0.4635586,0.9600241,0.39993942,-0.40338033,-0.9512222,-0.9470458,-0.36418337,-0.01943171,-0.99738026,-0.17722571,-0.72376966,-0.22166026,-0.5372171,0.9150877,0.9001472,0.8816662,0.48112404,-0.33157367,-0.714458,-0.71043277,-0.68444157,-0.067613244,0.15034997,-0.2828161,-0.25103968]},{"bias":0.6135726,"weights":[-0.5222215,0.94238997,0.92676926,0.8083706,0.6416359,0.35594666,-0.58885664,-0.121192575,-0.08112419,0.96402717,-0.5014357,0.6359379,-0.0640682,0.98522687,0.03464997,0.12796581,-0.9120753,-0.13468158,-0.4043166,0.55698156,-0.16197717,-0.27454156,-0.90383744,-0.791605,0.13204825,-0.9987259,0.74057484,0.97808146,-0.013445735,0.053578258]},{"bias":-0.99643373,"weights":[-0.11626923,-0.39657182,-0.38880152,-0.978755,0.7888205,0.18724978,-0.8126104,-0.86770916,0.6084728,0.7957382,-0.4948334,-0.77767396,-0.14137566,-0.840801,0.9466133,0.4195937,0.042721868,0.6837573,0.11213195,0.8563993,-0.029744029,0.9644344,-0.90407944,0.9311116,0.43348563,-0.68711424,0.6451738,0.3865906,0.13303292,-0.2505986]},{"bias":-0.46451753,"weights":[-0.2484814,-0.25052017,-0.63895345,0.42061365,-0.07673609,-0.08821595,0.36180556,-0.38896936,0.6021583,-0.59205335,0.45447147,-0.4924783,-0.70518064,0.44338238,0.47931206,0.23518574,-0.41941756,-0.24832547,-0.09844434,-0.2925145,-0.23114908,0.19026601,0.14696372,-0.65104365,0.34047186,-0.88994575,-0.90962625,-0.6994152,0.9693339,-0.07342374]},{"bias":-0.47423,"weights":[-0.46639627,0.15589035,0.103049636,0.68470454,-0.5474035,-0.23247564,-0.20075715,0.17473018,0.8152883,-0.6702173,-0.52606195,0.29779208,0.5597606,0.9241049,0.42024887,0.5990546,0.721226,0.18905985,0.3962437,0.41831052,0.63913584,-0.58939976,-0.12575948,0.42116892,0.10394728,-0.05767882,0.7480011,0.8818321,0.4804536,-0.578361]},{"bias":-0.8812444,"weights":[0.418563,0.2688409,-0.6928878,0.1785425,-0.2693519,0.1276921,-0.85883975,-0.50887555,-0.14456832,0.78429604,0.6501539,0.5932181,0.7319586,0.7917366,0.51115155,0.31857264,0.69420123,0.5144553,0.9418714,0.96247125,0.96283984,-0.38750118,0.09371483,-0.019547105,0.5714147,0.9654987,-0.2568013,-0.5243413,0.70434856,-0.10863173]},{"bias":0.5661447,"weights":[0.9807184,-0.59338707,0.12648499,-0.9369912,0.16771781,0.9416783,-0.98993087,-0.2180413,-0.78813815,-0.71109104,0.8493407,0.3961903,-0.5013358,0.50444984,0.9810231,-0.34328645,-0.348664,0.28131783,-0.78459,0.0774256,0.28948653,0.6697085,-0.6867554,0.57929134,-0.19734037,-0.9160323,-0.3574838,0.8612294,0.5621927,-0.2809624]},{"bias":-0.08411181,"weights":[-0.08109915,-0.6175119,0.22171772,-0.22295153,-0.63413906,-0.258681,-0.07971847,0.7773566,0.65646267,0.7374866,-0.02800572,-0.61786216,0.7788284,0.85334015,0.41627324,-0.036188483,0.81508017,0.5421357,0.7247598,0.42566717,0.05081165,-0.2998342,-0.37027544,0.4054004,0.6715081,-0.26456374,0.44615185,-0.07209766,0.18732321,-0.019048333]}]},{"neurons":[{"bias":0.9643333,"weights":[-0.5871443,0.9656272,0.29209268,-0.35086316,0.53585744,0.7085619,0.95478964,0.35354483,-0.14735782,-0.35679358,0.5272174,0.18126023,-0.04891169,-0.28404826,0.14113605,0.045662045,-0.96115184,-0.73969936,0.98408175,0.088398576,0.9048898,0.93094635,0.40351808,-0.5935945,0.9407666,-0.10692847,0.117599845,0.1271671,0.51039696,0.80148125]}]}]}