{"layers":[{"neurons":[{"bias":0.771837,"weights":[0.8934419,-0.8195276,-0.6431434,0.80520844,-0.18883932,-0.05901158,0.11940968,0.73262954,0.31648672,0.14643514,-0.0037094355,0.6879277,-0.6345036,-0.9756446,0.6267476,0.87994576,-0.028574347,0.23482001,-0.80434513,0.5764508,0.54271483,0.5912533,-0.44617337,0.7507987,0.38397062,-0.010008931,0.13049328,0.81210184,-0.07257974,0.7701776]},{"bias":0.8101146,"weights":[0.012500405,-0.911896,0.88657475,-0.8562634,0.99887943,0.91099334,-0.7130108,0.9058416,-0.9739163,0.35474503,-0.9724519,0.3557037,-0.87103033,-0.82473016,0.21885812,-0.8870418,0.68294954,-0.23368967,-0.13998806,-0.18552029,0.9860625,0.66240335,-0.81097937,-0.7386327,-0.75048065,0.42615592,-0.8128147,-0.11279285,0.07524812,0.26735842]},{"bias":0.006198764,"weights":[-0.7842314,0.46031415,0.2460128,0.6265576,-0.7830119,-0.3479895,0.38625848,0.44521272,-0.81126404,-0.40708035,0.4618088,0.3549198,0.12597072,-0.73636484,0.6169529,-0.7662022,0.42052162,0.8758557,-0.22017848,-0.32611507,0.11548579,-0.06708372,-0.005490899,-0.0015531778,-0.3247561,-0.88443875,-0.994339,0.6384311,0.16734564,0.72453904]},{"bias":0.15255558,"weights":[0.46218407,-0.7314198,0.47039425,-0.45633763,-0.47956985,0.10829103,0.040266156,-0.5230133,-0.017434001,0.9947436,0.9182873,0.23203933,0.037570596,0.02675569,0.49831426,0.79565835,0.18303454,-0.0757221,0.26865447,-0.9838066,0.27961624,-0.30700034,0.819515,-0.1234113,-0.32343787,0.22218001,-0.9072864,0.24193871,0.23476279,-0.9823539]},{"bias":0.10827935,"weights":[0.041745543,-0.7061889,0.58291864,0.73873425,0.59514165,-0.9560857,-0.531589,0.8295629,-0.40207905,-0.27290362,0.1981374,0.38712752,-0.84771204,-0.84674263,-0.92441106,-0.41911405,-0.55294317,0.8881204,-0.31155437,-0.77738214,-0.78358626,-0.662266,0.6082804,0.10255325,-0.61948365,0.5923915,-0.16958869,0.9954624,0.7508137,0.870286]},{"bias":-0.7135489,"weights":[0.17707741,-0.66602206,-0.17248404,0.860836,-0.47951645,0.24585545,0.37381876,0.03800094,-0.263359,-0.13259184,0.37916052,-0.7660501,0.5899136,0.045698047,-0.5058114,0.7387595,-0.22541702,0.5201628,-0.46023506,-0.8171332,0.8824551,-0.5851883,-0.023966908,0.6982498,0.19576323,0.83175826,0.43009293,0.99129033,-0.13331616,0.38468516]},{"bias":0.20270407,"weights":[0.39668715,0.71483755,0.8830514,-0.14618433,-0.92846465,0.65547085,0.88197017,-0.40396065,0.28465927,0.9903431,0.5531473,0.6767752,0.22221601,-0.06231153,0.01597321,0.5967505,0.19553411,0.45851815,0.93517995,-0.84805584,-0.075529456,-0.19575036,-0.3048424,-0.0033160448,0.93108726,0.87692,-0.027314067,-0.47702116,0.2119044,0.20637023]},{"bias":0.18708265,"weights":[0.9369621,0.509336,-0.6462426,-0.33887523,0.14566743,-0.11235297,-0.53586215,0.7765174,-0.8091433,-0.36706442,0.38704622,0.13991702,0.8778231,0.6744907,-0.677181,-0.9698863,0.62430716,0.70435905,0.8242905,-0.81489444,-0.8514817,-0.8992624,0.77758265,0.12203324,0.55096745,0.38987958,-0.007420182,0.25465882,0.9640913,0.89684844]},{"bias":-0.72015285,"weights":[-0.69705606,-0.73150873,0.90699744,-0.7560632,-0.16374242,-0.27433485,-0.527131,0.7930987,-0.24414575,0.3962885,-0.23295581,-0.6327982,-0.86789536,-0.61457914,-0.27506202,0.29473484,0.072898984,-0.62536526,0.10673845,0.45599592,-0.1430093,0.39540422,-0.13813746,-0.42881864,-0.16685498,-0.68029284,0.8471868,0.6005492,-0.4455678,0.66230035]},{"bias":0.74305415,"weights":[-0.966593,-0.3612978,-0.67980695,-0.7090914,0.7879548,-0.18786132,-0.036268353,-0.65795636,0.002085328,-0.9930501,0.99582887,0.8576002,-0.24310815,-0.96367836,0.8638098,0.3982402,0.57499456,-0.2825021,-0.014164329,-0.47539777,-0.6579757,-0.68720675,0.6676798,-0.9132328,0.23676431,-0.9987266,-0.6260829,0.9773059,0.0686034,0.91366816]},{"bias":0.6753881,"weights":[-0.48154873,0.4712826,-0.6600678,0.09058893,0.45132744,-0.07238495,0.9173565,-0.016521573,0.22968328,0.5498364,-0.01194942,0.48874176,-0.049878,0.47745883,0.25645173,-0.8943188,-0.13196003,-0.8685808,-0.012068391,-0.77220654,0.6813202,0.6256583,-0.19597018,0.63204265,-0.9728801,0.14342844,0.63131666,-0.9296465,0.8207445,-0.9756503]},{"bias":-0.60983175,"weights":[-0.9568379,0.71941566,0.24471962,0.43208182,0.22694027,-0.1840862,-0.23682678,-0.98406124,-0.5664248,0.7235973,0.5526235,-0.59541434,0.4965874,-0.95493627,0.17281306,-0.8831241,0.65287805,-0.20017278,-0.88539433,-0.98402405,0.7363107,0.8546002,0.046303153,-0.19464958,0.85990644,-0.3262598,-0.35310358,-0.15037453,0.18199718,-0.48337406]},{"bias":0.25978386,"weights":[-0.25837845,0.5643754,0.012200952,-0.012615085,-0.14883888,-0.18398774,0.91592073,-0.27099675,-0.9045224,-0.8030968,0.36396348,-0.103003144,-0.80477214,0.25956547,-0.27229732,0.7361932,-0.49752897,-0.9095421,-0.60936135,-0.87958,-0.18842113,0.97587204,0.16422856,-0.8544822,0.42642844,-0.23533738,-0.5189819,-0.18596828,0.5159366,0.06608331]},{"bias":0.75133705,"weights":[-0.5941741,0.5241139,-0.22195613,0.11262715,0.65232754,0.2201935,0.0346843,0.6386039,0.9861927,-0.5675425,-0.14266074,0.77604747,0.028273702,-0.13956058,-0.15019071,0.39748323,-0.7608197,-0.029219747,0.15868199,0.5860436,0.10952723,0.7236893,-0.86842585,0.5484736,0.92765164,0.20326889,0.2238127,-0.64258766,-0.15696156,0.35723412]},{"bias":0.66362786,"weights":[-0.20032442,-0.07359612,-0.51900524,-0.6570535,-0.27240366,-0.64737654,-0.71864676,0.8746691,-0.3336231,-0.078594804,0.8191395,0.9711509,0.31347287,-0.6034109,0.008287549,0.45928037,0.6128323,0.46708167,0.769603,0.43135345,0.25476515,-0.41262025,-0.42510384,0.0007120371,-0.5135488,0.225258,0.76250386,-0.7527256,0.8143215,-0.7924421]},{"bias":0.5840292,"weights":[0.28699315,0.6363814,0.1676749,-0.9852381,0.11090529,-0.9811094,-0.25606698,-0.6557834,0.93748,-0.8011973,0.12804782,-0.19260395,0.5277376,-0.6173052,0.4692818,0.30727994,0.38398683,0.64409375,0.77317524,-0.95981336,0.7242794,-0.5587279,-0.98603654,0.17376769,-0.7533412,-0.6170265,0.10873234,0.92266965,-0.49109524,-0.8165209]},{"bias":-0.10922372,"weights":[-0.04707849,-0.7427242,-0.11830151,0.7956972,0.36074603,-0.801425,-0.6060962,-0.35879153,0.78004026,-0.45545548,0.3883797,-0.2558567,0.7678418,-0.09158552,-0.45267576,0.43845427,-0.20707381,0.43732393,-0.39634985,-0.39682883,0.68689036,0.8430338,-0.77696085,0.3155135,-0.1537472,0.0071059465,-0.6921227,-0.4477982,-0.9639342,-0.42708796]},{"bias":-0.7277672,"weights":[-0.000059485435,0.013051629,-0.87885046,0.30797637,0.11549723,-0.48384112,0.99763155,0.1470102,0.6974802,-0.7590108,0.3725077,-0.86590743,-0.43778247,0.17034972,-0.16073883,-0.413603,0.5034096,-0.7273636,-0.5870072,0.7544155,-0.111219525,0.787447,-0.2517993,-0.39832443,-0.002246976,-0.35979766,-0.8537271,-0.50286573,-0.7069936,0.66866255]},{"bias":-0.9804268,"weights":[0.60592294,-0.13163245,0.53536224,-0.54209894,-0.4329335,0.3170694,0.33349073,0.7195363,-0.15780056,0.34405863,-0.036170125,-0.899137,-0.39879435,0.2259115,0.78938746,0.6478791,0.45859492,-0.98513985,0.22384632,-0.90870595,-0.87777615,-0.16089356,0.992841,0.17335021,0.030766368,0.29205048,0.18034518,-0.36102027,0.12863386,0.2840382]},{"bias":0.40670288,"weights":[0.42002404,-0.5640306,-0.947901,-0.57964176,0.6444638,0.2587484,0.33399546,0.2604164,0.23436677,0.9111295,0.67849755,0.5459552,-0.26537293,0.34495842,-0.7475741,-0.043566823,0.8064227,-0.89822173,0.28714454,0.76476574,-0.663187,0.56315327,0.7407732,0.81727386,0.21345294,-0.8134625,-0.2837953,0.7770374,-0.10480845,-0.18263257]},{"bias":0.048953652,"weights":[-0.03155458,-0.64124346,0.3721491,0.50831366,-0.017866015,0.87157536,0.3739499,-0.7234974,-0.74230814,-0.9564698,-0.88652635,0.9165404,-0.20564497,0.96008706,0.80926037,0.039753318,-0.6818297,-0.57222384,0.7047496,-0.57054347,0.83120894,-0.89142966,-0.28026718,0.30897176,-0.5715813,-0.6948712,-0.07363236,0.93957186,0.31052363,-0.7495725]},{"bias":0.46679175,"weights":[-0.36407894,0.12289131,0.82107544,-0.95541763,0.24546826,-0.0014513731,0.56574607,0.69047475,0.24162877,0.82024884,-0.5868823,0.8483765,-0.34481925,0.9000678,-0.673002,-0.0052114725,-0.00009787083,-0.7425933,-0.44010895,-0.3511259,0.3760444,-0.29142612,0.7069402,-0.56501096,-0.046131015,0.5028279,-0.9239669,-0.42162555,-0.9315586,0.5014856]},{"bias":-0.5555472,"weights":[0.52839065,-0.4874615,0.9018531,0.093608975,-0.99143744,-0.91594315,-0.63439846,-0.7703674,-0.43490356,-0.45828885,0.89579844,-0.34019178,0.08663452,0.29526842,0.62538266,0.19856107,-0.13786018,-0.3765964,0.7025306,0.5796113,-0.4474439,0.86089873,-0.54934615,0.31520236,-0.2579376,0.5383618,-0.66412807,-0.91019034,0.7593012,0.5307951]},{"bias":-0.6195559,"weights":[-0.6038229,-0.40462655,0.5967884,-0.4876179,-0.51375955,0.99351335,0.15670907,0.38384783,0.9356458,-0.3258173,0.77658916,-0.08158958,0.4002868,-0.3444206,-0.2842149,0.43718636,0.8938205,-0.39336604,0.20726526,0.55698156,-0.22291172,-0.6699655,0.5097158,-0.026778579,-0.8328593,0.86809516,-0.35318846,-0.1296221,-0.57378286,-0.2608766]},{"bias":0.35257375,"weights":[-0.11626923,0.12935936,-0.38880152,0.7460959,0.7741089,-0.4129712,-0.58584183,0.22241962,0.38626468,-0.5252544,-0.3842613,0.78155756,0.8474767,-0.6791792,0.9482217,0.20352018,0.042721868,0.29932415,-0.34715027,0.37998712,-0.78874016,-0.30573887,0.57242584,0.5233252,0.7884655,0.582988,0.6451738,-0.4041404,-0.67844677,0.48604834]},{"bias":-0.06598413,"weights":[-0.684989,0.47882926,-0.63895345,-0.8478563,-0.65749,-0.7053149,-0.5213849,0.97763014,0.5398195,0.507061,-0.024778962,-0.9087274,-0.70518064,-0.61219543,-0.632077,0.08004749,-0.41964906,0.17117059,0.50844455,-0.637558,0.47452033,-0.48114723,0.78627133,0.79640293,-0.69435596,0.24669755,-0.50333065,-0.10248482,-0.027920127,-0.13341486]},{"bias":-0.7865603,"weights":[-0.46639627,-0.34052986,0.9055774,-0.96848464,-0.785614,-0.25155705,-0.20075715,0.17473018,-0.31314462,-0.35076445,0.083426595,0.29779208,0.104159474,0.04976833,0.2958442,0.5990546,0.29180825,-0.18540537,-0.1398927,0.61588264,-0.40081328,0.7705982,-0.70760417,-0.909806,0.30266798,-0.05767882,0.24529564,0.8818321,0.8988173,0.8640542]},{"bias":0.8708644,"weights":[-0.08872259,-0.2264148,0.04257047,0.020964265,-0.52142304,-0.621406,-0.9504349,0.22595227,0.19056618,-0.31409878,-0.11636484,0.567575,-0.013232827,-0.07812226,0.3008932,0.46716177,-0.34947723,-0.7176249,0.9418714,0.8623085,-0.68337274,0.017715573,-0.53403705,-0.019547105,0.5714147,0.74416995,0.6361494,-0.75205064,-0.7719755,0.93163323]},{"bias":0.1527065,"weights":[-0.86311126,-0.59338707,-0.7301152,-0.37462395,-0.23183548,0.93101597,-0.124869466,0.627609,-0.1405288,0.81510925,-0.39208716,0.15299189,-0.8105521,-0.7719753,-0.70201015,-0.6975055,0.043310285,0.49342453,-0.76970744,0.0292269,0.69388413,0.93327737,0.21919072,0.5850651,-0.69757247,-0.70263934,-0.6395495,0.41550243,0.36017144,-0.8953445]},{"bias":-0.18604124,"weights":[-0.08109915,0.21614468,-0.56285495,0.60517955,-0.66679573,0.27263105,0.6589961,0.12547147,0.4565965,-0.74116063,0.054924846,-0.34442753,0.7089393,-0.63647676,-0.9008415,0.09042084,-0.15692747,0.12353313,0.7247598,0.52397656,0.6552732,0.20710456,0.54616785,0.31022537,0.50072384,0.69668245,-0.89626765,-0.8615782,-0.8593128,-0.6995101]}]},{"neurons":[{"bias":-0.6257193,"weights":[-0.68534493,-0.28624266,-0.43645805,0.44536364,0.56328726,0.7085619,0.95478964,-0.3065409,0.13124382,-0.0580014,0.5272174,-0.99490976,-0.04891169,0.21970928,0.35177267,0.6744008,0.78050447,0.02672851,0.40439928,0.088398576,0.9048898,0.63353825,-0.4925365,0.08110535,0.37503922,0.79716253,-0.41293305,-0.47878832,0.34930813,-0.07277691]}]}]}