{"layers":[{"neurons":[{"bias":0.021279931,"weights":[0.50732136,0.9189501,0.028336644,0.5568135,-0.60821193,-0.6981213,0.25205457,0.0037378073,0.50553465,0.15736306,-0.7076123,0.5889542,-0.90176487,0.66318965,0.71398115,0.4512781,-0.31111425,0.5626297,0.02770555,-0.31424016,0.11731446,0.9253895,0.7183051,-0.99382067,0.22083008,0.024036527,0.70896244,0.46380103,0.6936791,-0.60401744]},{"bias":0.1402787,"weights":[-0.65968204,0.2721547,-0.09385049,-0.4323787,-0.74661946,0.6765678,0.56642866,-0.48109764,0.7588842,0.42281258,-0.8490772,-0.679096,-0.8767078,-0.1267029,0.42441237,-0.24402249,-0.03978932,0.84200263,0.28386676,-0.13649356,-0.7955382,0.3494774,-0.649142,0.6197159,0.28623807,0.22444403,0.9484012,0.2746812,0.49529183,0.7762723]},{"bias":-0.07852399,"weights":[0.3745476,0.6733279,0.57680273,0.28135812,0.09220016,-0.9923849,-0.44347614,0.9962146,0.28967774,0.11455476,-0.042882085,0.36930382,-0.14277184,-0.72543716,-0.3436746,-0.9838104,0.20707262,-0.88682175,-0.088739514,0.6227472,-0.8553648,0.711277,-0.15059102,-0.2591228,-0.24727952,0.53101325,0.49788797,-0.5836765,0.43493927,0.99612117]},{"bias":0.14743912,"weights":[0.39083302,0.44787848,-0.44867128,-0.22073853,0.25864232,-0.40316147,0.5874717,0.08605826,-0.5845186,0.96936846,0.7759888,-0.15619266,-0.71346664,0.80137753,0.3569485,-0.2724387,-0.23623192,-0.05166614,0.91729903,0.9718845,0.9664228,0.6421757,0.75282216,-0.13138378,-0.98336744,-0.9019115,-0.25173444,-0.56699413,-0.09809387,0.24335802]},{"bias":-0.7357192,"weights":[-0.6437063,0.46740663,0.0097562075,-0.83190703,0.08946812,0.36625087,0.41671407,0.9231036,0.5282986,0.7866647,0.7015333,-0.47489685,0.4902841,0.4305793,-0.11394966,0.1596502,-0.31597418,-0.5132286,0.59246564,0.00020444393,0.85431457,-0.8865967,-0.38015717,0.30571854,-0.89266133,-0.88876796,0.7538483,-0.9586952,0.39572585,0.37556303]},{"bias":0.40437543,"weights":[0.19072068,-0.5024614,-0.2188052,-0.05088985,-0.3689472,-0.6323862,0.005350709,-0.4656405,-0.83863306,0.52314234,-0.8352604,0.08609402,-0.46691555,0.64945984,-0.7927344,0.5262017,0.8951726,-0.8831358,0.5885658,-0.7973466,-0.37077516,0.6682694,-0.13786423,-0.8335383,0.08632958,0.15237224,-0.009254098,0.7549143,-0.85539126,0.8140135]},{"bias":0.25284255,"weights":[-0.7170043,-0.7705984,0.43117154,-0.41261142,-0.21903312,-0.9624505,-0.058839202,-0.18104994,-0.04758823,0.3250612,-0.95074224,-0.97484255,0.014733434,0.3757199,-0.1643213,-0.16356313,-0.18151176,0.944226,-0.43438667,0.8690026,0.9559152,-0.34930247,0.77643275,0.80103755,0.009344459,0.09728086,0.5227699,-0.45441717,-0.182037,0.13698351]},{"bias":0.33494413,"weights":[-0.946908,0.05561793,-0.35795087,-0.687531,-0.1591183,0.92071915,0.5005913,-0.5800819,0.63302064,0.55777645,-0.8741691,-0.69084764,-0.33606523,-0.60361475,-0.62252015,0.09472072,-0.22593176,-0.5532178,-0.7555444,-0.07995832,0.6527958,-0.5966951,0.31616032,0.8747184,-0.98594475,0.33278406,0.3222357,0.10059345,0.2702602,0.6389568]},{"bias":0.604619,"weights":[-0.4123363,0.5173495,0.7919955,0.61684656,0.8690345,0.57683325,0.054422736,0.48673475,-0.44330424,0.58254075,0.7822962,0.32302248,0.5281384,0.73442626,-0.28191346,-0.07469714,-0.82678103,0.9924307,0.09676039,0.12871397,0.16564643,0.57532454,-0.49247712,-0.703115,-0.9748864,-0.47451633,-0.6139025,0.12032974,0.6837592,-0.5862557]},{"bias":0.23690164,"weights":[-0.17950404,-0.122017264,-0.4073531,-0.88684916,0.25826442,0.24445999,-0.68134785,0.123508334,-0.042364478,-0.9260137,0.7599549,0.24986088,0.26468337,-0.28666157,0.34316576,-0.3826205,0.019008517,0.113550305,-0.459428,0.66912866,0.013104558,-0.03408587,-0.67149305,-0.03837359,-0.6282642,0.35383093,-0.3898005,-0.55537647,0.9536216,-0.98243976]},{"bias":0.41644108,"weights":[-0.9221585,0.19294012,-0.73284554,-0.5199606,0.3547212,0.51628995,0.52931094,-0.21837628,-0.622276,-0.94073415,-0.5112867,0.13853395,-0.034924626,0.6802833,-0.019741654,-0.18638504,0.41134894,-0.6151745,-0.19283926,-0.63431215,0.59035635,0.18908155,0.44264328,0.59311247,-0.2904064,-0.66694164,-0.6028823,0.7994957,0.8946185,-0.12215245]},{"bias":-0.14958084,"weights":[0.7341008,0.77816606,-0.040050387,-0.3527524,0.93554497,0.5731447,-0.3701095,0.0017234087,-0.24502885,-0.6006991,-0.34308904,-0.7636976,0.70971227,-0.06864035,-0.7903259,-0.6990223,-0.37577575,-0.1123606,-0.82877207,0.5879648,-0.7414856,0.32242572,-0.7500999,0.17235339,-0.4824459,0.30588067,0.41984642,0.589129,-0.11200535,-0.41232628]},{"bias":0.94540787,"weights":[0.9013293,0.42912185,-0.25618762,0.6541405,-0.1721803,0.4197575,0.4521078,-0.57651037,0.5975573,0.08491695,0.64208865,-0.907141,0.0901171,-0.78822684,-0.35851592,0.8525772,-0.7013495,0.022857547,0.23359525,-0.39296335,-0.13350451,-0.8687768,-0.61873096,-0.96448684,-0.53927106,-0.796551,0.8793738,-0.44064063,0.34533966,0.080186486]},{"bias":-0.3623261,"weights":[-0.17930329,-0.7605736,0.8774698,-0.38185567,-0.8169935,0.72324634,-0.8567655,-0.91179776,-0.035149455,-0.50706714,0.29372156,0.082178,0.7423217,-0.6384845,0.11901486,0.038801312,-0.5844328,-0.011495948,0.782326,0.35788167,-0.1705426,0.14436066,0.012831092,0.54105353,-0.94064856,0.7773223,0.12124741,-0.05778134,-0.522072,0.25839674]},{"bias":0.22520363,"weights":[0.3736931,0.29367197,0.5714357,0.76871514,0.45034444,-0.013332963,0.7239053,-0.043792367,-0.8766,-0.07856834,-0.7292445,-0.22646153,-0.059865355,-0.29049367,0.295529,-0.115641,-0.8872137,0.9010806,0.32712877,-0.93340325,0.7058246,0.39930165,0.06532657,-0.25510257,0.5005791,-0.40110415,0.93405247,0.37749207,0.3843652,0.24061191]},{"bias":0.23330438,"weights":[-0.1909231,0.6795063,-0.4569909,-0.9941323,0.31586254,0.8378093,-0.13175857,0.30528224,0.18210256,0.33957207,0.8196461,-0.5908691,0.9938383,0.4882797,-0.24782479,0.24954784,0.6265707,0.5640967,0.015058875,-0.91723347,0.815748,0.87231493,0.2764982,-0.20710719,0.7519932,-0.40002006,0.65397763,0.23608482,0.011680484,0.11975467]},{"bias":-0.18092,"weights":[-0.34597462,0.58590555,-0.8727062,0.19992554,0.5637212,0.86552787,-0.7803347,-0.7567661,0.85380363,-0.52190775,0.45041788,-0.86586976,-0.7934413,0.31861365,0.12213671,0.52599096,-0.05916679,-0.15546477,-0.4496705,-0.5188877,-0.09204805,-0.9972651,-0.20879018,0.021034837,-0.5187399,0.11913955,-0.027945876,-0.064655185,-0.046302676,0.23484194]},{"bias":-0.9886577,"weights":[-0.52447146,-0.85681176,0.32462704,0.282035,-0.95213604,-0.45744032,0.9494581,-0.2779364,-0.44771928,0.2493738,0.64024186,-0.07592356,-0.47672194,-0.306338,-0.8460417,0.5040157,-0.8314874,0.33006203,-0.99169946,0.107456565,-0.2204858,-0.80850387,-0.37065476,-0.9449601,0.5103893,0.21233809,-0.712734,0.5720372,0.0035260916,0.33714163]},{"bias":0.8994491,"weights":[-0.93702793,-0.42276233,-0.24667895,0.43490922,-0.32897347,0.24213636,-0.37001508,-0.27132124,0.97698855,-0.02440703,0.37865698,0.8809142,-0.37333554,-0.24938762,0.92275167,0.66716266,0.019793391,-0.6046707,-0.5438015,0.37334478,-0.88961625,-0.52050775,-0.71617174,0.2230767,-0.8162348,-0.8648088,-0.14001596,-0.81931734,-0.24576461,0.7420707]},{"bias":-0.022655606,"weights":[-0.28966516,0.7498801,-0.30603236,0.6349087,-0.8760731,0.65309024,-0.8972726,-0.7157817,-0.87307954,0.5145438,0.56406426,0.6388531,-0.29031938,-0.77688956,-0.001968503,-0.3851809,-0.7429018,-0.83074856,-0.613841,-0.97216773,0.2180723,-0.9692495,-0.7818215,0.9686773,-0.18722236,-0.9239094,-0.14090168,0.05910051,0.84640336,-0.830369]},{"bias":0.69140077,"weights":[0.5735254,-0.97910976,-0.39519566,-0.4974956,0.36894143,-0.75825286,0.79125094,0.9495516,0.016105056,0.053327918,0.9425559,0.9605789,-0.9214351,-0.9334705,0.52109337,-0.7554097,0.7438164,0.4160539,0.50606394,-0.013435245,0.5773723,-0.2768435,0.7256081,0.32842672,-0.41400808,-0.806932,0.2919606,0.79989004,-0.5804414,-0.41621298]},{"bias":-0.7088485,"weights":[-0.6922219,-0.99611735,0.94115496,0.6037836,0.23724806,-0.41411513,0.50679874,0.045001864,-0.556209,0.8840854,-0.49192327,0.22662246,-0.6422043,-0.5450863,-0.6666949,-0.31000656,-0.6220984,0.14993179,0.5660107,-0.85174084,0.32559335,0.8761668,-0.87780166,-0.99592376,-0.5385787,0.3573166,-0.22835577,-0.5306024,0.6202524,-0.7793641]},{"bias":-0.5211107,"weights":[-0.93156886,-0.046265483,-0.55100244,0.73980165,-0.94070554,-0.21092927,-0.6764569,0.15520298,0.7672441,-0.8732054,0.7012186,0.86912227,0.9429686,-0.94746184,0.7822645,0.6987541,0.97027326,-0.9061971,-0.59156364,0.24184501,0.80022573,-0.5418243,-0.58054847,-0.4247405,0.56721663,-0.617459,0.12957323,0.41012824,-0.021435618,-0.9625268]},{"bias":0.76387763,"weights":[-0.6164276,-0.81923103,0.8252623,-0.2389859,0.86558676,0.006347537,-0.48673123,-0.3202421,-0.6060061,-0.9533849,-0.6623416,0.71287036,0.095543504,0.39562237,0.82714915,0.9613979,-0.5204119,0.8592813,-0.18797886,-0.06366575,-0.53702873,-0.5276405,-0.31082243,0.7959924,-0.9899328,-0.532103,-0.33131975,-0.07236302,0.6216235,0.63703346]},{"bias":-0.35793823,"weights":[0.047593236,0.25550997,-0.035793662,0.1272558,-0.6273339,-0.38432354,0.18199742,0.5561607,-0.6148798,0.43645442,-0.60182494,-0.079191566,-0.07913911,0.9556072,-0.9776938,-0.22011554,0.5714457,0.92214465,0.04547441,0.06796944,0.0027114153,0.9625535,-0.32349795,-0.18945491,0.035051227,0.5588527,0.37563908,-0.47132224,-0.16010988,0.7244432]},{"bias":0.6109216,"weights":[-0.07369268,-0.9032037,-0.68107677,0.24980366,-0.62062854,0.13608468,0.11050236,0.9255171,-0.40546077,0.74270415,-0.9397838,0.6170101,-0.36946982,-0.0195359,0.20850003,0.10898483,0.5270066,-0.7533989,0.7209258,0.6546805,0.28391635,-0.3599071,0.1202122,-0.818547,-0.26457185,-0.065529704,0.97275186,-0.53521746,0.6897025,-0.55791396]},{"bias":0.85957885,"weights":[-0.65402555,0.37530386,0.06420696,0.67772675,-0.17798436,0.09125483,0.17935646,-0.0037721395,-0.64751196,-0.57270116,0.7878835,0.022468925,0.6255107,-0.8901794,-0.071166396,-0.26668018,-0.40342063,0.12862098,0.5251329,0.23708808,0.8599577,-0.56236833,0.4591819,0.5379298,-0.49623197,0.20158708,0.20657027,-0.52298874,0.37711108,-0.26449245]},{"bias":0.86892986,"weights":[0.06427133,-0.86588645,0.26937997,0.7737124,0.12585509,-0.6137218,-0.6965754,0.85286593,0.8840172,0.19357526,0.5010853,-0.9440284,0.3912326,0.7737348,0.7609303,0.20017636,-0.8743682,0.54730916,0.32375586,-0.38858145,0.8990841,0.25510108,-0.14710867,0.75211287,-0.55716723,0.35356438,-0.5157594,0.34363925,-0.38202518,-0.43310946]},{"bias":-0.9876189,"weights":[-0.9364102,-0.93264914,-0.49809426,-0.01506412,0.4701866,0.89581513,0.9279294,0.54186153,-0.98581934,-0.36082047,-0.081827044,0.3578652,-0.60014933,0.21342623,0.7773998,0.03201735,-0.08167422,-0.34010333,-0.803653,0.18348229,0.057031512,-0.40993088,0.64261174,-0.88803554,-0.5636,-0.8887806,0.79336286,-0.2262901,0.66273046,0.6092951]},{"bias":-0.040353656,"weights":[0.99532986,-0.4377548,-0.104569554,-0.84153056,-0.66664505,-0.7994845,0.10471022,-0.30324334,0.6862953,-0.54245085,0.37322152,0.61332345,-0.77328587,0.5113151,-0.55991334,-0.83662176,0.38363612,0.4699484,0.12854707,0.4547733,0.029121518,-0.7053416,-0.35733956,0.15741551,0.56348085,-0.73860097,0.37700832,0.58949375,-0.15843976,-0.20801747]}]},{"neurons":[{"bias":0.26436865,"weights":[0.53145266,0.19118083,-0.40168852,-0.004328847,-0.87349296,-0.1572367,0.24936616,-0.1336528,0.036889434,-0.49664277,0.107366204,-0.19177997,0.2774669,-0.23258913,0.58858967,-0.56436414,0.09040201,0.77595735,-0.029496312,0.18834221,0.6001911,-0.24665153,0.5733762,0.32783735,0.5594137,0.934726,-0.42176408,-0.7543688,0.028101802,-0.9855182]}]}]}