{"layers":[{"neurons":[{"bias":0.3812381,"weights":[0.17594159,-0.48099104,0.21632761,-0.28526968,-0.61857665,0.042781472,0.899457,-0.80224276,-0.6485653,-0.6884827,0.11966479,-0.22152483,0.8142529,-0.3440736,-0.7480372,0.99963903,-0.3244136,-1.0,-0.23072183,-0.3514097,-0.117473006,-0.19880712,0.40808827,0.8321414,0.43837732,0.8213973,0.39434835,0.41071746,-0.090592265,-0.2144221]},{"bias":-0.57657117,"weights":[-0.79886883,-0.73365486,-0.37304166,0.993016,-0.8529804,-0.95128274,0.33654654,-0.9508608,-0.74078727,-0.32742542,0.98257875,0.6596081,0.17981994,-0.42149404,0.9156082,-1.0,-0.7577798,0.0032948256,0.92517567,-0.03087461,0.75471973,0.9805763,-0.1523906,0.4173106,-0.7017851,-0.38891023,-0.7070099,0.08546997,0.85762286,0.4300288]},{"bias":-0.88935184,"weights":[-0.19986475,0.36134374,-0.89794445,-0.22873828,-0.77279663,-0.12141253,0.7236171,-0.98599434,-0.30457532,-0.7537894,-0.39117163,-0.16708529,-0.64596343,0.17200004,0.10767417,-0.5437731,-0.0712589,-0.46217436,0.7918,-0.083625674,-0.56880826,0.62259316,-0.29284757,-0.947171,-0.78556776,0.63098717,0.03641188,-0.2979316,-0.57180417,0.7713969]},{"bias":-0.67737436,"weights":[0.39610326,-0.8942127,-0.29865998,-0.022755742,0.81375957,-0.702165,-0.87851024,-0.10344422,-0.46885386,0.88746077,-0.24621618,-0.5103845,-0.19170463,-0.8914635,-0.4739234,0.003759265,0.3387624,0.18388277,-0.55445176,0.83353317,0.7403731,0.11035935,-0.35835975,-0.35692185,0.82086587,-0.591927,0.018063188,1.0,-0.12782727,0.761662]},{"bias":-0.4563076,"weights":[0.06899529,0.9677114,-0.31199518,-0.33908838,-0.7779324,0.5035115,0.7849629,-0.6818115,0.46358788,-0.6073136,-0.27883857,-0.05511439,0.605288,0.28375793,0.22332388,-0.6637075,0.44423592,-0.22906148,-0.88109374,0.5642739,0.0122231245,0.68075633,-1.0,-0.51134676,-0.47283208,0.77340156,-0.049748525,-0.16368186,-0.8807764,0.46421754]},{"bias":0.7039778,"weights":[-0.50377876,-0.044761002,-0.8728342,-0.17862475,0.73360157,0.5714836,0.61722577,-0.7279513,0.02180779,-0.6249738,0.2828294,0.8172846,-0.69743574,0.68298846,-0.017858662,-0.2832672,-0.6784625,0.1325792,0.9165373,0.18232328,-0.9264133,0.4273761,0.9931791,0.32730162,0.58126044,0.8648021,0.36428702,0.06660757,-0.74826574,0.072630286]},{"bias":-0.74642754,"weights":[0.36790654,0.82684064,-0.8558191,-0.6134067,0.7392533,-0.19621551,-0.77789164,-0.964782,-0.7592037,-0.90154266,-0.8098438,0.17792022,0.92847544,0.621994,-0.30860275,0.6031122,-0.8318939,0.23323834,-0.47939414,-0.96392876,0.92619467,-0.5933952,0.771753,0.18156049,0.38077414,0.13317335,-0.7471999,-0.9316309,0.4282652,0.38620937]},{"bias":-0.6304853,"weights":[-0.97585034,0.083442174,-0.77375287,-0.50042987,0.5065541,0.3209659,0.68346554,0.7992973,-0.9836886,-0.3207026,-0.22053277,-0.4734351,-0.3076359,-1.0,-0.019755006,-0.2186948,-0.9814272,-0.076810956,-0.077531934,-0.4608683,0.89704573,0.97448087,0.10222781,0.51986194,0.15228546,-0.37232012,0.30580914,0.57141376,-0.22107375,0.7193408]},{"bias":0.9115591,"weights":[-0.014049888,0.64768106,-0.83220863,0.20587695,-0.88846374,0.614485,0.3154708,-0.3102257,-0.16047537,0.49325216,-0.22689381,-0.383233,-0.14894393,-0.17675531,0.84464884,0.14890134,0.26602829,0.26130807,0.43641484,0.13152063,0.6510528,0.33806762,0.8828871,0.75651693,0.88723683,-0.65327024,0.2384814,-1.0,0.7653136,-0.15367201]},{"bias":-0.4054901,"weights":[-0.37396497,-0.2709672,-0.57738155,0.772655,-0.7745671,-0.57185143,-0.88778174,0.7157223,0.08207387,0.8579302,-0.6153672,-0.32630026,0.23416929,0.30713618,-0.5721325,0.021120429,-0.25006765,0.25196314,0.19399339,-0.9593531,0.62383676,0.5431521,0.27500188,-0.74538517,0.85014987,0.8127378,-0.8943119,-0.9766829,-0.17768347,-0.86695385]},{"bias":0.689101,"weights":[0.96672916,0.43946564,0.8403034,-0.44755834,0.46874535,0.9281695,-0.22992241,-0.15519154,0.4253595,-0.15620911,0.41193044,0.026229024,0.84590864,-0.1227864,-0.30218428,-0.51141304,0.6512393,-0.39677587,-0.72140074,-0.37351555,0.8756099,-0.49826854,-0.7681439,0.8781464,0.18020761,0.5127299,-0.33315802,-0.42823046,-0.5160431,0.6124835]},{"bias":-0.48118776,"weights":[0.6218312,0.78904706,0.6263746,0.7291424,-0.9364388,-0.03646505,0.5716479,0.68334395,0.36155045,0.37372243,0.6512027,0.038851857,-0.29393685,-0.06381047,0.060209893,-0.29686683,0.80107725,-0.70675635,0.8226824,1.0,0.7031796,0.6876161,0.658678,0.5890957,0.9705703,-0.9447989,0.39697707,-0.7916057,0.29528707,-0.44634932]},{"bias":-0.48811048,"weights":[0.64848256,0.21095884,0.5871508,-0.34414873,-0.5727319,-0.59933376,-0.6508918,-0.69475365,-0.272021,-0.9065979,0.40400514,0.3430735,-0.33777112,0.03266585,-0.42605847,0.5031173,-0.79431987,-0.5071583,0.75654507,0.3868534,0.07216823,-0.104228616,0.18775976,-0.4773516,-0.58137375,0.93279743,-0.03169477,-0.04804933,0.6123462,0.8796077]},{"bias":0.35950863,"weights":[0.856549,-0.23126328,-0.6652367,-0.9659891,-0.09703979,-0.44780248,0.6916399,-0.109249584,0.14942014,-0.72050214,0.16204345,-0.33470085,0.9315779,0.8582066,0.789123,-0.8288624,0.5266888,0.13078439,-0.20948061,-0.3403136,-0.882638,-0.90755534,0.39371455,0.5736251,0.61843467,-0.6827765,0.9942024,0.2587341,-0.04968273,0.9463651]},{"bias":0.5294738,"weights":[0.66713643,0.14957274,0.5166569,0.579757,0.812191,-0.46250647,0.684225,-0.49064896,-0.76173675,-0.051739335,0.054199576,0.37638542,-0.105671525,-0.91000676,0.043485522,-0.7167258,0.40921557,-0.7642758,0.17583793,-0.055321924,-0.89696145,-0.7811074,0.57938147,0.8987884,0.993912,-0.64589274,-0.45010108,0.8130548,-0.13225412,0.52466035]},{"bias":-0.20016634,"weights":[-0.11596167,0.813488,0.7458255,0.8048568,0.19549716,0.9459851,0.7699728,-0.2771553,0.95931864,0.101053834,0.7765123,-0.12233109,-0.31760168,-0.9517875,0.7273798,-0.67492414,0.15627283,-0.32452938,-0.05943048,-0.8665788,0.54862213,0.7959838,-0.43747538,0.4370774,-0.779464,-0.6052096,-0.043155313,-0.39703983,-0.43714893,-0.8139818]},{"bias":-0.91491795,"weights":[0.283666,-0.39178026,0.44582838,0.016672023,0.85789037,0.8599477,0.10262195,0.13222006,-0.8857425,-0.95756674,-0.963194,-0.013001323,-0.024399638,-0.8265157,-0.8779128,0.8361182,0.7580974,-0.6787667,-0.40998194,-0.07783902,0.8643919,-0.51657146,0.39638722,0.10050094,0.101371884,-0.76875764,-0.7477381,0.846714,-0.59293264,-0.37190098]},{"bias":0.6200266,"weights":[0.33460423,-0.29172963,-0.9491992,-0.27039117,0.11554777,0.8560436,-0.64934474,0.10030824,0.71633273,0.5353453,0.7794192,-0.12933671,0.92912865,-0.41302174,0.5005574,0.9660101,0.6208291,0.030955575,0.12781036,-0.99346966,0.029170156,-0.54037136,-0.55573446,-0.73173666,-0.90231514,-0.0035044923,-0.4060623,-0.8705139,-0.13548481,0.46738327]},{"bias":0.84614587,"weights":[-0.23799431,-0.8506891,-0.97038126,-0.5356726,-0.13634932,-0.13189542,0.23081267,-0.7425132,0.55903625,0.7342949,0.7940652,0.66197133,-0.29214317,-0.5776926,-0.45963854,0.64945275,-0.63388413,-0.14663827,-0.8442533,0.845949,-0.50333256,0.9881263,0.1923343,0.2969883,0.9368558,-0.23815978,0.6407566,-0.58879584,-0.77695704,0.22189558]},{"bias":-0.91566825,"weights":[0.008753896,-0.62813807,0.98794675,0.57063955,0.32688105,0.87724924,0.88662124,-0.74583256,0.07358158,-0.8996253,0.29683912,-0.48953998,0.99421555,-0.47364488,0.5532596,0.31186372,0.41387546,0.3335172,0.3863285,-0.36140755,-0.6131653,0.4252445,0.89767784,-0.25632077,0.13905847,0.7017169,-0.47756284,0.40499175,0.8092715,-0.86597055]},{"bias":0.12887251,"weights":[-0.65984774,0.9852052,0.24674731,-0.35938305,-0.13901389,-0.5373139,0.099515796,0.46282113,0.9411695,0.44762933,-0.14547837,0.56325257,-0.016398937,-0.6912779,0.9548793,-0.7208905,-0.8340179,-0.8356731,-0.37104192,0.5388675,0.8068242,-0.72809017,-0.57721776,0.91743517,0.60328317,0.35541877,0.26268876,-0.030849807,0.71318275,0.46086362]},{"bias":0.46980345,"weights":[-0.44434637,0.59287596,0.26223576,-0.9112277,-0.71565676,-0.047300443,0.75915664,-0.32072157,0.5270941,-0.475188,0.25532877,-0.5837452,-0.3474819,-0.45836222,0.6169789,0.90917414,-0.5912749,0.9014318,-0.8004267,0.52398056,-0.025170445,-0.17111968,-0.74585426,0.1939143,0.39097917,0.3670231,0.4274323,0.43125927,-0.25896233,0.47296464]},{"bias":-0.478136,"weights":[0.778208,0.81930494,-0.23763557,-0.7112801,0.92888904,0.52992606,0.31333363,-0.9286208,0.7902174,0.004767433,-0.18115887,0.5923848,0.42087185,0.6639208,0.6407081,0.17134106,-0.6924541,-0.44311923,-0.32701033,0.06880748,-0.6251991,-0.1955806,-0.0802222,0.46226847,-0.3046337,-0.67415255,-0.11511624,0.8944659,-0.34088558,0.70081234]},{"bias":-0.13623798,"weights":[0.33897936,0.94678926,0.12275374,-0.6590612,0.03684485,-0.22274292,-0.33477372,0.44034708,0.09291639,0.5910406,0.5780606,-0.6294551,-0.88589954,0.7910354,0.24034345,-0.22903937,0.818288,-0.66126466,0.60261965,-0.13258946,-0.7309444,0.045564055,-0.3806092,0.9607144,-0.304573,0.5244541,0.7801821,0.5973973,-0.18367326,0.6311641]},{"bias":0.41917145,"weights":[-0.9190042,-0.12467703,0.2981881,-0.480354,-0.034106135,0.04383216,0.3458634,-0.53624344,0.5799073,-0.7667222,-0.818625,0.74751544,-0.1203205,-0.29948682,-0.5158389,0.6318345,0.6440668,0.8897834,-0.5305802,0.5468045,0.21779883,0.8427255,0.74842143,0.74061966,0.03994167,0.44129002,-0.7035362,-0.15333927,0.2780758,0.1301944]},{"bias":0.35261214,"weights":[0.44454825,-0.42938846,0.15575337,-0.050600648,-0.80695623,0.25011694,-0.38190454,0.4506899,-0.71771336,-0.10135257,0.8526428,0.8220563,-0.06955188,0.12921631,0.82888097,-0.7813012,-0.51359576,0.9309877,-0.34339494,0.4887718,-0.5089728,0.17946804,0.35256183,0.9674437,-0.85899764,0.40570423,-0.049722552,-0.24566622,0.82426476,-0.85754514]},{"bias":-0.002485156,"weights":[0.32138026,-0.90094876,0.15981638,-0.48910445,0.8165324,0.83553505,0.14335585,-0.7618947,0.7132251,0.5275276,-0.601643,-0.760375,0.4389961,0.9383764,0.22665952,0.6389549,0.088421464,0.25786006,-0.98625517,0.8711591,-0.34026068,0.0064810514,0.32672656,0.9770513,0.48779416,-1.0,0.40111935,-0.01821734,0.8179183,-0.3625633]},{"bias":-0.86242294,"weights":[0.2684511,-0.114153266,0.8701447,-0.34046048,-0.81534964,0.5049589,0.964097,0.2901704,-0.78391796,-0.93337584,0.008758664,0.5664972,-0.8256018,0.032143712,0.6704457,0.41805923,0.51878023,-0.7372939,-0.38245815,-0.09055364,-0.6477511,0.3412975,0.06678164,-0.6824757,-0.19850051,-0.59885114,0.9111042,-0.5387668,0.7055454,0.575459]},{"bias":-0.18761075,"weights":[0.6987593,-0.9091563,-0.78534174,-0.69767904,0.46578944,-0.2827542,-0.891937,-0.15069783,0.1612959,0.72521424,-0.26873583,0.87561303,-0.6982732,0.2353771,-0.0011349916,-0.55036277,0.5665598,0.4622854,0.044765607,0.38537037,-0.16078117,0.9089004,0.426206,0.046768308,0.05132544,0.7671204,0.84244573,0.097669244,-0.46215695,-0.47961706]},{"bias":0.601702,"weights":[0.11498797,-0.6343825,-0.0018960238,0.27972257,-0.19935048,0.2561375,0.30899355,-0.48130554,0.003430009,0.13879716,0.14423859,0.40375018,0.49023902,-0.61837924,-0.16381052,0.5949929,-0.5623172,0.068103194,-0.40639037,-0.584581,0.02723233,0.6365969,0.6746027,-0.19476315,-0.42203063,0.2144531,-0.9035175,0.7776325,0.5679698,0.107850194]}]},{"neurons":[{"bias":0.47622287,"weights":[0.8720248,0.31520495,-0.042163968,0.7645297,-0.24232781,0.8157828,0.92684484,-0.18251711,0.5132015,0.4148363,0.64772695,0.6200948,-0.45710462,0.38689548,-0.4957618,-0.98069173,-0.3346426,-0.3253054,0.5650954,0.066222996,0.17378053,0.25994408,-0.98076916,-0.7935171,0.5671675,0.6751121,0.98214304,0.040330052,0.028408408,-0.4997921]}]}]}