{"layers":[{"neurons":[{"bias":0.6107373,"weights":[-0.9789171,-0.96939635,-0.13525355,0.20580804,-0.5779783,0.6263044,-0.3026883,-0.0820173,0.50553465,0.7814357,-0.121537566,-0.73280954,0.70308805,0.7488549,0.71398115,0.35348642,0.24909413,0.8787124,0.255772,0.2829162,0.41286528,0.3513466,0.17713583,0.6462512,-0.84527874,-0.3464033,0.99659944,-0.6182069,-0.8894832,0.7166915]},{"bias":-0.43979734,"weights":[-0.65968204,-0.8778026,-0.522057,0.074088454,-0.23009813,0.99561596,-0.26772207,0.49873435,-0.1876787,0.6116216,-0.8080826,-0.679096,-0.01770389,-0.1267029,-0.313528,-0.24402249,-0.22771823,0.9414296,-0.23514187,0.58084893,0.8254297,0.3494774,0.31188333,0.8200016,-0.94921255,-0.052580237,-0.16189754,0.52729845,-0.8235049,-0.5099465]},{"bias":-0.80448604,"weights":[-0.21348155,-0.010670304,-0.961602,-0.9543886,0.76212096,-0.3994786,-0.6016268,0.9962146,0.2618426,0.63303256,0.51359344,0.58536243,-0.27709216,-0.036789298,-0.19654739,-0.9838104,-0.28568572,0.79472303,-0.46099848,0.6227472,-0.33392566,-0.17977822,0.77148867,-0.6833136,0.006948352,-0.8810427,-0.49034566,0.22583258,0.9685738,0.34031355]},{"bias":-0.30507177,"weights":[-0.8471694,-0.8604274,0.16166699,0.2901355,-0.97802925,-0.0041333437,0.33087456,-0.48181552,0.23008478,0.53444576,0.8779621,-0.15619266,0.2977289,-0.16294849,-0.77666736,0.3890618,-0.23623192,0.3644346,-0.2657954,0.53286934,-0.06902349,0.2376424,0.20783222,-0.12703288,0.49624574,-0.9019115,0.33433878,0.96553826,0.47550857,-0.7801757]},{"bias":0.66803813,"weights":[0.7172754,-0.80968285,0.76408577,-0.8471174,-0.5917441,-0.6971748,0.9126544,-0.8816664,-0.48804396,-0.77879477,-0.26172012,-0.086313844,0.4902841,-0.5303559,-0.45396084,0.50061274,0.5687995,-0.5132286,0.59246564,0.46007597,0.5390308,-0.8865967,0.43533957,0.13520968,-0.84500647,-0.6802099,-0.47196668,0.14309394,0.39572585,-0.5943479]},{"bias":0.3664056,"weights":[-0.6161954,0.20381248,-0.01131618,0.040801167,0.35696518,0.43842804,-0.37744373,0.070144534,0.3973924,0.52314234,-0.313672,-0.5441217,0.17161977,-0.61398476,-0.7927344,0.12560594,0.20801294,-0.8831358,0.8485966,0.51567173,-0.9765618,0.6682694,-0.05905497,0.2480861,-0.5328607,-0.52688044,0.78529024,-0.8702123,-0.85539126,-0.41518635]},{"bias":0.25284255,"weights":[0.3470987,-0.5927686,0.46140277,-0.076877475,-0.21903312,-0.41381782,0.4479586,0.57037306,0.2606293,0.5316303,-0.5200371,-0.25708526,0.014733434,0.24380529,-0.27572364,-0.76278424,-0.38567346,0.007052779,0.30770314,0.4238907,-0.43332213,-0.30641812,-0.55570906,0.80103755,0.373124,-0.91739225,-0.8515141,-0.4355473,-0.048532844,0.84643674]},{"bias":0.48840654,"weights":[-0.73542905,0.89245224,-0.42557853,-0.2204622,0.51166344,0.92071915,-0.8960426,-0.21613705,-0.7158091,-0.4957375,0.539351,-0.69084764,-0.30625242,0.7935295,0.97356343,0.82120633,0.12408507,0.37180436,-0.61966366,-0.13238204,-0.91453385,0.53879166,0.545136,-0.75797725,-0.32345408,-0.002259612,0.3222357,-0.65644,0.9488592,-0.9826424]},{"bias":-0.24842942,"weights":[-0.662092,0.014394641,0.0227288,-0.64339256,-0.88029385,-0.6449461,0.39428532,0.039238572,0.35739648,-0.40809578,0.1543268,-0.052404284,0.75384045,0.8077011,0.35141313,0.9021988,0.77302575,-0.5910987,0.6066508,-0.0286206,0.16564643,0.57532454,-0.7549045,-0.73001075,-0.76568437,0.10360372,0.6304772,-0.11064613,-0.12170136,-0.9350085]},{"bias":0.49406993,"weights":[0.93792796,-0.122017264,-0.6701269,0.42263615,0.56125975,-0.013237357,-0.056719184,-0.23793471,-0.18950069,-0.7042825,0.7599549,0.26702917,-0.92252755,-0.28666157,-0.9928856,0.7012727,0.019008517,0.38387787,-0.12907398,-0.18481076,0.9180958,0.968513,-0.64026856,-0.03837359,0.40610564,0.7045584,0.2009064,-0.8878455,-0.58242196,-0.7642436]},{"bias":0.17417157,"weights":[0.22529137,0.83182573,0.2958218,-0.54962415,-0.27618045,-0.8687327,-0.31549162,-0.35125393,0.6416483,-0.84171295,-0.027418017,-0.21231139,0.22457755,-0.5308661,-0.019741654,0.86107683,0.5848384,0.029723763,-0.48913497,-0.63431215,-0.45093173,-0.70561814,-0.18216598,-0.000027775764,-0.2925896,0.8293829,0.3000704,0.18831551,0.8992901,0.35588515]},{"bias":0.9908402,"weights":[0.54333067,0.8227775,-0.04700339,0.70904565,0.25554454,0.15658271,0.8301368,-0.2975971,0.292879,0.55495834,-0.13953483,0.7502639,0.6547353,-0.06864035,0.9507909,-0.41421574,0.5649655,0.26823223,0.06253636,0.5879648,0.78913903,-0.93578815,0.23942292,0.9680531,-0.18441927,0.30588067,0.22306526,-0.33123106,0.7215524,-0.21800458]},{"bias":-0.43485707,"weights":[-0.4524526,-0.8987298,0.6779089,-0.40543932,-0.22138989,0.2045368,0.0947212,-0.7508242,0.02632296,0.18563783,0.64208865,0.9390795,-0.8900099,0.4515196,-0.5207309,0.24445045,-0.85223293,-0.458116,0.77759814,0.81064916,0.26900184,0.60972667,0.027490497,0.59607506,0.26920855,-0.22633255,-0.17448652,-0.44064063,0.58619595,0.7520795]},{"bias":0.2028135,"weights":[0.6590369,-0.5767929,0.9112444,-0.75408745,0.8866615,0.039704204,0.7504611,-0.06933749,0.8397937,-0.1360277,-0.8239813,-0.90206575,0.7980864,0.6367111,-0.06552684,-0.9906974,0.66161156,-0.011495948,0.027280211,-0.92834806,-0.35077757,0.36166656,0.4619063,-0.7799022,0.29587972,-0.79049015,0.16069996,-0.2835464,-0.522072,-0.06562483]},{"bias":0.9638531,"weights":[0.8183863,-0.41753262,0.47277486,-0.997493,-0.6481137,0.7386329,0.96058154,-0.7718575,-0.3525564,0.24703729,-0.08045328,0.04934275,-0.53394884,0.14923203,0.5642967,-0.8329158,-0.11739838,0.3554548,-0.687361,-0.69880915,0.14607441,0.60273767,0.07660234,0.26718342,-0.738539,-0.37911433,-0.9754238,0.09928143,0.3843652,0.65871596]},{"bias":0.2547258,"weights":[0.090619445,-0.37500948,0.68616724,0.90717673,0.46885526,-0.34276384,0.34127438,-0.53936094,-0.9415176,-0.68208146,0.671592,0.84341764,0.9938383,-0.53041047,-0.12558258,0.5654702,-0.78271556,0.29045427,0.03895867,-0.57184476,0.815748,-0.39680856,0.12668455,-0.33502787,0.084495425,0.86281323,0.65397763,0.058883786,0.7400508,-0.53215474]},{"bias":-0.18092,"weights":[-0.019111037,-0.3064589,0.13522136,0.5956478,-0.8498781,-0.025368333,-0.8890796,-0.5697543,-0.2794134,-0.5067765,0.8949547,-0.86586976,0.28251994,0.12717164,-0.20125568,0.986372,0.59869695,-0.15546477,-0.42257208,0.2832657,0.8864851,0.19236696,-0.20879018,0.9939599,0.4043187,0.90144706,0.27853167,-0.4820258,0.780534,-0.25161833]},{"bias":-0.71406674,"weights":[-0.9794848,-0.6432736,0.32462704,0.282035,0.76358056,0.08861077,-0.06668818,-0.2779364,0.92823386,0.1552769,0.64024186,-0.07592356,-0.78323555,-0.306338,-0.02737987,0.4158944,-0.8314874,-0.56801933,0.9068732,0.76462245,-0.5624797,-0.6644771,-0.68433785,0.3707031,-0.05773723,-0.7233758,-0.75545335,-0.67740154,0.7585106,0.33714163]},{"bias":-0.738348,"weights":[-0.93702793,0.72562575,-0.03023994,-0.9341748,-0.32897347,0.24213636,0.30189884,0.68865776,-0.43568152,0.42049563,0.46308005,0.8809142,-0.53716654,0.32533205,0.6396618,0.33136785,0.78123736,0.36715662,-0.9335773,0.67507553,0.47705352,-0.73163056,-0.7511473,0.84438324,0.76062965,-0.25311846,-0.9263818,0.8064623,0.77948356,0.7420707]},{"bias":0.87631917,"weights":[0.48658288,0.5496292,0.46562183,0.6349087,-0.6381841,-0.27623647,0.7319386,-0.24519289,0.68207,-0.5797221,-0.37659234,0.69459987,0.104492545,0.36654222,0.8097563,-0.3851809,0.6828246,-0.26383203,-0.14166367,-0.97216773,-0.7934923,0.57556367,0.22286117,-0.4242279,0.79562736,-0.9439852,-0.10604513,-0.2236439,-0.4937703,0.56115556]},{"bias":-0.40542907,"weights":[-0.59349364,-0.082285285,-0.8228679,0.36260617,-0.23784244,0.42234933,-0.63989234,0.15482414,0.112320304,0.053327918,-0.44163507,0.9605789,0.36408865,0.21856105,0.52109337,0.8702867,0.6166589,0.4160539,-0.011562228,0.051621795,0.46931136,-0.7231116,-0.54670185,0.32842672,0.547735,-0.36958522,0.2919606,-0.6414261,-0.719383,-0.5153262]},{"bias":0.4273833,"weights":[-0.036044717,0.48164523,0.59587836,0.6652937,0.14862216,0.34733784,-0.31083864,0.045001864,-0.90383124,-0.34985107,0.7347691,-0.07102382,-0.6422043,0.8074913,-0.96252847,-0.23203623,-0.8576176,-0.003616929,-0.7592802,-0.3643207,-0.52624696,0.47071064,0.22988904,0.7516198,-0.3000347,0.3573166,-0.7980056,-0.20550263,-0.97804546,-0.5417239]},{"bias":-0.8222976,"weights":[-0.30819267,-0.046265483,0.11941445,0.9054575,0.013373733,-0.4718985,-0.6764569,-0.77597404,0.5561445,-0.6727276,0.28590977,-0.8378916,0.9429686,0.16285908,-0.896363,0.6987541,-0.335005,-0.20502388,0.9182751,0.35273278,-0.17903316,0.8397856,-0.6502168,-0.58241814,-0.6904788,0.4553653,-0.7304466,-0.4689266,0.19933593,-0.26286477]},{"bias":0.6380105,"weights":[-0.44215578,0.664309,0.8252623,0.41036928,-0.943547,0.8179481,-0.57702655,-0.70618534,0.19722736,-0.5064923,0.7399788,-0.3375792,0.2294246,-0.31678241,0.3246566,0.9613979,-0.99083114,-0.39644855,-0.8795879,0.2383126,-0.283508,-0.056950927,0.58581424,-0.47428983,0.03733647,-0.7471349,-0.7658026,0.556036,0.014270425,-0.5430383]},{"bias":0.90457153,"weights":[-0.2095617,-0.065942645,0.4281124,-0.2971651,0.989028,-0.2479707,0.9659066,-0.011107087,0.15342009,0.2423042,0.6544738,0.189489,0.28699386,0.9680786,0.7774668,-0.22011554,0.5714457,0.19004714,0.9891877,-0.046813607,0.5820029,-0.4213907,-0.5875167,-0.25640482,0.70626426,0.93208456,0.07515776,0.27080214,0.12157023,-0.7565658]},{"bias":0.71172357,"weights":[-0.62234133,0.83568025,0.54329634,0.5131159,-0.30960006,-0.95802164,0.7647052,-0.06811774,0.48912466,-0.06761563,0.34959686,0.75646496,0.010175586,0.2112509,0.15388644,0.10898483,0.13207161,-0.94908,0.7452767,0.03688824,-0.9811609,-0.3599071,-0.56342906,-0.87051463,0.23062861,0.42341053,0.47568214,0.8566594,0.07035172,-0.46744174]},{"bias":0.85957885,"weights":[-0.1578263,0.92721653,-0.89028144,-0.70893407,-0.42162603,0.116645455,0.4865662,0.75716424,-0.9146192,-0.8032403,0.68609715,0.022468925,-0.58262557,-0.015160918,-0.6610639,-0.48832983,-0.8643122,-0.17173278,0.8044317,0.23708808,0.9442513,-0.68780303,-0.65864134,-0.8477516,0.69664097,0.6162684,-0.71486306,0.5862584,0.24499118,-0.6163568]},{"bias":0.23441923,"weights":[0.3742169,0.8004279,-0.58042306,-0.16702855,0.85125065,-0.7374265,0.42755473,-0.37915057,0.2403301,-0.4375798,0.93344927,-0.96887636,-0.42013305,0.6846454,0.7466831,0.20854485,0.72696996,-0.49574846,0.30768812,-0.08238447,0.42287862,0.25510108,0.73176455,-0.48118395,0.7047868,-0.16091502,0.35627735,0.34363925,-0.8331902,0.60107374]},{"bias":0.14003217,"weights":[-0.71905804,-0.4894547,0.037402987,-0.03155601,0.98318076,0.89581513,0.14425266,0.57028794,0.52730894,-0.20668185,-0.92953515,0.41219223,-0.9313729,0.11604059,0.7773998,-0.14502871,-0.31709617,0.8770206,0.8408847,0.18348229,-0.58446306,-0.40993088,0.50689125,0.6764667,0.35493433,-0.7009387,0.79336286,-0.2262901,-0.07908213,0.89958024]},{"bias":0.62499285,"weights":[-0.79893374,0.9206319,-0.41486067,-0.44422454,-0.9994962,-0.6851785,-0.79384136,-0.593265,0.7877023,0.97890115,0.38898027,-0.397896,0.62031555,-0.6134209,-0.55991334,-0.685025,0.38363612,0.4699484,0.6493752,-0.21218836,0.5660515,0.56334543,0.4955145,0.8154967,0.48086488,-0.6357579,0.22616255,-0.8985231,0.9798858,-0.43145508]}]},{"neurons":[{"bias":0.24929392,"weights":[0.3315717,-0.7628181,0.7418325,-0.3099422,0.778245,-0.7146659,0.24912965,-0.3473007,-0.34179324,-0.46917528,-0.5202696,0.07204068,-0.3280031,0.67228293,-0.7113488,-0.5459096,0.5589211,-0.1517278,0.8654995,0.027390122,-0.40736002,-0.38907188,0.9473579,0.998291,0.78620124,0.16037643,-0.30654448,0.9946537,0.82982635,-0.5136263]}]}]}