{"layers":[{"neurons":[{"bias":0.64189434,"weights":[-0.62977123,0.42946064,-0.4072315,-0.047989488,-0.86650085,0.4482416,-0.3026883,-0.8097451,0.8848355,0.86546564,-0.019271493,0.7801256,0.009708762,-0.8088689,-0.4189946,0.29363573,0.45749438,0.81969905,0.016708255,0.2829162,-0.73543525,-0.13084424,-0.29108566,-0.8933842,-0.84527874,-0.34067386,-0.3692233,-0.9408381,0.75067973,0.024010062]},{"bias":-0.19652712,"weights":[0.038866162,0.045591474,0.14078629,-0.82380223,-0.5914046,-0.6785691,0.87222075,0.63035583,-0.7483549,-0.4277212,-0.0015510321,-0.12015998,-0.38397306,-0.1267029,-0.44876593,0.60813355,-0.22771823,0.38448632,0.5290611,-0.2388562,0.7421472,0.6573403,0.31188333,0.3891207,0.12343562,-0.78357863,-0.16189754,-0.2946698,-0.344145,-0.4243099]},{"bias":-0.32190078,"weights":[0.828737,-0.2212342,-0.6264651,-0.59412926,0.76212096,-0.87811255,-0.048599362,-0.017341256,0.8839464,-0.6095435,-0.3612501,0.18745172,0.68585396,-0.30354613,-0.19654739,0.45672095,-0.4096734,-0.2618398,-0.46099848,-0.92249537,-0.78325915,-0.2645871,0.05690396,-0.059736848,0.8477776,-0.532469,-0.677402,0.22583258,-0.31998938,0.34031355]},{"bias":-0.30507177,"weights":[0.11623895,-0.14362633,-0.9597721,0.6487088,0.8578036,-0.55071706,0.33087456,0.28260648,-0.12560523,-0.6466539,0.09554279,0.33287442,-0.8633611,-0.8226197,-0.77666736,-0.71021533,-0.89998436,0.20832169,-0.9595165,0.114061,0.80582166,-0.31218094,-0.24450123,-0.9013009,-0.6847584,0.5394051,-0.2781307,-0.6500573,0.47550857,-0.5447716]},{"bias":0.8026347,"weights":[0.75327873,-0.80968285,-0.9355676,-0.25228852,-0.7908051,-0.6971748,0.03355539,-0.9476824,0.89925003,0.65580106,0.6822398,-0.5000147,-0.89302015,-0.19583476,0.8185458,0.9954307,0.4304098,0.85679483,0.26219714,0.61231804,0.3754524,0.75426316,-0.933007,-0.7557397,0.415321,-0.09179962,0.9885638,0.9943738,-0.8551495,-0.72602177]},{"bias":0.8950572,"weights":[0.14210379,-0.7441294,0.06734431,0.77928853,0.35696518,0.8214166,0.7812989,0.7175846,-0.5434498,0.16009295,0.6484215,-0.9604356,0.17161977,-0.20166123,-0.35685676,-0.021276593,0.20801294,-0.91605234,-0.44023198,0.51567173,-0.41325778,0.362481,-0.058832526,0.43417585,0.87837815,-0.5185701,-0.33748978,-0.32387322,0.33187115,-0.41518635]},{"bias":-0.26533216,"weights":[-0.36760467,-0.4894187,-0.9770577,0.660393,-0.60049146,0.5734832,0.016404986,0.7792709,-0.4709999,-0.7228589,0.7928667,-0.4265024,0.12618649,0.504483,-0.27572364,-0.5158052,-0.31164688,-0.22431338,-0.1700052,0.0930053,0.8044164,-0.30641812,-0.55570906,-0.5105912,0.7259674,0.42161477,-0.28235978,-0.23371542,0.024271607,-0.54578894]},{"bias":-0.3311655,"weights":[0.15833914,-0.45305532,0.53313637,0.0891906,-0.24000585,0.5236933,-0.8960426,-0.45665687,-0.51681536,0.5169728,0.539351,-0.8221264,-0.8399439,-0.9853127,0.63322926,-0.42728013,0.12408507,-0.071761966,-0.24360645,-0.85877347,0.940444,0.27979147,-0.4121179,-0.5014395,-0.035735726,-0.23085272,0.824275,-0.7011299,-0.6613672,-0.8035948]},{"bias":0.111300826,"weights":[-0.21997988,0.014394641,-0.052345395,-0.64339256,-0.90528345,-0.61114186,0.13640249,-0.6005699,0.35739648,-0.14053404,-0.8614199,-0.29561132,-0.3783161,0.8077011,0.72775674,0.406093,-0.5643601,-0.5910987,-0.22152483,-0.88215494,-0.5052933,0.77103996,0.26525652,-0.73001075,0.6417048,0.9182315,0.014389157,-0.11064613,0.7773192,-0.45465416]},{"bias":0.86283064,"weights":[-0.5166783,-0.51180285,-0.61140794,-0.031489015,0.82514,0.44531763,0.16195333,0.84170794,-0.18950069,-0.025993705,0.87620974,0.8585851,-0.25082916,0.92921185,-0.9928856,0.27874362,0.24158251,0.89877295,0.30737245,-0.090150714,-0.81259847,0.66196084,0.7417774,-0.523987,-0.9674244,0.42695868,-0.41847485,0.3059386,-0.08075988,-0.5675551]},{"bias":-0.857002,"weights":[0.773298,0.22729194,-0.6904168,0.52972794,-0.47291774,-0.60444087,0.011196256,-0.44569796,-0.6310172,0.60138893,-0.978729,-0.57647556,0.96555996,-0.46856445,0.5319619,-0.93032384,0.5848384,0.791307,-0.5359928,0.057207227,0.14353168,-0.9941242,-0.8443148,0.19496143,-0.2925896,0.7537184,0.3000704,-0.24461639,0.14752853,-0.15580642]},{"bias":0.81073165,"weights":[-0.38605756,0.4273268,-0.7355521,-0.4789514,-0.20201313,0.30902207,-0.14859593,-0.19314063,0.19180763,0.73663235,-0.13953483,-0.80275965,0.734705,0.6915014,-0.41840166,0.93105245,0.060810924,0.8381779,0.17599475,-0.73487973,-0.52216357,0.4538566,-0.2647707,-0.59092516,-0.17291844,0.68113375,0.5624459,0.3232218,0.8965266,-0.103113055]},{"bias":-0.43485707,"weights":[0.93095875,0.5516255,0.10250723,-0.94381213,-0.81302357,-0.52383536,-0.079252124,0.51534176,0.3966354,-0.3637113,0.35453928,0.8067827,-0.25086182,-0.9477594,0.19853199,0.24445045,-0.85223293,0.9118023,0.690135,-0.025940776,0.26900184,0.15180504,0.2736894,-0.97138596,0.5504613,0.50418544,0.4435159,-0.44064063,-0.77707624,0.75986123]},{"bias":0.99567056,"weights":[0.85202503,-0.5767929,0.9112444,0.7002728,-0.0556978,0.87940216,-0.99284863,0.5024679,0.8493166,-0.1360277,0.1500696,-0.22782624,0.84265137,-0.62566924,-0.06552684,-0.7116599,-0.5885598,-0.8694401,0.38102758,0.027017951,-0.052969813,-0.7537484,-0.3774168,-0.88982105,0.29587972,0.7582934,0.25752413,-0.866395,-0.522072,-0.62698054]},{"bias":-0.2061137,"weights":[0.8418639,0.46824563,-0.3145718,0.079558015,-0.6481137,-0.11561334,-0.07850945,-0.22207773,0.48584807,-0.47328538,0.34594667,-0.2833833,0.6196799,-0.79302335,0.53212667,-0.44177264,0.29034078,0.7223277,0.430457,-0.34275764,0.49754417,0.89490867,0.051612735,0.94056225,0.019833446,-0.399898,-0.4170124,-0.8238547,0.3843652,-0.08404648]},{"bias":-0.48798126,"weights":[-0.40573257,-0.7081609,-0.3575017,-0.96373844,-0.20153439,-0.9412954,-0.7078891,0.08444822,-0.1918379,0.07617295,-0.3586535,-0.3231787,-0.63844895,0.66965127,-0.75318146,-0.036393523,0.6705494,0.29854143,-0.3685245,-0.29923457,-0.9949982,0.73003125,-0.96804285,-0.33502787,-0.69691753,-0.35462636,-0.30211824,-0.45072597,0.60761786,0.03710115]},{"bias":0.68879366,"weights":[0.5443921,-0.5329115,0.15548646,0.57118225,0.44645917,-0.87977624,0.587934,0.16213238,0.48531806,-0.4614045,-0.94715977,-0.86586976,0.68515134,-0.7347069,-0.30916947,0.7622247,-0.4939682,0.37009203,-0.78429484,0.100494266,0.74822044,0.9258275,0.5715003,-0.7334304,-0.60712475,-0.4900133,-0.91106415,0.96456504,-0.8560622,0.19703305]},{"bias":-0.85694575,"weights":[-0.1371175,-0.012123942,-0.37377757,0.32549655,0.76358056,0.16205442,-0.30643886,-0.9747987,-0.6656928,-0.53205127,0.7056484,0.3755101,-0.15189731,0.054659724,-0.63551927,0.018198371,-0.8314874,0.9586601,-0.8068354,-0.76124334,0.94135857,-0.21844637,-0.3281874,0.43027127,0.052687287,-0.7233758,-0.040654063,0.65327907,-0.19194782,0.21022046]},{"bias":0.17321455,"weights":[-0.93702793,-0.80545974,-0.06251395,-0.39425462,0.8837614,-0.9870188,0.3140856,-0.8770876,0.2293557,0.60119534,0.61277485,0.47042668,-0.1730541,-0.3895325,-0.0042916536,-0.8081708,-0.58155626,-0.6705029,0.37163866,0.90407515,0.9443712,-0.73163056,-0.7511473,-0.17122805,-0.760195,0.5871186,0.57930636,0.093862176,-0.5427496,-0.13415015]},{"bias":0.9564252,"weights":[-0.8888278,0.35802877,-0.91806173,0.6349087,0.12919056,-0.8410609,0.32490718,0.7827256,-0.2651741,-0.5797221,-0.05893433,-0.8012116,-0.87369704,0.4205979,0.5278461,-0.7590718,0.68274546,-0.35535997,-0.5659134,0.2227329,-0.7934923,-0.5703079,-0.048968196,-0.31230563,-0.1523503,-0.9439852,-0.3444845,0.87563586,-0.4951319,-0.51713985]},{"bias":-0.14447534,"weights":[-0.059057593,0.028009534,0.051922917,-0.049713254,0.15204513,-0.7507565,-0.21870458,-0.37115425,-0.8810787,0.55108905,0.6534128,-0.62393993,-0.37509555,-0.8840556,-0.8193562,0.74619246,-0.51235694,0.4424399,-0.125898,0.18090093,-0.3954789,0.049805045,-0.07868636,-0.49774808,0.4526776,0.67648554,0.038419366,-0.50402755,0.6606989,0.74751544]},{"bias":-0.86891985,"weights":[0.93720865,0.05965817,-0.83655643,-0.19007695,-0.35053557,-0.79713225,0.5483005,0.2701758,0.36616862,-0.6481395,0.15153348,-0.7765889,0.9959631,0.02558124,0.9002085,-0.6207139,-0.42504805,-0.68719864,0.5948672,-0.76520157,-0.07300174,-0.29696125,0.22988904,0.7516198,0.774102,-0.537034,0.848979,-0.5743658,-0.058202624,-0.79179597]},{"bias":0.032194972,"weights":[0.34689486,0.6292958,0.7974467,0.7260759,-0.07572639,0.4783944,0.879164,-0.70945716,-0.37729686,-0.6727276,-0.8852391,0.79220295,-0.37382072,-0.4889924,-0.08393562,-0.3193819,-0.7728934,0.26124704,-0.41048878,0.35273278,-0.17903316,-0.55963105,0.4279269,0.84489036,0.20222008,0.758126,-0.6848428,-0.7687681,0.6303885,-0.9944997]},{"bias":-0.4569375,"weights":[0.90453243,0.28768337,0.8252623,0.33349073,-0.92574453,0.8179481,0.7238674,-0.87191725,-0.28011888,0.52531314,-0.04099381,-0.10397041,-0.65356064,-0.20339859,-0.48321003,0.12942731,-0.99083114,0.41998827,-0.8795879,-0.2404033,0.39963257,-0.9915278,-0.96406317,0.3110696,-0.11306369,0.03049028,0.5577998,0.7612598,0.8703735,-0.3416838]},{"bias":-0.96637774,"weights":[-0.33672303,-0.112443805,-0.46125692,-0.6389704,0.011156917,0.33496773,-0.5125391,-0.011107087,-0.5290052,0.046236157,0.6681628,0.23510969,0.44861972,-0.46403617,0.23536885,0.5969653,0.7859397,-0.15369928,-0.75933075,-0.32824343,0.7461586,-0.58060426,0.70717955,-0.6617565,0.61047816,-0.19574177,-0.4568445,-0.53603977,-0.6490028,-0.5015964]},{"bias":0.71172357,"weights":[-0.62617826,-0.23252833,0.48824656,-0.35648865,0.028181434,-0.3221478,-0.10227263,0.3349346,0.057175994,-0.5638048,-0.6027412,0.33093274,0.71314406,0.6556406,-0.8521998,0.45231855,0.16340005,0.38549888,0.7452767,-0.93672585,-0.9811609,0.5350957,0.94094324,-0.85723686,0.06638539,-0.9872644,0.51316166,-0.943779,-0.6328299,0.2704326]},{"bias":-0.9049771,"weights":[0.007942557,0.92721653,0.26088488,0.30452383,-0.42162603,0.116645455,-0.47619814,0.68693113,-0.9146192,-0.031457067,0.3091761,0.39182436,0.69137263,0.12544334,-0.4867,-0.1477009,-0.5004403,0.8493109,0.31009948,-0.42489403,0.6876371,0.42097175,0.96972704,-0.44477624,0.4804114,0.99094653,0.99987364,0.73412204,-0.07479751,0.18135321]},{"bias":-0.56297296,"weights":[0.3742169,0.5049701,-0.7887986,0.21110547,-0.30215424,0.37233365,-0.95068,0.7749946,-0.57608956,0.1227113,0.19108331,-0.71454906,0.15692627,0.51558137,0.022650123,-0.094314456,0.76553726,-0.73721266,-0.6301923,0.5079088,0.55908227,-0.33786315,0.89420724,0.61589,0.4722103,-0.98330045,0.76143384,0.8346672,0.36504376,-0.5006954]},{"bias":-0.3575408,"weights":[0.10164392,0.9498465,-0.8673096,0.4609257,0.69883466,0.67364955,0.3917519,0.90521073,-0.6498368,-0.56927603,0.6124482,0.41219223,0.9812515,-0.2247945,0.19827592,0.33210075,0.9297633,0.7486298,0.49090302,-0.79027486,-0.68385315,-0.43893784,0.059706092,0.2388736,0.14985073,-0.3084132,0.79336286,-0.9323418,0.72865057,0.9093921]},{"bias":-0.18835008,"weights":[-0.62665296,0.9206319,-0.25115484,-0.10422456,0.011607766,-0.37701005,0.7723546,-0.8674164,-0.28777856,0.032337546,0.96186304,-0.31702918,0.62031555,0.25788796,-0.7975092,0.95791554,-0.028754115,-0.29007763,0.6684494,-0.7868314,-0.5603301,-0.30095547,-0.17463028,0.06601846,-0.36224288,0.5117459,0.17117846,-0.30425304,0.4466306,-0.43145508]}]},{"neurons":[{"bias":0.4869796,"weights":[-0.76390314,-0.11284435,-0.35652655,0.69925714,-0.86719084,-0.47874135,-0.5446994,-0.16484034,0.046063304,0.8840227,0.54148746,0.8798287,0.73769903,-0.2555582,-0.3041076,0.15221989,0.96020746,0.5273924,0.34936917,-0.9401748,0.8376663,0.050668836,0.16186535,-0.22851455,0.84836364,-0.7979286,-0.30654448,-0.8862052,0.7917199,0.99553084]}]}]}