{"layers":[{"neurons":[{"bias":-0.1537484,"weights":[0.7946248,-0.6281283,-0.83905625,-0.047989488,0.4162389,-0.49871534,-0.3026883,0.5817721,-0.42432636,-0.25535244,0.36358154,-0.6751306,-0.27064198,-0.2851612,-0.57580775,0.06431019,0.48999345,0.81969905,0.016708255,0.3343295,-0.73543525,-0.13084424,-0.29108566,-0.8627577,-0.54863614,-0.42883033,-0.3692233,0.95817804,0.7833526,-0.96619606]},{"bias":0.060732007,"weights":[0.31982076,0.40668523,-0.56949013,0.120865464,0.037925124,0.036174178,-0.4690153,0.6450305,-0.7483549,0.6046145,0.52897406,-0.12015998,0.90840673,-0.1267029,-0.25435227,-0.24776065,-0.22771823,0.04331696,-0.12955701,0.23648036,-0.12133086,0.3458079,-0.40237278,0.2634772,-0.5076842,-0.04540956,0.4027773,-0.5926184,-0.344145,-0.29155725]},{"bias":-0.21496499,"weights":[0.18937194,-0.91558456,-0.43979353,-0.3303985,-0.0072306395,-0.14438546,-0.048599362,-0.017341256,-0.5552673,-0.7535417,-0.9563601,-0.43219537,-0.04237783,0.10710943,0.42544138,-0.6677947,-0.4096734,-0.2618398,0.8123832,-0.054406047,0.59526587,-0.72583365,-0.8671131,-0.059736848,-0.68144155,-0.1005069,-0.677402,-0.042830825,-0.7688663,0.34031355]},{"bias":-0.5311758,"weights":[0.72987247,0.7600908,0.31796777,-0.19203436,0.8239348,0.37769544,0.63379455,-0.58830327,-0.73844194,-0.6658449,0.035553575,0.33287442,-0.4865355,-0.8226197,0.4287516,-0.71021533,-0.028217435,0.24724567,-0.14875352,0.70783496,0.22522962,-0.23816073,-0.606219,-0.851485,0.5536916,-0.7992892,-0.97680044,-0.2914011,0.462386,-0.3313853]},{"bias":0.83803916,"weights":[0.06400144,-0.42548984,0.71446323,-0.5640914,0.53843284,-0.28306645,0.03355539,0.62693095,0.11841023,-0.66628075,0.7986057,-0.25562733,0.21181643,0.31508434,0.8185458,0.44291127,0.38865697,-0.6227278,-0.9210353,-0.07771933,0.3754524,-0.8133035,0.6590247,-0.044308066,0.53504276,-0.6847522,0.23561609,-0.14133012,0.109547734,-0.72602177]},{"bias":0.8950572,"weights":[-0.10161579,0.5890925,0.27931464,-0.6505909,0.7520385,0.007569194,-0.99809146,-0.7168987,-0.84021044,0.13693488,-0.15816867,0.18753684,-0.19061697,0.14053547,-0.35685676,-0.14420211,-0.5240206,0.9072466,0.4476539,0.4714843,0.57258224,-0.48531622,-0.2956075,0.59896135,-0.32255167,0.99723816,0.41771424,0.83510923,-0.83148813,-0.41518635]},{"bias":0.13710272,"weights":[-0.47581452,-0.05886352,-0.9770577,0.31379926,0.79420066,0.5638828,0.7298422,-0.69148564,0.7252743,-0.76144433,-0.7946894,0.17164743,0.12618649,0.4998225,-0.19014347,0.4161116,-0.31164688,0.22191155,0.2593354,0.027779937,0.4140395,-0.104158044,-0.9850993,0.18998039,0.73258734,0.42161477,-0.6943526,-0.23371542,-0.950912,-0.3134479]},{"bias":0.07547653,"weights":[0.48203623,0.58256936,-0.6381824,0.15035331,0.41860044,0.9249892,0.12876189,-0.53634113,0.49232614,0.24310935,0.834172,-0.08121359,-0.7926278,0.18193161,0.639498,0.195665,-0.2831282,-0.11073291,-0.1913234,0.4005953,-0.92135525,-0.13389432,0.6892519,0.5881233,0.7537787,-0.23085272,0.520838,0.6779578,-0.6613672,0.11787546]},{"bias":0.21685255,"weights":[-0.21997988,0.9906573,0.6421106,0.94428015,0.872,-0.61114186,0.18954456,-0.44101208,-0.35876054,-0.52997845,0.03398478,-0.52109045,0.33075058,0.7717364,0.08762252,0.8246093,-0.43501896,-0.5910987,-0.22152483,-0.7287936,-0.9962959,-0.21985495,-0.68051887,0.62901616,0.72966003,0.2534467,-0.57675046,-0.24561012,-0.9793658,0.32687175]},{"bias":0.74599123,"weights":[-0.44838113,-0.08728635,0.55587673,0.94894075,-0.9394312,0.8342354,0.7444434,-0.010540843,-0.8898413,0.002989173,0.14885628,0.33117616,0.48742592,-0.0839659,-0.56854934,-0.33187288,-0.27278584,-0.4215271,-0.5829324,0.9194207,0.1064769,-0.6843369,-0.7590442,0.31621063,-0.80505323,0.42695868,-0.4631645,0.3059386,-0.08075988,-0.048951745]},{"bias":-0.2521426,"weights":[0.07321894,0.42992318,0.48029816,0.52972794,0.48565733,0.6120162,0.39430702,-0.44569796,0.7726567,-0.35203522,-0.978729,0.35000455,-0.94840884,0.42578304,-0.6799767,0.5005374,0.0639528,0.15080011,0.09014833,0.057207227,0.14353168,0.24102414,0.2543038,-0.9652662,0.8181317,-0.8700893,0.26303613,-0.39353508,-0.9278693,-0.7926352]},{"bias":-0.85532784,"weights":[-0.62142867,-0.2918579,0.68517876,-0.6942842,-0.48160213,-0.08405316,0.74292874,0.81493855,0.8777566,-0.98134947,-0.878237,-0.12587011,-0.95731425,-0.66228247,-0.41840166,0.14906895,0.810385,0.6868875,0.17599475,0.976043,0.6853149,-0.21769845,-0.2647707,0.13510835,0.833081,-0.0910002,-0.59056944,-0.3975863,-0.57714623,-0.19665134]},{"bias":0.7443874,"weights":[-0.95073557,-0.13996303,0.10250723,0.61761355,0.14749706,-0.49058717,-0.37389654,-0.42984122,0.36091006,-0.93538356,-0.3174979,-0.9607413,0.38208663,-0.9477594,-0.09471953,-0.66820216,-0.85223293,0.65207505,0.42238986,-0.8292017,-0.42895764,0.33801067,-0.053168178,-0.06829631,0.5504613,0.50418544,0.58062744,0.7242329,-0.6778259,0.83625555]},{"bias":0.8248136,"weights":[0.20583451,-0.5767929,0.6017401,-0.08412564,-0.8740711,0.33672988,0.84474325,0.5024679,0.3401612,0.13046658,-0.29079813,0.9667697,-0.5143904,-0.62566924,0.9124744,-0.91924524,0.2916683,0.28483045,0.38102758,0.28411806,0.31606257,0.3449973,-0.72315,0.77604747,0.29587972,-0.5631463,0.101557374,0.5035293,0.7119281,0.27502263]},{"bias":0.64860225,"weights":[0.8418639,0.4269997,0.19230568,-0.9670737,-0.91210127,0.9760175,0.8260577,0.03586924,-0.058976293,0.030136943,-0.8545754,-0.28223008,0.76846504,-0.54601854,0.53212667,0.7542956,0.956414,-0.8189137,0.056061625,-0.56741923,0.308946,0.89490867,0.82144547,0.94056225,0.24480021,0.45707524,-0.3651952,0.3364426,0.2670399,-0.23453629]},{"bias":0.7307956,"weights":[-0.3327226,-0.39845055,0.8153043,0.3499695,0.3859638,-0.21981251,0.8594825,-0.97664404,-0.24959767,-0.89096093,0.42191255,0.89892936,0.095449805,0.09793699,0.26546633,-0.7555144,-0.1318382,-0.7870474,-0.7654252,-0.03069055,-0.49963063,0.73003125,-0.4796397,-0.078240514,0.88492656,-0.35462636,0.53378963,-0.47320288,-0.7650964,-0.95749736]},{"bias":-0.8775835,"weights":[0.7537198,-0.18110192,-0.7298429,0.57118225,0.78192806,0.72838926,-0.34978646,0.16213238,0.93661165,0.68367743,-0.532438,-0.86586976,-0.4148888,-0.10841024,-0.62406415,0.75363827,0.100470185,-0.9725938,-0.12586534,-0.430592,-0.5762841,-0.89168215,0.16798007,-0.730855,-0.8430071,-0.07538998,0.38080728,-0.45476788,0.23929155,0.19703305]},{"bias":-0.15941656,"weights":[0.4301902,-0.97129416,-0.8116393,0.11384761,-0.21113646,0.16205442,0.26257765,-0.9747987,-0.45873922,-0.4802689,0.5717635,0.57913303,0.5899813,-0.41040534,0.94528437,0.5795634,-0.53667134,-0.64372015,-0.13023007,0.48786986,0.94135857,-0.21844637,-0.48458856,-0.5496182,-0.35368174,-0.46774524,0.16099441,-0.019298434,0.1129328,-0.7344346]},{"bias":0.97194767,"weights":[-0.93702793,0.6043217,0.7528937,-0.90570545,0.46150506,-0.39441103,-0.9037831,0.77858734,0.8407135,-0.80176115,0.61277485,-0.45115298,-0.1730541,-0.24135315,-0.0042916536,-0.23604453,0.5764363,0.22902286,0.37163866,-0.84992385,0.7971313,-0.17609847,-0.4881994,0.73204255,0.6931877,-0.56585234,0.1925062,0.2647127,0.36419857,0.6962948]},{"bias":-0.45981616,"weights":[-0.6421943,0.09246504,0.2874602,0.008311629,0.4538504,0.053199887,-0.07164872,-0.9273484,-0.2651741,-0.48386234,0.7387724,-0.19457638,-0.9425795,-0.2184912,0.026177764,-0.30650204,0.78269887,0.7532666,0.069292665,0.2227329,0.2034117,0.19216764,-0.6481991,0.9802506,0.7802255,-0.90211654,-0.29296678,0.7367408,-0.4951319,-0.63902664]},{"bias":0.34422886,"weights":[-0.059057593,-0.28135723,0.051922917,-0.049713254,-0.423629,-0.8046999,0.92937255,0.37356627,-0.8810787,-0.14878261,0.83306694,0.082656026,-0.37509555,-0.26143974,0.85621,-0.20036471,-0.51235694,-0.98532224,0.51510954,-0.6711638,0.8897693,-0.829797,0.48597133,-0.7411027,-0.6647444,0.45868504,-0.7581668,-0.50402755,0.44402015,-0.71067286]},{"bias":-0.25934023,"weights":[-0.8336003,0.46075118,-0.83655643,-0.26961797,0.23089373,-0.048549294,-0.6089749,0.2701758,-0.67076254,-0.6481395,-0.597146,0.69794464,0.9575844,-0.6931255,0.2880038,-0.56222314,-0.46618384,-0.68719864,-0.29832095,0.77797985,-0.07300174,-0.9408691,-0.15303838,-0.06068933,-0.2543022,0.2920469,0.56015897,0.96879745,0.30219805,-0.64304924]},{"bias":-0.19168913,"weights":[0.2945546,-0.7739713,-0.1944853,0.17555273,0.71623635,-0.7141986,0.44371283,-0.70945716,0.93564963,-0.21584404,-0.85373044,-0.46666855,0.97451615,-0.4889924,0.66780376,-0.9967222,-0.4923312,0.11649239,-0.86737084,-0.59007376,0.51471543,0.49405873,0.13366497,-0.72013044,0.8735945,-0.20236266,0.27667224,0.41705716,-0.59209484,-0.8285358]},{"bias":-0.4569375,"weights":[0.86814284,0.2098602,0.77928305,0.49098003,0.7826793,0.42999303,-0.09092677,0.9053819,0.54322934,0.34400165,-0.76424336,0.581053,-0.42364115,-0.20339859,-0.00040233135,0.8132043,-0.99083114,0.7703912,-0.5840742,-0.22123396,-0.8059368,-0.81340384,0.867393,-0.9568322,-0.5417201,0.60742784,0.3144132,0.7612598,0.8257401,-0.3416838]},{"bias":-0.54451317,"weights":[-0.4209556,-0.47532743,-0.46125692,0.6542368,-0.14336646,0.7228875,0.3251158,-0.6986766,0.19208372,0.73199797,0.010640025,-0.9093766,0.44861972,0.78242135,0.6444504,-0.32367867,-0.6579349,0.69028807,0.41128314,-0.32824343,-0.89138484,-0.56189007,0.14478195,-0.40622157,0.61047816,-0.19574177,-0.4568445,-0.2753808,-0.32395238,-0.80240035]},{"bias":0.7350104,"weights":[-0.62617826,0.29487646,-0.42338723,0.8355527,-0.03613341,-0.73540974,0.55178475,0.844913,0.057175994,0.7823372,-0.20722687,-0.12581909,0.71314406,-0.37085074,0.46044934,-0.44342965,-0.48670715,-0.53859323,-0.0012654066,-0.93672585,-0.5039534,-0.28874725,0.14896,0.39179814,-0.36763114,-0.81301546,-0.32485002,-0.05397594,0.823272,-0.91714454]},{"bias":-0.017227769,"weights":[-0.20450819,0.81538916,-0.15298927,-0.95362616,-0.6086256,-0.82960844,-0.32595247,0.054846883,-0.106316924,-0.25877422,-0.24850523,0.055228114,0.57763886,0.86152697,-0.8799982,-0.5568122,-0.88755345,-0.35938543,-0.4597296,-0.34930962,0.6876371,0.40937173,0.15258992,-0.44477624,0.77945185,0.72716975,0.97124696,0.73412204,0.5612316,0.83748794]},{"bias":-0.56297296,"weights":[0.10968268,0.24223983,0.2378391,0.41927922,-0.2878284,0.35762465,-0.95068,0.7749946,-0.8358431,-0.30724567,0.7604401,0.20976436,-0.09923875,0.1625346,-0.50290364,0.5078223,0.76553726,0.54456425,0.8173604,0.65102077,-0.38968962,-0.33786315,-0.2726981,-0.68982434,0.4722103,-0.98330045,-0.9287529,-0.80719495,-0.4686789,0.25738156]},{"bias":-0.3575408,"weights":[-0.85425186,0.9498465,-0.8673096,0.90044355,0.9492097,0.21307981,0.5882983,-0.6373389,0.8164556,-0.66401434,0.48835146,0.41219223,0.9812515,-0.7208104,0.19827592,-0.60283226,-0.326389,-0.408637,0.24056375,0.0610739,-0.7103059,0.06864631,-0.009617686,0.9814899,-0.38664383,0.020767331,0.05103314,0.4230572,-0.66117215,0.3182119]},{"bias":0.090518594,"weights":[-0.775198,-0.23621094,-0.7230859,0.34483492,0.011607766,-0.17390192,-0.66271067,-0.35745257,-0.71135163,0.4706565,0.84826636,0.27230752,-0.7337444,0.6875453,-0.040227056,-0.22553837,-0.028754115,-0.13611734,-0.6410332,-0.7994125,0.7576382,-0.5685145,-0.5502328,-0.09673393,-0.13153446,-0.43015093,-0.4694361,0.8332088,0.9603684,-0.97238636]}]},{"neurons":[{"bias":-0.93591905,"weights":[-0.77641416,0.6282959,0.9009948,0.45003307,-0.86719084,-0.47874135,-0.55290216,-0.16484034,0.30337632,-0.51190656,0.54148746,0.8798287,0.35301268,0.81969213,0.7219529,-0.18910134,0.8268161,0.4541322,0.34936917,0.36037123,-0.100081086,-0.01347506,-0.5640463,0.7819345,-0.9767492,0.050232768,-0.30654448,-0.74128485,0.7917199,0.16376269]}]}]}