{"layers":[{"neurons":[{"bias":-0.7225201,"weights":[-0.021607518,-0.43337196,0.6930404,-0.979594,-0.20730364,-0.30525416,0.776942,-0.7782788,-0.89043045,0.51510596,-0.86172867,0.89270854,-0.0665766,-0.7367842,-0.4844703,-0.38168114,0.37933528,-0.8420582,-0.818064,0.4154955,0.30642784,0.49174845,-0.6072914,0.8619921,-0.64945245,-0.8692007,-0.33776945,0.6310861,0.58591247,-0.9856503]},{"bias":-0.34760636,"weights":[0.10760963,-0.007899642,0.5918336,0.3629037,0.6562252,-0.36544746,-0.63515806,-0.2603199,0.8054004,-0.73306584,-0.8804183,0.29787457,-0.19860351,0.9709277,-0.64325595,-0.5959782,0.30261457,0.404837,-0.52708834,-0.47920126,-0.12133086,-0.96017814,0.9005103,-0.14752972,0.030568242,0.29044235,0.0690676,0.45214164,0.37405932,-0.5662355]},{"bias":-0.3986799,"weights":[0.18937194,-0.8657036,-0.27503222,0.24865997,-0.030729651,-0.012709498,0.21861565,0.89117384,-0.79844165,-0.13627231,0.21926224,-0.026474118,-0.5436806,0.252226,0.94238305,-0.4517998,0.88396597,-0.6340432,0.14890659,0.34517777,0.8497791,0.8132858,0.20983207,-0.77902484,-0.37371248,0.8540292,0.6719141,-0.97560287,0.2648095,-0.5872478]},{"bias":-0.35606188,"weights":[-0.6351037,0.7045231,0.6379442,-0.84872556,-0.69239616,-0.9659128,0.06297791,-0.6128296,0.06451237,-0.65479755,0.1590656,0.2083584,0.39188516,0.09351766,-0.25666684,-0.56431264,0.56379366,0.27475655,0.51888585,-0.25955552,-0.052472472,-0.5118286,-0.95918345,0.4869932,0.46993577,-0.6982441,0.06056106,0.5472288,0.47748196,-0.99488664]},{"bias":-0.06437123,"weights":[0.06921232,-0.6138138,-0.39165276,0.17239249,0.9380994,-0.5384056,0.74811935,0.18233168,-0.190678,-0.6398959,0.8478625,-0.45292538,-0.44233435,-0.35453814,-0.9931524,0.35747445,-0.12791622,0.18443191,-0.6563809,-0.25959557,0.9885783,0.6481879,0.1590296,-0.13573992,0.27154577,-0.7159376,-0.9268708,0.4174689,-0.6516886,0.23664343]},{"bias":0.4203757,"weights":[-0.8390455,-0.9548452,0.46002138,0.16552174,0.5372422,0.72398734,-0.97285295,-0.55553144,-0.06315172,0.957247,0.9940727,0.0066980124,0.68576646,-0.8885834,-0.72235465,-0.96271276,0.5141802,0.69732976,0.38282073,0.18294823,0.57258224,-0.5496015,-0.7227657,-0.8303399,-0.96443725,-0.699276,-0.0205971,0.3990742,-0.55419177,0.86763024]},{"bias":0.062216878,"weights":[0.31413496,0.9002621,0.21280992,0.08808601,0.21793377,0.44649184,-0.75687647,-0.4174189,0.42454493,0.7205839,-0.8154893,0.26007283,-0.7887907,0.9361632,0.8093879,0.6874654,0.43094027,-0.7346208,0.5178647,0.48820174,-0.98523784,-0.97845984,-0.6139595,-0.9681549,-0.6587541,0.3570813,-0.6358278,-0.20041573,-0.664675,0.3410617]},{"bias":-0.26361197,"weights":[-0.27196044,0.031162381,-0.35881203,-0.878104,0.13252151,-0.6826105,0.86631083,0.5747726,0.5132003,-0.22411215,-0.32331055,-0.12495792,0.7496469,-0.38426894,-0.515541,0.3022865,0.790082,-0.2796871,0.8907628,0.7718353,0.57171774,0.49973953,-0.9249561,0.313609,-0.67381334,0.48634732,-0.5038766,0.6623645,0.19895113,-0.021162152]},{"bias":-0.47658294,"weights":[0.6989629,0.69525576,-0.35812443,0.28699958,0.07940543,-0.9059043,-0.95747995,-0.29175943,0.14869511,0.914629,-0.04853332,0.30453026,0.36883342,-0.6216902,0.85485363,-0.29657215,0.37061584,-0.71815944,0.34043396,0.79483867,-0.45721906,-0.9437728,0.9430418,0.670269,0.28104103,-0.6630933,-0.28932446,0.28966033,-0.027706027,-0.54212517]},{"bias":0.8822923,"weights":[0.58517003,-0.009144902,-0.8981607,0.2722801,-0.54025334,-0.64075875,0.49042666,-0.77571225,-0.096895576,-0.1919905,0.98826957,0.31953442,-0.6042997,-0.15382254,-0.21464789,0.18446362,0.18354261,0.10259426,0.6244831,-0.59011835,-0.54278415,-0.18802655,0.7461431,-0.6488011,0.90773726,-0.56377906,-0.60039634,-0.34424633,-0.08075988,-0.29248136]},{"bias":0.3087486,"weights":[-0.77663183,-0.21980083,0.40178168,-0.30736655,-0.14290273,-0.1355716,-0.5933544,0.16681969,0.9537177,-0.052107215,0.58760595,0.22087705,0.73134255,0.05243361,-0.97300816,0.7456124,0.0395447,0.5651233,-0.7164712,0.5005338,0.07809508,-0.9223516,0.8379631,-0.013150334,-0.023923755,-0.5516316,0.5100391,-0.6455164,-0.4162745,0.50964427]},{"bias":0.18863475,"weights":[-0.9231787,0.32223856,0.7599609,-0.8460486,0.7478256,0.5876336,0.618881,-0.78905535,-0.23451841,0.96639705,0.23281896,-0.5302085,0.6712067,-0.24292028,-0.17400706,-0.7325802,-0.6576083,0.17625225,-0.61170167,-0.39985484,-0.75233555,-0.35772437,-0.70998144,0.7220135,0.2353338,0.6671169,0.096891046,-0.15303433,-0.17051923,0.56041145]},{"bias":0.9856801,"weights":[0.4614979,0.84675145,-0.6888232,-0.63856506,-0.4488384,-0.24344218,-0.18015969,-0.062057137,0.58447075,-0.14672506,-0.03836572,-0.096952796,-0.15209067,0.6935828,-0.9826884,-0.44709104,0.67665434,-0.6383426,0.36333287,-0.49574274,-0.10366595,-0.97555375,0.20888484,-0.026288867,-0.1767019,0.19321477,-0.0024336576,-0.2797925,-0.15607536,0.489905]},{"bias":-0.58742183,"weights":[-0.8439789,0.31115806,0.74595547,0.6203084,0.3709482,0.15997303,0.7939725,0.4579507,0.5128133,0.38810384,-0.012626529,-0.19048035,-0.386769,0.99664307,-0.31192034,0.43006003,-0.83172846,-0.7407527,0.61316967,-0.93226886,0.43426144,0.9923563,-0.44465488,-0.23037064,-0.9257269,-0.65953207,-0.5702283,-0.31703347,-0.14677846,0.81757116]},{"bias":0.8310282,"weights":[0.75491095,-0.33043474,-0.9286182,-0.33816594,0.2652012,-0.28085774,0.7910867,-0.54191345,0.660079,-0.6318402,-0.17650163,0.26440752,0.7031994,-0.8682523,-0.59157985,0.50139284,0.75133276,0.45482862,0.18326652,-0.065849185,0.5247214,0.03949201,-0.13514602,-0.57919663,0.23612869,0.2864653,-0.05136454,0.08439076,0.8987055,-0.25708503]},{"bias":-0.5846111,"weights":[-0.21709383,0.5023823,0.044085383,-0.3725955,0.3544327,-0.53456205,-0.19820964,0.8739517,0.5114684,0.9335034,-0.44615096,0.6592212,0.24746192,0.8041246,0.84097123,-0.13259375,0.15023196,0.7842629,0.88439584,0.42856324,-0.4637186,-0.18976867,0.7596557,-0.09137881,-0.53573626,-0.33052272,0.5809946,-0.60991305,0.4532646,-0.07138717]},{"bias":-0.96492934,"weights":[0.5693824,-0.68560195,-0.43851942,-0.10064018,0.64446735,0.9500723,0.5708244,-0.96178293,0.060294032,0.07872021,-0.19495952,0.19236648,0.8414774,0.82777905,-0.5097715,0.4188155,0.4583634,-0.3909387,0.32315624,0.13227713,0.2777375,-0.18633735,0.33815467,0.80970645,0.49898994,-0.3842966,0.38080728,-0.72573996,-0.33034414,-0.694793]},{"bias":0.49530208,"weights":[-0.1656748,0.038755536,-0.11360681,0.26425135,0.09413874,-0.5118031,-0.54192585,-0.9216218,0.25297153,0.48654163,0.2967118,-0.98442435,0.16352165,-0.66568995,0.9744315,-0.7443464,-0.19982111,-0.11612213,0.68410397,0.8195627,-0.33539337,-0.7850678,-0.4623682,0.95689845,-0.92466736,0.53404284,-0.90549874,-0.19736731,-0.18029773,0.674273]},{"bias":-0.56026286,"weights":[-0.18061078,0.6051421,-0.854156,-0.59660405,0.7399237,-0.27255028,0.70668745,-0.5451407,0.0559119,0.85884404,-0.46641916,0.03063643,-0.8677919,0.42538416,-0.9455364,-0.1619643,0.0039004087,-0.43128413,0.34716022,0.98489046,-0.9896612,0.09576571,0.735914,-0.13440812,-0.7834425,0.3000735,-0.25710696,0.3806821,0.64708424,-0.421735]},{"bias":-0.17055666,"weights":[-0.53204244,0.37835562,-0.79271626,-0.39318126,-0.33037275,0.026668191,-0.57335514,-0.25930184,-0.86094666,0.122567296,0.9841399,-0.19457638,-0.120973945,0.16922319,-0.41995066,-0.027884841,0.91453695,-0.11950934,-0.5368785,0.40063035,0.3840481,-0.2630672,0.93558574,-0.16896665,-0.37259978,-0.098332286,-0.015274882,-0.4742903,-0.69173956,-0.43138403]},{"bias":-0.58370584,"weights":[0.20592368,-0.45663208,0.6653497,-0.14945638,0.4908489,0.15193832,0.49160492,-0.35996836,-0.5085966,0.74390364,0.845978,-0.4869606,-0.45930332,-0.48699754,-0.79371905,-0.8681166,-0.62970424,-0.3199765,0.022706866,-0.5126831,-0.47980183,0.6665187,-0.29316562,-0.7510915,-0.7366471,-0.54430026,0.008394837,0.98998547,-0.939723,-0.8039129]},{"bias":0.039473414,"weights":[0.03560531,0.040101886,0.1554991,-0.14055526,0.8670187,0.43860018,0.55037236,0.6586137,0.1355623,-0.5218658,-0.4658553,-0.06398761,-0.4003765,0.4830073,-0.1911248,0.50378966,0.89272475,-0.1729039,-0.96454597,0.82849216,-0.5632848,-0.4292397,0.25339115,0.48929155,-0.07337415,0.5587919,-0.4385187,-0.93228745,0.8779974,0.1190604]},{"bias":-0.32914466,"weights":[-0.36343879,-0.028508782,-0.4858758,-0.6596968,0.13728416,-0.5042717,0.76623726,0.93600845,-0.12583649,-0.126495,0.49229681,-0.09659135,0.20534718,0.6318691,-0.07033527,-0.7480786,-0.39934963,-0.2260772,0.7724769,-0.57485694,-0.87740755,0.7226727,-0.48620123,0.47791493,0.13177669,0.51779485,0.15942228,-0.019900441,-0.08201444,-0.3096494]},{"bias":-0.98652124,"weights":[-0.8463006,-0.30238098,0.8829644,-0.17586076,-0.5589103,-0.37722176,0.9190607,0.70657563,0.6747651,0.80814576,-0.6729796,0.56665206,-0.117970824,-0.16668427,0.35641396,-0.57355016,0.4101187,0.03589785,0.63165903,-0.22512424,-0.8059368,-0.80489755,0.9996383,-0.9665086,0.014539123,-0.9140811,-0.33033365,-0.4020242,-0.27657527,-0.8819792]},{"bias":-0.003504634,"weights":[0.081085324,0.24790537,-0.24006951,0.17835248,0.9882386,0.51376486,0.8874831,-0.6181125,0.44139254,-0.6358409,-0.5943255,-0.8487022,-0.26353496,-0.9882536,-0.8397143,0.58048177,-0.30928797,-0.89267445,0.8417077,-0.4485132,0.3061446,0.27381933,0.9867282,-0.92662024,-0.7643516,0.030973315,-0.43271965,-0.5474941,-0.046747327,-0.16041768]},{"bias":-0.13379109,"weights":[-0.9596946,0.61409545,-0.9747455,-0.27745122,0.860749,0.641865,0.9481077,-0.93853927,-0.8338392,-0.50064105,0.5861559,0.37954938,-0.48199362,0.19525325,0.37536156,-0.89766526,-0.81921625,0.52104855,-0.48650044,0.8026128,-0.20433652,-0.5453593,0.6627886,-0.89327693,-0.28541702,-0.26067942,0.7495346,0.5859828,0.78974175,-0.65674686]},{"bias":0.22765338,"weights":[0.03002274,-0.73835707,-0.717911,-0.1962434,0.02202499,0.036624312,0.4440354,-0.6988249,0.58142304,0.39180815,-0.8239448,0.32574785,-0.5801627,-0.77927375,-0.9273627,-0.3436424,-0.9929793,0.54656124,0.91399074,-0.7704685,0.50805426,0.40600646,-0.5593235,-0.49088877,0.2092973,-0.4802398,-0.85226154,-0.33666104,0.26543057,0.67215824]},{"bias":0.45378554,"weights":[0.60542536,0.7376573,-0.6632185,0.5858753,-0.5268864,0.010516524,0.11013234,0.87221146,0.8268616,0.42986643,-0.75892496,0.20801938,0.7313533,0.47925675,-0.86389923,-0.043436646,0.09977758,-0.3184728,-0.84667873,-0.3484971,-0.21523178,0.0000022649765,0.92245626,0.70535016,-0.42630094,0.6064713,0.0144046545,0.36288798,-0.28163666,-0.65215087]},{"bias":0.49177802,"weights":[0.4222237,-0.025441766,0.58004403,0.48679698,-0.8150649,0.514904,0.7345948,0.3955506,0.9124954,-0.22529042,0.601563,-0.9190097,0.6000252,-0.3095371,-0.98073435,0.6968646,0.02018845,0.68085957,0.0046516657,0.60012984,0.18988574,-0.7031455,0.4602102,0.35391033,0.086408496,0.020767331,-0.5457968,-0.08989513,0.9460616,0.3182119]},{"bias":0.8692372,"weights":[-0.59415144,-0.77054167,0.791795,0.120055795,0.4023162,-0.41329974,-0.11086595,0.5456145,0.73167753,-0.88953733,0.5923619,0.17187822,-0.1138345,-0.3441171,0.95651364,0.15261424,-0.1791848,-0.163391,0.42401016,-0.88869333,-0.8071332,0.30786026,0.55815697,0.17757118,-0.4090566,-0.69428945,0.33636987,-0.6503372,-0.084447265,0.14418757]}]},{"neurons":[{"bias":0.8274958,"weights":[0.6179223,0.3241216,-0.013659358,0.9992914,-0.8588135,0.061911464,0.25960314,0.13350856,0.30337632,0.030904174,-0.22981513,-0.91133213,-0.39533657,-0.058409333,0.6338198,0.49143922,0.96313834,-0.36722487,0.25921047,-0.22639287,0.83450246,-0.053309083,0.24021137,-0.8124511,-0.84039664,0.28363168,-0.30654448,0.6289308,0.38019383,0.24514186]}]}]}