{"layers":[{"neurons":[{"bias":-0.24500549,"weights":[0.48466694,-0.17038715,0.37850654,-0.8612988,-0.091129184,-0.26829928,-0.042913318,0.91168165,0.7478924,-0.17101395,0.044379354,-0.07401669,-0.24912274,-0.11871588,0.49432933,0.3556937,0.9020853,0.09509623,-0.7634587,-0.18533552,-0.87855315,-0.9865682,0.8152766,0.6703963,0.90998197,0.8652978,0.7182939,0.617625,-0.5326509,0.26044166]},{"bias":0.778373,"weights":[-0.07497227,0.42682636,-0.17240417,-0.7182014,0.5166812,-0.69734,-0.30096334,0.55270076,0.3920864,-0.22826111,-0.305165,0.93273664,-0.41955918,-0.77073336,0.37863386,-0.7305379,-0.6011283,0.066411614,0.3655275,0.33404052,0.36900842,-0.04309976,0.6327784,0.56286955,0.676708,-0.8140106,-0.5550787,0.5575707,0.62921476,0.5013349]},{"bias":-0.8368819,"weights":[-0.007783532,0.74901676,0.16098964,-0.1711613,-0.101839185,0.9718454,0.40860283,-0.7903743,-0.891521,0.027529597,0.6877439,-0.711581,0.36812246,0.6557057,0.11222589,0.7618916,-0.64367723,-0.8258281,-0.8426161,-0.91232896,-0.005558133,-0.28545707,-0.019337296,-0.2850806,0.2359122,0.6102729,-0.55955356,-0.03606999,0.7306719,0.60467815]},{"bias":0.8668413,"weights":[-0.5121493,-0.66480494,-0.87410593,-0.8911967,0.6164098,0.5268631,-0.8826344,0.48169053,0.75537014,-0.688792,-0.2512042,-0.22704518,-0.93955946,-0.45717663,-0.92717147,-0.10492051,-0.12354648,0.18033278,0.9110141,-0.9739449,0.7627268,0.49346817,0.09692514,-0.85721636,0.88726187,-0.97626686,-0.21911824,-0.6315403,-0.2943675,-0.08825624]},{"bias":0.69132066,"weights":[-0.7580869,-0.44684452,0.41224325,0.19506848,0.7905991,-0.6009137,-0.016579747,0.19669354,-0.66751194,0.3555144,-0.07657111,-0.84519124,0.3126098,-0.7817588,-0.4441175,0.17261088,-0.42922252,-0.99200416,0.5059738,0.20548737,0.9963479,0.036510587,0.40826452,0.23077619,-0.85025525,-0.06743133,-0.75178146,0.88813925,0.2313534,0.9558244]},{"bias":0.45009696,"weights":[0.4774865,-0.64604664,0.16221082,0.26575696,0.48196113,0.6767802,-0.6702862,-0.22377932,0.16383421,-0.60530037,0.25057566,0.35622084,0.11207545,0.16790092,-0.9041362,-0.7882035,0.32976115,0.41982496,0.6684246,-0.074671865,0.48993647,0.45002663,0.9336946,-0.08438933,-0.95591545,0.38605416,0.5065987,0.77763534,0.79564595,0.9481504]},{"bias":0.14527667,"weights":[0.04329002,0.3411721,0.10719669,0.5955622,-0.72284317,0.027968526,-0.5392396,0.50124073,-0.6307361,0.67140603,0.114353776,-0.5836789,-0.81384563,0.9371507,-0.7879503,0.50285316,-0.77669,-0.30983657,-0.39947313,0.09917176,0.2429682,-0.58311623,0.5189965,-0.59320706,0.88479924,-0.55653805,0.76621723,0.114008546,-0.9680877,0.6390774]},{"bias":-0.7309134,"weights":[-0.4338302,-0.9898095,0.8389325,0.85483575,0.37892282,0.987725,-0.46914428,0.34944713,0.8226497,-0.28408974,-0.20059597,0.9308238,-0.8590307,0.3404771,-0.029394984,-0.4673547,-0.05767286,0.8180566,0.5451796,0.8917506,0.6370392,-0.7132275,-0.83325267,0.4414972,-0.33805317,-0.550163,0.80052257,0.40179121,0.024196982,0.263842]},{"bias":-0.77443933,"weights":[0.7376883,-0.48535746,0.63961244,-0.49161166,0.63380146,-0.40283293,0.021546483,-0.48023242,-0.10312188,-0.40617675,-0.8206911,0.6041589,0.22649562,0.41921055,-0.38621634,-0.4573745,-0.5025105,0.11641228,-0.45848554,-0.7939961,-0.57753557,-0.71595097,-0.6121785,-0.7984824,-0.5863487,-0.92643213,0.59959555,-0.8503909,0.19790328,-0.7170918]},{"bias":0.039938807,"weights":[-0.8412125,-0.5527825,-0.28524846,0.1341244,-0.697284,-0.7171898,0.94347167,-0.56985754,0.29668748,0.82221746,-0.78364587,-0.88921785,0.8973775,-0.6666267,0.8971174,-0.69257116,-0.30051917,-0.13195097,0.83893013,0.60095763,-0.8169365,0.8915849,0.57261944,-0.5440764,0.40792406,-0.70193243,-0.8470416,-0.8121939,-0.36794013,0.5028384]},{"bias":0.866483,"weights":[-0.49101156,-0.7551255,0.119197965,-0.7044215,-0.8212073,-0.14619124,0.14982474,-0.03955114,-0.9363234,-0.6438017,-0.50164074,0.968035,-0.06824553,-0.97144485,-0.95512605,0.67093396,0.25310385,0.95895386,0.69438124,0.46216667,-0.0065027475,0.17309892,-0.5202903,0.84258866,-0.66541266,-0.8752675,0.4815191,-0.7601006,-0.7713921,-0.69672275]},{"bias":0.9875941,"weights":[-0.9696245,-0.83615136,0.8078997,0.10853398,-0.7356415,-0.58913606,-0.04843414,0.6237085,0.3101951,0.8777151,0.26916897,0.81800437,0.7453716,-0.1929332,0.9579575,0.48713005,-0.2725057,-0.96970725,0.95382476,0.39963186,0.45482767,0.3755046,0.30233943,-0.5205063,-0.74124575,0.19534075,0.7074051,-0.57698125,-0.25196332,-0.7734618]},{"bias":0.73834395,"weights":[-0.49227184,0.965544,0.8064952,-0.8914187,0.11302817,-0.77465653,0.5080297,0.93649745,0.20456493,0.010773301,0.27570426,0.78551984,-0.35241312,-0.8190298,-0.7328894,0.63347244,-0.52136177,0.042390704,-0.47103542,0.60343933,0.4810151,-0.7333567,0.2709936,-0.09318864,0.7889154,-0.43999642,0.30826104,-0.38740486,0.22121489,0.37428057]},{"bias":0.58005714,"weights":[-0.9728427,0.5451441,0.60293245,0.9964926,0.045464873,0.7737918,-0.34922212,-0.3709411,-0.21391022,-0.2096039,-0.2963826,-0.7685764,0.9962337,-0.2879948,0.44986808,-0.92252636,-0.34270114,-0.8391566,0.102434754,0.5369477,0.28854835,-0.81585574,0.12492502,0.56770134,-0.7057686,-0.8215151,0.61883116,0.011441588,-0.6002938,-0.6208498]},{"bias":0.8413243,"weights":[-0.6708181,0.68127966,-0.38441843,-0.28626174,-0.5785801,-0.5326211,0.44269,-0.02280581,0.4730388,0.0785259,-0.58527297,-0.037873387,-0.29844493,0.13156974,0.16226327,0.44707882,0.24257147,0.4820379,-0.20900428,0.8173404,-0.76460934,0.72858596,-0.1250087,-0.35032552,-0.9416833,-0.9644568,0.2817465,0.3214835,0.7490947,0.66534233]},{"bias":-0.10026562,"weights":[0.25227058,0.37040102,-0.084870696,0.8793459,-0.82806087,0.6407347,0.35542738,-0.7862344,-0.08583391,-0.37456745,0.7537272,0.25956953,-0.07812321,0.97613263,0.27165496,-0.5985064,0.75869584,0.052561402,-0.8160081,0.753031,0.3838905,0.14265907,-0.5640792,-0.37073487,0.42924988,0.28362167,-0.15241754,0.004394889,-0.8523638,0.37904418]},{"bias":-0.39302248,"weights":[-0.8327966,0.6050987,-0.96566343,-0.6081709,-0.5956518,-0.8499775,-0.36637038,-0.76691127,-0.7203839,-0.3458435,0.95904946,-0.16908538,0.13562095,0.53869104,0.44472563,0.063936114,0.7297163,-0.5028283,-0.24071467,-0.98619914,-0.053212762,-0.76452136,0.026363015,-0.7825737,-0.8979161,0.20301378,-0.4698109,-0.66347647,-0.5407054,-0.4140727]},{"bias":-0.2242645,"weights":[0.14363873,-0.804796,-0.5416538,-0.41891927,0.8960707,0.46089947,-0.3069846,-0.48919362,-0.3220448,0.49117124,-0.58274764,0.028037906,0.3810264,0.79639244,0.80605507,-0.6645932,-0.9880929,-0.78350806,0.44641793,0.055318236,-0.14899981,0.04209888,0.38986623,-0.05990088,-0.6374309,-0.37217206,0.62659216,-0.48573345,0.21370542,0.37776077]},{"bias":-0.27274555,"weights":[0.9249394,-0.32528394,0.37303555,0.12753522,-0.2394942,-0.32524866,-0.079153895,-0.7972057,-0.11358321,0.020987391,0.7555077,-0.59224266,0.38086784,0.8759837,0.23951995,0.5339844,0.0005491972,0.8385246,-0.29800385,-0.052844882,-0.75297093,0.21165264,0.04725039,-0.44863147,-0.9094298,0.21787798,0.7405691,0.7933564,0.82556677,-0.4222631]},{"bias":0.03131807,"weights":[-0.98196673,0.8695476,-0.85316324,-0.27017897,-0.6898916,0.79829407,0.21948802,0.08837712,0.22656286,0.28826368,-0.14918864,0.88502693,0.9880822,0.5402415,0.043346524,-0.7020657,-0.7435751,-0.7795203,-0.9315765,0.5626819,0.21595013,-0.16685688,0.52201223,0.4601649,-0.0026048422,-0.83685255,0.6909983,0.42167437,0.59233236,0.9302418]},{"bias":-0.90035725,"weights":[0.8935039,-0.25367182,0.71016836,0.756536,0.30204046,-0.40497535,-0.30529302,0.4004203,-0.056632876,-0.6633227,-0.68944645,-0.5669641,-0.79014707,-0.85532,0.15994823,-0.5308432,0.63871646,0.4172088,-0.020677924,0.39816272,-0.5774469,0.12958443,0.48164666,-0.4531197,-0.9721451,0.010914445,0.5639007,-0.13478315,-0.8471682,-0.39788502]},{"bias":0.51667833,"weights":[-0.4565851,-0.54153246,-0.06205213,0.6509578,-0.20720851,-0.18520772,0.09457171,-0.06076753,0.84263206,0.5485475,-0.9641483,-0.039437413,0.91393447,0.30784428,0.22173512,0.46334136,-0.5761294,-0.4445266,0.14431226,-0.44171828,0.38662064,0.7949445,-0.39437503,0.79203606,0.68967295,-0.5586428,0.98468685,-0.3017704,0.3265947,-0.9930577]},{"bias":-0.086342216,"weights":[0.8030026,0.18361366,-0.2546546,0.72308445,-0.9051368,0.7626338,0.717386,-0.9231763,0.8207984,0.9601295,-0.3006031,0.99343944,-0.2856347,-0.12396419,0.49240172,-0.9485357,-0.7744012,0.08969796,-0.42972225,-0.092511296,-0.7887614,-0.6421113,0.674773,-0.9842727,0.44337547,-0.14732993,-0.017787099,-0.17931926,-0.95923424,-0.9993818]},{"bias":0.22903335,"weights":[0.2421614,-0.26260537,-0.56356305,-0.3492381,-0.16354144,-0.1706227,-0.86671877,0.9348991,-0.3460161,0.8568859,0.5825851,-0.19192302,-0.5913276,-0.5908491,-0.14233482,-0.46085232,-0.28588837,0.3259939,0.39480603,0.80284095,-0.81183696,-0.9903889,0.41065872,-0.80554414,0.40485227,0.3869828,0.64909625,-0.04697025,0.0262748,-0.8910823]},{"bias":0.01098001,"weights":[-0.5721368,0.026318908,-0.976248,0.41690314,-0.3202216,-0.577465,0.8769498,-0.57466143,0.35818398,-0.51968735,0.14804423,0.941998,0.6014104,0.98504114,-0.16558802,0.5028639,-0.8530097,-0.8137231,-0.2898268,-0.5312149,-0.46453708,0.1930393,-0.46243352,-0.27346748,-0.5171148,-0.44584388,0.60257316,0.33584535,-0.39849418,-0.16935241]},{"bias":-0.04722917,"weights":[0.60502553,0.83065844,-0.8275044,0.49066222,0.64069223,0.8086841,-0.464621,0.55754876,0.7180655,-0.52281064,-0.64924264,-0.49233383,-0.857919,-0.31993073,-0.5243384,-0.6325283,0.84350824,0.7061403,0.5012653,0.7821288,0.8499198,-0.5712103,0.14289844,0.7490709,0.18760002,-0.6262796,0.5017493,0.35340393,-0.8825438,0.82760286]},{"bias":0.8251271,"weights":[-0.9722495,-0.43141264,0.8198197,0.38183677,0.4026729,-0.88276315,0.8271501,-0.30538052,0.30837834,0.59834695,-0.30673355,-0.9279177,-0.8435972,0.66067195,0.66033435,-0.4255473,0.90843344,0.5297382,0.22379196,-0.007302165,-0.5593342,0.7169323,-0.73487616,-0.15888703,0.44985926,0.45027268,-0.23882806,-0.92381096,0.86282325,0.66554093]},{"bias":-0.004618287,"weights":[-0.5646214,0.21893561,0.3586439,0.22979653,0.41482055,-0.3848328,0.3168198,-0.9424491,-0.5302767,-0.8428652,-0.27050704,-0.0020688772,0.9248717,-0.095930696,0.91834164,0.7347069,-0.5934393,0.7609649,-0.5988893,0.4074856,-0.03961146,0.37842858,-0.7387252,-0.72258806,0.46250522,0.68692327,0.28501332,0.71815157,-0.8602762,-0.52701634]},{"bias":0.47058284,"weights":[0.90943575,0.79615283,-0.5102801,0.75275564,-0.020775437,-0.50204414,-0.81846285,0.95627093,-0.08995879,-0.03206575,0.8257165,0.038428187,0.9747472,-0.92390513,0.046812177,-0.059800506,0.47861278,-0.40740937,0.8877523,0.4153496,-0.5254056,-0.31626838,-0.34177917,-0.11474788,0.25433624,-0.038321614,-0.3550555,-0.27738732,0.869941,0.62035537]},{"bias":-0.10439193,"weights":[0.8724427,-0.5515458,-0.24479496,-0.031578183,-0.9257479,0.5675268,-0.7821629,0.51435995,0.47861493,0.12385929,0.65503025,0.89764905,0.18633378,0.25717866,0.80396247,0.97426987,-0.39367026,-0.2267741,-0.9200647,-0.030988812,0.41059625,-0.83775806,0.053853154,-0.31819052,-0.64430094,-0.1456753,0.39878142,-0.1227926,-0.45459288,-0.9580648]}]},{"neurons":[{"bias":-0.6207475,"weights":[0.21868455,0.83471274,-0.9060254,0.06946123,-0.8646159,0.5408313,-0.74734116,-0.53065175,-0.70855236,0.42056072,0.5324569,0.53279305,-0.032990098,0.95523787,0.41680515,-0.5321786,0.38834727,0.9319477,0.42448652,0.302019,-0.17953074,-0.9779172,0.85886765,0.2872423,0.23183262,-0.067678094,0.43821204,0.49759686,0.7028854,0.13937843]}]}]}