{"layers":[{"neurons":[{"bias":-0.7017305,"weights":[-0.34077734,0.38000023,0.85800004,-0.3360991,0.7889645,-0.24910176,-0.16936839,-0.630975,0.050249457,-0.22050154,0.7726643,-0.03172791,-0.46498746,-0.30341977,0.80291176,-0.30665296,0.24637759,-0.00086319447,-0.49868435,-0.21416342,-0.98957014,0.98026633,0.75006366,0.6703963,0.3191148,0.8652978,0.9238136,-0.57290214,0.1283871,0.14256608]},{"bias":-0.61968774,"weights":[-0.07497227,0.7984512,-0.9850662,-0.7525041,0.82618,-0.89010763,-0.30096334,-0.7476449,-0.10410559,0.31232965,-0.10225856,0.93273664,-0.34737247,0.5911763,0.36164224,-0.490241,0.6646056,0.066411614,0.97421455,0.9828539,0.6257925,-0.33336872,0.7930074,0.07668507,0.7068794,0.7315514,-0.48533362,-0.6997652,-0.8084786,-0.1353153]},{"bias":0.051438212,"weights":[-0.87079763,-0.17798531,0.49887097,-0.2524659,-0.9435699,-0.6946335,0.8736727,0.95546484,-0.8110354,-0.702785,0.5304251,-0.0070465803,0.7935176,-0.3095345,-0.37798494,-0.58514065,0.92098045,-0.49960512,0.316023,-0.91232896,-0.16042578,0.8378093,0.91546845,0.5917387,-0.5611493,-0.71124625,0.262051,0.9602425,0.65479803,0.63636446]},{"bias":0.18857563,"weights":[-0.5121493,0.47996175,-0.87883043,0.8213172,0.6164098,-0.9777827,0.3244506,0.23952973,0.834563,-0.52002233,-0.008298516,0.17667949,0.7809005,0.2980677,0.89258766,-0.10492051,0.6107328,0.670156,-0.9460902,0.8484583,0.07635844,-0.91631436,-0.63505816,-0.6134855,-0.49409026,0.343732,0.9762032,-0.14834201,-0.41419452,-0.6080672]},{"bias":-0.020002723,"weights":[0.55856085,-0.5061535,0.050463796,-0.7136953,0.73401713,0.8480897,-0.016579747,0.3204707,0.9947405,-0.3969192,-0.06752765,0.1277138,0.93349814,-0.5431556,0.81737804,0.21707475,-0.51268643,-0.71930957,-0.93771625,0.29792964,-0.1685487,0.8346791,0.37518442,-0.65934706,0.13000286,-0.46327466,-0.0057371855,-0.6003544,0.2313534,-0.29730362]},{"bias":0.013625264,"weights":[0.39736474,-0.4064898,0.52806735,0.8080046,-0.27662796,0.99925256,-0.21165383,-0.8667717,0.26081908,0.45849717,0.55452013,-0.37580746,-0.22964895,-0.9750521,0.678442,0.95213556,0.95293236,-0.014707446,-0.37261146,-0.15275848,0.432541,-0.029686332,-0.20417202,-0.28386253,0.44205368,0.102023005,-0.9509835,-0.27618045,-0.25310653,0.24605405]},{"bias":-0.55443424,"weights":[-0.756773,0.040784717,-0.97768474,0.5955622,0.39984334,0.10719025,-0.5392396,0.4660691,-0.6307361,-0.7820027,0.86353564,-0.5836789,-0.15021122,0.2776934,0.474182,0.50285316,-0.77669,0.6260085,-0.095669866,0.79191947,0.56791496,-0.16490042,-0.35290164,0.3501681,-0.08348167,-0.62071675,-0.72018695,-0.33447355,-0.7507715,-0.6370878]},{"bias":-0.051983714,"weights":[-0.50342077,-0.9898095,-0.17290604,0.85483575,0.47492564,-0.55608624,-0.029225469,-0.5096819,0.9815495,-0.12885368,-0.692631,-0.95130587,0.24768269,0.18060362,0.5765414,0.119276404,0.099175334,-0.48624438,0.064722896,-0.8692517,0.5426855,0.13894999,-0.83325267,-0.62105054,-0.6100659,-0.66646767,0.75327444,0.5277097,-0.29902953,-0.7024107]},{"bias":0.85267806,"weights":[-0.12428677,-0.36369938,0.66841626,0.21962535,-0.1522764,-0.08995879,0.021546483,0.63888955,-0.12668908,-0.90765667,0.7656493,0.6041589,-0.843565,0.7341337,-0.41037196,0.8433416,-0.71381617,0.9371884,-0.45848554,-0.31762785,0.0068267584,0.88406444,0.72203255,-0.23241222,0.03531134,0.8217623,0.59959555,-0.49729937,-0.11036241,0.42227423]},{"bias":-0.51291126,"weights":[-0.9553759,-0.8390696,-0.546622,-0.8568454,-0.697284,0.78610873,-0.95098686,-0.12067282,0.5991299,0.82221746,-0.306179,-0.33319777,-0.57482475,-0.5272898,0.54910254,-0.23241723,-0.64536643,0.0796963,0.83893013,-0.5406162,0.061244607,-0.21165168,-0.2809791,-0.46684974,0.40792406,-0.9653461,0.102464795,0.8799815,-0.36794013,0.59686065]},{"bias":0.866483,"weights":[0.8535557,0.93403435,0.119197965,-0.7044215,-0.8212073,-0.14619124,-0.33589667,-0.6797135,0.78468156,0.36259496,0.23451126,0.9428072,0.9143441,0.8373532,-0.2541799,0.8515878,-0.005940318,-0.32649487,0.37820756,0.82547235,-0.0065027475,0.3328296,0.56816316,0.6215148,0.45210803,-0.8752675,0.28050244,-0.31446213,0.9075074,0.80092645]},{"bias":0.25092113,"weights":[-0.5040347,-0.83615136,0.6398759,-0.23280132,-0.6533823,0.993135,0.06789911,0.51045036,0.3101951,0.9438069,-0.033764243,-0.3981704,-0.15594852,-0.6184973,0.56278634,-0.18774855,0.8647723,-0.96970725,0.8080969,0.8703456,-0.4266736,0.7406373,-0.26918644,-0.68859076,-0.8763685,-0.2102195,-0.9882114,0.53518224,-0.6457145,0.36547935]},{"bias":-0.9757991,"weights":[-0.49227184,0.026221871,-0.43642467,0.807302,-0.65397406,0.8077295,-0.013955474,0.93649745,0.5187926,-0.5046317,0.27570426,-0.3174078,-0.5811407,-0.40374774,0.16834891,0.9749317,0.58769274,0.50296545,0.054495454,-0.4822194,0.4810151,-0.030810952,-0.41484684,-0.95422983,0.28899467,0.54242134,0.5196123,-0.55571693,-0.5278742,-0.39189094]},{"bias":0.069542766,"weights":[-0.9728427,-0.03677261,0.49611962,0.9939287,0.8378613,0.7737918,-0.7523298,0.24458683,-0.4944772,0.41380155,0.44630563,0.62125874,-0.52422017,-0.49615496,-0.76897025,0.44218194,0.2624246,-0.8391566,-0.8007932,-0.96343017,0.8611009,0.07231486,-0.8023796,-0.24902833,0.7251158,-0.22221243,0.61883116,0.011441588,-0.25147814,0.4628514]},{"bias":0.8212042,"weights":[-0.6708181,-0.3774423,0.27065623,0.5202899,-0.7263539,-0.4666714,-0.36806387,-0.628567,-0.9151912,-0.33537668,0.30451334,0.8122101,0.9779308,0.8160994,0.1144284,-0.8828137,-0.7091372,-0.7211168,-0.03945124,0.61236477,0.23954856,0.8724997,0.30641973,0.5939646,-0.9530773,-0.9031985,0.13453948,-0.7590468,-0.7656026,0.07351053]},{"bias":-0.5462348,"weights":[-0.8509698,0.37040102,0.16153419,0.59214664,-0.48589104,0.6407347,-0.32935423,0.18742144,-0.9014971,-0.41973394,0.67460847,-0.55534357,-0.7784116,-0.54568404,-0.1201247,-0.4918303,-0.3449387,0.089817405,0.22992122,-0.66055536,0.8777268,0.8064077,0.15908301,-0.37073487,0.42924988,0.014824748,-0.15241754,-0.9422002,-0.20266664,-0.5537519]},{"bias":-0.9016738,"weights":[0.23671472,0.6050987,0.66110516,0.79529166,0.37561357,-0.06125295,0.2685045,0.29785192,0.7963755,-0.78120756,-0.29425353,-0.3984031,-0.6702287,-0.6355729,-0.80705357,0.8142164,0.48886216,-0.69430065,-0.24071467,-0.8409209,-0.018424392,-0.6022474,-0.28618187,-0.9868798,-0.28542703,0.9215698,-0.95621705,0.8665054,-0.89998484,-0.6831324]},{"bias":0.8718703,"weights":[0.14993632,-0.26574486,0.8286934,-0.41891927,-0.5579993,-0.9612801,-0.747617,-0.6208045,0.92729855,-0.6650243,-0.9580064,0.33385098,0.13524139,0.6266954,-0.8972831,-0.31641597,-0.97903895,-0.19534743,0.1913768,0.7761445,0.5095091,-0.17955458,-0.7585547,0.09219158,0.10716641,-0.38677686,0.43327892,-0.48573345,0.74492526,0.8919363]},{"bias":-0.2280854,"weights":[-0.35870093,-0.26088852,-0.2737469,0.19664466,0.10259974,0.63293386,-0.7236893,-0.2311672,0.7019818,0.020987391,0.39700258,-0.1395415,0.24467313,0.8759837,-0.7433145,0.807827,0.99776936,-0.7345631,0.16129649,-0.22785318,-0.75297093,0.23855746,0.718894,-0.76223445,-0.61538476,0.07652819,0.7405691,0.5455959,0.82556677,-0.4222631]},{"bias":0.30623925,"weights":[-0.98196673,-0.96773076,0.102373004,-0.27017897,0.4392246,0.675622,-0.005995393,-0.6898546,0.6684592,0.28826368,0.659343,-0.94506335,-0.79833794,0.53140736,0.22318995,0.91576385,0.6904228,0.7477355,0.6172807,0.5626819,0.8859632,0.9374492,-0.4261014,-0.13952553,0.0822953,-0.83685255,-0.31299943,-0.9517782,-0.43484157,-0.94649816]},{"bias":-0.0011140108,"weights":[0.61127305,-0.25466746,0.70674634,0.5102296,-0.24303257,-0.3411433,0.08621585,0.82767487,-0.5750608,0.88198733,0.2737645,-0.90677714,-0.8149507,-0.3967511,0.15994823,-0.55063266,0.70419955,-0.16155088,0.69671464,-0.80759096,-0.5774469,-0.64275646,-0.9964225,0.06852877,-0.35413522,-0.2670092,0.5639007,0.62496734,0.34257686,0.5719862]},{"bias":0.06572449,"weights":[0.28234208,-0.13851273,-0.6400256,0.33528602,0.27936137,-0.11105573,0.7043152,-0.7760446,-0.82910347,0.35686862,0.09306228,0.6097014,0.7566216,0.30784428,0.5959232,-0.12440646,0.41140926,-0.05190265,-0.33452052,-0.44171828,-0.84679985,0.8094449,0.03703153,0.04827416,0.94542074,-0.5586428,-0.07829416,-0.7884979,-0.27382272,-0.25843996]},{"bias":-0.086342216,"weights":[0.7646978,-0.25673407,-0.2546546,-0.15698564,0.39050162,0.22113931,-0.9861553,-0.25182146,-0.06956279,-0.60691494,-0.37341398,-0.78058195,0.13658297,-0.6246385,0.14315188,-0.9485357,0.20365083,-0.33129805,-0.37227386,-0.580038,-0.8515539,0.97117543,0.054656386,-0.3405699,-0.9432409,0.8042152,0.5713084,0.6722994,-0.26921672,0.33136785]},{"bias":-0.4042768,"weights":[0.2421614,-0.26260537,-0.6625383,-0.6986749,0.5698304,-0.19845116,-0.15410101,0.21533334,0.77568865,0.54104996,0.40196073,-0.96828747,-0.24447405,-0.22573364,-0.26474112,-0.38289922,-0.4849493,-0.33738297,0.42123115,0.64657044,0.25843775,0.38476956,-0.040985227,-0.7189491,0.85305214,-0.5309953,0.8533876,-0.98436356,0.46904504,-0.5715491]},{"bias":0.5155723,"weights":[-0.5721368,0.026318908,-0.976248,0.22145855,-0.010406375,-0.27023906,-0.21545136,-0.03475368,0.6015284,0.98836637,0.53757405,0.941998,0.8558819,0.25463545,0.47547686,0.8986161,0.5508919,-0.28639668,-0.91902184,0.39864194,-0.5066113,0.12156761,-0.62482446,0.65347123,0.43998158,-0.4013185,0.60257316,-0.8564718,-0.30507153,-0.98224163]},{"bias":-0.04722917,"weights":[0.60502553,-0.7681563,-0.8275044,-0.061746,-0.112246394,0.46248806,-0.49600118,-0.8471248,0.80566216,-0.17006552,-0.04277599,0.01616013,0.6368463,0.39598024,0.7842846,0.09113085,0.9567647,-0.13465917,-0.6689589,-0.2891342,0.9658799,-0.40134257,0.020959496,0.005907893,0.28255785,0.15279663,-0.92298126,0.3123623,-0.7188685,-0.2330097]},{"bias":0.9167259,"weights":[-0.35710043,-0.6784861,-0.8549659,-0.6990466,-0.2928447,-0.88276315,0.44274437,-0.2898211,0.30837834,0.95762897,0.0068205595,0.6842022,0.9762776,-0.059577584,-0.7954993,0.7657745,0.7954128,-0.7690313,0.4283737,-0.84707046,-0.66122127,-0.68287206,-0.28534883,0.9880762,0.03068006,-0.57279533,0.20568764,0.7557757,-0.6638038,-0.9462781]},{"bias":0.7074797,"weights":[0.51295185,0.15227854,0.33523405,-0.21865594,-0.87504864,0.33589375,-0.6744492,0.40709388,-0.53857726,-0.08206141,-0.8127396,0.59008145,-0.34087485,-0.9895828,-0.12528217,-0.11859834,0.8718302,0.50649476,0.6862838,0.570117,0.7737069,0.18732607,0.531373,0.8574767,0.7707112,-0.40403813,-0.8300605,0.5411515,0.78424263,-0.52701634]},{"bias":0.47058284,"weights":[-0.16353762,0.79615283,-0.4536969,-0.92106843,-0.6172406,-0.50204414,-0.8182211,-0.26717275,0.55889416,0.293934,0.9623256,0.88199735,-0.78306365,0.9491186,0.88588667,-0.8935089,-0.42563003,0.171507,-0.9916148,-0.5493452,0.9485438,0.56196666,-0.69545174,0.5146723,0.43225467,-0.24710739,0.094426274,0.61270595,-0.64428306,0.48410523]},{"bias":0.20696795,"weights":[-0.31638426,-0.20926297,-0.059875846,-0.26503295,-0.5837144,-0.62476224,0.34786737,-0.6985271,-0.7751415,0.8533642,0.86923933,-0.8496506,0.23960817,0.66698074,-0.9881818,0.6778815,0.94086194,0.8617544,0.26708972,0.9358177,0.04993832,-0.023524165,-0.078848004,-0.25799865,-0.64430094,-0.8857198,0.39878142,0.98235464,0.692183,-0.27907652]}]},{"neurons":[{"bias":-0.20452821,"weights":[0.21868455,0.55361223,0.9205935,0.06946123,0.5152745,0.54734683,-0.24319899,-0.34950274,0.37785256,0.09649503,0.095817685,0.9406879,0.8741021,0.5239432,0.28242218,-0.035202384,-0.47644776,0.8321495,-0.53358287,0.4897319,-0.17953074,0.06966913,0.71878123,-0.5725748,0.82457066,-0.067678094,0.78543115,0.49759686,0.027065873,-0.24831712]}]}]}