{"layers":[{"neurons":[{"bias":0.95674014,"weights":[-0.48160952,-0.099176526,0.4078933,0.59984255,0.6118002,-0.6132006,-0.11062276,-0.0100620985,-0.97543216,-0.9479549,-0.5065457,-0.03172791,-0.023470283,-0.72629285,-0.10298383,0.626081,0.060804725,0.5853684,0.97536826,0.18567741,0.73501515,-0.6284766,0.75006366,-0.49965733,-0.047575593,0.79094815,-0.08133018,0.6710689,0.82463336,-0.46690124]},{"bias":-0.9973793,"weights":[-0.3324961,0.6455023,-0.7930198,0.20306599,0.42602432,-0.112216115,-0.08393109,0.8673959,0.39943063,0.3640982,-0.5298061,0.0049027205,-0.20855677,-0.20743692,0.42996824,0.33463466,0.36104357,-0.7982249,-0.14068592,-0.45437735,-0.2193929,0.21684086,0.75835633,0.55004215,-0.10288942,-0.7316985,0.78425217,0.9728539,-0.4704141,-0.8923688]},{"bias":0.051438212,"weights":[0.74334097,0.8362732,-0.45993012,0.009971499,-0.14690483,-0.61653966,0.83343196,0.7798965,0.74918056,0.0040904284,0.6326988,-0.91724324,-0.6938796,0.48521125,0.29218328,-0.2739529,0.41075575,-0.44495314,-0.309303,-0.27791756,0.6566584,0.9352071,0.7059562,0.8745148,0.15366042,0.62138414,0.262051,0.9002714,0.7861669,0.46951306]},{"bias":-0.95602155,"weights":[-0.80118155,0.8295779,0.4819883,0.8213172,0.6164098,0.8007672,0.4200791,0.026642203,0.97559166,0.17404711,0.10178554,0.87239265,-0.52442044,-0.44118398,0.89258766,-0.28075713,0.6107328,0.670156,0.769783,-0.3206274,-0.16980016,-0.2701344,0.04384911,0.54459834,0.55922484,0.53248,0.5608661,0.3742932,-0.41419452,-0.19204295]},{"bias":0.032329917,"weights":[0.6991677,0.3179072,-0.018238664,0.3431779,0.11560762,0.58472824,0.41713917,0.9634845,0.9947405,0.4231385,-0.12587774,0.1277138,0.67709494,-0.9195833,0.81737804,0.8431809,0.32930076,0.8358829,-0.9282048,-0.3520841,-0.8781016,0.16641653,0.30377042,0.8122883,-0.9358852,-0.19304359,0.7644775,-0.9110837,0.5539348,0.08194506]},{"bias":-0.13369596,"weights":[0.85204935,-0.2450465,-0.3340611,-0.13683832,-0.5631537,0.050386548,0.31909263,-0.9037595,0.26081908,0.076942086,-0.15705311,-0.8286545,-0.66126585,0.44960105,-0.88151455,0.82508326,-0.6639979,0.43083942,-0.37261146,0.16606486,-0.74810934,-0.7114985,-0.7915716,-0.28386253,0.06140554,0.07317746,0.52328825,0.9207914,0.83736944,0.7039776]},{"bias":-0.090485215,"weights":[-0.756773,-0.15013134,-0.44960994,-0.20990598,-0.8851173,0.5188489,0.8790555,0.2133969,0.5950575,0.15619028,-0.49986976,0.72055626,-0.21558893,-0.30152005,0.474182,-0.5296342,-0.511996,-0.95242524,0.5922451,0.3516277,-0.10115111,-0.67751074,-0.10420549,0.44248402,0.7828841,0.6907971,-0.72018695,0.5528667,0.15740883,-0.504152]},{"bias":0.6786504,"weights":[0.95989776,-0.9898095,-0.38720697,0.85483575,0.17542946,-0.7942648,-0.29087514,0.62767434,0.15717566,0.33897173,0.9776077,-0.95130587,0.28731573,0.15747797,-0.1297425,-0.32377452,0.8672545,-0.17254055,-0.01530683,-0.069785,0.96364903,0.10053623,-0.071226,0.84721947,-0.6875839,-0.3291828,0.9820733,-0.14485085,-0.29902953,-0.033432364]},{"bias":-0.25516886,"weights":[-0.12428677,-0.06441963,0.44833004,0.24549997,-0.72279406,-0.08995879,0.035824656,-0.9055731,0.40967047,0.95635533,0.7747352,0.22196567,-0.41600436,-0.7678454,-0.24886954,0.8433416,-0.7436807,-0.027646184,-0.37827414,-0.02391684,0.0068267584,0.88406444,-0.87836766,-0.20524633,0.03531134,-0.7837689,0.70366716,-0.87802315,0.76482487,-0.3128547]},{"bias":-0.695678,"weights":[-0.5900962,0.9553349,0.61441994,-0.8568454,-0.697284,0.20865381,-0.34101027,-0.87212276,-0.8041086,-0.29803723,0.53966284,0.578918,-0.6374726,0.6571648,-0.06445682,-0.7872746,-0.26523608,0.0796963,0.26705587,0.7399194,-0.44218773,-0.553863,-0.34481138,0.46894205,0.23887408,0.17301667,-0.8568864,-0.70038295,0.5226042,0.59686065]},{"bias":0.7431493,"weights":[-0.6215331,-0.11524165,0.09450853,-0.77589655,0.71582913,-0.14619124,0.83769155,-0.3589725,-0.5703215,-0.06550658,0.058239102,0.9428072,0.25010788,0.92303705,0.7472732,0.5009315,-0.72142076,-0.9867842,-0.881449,0.13772476,-0.17265332,-0.36394876,0.56816316,-0.476525,-0.1349088,0.3880335,0.39450586,-0.31446213,0.5013623,-0.8830488]},{"bias":0.7677431,"weights":[-0.5040347,0.5649333,0.6379156,-0.23280132,-0.62375563,-0.23654616,-0.9902847,0.31484115,0.3102826,-0.04245937,-0.9234967,-0.8520584,0.47274745,0.3703891,0.56278634,-0.94899154,-0.7644,-0.09037793,0.7384057,-0.4529783,-0.1448034,0.050865054,-0.8243482,0.06845796,0.10447919,-0.2102195,0.6792557,-0.074962735,-0.04568112,0.22036397]},{"bias":0.836154,"weights":[-0.901531,0.5583725,0.30069387,-0.59656924,-0.8858619,-0.8856616,-0.89486694,-0.51429194,-0.027663589,-0.2541136,0.38099444,-0.7921252,-0.091642976,0.4206525,-0.8143461,-0.9523196,-0.01452291,-0.9943087,-0.76157093,0.13164747,0.56678987,-0.77729917,0.57340693,-0.04458368,0.23135078,0.16619718,0.9320142,-0.55571693,0.715791,-0.40496343]},{"bias":-0.10726011,"weights":[-0.26478475,0.18275583,0.5089643,0.7959995,0.64815354,-0.27710003,0.656235,-0.6124961,0.6003063,-0.47051734,0.32073438,0.6494458,-0.26860684,-0.7155478,0.33121526,0.6953223,-0.30639666,-0.66090035,0.3271066,-0.6980581,-0.00019013882,-0.59875625,0.6578424,0.059508443,0.06995976,-0.33654708,-0.35835093,0.81107545,-0.26191133,0.31507885]},{"bias":0.8212042,"weights":[-0.6708181,-0.3774423,-0.94212437,0.8828573,-0.97173405,0.9305093,-0.92957115,0.23216784,0.22858989,0.20540845,0.1483494,0.9772186,-0.6234407,0.1596626,0.7315488,0.7948532,0.2116009,0.977371,0.024908423,-0.16419661,0.08050001,0.8724997,0.49991214,0.06361973,-0.16190088,-0.9031985,-0.7077961,-0.5702645,-0.8138051,0.07351053]},{"bias":-0.5462348,"weights":[-0.50608987,-0.15789187,0.16153419,-0.9546249,-0.09630835,0.12973702,-0.32935423,0.42862785,0.30931985,-0.5743045,-0.54405135,0.7242644,0.112627864,-0.9492707,0.49195325,-0.056856036,0.3539492,-0.26239866,-0.6953125,-0.2051152,-0.98709536,-0.43400902,-0.15693414,0.062485576,-0.40635937,0.7976289,0.4844817,-0.020616174,0.15402591,-0.41119355]},{"bias":-0.45404714,"weights":[0.10108483,0.6050987,-0.6943979,0.08683908,0.36599958,-0.68765664,-0.17545307,-0.73893785,0.8850038,-0.6073441,0.7171786,-0.59043354,-0.8565643,0.39761913,-0.71502614,0.6529474,-0.7802119,-0.11948764,-0.7296643,0.5830331,-0.24830592,0.09514153,0.89203644,0.92705727,-0.7873955,0.9215698,-0.95621705,0.09031689,0.6549771,-0.6831324]},{"bias":0.86941195,"weights":[0.95440817,0.49284685,0.9387903,-0.41891927,0.83519363,0.25457108,0.21019447,-0.31232256,-0.2369901,-0.60842985,-0.7944813,0.24045956,0.13524139,-0.25050324,-0.3637275,0.015636802,0.7090063,0.26878393,0.25435102,0.7761445,0.5095091,0.23177063,0.49391568,0.25672185,0.9951153,-0.39841813,-0.8009095,-0.208866,0.74492526,-0.7276442]},{"bias":-0.8370533,"weights":[0.24117482,-0.552726,-0.054185033,-0.41030592,-0.5138294,-0.40247482,0.16327035,0.8169744,-0.272618,0.48805368,-0.52221864,0.32997453,0.3763889,0.93831944,-0.08278501,0.9100864,0.99776936,0.89379525,0.98308396,-0.8011174,-0.24894536,0.028190732,-0.92711544,-0.76223445,-0.27473396,0.07652819,-0.72831917,0.25049436,0.3835603,-0.4222631]},{"bias":0.43031442,"weights":[-0.98196673,0.8007796,0.23385823,-0.76233244,0.21050751,0.6737511,0.93085194,0.9668195,0.82726574,0.3835851,-0.40840143,0.41742837,0.18949044,0.9063015,-0.4740016,0.015431523,0.6904228,0.0741421,-0.34739012,-0.34105867,-0.49816507,-0.22438109,-0.4261014,0.94296384,0.65451026,0.3007394,0.30956876,0.18498218,0.14760768,0.08693516]},{"bias":0.57633185,"weights":[0.9868698,0.36770833,0.3846103,-0.4292788,-0.3417043,-0.3411433,0.9016578,0.46037138,0.07407224,0.26900423,-0.9727955,0.014913201,-0.067165494,-0.0036092997,-0.6058101,0.309641,0.33528626,-0.9771893,-0.13289893,0.7132981,0.80158234,0.19624817,-0.036714196,-0.28839105,0.61109877,-0.78014016,0.25963342,-0.56038755,-0.7434914,0.4524907]},{"bias":-0.2856757,"weights":[0.5346761,-0.70274067,-0.6400256,0.21837437,0.7401509,0.4177493,0.13348639,0.6700616,-0.9476805,0.35686862,0.6852658,0.71405625,-0.33354014,-0.5552828,-0.58753127,-0.07993591,-0.62706614,-0.66268635,-0.83414674,0.7515795,-0.11745608,0.4186126,-0.6016268,-0.098055005,-0.7321379,-0.5586428,0.928401,-0.0996896,0.58200955,0.13614309]},{"bias":0.22515213,"weights":[0.9610491,0.30799925,0.2979666,0.18822348,-0.1571759,-0.12662804,-0.1241318,0.9386711,0.91523004,0.59180427,0.24716413,-0.24048746,0.36223185,0.6506541,-0.26413792,-0.9485357,-0.8792212,-0.33129805,0.24395812,0.8479769,-0.8515539,0.16248548,0.054656386,-0.046476483,-0.75831485,-0.8366039,0.51415944,-0.88030005,0.2414428,-0.34558934]},{"bias":-0.39473647,"weights":[0.006070018,-0.42353958,-0.05935633,-0.3593802,0.80701876,-0.5737876,-0.35151142,-0.21171224,0.77568865,0.053243995,-0.9955127,-0.9631965,-0.8127184,-0.22573364,-0.15500796,-0.38289922,-0.81286097,-0.26178735,-0.30014652,0.98349,-0.49755543,-0.17190611,-0.19580829,0.4556135,0.8442621,0.82716584,0.061457753,-0.33907717,0.70037913,0.42359817]},{"bias":-0.7575629,"weights":[-0.6225702,0.64302206,-0.13819468,0.14059198,0.55086136,-0.45906228,-0.3623845,0.7078843,0.77018166,-0.82664466,0.745306,0.9768019,-0.61409634,-0.7999947,-0.6861923,0.11842954,0.6059778,0.18684828,-0.43501157,0.3178519,0.27606452,0.44485152,-0.25872892,0.27351177,-0.74020076,-0.4013185,0.8210087,-0.79030514,-0.9506514,-0.92158294]},{"bias":0.8454938,"weights":[0.60502553,-0.7681563,0.8720207,0.12404144,-0.05789244,0.27874196,-0.33110374,0.14832652,0.54356456,0.1436919,-0.96964884,0.01616013,-0.20997202,0.39598024,-0.6295576,-0.6917877,-0.8859067,0.2868005,0.9337263,-0.57002276,-0.7150831,-0.40134257,0.91689944,-0.4994337,-0.66961575,0.13287294,-0.92298126,-0.3743047,-0.7188685,-0.5340416]},{"bias":-0.57883805,"weights":[-0.11162722,0.040591836,-0.5295109,0.15279067,0.4545647,-0.21532166,0.18461215,0.84368706,-0.48640507,0.13553464,0.3060137,-0.643816,-0.15859306,-0.39255852,-0.96448636,-0.42003173,0.9394064,-0.31253427,0.2753724,0.14004529,-0.6264603,-0.034274936,-0.11654699,-0.43578285,0.7342508,0.042084813,-0.93071413,0.58739734,0.17210734,-0.48668402]},{"bias":-0.29448408,"weights":[0.5468588,-0.19920719,0.33523405,-0.027914405,0.28182805,-0.7682686,0.98065734,-0.37509197,0.68510914,0.61606646,0.020083785,-0.72344565,0.20939505,0.51553273,-0.4032032,0.11978376,0.6038451,-0.05739367,-0.9273875,-0.5661554,0.03815019,0.87583923,-0.96489835,0.3026353,0.7658007,-0.40403813,0.008328319,0.5448091,-0.43236655,0.0035067797]},{"bias":0.028789878,"weights":[0.37706244,0.6102116,0.97596884,0.4398216,-0.6689689,0.0210222,-0.9560721,-0.9639213,0.9236088,0.293934,0.9623256,-0.8566766,0.64469886,0.84581614,0.80380607,-0.8935089,-0.42563003,0.58784294,-0.9087148,-0.5493452,-0.26540273,-0.26307768,-0.41743726,0.62526965,0.0574497,-0.24710739,-0.44719642,0.57733035,-0.50477666,-0.5644695]},{"bias":0.89594793,"weights":[-0.45393795,0.6620662,-0.6548984,0.9287596,-0.213611,0.24428833,-0.27034897,-0.3545627,-0.7751415,0.0008660555,0.60943484,0.16474283,0.43403566,0.66698074,0.97189736,-0.52909964,-0.681067,0.8617544,-0.30737394,0.13801754,0.04993832,0.2074269,-0.2555563,-0.33229202,0.3222326,0.99859476,-0.37369102,0.14214861,0.17929494,-0.27907652]}]},{"neurons":[{"bias":-0.20452821,"weights":[0.021187901,-0.49250573,0.5312841,0.2671317,0.5152745,-0.2959134,0.61456037,-0.14126599,-0.4569468,0.1998378,0.095817685,-0.9888606,-0.7481985,0.07064736,0.9400408,-0.035202384,-0.71536946,0.8043933,0.75771284,0.6299565,-0.6763003,-0.6177487,-0.5663387,-0.5725748,0.82457066,0.46200097,-0.41341823,-0.5012116,-0.65268683,-0.066615224]}]}]}