{"layers":[{"neurons":[{"bias":0.23244894,"weights":[0.9824276,-0.09258711,-0.470159,0.36239326,0.51326275,0.5898099,-0.49012798,-0.31591147,-0.061398387,0.56610465,0.7599504,0.8797581,0.80982494,0.28933108,-0.9859381,0.4017223,-0.24659741,-0.13097346,0.6988685,-0.9558828,-0.8463433,0.0023247004,-0.13211167,-0.034805655,0.007355094,-0.42929476,0.12727511,0.36006272,0.1904248,0.57716894]},{"bias":0.59605694,"weights":[0.3518778,0.51035476,-0.8310883,-0.6737523,0.12713492,-0.4022867,-0.44256896,-0.9499383,0.5908389,0.20586002,0.8904152,0.3066746,-0.9186182,-0.69727945,0.37884605,-0.8475387,0.25789917,0.7577448,-0.68456864,-0.102508426,-0.32932657,-0.9332397,-0.9092376,0.67000055,-0.7228143,-0.39815754,-0.02548039,-0.26989216,-0.9189279,0.9018016]},{"bias":-0.3927924,"weights":[0.22804534,0.868644,0.8269408,-0.7565844,0.62003326,-0.6297071,-0.90019417,-0.4958238,-0.6099202,0.08940947,-0.38131016,0.9357443,0.74713135,-0.59581417,-0.538793,-0.028677821,-0.20010483,0.55887914,-0.36404985,-0.0056539774,-0.1281327,-0.1921829,0.26282895,-0.36551636,0.7246227,0.278988,-0.7062707,-0.65838265,0.32788146,0.8513415]},{"bias":0.47915757,"weights":[-0.15035069,0.1864065,-0.17632163,0.30624187,-0.33361906,-0.474261,0.8447256,0.29592192,-0.7082126,-0.6387572,0.99733305,-0.6027116,0.72689295,-0.14344108,0.36693585,0.45549524,-0.37345165,0.042625785,-0.6166262,-0.81674576,0.36733234,-0.429954,-0.3698215,-0.48904675,0.65218186,-0.27266783,0.6680064,-0.8285718,0.9688833,0.034116864]},{"bias":0.30918396,"weights":[-0.5262107,0.3087169,0.17703569,-0.70405364,-0.8256471,0.25123322,0.6077895,0.8423393,-0.039354205,-0.53564733,-0.340872,-0.25282568,-0.13989818,0.060160518,-0.7224312,0.41299808,0.11346042,0.078412175,0.3592819,0.57183313,-0.17940056,-0.15275705,-0.24870574,-0.97543716,-0.9046042,0.35870373,0.010852456,0.3172227,-0.12257445,-0.40780753]},{"bias":0.9325268,"weights":[-0.80808306,0.5026343,0.39042294,-0.29127854,-0.4785096,0.6218114,0.32804263,0.06651914,-0.54009026,0.5236573,0.49228776,0.2760793,0.47356212,-0.06415141,-0.51573294,0.44278777,-0.25718755,-0.9714494,0.20773065,0.08364189,0.8113313,-0.834553,0.44663775,-0.3264231,-0.7752054,0.5893924,-0.2026676,-0.18084967,0.35107028,-0.5221736]},{"bias":0.14098346,"weights":[-0.07879579,0.4158355,-0.559071,-0.18637311,-0.11282718,-0.9076512,0.8728752,0.8647475,0.87553334,0.56298065,0.4104017,-0.5285658,-0.16475856,0.3792125,0.07920635,0.18183863,0.8278575,-0.24155128,-0.6207618,-0.7662313,0.43261278,-0.86311626,0.059443593,-0.5882315,-0.14437592,-0.88524103,-0.14627707,0.3655957,-0.32527894,-0.05836737]},{"bias":0.4923514,"weights":[-0.49956578,-0.40219134,-0.45575207,-0.74123955,-0.6564214,0.6719432,-0.967762,0.9508109,-0.43155903,0.81761384,-0.44523948,0.9661236,0.5064981,-0.81854844,-0.13890374,0.9755502,-0.37494224,0.20299137,0.5289576,0.5747273,-0.6875055,-0.82102394,-0.66123295,-0.8431213,-0.534064,0.5538974,-0.9292078,-0.052627683,0.8815775,-0.1837939]},{"bias":0.13641417,"weights":[0.67828274,0.58740425,0.5632968,-0.35634106,0.13173306,-0.7323148,0.9298134,0.69941235,-0.55042833,-0.11670172,0.2882415,-0.26648968,0.14586174,-0.9315314,0.019314408,0.051365733,0.5276208,-0.98232746,-0.7637124,0.27539718,-0.7729373,0.4453255,-0.07394469,0.80558276,-0.3647775,-0.8380699,-0.5979597,0.15571392,0.1293732,-0.3305208]},{"bias":0.917197,"weights":[0.2516688,-0.07739699,0.41693676,-0.06732762,0.9822674,-0.23592055,-0.6095242,-0.50941914,0.058620334,0.9502132,-0.040716767,-0.6759672,0.45696986,0.18103063,0.6767895,0.69946,-0.59334344,-0.8072815,0.123909354,-0.06413829,-0.5701305,-0.08914006,-0.42928904,-0.7190182,-0.46118873,-0.799876,0.67887497,-0.50972193,0.5575352,0.19411576]},{"bias":0.012265563,"weights":[-0.3691978,-0.25182194,-0.49456567,0.8369386,-0.8401387,0.01868856,0.6772158,0.14916193,-0.32799834,0.054466605,0.96760845,-0.8076098,0.3968109,0.071888804,-0.51446646,0.929265,-0.09316838,0.068668485,0.743109,-0.6727116,-0.07968891,-0.69810843,-0.68762755,0.037171483,0.02967441,-0.13156188,0.858011,-0.061777472,0.07166326,0.87148976]},{"bias":0.5640991,"weights":[0.39379323,0.0431062,0.34628522,0.086449504,-0.7728567,0.4815954,0.21629536,0.9597671,-0.4196412,0.542748,0.41862643,-0.054653287,0.4103006,0.07964337,0.40326536,-0.49271244,0.72464657,0.24464476,0.83686805,-0.9543567,-0.29719108,-0.5941233,0.5504575,-0.62755466,-0.30044645,-0.91363716,-0.24754894,-0.61250585,-0.26203173,0.40366733]},{"bias":0.81636405,"weights":[-0.03581512,0.037948012,0.446643,0.43452013,0.55259514,-0.32986754,0.38698423,-0.29462785,0.32499516,0.16077602,0.74663544,-0.044498563,-0.27909964,0.044161916,0.7924917,-0.8482561,0.4777199,-0.61691016,0.19696867,0.66147137,-0.19800484,0.43967307,0.69026303,0.17934835,-0.74565434,0.26080716,0.5663085,0.32339704,0.5437689,0.47107446]},{"bias":0.36951268,"weights":[0.7049215,-0.90726805,-0.21148479,-0.82112193,0.30314696,0.77573776,-0.63994,0.43254435,0.77686644,0.7299552,0.87943196,0.27753842,-0.25706476,-0.92985845,-0.9587841,0.8840244,-0.65440154,0.054988027,0.43244398,-0.25684923,0.84337664,-0.5291609,-0.95234823,0.46380937,0.2876035,-0.30295485,-0.106937766,0.06892741,-0.47636026,-0.5735311]},{"bias":-0.19351137,"weights":[-0.87361264,-0.08148563,0.79507875,-0.76818466,0.80961394,0.45796597,-0.9328644,-0.3706481,0.71910214,0.7203419,0.25430596,-0.20672023,0.14816797,-0.5411295,-0.49677795,-0.89047956,-0.9186461,0.464661,-0.9348612,-0.24522674,0.6846101,-0.018393159,-0.6466613,0.5651543,-0.050151467,0.5410383,0.8776512,0.11342752,0.9204614,-0.33321232]},{"bias":0.32573092,"weights":[0.96716285,0.13490641,0.714355,-0.32881898,-0.892221,-0.098192096,-0.07937372,-0.5346224,-0.52771276,0.23476732,-0.53215116,-0.41951698,0.39560783,0.055801988,0.8200941,-0.7047918,0.48864853,-0.4157378,0.736655,-0.5531227,0.747401,-0.23360765,0.5181637,0.86661196,-0.54419583,-0.5852532,-0.2514934,0.36122906,-0.22240055,-0.58014196]},{"bias":-0.20483124,"weights":[-0.30299944,0.09017432,0.22545207,0.1798402,-0.5000066,0.7416301,-0.83567405,-0.37908262,0.87809825,-0.4698369,0.32294762,0.17902648,0.13156259,-0.68024015,0.59052324,-0.36168188,0.08428967,-0.18662632,-0.9220624,-0.7159538,-0.5210523,0.3021437,0.17735517,-0.18379557,0.47848737,-0.880455,-0.3375067,-0.15323746,0.8504615,0.4826721]},{"bias":-0.115183234,"weights":[0.6780379,-0.3310637,0.50606537,0.77862644,-0.81500506,-0.4410028,-0.7282386,0.92381,-0.3874244,0.95072055,0.98425007,-0.30921263,-0.31416172,-0.706763,-0.48022002,-0.6964507,0.64053035,0.22697699,0.69517684,-0.37758464,-0.12071431,0.4943279,-0.7873678,-0.78708315,-0.39418477,0.107648015,-0.67573714,-0.47919244,0.0916487,-0.08450568]},{"bias":-0.48858613,"weights":[-0.17173326,-0.9003873,0.29350054,0.6947627,-0.05356133,0.67811704,-0.8356924,-0.74758434,-0.710073,0.4372934,0.5811174,-0.27140325,0.009792447,-0.2424277,0.47713506,0.0018721819,-0.46224493,-0.34555048,-0.31405777,0.9037883,-0.5970072,0.8581848,-0.0374552,-0.12594378,-0.26220602,0.60990524,0.47646916,-0.8501787,-0.39660448,-0.7338073]},{"bias":0.9548228,"weights":[-0.2823946,0.8847301,0.5807729,0.9900172,0.35959494,-0.5876791,0.08445418,-0.4941587,-0.085569024,-0.8863354,-0.18873465,-0.34180826,0.28408706,0.32261097,0.042227626,-0.16860998,0.54955935,0.87798595,0.49021113,0.77433157,-0.86524224,-0.20254505,0.42710054,-0.4838428,0.24743783,-0.71080637,0.42459047,0.1033231,-0.96364784,-0.12971485]},{"bias":-0.69611,"weights":[-0.476834,-0.7589359,0.35922182,0.8585992,-0.90958905,0.3795241,0.42131722,0.62617636,0.24767768,0.9712148,-0.24119604,-0.012763619,-0.42848843,0.26143205,-0.40924996,-0.029874206,-0.5115501,0.7140944,-0.56142396,0.45295203,-0.20284808,-0.6894064,-0.90847874,0.48233736,-0.58618754,0.14013064,-0.25012606,-0.34202403,0.39175975,0.69798136]},{"bias":0.9332087,"weights":[0.69351983,0.455418,-0.9944186,0.46275342,-0.8572602,-0.7579975,0.9686551,0.36402142,0.108263135,0.87701035,-0.35441345,-0.66887856,-0.64225554,0.5870757,0.7508731,0.0035330057,-0.97151446,0.23686254,0.4655925,-0.29303068,0.70842457,0.22200572,-0.5200164,0.8461859,-0.9401393,-0.78974605,0.48098075,0.33081496,0.33789027,-0.07917845]},{"bias":0.9956813,"weights":[0.67775273,0.28247893,-0.9271214,-0.06272972,0.8459501,0.23678339,0.6869874,-0.48878783,0.08780491,0.15958416,-0.6330378,-0.24201357,-0.5012595,0.6468663,-0.092132926,-0.44326538,-0.62784624,0.97893834,-0.93238497,-0.5187637,-0.9856241,0.25421417,0.0594486,0.5679405,-0.8916321,-0.39524978,0.45164788,0.99481106,0.9890163,-0.11298549]},{"bias":0.8258922,"weights":[0.7670436,-0.744215,-0.21909034,0.4739443,-0.10239518,0.114189506,-0.91910625,-0.07532823,-0.8121152,0.5300715,-0.20721447,0.19777405,-0.6530628,-0.34336823,0.30428612,-0.8277309,0.90119314,-0.4640767,0.5737839,-0.4764809,0.79432535,0.84545827,0.62774825,-0.95745826,0.57839894,-0.47488374,-0.6919439,0.83342767,-0.62171763,-0.6498177]},{"bias":-0.33142394,"weights":[0.45739233,-0.92559457,0.43174326,0.6395812,0.5919521,-0.40335983,-0.6215226,-0.7429292,-0.652771,0.4279524,0.72945666,-0.68803215,0.9949572,0.3304397,-0.33111066,-0.56057304,-0.531738,-0.22237837,-0.38727897,0.29238355,0.67807674,-0.11410439,-0.07769668,0.53423333,-0.72770524,-0.43251413,0.13880575,-0.9761894,-0.7960663,-0.37780398]},{"bias":-0.39595217,"weights":[0.5121634,-0.9004533,-0.11498296,-0.37338275,-0.2736935,-0.6047961,-0.56547254,-0.5893275,-0.91646814,-0.98665357,0.9903779,0.8128989,0.36296546,-0.23708737,0.8756769,-0.36014813,0.46845424,-0.6786494,-0.7445924,-0.509371,0.44864714,-0.42057723,-0.71537685,-0.20914376,-0.07571137,0.24404061,0.52760196,-0.83924794,-0.6040854,-0.9610722]},{"bias":0.78474665,"weights":[0.39094603,-0.8445525,0.15328586,0.38566172,-0.8332348,0.43974698,0.62296844,0.57602644,-0.2865972,0.3568834,0.8417783,0.8132701,-0.6039278,0.8591647,0.02424109,-0.2184211,0.21868503,-0.5606753,-0.60468525,-0.8821657,-0.13100111,0.17438924,0.5632317,-0.56004304,0.91048837,0.68871856,-0.21927226,0.023026347,0.14862072,-0.7955203]},{"bias":0.4537989,"weights":[-0.37242454,-0.51884764,0.6543081,0.056197047,-0.29430884,0.4568919,0.29507482,0.34700644,-0.56348294,0.9530282,-0.18095553,-0.38302583,0.90151167,0.30238235,-0.16252148,0.5897131,-0.085283875,-0.7119174,-0.6162004,-0.015002131,0.83662367,-0.25113338,-0.023435712,0.6138265,-0.68459964,-0.7095847,0.42383683,-0.9776006,0.62481093,0.100170255]},{"bias":-0.9275272,"weights":[0.45825875,0.08356607,0.71234345,0.39418232,0.49695122,-0.08526099,0.043687224,-0.9648113,-0.12853158,0.92830396,0.7734704,0.40003097,0.34556854,-0.28903478,0.84402966,-0.32046813,-0.5594339,-0.4317376,0.8493209,0.23249876,-0.026618123,0.6850374,-0.29744118,0.6128137,0.5210483,-0.41332787,0.10575235,-0.3883602,-0.15150368,-0.2828588]},{"bias":0.9917791,"weights":[0.11299074,-0.5323824,0.65201616,0.36420953,-0.76446724,0.17979991,0.70861816,-0.32750148,0.9425731,0.81482863,0.9825444,-0.43316096,-0.0195781,0.012534738,0.28008854,0.56420445,-0.22472298,0.6024687,0.23417723,-0.93089914,-0.85434175,0.07173526,0.08205402,0.75623155,0.7915957,0.77741504,-0.7505851,0.0070723295,-0.7024894,-0.47933692]}]},{"neurons":[{"bias":-0.5815951,"weights":[-0.37937015,-0.01812923,0.74081063,-0.16283429,0.55838394,0.9361596,-0.29133862,-0.17564619,-0.63983274,-0.8643091,0.056060195,-0.618555,0.28287375,0.8520441,0.50699925,0.15092647,0.61570454,0.81522584,0.1708628,0.88798046,-0.5987064,-0.84785986,0.36838973,0.22789896,-0.53142303,-0.39489025,-0.6288409,0.016886353,0.10451186,0.56804156]}]}]}