{"layers":[{"neurons":[{"bias":0.68021536,"weights":[0.9824276,-0.09258711,-0.470159,0.36239326,0.51326275,0.5898099,0.9267466,-0.029459119,-0.061398387,0.56610465,0.7599504,0.8797581,0.80982494,0.28933108,0.7586982,0.4017223,-0.24659741,-0.13097346,0.6988685,-0.52572984,-0.36842054,0.0023247004,0.5278485,-0.034805655,-0.67779136,-0.7602515,-0.5735237,0.36006272,0.1904248,0.57716894]},{"bias":0.59605694,"weights":[0.3518778,0.51035476,-0.8310883,-0.6737523,0.9600775,-0.4022867,-0.44256896,-0.9499383,0.5908389,0.20586002,0.8904152,-0.07570207,-0.9186182,-0.69727945,0.37884605,-0.8475387,0.25789917,0.7577448,-0.68456864,-0.102508426,0.4032575,-0.9332397,-0.9092376,0.67000055,-0.7228143,-0.39815754,-0.02548039,-0.26989216,-0.71752095,-0.05819857]},{"bias":-0.3927924,"weights":[0.22804534,0.868644,0.8269408,-0.7565844,0.62003326,-0.6297071,-0.85595655,-0.4958238,0.2170142,0.08940947,0.9915073,0.9357443,-0.037187457,-0.19967115,-0.538793,-0.028677821,-0.20010483,0.55887914,-0.36404985,-0.0056539774,-0.1281327,-0.1921829,0.17670357,-0.36551636,0.7246227,-0.43782157,-0.7062707,0.47284162,0.32788146,0.8513415]},{"bias":0.47915757,"weights":[-0.15035069,0.1864065,-0.42057365,0.30624187,-0.33361906,-0.474261,0.8447256,0.29592192,-0.7082126,-0.6387572,0.99733305,-0.6027116,0.72689295,0.039209485,0.36693585,0.45549524,0.03700769,0.042625785,-0.6166262,-0.81674576,0.36733234,-0.429954,-0.3698215,-0.48904675,0.47504365,-0.27266783,-0.2883994,0.7254765,0.9688833,0.034116864]},{"bias":0.30918396,"weights":[-0.5262107,0.25750625,0.17703569,-0.46845716,-0.8256471,-0.5924222,0.6077895,-0.041623235,-0.039354205,0.48675263,-0.340872,-0.66027784,-0.13989818,0.21527779,-0.8512564,0.41299808,0.29369032,0.078412175,0.3592819,0.57183313,-0.5725197,-0.15275705,-0.24870574,-0.97543716,-0.7150202,0.35870373,-0.86569834,0.3172227,0.6688478,-0.40780753]},{"bias":0.9325268,"weights":[-0.9784632,0.5026343,0.7290237,0.52852035,-0.4785096,-0.041484952,0.32804263,0.06651914,-0.54009026,0.5236573,0.49228776,0.24606931,0.47356212,-0.06415141,-0.51573294,0.44278777,-0.5934517,-0.9714494,0.20773065,0.08364189,0.8113313,0.19622004,0.44663775,-0.3264231,-0.7752054,0.5893924,-0.22341573,-0.18084967,0.35107028,-0.5221736]},{"bias":0.14098346,"weights":[-0.07879579,0.4158355,-0.559071,-0.18637311,-0.11282718,-0.9076512,-0.53154725,0.8647475,0.87553334,0.56298065,-0.6372876,-0.5285658,-0.16475856,-0.23121727,0.07920635,0.18183863,0.8278575,-0.24155128,0.5711496,0.43840587,0.43261278,-0.86311626,0.059443593,-0.20763671,-0.14437592,-0.88524103,-0.6299896,-0.25954312,-0.32527894,-0.05836737]},{"bias":-0.5994486,"weights":[-0.49956578,0.023950696,-0.45575207,-0.74123955,-0.6564214,0.6719432,-0.967762,0.9508109,-0.43155903,0.81761384,-0.44523948,0.9661236,0.5064981,-0.706635,-0.13890374,-0.9329281,-0.37494224,0.18720567,0.5289576,0.5747273,-0.6875055,-0.82102394,-0.66123295,-0.8431213,-0.8191402,0.5538974,-0.9292078,-0.35838026,0.8815775,-0.03475082]},{"bias":0.13641417,"weights":[0.67828274,0.58740425,0.5632968,-0.28560346,-0.967664,-0.7323148,0.9298134,-0.9907191,-0.55042833,-0.11670172,0.7172594,-0.26648968,0.14586174,0.5192752,0.019314408,0.28704798,0.5276208,0.43451107,0.3167268,0.27539718,-0.7729373,0.4453255,-0.1249665,0.80558276,-0.3647775,-0.8380699,-0.5979597,0.15571392,0.1293732,-0.3305208]},{"bias":0.917197,"weights":[0.2516688,-0.07739699,0.41693676,0.042903066,0.7204957,0.6980436,-0.6095242,-0.50941914,0.058620334,0.9502132,-0.040716767,-0.6759672,-0.23485243,-0.047791123,-0.31818694,0.69946,-0.59334344,-0.8072815,0.123909354,-0.34029287,-0.5701305,0.806952,-0.1888045,-0.7190182,-0.46118873,-0.799876,0.67887497,-0.50972193,0.20647728,0.19411576]},{"bias":-0.4318921,"weights":[-0.3691978,-0.25182194,-0.49456567,-0.9302926,-0.8401387,0.01868856,0.6772158,0.77321863,0.29697,0.054466605,0.96760845,-0.8076098,0.3968109,-0.612796,-0.51446646,-0.17837894,0.4258324,0.068668485,0.743109,-0.6727116,-0.07968891,-0.46473283,-0.68762755,0.037171483,0.02967441,-0.13156188,0.18656147,-0.061777472,-0.04284203,0.87148976]},{"bias":0.5640991,"weights":[0.39379323,0.0431062,0.34628522,-0.6105129,-0.7728567,0.4815954,0.21629536,0.9597671,-0.4196412,0.31605685,0.41862643,-0.054653287,0.4103006,0.07964337,0.40326536,-0.10292995,0.72464657,0.24464476,0.83686805,-0.9543567,-0.50633353,0.51201916,0.223292,-0.62755466,-0.30044645,-0.91363716,-0.5040726,-0.1745485,-0.35319108,0.40366733]},{"bias":0.81636405,"weights":[-0.03581512,0.037948012,0.446643,0.43452013,0.55259514,-0.32986754,0.38698423,-0.29462785,-0.38225406,0.16077602,0.74663544,-0.044498563,0.63875747,-0.3000273,0.7924917,-0.8482561,0.4777199,-0.61691016,0.19696867,0.66147137,-0.87321925,0.43967307,0.69026303,0.17934835,0.012616277,0.26080716,0.5663085,0.32339704,0.5437689,0.47107446]},{"bias":0.36951268,"weights":[0.7049215,-0.90726805,0.24697292,-0.82112193,0.30314696,0.77573776,-0.63994,0.43254435,0.77686644,0.7299552,0.87943196,0.27753842,-0.25706476,-0.92985845,-0.9587841,0.8840244,-0.6780021,0.054988027,0.4758829,-0.25684923,0.84337664,-0.5291609,-0.95234823,-0.41673416,0.2876035,0.48012865,-0.106937766,0.06892741,-0.47636026,-0.5735311]},{"bias":-0.9357271,"weights":[-0.87361264,-0.08148563,0.79507875,-0.76818466,0.80961394,0.45796597,-0.9328644,0.05555308,0.71910214,0.7203419,0.20277846,-0.20672023,0.14816797,-0.38622278,-0.49677795,-0.81323314,-0.9186461,-0.8542869,-0.9348612,-0.24522674,0.6846101,-0.018393159,-0.6466613,0.5651543,0.6064832,0.20936906,-0.6096887,-0.22916782,-0.11230576,-0.33321232]},{"bias":0.32573092,"weights":[0.96716285,0.44659936,0.714355,-0.32881898,0.28240144,-0.098192096,-0.07937372,0.0696758,-0.52771276,0.23476732,-0.53215116,-0.41951698,0.39560783,0.5589478,-0.9904845,-0.7047918,0.15129244,-0.4157378,0.736655,-0.5531227,0.747401,0.54823637,0.5181637,-0.45856732,-0.54419583,-0.5852532,-0.2514934,0.36122906,-0.22240055,-0.13117778]},{"bias":-0.20483124,"weights":[-0.30299944,0.09017432,-0.6758692,0.1798402,-0.5000066,-0.9208405,-0.83567405,0.5324285,0.87809825,-0.4698369,0.32294762,0.17902648,0.7000003,-0.3997969,-0.13390529,-0.1908859,-0.5027639,-0.18662632,-0.4512872,-0.7159538,-0.5210523,0.3021437,0.17735517,-0.18379557,0.47848737,-0.880455,-0.1694709,0.2771343,0.8504615,-0.18032658]},{"bias":0.6588199,"weights":[0.6780379,-0.3310637,0.42049682,0.29890835,-0.0055550337,-0.4410028,-0.7282386,0.92381,-0.3874244,0.95072055,0.98425007,-0.8406508,-0.31416172,-0.706763,-0.48022002,-0.6964507,0.64053035,0.22697699,0.69517684,0.08921182,-0.12071431,0.4943279,-0.7873678,-0.78708315,-0.39418477,0.16592848,-0.5130698,-0.47919244,0.0916487,0.9328706]},{"bias":-0.48858613,"weights":[-0.66931367,-0.9003873,0.29350054,0.6947627,-0.05356133,0.14673173,-0.8356924,-0.74758434,-0.710073,0.4372934,0.5811174,-0.27140325,0.009792447,-0.80728793,0.47713506,0.32523358,-0.46224493,0.35322583,-0.31405777,-0.36557096,-0.5970072,0.8581848,-0.0374552,-0.12594378,-0.99215555,0.60990524,0.47646916,-0.5932862,-0.39660448,-0.7338073]},{"bias":0.9548228,"weights":[-0.2823946,-0.53819174,0.5574522,0.9900172,0.35959494,-0.5876791,0.08445418,-0.4941587,-0.085569024,-0.8863354,-0.18873465,0.71043444,-0.5765545,0.13219821,0.042227626,-0.16860998,0.54955935,0.87798595,0.5723734,-0.3141479,-0.86524224,-0.20254505,0.42710054,-0.4838428,0.24743783,-0.71080637,0.28590524,0.1033231,-0.96364784,-0.12971485]},{"bias":-0.69611,"weights":[-0.476834,-0.7589359,0.35922182,-0.40239495,-0.90958905,0.3795241,0.42131722,0.62617636,0.24767768,-0.9848697,-0.24119604,-0.012763619,-0.42848843,0.26143205,-0.40924996,-0.029874206,-0.5115501,-0.68778133,-0.56142396,0.45295203,-0.20284808,-0.6894064,-0.90847874,0.48233736,-0.58618754,0.98019266,-0.25012606,0.9243779,-0.70997405,0.69798136]},{"bias":0.9332087,"weights":[0.69351983,0.455418,-0.9944186,0.46275342,-0.8572602,-0.7579975,0.9686551,-0.61986154,0.108263135,0.87701035,-0.35441345,-0.66887856,-0.64225554,0.5870757,0.7508731,0.217188,-0.97151446,0.86752963,0.4655925,0.9287033,0.2078098,0.22200572,-0.5200164,-0.26685423,-0.9401393,-0.78974605,0.48098075,0.33081496,0.57775116,-0.07917845]},{"bias":0.9956813,"weights":[0.67775273,0.28247893,-0.9271214,-0.06272972,-0.8030877,0.23678339,0.6869874,0.1109401,0.08780491,0.15958416,-0.6330378,-0.24201357,-0.50837773,0.6468663,-0.092132926,-0.44326538,-0.62784624,0.97893834,-0.93238497,-0.9452388,-0.9856241,-0.52660984,-0.8803885,0.2065295,-0.8916321,-0.39524978,0.45164788,0.92799544,0.9890163,0.27008975]},{"bias":-0.46041936,"weights":[0.7670436,-0.701504,-0.21909034,0.46530092,-0.10239518,0.114189506,0.38633192,-0.07532823,-0.8121152,-0.08839309,0.8336692,0.19777405,-0.6530628,-0.34336823,0.30428612,-0.8277309,0.90119314,-0.4640767,0.5737839,0.6027553,0.79432535,0.5993812,-0.95964146,-0.56769484,-0.58695453,-0.47488374,-0.6919439,0.83342767,-0.82990694,-0.6498177]},{"bias":-0.33142394,"weights":[0.66241145,-0.92559457,0.43174326,0.6395812,0.5919521,-0.07210338,-0.7570665,-0.7429292,-0.652771,0.03926766,0.72945666,-0.37085408,0.9949572,0.3304397,-0.33111066,-0.56057304,-0.531738,-0.22237837,-0.38727897,0.29238355,0.67807674,-0.11410439,-0.07769668,0.53423333,-0.72770524,0.5054815,0.13880575,-0.9761894,-0.7960663,-0.37780398]},{"bias":-0.39595217,"weights":[0.5121634,-0.9004533,0.88741064,-0.37338275,-0.2736935,-0.6047961,-0.87425876,-0.5893275,-0.91646814,-0.98665357,0.9903779,0.8128989,0.36296546,-0.23708737,0.8756769,-0.36014813,0.46845424,-0.4520442,-0.7445924,-0.509371,0.44864714,-0.42057723,-0.71537685,-0.20914376,-0.07571137,0.09176481,0.52760196,-0.83924794,0.62565184,0.6717465]},{"bias":0.8758328,"weights":[0.70318675,0.86328983,-0.4529702,0.38566172,-0.8332348,0.43974698,0.62296844,0.57602644,-0.2865972,0.3568834,0.8417783,-0.07059991,-0.6039278,0.8591647,0.02424109,-0.2184211,0.21868503,-0.5606753,-0.60468525,-0.8821657,-0.13100111,0.17438924,0.5632317,-0.56004304,-0.38734192,0.68871856,-0.21927226,0.023026347,0.14862072,-0.7955203]},{"bias":0.4537989,"weights":[-0.37242454,-0.51884764,0.6543081,0.9794488,-0.29430884,0.4568919,-0.8685696,0.34700644,-0.56348294,0.9530282,-0.18095553,-0.38302583,0.90151167,0.7261288,-0.16252148,0.5897131,-0.085283875,-0.7119174,-0.6162004,0.54521847,0.338647,-0.25113338,-0.023435712,0.86948705,0.9972415,-0.7305639,-0.5078966,-0.9776006,0.62481093,0.100170255]},{"bias":-0.9275272,"weights":[0.45825875,0.08356607,0.1505543,-0.57624334,0.49695122,-0.08526099,0.043687224,-0.9648113,-0.494713,0.83223176,0.7734704,0.80620694,0.34556854,-0.28903478,0.84402966,-0.32046813,-0.5594339,-0.4317376,0.8493209,0.23249876,-0.68732715,0.6850374,-0.29744118,0.6128137,0.43453705,-0.41332787,0.10575235,-0.3883602,0.42920935,-0.2828588]},{"bias":0.9917791,"weights":[0.5007229,-0.6214115,0.65201616,0.36420953,-0.76446724,0.17979991,0.99153304,-0.32750148,0.9425731,0.81482863,0.9825444,-0.43316096,-0.0195781,-0.22747052,0.28008854,0.22277725,-0.6664586,0.6024687,-0.9921508,0.5048063,-0.6785419,0.07173526,0.08205402,0.75623155,0.7915957,0.77741504,0.1012069,0.0070723295,-0.7024894,-0.6113841]}]},{"neurons":[{"bias":-0.5815951,"weights":[0.5161636,0.29808843,0.74081063,-0.8815594,-0.24457657,0.9361596,-0.29133862,0.19013727,0.09781587,-0.8643091,0.056060195,-0.039780974,-0.66870856,0.8520441,-0.7879541,-0.3548259,0.61570454,0.81522584,0.1708628,0.88798046,-0.5987064,-0.84785986,0.2787336,-0.77728915,-0.53142303,-0.39489025,-0.6288409,0.016886353,0.10451186,0.56804156]}]}]}