{"layers":[{"neurons":[{"bias":0.48093545,"weights":[0.9824276,-0.09258711,-0.470159,0.36239326,0.51326275,-0.4982285,0.9267466,-0.69751525,-0.061398387,0.56610465,-0.3093893,-0.71945715,0.80982494,0.28933108,0.7586982,-0.26010317,-0.24659741,-0.13097346,0.6988685,-0.8500633,-0.36842054,-0.9698634,0.5278485,-0.034805655,-0.6734493,0.96114016,-0.5735237,0.89354324,-0.19104779,-0.33193105]},{"bias":0.59605694,"weights":[0.3518778,-0.058541656,-0.8310883,-0.6737523,0.9600775,-0.4022867,-0.44256896,0.0022279024,0.18381631,0.20586002,0.8904152,-0.86507106,-0.9186182,-0.69727945,0.37884605,-0.8475387,0.25789917,0.7577448,-0.8288877,-0.102508426,0.4032575,-0.9332397,-0.9092376,0.8786137,0.46271765,-0.15330303,-0.02548039,0.86430836,-0.17643726,0.774349]},{"bias":-0.3927924,"weights":[0.22804534,0.868644,0.8269408,0.38448775,0.62003326,-0.6297071,-0.85595655,0.1642617,0.2170142,0.978909,0.9915073,0.9357443,-0.037187457,-0.19967115,-0.1300937,-0.028677821,-0.040638804,0.9024694,0.9257071,-0.0056539774,-0.1281327,-0.1921829,0.17670357,-0.36551636,0.7246227,-0.43782157,-0.7062707,0.47284162,-0.56937665,0.8513415]},{"bias":-0.6829939,"weights":[-0.15035069,0.15008008,0.16154015,0.30624187,-0.33361906,-0.474261,-0.78553486,0.73297167,-0.3302099,-0.6387572,-0.68270946,-0.6027116,0.72689295,0.039209485,0.36693585,0.45549524,0.03700769,-0.56087106,-0.6166262,0.24745548,-0.519932,-0.429954,0.13215315,-0.48904675,0.78573656,-0.27266783,0.7324858,0.7254765,0.9688833,0.034116864]},{"bias":0.30918396,"weights":[-0.5262107,0.25750625,0.17703569,-0.46845716,-0.8256471,0.21800792,0.6077895,-0.041623235,-0.039354205,-0.016089082,-0.340872,-0.92255116,-0.13989818,0.6237285,-0.8512564,-0.7242212,0.32481945,0.078412175,0.3592819,0.57183313,-0.5725197,-0.15275705,-0.68243766,-0.97543716,-0.7150202,0.35870373,-0.86569834,0.3172227,0.061097503,-0.40780753]},{"bias":0.9325268,"weights":[-0.9784632,0.5026343,-0.91745424,0.52852035,-0.4785096,-0.041484952,0.32804263,0.06651914,0.7258477,0.5236573,0.49228776,0.24606931,0.47356212,0.6018846,-0.51573294,0.44278777,-0.5934517,-0.9714494,0.20773065,0.08364189,0.8113313,0.1210345,0.31158864,-0.3264231,-0.7752054,-0.5530905,-0.22341573,-0.18084967,0.034175515,0.1100682]},{"bias":0.14098346,"weights":[-0.07879579,0.8326278,-0.559071,-0.18637311,-0.11282718,-0.9076512,-0.40456003,0.8647475,0.87553334,-0.6577382,-0.6372876,-0.56836694,-0.16475856,-0.23121727,0.78679967,0.18183863,0.8278575,-0.84364915,0.5711496,-0.24536884,0.43261278,0.6722348,0.83177805,-0.20763671,-0.14437592,-0.88524103,-0.6299896,-0.25954312,-0.32527894,-0.05836737]},{"bias":-0.5994486,"weights":[-0.49956578,0.023950696,-0.45575207,0.5483022,-0.267698,0.6719432,-0.81826806,0.9508109,-0.43155903,0.30713332,0.12501943,0.9661236,-0.81547856,-0.706635,-0.53446215,0.8038337,-0.37494224,0.18720567,0.5289576,0.049454093,0.5236292,-0.82102394,-0.66123295,-0.8431213,-0.8191402,0.5538974,0.75065327,-0.35838026,0.73741317,0.8786588]},{"bias":-0.193035,"weights":[-0.9489353,0.58740425,0.5632968,0.8237903,-0.967664,-0.7323148,0.9298134,0.39753783,-0.55042833,-0.11670172,0.110443234,-0.26648968,0.14586174,0.5192752,0.019314408,0.28704798,0.59330845,0.43451107,-0.19883096,0.27539718,-0.7729373,0.4453255,-0.1249665,0.80558276,-0.3647775,-0.8380699,-0.5979597,0.15571392,0.1293732,-0.3305208]},{"bias":0.16834557,"weights":[0.5334618,0.6823416,0.41693676,0.042903066,0.023688436,0.6980436,-0.6095242,0.099838614,0.058620334,-0.04244578,-0.040716767,-0.061620355,-0.23485243,-0.047791123,-0.31818694,0.69946,-0.59334344,-0.69673586,0.123909354,0.64581823,-0.5701305,0.806952,-0.1888045,0.020427823,-0.46118873,-0.7745311,0.67887497,-0.50972193,-0.4456126,0.19411576]},{"bias":-0.4318921,"weights":[-0.3691978,0.00038278103,-0.49456567,-0.9302926,-0.8401387,0.01868856,0.6772158,0.77321863,0.9095261,-0.49006218,0.96760845,-0.8076098,0.3968109,-0.26251334,0.64119124,-0.17837894,0.4258324,0.2628249,-0.12124765,-0.6727116,-0.07968891,-0.46473283,-0.42764777,0.67826176,0.02967441,-0.13156188,0.18656147,-0.061777472,-0.15686476,0.87148976]},{"bias":0.07297003,"weights":[0.11369789,0.0431062,0.34628522,-0.6105129,-0.7728567,0.4815954,0.21629536,0.9597671,-0.4196412,0.31605685,0.41862643,-0.054653287,0.4103006,-0.4276182,0.40326536,0.7974527,0.17155826,0.24464476,0.83686805,-0.059576154,-0.50633353,0.51201916,0.223292,0.72899437,-0.30044645,0.43576944,-0.5040726,-0.1745485,0.01549232,-0.3616864]},{"bias":0.81636405,"weights":[-0.03581512,-0.76981735,0.446643,0.43452013,0.55259514,-0.29812974,0.38698423,-0.29462785,-0.38225406,0.16077602,-0.0021284819,-0.047351956,0.33147037,-0.3000273,0.7924917,-0.8482561,0.4777199,0.13966382,0.19696867,-0.027171731,-0.87321925,-0.3085572,0.69026303,0.17934835,0.8779807,0.26080716,0.5663085,0.32339704,0.5437689,0.47107446]},{"bias":0.36951268,"weights":[0.7049215,-0.90726805,0.24697292,-0.6021027,0.9878411,0.77573776,-0.771791,0.43254435,0.77686644,-0.870492,-0.9217622,-0.3569364,-0.25706476,-0.92985845,-0.24856985,0.8840244,-0.6780021,0.27578413,0.4758829,-0.18207014,-0.6156973,-0.5291609,0.10425818,0.6721895,0.2876035,0.48012865,-0.106937766,0.06892741,-0.37800902,-0.5735311]},{"bias":-0.9357271,"weights":[0.76793766,-0.08148563,0.79507875,-0.76818466,0.80961394,0.45796597,-0.9328644,0.76089334,0.71910214,-0.50153154,0.20277846,0.23346746,0.14816797,-0.38622278,0.5065615,-0.72152996,-0.9186461,-0.4470982,0.6187298,0.786217,0.6846101,0.6292963,-0.6466613,0.5651543,0.6064832,0.5284424,-0.6096887,-0.22916782,-0.11230576,-0.33321232]},{"bias":0.32573092,"weights":[0.96716285,0.44659936,0.7380104,-0.32881898,0.28240144,-0.098192096,-0.07937372,0.0696758,-0.52771276,0.23476732,-0.29377955,-0.41951698,0.39560783,0.5589478,-0.10940969,0.027768254,0.15129244,-0.4157378,0.26211393,0.6257732,-0.2006396,0.54823637,-0.48613852,0.8772342,-0.54419583,-0.003981471,-0.7934272,0.7184472,-0.22240055,0.2856282]},{"bias":-0.20483124,"weights":[-0.30299944,0.09017432,-0.6758692,0.1798402,-0.5000066,-0.661134,-0.83567405,0.5324285,-0.83445454,-0.4698369,-0.028593421,0.17902648,0.7000003,0.5840001,0.7791693,-0.007669091,-0.5027639,-0.03546369,-0.4512872,-0.74600196,-0.5210523,-0.27967352,0.17735517,-0.18379557,0.47848737,-0.880455,0.008524299,-0.6664791,0.36597478,0.64170337]},{"bias":0.6588199,"weights":[-0.5094268,-0.3310637,0.47873533,0.8485296,-0.0055550337,-0.4410028,0.93672395,0.92381,-0.3874244,0.95072055,0.98425007,-0.8406508,0.397344,0.6538322,0.4619187,-0.6964507,0.64053035,0.8361242,0.69517684,0.78957844,-0.12071431,0.63364506,-0.7873678,0.811249,-0.39418477,0.16592848,-0.5130698,-0.21110547,0.0916487,0.9328706]},{"bias":-0.48858613,"weights":[-0.66931367,-0.9003873,0.28773463,0.6947627,-0.05356133,-0.18789232,-0.8356924,-0.74758434,-0.710073,0.4372934,0.5811174,-0.27140325,0.009792447,-0.4369983,0.47713506,0.32523358,-0.46224493,0.65286374,-0.92421484,-0.36557096,0.21674192,0.8581848,-0.0374552,-0.12594378,-0.99215555,0.60990524,0.47646916,-0.98094416,-0.39660448,-0.7338073]},{"bias":0.5847485,"weights":[-0.2823946,-0.53819174,0.5574522,0.9900172,0.8848796,-0.20621622,0.08445418,-0.4941587,-0.085569024,-0.8863354,-0.18873465,0.71043444,-0.5765545,0.57207847,0.21910107,-0.16860998,0.54955935,0.87798595,-0.45536894,0.09454477,0.65281844,-0.20254505,0.42717564,-0.25101894,0.33143008,-0.71080637,0.28590524,0.1033231,-0.96364784,-0.8775122]},{"bias":-0.69611,"weights":[-0.476834,-0.7589359,0.35922182,-0.40239495,-0.90958905,0.311993,0.46239746,0.62617636,0.24767768,-0.9848697,-0.24119604,-0.012763619,0.2387327,-0.7197566,-0.40924996,-0.029874206,-0.5115501,-0.68778133,0.7939408,0.45295203,-0.84504986,-0.17871583,-0.90847874,0.48233736,-0.58618754,-0.3719923,0.8520763,0.9243779,0.77793264,0.69798136]},{"bias":0.9332087,"weights":[0.69351983,0.455418,-0.9944186,0.46275342,-0.8572602,-0.7579975,0.9686551,-0.61986154,-0.9472904,-0.48137754,-0.35441345,0.16650116,0.42981994,0.5870757,0.7508731,0.217188,-0.97151446,0.86752963,0.51416135,0.9287033,0.2078098,0.22200572,-0.5200164,-0.26685423,0.81928325,-0.78974605,0.94757485,0.33081496,0.57775116,-0.6335416]},{"bias":0.9956813,"weights":[0.67775273,-0.7380905,-0.9271214,0.799525,-0.8030877,-0.20563805,0.6869874,0.1109401,-0.55838174,0.15958416,0.48339188,-0.24201357,0.8844831,0.6468663,-0.092132926,-0.37494916,-0.10430324,0.97893834,0.79790664,-0.9452388,0.2659129,-0.52660984,-0.8803885,0.2065295,-0.8916321,-0.39524978,0.45164788,0.92799544,0.22766268,0.27008975]},{"bias":-0.8294263,"weights":[0.35670412,-0.33964676,0.46895182,0.46530092,-0.10239518,0.114189506,0.38633192,-0.07532823,-0.8121152,-0.8077898,0.8336692,0.19777405,-0.6530628,-0.34336823,0.30428612,0.79095936,0.90119314,-0.822819,0.5737839,0.26868236,0.79432535,0.5993812,0.17336595,-0.56769484,-0.58695453,-0.47488374,-0.6919439,0.83342767,-0.82990694,0.32291973]},{"bias":0.5467484,"weights":[0.66241145,-0.92559457,-0.47524256,0.6395812,-0.8165145,-0.9687245,-0.7570665,-0.7429292,0.9962435,0.03926766,0.72945666,-0.37085408,-0.033809066,0.95097303,-0.83336663,-0.56057304,0.11440122,-0.22237837,-0.38727897,0.29238355,0.67807674,-0.99128985,-0.07769668,0.53423333,-0.72770524,-0.5683407,-0.31984538,-0.9761894,-0.7960663,-0.37780398]},{"bias":-0.39595217,"weights":[0.5121634,-0.9004533,0.88741064,-0.013287425,-0.2736935,0.22039759,-0.5972976,0.120776534,-0.91646814,-0.98665357,-0.3918311,0.8128989,0.9251487,-0.26683277,0.8844173,0.5027592,0.46845424,-0.4520442,-0.7445924,-0.65816736,0.44864714,-0.42057723,-0.71537685,-0.20914376,-0.45872825,0.09176481,0.52760196,-0.83924794,0.62565184,0.6717465]},{"bias":0.8758328,"weights":[0.70318675,0.86328983,-0.4529702,0.26077878,-0.35670036,0.43974698,0.62296844,0.57602644,-0.2865972,0.6224296,-0.79905033,-0.07059991,-0.6039278,0.8591647,0.02424109,0.42387855,0.21868503,-0.5606753,-0.60468525,-0.8821657,-0.13100111,-0.72429776,0.5632317,0.67677116,-0.38734192,0.5412731,-0.57410043,0.023026347,-0.5737991,-0.7955203]},{"bias":0.4537989,"weights":[-0.37242454,-0.51884764,0.6543081,0.9794488,-0.61428016,-0.04833424,-0.8685696,0.34700644,-0.56348294,0.40551555,-0.18095553,-0.38302583,0.90151167,0.7261288,-0.16252148,0.5897131,-0.72252464,-0.29712623,-0.6162004,-0.09120762,0.338647,-0.25113338,-0.29061526,0.86948705,-0.3616907,-0.7305639,-0.5078966,-0.9776006,0.62481093,0.100170255]},{"bias":-0.3453421,"weights":[-0.9156511,0.08356607,0.36918604,-0.4114136,0.16279685,-0.08526099,0.043687224,-0.15888107,-0.494713,0.83223176,0.21067178,0.80620694,-0.42316216,-0.28903478,0.84402966,-0.32046813,-0.5594339,-0.4317376,0.8493209,0.23249876,-0.68732715,-0.372163,-0.29744118,-0.6041104,-0.2597577,-0.82413554,0.10575235,-0.3883602,0.42920935,0.6688812]},{"bias":0.98239374,"weights":[0.5007229,-0.6214115,-0.34827822,0.36420953,-0.76446724,0.17979991,0.99153304,-0.31107396,-0.11332524,0.81482863,0.9825444,-0.43316096,-0.0700258,0.45399535,0.28008854,0.22277725,-0.6664586,-0.91979814,-0.9921508,-0.44242162,-0.6785419,0.07173526,0.29657757,0.75623155,0.7915957,-0.4426753,0.5817871,0.9975736,0.80368733,-0.6248154]}]},{"neurons":[{"bias":0.8125589,"weights":[-0.4777922,0.29808843,0.74081063,-0.8815594,0.6263044,0.9361596,0.8563318,0.19013727,0.09781587,-0.8643091,0.056060195,0.39557993,0.73941565,0.8520441,-0.7879541,0.73515964,0.61570454,0.81522584,0.18363345,0.88798046,-0.5987064,-0.84785986,0.2787336,-0.5565731,-0.53142303,-0.39489025,0.23325741,0.016886353,0.48201334,0.56804156]}]}]}