{"layers":[{"neurons":[{"bias":0.46747887,"weights":[0.45910656,-0.86022186,-0.9051647,0.26573813,-0.5340392,0.97949266,-0.498594,0.6155319,0.016269803,0.7366054,-0.8549392,-0.81556296,0.7553637,-0.39287275,-0.36944407,-0.3288676,0.72682,-0.5535225,0.13723004,-0.502207,-0.031462073,-0.12078011,0.54266715,0.17155874,0.095761895,0.4110273,0.28675377,0.4808153,-0.9526448,0.50839543]},{"bias":-0.79874134,"weights":[-0.08429134,0.25639284,-0.3642699,-0.7819524,-0.22041023,0.49166048,-0.27222604,-0.37250608,0.3883456,0.37557733,-0.4663424,-0.10826886,-0.30730766,-0.42877406,0.96227765,-0.2042638,-0.79574776,-0.14182627,0.18928206,-0.43056816,-0.122250676,-0.9827769,-0.63308215,-0.24486172,-0.91155696,-0.29683512,-0.31329888,-0.19643104,0.6891942,0.6691971]},{"bias":-0.8598547,"weights":[0.8748019,-0.50323313,-0.9957485,-0.7238114,0.07605541,0.075425744,-0.011046529,-0.9104786,0.527606,-0.83515644,-0.53320163,0.68818784,-0.05959308,0.22049105,-0.23461378,0.052731156,0.10578096,-0.37012142,-0.2644841,-0.9621992,0.73570323,0.8235433,0.38695705,-0.3999886,0.50008273,-0.56880945,0.15690386,-0.36188096,-0.95870876,0.03093326]},{"bias":0.17635524,"weights":[-0.013121724,0.11066377,0.8749864,-0.47120827,0.6172261,0.91054225,-0.9951558,-0.8411119,-0.51907605,0.6515932,0.025646806,-0.825413,-0.01076901,-0.26339215,0.8445778,-0.5018961,0.23540032,0.92839193,0.5602844,0.6831331,0.27020776,0.22860706,-0.6096441,0.906636,0.4170524,0.8774841,0.47432005,-0.5492789,-0.5652155,0.2692932]},{"bias":0.09892905,"weights":[0.91747284,-0.7936728,0.91967773,-0.45879024,0.0148996115,-0.49333996,-0.39279646,0.46283495,0.8246896,-0.89249563,0.45972955,0.3055426,-0.9044068,0.09306562,-0.4911601,0.23607695,0.2707752,-0.9629252,-0.8012886,-0.8393135,0.5026121,-0.5995032,-0.66246843,0.19329631,-0.55356544,0.42733943,-0.9787502,-0.46862096,0.0229491,0.6020899]},{"bias":-0.31294388,"weights":[-0.3801114,0.9771316,0.80252504,0.97996664,0.20642316,-0.20879138,-0.3862278,0.6638851,0.30756485,-0.66370916,-0.33735913,-0.30080456,0.1607598,-0.46252745,0.5812571,0.96761703,-0.756835,0.7908318,0.9523947,-0.95121765,-0.2898931,0.20957577,0.23400009,0.756057,-0.33251876,0.20729697,-0.20914137,-0.4172296,-0.944361,-0.82315946]},{"bias":-0.8198333,"weights":[-0.9647963,-0.9390118,0.95394635,0.25846803,0.7014017,0.4252776,-0.7092514,0.1666578,0.98527503,0.6664312,-0.30195683,0.8376248,-0.49499983,-0.405914,0.769645,0.621892,-0.75324345,-0.6942556,-0.029058576,0.9799614,0.07300174,-0.3570463,0.83294606,-0.604042,-0.29879326,0.9770286,-0.9211838,0.54127574,-0.17827642,0.3863083]},{"bias":0.27729595,"weights":[-0.31694072,-0.6094598,0.4836923,0.78536844,0.8678355,0.35564888,0.22109187,0.37071383,0.3144623,0.25063956,0.83959365,0.9885676,0.38976157,0.87532544,-0.24880278,0.65052485,-0.66662216,-0.41352028,0.5062902,0.92438436,-0.14353454,0.76199675,0.72761965,0.6683984,0.97477245,-0.864913,-0.6108367,0.5131295,0.5119827,-0.05289328]},{"bias":-0.74373674,"weights":[-0.72666216,-0.24969923,0.047296643,0.9183774,0.3123039,-0.53469986,-0.49866718,-0.53746,-0.68993044,-0.53992456,0.5938282,0.43103516,0.49208772,-0.99897385,0.4685458,0.16418183,-0.3017022,-0.03214276,-0.4931094,0.7092333,-0.017569184,0.6162884,0.8236706,0.5832298,0.22153056,-0.5273883,-0.71078014,0.01667583,0.93999577,0.9454844]},{"bias":-0.054378152,"weights":[-0.58657306,0.67364454,0.5563383,0.37358272,0.79365444,-0.17962897,0.863328,-0.74221206,0.7529571,0.5565059,-0.67033863,-0.7758632,-0.8909571,0.352368,0.5905719,-0.89022565,0.94748163,0.7333348,0.50681853,-0.42210954,0.3772546,0.9702344,-0.53531903,-0.29825133,-0.2673542,0.91567063,-0.44932503,0.46221745,0.7778914,0.2526461]},{"bias":-0.69075274,"weights":[-0.28019446,0.9598851,0.24742281,-0.030594945,-0.10683906,0.09156072,0.8742602,-0.40245503,-0.70205617,0.59924054,-0.7260585,-0.53184694,-0.650435,-0.45091814,-0.45735496,0.06053388,-0.11094415,0.7232261,0.44568408,-0.5277354,0.21586859,0.34841287,-0.48955005,0.15098083,-0.33735746,-0.5105564,-0.943079,-0.5245001,0.29344475,0.6473613]},{"bias":0.23510611,"weights":[-0.32274884,0.7004533,0.65247846,0.006732106,0.9872222,0.09083331,-0.29892772,-0.5340802,-0.5814623,-0.23940909,-0.5714621,-0.41919726,0.85734105,-0.6961596,0.5808494,0.4626199,-0.9063642,-0.2820031,-0.9960184,0.30068958,0.87091184,-0.51550454,0.055306792,0.7505472,0.28085625,-0.89227223,0.5320952,-0.7624965,0.35504687,0.9887841]},{"bias":0.5320895,"weights":[-0.62363046,-0.1617068,0.5859611,0.03952658,-0.8784931,0.85127616,0.97119975,-0.51700705,-0.64409304,-0.5035388,0.27216685,0.93458486,0.0672797,0.8648367,-0.06399071,0.56994414,0.469427,0.8608918,0.21888983,-0.21565449,0.39397442,-0.63746715,-0.39158624,0.9382448,-0.682503,-0.79110956,0.82749534,0.20311868,0.66010237,-0.8022027]},{"bias":-0.8483546,"weights":[0.045462012,-0.26785845,-0.39035052,-0.7911227,0.19006574,0.6059201,0.97775435,-0.48006028,-0.6681297,-0.7099309,-0.6652825,0.39936316,0.98219156,-0.12134397,-0.65013695,-0.84195924,0.24069369,0.29690444,-0.28558153,0.37389147,0.47466385,-0.47192663,-0.2532515,0.51983833,-0.24939883,0.7924371,-0.17923582,0.17142975,0.47089493,0.29298365]},{"bias":0.79753137,"weights":[0.5961797,-0.90364885,-0.050448537,-0.6740477,-0.027022481,-0.62976575,0.04030335,0.7827697,-0.780463,-0.7897332,0.88391805,-0.57305425,-0.08460438,-0.8590653,-0.8568158,0.6166563,0.43629396,-0.9193082,0.1404854,-0.17811763,0.83527756,-0.18929064,0.13399804,0.32990324,-0.432357,-0.6949136,0.031500697,-0.9546335,0.6677127,-0.8865969]},{"bias":-0.5583727,"weights":[-0.88306236,0.7062895,-0.43756884,-0.15078866,-0.20766294,-0.16505706,-0.5881459,0.06917846,-0.64546776,-0.8856232,0.056215167,-0.042764306,-0.6401901,0.2388004,0.15692842,-0.9224067,-0.6029579,0.6775739,-0.8796892,-0.5403294,-0.40709513,-0.12462294,-0.19318426,0.56516886,0.3729161,0.005585313,0.95429325,-0.01758635,-0.5193314,0.0485574]},{"bias":0.7991626,"weights":[-0.2485255,0.50364757,0.5941882,-0.48443598,0.5158677,-0.5856709,-0.15549839,0.6876106,-0.14541256,-0.78688693,-0.53894275,0.550756,-0.41517037,0.5983634,-0.6281483,-0.5335216,0.40414727,0.06025374,0.19510496,0.9851732,0.3678671,-0.0022860765,-0.5925574,0.12355769,-0.88591814,-0.55799836,0.9456887,0.71333313,-0.6208405,0.4209534]},{"bias":0.525141,"weights":[0.61824083,0.7885723,0.9059937,-0.19994843,-0.56856793,-0.24835312,-0.39442414,0.8836725,-0.06103289,0.42548144,-0.024265409,-0.91130257,-0.5358431,0.7703886,0.79530454,-0.3651349,-0.04936874,-0.3022458,-0.4715919,-0.41481632,0.040855765,0.5754323,-0.7686913,-0.13857377,-0.6426947,-0.8213515,0.14647281,0.45540392,0.48201144,-0.5410554]},{"bias":-0.18545663,"weights":[0.81385684,0.8888054,-0.25810474,0.2204274,-0.71712065,0.9203522,-0.20425475,-0.58168334,0.11520779,0.0025070906,0.56920075,0.35338295,-0.8784661,0.20481312,0.91541624,-0.0067275763,-0.1506716,-0.9312968,-0.5870616,-0.6862514,0.32691586,0.16531217,0.8311565,-0.23525417,0.996778,0.38115823,-0.41650265,-0.8702445,-0.0007930994,0.76132655]},{"bias":0.35763156,"weights":[0.5130086,0.5154581,-0.22643697,-0.047602057,0.6845226,-0.7144284,-0.7056892,0.49433815,0.6529341,-0.044017196,0.5603931,-0.07048929,-0.2773146,0.98014235,-0.58230823,-0.35720772,0.4993173,-0.1498164,-0.054271817,0.679636,0.8899293,-0.4152221,-0.6369114,0.8572657,-0.37030667,-0.68376684,0.6775794,0.7966304,-0.94598126,0.5877168]},{"bias":-0.44676155,"weights":[0.41806376,-0.85971713,-0.4773919,-0.096699595,0.22027957,-0.603996,-0.75748706,0.24303257,-0.14128792,-0.0004938841,-0.7072785,0.6435151,-0.6419647,0.6379647,0.49690115,0.6175318,-0.76150894,0.2347604,-0.08258164,-0.19745553,0.47441208,0.8011708,0.13631499,-0.25499648,0.526474,0.6221113,-0.19043219,0.01977861,0.772403,-0.38032335]},{"bias":0.16855466,"weights":[0.69591737,-0.32963675,-0.7503557,-0.05343616,-0.78770876,0.4296893,-0.5828168,-0.71838117,-0.8288195,0.69603395,-0.124388814,-0.55006784,0.51181126,0.123485446,-0.84168124,0.9242823,0.22147453,0.652935,-0.8628228,-0.980793,-0.8822367,-0.14399183,0.7454996,0.17623985,0.7944281,-0.9883628,0.98145723,-0.3420412,0.78506064,0.04525864]},{"bias":0.9357641,"weights":[0.22009265,0.66978455,0.86410046,0.44293916,0.7937434,0.34774768,0.3821069,0.6296904,0.16216671,0.6372013,-0.3795089,0.33315837,-0.93653226,-0.58798283,0.73559785,0.40949452,-0.6459298,-0.8264077,-0.6200797,0.9773271,-0.0868479,-0.09045303,-0.74163294,0.90972877,0.89929485,-0.13137114,0.86124754,0.37370074,-0.33330816,-0.65351295]},{"bias":0.45725,"weights":[-0.9847219,0.80862546,-0.048170447,-0.8282149,0.8144095,-0.47953767,-0.39711517,0.4526564,0.31659138,-0.99967766,0.36071432,0.34340966,-0.748971,0.975693,0.5809674,-0.37631363,0.33942306,-0.8982115,-0.26254505,0.07942212,-0.6244635,0.10582554,-0.11756098,-0.4182822,-0.5627715,0.774889,0.33977306,0.1307534,-0.03112042,-0.46097487]},{"bias":-0.085096955,"weights":[-0.09337914,0.14887893,0.5285101,0.55553794,0.6798954,0.68459153,-0.051675916,-0.6985438,-0.1895994,0.046464562,0.71992683,0.86409974,-0.49274415,0.6881788,-0.63388395,0.5594461,-0.75115967,0.21984875,-0.013585448,-0.9985244,-0.40716547,0.24756634,0.2557875,-0.47344393,-0.823817,0.6710243,-0.50365776,0.20870888,0.60356116,-0.9364188]},{"bias":-0.7339442,"weights":[0.6743789,0.74512196,-0.26202768,0.9312637,0.12791693,-0.95621204,0.39967144,-0.521933,0.18188035,-0.27409357,0.11963737,0.9646604,-0.9830115,0.564641,0.66063476,-0.28872913,-0.34670538,-0.029001117,0.33462894,0.68402505,0.496544,0.2846564,0.4993235,-0.97836685,-0.0955981,0.24840581,-0.20322454,0.8554683,-0.8397217,-0.7722943]},{"bias":-0.021792293,"weights":[0.9586685,0.2916547,0.011577487,-0.4732992,0.1975609,-0.4280488,0.66500545,0.51509714,-0.33237666,0.44449174,-0.48205346,-0.36622185,-0.15554464,-0.080054164,-0.6680386,0.8270242,-0.024840713,0.31990325,-0.45219558,-0.15155923,0.13622224,0.17597592,0.7928021,-0.85921264,0.8431151,-0.6037683,-0.23166811,0.9677868,-0.96406794,0.6160016]},{"bias":-0.8894019,"weights":[0.60701585,-0.21986806,0.37046778,0.055554748,0.4965273,-0.09967458,-0.5531041,0.9961045,0.017482638,0.36151612,-0.49747962,-0.2344302,0.8773606,0.68944407,0.9927716,-0.3878793,-0.25139302,-0.48379105,0.27915585,-0.8846278,-0.7776418,-0.901474,0.25300968,0.33467185,0.7903373,-0.84365606,-0.33321375,0.17132318,0.4263438,-0.93879104]},{"bias":0.6698518,"weights":[0.020226121,-0.20943367,0.18583119,-0.4859571,-0.35409778,-0.98958063,-0.7320976,-0.43687886,-0.60581774,-0.7231524,0.576113,0.65411234,-0.34178275,0.3561319,0.7150097,0.81636524,0.88028264,-0.04517305,-0.16851461,-0.44880098,-0.19592011,0.8644264,-0.33749026,-0.62773395,-0.4507293,-0.66260695,-0.20888865,0.12349427,0.8302293,-0.8179951]},{"bias":0.17362034,"weights":[0.16963685,0.22926009,-0.72026634,-0.2399751,0.223091,-0.016067863,0.55252934,0.8214085,-0.23508441,0.80939746,-0.79475117,0.13718879,-0.7664859,0.83751726,-0.8740454,-0.10000193,-0.4401006,0.74720097,-0.49726385,-0.6667447,0.23759949,-0.07626259,0.20603979,0.8958366,0.68410015,0.98278713,-0.11714566,-0.7329383,0.54427004,-0.88272834]}]},{"neurons":[{"bias":-0.57556313,"weights":[-0.9768748,0.76278687,-0.45995468,-0.2045759,-0.22474134,0.5557914,-0.7690041,0.39691412,-0.7401035,-0.18033016,0.81720495,-0.91563416,-0.6344731,-0.66773105,-0.40036005,-0.62982464,-0.05699241,0.3198496,-0.16347635,0.27511156,0.7330704,0.023878694,0.7712314,-0.5606608,0.2685579,0.103670955,0.2195183,-0.46393508,-0.16116655,0.37829506]}]}]}