{"layers":[{"neurons":[{"bias":0.46747887,"weights":[-0.7267437,-0.86022186,-0.9051647,-0.035153985,0.4642414,0.70417714,-0.73374224,0.35345876,0.016269803,0.19051397,-0.8736975,0.8915963,-0.30389136,-0.39287275,-0.5547258,-0.7495258,-0.096881986,-0.5535225,0.13723004,-0.502207,0.8305011,0.45233142,0.6669593,-0.8437557,0.44430768,-0.42446774,-0.4419281,0.4808153,0.8539405,0.50839543]},{"bias":-0.28777832,"weights":[-0.08429134,0.25639284,-0.3642699,0.9355817,-0.22041023,0.5289428,-0.27222604,-0.61419314,0.3883456,0.025614142,-0.4663424,0.05019462,-0.21449625,0.06373227,-0.91311526,-0.2042638,-0.408719,0.12435949,-0.22876275,0.6771569,0.49697268,-0.9827769,-0.049812675,-0.24486172,-0.91155696,0.16974342,-0.8918619,0.3726157,0.6891942,-0.6602328]},{"bias":-0.8598547,"weights":[0.90334487,-0.50323313,-0.14752567,0.026827455,-0.9509797,-0.5966992,0.683023,-0.53248185,0.527606,0.3801142,0.99894476,0.3129593,-0.05959308,0.068079114,0.8701391,-0.1780845,0.10578096,-0.37012142,0.34885108,-0.9621992,0.7383797,-0.0786401,0.5895934,0.041137815,0.50008273,-0.56880945,0.5341778,0.92605853,-0.25956672,0.03093326]},{"bias":-0.55555815,"weights":[-0.013121724,0.11066377,0.8749864,-0.86662173,-0.84423184,0.91054225,-0.9951558,0.95103335,-0.51907605,-0.8916812,0.025646806,-0.825413,-0.01076901,0.23795879,-0.84655523,0.15613163,-0.99089813,-0.53211325,0.5602844,0.6831331,0.27020776,0.7651315,-0.6096441,0.6610062,0.6759331,0.02368486,0.47432005,-0.34534138,-0.77573013,0.09281528]},{"bias":0.49676692,"weights":[0.4824649,0.62758017,0.91967773,-0.017628074,-0.5170981,-0.49333996,-0.39279646,0.97580934,-0.35624617,-0.12974846,0.45972955,-0.646904,0.3955313,0.09306562,-0.4911601,0.91420317,-0.83753633,0.58382416,-0.6349163,-0.8393135,0.5026121,-0.3622312,-0.26209491,0.19329631,0.9055214,0.22586358,0.86690044,-0.99168086,0.9186878,0.009143233]},{"bias":-0.31294388,"weights":[0.77158785,-0.8948202,-0.65268826,-0.7492826,0.20642316,0.8257127,0.057433963,-0.39443082,0.30756485,-0.66370916,-0.33735913,-0.49153966,-0.9456816,0.25150764,0.5812571,-0.36345237,0.14757645,-0.7477884,-0.74415636,0.5136719,0.9318404,0.20288002,0.23400009,0.756057,-0.33149785,0.404487,-0.10998857,-0.4172296,-0.32898158,-0.17444313]},{"bias":-0.8198333,"weights":[-0.4900648,-0.29409498,-0.34653062,0.25846803,0.7965765,-0.6354499,-0.7092514,0.93585134,0.41794622,-0.7063501,-0.6995349,0.8376248,0.028324962,-0.7901511,0.6709461,0.621892,-0.75324345,-0.9858451,-0.029058576,-0.1277734,-0.059172273,0.59396625,-0.85558915,-0.08654225,-0.81358576,0.9770286,-0.5725667,-0.79537535,0.11835539,0.3863083]},{"bias":-0.9095185,"weights":[0.25886476,0.551574,0.95427656,0.78536844,0.8678355,-0.025171638,-0.4189288,0.44144428,0.7204025,-0.690752,-0.5922503,0.5280082,0.38976157,0.27266085,-0.24880278,0.068041205,-0.66662216,-0.39957446,0.5062902,-0.96322036,0.9108567,0.76199675,0.9975612,0.29839003,-0.14522517,0.68708634,-0.51850814,0.37040865,0.41943133,-0.8321481]},{"bias":-0.836895,"weights":[-0.72666216,-0.24969923,0.98574495,-0.6160366,0.3123039,-0.30097693,-0.40776438,-0.53746,-0.68993044,-0.7817397,0.72385526,-0.072583556,0.8457446,-0.36403102,-0.35831207,0.6742203,0.78878117,-0.03214276,0.13490212,-0.8274455,-0.1833409,0.13077176,0.49791372,0.91155076,0.22153056,-0.7582376,-0.71078014,0.2693411,0.2623135,-0.30174774]},{"bias":0.57814336,"weights":[-0.11629593,0.77560306,-0.877779,0.22817028,0.5005133,-0.17962897,0.863328,-0.74221206,0.4559523,0.91282916,-0.2926945,-0.28258604,-0.56694025,-0.18672645,0.4943794,0.37204683,0.94748163,-0.62782025,0.11041033,-0.51386684,-0.36057156,-0.614701,-0.53531903,-0.29825133,0.2506703,0.27781665,-0.44932503,0.46221745,-0.284532,0.83999205]},{"bias":-0.4606282,"weights":[-0.28019446,0.9598851,0.13717568,-0.79530406,0.20110023,0.35945547,0.041421056,-0.5715262,0.3187343,0.59924054,-0.90609074,-0.29443234,-0.15634811,-0.023579478,-0.45735496,-0.20128906,0.3896364,0.7232261,0.44568408,0.053766847,0.81631064,0.34841287,0.79212546,0.045327306,0.011677861,0.90810275,0.10929263,-0.5245001,0.36187398,0.6473613]},{"bias":0.05317533,"weights":[-0.12981403,0.9517939,0.7093847,0.006732106,0.9566374,-0.3720457,0.7558031,-0.5340802,0.16689265,-0.7725284,0.70229864,0.009243131,-0.4740631,-0.6961596,0.5808494,0.4626199,-0.9063642,-0.39901894,-0.4245271,-0.6840184,0.87091184,-0.053399205,0.055306792,0.7505472,0.17120206,-0.99306965,0.20184648,-0.7624965,-0.62957406,0.9887841]},{"bias":0.6833012,"weights":[0.53583646,-0.027046561,0.5859611,0.50783277,-0.8171704,-0.32272214,0.97119975,0.6008775,-0.64409304,-0.5035388,0.27216685,-0.89063597,-0.76778245,0.49683726,-0.06399071,-0.63255906,0.469427,0.057562232,-0.4360692,0.62614846,-0.96025395,-0.63746715,0.7547033,0.68786836,0.34184372,-0.79110956,-0.38098305,-0.2684924,-0.84621525,0.12022555]},{"bias":-0.8483546,"weights":[0.045462012,-0.76626205,-0.929101,-0.5476107,0.83851695,-0.7537544,0.6119895,-0.48006028,0.7050333,-0.7099309,0.045816302,-0.07656729,-0.7447119,-0.12134397,-0.024497151,-0.39372152,0.011889815,-0.5327708,-0.65999746,0.37389147,0.3236097,-0.47192663,-0.2532515,0.51983833,-0.24939883,0.24498904,0.7132168,0.75809383,-0.17778027,0.47658122]},{"bias":0.79753137,"weights":[0.5961797,-0.7820041,-0.91449666,-0.19684994,-0.58084697,0.48322546,-0.90163565,-0.82238936,-0.780463,-0.3419277,0.13759816,0.3250116,-0.794178,0.1763674,0.8188803,-0.32138723,-0.18306959,-0.076762795,0.73431945,-0.17811763,0.83527756,0.68392825,-0.50025934,0.32990324,-0.7250259,0.15180576,0.031500697,-0.4136843,0.6677127,-0.037186027]},{"bias":0.2734369,"weights":[-0.88306236,-0.77931976,-0.43756884,-0.15078866,0.9666102,-0.9411886,-0.5881459,0.23475683,0.9502177,-0.8856232,0.056215167,-0.042764306,-0.6401901,-0.080272555,-0.89319444,-0.9224067,-0.8271203,-0.08372724,-0.78518724,-0.5403294,0.5064702,0.15138781,0.23971784,0.18520725,0.8985822,0.16859877,0.95429325,-0.01758635,-0.5193314,0.0485574]},{"bias":0.95527315,"weights":[-0.82968044,-0.07414925,0.5941882,-0.48443598,0.5158677,-0.13897336,-0.15549839,0.6644974,-0.7890191,0.33515036,-0.5917451,-0.44057888,0.6658201,0.5983634,-0.5728709,0.23092616,-0.187379,0.031992555,0.19510496,-0.5794789,-0.34325522,0.41252458,0.33129704,0.7517545,-0.88591814,-0.7431431,0.9456887,0.71333313,0.91410923,0.430575]},{"bias":0.55661154,"weights":[-0.77673244,-0.98418355,-0.1508404,-0.61987823,-0.56856793,-0.24835312,-0.4711613,-0.6944473,-0.671304,-0.4661736,0.6078124,-0.47387356,-0.5358431,0.7703886,0.79530454,-0.3651349,0.31335032,-0.3022458,0.08663499,-0.41481632,-0.35006398,0.5754323,-0.7532387,0.845644,-0.6426947,-0.8213515,0.35289824,-0.94440436,-0.6186065,0.6517265]},{"bias":-0.7051873,"weights":[0.81385684,0.8888054,-0.25810474,0.2204274,-0.71712065,0.48611224,-0.20425475,0.992764,0.11520779,0.35882986,-0.49835008,0.28483164,0.38544,-0.35651654,0.91541624,-0.48770708,0.41272986,-0.45870274,0.57438517,0.556139,0.32691586,0.76555705,0.9319949,-0.23525417,0.2404195,0.38115823,0.44465554,-0.7561822,-0.0007930994,-0.32274193]},{"bias":0.35763156,"weights":[-0.250539,0.7643814,-0.63270855,-0.52674097,0.6845226,-0.41242498,0.36924493,-0.7988286,0.02820313,0.5164614,0.5603931,-0.15560877,0.7528329,0.304582,-0.55859154,-0.665869,0.2515515,-0.5337433,-0.054271817,0.679636,0.8024986,0.59599376,0.06723821,0.81710196,-0.37030667,-0.38772267,-0.15574157,-0.84020567,-0.94598126,-0.67233133]},{"bias":0.95188737,"weights":[-0.13991344,0.9105723,0.77890587,-0.8710921,0.22027957,0.4861685,-0.75748706,-0.42530078,0.502851,-0.0004938841,-0.27220696,-0.3524534,-0.6419647,0.123566985,-0.21843803,-0.9946594,0.8106711,0.2347604,0.9265213,-0.19745553,0.47441208,0.8011708,0.13631499,-0.25499648,0.4785689,0.47537553,-0.28372163,0.01977861,0.772403,0.96435356]},{"bias":0.20558703,"weights":[-0.6840317,-0.32963675,-0.73174906,-0.010455728,-0.91094804,0.3288995,-0.5828168,0.5800183,0.27816665,-0.20420897,-0.5449063,0.67003965,0.51181126,0.123485446,-0.6186525,-0.809577,0.22147453,0.05196345,-0.8628228,-0.980793,-0.8822367,-0.37848848,0.7454996,-0.047633052,0.7944281,-0.9883628,0.98145723,-0.79155874,0.20804965,-0.18582761]},{"bias":0.5562513,"weights":[0.3250667,-0.11395872,0.86410046,-0.10489762,0.1660248,0.083562255,0.3821069,0.9951978,0.16216671,0.37307775,-0.87095404,0.33315837,-0.25051087,-0.081569076,0.48781025,-0.4878835,-0.6459298,-0.13736665,-0.46908087,0.78682184,0.6245229,-0.09045303,-0.74163294,0.90972877,0.89929485,-0.43323296,0.86124754,0.6546023,0.5033133,-0.6900072]},{"bias":-0.64444184,"weights":[-0.28983277,-0.67044234,0.1314205,0.008856416,-0.76999545,-0.4902193,-0.39711517,-0.8872092,0.31659138,0.80375075,0.36071432,0.8690679,-0.07946241,0.975693,-0.5288109,-0.37631363,0.1889044,-0.8982115,-0.26254505,0.07942212,-0.6244635,0.7696171,0.6090522,0.21061623,-0.16801274,0.774889,0.55014086,0.9755509,0.6708238,-0.46097487]},{"bias":0.3312639,"weights":[-0.85673904,0.71105933,0.8163309,0.79284334,-0.08539832,0.21498978,-0.051675916,-0.6985438,0.5353384,0.046464562,0.71992683,0.86409974,-0.49274415,-0.36704558,0.9323399,-0.46351045,-0.16406333,-0.67177415,-0.013585448,0.16579401,-0.40716547,0.0355891,0.2557875,0.63435173,0.99368286,0.38897812,0.6830399,0.20870888,0.054367423,-0.7846477]},{"bias":-0.99039793,"weights":[0.08824766,0.74512196,0.21249044,-0.47054523,0.12791693,0.55813694,-0.66005516,-0.97757936,0.07069862,-0.27409357,0.25772798,-0.4015767,-0.9830115,-0.82848215,0.66063476,0.7612963,-0.014563203,-0.029001117,-0.035651326,0.94490194,-0.742501,0.2846564,-0.25719804,-0.97836685,-0.0955981,0.3465613,-0.20322454,0.8554683,0.99402905,-0.4496035]},{"bias":-0.68574643,"weights":[0.9586685,-0.55380076,-0.40912288,-0.4732992,0.1975609,-0.084581494,0.66500545,-0.49575514,-0.46422476,0.44449174,-0.48205346,-0.25306934,0.9594214,-0.102894425,0.08964479,0.80856895,0.637424,-0.07149637,0.38715756,-0.15155923,0.6342201,0.17597592,0.7928021,-0.85921264,0.8431151,-0.16559923,0.6469202,0.9677868,-0.96406794,-0.6959851]},{"bias":0.2905904,"weights":[0.37701428,-0.21986806,0.16437352,-0.1032635,0.4965273,-0.09967458,-0.14324033,-0.9695337,-0.6724405,0.36151612,0.51695037,0.99331665,-0.22890961,0.6495042,0.9927716,-0.6669018,-0.67692804,0.057320237,-0.78913593,0.5074289,0.9137714,-0.07292163,0.60020685,-0.79731727,0.7903373,-0.84365606,0.9366946,0.17132318,-0.29749626,-0.93879104]},{"bias":0.6698518,"weights":[-0.39649528,0.38084304,0.18583119,0.8627715,-0.35409778,-0.98958063,0.9527943,0.6379118,-0.6968708,-0.7231524,-0.62737393,0.65411234,-0.34178275,0.3561319,-0.52715796,0.81636524,-0.7005167,0.5973592,-0.14675653,-0.44880098,-0.08886182,0.8644264,-0.33749026,-0.62773395,0.59368896,-0.66260695,-0.20888865,0.5315597,-0.39100593,0.4497198]},{"bias":0.706615,"weights":[0.08903587,0.37127125,-0.72026634,-0.2399751,0.223091,0.79647017,0.55252934,-0.45101804,-0.23508441,0.11227834,0.9392581,-0.7937076,-0.64127994,-0.22245085,-0.8740454,-0.10000193,0.8972347,0.74720097,0.33478558,0.19285381,0.23759949,-0.07626259,-0.5856456,0.5362761,-0.023603559,-0.878041,0.89644766,-0.09431589,0.42539918,0.9617207]}]},{"neurons":[{"bias":-0.5537216,"weights":[-0.9768748,0.44814527,0.4972893,0.8327241,-0.22474134,0.09657228,0.22982037,0.39691412,-0.35593933,-0.258784,-0.22356355,0.003142953,-0.17664492,0.5400717,-0.40036005,-0.62982464,-0.05699241,-0.73066044,0.7620592,-0.6027698,0.24206793,0.1532923,-0.5660829,-0.5606608,0.0053554773,-0.15503561,0.2195183,-0.46393508,0.8277142,0.6843374]}]}]}