{"layers":[{"neurons":[{"bias":-0.75154376,"weights":[-0.7267437,-0.8084605,0.007589698,0.038301826,0.4642414,0.6203704,-0.6935172,0.35345876,0.016269803,0.19051397,-0.4583935,0.31994784,-0.30389136,0.10911,0.019377112,0.16041386,0.6390538,-0.5535225,0.13723004,-0.502207,0.8305011,-0.61140984,0.6669593,-0.8437557,0.44430768,-0.42446774,-0.5784711,0.3528098,-0.5253083,0.4831425]},{"bias":-0.610176,"weights":[-0.08429134,-0.695626,0.8878596,0.9355817,0.17837346,0.5289428,0.024911523,-0.4837708,-0.72243094,0.025614142,-0.5917496,0.42714942,0.40519345,-0.05885589,-0.91311526,-0.7022395,-0.6126768,0.73339605,-0.18419397,0.7677479,0.47161496,-0.9827769,0.3667401,-0.50317377,-0.91155696,0.94740105,-0.8918619,0.3726157,0.6891942,0.08457792]},{"bias":-0.8598547,"weights":[0.26970208,-0.50323313,-0.14752567,-0.30035418,-0.9509797,-0.5966992,0.683023,0.498263,0.527606,0.3801142,0.99894476,0.80537844,0.23996198,-0.377634,0.8701391,-0.1780845,0.10578096,-0.37012142,0.34885108,-0.9621992,0.7383797,-0.0786401,-0.33894128,0.041137815,0.50008273,0.6759927,0.5341778,0.92605853,0.8440151,0.03093326]},{"bias":-0.6921859,"weights":[-0.15484488,0.18202865,-0.14727724,-0.86662173,0.8055439,0.23051631,-0.9951558,0.95103335,-0.783592,-0.8916812,-0.9388473,-0.825413,-0.01076901,0.23795879,-0.84655523,0.15613163,0.95405173,-0.53211325,-0.19069684,0.055874705,-0.85263944,0.7651315,-0.74930286,-0.13158953,0.6759331,0.027474046,0.86844254,-0.34534138,0.04157722,0.09281528]},{"bias":0.27281058,"weights":[0.41622174,0.62758017,0.15216291,-0.22835529,0.6243136,-0.49333996,-0.39279646,0.069339156,-0.1466502,-0.12974846,0.45972955,-0.5907461,-0.8436971,0.09306562,-0.4911601,0.27361262,-0.83753633,-0.29904288,-0.6349163,-0.11950815,0.5026121,-0.10546839,-0.26209491,0.19329631,0.9055214,0.22586358,0.86690044,-0.99168086,-0.17377603,0.009143233]},{"bias":-0.24189079,"weights":[0.77158785,-0.8948202,-0.9209907,0.12179816,-0.82835317,-0.12909734,0.72426915,-0.39443082,0.6286917,-0.66370916,-0.33735913,-0.15075004,-0.9456816,-0.17070091,-0.097721934,-0.36345237,0.14757645,-0.7477884,-0.74415636,0.5136719,0.9318404,0.20288002,-0.6329701,0.756057,0.3156854,0.404487,0.44682086,-0.5224847,-0.9942038,0.58804774]},{"bias":-0.03471744,"weights":[0.30885494,0.82143426,-0.34653062,0.25846803,0.8972547,0.18593824,-0.7092514,0.93585134,0.41794622,0.9459913,-0.41076988,0.15489376,0.028324962,-0.7901511,0.9341619,-0.7924807,-0.9836285,-0.9858451,-0.029058576,-0.57202023,-0.059172273,0.59396625,-0.9061036,0.44352782,0.77942634,0.9770286,-0.5725667,-0.79537535,0.61836696,0.3863083]},{"bias":-0.9095185,"weights":[0.25886476,0.551574,0.95427656,0.78536844,0.8678355,-0.025171638,-0.4189288,0.44144428,0.7204025,0.6233463,0.23601067,0.6237068,0.18326914,-0.3697192,-0.24880278,0.068041205,-0.66662216,-0.39957446,-0.49631852,0.10310662,0.5980389,-0.21316612,0.9975612,-0.59814805,0.1574527,0.68708634,0.88146687,0.37040865,0.52291965,-0.8321481]},{"bias":-0.836895,"weights":[-0.72666216,-0.24969923,0.98574495,-0.6160366,0.3123039,-0.30097693,-0.40776438,-0.53746,0.17811215,-0.7817397,0.49429357,-0.072583556,-0.37643665,0.54110074,-0.35831207,0.42835224,-0.5857374,-0.03214276,-0.64741015,-0.8274455,0.78688955,-0.07987893,0.49791372,0.91155076,0.22153056,0.68717194,-0.71078014,-0.1769675,-0.24661076,-0.30174774]},{"bias":0.57814336,"weights":[0.38494313,0.43231738,0.23671544,0.22817028,0.6562476,-0.2682702,-0.7338333,-0.4506833,0.4559523,0.9650881,-0.2926945,-0.28258604,-0.56694025,0.5146518,-0.66282916,0.106446385,-0.6120607,-0.62782025,0.11041033,-0.51386684,-0.36057156,-0.614701,-0.53531903,-0.29825133,0.2506703,0.27781665,-0.44932503,0.46221745,-0.284532,0.8743727]},{"bias":-0.4606282,"weights":[0.428594,0.9598851,-0.44955415,-0.79530406,-0.34967965,0.35945547,0.041421056,-0.5715262,0.3187343,-0.67908454,-0.90609074,-0.29443234,-0.11063087,-0.023579478,-0.45735496,-0.20128906,-0.17823422,0.7232261,0.041562915,0.053766847,0.81631064,0.34841287,0.79212546,0.045327306,0.011677861,0.44807255,-0.76779056,-0.5245001,-0.79722667,-0.41851515]},{"bias":-0.64820695,"weights":[-0.3288402,0.0048784018,0.559227,0.006732106,0.9566374,-0.3720457,-0.7435849,0.86697626,-0.408374,-0.5158934,0.089583516,0.009243131,-0.8717544,0.74980927,0.87879395,-0.7932005,-0.501856,-0.20964658,-0.4245271,-0.7751219,-0.2296716,0.0113636255,0.055306792,0.7505472,0.17120206,0.76944923,0.61408854,-0.7624965,-0.41805595,-0.05007541]},{"bias":-0.107497096,"weights":[0.53583646,0.3986057,0.014918923,0.50783277,-0.8171704,-0.6862891,0.97119975,0.6008775,-0.64409304,-0.5035388,0.27216685,-0.89063597,0.09296358,0.49683726,-0.06399071,-0.63255906,0.38939297,0.057562232,0.6166358,0.62614846,0.5300193,0.45405018,-0.4930007,0.68786836,0.34184372,-0.8282106,0.4445895,-0.6527147,-0.8775897,0.12022555]},{"bias":0.26976192,"weights":[0.045462012,-0.76626205,-0.929101,-0.5476107,0.83851695,-0.29202884,0.6119895,-0.42446512,0.7675512,-0.7099309,0.045816302,-0.023416638,0.34065545,-0.12134397,-0.024497151,-0.39372152,0.6188936,-0.50822943,0.78538656,0.46518862,0.85621786,0.6298976,-0.94321847,0.8900645,-0.24939883,-0.2520811,-0.8061631,0.75809383,0.4122392,0.47658122]},{"bias":-0.44588727,"weights":[-0.28166503,-0.7820041,-0.91449666,-0.31447738,0.49649036,-0.352755,-0.90163565,-0.82238936,0.57654357,-0.507693,0.13759816,0.3250116,-0.18992984,-0.7939985,-0.49666613,-0.32138723,0.9663775,-0.076762795,0.93757844,0.72790885,0.83527756,-0.18394887,-0.0067619085,0.85505486,-0.7250259,0.15180576,0.031500697,0.80700755,0.76731133,-0.037186027]},{"bias":0.1967622,"weights":[-0.88306236,-0.77931976,-0.43756884,0.9799695,-0.40059155,0.24320042,0.40047085,-0.14231694,0.29858315,-0.41360706,0.056215167,-0.042764306,0.94395447,-0.080272555,0.024526477,-0.8409629,-0.8271203,-0.08372724,-0.78518724,0.47202313,0.5064702,-0.7741451,-0.0013643503,-0.13554704,0.8985822,0.16859877,-0.9918115,-0.01758635,-0.5193314,0.0485574]},{"bias":0.95527315,"weights":[-0.82968044,-0.07414925,0.5941882,-0.48443598,0.5158677,-0.13897336,0.9446988,0.35052717,-0.7890191,0.29422677,-0.5917451,-0.22192633,0.6658201,-0.9217694,-0.5728709,0.6515589,-0.73354125,0.8374901,0.19510496,0.33422053,0.40636384,0.3124007,0.33129704,0.7517545,-0.88591814,-0.84196115,0.9456887,-0.9653127,0.91410923,0.5650027]},{"bias":-0.05548489,"weights":[0.8292165,-0.98418355,-0.28821248,-0.61987823,-0.945673,-0.24835312,-0.52914137,-0.6944473,-0.671304,-0.4661736,0.6078124,-0.47387356,-0.5358431,0.7703886,0.79530454,-0.81339884,-0.22510397,-0.3022458,0.08663499,-0.44004458,-0.42623872,0.5754323,-0.7532387,0.6088197,-0.6426947,-0.8213515,0.35289824,-0.7805326,-0.1597811,0.6517265]},{"bias":-0.7051873,"weights":[0.81385684,0.8888054,-0.25810474,-0.15010893,-0.71712065,-0.12357128,-0.8555138,-0.09125817,0.33154523,0.35882986,-0.49835008,-0.91664314,0.38544,-0.35651654,0.7952447,0.23871481,0.41272986,-0.45870274,0.57438517,0.556139,0.09733975,0.76555705,0.9319949,-0.23525417,0.15356219,0.38115823,0.34873426,0.36299384,0.62253237,0.50873137]},{"bias":0.35763156,"weights":[0.15309894,0.21285498,-0.63270855,-0.63848615,0.08450544,-0.21782744,0.36924493,-0.1910578,-0.4084224,0.57342577,0.5603931,0.00009691715,0.7528329,0.304582,0.35678208,-0.665869,-0.88188076,-0.5337433,-0.054271817,0.679636,0.8024986,0.59599376,-0.16518176,-0.704334,0.6591356,0.047944188,-0.019526362,-0.84020567,-0.30679387,0.40811384]},{"bias":0.95188737,"weights":[-0.9756236,0.9105723,0.34857905,-0.99019766,0.22027957,-0.41118163,0.75764084,-0.42530078,0.502851,-0.0004938841,0.6737249,-0.3524534,-0.6419647,0.123566985,-0.21843803,-0.16526306,-0.82087564,0.0077804327,-0.4803111,-0.80477095,0.47441208,0.8011708,0.13631499,-0.25499648,-0.635427,0.47537553,-0.28372163,0.0143328905,0.76972413,0.49077237]},{"bias":0.20558703,"weights":[-0.97020555,-0.32963675,-0.73174906,-0.5301258,-0.91094804,0.59178543,-0.95067024,0.5800183,0.27816665,0.13518584,-0.5449063,0.67003965,0.51181126,0.48896158,0.6376302,0.42984927,0.0708977,0.05196345,-0.8628228,-0.09509051,-0.97195816,-0.37848848,0.7454996,-0.047633052,0.7944281,-0.9883628,-0.45530957,-0.79155874,0.20804965,-0.18582761]},{"bias":-0.034882426,"weights":[0.3250667,0.8046334,0.86410046,-0.10489762,0.1660248,0.083562255,0.3821069,0.7160542,0.16216671,0.94652295,-0.10895169,0.33315837,-0.7054086,-0.081569076,0.23643029,-0.93030024,-0.027663589,-0.13736665,0.21225512,-0.45611376,0.6245229,-0.8997395,-0.74163294,-0.9818208,-0.93862915,-0.43323296,-0.19648254,-0.6367669,0.5033133,-0.7017939]},{"bias":0.21628296,"weights":[-0.3154313,-0.060038924,0.22538745,0.008856416,-0.76999545,-0.06962645,-0.39711517,-0.8872092,0.31659138,0.22664678,0.41807473,-0.91406775,-0.07946241,0.22770274,-0.5288109,-0.8576236,0.29751074,-0.8982115,-0.21793091,0.07942212,0.9369168,0.029281974,-0.9998982,-0.23312724,-0.16801274,-0.5262763,0.55014086,-0.07644999,0.14861143,0.14775717]},{"bias":-0.31920284,"weights":[-0.85673904,0.5808792,0.5011411,0.79284334,-0.0070728064,0.21498978,-0.16756213,-0.6985438,0.057843328,0.046464562,0.2892996,0.86409974,-0.49274415,-0.36704558,0.9323399,0.96101594,-0.8538842,-0.67177415,-0.013585448,0.42888653,-0.40716547,-0.35351866,0.2557875,0.5715225,-0.8739519,0.38897812,0.6830399,0.20870888,0.8769684,-0.09663379]},{"bias":-0.99039793,"weights":[-0.99718523,0.74512196,0.21249044,0.90013266,0.12791693,0.5078654,-0.66005516,-0.36616582,0.07069862,-0.60759014,0.037397504,-0.4015767,0.8359852,-0.82848215,0.66063476,0.7612963,-0.014563203,0.802753,0.57867074,0.94490194,-0.7684686,0.09774768,0.370067,-0.97836685,0.242643,0.3465613,-0.20322454,0.8554683,0.24905097,-0.4496035]},{"bias":0.869329,"weights":[-0.10120022,-0.55380076,0.61361337,0.90282464,-0.44581598,0.8382788,0.66500545,-0.49575514,-0.8288851,0.7068727,-0.48205346,-0.25306934,0.93024874,-0.102894425,0.08964479,0.80856895,0.637424,-0.07149637,-0.55112284,-0.26207966,0.6342201,0.7813165,-0.0014039278,0.72383,-0.042538285,0.8903222,0.6469202,0.9677868,-0.96406794,-0.6959851]},{"bias":0.2905904,"weights":[-0.4209816,-0.21986806,0.11649668,-0.23616421,0.4965273,-0.09967458,0.54631853,-0.9695337,0.4397441,0.36151612,-0.013234973,0.70382285,-0.22890961,0.9550688,0.9927716,-0.83206725,-0.67692804,0.057320237,0.43576825,0.5074289,0.9137714,0.8508475,0.15086925,-0.79731727,0.7903373,0.48427737,0.9366946,0.17132318,-0.06702483,-0.93879104]},{"bias":-0.80737114,"weights":[-0.39649528,0.21024573,-0.3894295,-0.1929959,-0.35409778,-0.98958063,0.19845736,0.6379118,-0.89097357,-0.26614636,-0.27145976,0.9909971,-0.34178275,0.3561319,-0.9081924,0.81636524,-0.7594111,0.6939771,-0.14675653,-0.44880098,-0.08886182,0.8644264,-0.33749026,-0.62773395,0.59368896,0.25838387,-0.20888865,0.5315597,-0.12939513,-0.46730274]},{"bias":-0.18270361,"weights":[0.08903587,0.37127125,-0.72026634,-0.38028187,0.223091,-0.03251779,-0.34608573,-0.45101804,-0.23508441,0.11227834,0.9392581,-0.7937076,-0.64127994,-0.18239892,0.17324269,0.3681966,0.4402119,0.34177482,0.33478558,0.7066598,0.28174293,-0.07626259,-0.9650831,0.7899442,-0.023603559,0.83617187,0.89644766,-0.09431589,0.42539918,-0.3457603]}]},{"neurons":[{"bias":0.32256353,"weights":[-0.022948623,0.44814527,0.4972893,0.8327241,-0.22474134,-0.093125224,0.22982037,0.39691412,-0.35593933,-0.258784,-0.26187485,0.003142953,-0.20493805,0.5400717,-0.40036005,-0.62982464,0.8953042,-0.6675279,0.31469166,-0.6027698,-0.37138623,0.1532923,-0.31246608,-0.3255908,0.21440852,0.24330723,-0.7874763,0.94826627,0.82006764,-0.6120023]}]}]}