{"layers":[{"neurons":[{"bias":0.3812381,"weights":[0.3147155,-0.06490338,0.21632761,-0.77751994,-0.61857665,-0.12542117,0.007823348,0.5558214,-0.73930764,-0.6884827,0.11966479,-0.009439111,0.86661726,0.8379178,0.9516158,0.8376281,-0.5545816,-1.0,-0.67533684,-0.052331567,-0.117473006,-0.19880712,-0.50092095,0.48948944,0.51173496,0.88145065,0.7226856,0.41071746,0.30303776,-0.28544873]},{"bias":0.08741486,"weights":[-0.9175508,0.2059356,-0.35577554,-0.30778736,-0.6773875,-0.8522089,0.4112138,-0.9898976,-0.74078727,-0.32742542,0.98257875,0.6596081,0.17981994,0.64727736,0.9856572,0.34947073,0.34591663,-0.9015696,-0.30987972,0.2885157,0.71216065,0.81843996,-0.12746581,0.390671,-0.04643762,-0.38891023,-0.5806393,-0.2585258,-0.8252897,-0.076161504]},{"bias":0.73595047,"weights":[-0.17972243,0.36134374,-0.93853736,0.28474367,-0.7234092,-0.12141253,0.7224402,-0.98599434,-0.30457532,-0.7537894,-0.39117163,-0.21540153,-0.64596343,0.579164,0.060740426,-0.5437731,-0.039547764,-0.49611488,0.15177333,0.34623325,-0.3790483,-0.089292645,-0.29284757,0.4228083,-0.78556776,0.63098717,0.11160791,-0.38777274,0.7800343,0.68074995]},{"bias":-0.67737436,"weights":[0.40607807,-0.90274894,-0.29865998,-0.6115324,0.013504624,-0.9986391,0.9923961,-0.10344422,0.23066819,0.932369,-0.62763333,0.7308707,-0.2807711,-0.8914635,-0.4739234,0.13319528,-0.57558364,-0.68966055,-0.6246092,0.6821945,-0.08950102,-0.7707851,-0.32553712,-0.09468138,0.46810734,-0.5677872,0.018063188,1.0,-0.16437566,0.20857656]},{"bias":-0.0561949,"weights":[0.9955704,0.9677114,-0.31199518,-0.27813455,-0.7779324,0.45126215,0.7849629,-0.6818115,0.56315523,0.16520488,-0.3298858,0.30039155,0.33599293,0.24063742,0.021487355,-0.6637075,0.38787937,0.8927014,0.27865732,0.5642739,-0.030734897,-0.32330126,-0.028601766,-0.59296894,-0.47283208,0.6951282,-0.16866052,-0.17200142,0.904794,0.07197487]},{"bias":0.7039778,"weights":[0.24096596,-0.20136511,0.73634744,-0.17862475,0.6818396,0.5108662,0.3655237,-0.7279513,0.044184394,-0.55841416,0.92409396,0.9473753,-0.69743574,0.5991048,-0.017858662,-0.35270163,-0.031051278,0.213184,0.9165373,0.19403794,-0.9583911,0.21988428,0.9931791,0.36787093,0.5837929,0.94069266,0.31623253,0.9493351,0.37897098,-0.12163007]},{"bias":-0.23743021,"weights":[0.76293564,-0.586981,0.010243297,-0.5851892,0.7392533,-0.13442889,-0.8344073,-0.71854496,-0.7773458,0.20153868,-0.8098438,-0.45617908,0.8906078,0.65770197,-0.24857882,0.6031122,0.07502973,0.52403665,0.33771956,-0.96392876,0.6947036,-0.6781348,0.085054755,0.1420666,-0.8548956,-0.8643255,-0.7471999,0.8402531,0.485197,0.58075166]},{"bias":0.8580487,"weights":[-0.97585034,0.14539796,-0.37134928,-0.50042987,0.5065541,0.3209659,-0.104346156,0.32114613,-0.17705047,0.77432585,0.5085554,-0.4734351,-0.3042157,-0.89942694,-0.019755006,0.6738665,-1.0,0.14478385,-0.077531934,-0.78820133,-0.35555,0.902758,0.10222781,-0.6357665,-0.016964793,-0.37232012,0.21103747,0.35924256,-0.23338555,0.80760914]},{"bias":0.017448783,"weights":[-0.061626736,0.64768106,-0.83220863,0.1631631,-0.05463612,0.8379314,0.39277232,0.90961003,-0.07708862,0.25345075,-0.26943034,-0.30653906,-0.5107309,0.17191136,0.4165336,0.6474676,0.26602829,0.771832,0.46364537,0.13152063,0.6865445,0.2578894,0.9384043,0.67347795,-0.2728638,-0.48032826,0.13258016,-0.9491451,-0.71587753,-0.06148904]},{"bias":0.6313586,"weights":[-0.25798315,0.43657458,-0.57158846,0.772655,-0.7745671,-0.5062233,-0.88778174,0.5117588,0.8872659,-0.86165357,-0.71035564,-0.485974,-0.39110464,0.30713618,0.678596,0.63633156,-0.29817894,0.55850434,0.14736098,-0.30789822,0.7009014,0.5668839,0.3447309,-0.74538517,0.82396704,0.8127378,-0.5116021,-0.9766829,-0.25244945,-0.84362423]},{"bias":-0.9474902,"weights":[-0.39659566,0.19067323,-0.45956916,-0.854372,0.46874535,0.9281695,-0.30264845,-0.15519154,-0.12989485,0.21909606,0.35433626,0.026229024,-0.63612056,-0.72298884,-0.07612479,-0.51141304,0.6325255,-0.4088592,-0.81102365,0.43309104,0.84480125,-0.49826854,-0.7681439,-0.3751225,0.18020761,0.5127299,-0.30736706,-0.3908679,-0.15657127,0.68898374]},{"bias":-0.057852864,"weights":[-0.49223655,-0.72107697,0.6263746,0.7291424,-0.91721874,-0.80804276,0.48335177,0.05982268,0.36155045,0.37372243,0.69880164,0.038851857,-0.29393685,-0.63490534,0.1498122,-0.9900284,0.80107725,-0.70675635,0.8677604,0.7809658,-0.35043257,0.70339704,0.713629,0.3580395,1.0,-0.95075667,0.38558617,-0.74580365,0.21452081,-0.44634932]},{"bias":0.36876595,"weights":[0.64848256,-0.5239598,0.59690446,-0.34404472,-0.4005775,0.37769568,-0.75567293,-0.78393567,-0.39093393,-0.88783574,0.40400514,0.32716462,-0.45426935,-0.31956762,-0.35825574,0.5031173,-0.60057825,-0.8710351,0.8398233,0.3868534,0.035152517,-0.025071502,0.18775976,-0.05985391,0.04684317,0.93279743,-0.03169477,0.6277008,-0.22334373,0.8066361]},{"bias":-0.17163193,"weights":[-0.27403468,-0.44903797,-0.74674064,-0.9009805,0.48374856,0.6235988,-0.095636964,-0.0695554,0.14942014,-0.8688257,0.16204345,-0.8882849,0.9315779,0.7914984,0.789123,-0.8288624,0.9345143,-0.454853,-0.96009445,-0.397052,0.40074193,-0.8233274,0.34629083,-0.30368966,0.61843467,-0.75763595,1.0,0.2587341,-0.04968273,0.004381776]},{"bias":0.5294738,"weights":[0.8645823,-0.5514919,0.6833656,-0.1285404,0.86508226,-0.38092458,-0.37235254,-0.25560993,-0.2184869,0.40011775,0.054199576,0.32673204,-0.19515526,-0.9373722,0.36704457,-0.7167258,0.5083544,-0.7642758,0.67546463,-0.055321924,-0.21929967,-0.87920976,0.4898122,0.328555,0.97867733,-0.64589274,0.966378,0.8130548,-0.37485617,0.49370596]},{"bias":-0.20016634,"weights":[-0.033110738,0.4142195,0.68109775,0.8726196,-0.39693183,-0.14789784,0.07708824,0.1324178,-0.23782265,-0.5787217,0.8341057,-0.5861024,-0.33033404,-0.9517875,0.9805145,0.9977896,0.15627283,-0.32452938,-0.76759124,-0.84249026,0.54862213,0.79948115,-0.8987143,0.3646654,-0.751407,0.33631504,-0.043155313,-0.39703983,-0.43714893,0.79235864]},{"bias":-0.91491795,"weights":[-0.30454463,-0.5582568,-0.2351321,0.10821356,0.48300803,-0.22720659,0.20039065,0.13222006,0.41331995,-1.0,-0.963194,-0.013001323,0.6749058,-0.14270389,0.67934537,0.8361182,0.7580974,-0.6787667,-0.48271677,-0.5039224,0.87598795,-0.57354254,-0.42623585,-0.94877625,0.101371884,-0.76875764,-0.7477381,0.9256296,-0.5644087,0.30417883]},{"bias":0.6200266,"weights":[0.2695138,-0.29172963,0.16036832,0.98502207,0.5838959,-0.7117357,-0.64934474,-0.91765046,0.71633273,0.38338077,-0.11124599,0.67736363,0.3806616,0.06407654,0.5005574,-0.86890936,-0.4007432,-0.6987567,0.12781036,-0.60936517,0.67554665,0.29691112,0.6105406,-0.82150936,0.7227113,0.040184855,-0.4060623,0.04752338,0.81356096,-0.68219924]},{"bias":-0.29457277,"weights":[-0.23799431,0.6568222,-0.5300574,0.43320787,0.79898834,-0.20930195,0.23081267,0.0010133982,0.63744116,0.7342949,0.7940652,0.64715815,-0.29214317,-0.55699897,-0.3896929,0.6420369,-0.5900933,-0.16601099,0.1403805,0.8011696,-0.09424651,0.41884363,0.21910566,0.32351577,0.9368558,-0.90363836,0.666149,-0.278336,-0.8548875,0.39035356]},{"bias":0.6515255,"weights":[0.008753896,-0.8547201,0.98794675,-0.60309094,-0.3039009,0.87724924,0.9538455,-0.10499537,0.48355567,-0.80068743,0.29683912,0.039658666,-0.7517922,-0.54351085,0.5532596,0.31186372,0.39896262,0.9419389,-0.7029605,0.62232566,0.6153588,-0.44743413,0.89767784,-0.18301594,0.13905847,0.53385067,-0.5268121,0.3840357,-0.49810356,-0.96013594]},{"bias":0.12887251,"weights":[0.11582959,1.0,0.24674731,-0.7855122,-0.18247736,-0.5373139,0.099515796,0.46282113,-0.44673246,0.96418214,-0.14547837,0.6433181,-0.017257802,-0.6604112,0.9548793,0.88708425,-0.8340179,-0.6626346,-0.8108108,-0.6372988,-0.5749292,0.5949247,-0.57721776,0.91743517,-0.5458984,-0.8594897,0.5071175,-0.35464495,-0.06254542,0.4271367]},{"bias":0.46980345,"weights":[-0.3897879,0.076621175,-0.9543216,-0.9112277,-0.71565676,-0.14183055,0.75915664,-0.14954555,-0.800127,-0.5722341,-0.5931451,-0.5837452,-0.38475403,0.477121,0.6169789,0.90917414,-0.67100334,-0.48195976,-0.8631496,-0.75341105,-0.4105751,-0.17111968,-0.74585426,0.96462107,0.39097917,0.64690876,0.4274323,0.3794223,-0.25896233,-0.06883633]},{"bias":0.22072732,"weights":[-0.5435836,-0.031865716,-0.28725356,-0.9794848,0.47292984,-0.25677937,0.28090248,-0.9286208,0.7902174,0.027457342,0.037353873,0.62654924,0.5468278,0.9760499,-0.8983576,-0.50511855,-0.73115396,-0.17809093,-0.32701033,0.06880748,-0.6251991,-0.12461183,-0.8801336,0.46495545,-0.37226257,-0.6355297,-0.21363673,-0.78680325,-0.34088558,0.70081234]},{"bias":0.6024809,"weights":[0.16447294,-0.8670025,0.12275374,-0.687134,0.18579257,-0.22274292,0.70286655,0.44034708,-0.7033901,0.6257843,0.31789792,-0.6294551,-0.88589954,0.7910354,0.24034345,-0.45223635,0.33922756,-0.63314956,0.60261965,-0.12994173,-0.5825607,0.036627233,-0.3806092,0.63007116,-0.9776952,0.6047081,0.73827934,-0.7997062,0.23010147,-0.89217186]},{"bias":0.8475263,"weights":[-0.84681106,-0.47518104,0.38491458,0.20939815,-0.007099159,-0.60048693,0.3458634,-0.6039951,0.5799073,-0.7667222,-0.818625,0.7328696,-0.10668861,-0.26981142,-0.8468678,-0.5759432,0.6440668,0.18055737,-0.46511364,-0.31145185,0.12459693,0.8427255,0.74842143,0.43408334,-0.61900157,0.44129002,-0.6736382,-0.15333927,0.624084,0.120246254]},{"bias":0.8739183,"weights":[0.44454825,0.99080205,0.15575337,-0.098620646,0.21748435,0.25011694,0.1922983,-0.6550038,0.6941688,-0.0326041,0.8526428,0.8220563,-0.31019658,0.79178977,0.21507347,-0.29936713,0.99691653,0.3369757,0.3654908,0.4887718,0.99991274,0.23210177,0.6477325,0.9272814,-0.85899764,0.97562814,-0.09315249,-0.4410028,0.82426476,-0.9519577]},{"bias":-0.08847797,"weights":[-0.74468184,-0.90094876,0.8015902,-0.5003392,0.6996808,0.83553505,0.14335585,0.7582824,0.62771213,-0.37298697,0.45362866,0.65510964,0.3682941,0.9383764,0.24876171,0.9400666,0.9880588,0.9320123,-0.9103091,0.5037401,-0.13487566,0.41874444,0.28564686,0.9155206,-0.8932576,0.74990344,0.31699103,-0.31521147,0.75891435,-0.355312]},{"bias":-0.50088495,"weights":[0.2684511,-0.022991724,0.95060754,0.5476489,-0.319452,0.5049589,0.964097,-0.6818874,0.9431734,-0.17295086,0.3725487,0.5664972,-0.8485236,-0.8262484,0.070215344,0.86445236,0.51878023,-0.45103163,-0.12126982,-0.09055364,-0.6477511,0.5416553,0.06678164,-0.6824757,-0.11623349,-0.6134193,-0.10596764,-0.6039355,-0.14426649,0.6982591]},{"bias":-0.18761075,"weights":[0.0062628984,-0.8882191,-0.8111088,-0.69767904,0.4177947,-0.2827542,-0.9035164,-0.15069783,-0.95449996,0.72521424,-0.44690293,0.8133306,0.8345294,0.20653403,0.12542117,0.9643402,0.61133355,0.5802982,-0.22371042,0.14057791,-0.16078117,0.89421624,0.53292537,-0.1832825,0.05132544,0.9125447,-0.25063413,0.097669244,-0.19041264,0.7235687]},{"bias":0.601702,"weights":[0.047355056,-0.6343825,-0.9452219,-0.6020269,0.70009136,0.2561375,0.34501743,0.26157606,0.003430009,0.13879716,0.5628257,0.45247322,0.48511553,0.9031546,0.8615477,0.56845903,-0.5623172,0.13550818,-0.40639037,0.9308424,-0.27737516,-0.3402564,0.6746027,0.12148726,-0.4492839,0.56983423,-0.84707296,-0.5713598,-0.16847217,0.107850194]}]},{"neurons":[{"bias":0.41738808,"weights":[0.8720248,0.70126224,0.0031279847,0.72030187,-0.24232781,0.8157828,0.9225774,-0.5763418,0.5132015,0.4148363,0.7163343,0.7181144,-0.45710462,-0.6115646,-0.36650914,-0.9007311,-0.25844288,-0.3253054,0.5650954,-0.0036446378,0.17378053,0.8505049,-0.6387501,-0.8884336,0.52083695,0.21554935,0.98214304,0.14936101,0.028408408,-0.40741917]}]}]}