{"layers":[{"neurons":[{"bias":-0.75154376,"weights":[-0.1303178,-0.8084605,0.29965937,0.038301826,0.4642414,0.6203704,0.942646,-0.2272836,0.87673974,0.8424628,-0.12708032,0.31994784,0.53922606,0.55362916,0.019377112,0.16041386,-0.9745698,-0.5535225,0.13723004,-0.502207,0.8305011,-0.17421067,0.6669593,0.100226045,0.8625109,0.6877718,-0.5784711,-0.6498251,-0.5253083,0.4831425]},{"bias":-0.610176,"weights":[-0.08429134,-0.695626,0.8878596,0.9355817,-0.19345653,0.5289428,0.8376169,0.84526134,-0.72243094,0.5680523,0.37312806,0.42714942,0.40519345,-0.192227,-0.91311526,-0.7022395,-0.41464418,0.5551317,-0.18419397,0.7677479,-0.8919456,-0.83918524,-0.78998876,-0.7738743,-0.3413803,0.47237813,-0.8918619,0.3726157,-0.63224936,0.08457792]},{"bias":-0.8598547,"weights":[0.26970208,-0.50323313,0.82457495,-0.30035418,-0.9509797,0.5315857,0.683023,0.498263,0.527606,-0.22485387,0.99894476,0.7632067,0.23996198,-0.377634,0.8701391,-0.1780845,0.10578096,-0.37012142,0.34885108,-0.9621992,0.7383797,-0.8190594,0.815192,0.041137815,0.50008273,0.6759927,0.5341778,0.92605853,0.8440151,0.03093326]},{"bias":0.92322373,"weights":[-0.15484488,0.18202865,-0.14727724,-0.86662173,0.8487854,0.23051631,-0.9951558,-0.6006755,-0.783592,-0.8916812,-0.9388473,-0.825413,-0.01076901,0.23795879,-0.84655523,0.15613163,0.95405173,-0.53211325,-0.19069684,0.96102595,-0.34993786,-0.9550326,-0.74930286,-0.83625793,0.6759331,-0.2822253,-0.11580527,-0.058520913,0.15349615,0.09281528]},{"bias":0.27281058,"weights":[-0.26599473,0.62758017,0.7303989,0.29070604,-0.038728595,-0.49333996,0.37021482,0.16520274,0.9786134,-0.12974846,0.9184332,-0.5907461,-0.8436971,0.09306562,0.33960187,0.27361262,-0.83753633,-0.29904288,-0.6349163,-0.11950815,0.5026121,0.04150927,-0.26209491,-0.6000542,0.9055214,0.92479277,-0.10447228,-0.9371021,0.99885607,0.009143233]},{"bias":0.035828233,"weights":[0.3513111,0.7803364,0.6598041,-0.5097427,-0.41865653,-0.12909734,-0.12844098,-0.39443082,0.6286917,-0.66370916,-0.33735913,-0.15075004,-0.9456816,-0.17070091,-0.9153569,-0.36345237,0.14757645,-0.7477884,0.16152751,-0.7125461,0.9318404,-0.77023935,-0.6329701,0.756057,-0.033172727,0.404487,-0.17236316,-0.8869531,0.5843034,0.58804774]},{"bias":-0.03471744,"weights":[0.30885494,0.82143426,-0.34653062,0.25846803,0.6650381,0.18593824,-0.7092514,-0.76671815,0.41794622,0.9459913,-0.41076988,0.15489376,0.028324962,-0.51396936,0.9341619,0.32359803,-0.9836285,0.116871476,-0.5568313,-0.57202023,-0.059172273,0.59396625,0.2581867,-0.3443522,0.77942634,-0.33615392,-0.06590903,-0.79537535,0.61836696,0.3863083]},{"bias":0.76904726,"weights":[0.25886476,-0.13725936,-0.79406595,0.78536844,0.8678355,0.24221647,-0.4189288,0.44144428,0.7204025,0.6233463,0.23601067,-0.16602218,0.2739643,-0.3697192,-0.7548151,0.17740309,-0.66662216,-0.52058285,-0.49631852,0.10310662,0.5980389,-0.21316612,0.9975612,-0.59814805,0.1574527,-0.60312814,0.88146687,0.28684056,0.52291965,-0.34462398]},{"bias":-0.836895,"weights":[-0.72666216,-0.042998195,-0.60573095,-0.3628022,-0.4936785,-0.41864198,-0.40776438,0.7001629,0.17811215,-0.7817397,0.49429357,0.29871976,-0.37643665,0.54110074,-0.39530677,0.44064748,0.25865257,-0.86887574,0.4455961,-0.8274455,0.78688955,-0.07987893,0.49791372,0.0010279417,0.22153056,-0.7147746,-0.71078014,-0.1769675,-0.24661076,-0.30174774]},{"bias":0.57814336,"weights":[-0.47641057,0.38697398,0.23671544,0.22817028,0.6562476,-0.2682702,0.31164396,-0.4506833,-0.18488657,-0.8816166,-0.16416276,-0.9935391,0.7347393,-0.5271811,-0.66282916,0.106446385,-0.7321403,0.21842349,0.11041033,-0.51386684,-0.36057156,-0.614701,-0.53531903,-0.29825133,0.76270866,0.27781665,-0.44932503,0.46221745,-0.284532,0.14088666]},{"bias":-0.4606282,"weights":[0.428594,0.9598851,-0.44955415,0.6751416,0.5223007,0.35945547,0.8493159,-0.5715262,-0.82821536,-0.67908454,-0.90609074,-0.29443234,0.12990868,-0.023579478,-0.45735496,0.3165506,-0.17823422,0.30485976,0.72417307,0.053766847,0.81631064,0.34841287,0.8623338,0.4954909,0.9682872,0.44807255,-0.76779056,-0.57228416,-0.79722667,-0.41851515]},{"bias":-0.64820695,"weights":[-0.3288402,0.0048784018,0.559227,-0.38695306,0.9566374,-0.3720457,-0.7435849,0.99717,-0.408374,-0.6832254,0.7805538,0.009243131,-0.329683,-0.66669965,0.9790087,-0.7932005,-0.501856,-0.29836553,-0.4245271,-0.7751219,-0.2296716,0.0113636255,0.055306792,0.31801736,0.17120206,0.76944923,0.61408854,0.05689633,-0.41805595,0.9933603]},{"bias":-0.107497096,"weights":[0.53583646,0.3986057,0.014918923,-0.68537974,-0.8171704,0.18597233,0.546118,0.6008775,-0.38281697,-0.5035388,0.27216685,-0.89063597,-0.043737054,-0.35490292,0.55669284,-0.63255906,0.38939297,0.057562232,0.6166358,0.62614846,0.7257931,0.45405018,-0.4930007,0.31934893,0.34184372,0.64772034,0.4445895,-0.6527147,-0.8775897,0.20851672]},{"bias":0.26976192,"weights":[0.045462012,-0.06075728,-0.32245773,-0.33371395,0.83851695,-0.29202884,0.24843419,-0.42446512,0.7675512,-0.7099309,-0.28740853,0.79225683,0.34065545,-0.12134397,-0.024497151,-0.39372152,-0.6922264,-0.10229766,-0.23666775,0.80783606,0.85621786,0.6298976,-0.939178,0.8900645,-0.24939883,0.7800455,-0.8061631,0.75809383,-0.8472202,0.8301778]},{"bias":-0.44588727,"weights":[-0.28166503,-0.7820041,-0.91449666,-0.71933436,0.02547729,0.17268336,0.02000463,-0.82238936,0.57013917,0.2466873,0.090109944,0.86069536,0.40421355,-0.7939985,0.65850353,-0.32138723,0.9663775,-0.71880484,0.93757844,0.09926021,0.83527756,-0.18394887,-0.0067619085,0.85505486,-0.7250259,0.15180576,-0.98561025,-0.8221953,0.76731133,-0.037186027]},{"bias":0.1967622,"weights":[-0.88306236,-0.77931976,-0.43756884,0.9799695,-0.40059155,-0.23253524,0.40047085,-0.14231694,0.29858315,-0.41360706,0.056215167,-0.042764306,-0.7301285,0.03534758,0.024526477,-0.8409629,-0.8271203,-0.08372724,-0.78518724,0.47202313,-0.34733027,0.82548475,-0.0013643503,-0.13554704,0.8985822,0.8245585,-0.9918115,0.19888604,-0.5193314,0.0485574]},{"bias":0.95527315,"weights":[-0.82968044,-0.07414925,0.5941882,-0.48443598,0.5158677,-0.13897336,0.9446988,0.22019327,-0.7890191,0.29422677,-0.5917451,0.9835651,0.6658201,-0.9217694,-0.5728709,0.6515589,-0.27976054,0.8374901,-0.09517014,0.33164012,-0.028976321,0.3124007,0.33129704,0.7517545,-0.41154712,-0.84196115,0.9456887,-0.9653127,0.91410923,0.5650027]},{"bias":-0.4364187,"weights":[-0.3504817,-0.98418355,-0.28821248,-0.61987823,-0.945673,0.7656398,-0.52914137,-0.4350919,-0.671304,-0.4661736,-0.28490204,-0.47387356,-0.5358431,0.3854674,0.34034812,0.05191219,-0.22510397,-0.5467655,0.08663499,0.06025517,-0.5041544,0.5754323,-0.7532387,-0.19526494,-0.6426947,0.9765775,0.35289824,-0.7805326,-0.67541075,0.6517265]},{"bias":-0.7051873,"weights":[0.81385684,0.8888054,-0.25810474,0.1609267,-0.77686596,0.6438036,-0.8555138,-0.09125817,0.5552311,-0.54790324,-0.6922903,-0.91664314,0.006571889,-0.35651654,0.8058281,0.23871481,0.41272986,-0.39409965,0.57438517,0.556139,-0.14536369,0.76555705,0.9319949,-0.23525417,0.15356219,0.15411842,0.4572078,0.36299384,0.62253237,0.50873137]},{"bias":0.08595097,"weights":[0.6556225,0.21285498,-0.61964005,-0.63848615,0.08450544,-0.21782744,0.36924493,-0.1910578,0.6496546,0.57342577,0.5603931,0.00009691715,0.7528329,0.84160185,0.35678208,-0.95315766,-0.6226973,-0.33937043,-0.054271817,-0.8352251,-0.314624,0.59599376,0.8709307,-0.704334,-0.90444684,0.047944188,-0.019526362,-0.84020567,-0.30679387,0.40811384]},{"bias":0.9878149,"weights":[-0.9756236,-0.3831944,0.074595094,0.7786324,0.22027957,0.8290591,0.75764084,-0.42530078,0.9680948,-0.0004938841,0.6737249,-0.3524534,-0.6419647,-0.92648506,-0.21843803,0.025217414,0.43274343,-0.25408024,-0.4803111,-0.80477095,0.47441208,0.8011708,0.13631499,-0.25499648,-0.635427,-0.67854166,-0.28372163,-0.8040402,-0.35516733,0.49077237]},{"bias":0.16035736,"weights":[0.80153203,-0.32963675,-0.73174906,-0.5301258,0.97071743,0.59178543,-0.95067024,0.5800183,-0.74945784,0.13518584,-0.5449063,0.67003965,0.35090697,0.41938293,0.6376302,-0.7186134,0.0708977,0.05196345,-0.8628228,-0.09509051,-0.97195816,-0.37848848,-0.49362892,-0.047633052,0.046625257,-0.9883628,-0.45530957,0.39554608,-0.014241815,0.86462235]},{"bias":-0.034882426,"weights":[0.3250667,0.8046334,0.86410046,-0.4579088,0.1660248,0.083562255,-0.7094157,0.7160542,0.16216671,0.94652295,0.74398184,0.33315837,-0.7054086,-0.081569076,0.23643029,0.40145838,0.0649153,-0.13736665,0.21225512,-0.45611376,0.6245229,-0.8997395,-0.90550685,0.5916064,-0.25528592,-0.013100743,-0.19648254,-0.22653401,0.5033133,-0.37617677]},{"bias":0.9914379,"weights":[-0.3154313,-0.050493836,0.22538745,0.008856416,-0.52134174,-0.06962645,0.8316877,-0.8872092,0.31659138,0.22664678,-0.0918926,-0.8276973,-0.07946241,0.119902015,-0.5288109,0.5421665,0.29751074,-0.8982115,-0.28877014,0.07942212,0.8748927,-0.55152744,-0.9998982,-0.23312724,-0.29496163,-0.5262763,-0.6440244,-0.16280544,-0.42748183,0.14775717]},{"bias":-0.31920284,"weights":[-0.85673904,0.5808792,0.5011411,0.79284334,-0.0070728064,0.21498978,-0.7172439,-0.52003425,0.057843328,-0.6292138,0.2892996,-0.036419988,-0.49274415,0.91912913,0.8545277,0.96101594,-0.8538842,-0.67177415,-0.14465368,0.42888653,-0.40716547,0.9331832,-0.010508418,0.43463886,-0.98524356,-0.97994804,0.6830399,0.20870888,-0.04655969,0.42367494]},{"bias":-0.3712234,"weights":[-0.37366027,0.74512196,0.21249044,0.90013266,-0.9073758,0.37314594,-0.66005516,0.34661257,0.07069862,-0.60759014,-0.17580593,-0.4015767,0.49707925,0.6830058,0.66063476,0.6212354,-0.014563203,0.802753,0.37517154,0.94490194,-0.4579839,-0.46952718,0.370067,-0.8337462,-0.20499551,0.3465613,-0.20322454,0.8554683,-0.4365856,-0.4496035]},{"bias":0.869329,"weights":[-0.10120022,-0.55380076,0.61361337,0.22686017,-0.44581598,0.8382788,0.66500545,-0.49575514,-0.8288851,0.7068727,-0.48205346,-0.70282626,0.5713439,-0.28018135,-0.59275573,0.80856895,0.637424,-0.07149637,-0.55112284,-0.26207966,0.6342201,0.9728093,-0.0014039278,0.72383,-0.042538285,0.8903222,0.5235057,0.08220708,-0.96406794,0.46525156]},{"bias":0.2905904,"weights":[-0.4209816,-0.21986806,0.78245234,-0.9224994,-0.14956367,-0.09967458,-0.00057303905,-0.87675834,0.8379104,0.36151612,-0.013234973,0.70382285,-0.22890961,0.9550688,0.62020564,-0.888108,-0.041077018,-0.33431977,0.43576825,0.5074289,0.9137714,0.8508475,0.15086925,-0.79731727,0.34067714,0.28339493,0.9366946,0.42639673,-0.06702483,-0.37444967]},{"bias":-0.80737114,"weights":[-0.39649528,0.43576276,-0.3894295,-0.1929959,-0.35409778,-0.98958063,0.19845736,0.6379118,-0.89097357,-0.0390867,-0.27145976,0.9909971,-0.34178275,0.3561319,-0.9081924,0.51468706,0.64693546,0.6939771,-0.473998,0.6176157,0.05839479,0.8644264,-0.33749026,-0.62773395,0.7872343,0.25838387,-0.20888865,-0.67303133,-0.12939513,-0.46730274]},{"bias":-0.7242749,"weights":[0.08903587,0.37127125,0.21302736,-0.38028187,0.970958,0.88254213,-0.34608573,-0.45101804,-0.23508441,0.40028298,0.70751977,-0.9187968,-0.64127994,0.36535394,-0.4386446,0.82831645,0.4402119,0.34177482,0.33478558,0.7066598,0.28174293,-0.07626259,-0.9650831,0.7899442,-0.023603559,0.83617187,-0.5251698,-0.24221647,0.42539918,-0.9067452]}]},{"neurons":[{"bias":0.32256353,"weights":[-0.022948623,0.44814527,0.4972893,0.8327241,-0.22474134,0.63082767,-0.96728325,0.16819751,-0.35593933,0.18309128,0.4841975,0.003142953,0.74608374,0.5400717,-0.40036005,-0.62982464,0.8953042,-0.6675279,0.31469166,-0.6027698,-0.37138623,-0.36375922,0.84819436,0.81853604,0.21440852,0.24330723,-0.4863338,0.94826627,0.82006764,-0.6120023]}]}]}