{"layers":[{"neurons":[{"bias":-0.34370798,"weights":[-0.1303178,-0.8084605,0.29965937,0.038301826,0.4642414,0.6203704,0.942646,-0.2272836,0.87673974,0.8424628,-0.12708032,0.31994784,0.45446312,0.55362916,-0.3508255,0.16041386,-0.9745698,-0.5535225,0.13723004,-0.502207,-0.24871743,-0.17421067,-0.6959288,0.7723882,0.8625109,-0.80541587,-0.8420384,-0.6498251,0.46045458,0.4831425]},{"bias":-0.11409509,"weights":[0.2142514,-0.695626,0.030418992,-0.58340496,0.28821933,-0.8684437,0.8376169,0.84526134,-0.72243094,0.76556516,0.37312806,0.42714942,0.40519345,-0.192227,-0.2728817,0.37352955,-0.015188336,0.5551317,-0.18419397,0.7677479,-0.45895594,-0.83918524,-0.78998876,-0.7738743,0.4301542,0.47237813,0.71544504,0.3726157,-0.63224936,0.08457792]},{"bias":-0.8598547,"weights":[0.26970208,-0.50323313,0.5145626,-0.6283355,-0.9509797,0.5315857,0.683023,0.9708667,0.8528955,-0.22485387,0.99894476,-0.6747179,0.23996198,-0.377634,0.8715699,0.008748651,0.10578096,-0.37012142,0.34885108,-0.9621992,0.7383797,-0.8190594,0.815192,0.041137815,0.50008273,0.45314062,0.5341778,0.92605853,0.8440151,0.03093326]},{"bias":-0.26908296,"weights":[-0.15484488,0.18202865,-0.14727724,-0.86662173,0.63471365,0.6331291,-0.9951558,-0.6006755,-0.783592,-0.8916812,0.3383392,-0.825413,0.49839604,-0.23093188,-0.84655523,0.15613163,-0.7041135,-0.53211325,-0.19069684,0.96102595,-0.34993786,-0.9550326,-0.74930286,-0.83625793,0.6759331,0.8184955,-0.11580527,-0.058520913,0.15349615,0.09281528]},{"bias":0.27281058,"weights":[-0.26599473,0.62758017,0.7303989,0.3608452,-0.038728595,-0.49333996,0.37021482,0.27721608,0.9786134,-0.12974846,0.9184332,-0.5907461,0.813045,0.09306562,0.33960187,0.27361262,-0.83753633,-0.69852996,0.025734305,-0.11950815,0.5026121,0.04150927,-0.26209491,-0.6000542,0.9055214,0.92479277,-0.10447228,-0.9371021,-0.10315502,0.009143233]},{"bias":0.035828233,"weights":[-0.31962746,0.5298135,0.6598041,0.639873,-0.41865653,-0.12909734,-0.12844098,-0.39443082,0.6286917,-0.66370916,-0.33735913,-0.15075004,-0.9456816,-0.17070091,0.28112257,-0.74865365,0.6213889,-0.7477884,-0.562036,-0.7125461,0.9318404,-0.77023935,-0.6329701,-0.050593734,-0.033172727,0.404487,-0.7887976,-0.8869531,0.5843034,-0.5433158]},{"bias":-0.5592832,"weights":[0.7792766,0.82143426,-0.34653062,0.25846803,0.6650381,-0.40815276,-0.7092514,-0.76671815,-0.122180104,-0.024376035,0.0030680895,0.15489376,0.028324962,-0.51396936,0.9341619,0.60255194,-0.9836285,0.116871476,0.8789549,-0.57202023,-0.9899924,0.36100233,0.49987948,-0.3443522,0.77942634,-0.33615392,-0.06590903,0.6303954,0.61836696,0.3863083]},{"bias":0.76904726,"weights":[0.42421043,0.32087123,-0.80717826,0.78536844,0.7947359,0.24221647,-0.4189288,0.44144428,0.7204025,0.46402538,0.22192943,0.21822011,0.2739643,-0.3697192,-0.7548151,0.17740309,-0.66662216,-0.52058285,-0.49631852,0.10310662,0.5980389,-0.21316612,0.9975612,-0.7804096,0.18429029,-0.60312814,0.88146687,-0.63440394,0.52291965,-0.34462398]},{"bias":-0.836895,"weights":[-0.72666216,0.36442816,-0.60573095,-0.3628022,-0.4936785,0.35186446,-0.40776438,-0.46645707,0.17811215,-0.7817397,0.49429357,0.29871976,-0.37643665,0.54110074,-0.39530677,0.44064748,0.25865257,-0.86887574,0.9416499,-0.8274455,0.5296378,-0.07987893,0.49791372,0.0010279417,0.22153056,-0.7147746,-0.71078014,-0.1769675,-0.58996886,-0.60051936]},{"bias":0.57814336,"weights":[-0.47641057,0.38697398,-0.4609217,0.22817028,0.6562476,-0.7866001,0.31164396,-0.4506833,-0.18488657,0.65121675,-0.16416276,-0.9935391,0.7347393,-0.37655085,-0.66282916,0.9878259,-0.7321403,-0.29133052,0.11041033,-0.51386684,0.5605283,-0.614701,-0.09614217,-0.29825133,0.76270866,-0.044553638,-0.44932503,0.06045878,-0.284532,0.6624539]},{"bias":-0.4606282,"weights":[0.428594,-0.31745332,-0.44955415,0.6751416,0.5223007,0.36450922,-0.9209204,-0.5715262,-0.82821536,-0.67908454,-0.90609074,0.7021694,0.12990868,-0.4468519,-0.45735496,0.32749283,-0.17823422,0.30485976,0.72417307,0.053766847,0.81631064,0.34841287,0.8623338,0.4954909,-0.3251273,0.44807255,-0.76779056,-0.57228416,-0.47756523,-0.41851515]},{"bias":-0.64820695,"weights":[-0.8308954,0.0048784018,0.559227,-0.38695306,0.9566374,0.37292707,-0.7435849,0.99717,-0.12592494,-0.6832254,0.7805538,0.6528578,-0.329683,-0.8053868,-0.045733333,-0.7932005,-0.501856,-0.29836553,-0.4245271,-0.7751219,-0.2296716,0.0113636255,0.055306792,0.31801736,0.17120206,0.76944923,0.61408854,-0.52648467,-0.41805595,0.9933603]},{"bias":-0.107497096,"weights":[0.53583646,-0.48100394,0.014918923,-0.68537974,-0.8171704,0.18597233,0.546118,0.81905365,-0.38281697,-0.5035388,0.6287031,0.39876807,-0.043737054,-0.9657557,0.55669284,-0.63255906,0.38939297,0.057562232,0.6166358,0.62614846,0.7257931,0.45405018,-0.4930007,0.365126,0.08123028,0.64772034,0.4445895,-0.6527147,-0.8775897,0.20851672]},{"bias":0.26976192,"weights":[0.045462012,-0.06075728,-0.32245773,-0.61208457,-0.86175466,-0.29202884,0.24843419,-0.42446512,0.7675512,0.5375681,-0.28740853,0.79225683,-0.19819081,-0.12134397,-0.024497151,-0.39372152,-0.6922264,-0.10229766,-0.23666775,0.80783606,0.85621786,0.6298976,-0.9276054,0.8900645,-0.24939883,0.7800455,-0.8061631,0.75809383,-0.7072258,0.8301778]},{"bias":-0.72620344,"weights":[-0.28166503,-0.7820041,-0.9620905,-0.71933436,0.02547729,0.17268336,0.02000463,-0.8091674,0.0691272,0.2466873,0.090109944,0.86069536,0.94746804,-0.7939985,0.65850353,-0.9217057,0.9663775,-0.76737714,0.93757844,0.09926021,-0.37378687,-0.18394887,-0.0067619085,0.85505486,-0.7250259,0.35919893,-0.98561025,-0.7295761,-0.9333484,-0.8230152]},{"bias":0.1967622,"weights":[-0.88306236,-0.77931976,-0.43756884,0.9799695,0.4643606,-0.23253524,0.40047085,-0.14231694,0.29858315,-0.41360706,0.056215167,0.7729852,-0.7301285,0.03534758,0.024526477,-0.8409629,-0.8271203,-0.08372724,-0.78518724,0.47202313,-0.34733027,0.52738166,-0.0013643503,-0.13554704,0.8985822,0.8245585,-0.9918115,0.19888604,-0.5193314,0.17359626]},{"bias":0.95527315,"weights":[-0.82968044,-0.07414925,-0.060185075,-0.48443598,0.5158677,-0.053367972,0.9446988,0.22019327,0.33141148,0.29422677,-0.5917451,0.9835651,0.6658201,-0.9217694,-0.5728709,0.6515589,-0.27976054,0.80495,0.54540205,0.77549005,-0.028976321,0.22529924,0.59443307,0.7517545,-0.41154712,-0.84196115,0.9456887,-0.5371675,0.5351732,-0.88261557]},{"bias":-0.9200802,"weights":[-0.3504817,-0.98418355,0.000011563301,0.93014336,-0.945673,0.7656398,-0.52914137,0.03865683,-0.671304,-0.4661736,-0.28490204,-0.47387356,0.52012825,-0.8028846,0.34034812,0.05191219,-0.22510397,-0.5467655,0.08663499,0.06025517,-0.5041544,0.5754323,-0.7532387,-0.19526494,-0.9680009,0.9765775,0.35289824,-0.7805326,-0.67541075,-0.49541062]},{"bias":-0.7051873,"weights":[-0.023977399,0.8888054,-0.25810474,0.1609267,-0.22704875,0.6438036,0.75475144,0.59034085,-0.03902781,-0.54790324,0.4882933,-0.91664314,0.006571889,0.9389162,0.8058281,0.23871481,0.41272986,-0.39409965,0.57438517,0.8660958,-0.14536369,0.76555705,0.9319949,0.46943772,0.15356219,0.63515234,0.4572078,-0.7210727,0.62253237,0.05808103]},{"bias":-0.073658824,"weights":[0.6556225,0.21285498,-0.61964005,0.9500134,0.26280153,-0.15586245,-0.3130061,-0.6224875,-0.3750016,0.649915,0.5603931,-0.4700374,0.3316785,0.84160185,0.35678208,-0.95315766,-0.6226973,0.31929958,-0.054271817,-0.8352251,-0.314624,0.5367081,0.8709307,-0.704334,-0.90444684,0.047944188,-0.019526362,-0.84020567,0.2381643,0.40811384]},{"bias":0.9878149,"weights":[-0.9756236,-0.3831944,0.57567906,0.7786324,0.22027957,0.8290591,0.75764084,-0.42530078,0.9680948,-0.25458044,0.6737249,-0.3524534,-0.6419647,-0.92648506,-0.28959602,0.025217414,0.43274343,-0.25408024,0.8182931,-0.80477095,0.998055,0.4654857,-0.162094,-0.25499648,-0.635427,-0.48011416,-0.88945293,-0.8040402,-0.99960685,0.49077237]},{"bias":0.03339517,"weights":[0.80153203,0.5027907,0.46807683,-0.62586665,0.97071743,0.59178543,-0.95067024,0.5800183,-0.34504884,0.13518584,-0.5449063,0.67003965,0.35090697,-0.8243921,-0.8280823,-0.7186134,0.0708977,0.85079813,-0.8628228,-0.09509051,-0.97195816,-0.37848848,-0.49362892,0.39772332,0.046625257,-0.9883628,-0.45530957,-0.69853115,0.20100582,0.86462235]},{"bias":-0.034882426,"weights":[0.3250667,0.8046334,0.86410046,0.19268501,0.1660248,-0.19370139,-0.7094157,0.7160542,0.16216671,-0.7946596,0.74398184,0.33315837,0.33328664,-0.081569076,0.23643029,0.40145838,0.0649153,-0.93611574,-0.8330581,0.7067003,0.6245229,-0.8997395,-0.90550685,0.5916064,-0.25528592,0.8410189,-0.19648254,-0.22653401,0.5033133,-0.37617677]},{"bias":0.9266536,"weights":[-0.3154313,-0.44324082,0.22538745,0.008856416,-0.52134174,-0.23293245,0.8316877,-0.8872092,0.31659138,0.22664678,-0.0918926,-0.8276973,-0.07946241,0.119902015,0.49880493,0.5421665,0.29751074,-0.8982115,-0.33956665,0.07942212,-0.7890005,-0.55152744,0.47433913,0.1476618,-0.29496163,-0.5262763,-0.4174754,-0.16280544,-0.42748183,0.14775717]},{"bias":-0.6810558,"weights":[-0.85673904,0.5808792,0.5011411,-0.7830181,-0.0070728064,0.9798207,-0.7172439,0.59297323,0.057843328,-0.6292138,-0.19470298,-0.036419988,-0.2780487,0.91912913,0.9479606,-0.9298737,-0.8538842,0.56152153,-0.14465368,0.42888653,-0.5209467,0.9331832,-0.010508418,0.13807666,-0.98524356,-0.15919101,0.6830399,0.25910342,-0.63968754,0.42367494]},{"bias":-0.3712234,"weights":[-0.37366027,0.74512196,0.21249044,0.6412771,-0.60215133,0.018078446,-0.66005516,0.34661257,0.07069862,-0.37964505,-0.17580593,-0.4015767,0.49707925,0.6830058,0.66063476,0.6345153,-0.014563203,0.802753,-0.31797785,0.03693807,-0.4579839,-0.36292118,0.370067,-0.8337462,-0.20499551,0.51331925,-0.20322454,0.8554683,0.85656595,-0.4496035]},{"bias":0.869329,"weights":[-0.84525084,-0.55380076,0.61361337,0.22686017,-0.44581598,0.8382788,0.66500545,0.8768468,0.58416176,0.7068727,-0.48205346,0.54182076,0.5713439,-0.28018135,-0.59275573,0.80856895,0.637424,0.24062097,-0.55112284,0.8120663,-0.2939703,-0.56877106,-0.27290577,0.72383,-0.042538285,0.8903222,0.5235057,0.08220708,-0.96406794,0.46525156]},{"bias":-0.654634,"weights":[-0.4209816,-0.21986806,0.78245234,-0.9224994,-0.33390802,0.75528693,-0.00057303905,-0.87675834,0.9377856,0.36151612,-0.4192695,0.3041998,-0.22890961,0.9550688,0.62020564,-0.888108,-0.041077018,-0.33431977,0.43576825,0.5074289,-0.92565894,0.8508475,0.38046038,-0.79731727,0.40999448,0.28339493,0.73746777,-0.13810217,0.768095,0.54224277]},{"bias":-0.7633319,"weights":[-0.99224377,0.43576276,-0.9879148,-0.1929959,0.47928798,-0.98958063,0.19845736,0.6379118,-0.71959376,-0.0390867,-0.27145976,0.9909971,-0.34178275,0.3561319,-0.9081924,0.51468706,0.64693546,0.6939771,-0.473998,0.6176157,0.36455452,-0.0034769773,-0.33749026,-0.62773395,0.7872343,0.25838387,-0.20888865,-0.67303133,0.03243673,-0.46730274]},{"bias":0.72085977,"weights":[0.08903587,0.37127125,-0.75098443,0.996335,0.970958,0.88254213,-0.34608573,-0.45101804,-0.23508441,0.40028298,0.04953134,-0.9187968,-0.64127994,0.14849675,-0.4386446,0.82831645,0.4402119,0.34177482,0.33478558,0.7066598,0.3036157,-0.07626259,-0.9650831,0.7899442,-0.023603559,0.83617187,-0.5251698,-0.24221647,-0.8769641,-0.5440621]}]},{"neurons":[{"bias":-0.64664674,"weights":[-0.022948623,0.44814527,0.4972893,0.8327241,-0.22474134,0.63082767,-0.05125606,0.16819751,-0.35593933,0.18309128,0.4841975,0.003142953,-0.19112813,0.5801425,-0.40036005,-0.62982464,0.8953042,-0.3558671,0.31469166,0.12836611,0.39612734,-0.36375922,-0.15224898,0.81853604,0.21440852,-0.6457503,0.6641669,0.94826627,0.7739036,-0.007638812]}]}]}