{"layers":[{"neurons":[{"bias":-0.34370798,"weights":[-0.1303178,0.37851274,0.29965937,0.038301826,0.4642414,0.6337788,0.942646,-0.032338977,0.87673974,0.1897825,0.23458946,0.31994784,0.45446312,0.55362916,0.82380676,-0.012069106,-0.9745698,-0.5535225,-0.9756286,0.8754926,0.61204314,-0.17421067,-0.6959288,-0.41616172,0.8625109,-0.0919317,0.7432971,-0.65930414,0.46045458,0.12044394]},{"bias":-0.11409509,"weights":[-0.23249567,-0.695626,0.3357128,0.9571421,-0.6065814,-0.8684437,0.12816441,0.57020617,-0.72243094,-0.48480028,0.37312806,0.42714942,0.40519345,-0.192227,-0.64299536,-0.35571164,-0.6787672,0.5551317,-0.18419397,0.37717998,-0.45895594,0.83692455,-0.8537092,-0.7738743,0.4301542,-0.9280844,-0.64592767,-0.34548753,0.6768105,0.67928576]},{"bias":-0.821048,"weights":[0.26970208,-0.50323313,-0.49329633,-0.6283355,-0.9509797,0.5315857,-0.1492418,0.9708667,-0.40718073,-0.14021814,-0.027403712,-0.8736131,0.23996198,-0.377634,0.8715699,0.7758496,0.10578096,0.77339077,0.34885108,0.38697183,-0.9980395,0.023253322,0.815192,0.041137815,0.50008273,-0.96428895,-0.25944346,0.34218967,0.8440151,-0.7392936]},{"bias":-0.26908296,"weights":[-0.15484488,0.18202865,-0.14727724,0.8607278,0.63471365,0.6331291,-0.68859553,-0.6006755,-0.783592,-0.25499552,0.08333075,-0.825413,-0.2774586,-0.23093188,-0.84655523,0.15613163,0.62480164,-0.99923754,0.4551443,0.96102595,-0.34993786,-0.9550326,-0.74930286,-0.83625793,-0.6436939,0.8184955,-0.11580527,-0.058520913,0.22253478,-0.18633616]},{"bias":-0.38111752,"weights":[-0.26599473,0.62758017,0.69935775,-0.97806215,-0.038728595,-0.49333996,0.37021482,-0.028120875,-0.9108813,-0.12974846,0.3215605,-0.5907461,0.813045,0.91299653,-0.7201505,0.14086998,-0.83753633,-0.69852996,-0.89842653,-0.11950815,0.5026121,0.04150927,-0.26209491,-0.9064212,0.9055214,-0.25639457,-0.10447228,-0.9371021,-0.10315502,0.009143233]},{"bias":0.035828233,"weights":[-0.34865373,0.766834,-0.10491884,-0.07339513,-0.9825957,0.9134629,-0.678036,-0.39443082,0.6286917,-0.22351563,-0.44574064,0.29273498,-0.9456816,0.0055772066,0.28112257,-0.74865365,0.6213889,0.072155595,0.27303708,-0.2628588,0.68139887,-0.77023935,-0.5745124,-0.050593734,0.4851867,0.87388325,-0.7887976,-0.8869531,0.5843034,-0.5860025]},{"bias":-0.39046878,"weights":[-0.29207748,0.82143426,-0.34653062,0.25846803,0.6650381,-0.40815276,-0.7092514,-0.76671815,-0.122180104,0.8763547,0.1572727,0.15489376,0.028324962,-0.51396936,-0.0664798,0.60255194,-0.9836285,0.582546,0.8789549,-0.57202023,-0.9899924,0.36100233,0.48359764,-0.3443522,0.77942634,0.91502786,0.012749076,-0.36141723,0.61836696,0.3863083]},{"bias":0.76904726,"weights":[0.42421043,0.32087123,-0.80717826,-0.930846,0.7947359,-0.87657857,-0.4189288,0.9147234,0.7204025,0.46402538,0.37614477,-0.13045824,0.2739643,-0.749125,-0.7548151,0.17740309,-0.5348398,0.86329913,-0.49631852,0.10310662,-0.8759577,-0.756587,0.9975612,0.90246797,0.18429029,-0.6059844,0.88146687,-0.63440394,0.52291965,-0.7285409]},{"bias":-0.836895,"weights":[0.4260329,0.36442816,-0.51546663,0.36027515,-0.4936785,-0.90725493,-0.31949395,0.63886976,0.17811215,0.43502986,0.49429357,-0.6632135,-0.37643665,0.54110074,-0.39530677,0.44064748,-0.2805285,-0.9043155,0.37553203,-0.5316407,0.30494463,0.57002664,0.49791372,-0.6801934,0.22153056,0.9899726,-0.71078014,-0.1769675,-0.8764241,-0.60051936]},{"bias":-0.3846447,"weights":[-0.74167323,0.38697398,-0.20502126,0.22817028,0.6562476,-0.7866001,0.31164396,-0.4506833,-0.18488657,0.65121675,-0.16416276,-0.9935391,0.7347393,0.7913065,-0.66282916,-0.728112,0.21435988,-0.9859388,0.43664443,-0.64991546,-0.9412999,-0.42820734,-0.9733598,-0.99684024,0.0681628,-0.044553638,0.5169823,-0.5714955,0.69273376,0.6624539]},{"bias":-0.4606282,"weights":[-0.94027567,-0.31745332,-0.26973027,0.37320435,0.5223007,0.36450922,-0.9209204,-0.5715262,-0.86141205,-0.8753841,-0.68991756,0.7021694,0.12990868,-0.4468519,-0.4685163,0.32749283,-0.17823422,-0.87208223,0.72417307,0.053766847,0.81631064,0.34841287,0.014917731,0.4235636,-0.3251273,0.44807255,-0.76779056,-0.57228416,0.21768534,0.6160228]},{"bias":-0.64820695,"weights":[-0.8308954,0.0048784018,0.559227,-0.38695306,0.9566374,-0.32098526,-0.01883614,-0.6135587,0.31513488,-0.6832254,0.7805538,0.6528578,-0.329683,-0.8053868,-0.045733333,-0.7932005,0.13851488,0.8149476,-0.4245271,-0.63881946,-0.71443796,0.0113636255,0.14396536,0.38829172,0.17120206,0.76944923,0.61408854,0.10528052,-0.41805595,0.9933603]},{"bias":-0.38542217,"weights":[0.53583646,-0.48100394,0.014918923,0.63458943,0.2571262,0.18597233,0.546118,0.81905365,-0.38281697,-0.8914349,-0.21254289,0.39876807,-0.20438111,0.5734391,0.55669284,-0.63255906,0.38939297,0.619117,0.6166358,-0.7941823,0.7257931,-0.7951486,-0.4930007,0.365126,0.08123028,0.4581002,-0.98794436,-0.6527147,-0.8775897,0.20851672]},{"bias":0.26976192,"weights":[0.045462012,-0.58245605,-0.32245773,-0.5264506,0.33068216,-0.29202884,0.7387121,-0.7948735,0.46873105,-0.66216516,-0.28740853,0.79225683,-0.19819081,-0.12134397,-0.024497151,0.4012717,-0.042069316,-0.08924997,-0.23666775,0.80783606,0.85621786,0.6298976,-0.66531634,0.8900645,-0.24939883,0.06987202,-0.07500613,-0.15608084,-0.7072258,0.8301778]},{"bias":-0.72620344,"weights":[-0.28166503,-0.7820041,0.3437196,-0.6900861,0.02547729,-0.6212217,-0.17236936,-0.8091674,0.0691272,0.2466873,-0.81932545,0.86069536,0.94746804,-0.5188498,0.65850353,-0.9217057,0.48153102,-0.76737714,0.93757844,0.09926021,0.9132235,-0.18394887,-0.0067619085,0.85505486,-0.7250259,0.35919893,-0.34540075,0.96491694,-0.9333484,-0.8230152]},{"bias":-0.92389035,"weights":[-0.88306236,-0.77931976,-0.43756884,0.9799695,0.24684179,-0.513123,0.40047085,-0.14231694,0.29858315,-0.41360706,0.613513,0.37219775,0.75577855,0.03534758,0.43903387,-0.8409629,-0.8271203,-0.08372724,-0.78518724,0.47202313,-0.34733027,-0.42262858,-0.0013643503,-0.4286818,0.8985822,-0.79896116,-0.9918115,0.19888604,-0.5193314,0.9017172]},{"bias":0.95527315,"weights":[0.2756282,-0.07414925,-0.060185075,-0.3714537,0.5158677,-0.053367972,0.35064304,0.22019327,0.8739035,0.9219856,-0.5917451,0.9835651,0.6658201,0.97484684,-0.92863345,-0.10620725,-0.27976054,0.80495,0.54540205,0.77549005,-0.028976321,0.22529924,0.59443307,0.7517545,0.07679117,-0.84196115,0.31646764,-0.5371675,0.5351732,-0.6255896]},{"bias":-0.9200802,"weights":[-0.3504817,-0.98418355,0.000011563301,0.6735966,0.15025699,0.7656398,-0.52914137,0.03865683,0.71161556,-0.4661736,-0.28490204,-0.67553234,0.52012825,-0.760823,0.34034812,-0.95283365,-0.22510397,-0.5467655,-0.60885805,0.06025517,0.5038476,0.5754323,0.03505242,-0.19526494,-0.9680009,0.9765775,0.35289824,-0.7805326,-0.93730664,-0.49541062]},{"bias":-0.7051873,"weights":[-0.023977399,0.8888054,-0.25810474,-0.44794196,0.4585861,-0.9464271,0.75475144,0.43790448,-0.20852458,-0.4038784,-0.13531816,-0.91568995,0.006571889,0.9389162,0.1799277,-0.62312907,0.41272986,-0.010876536,-0.13722575,0.8660958,-0.14536369,0.76555705,0.9319949,0.46943772,0.15356219,0.63515234,0.4572078,-0.7210727,-0.39028162,0.05808103]},{"bias":0.5100312,"weights":[0.6556225,0.21285498,-0.61964005,-0.3271796,-0.23502338,-0.15586245,-0.3130061,-0.6894481,-0.3750016,0.25416148,0.5603931,-0.4700374,0.3316785,-0.030051112,-0.6642246,-0.95315766,-0.9781549,0.31929958,-0.054271817,0.91314363,-0.92583895,0.17459857,0.8709307,0.7268381,-0.90444684,0.527143,-0.019526362,-0.84020567,0.2381643,0.40811384]},{"bias":0.9878149,"weights":[-0.9756236,0.38458455,0.24284995,0.9573188,0.45651615,0.11761963,0.75764084,-0.42530078,-0.3883385,-0.25458044,0.6737249,-0.3524534,0.77849984,-0.3576724,-0.9150717,-0.5451407,-0.2575099,-0.25408024,0.4878477,-0.80477095,0.998055,0.4654857,-0.162094,-0.25499648,-0.635427,-0.48011416,-0.88945293,-0.8040402,-0.99960685,0.49077237]},{"bias":0.03339517,"weights":[0.25217426,-0.096732736,0.46807683,-0.62586665,0.97071743,0.59178543,0.85182524,0.5800183,-0.34504884,0.13518584,-0.5449063,0.31067812,0.35090697,-0.53476185,-0.8280823,0.9777632,0.0708977,-0.54623765,0.59954524,0.75894165,-0.97195816,-0.96220803,-0.36603922,0.39772332,0.046625257,-0.9883628,-0.45530957,-0.69853115,0.20100582,0.46290457]},{"bias":-0.034882426,"weights":[0.3250667,0.64259076,-0.55496234,0.19268501,0.76371026,-0.19370139,0.2882341,-0.17095554,-0.4193713,-0.96552706,0.74398184,0.33315837,0.33328664,-0.081569076,0.32271874,-0.3517956,0.0649153,-0.93611574,0.8882332,0.7067003,0.6245229,-0.8997395,-0.90550685,0.5916064,-0.25528592,0.8410189,-0.19648254,-0.5354926,-0.67646,-0.37617677]},{"bias":0.067468524,"weights":[0.10402882,-0.44324082,0.22538745,0.008856416,-0.78127575,-0.38520235,0.8118632,-0.8872092,0.31659138,0.22664678,0.4136876,0.79733944,-0.07946241,0.119902015,0.44875586,-0.3563239,0.29751074,-0.8982115,-0.0891999,-0.38239235,-0.7890005,-0.72856975,0.533566,0.1476618,-0.79380083,-0.5262763,-0.4174754,-0.16280544,-0.42748183,0.14775717]},{"bias":-0.11135876,"weights":[-0.85673904,0.5808792,0.5011411,-0.39122838,-0.79988575,0.24552715,0.30022347,0.78201723,-0.8641045,-0.6292138,-0.19470298,-0.036419988,-0.2780487,0.91912913,-0.44923443,-0.9298737,-0.8538842,0.56152153,-0.35341114,0.42888653,0.17895257,0.9331832,-0.010508418,0.09967911,-0.98524356,-0.8125739,-0.9039712,0.25910342,0.9184451,0.42367494]},{"bias":-0.3712234,"weights":[-0.978261,-0.55434006,0.21249044,0.27037823,-0.22759426,0.018078446,-0.98576665,0.34661257,-0.25896233,-0.37964505,0.4647361,-0.4015767,-0.88145185,0.6830058,-0.8797803,0.6345153,-0.014563203,0.802753,-0.31797785,-0.5486848,0.542429,-0.36292118,0.370067,-0.061062455,-0.6051242,0.51331925,-0.20322454,0.8554683,0.8872478,-0.37859458]},{"bias":0.869329,"weights":[0.49842823,-0.55380076,-0.11651218,0.22686017,-0.44581598,-0.3980357,0.66500545,0.8768468,0.3241936,0.7068727,-0.706831,0.54182076,0.5713439,-0.28018135,-0.3161797,0.32336986,0.637424,0.24062097,-0.5450906,0.8120663,-0.2939703,0.41997278,0.12159026,0.72383,-0.042538285,-0.7919762,0.827677,0.08220708,0.040272355,0.46525156]},{"bias":-0.654634,"weights":[-0.3403749,-0.80499554,0.78245234,-0.9224994,-0.33390802,0.75528693,-0.00057303905,-0.5820367,0.53972435,0.36151612,0.13756454,-0.8988004,-0.22890961,0.6087065,0.9343641,-0.888108,-0.89911985,-0.33431977,0.43576825,-0.6421828,-0.92565894,0.8508475,0.9607158,-0.79731727,0.60792613,0.28339493,0.48469985,-0.8723874,-0.36709493,0.54224277]},{"bias":-0.7633319,"weights":[-0.99224377,-0.99840784,-0.9879148,-0.1929959,0.47928798,-0.89681745,0.4370948,0.11703932,-0.71959376,-0.0390867,-0.27145976,0.9909971,-0.34178275,-0.10683191,-0.9081924,0.51468706,-0.39045757,0.6939771,-0.74727607,-0.23237932,0.36455452,-0.71612906,-0.33749026,-0.3357417,0.7872343,-0.96953726,-0.20888865,0.057869554,-0.2509877,-0.46730274]},{"bias":0.72085977,"weights":[0.41852772,0.37127125,-0.75098443,0.996335,0.970958,-0.27027148,-0.47032374,0.808305,-0.23508441,0.40028298,0.36102855,-0.9187968,-0.64127994,0.2848264,0.45280182,0.82831645,-0.13837397,0.34177482,0.33478558,0.7066598,0.3036157,-0.07626259,0.8140664,0.7899442,-0.023603559,0.83617187,0.57355666,-0.19102848,-0.8769641,-0.5440621]}]},{"neurons":[{"bias":0.3864833,"weights":[-0.022948623,-0.3195476,0.4972893,0.8327241,-0.38803834,0.63082767,-0.15025699,0.23966634,-0.02906382,-0.5855581,-0.5711126,0.003142953,-0.19112813,0.5801425,-0.40036005,-0.52203363,0.8953042,-0.3558671,0.31469166,-0.32281703,0.39612734,-0.36375922,-0.6126229,0.81853604,0.21440852,-0.6457503,0.6641669,-0.3144154,-0.4986543,-0.24122536]}]}]}