{"layers":[{"neurons":[{"bias":-0.8787303,"weights":[-0.6896095,-0.7858917,-0.57002366,-0.9040632,0.38429344,-0.29421538,0.94698477,0.981035,-0.36872143,-0.0151529685,0.32664812,-0.50912493,0.20377147,-0.089577556,0.22498262,-0.93045396,-0.36263573,0.76891685,-0.83345675,-0.16154298,0.004872918,0.38074982,0.99870825,-0.41970873,0.9769585,-0.0853625,0.14590037,-0.70978045,-0.4730088,0.54446757]},{"bias":-0.2367531,"weights":[0.5559294,0.22288382,0.9435365,-0.5756323,-0.8627777,-0.90548563,0.5884652,-0.018317342,0.07325947,-0.93135095,-0.615906,0.77394676,0.40629482,0.36179984,-0.7430268,0.2096945,-0.35300368,0.8940203,0.87785035,-0.076085925,-0.7363713,-0.31768388,0.054611325,-0.47804865,0.9169075,0.14157647,-0.56686395,-0.5574457,-1.0,-0.13208783]},{"bias":0.28644,"weights":[0.8714416,-0.0030716658,0.56891704,-0.77564025,-0.73051727,-0.8582308,-0.66092086,-0.0034897253,-0.5515239,-0.44435242,-0.59700507,-0.9053483,-0.58739656,-0.37998122,0.0047963858,0.7130004,-0.51520056,0.348688,0.30437863,0.5282545,0.9894984,-0.73789066,-0.20527422,0.08591057,0.92770743,0.8027086,0.8845014,0.88286614,0.23112547,-0.2646436]},{"bias":0.07409179,"weights":[0.27778637,-0.119964,0.074892975,-0.5318082,0.24222976,-0.64517665,0.112412095,0.4876839,-0.42590034,-0.72152925,0.06895273,-0.37454218,0.2392143,-0.56808615,0.9553125,0.20034322,-0.0483557,-0.3318047,-0.10416984,-0.53728074,-0.94285226,0.5134814,0.37369525,-0.07039511,0.0961231,-0.64101577,-0.49038047,0.28862035,0.76897645,-0.03611307]},{"bias":-0.67666817,"weights":[0.93428934,0.97967005,0.1684426,0.009366233,0.658595,0.008627534,0.8303249,0.70365,-0.6348972,-0.63091207,-0.8571671,-0.76246494,-0.6489389,0.26444638,0.34659803,0.9330003,-0.655555,0.16906685,0.046902776,0.09715569,0.45466197,0.12808359,-0.035431266,-0.5643248,-0.3761353,0.16113055,0.24974215,0.83857226,-0.8024385,0.64919496]},{"bias":0.34875596,"weights":[-0.7861433,-0.4285273,0.49558103,0.66144085,-0.34733042,0.5168996,-0.5125434,0.27931413,-0.57684726,0.55037427,-0.6637349,0.7910259,-0.06900346,-0.9421544,0.5460688,-0.40794128,-0.94605494,-0.8375459,0.5812006,-0.80642015,0.11842573,-0.21773899,0.15218842,-0.62796354,-0.6254306,0.2547483,-0.21045914,-0.38134283,-0.009337783,0.633538]},{"bias":-0.24360096,"weights":[-0.2810705,0.1752361,0.68986535,-0.8906938,0.12954578,-0.59331626,-0.4770329,0.91764235,-0.7195158,0.0010179356,0.29412138,0.37793505,0.11499131,-0.72745,-0.035293996,0.3084737,0.15645206,0.78669906,-0.4070773,0.6970012,-0.6998227,0.89680123,0.06437123,-0.13168523,-0.32919592,0.055134416,-0.20344913,0.6855519,-0.6973703,-0.9542098]},{"bias":-0.7147944,"weights":[0.0067430735,-0.8743062,-0.083836496,-0.16311233,-0.901263,0.6905227,-0.120628476,0.9910836,-0.30815476,-0.44402882,0.45120943,-0.83222675,-0.846136,-0.8149593,-0.17389238,-0.6749556,-0.33327883,-0.76198184,0.15181744,0.7450161,-0.4932446,-0.39634842,0.04975736,-0.12846005,-0.014264941,0.7133263,0.26886067,-0.29785192,-0.62870586,0.4675349]},{"bias":0.122455716,"weights":[-0.88093686,0.7137645,-0.8719251,0.70209527,-0.17398489,0.2029812,-0.5843161,-0.89338183,-1.0,0.11797655,-0.29182023,-0.07107055,-0.48984736,0.58765316,-0.9783248,0.84630024,0.7444327,-0.48034286,-0.31040734,0.4147526,-0.56282794,-0.6768478,-0.60819185,0.20643651,0.1311115,-0.59848136,0.27030075,0.92356,0.8900938,-0.8832566]},{"bias":-0.5483002,"weights":[-0.867578,-0.9805043,-0.77647066,0.1503216,-0.345267,0.24939574,0.10835744,-0.44309148,0.46477187,-0.4672862,0.3044027,-0.7563217,0.4233551,-0.73632383,-0.38825077,-0.3411252,-0.0044818446,-0.29363492,0.9107218,-0.3484487,-0.47753635,-0.27812046,-0.64329123,0.9416013,0.9420417,0.45559275,0.3128606,0.7571151,-0.8038523,-0.2952115]},{"bias":0.31419337,"weights":[0.5250361,-0.6170675,0.281343,0.6418314,0.35535157,-0.8119292,0.5477984,-0.1259774,-0.40678304,0.9947746,0.6924157,-0.014793158,-0.89922357,0.88428783,0.5333574,-0.49106282,-0.4418673,0.0754205,-0.74422765,-0.9845886,0.26303923,-0.7378261,-0.9858818,-0.33030313,0.58840394,-0.75205827,0.52265406,0.057629466,0.34952056,0.32799515]},{"bias":-0.4575705,"weights":[-0.36657208,0.68846977,-0.3596453,0.4520145,-0.8553803,0.7384298,0.056052536,-0.67889595,0.8501148,-0.50543016,0.7543514,0.38290417,-0.3256727,0.11952937,-0.6876862,-0.79730916,0.48745453,0.91924715,-0.82834125,-0.13700137,0.32274592,-0.79183984,-0.17189437,0.6845377,-0.8558246,0.6821766,0.8871883,-0.635731,-0.76715565,-0.62341243]},{"bias":-0.48288935,"weights":[0.42235458,0.70652556,0.2828499,-0.506411,-0.30239508,-0.96869445,0.6541381,0.18485859,-0.48792952,-0.77926564,-0.83679605,-0.31650853,0.6487155,0.4107045,1.0,-0.5024876,-0.97270346,0.80598867,-0.50839156,0.24502099,0.13033354,-0.58193964,-0.011479974,-0.22282088,-0.6028673,-0.54834026,-0.55782574,-0.74247766,0.82837844,0.23021773]},{"bias":-0.6253929,"weights":[0.024246097,0.34431994,0.32176554,0.77225405,0.29118073,-0.2999863,-0.04277122,0.6700516,-0.56511635,-0.5410859,0.8905122,-0.929112,-0.05903232,0.09310843,-0.04026878,-0.8849666,-0.4449181,0.9125373,0.33441642,0.80339855,-0.5298194,0.96853703,0.9697335,-0.28417987,0.82383937,-0.99806905,0.7911174,0.75157046,-0.3148014,-0.92117596]},{"bias":-0.40032238,"weights":[0.17912173,0.64342546,0.98879194,0.3687075,0.6380296,0.8510995,0.6066045,-0.39254895,0.48575503,-0.26187867,-0.7764571,-0.7561929,-0.6031766,0.27985156,0.012143016,-0.52611345,0.28481042,-0.33355802,-0.24177516,-0.6033194,0.1217252,0.9152604,0.32769597,0.5304179,0.6667452,-0.421876,0.746753,-0.36655256,-0.9127886,0.9082799]},{"bias":0.70549726,"weights":[0.7109368,-0.5420493,1.0,0.43384635,0.00014093518,0.87409854,-0.55737513,-0.5615067,-0.8333914,-0.8199759,0.58270526,-0.69980955,0.25711858,0.46839464,-0.46636695,0.21513736,0.044680476,0.33479378,-0.37939966,0.8105438,0.23873219,-0.29171067,-0.7880231,0.2977649,-0.13461626,0.7375033,-0.6310043,0.84748024,0.36336648,0.05331838]},{"bias":0.01114428,"weights":[0.374766,0.35552895,-0.51278347,-0.7698307,-0.3154332,-0.7638542,-0.0935689,0.6542103,-0.13499224,0.7268791,0.8162267,-0.38213915,0.5805755,-0.82478666,0.45084238,0.675612,-0.97791266,0.55943847,0.6622726,0.8252437,0.2337822,0.614349,0.308779,-0.76924205,0.13739502,-0.39481205,0.07705414,-0.5826368,-0.10239351,-0.6105992]},{"bias":0.5372555,"weights":[-0.9059053,0.32556427,-0.50866455,-0.0824641,0.29992563,-0.5185179,0.57729644,0.3104893,-0.9890883,-0.8786738,-0.7738354,0.10953009,0.89575076,0.7513869,-0.7548763,0.32914078,0.300264,0.1577071,-0.85350704,-0.939242,0.6805713,-0.8941343,-0.034621596,-0.38863176,-0.7926307,0.7227125,0.27861607,-0.7751417,0.867813,-0.36823267]},{"bias":-0.66633797,"weights":[-0.15884554,-0.98754835,-0.16568792,0.3724872,0.29840147,-0.3640563,-0.29369345,-0.4749269,0.35489237,-0.58983105,0.42466056,0.9107427,0.43945223,0.082567185,0.93715835,0.050558448,-0.62976193,-0.13162506,0.7630243,-0.8637233,-0.30011624,0.5836611,-0.8523941,-0.6449306,-0.28227657,-0.06283921,0.2598244,-0.56157655,-0.8790962,-0.28530687]},{"bias":-0.76163054,"weights":[-1.0,-0.740031,0.045686364,-0.83159834,0.47184813,-0.90292203,-0.26702446,0.2465378,0.16709101,-0.31323975,-0.6495888,-0.58091277,0.1704179,-0.21206701,-0.690222,-0.4902529,0.90888166,-0.30362195,-0.014929377,0.3626722,0.7778506,-0.5241584,0.9610061,0.65737706,-0.61625236,0.52171206,-0.5560159,0.9185929,-0.9677198,-0.8540895]},{"bias":-0.7320132,"weights":[0.5450437,0.24040687,-0.8053882,0.15982378,-0.097467065,-0.39432573,0.9891343,0.5061112,0.14599073,-0.62710345,-0.1790252,0.07074821,0.1557897,0.9775653,0.38139474,0.4650122,0.65050197,0.57914066,-0.6242566,0.911978,-0.31692952,-0.9269757,-0.62793624,-0.06680945,-0.5530197,-0.28799647,0.0066024587,0.321864,-0.010333136,0.34990227]},{"bias":-0.9041333,"weights":[-0.11049234,-0.054588914,0.98906755,-0.36698884,0.19719201,0.29465598,-0.8363838,-0.6409409,-0.9603107,-0.9865552,-0.0101123825,0.9135154,-0.7041273,0.22278011,0.8115735,0.7375999,-0.46336287,-0.50762457,-0.31406516,0.35198152,0.7255831,-0.73407364,0.6059258,-0.96481967,-0.11397922,-0.58240217,-0.5952744,0.7162326,-0.6926386,-0.7650356]},{"bias":0.7852819,"weights":[0.7831104,0.348817,-0.63914084,0.07546318,0.55207944,0.7272214,-0.090595365,-0.7678705,-0.52477306,-0.0618534,0.85137343,-0.10308063,-0.59164035,0.18699229,-0.47913688,0.32934415,0.7370851,-0.96130323,-0.4207546,-0.35059088,-0.11515248,0.09217894,0.7839763,-0.40845877,0.18225467,0.015874166,-0.17786616,0.43907005,-0.40446657,0.27951562]},{"bias":0.40560806,"weights":[-0.648335,0.036415696,0.47060692,0.87825775,-0.76982355,-0.20648634,0.55483365,0.44132745,-0.18861043,0.51552486,-0.868989,0.6116731,0.015448213,-0.948851,0.17940012,-0.49806118,0.9964471,0.84840035,-0.8745358,0.7043897,0.87032866,0.4610883,0.22169602,1.0,0.42294466,0.17916024,0.6377969,-0.600264,-0.062382184,0.6265998]},{"bias":-0.59841865,"weights":[-0.59024304,-0.12485999,-0.16476452,0.8857715,0.00020635128,-0.75207597,0.3738197,0.1000729,0.15828168,-0.13903582,0.22953331,-0.8968022,-0.5327546,-0.7637522,0.82210517,0.18965954,-0.3281402,0.21715224,0.60118246,0.4126898,0.49088013,0.7552451,0.45067132,0.2654935,-0.3867132,-0.032076,-0.18286479,-0.72539854,-0.74819493,-0.44743997]},{"bias":0.73182344,"weights":[-0.16749084,0.16031277,-0.81941926,-0.31218573,0.5690017,-0.9041156,-0.7150968,0.8802812,0.77,-0.74770904,0.9751072,-0.21272752,0.3065945,-0.7240832,0.07317126,0.62107104,0.7425476,-0.40623063,0.1860088,0.06714953,-0.5650868,-0.08760772,0.08500699,-0.9209604,0.83604956,-0.38018036,0.59165215,-0.69365394,0.7988775,0.9767649]},{"bias":0.15656793,"weights":[0.5760438,0.66519165,-0.2745611,0.07487619,-0.59872735,0.45962608,-0.5170847,0.5480089,-0.32161087,0.69548684,0.19171607,0.48544157,-0.14279497,0.9408126,-0.9189227,0.9482322,0.480806,0.46878758,-0.2454592,0.064145684,-0.41745156,-0.8036139,0.5341623,-0.5779752,-0.17477982,0.77934813,-0.6021721,0.70981205,-0.28403878,0.6187167]},{"bias":0.16159093,"weights":[0.16748846,0.67363566,-0.53979605,-0.044579357,-0.29333204,-0.122470446,0.48224124,-0.49724132,-0.00844419,-0.53755754,0.8058758,-0.92127585,-0.9203136,0.9959495,0.8430984,-0.45990485,-0.2584154,-0.24605978,-0.2894475,-0.29737276,0.43987858,-0.8798399,-0.29464018,0.14881715,0.25246608,-0.033767104,-0.9298954,-0.6296556,0.5368393,-0.4579007]},{"bias":-0.7475076,"weights":[-0.3246984,0.34884948,0.23670638,0.34508073,0.2727905,-0.4223091,-0.04103967,-0.18116748,0.6908989,-0.47333068,-0.5164173,-0.040141307,-0.9728191,-0.1057584,0.76917255,0.18590844,0.45302212,-0.039064765,-0.5105788,0.7247641,-0.71950674,0.33461607,-0.8337159,-0.9256053,-0.33913416,-0.12795803,-0.9721126,-0.9530813,-0.6188907,0.56874275]},{"bias":0.23874342,"weights":[-0.7456765,-0.1778425,0.026967406,0.20273554,0.64647365,-0.8257828,0.6678078,-0.6051623,0.1200186,-0.4990539,-0.8554392,0.8277385,0.5081541,0.5522082,0.91734505,-0.6471193,-0.3329615,-0.36735612,0.12886703,-0.35329694,0.13125074,0.63007045,-0.43895262,0.3577205,-0.6787658,-0.4117601,0.2039181,-0.37121123,0.738096,0.56970555]}]},{"neurons":[{"bias":-0.738117,"weights":[-0.5665929,-0.62529224,-0.15247738,0.32293406,-0.62803936,0.13708818,-0.65701365,-0.9579587,-0.7580459,0.56925106,-0.47222862,-0.7209563,-0.81497383,0.6640762,0.5631714,-0.6537111,-0.0014857054,0.77217555,-0.9330838,-0.9839804,0.51381207,-0.44206572,0.4708737,0.9717405,0.27978432,0.66786385,-0.12159949,-0.120382905,-0.7064922,0.37307155]}]}]}