{"layers":[{"neurons":[{"bias":0.3812381,"weights":[0.3147155,-0.12524427,0.13738991,-0.78778505,-0.61857665,-0.49091095,0.25667202,0.38899648,-0.8353573,-0.6884827,0.021256395,0.7911694,-0.38205093,-0.0015522242,0.14041269,0.8912613,-0.13213193,-0.21921313,-0.68077946,-0.5159578,-0.1170555,-0.13585746,0.014897943,-0.27338523,0.51173496,0.15562904,0.7226856,0.4734805,0.30303776,-0.28544873]},{"bias":0.08741486,"weights":[-0.25044507,0.137637,0.2612244,-0.30778736,-0.6773875,-0.8522089,0.2976762,-0.7383871,-0.5446138,0.9343517,0.82181096,0.6596081,0.17981994,-0.31485146,0.9856572,0.2553757,0.2816942,-0.9015696,-0.40932867,0.5335989,-0.24195158,0.8287758,-0.12746581,0.67068315,-0.04643762,-0.38891023,-0.514057,-0.1719228,-0.8252897,-0.076161504]},{"bias":0.057526708,"weights":[-0.28482193,0.36561704,-0.41500348,0.32089517,-0.6627082,0.68557477,0.55141425,-0.9241649,-0.28845862,-0.909636,-0.27771372,-0.59980625,-0.64596343,-0.8703387,-0.41617125,0.33337152,-0.039547764,-0.5901972,0.15177333,0.031481147,0.6470089,0.76546526,-0.299622,0.4228083,0.5747664,0.90599084,0.87545705,-0.32960248,-0.35347694,-0.25262493]},{"bias":0.7451854,"weights":[-0.7677846,-0.90274894,-0.22098133,-0.94403815,0.013504624,0.8358011,-0.39766353,-0.10344422,0.23066819,0.20084178,-0.591636,-0.8417866,0.42774212,-0.90897995,-0.4739234,0.13319528,-0.11071861,0.17624652,0.118166566,-0.2008053,0.65106344,0.5134623,0.89276433,0.795877,0.9869778,0.5843928,0.018063188,-0.009521127,-0.15355393,0.20857656]},{"bias":-0.62535214,"weights":[0.8996172,0.82776284,-0.49172038,0.93922186,0.52154326,-0.2104882,0.8586216,-0.66767156,0.56315523,0.8717747,-0.3298858,0.30039155,0.9279525,-0.6217422,0.016195528,0.13547838,0.5932722,-0.7375803,0.07959139,0.025167823,0.036148243,-0.36571378,-0.3577606,-0.6264787,-0.47283208,-0.109335065,-0.16866052,-0.15431704,-0.33541244,-0.080753446]},{"bias":0.8637748,"weights":[0.3280946,-0.20136511,-0.57229227,-0.7325375,0.6818396,0.48951912,0.93869066,-0.019414306,-0.018041015,-0.55841416,-0.36640877,0.9473753,0.32383788,0.5991048,0.6076741,-0.38895953,-0.5685043,0.2980925,0.49528563,0.19403794,-0.65058684,0.5703285,0.59919834,0.6440637,0.5887537,0.94069266,-0.48014992,0.9493351,0.3928129,-0.13324225]},{"bias":-0.62890625,"weights":[0.03373015,-0.09138787,0.08242304,-0.5851892,0.3438872,-0.28408426,-0.8344073,-0.71854496,-0.7602315,0.20153868,-0.8093438,0.71042895,0.30104482,0.65770197,0.14453232,0.6031122,0.6325686,-0.5059342,0.7332039,-0.96392876,0.78261906,-0.6781348,0.9880767,-0.58212775,-0.8548956,-0.50134104,-0.72476393,0.8657867,-0.82481575,0.68002737]},{"bias":0.78648806,"weights":[-0.6098065,0.27176654,-0.37134928,-0.45086712,0.5065541,0.40026852,-0.104346156,0.32114613,-0.20623985,0.77432585,0.43648162,-0.5118257,-0.3042157,-0.95245004,-0.09825122,-0.080013394,-0.6565521,0.46785867,0.8628707,0.1960684,0.018166423,0.55203605,0.038437918,-0.596946,-0.64405775,-0.4004585,0.8154204,-0.21102989,-0.85930467,-0.05374396]},{"bias":-0.09443581,"weights":[0.019909501,0.5479266,0.7074125,0.1631631,-0.8837271,-0.43444103,0.38516152,0.90961003,-0.10599363,0.41381228,-0.33991706,0.9433098,-0.06504786,-0.5919098,0.84938145,0.6343826,0.939713,0.771832,0.038066268,0.13152063,0.63141966,-0.37061995,0.9384043,-0.13391316,-0.336322,-0.37399143,0.5866008,-1.0,-0.75449175,-0.7511747]},{"bias":0.94522476,"weights":[-0.2874099,0.4172274,-0.57158846,0.8648278,-0.7745671,0.18571079,-0.75232124,0.72225094,0.8055013,0.9923334,-0.71035564,0.20089257,-0.47987175,-0.64114094,0.5025785,0.8700428,-0.09044325,0.29917872,-0.21537817,-0.2935389,0.74260926,0.28016126,0.3447309,0.1981467,0.82396704,-0.033709645,0.037307143,-1.0,-0.25244945,-0.84362423]},{"bias":0.57779384,"weights":[0.12431109,-0.9745767,-0.3608727,-0.9861777,0.5476911,0.9281695,-0.30264845,0.18851411,-0.5131778,0.12964523,0.12111938,0.85444283,-0.5497156,0.84435177,-0.07195103,0.36739075,0.62461275,-0.73616743,0.71660995,0.3703047,0.84480125,-0.6512041,-0.18073595,-0.49085802,0.1687586,0.5074057,-0.34979105,-0.3908679,0.8855305,0.68898374]},{"bias":0.69605136,"weights":[0.6797044,-0.09183848,0.57534003,0.22683918,0.7074034,-0.80804276,0.39323366,-0.15890014,0.36155045,0.9305985,0.8758986,-0.01729533,-0.7211232,-0.63490534,-0.79824495,-0.59465,0.26116288,-0.70675635,0.73447704,0.7809658,-0.31669354,0.6692323,0.66143847,-0.20470965,-0.5141756,-0.39406008,0.35603714,-0.4095425,0.21836926,-0.44634932]},{"bias":-0.1157881,"weights":[0.62501246,-0.5239598,0.869544,0.86011076,-0.10361922,0.37769568,-0.75567293,-0.96371555,-0.3861726,-0.88783574,0.40400514,0.32716462,0.3528689,-0.32305545,0.4015609,0.5031173,-0.55496234,0.035371184,0.8398233,0.3868534,0.39949358,-0.09764471,0.08968568,-0.80666614,0.416582,0.92238164,-0.3658666,0.5307422,-0.22334373,0.7948904]},{"bias":-0.8188126,"weights":[-0.37176555,-0.44028658,-0.74674064,-0.8713262,-0.48909086,0.24151671,0.8582158,-0.02638843,0.91685843,0.8668113,0.16204345,-0.87851524,0.9315779,0.7914984,0.99706817,0.011066318,0.9345143,-0.4917168,0.28176653,-0.41683382,0.40074193,-0.8075405,0.4956683,-0.20924187,0.61843467,-0.52141255,-0.5857932,0.65714955,0.3658539,-0.7322881]},{"bias":0.5294738,"weights":[0.90739775,-0.571965,-0.9563756,0.34324324,0.6723087,-0.3444838,-0.37235254,-0.87867904,0.3540734,0.40023482,0.8658786,0.033874393,-0.19515526,-0.9162324,-0.44701928,-0.888078,-0.2091645,-0.3665957,0.67546463,-0.14443308,-0.12420428,-0.87920976,0.4898122,-0.18492854,0.97091043,0.16406691,-0.83737326,-0.12950575,-0.37485617,-0.6599524]},{"bias":0.41593134,"weights":[-0.62716603,-0.04629934,0.8978677,0.32189834,-0.46793336,-0.99456215,0.16938815,0.7372761,-0.23782265,-0.20652354,-0.92904663,0.115067124,-0.17504323,-0.9756081,0.9805145,0.76997256,0.15627283,-0.32452938,-0.73407084,0.16739762,0.54862213,-0.75735426,0.017540336,-0.58797306,-0.70736843,0.57058597,-0.112202406,-0.39703983,0.13170397,0.27109897]},{"bias":0.39924133,"weights":[0.3647319,-0.5582568,-0.2351321,-0.06328118,0.5521659,-0.93793225,0.14207566,0.4713658,-0.08449519,-0.21936977,-0.963194,-0.3003592,-0.4992091,-0.14095044,0.48039734,0.5919254,-0.46224278,0.20959127,-0.71733356,-0.10999954,-0.025631309,-0.57354254,-0.44275445,-0.7468674,0.9397392,0.03301561,0.38748515,0.9256296,-0.5644087,-0.63128114]},{"bias":0.6200266,"weights":[0.33830535,-0.1968286,0.7453966,0.98502207,0.5919547,-0.62241936,0.5712979,-0.91765046,0.7033599,0.38338077,-0.3526575,-0.68208957,-0.6681509,-0.5937459,0.81567025,0.96606946,-0.4007432,0.29142988,0.8323066,-0.6050583,0.67554665,0.074667096,0.6105406,-0.79333514,0.79890984,0.84507966,-0.34885353,-0.036069274,0.14853776,-0.68219924]},{"bias":0.31488955,"weights":[-0.23799431,0.8997638,-0.116473556,0.43320787,-0.6434288,-0.20930195,0.90353775,0.059848763,0.6742145,0.82131004,0.90218425,0.56108356,0.49380147,0.7996235,-0.41485772,0.64042854,-0.2520861,-0.16601099,-0.39040893,0.81884724,-0.09424651,0.51407695,0.32121146,0.40224218,0.9368558,-0.6273432,-0.5683941,0.6723361,-0.547007,0.48157275]},{"bias":0.6739037,"weights":[-0.02105166,0.9092028,0.93030727,-0.7713599,-0.3039009,0.9604882,0.9538455,0.5181997,-0.23700702,-0.87869424,-0.02954948,0.003634572,-0.87264013,0.84493494,0.41335428,0.6287098,0.34429356,0.9492127,0.46968782,-0.24449909,-0.17061317,-0.48815244,0.8022943,-0.18301594,0.13905847,0.16791952,0.3855151,0.3840357,-0.61726683,-0.8611553]},{"bias":-0.95449185,"weights":[-0.19293559,-0.39990705,-0.7746837,-0.38733333,-0.18247736,-0.5993614,0.5373585,-0.24578989,-0.32260007,-0.44872898,-0.079026334,0.6413447,-0.09817203,-0.4520833,0.9432108,-0.36393827,-0.79684067,-0.6626346,0.090725064,0.03331697,0.4833225,0.5949247,0.23780143,-0.77100825,0.069434285,-0.015673518,-0.36770028,-0.5937559,-0.06254542,0.40187645]},{"bias":0.46980345,"weights":[0.9832957,-0.11233556,-0.9990782,-0.83872515,-0.23056567,0.14875114,-0.6518469,0.6083615,-0.76929736,-0.72248125,0.35189044,-0.5837452,-0.29686445,0.13269174,0.6169789,0.6106286,-0.7622528,-0.031443477,-0.8631496,0.065919995,-0.33103222,0.93752384,-0.72580576,0.96462107,-0.7636852,-0.9619994,0.4274323,0.9167011,-0.8963678,-0.10782683]},{"bias":-0.42899603,"weights":[-0.5435836,0.14783394,-0.26350892,-0.47098035,-0.5544345,-0.074634194,0.24438632,0.38945568,0.7902174,0.35645664,0.037353873,0.58854485,-0.61481756,0.9760499,0.12111604,0.69747996,0.53155684,-0.23603666,-0.2672425,-0.5158209,0.9694841,-0.6284232,0.025363088,-0.0029286146,-0.31086832,-0.6355297,-0.21363673,-0.78680325,0.88263583,-0.11517036]},{"bias":0.6024809,"weights":[-0.45994824,-0.64120126,-0.89901114,-0.687134,-0.21248758,-0.22274292,0.70286655,-0.36832112,0.7443423,0.56309533,-0.24249184,-0.6294551,-0.97225964,-0.12462032,0.5550108,0.70611215,0.33922756,0.72843933,0.57054645,-0.06927464,-0.6166405,-0.078716874,-0.3806092,-0.19386923,-0.9776952,-0.059153438,-0.9597225,-0.81804913,-0.24083316,-0.950754]},{"bias":-0.67516804,"weights":[-0.84681106,-0.28383082,0.4592569,0.20939815,-0.007099159,-0.60048693,0.7553854,-0.54884857,0.36419713,-0.7667222,0.5535631,-0.8718574,-0.10668861,-0.26981142,-0.86120033,0.94461346,0.6440668,-0.45205253,-0.69015527,-0.31145185,0.7197902,0.7989,0.7864306,0.3710819,0.9975896,0.3933543,-0.6736382,0.38616192,0.6315278,-0.99873185]},{"bias":-0.9578831,"weights":[0.44454825,0.05135286,0.1971949,-0.02668272,0.06945002,-0.14150465,0.0766927,-0.6550038,-0.55043715,0.014663629,-0.68453,0.8220563,0.5240903,0.33641708,0.21507347,0.7773082,0.906521,-0.09652698,0.0033715963,0.31143916,1.0,-0.19569409,0.8468015,0.9839107,0.63149905,0.97562814,0.22043693,-0.4410028,0.73821175,-0.54573387]},{"bias":0.9755311,"weights":[-0.6976686,-0.9802337,0.46955407,-0.6321769,-0.5973825,-0.3248424,-0.9534514,0.8356483,0.6981238,-0.45550573,-0.69221044,0.9633024,-0.07548463,0.9205025,0.22685556,0.90161073,0.93389684,-0.4657895,0.9247043,0.11910188,-0.18497564,-0.0942055,0.7722342,0.8867025,0.052586198,0.31264222,0.37372583,-0.9856074,-0.023233771,-0.3370004]},{"bias":0.5100174,"weights":[-0.063856006,-0.022991724,0.8653623,0.4767915,-0.35998392,0.5049589,0.964097,-0.6818874,-0.18425405,-0.17295086,0.8155134,0.5364346,-0.24656165,-0.56982416,0.36683547,0.86445236,0.51878023,-0.45198855,-0.15010536,-0.13553905,0.2722839,0.5416553,0.06678164,-0.68529797,-0.054434896,-0.6134193,-0.18654594,0.74159336,-0.79573894,0.77196896]},{"bias":-0.94849133,"weights":[0.0062628984,0.6023221,-0.8111088,-0.69767904,-0.70860934,-0.2827542,-0.9035164,0.22037613,-0.9970955,-0.6755774,-0.44690293,0.9096533,-0.6718285,-0.46492976,-0.14219296,-0.3865158,0.58584565,0.49448052,0.63238597,-0.6738217,-0.07163012,0.85646224,0.92468715,-0.2666978,0.052401513,0.8506593,-0.25063413,0.0766842,-0.12519816,-0.17959845]},{"bias":0.601702,"weights":[0.4642774,-0.5547948,0.1324178,-0.610436,0.70009136,0.18877359,0.36510384,0.30098182,-0.41440624,0.13879716,0.54881823,0.68514323,0.86740303,-0.33929867,0.5530257,0.56845903,-0.5623172,0.13550818,-0.4039372,0.9308424,0.5048213,0.6340971,-0.12581432,-0.38459057,0.7651777,0.56983423,0.4766358,-0.5567598,-0.16847217,-0.015571475]}]},{"neurons":[{"bias":0.41738808,"weights":[0.9215827,0.7938974,-0.80900955,-0.33603352,-0.21977007,0.8157828,0.14516795,-0.06573737,0.6156173,-0.79392385,0.7163343,0.7181144,0.44925392,-0.5696642,-0.36650914,-0.11864555,-0.043840766,-0.3687479,0.5650954,-0.0037983656,-0.6684916,0.8505049,0.08005631,-0.8424511,0.5256429,0.24988607,0.98214304,0.17311099,0.0858145,-0.34117225]}]}]}