{"layers":[{"neurons":[{"bias":0.79109836,"weights":[-0.5706975,0.25350058,0.13738991,-0.78778505,-0.52050155,-0.39784664,0.104001164,-0.584675,-0.89796335,-0.7615651,-0.07529724,-0.6485779,-0.35263032,-0.067031786,0.17603695,-0.4890818,0.74754906,-0.20831297,0.51907516,-0.8779061,-0.99139285,-0.13585746,0.20289671,-0.20210195,-0.6764369,0.8553319,0.74037087,0.7873304,-0.8881693,-0.15088809]},{"bias":0.08741486,"weights":[-0.2598161,-0.59691924,0.199956,-0.22414768,0.6838622,-0.7620797,0.2976762,-0.7383871,-0.5412409,0.9343517,0.8701005,0.5632153,0.9638052,-0.23869538,0.9856572,-0.15075314,0.23389146,-0.9226818,-0.49397314,0.5559044,0.8167324,0.8287758,-0.6225588,0.7184324,-0.04643762,0.6163728,-0.5129854,-0.8883376,-0.90664643,0.63092136]},{"bias":0.057526708,"weights":[-0.21094716,0.36561704,-0.4791345,0.2721879,-0.6627082,-0.47277874,0.55141425,-0.49407572,0.91134095,-0.909636,-0.32747763,0.13696778,-0.3228702,-0.9613925,-0.41617125,-0.030229688,0.008163944,-0.6587502,0.15177333,0.15508926,-0.45295614,0.81939304,0.8614726,-0.5224001,0.4873259,0.8586199,0.31892145,-0.32960248,-0.32979456,0.06202042]},{"bias":-0.083309054,"weights":[-0.8181861,0.35150874,0.78171515,-0.96434915,0.06939576,0.8358011,-0.5767922,-0.6151199,0.14573228,0.10835872,-0.9195285,-0.8123071,0.37473434,-0.8611164,0.38910687,0.13319528,-0.11071861,0.15449299,-0.09654343,-0.13790545,0.64036936,0.5134623,-0.5665063,-0.44078702,0.28308642,0.15053737,0.039800137,-0.106234245,0.15000355,0.2109235]},{"bias":0.036855817,"weights":[-0.47485942,0.82776284,-0.45950678,-0.16559494,0.5422084,0.24146831,0.8586216,-0.6630057,0.56315523,-0.28076476,0.74008465,-0.50129265,-0.46396393,0.42848957,0.016195528,0.13547838,-0.8043003,-0.50217956,0.49700105,0.025167823,-0.01071576,-0.8088901,0.6696143,-0.9022713,-0.47283208,-0.109335065,-0.16866052,-0.15431704,0.9250431,0.6442132]},{"bias":0.49900472,"weights":[0.47514355,-0.64029884,-0.6293013,0.6271894,0.72422475,0.9607022,0.9482572,-0.58472985,-0.018041015,-0.6213441,-0.36640877,0.29387248,0.9641888,0.8340311,-0.66521597,-0.38895953,0.8694618,0.2980925,0.45703307,0.20163111,-0.65058684,0.28448808,0.685339,0.87909174,-0.23985374,0.86486477,-0.9549544,0.1039592,0.47943163,-0.078613184]},{"bias":0.60260606,"weights":[0.03373015,-0.46344942,0.40655243,-0.88881326,-0.541084,-0.30732587,-0.75475353,-0.70967484,-0.7602315,0.20153868,-0.43650836,0.55338764,-0.2344948,0.64705855,-0.50140136,-0.4854278,0.6325686,0.9386823,0.8045344,-0.85356784,0.78261906,0.6791909,0.9880767,0.18516457,-0.8548956,-0.5773668,-0.72476393,-0.6405828,-0.5522098,0.5982194]},{"bias":0.78648806,"weights":[-0.021945357,0.27176654,0.23482072,0.014798522,-0.7784047,-0.38704103,-0.1184455,0.32017374,0.20525777,0.77432585,0.4357901,-0.124678016,-0.40264618,-0.95245004,-0.07146297,-0.011618786,-0.6565521,0.47313416,0.496189,0.1960684,0.018166423,-0.22951663,0.5333953,-0.60964173,-0.64405775,-0.32413548,-0.7123077,-0.21102989,0.6955991,0.6149185]},{"bias":0.9460094,"weights":[0.019909501,-0.8156316,0.7973933,-0.12935293,-0.8837271,-0.43444103,0.38516152,0.90961003,-0.25712627,-0.3950321,-0.33991706,0.49093258,0.016501881,-0.99377465,0.75201464,0.7194123,0.15327251,0.805098,0.038066268,0.36921036,0.93213916,-0.37061995,-0.0021306276,0.3308419,0.18885386,-0.37399143,0.5866008,-1.0,-0.7281313,-0.7171823]},{"bias":-0.112359166,"weights":[-0.2874099,0.7025149,-0.57158846,0.8041124,-0.77494717,0.1546961,0.4002565,-0.8560741,0.7188844,0.79149747,0.037821412,0.20089257,-0.47987175,-0.64114094,-0.60370773,0.37670195,-0.060500838,0.3748201,0.07383859,-0.33352965,0.74260926,-0.71192336,0.3447309,0.1981467,0.8487019,-0.04359118,-0.63649774,-1.0,0.46119416,0.49776375]},{"bias":-0.58477706,"weights":[0.12431109,-0.9745767,-0.3608727,-0.97307503,0.47723752,0.8497614,-0.82006645,-0.40964645,-0.4808969,0.12964523,-0.7884445,-0.11051214,-0.4779328,-0.06008923,-0.07195103,0.34447348,0.108693,-0.73616743,0.7047143,0.47776258,0.8925728,-0.7269982,-0.18073595,0.4869777,0.2355417,-0.4504909,-0.34979105,-0.40971902,-0.5292255,0.68898374]},{"bias":0.69605136,"weights":[0.8274548,-0.09183848,0.60287195,0.71655774,0.49791348,-0.9694381,0.39323366,-0.5633983,0.36155045,0.9305985,0.35136092,0.056686096,-0.7211232,-0.68190837,0.87451744,-0.50607693,-0.020269513,-0.76585174,0.73447704,0.7600273,-0.31669354,0.72337985,0.9904189,-0.21813762,-0.54071003,-0.35087714,-0.47119898,-0.33459944,0.14245073,-0.52867854]},{"bias":-0.1157881,"weights":[0.6083529,-0.58963126,0.68319535,0.86011076,0.3009876,0.34247148,-0.75567293,-0.87246853,-0.53410953,0.716367,-0.45838588,0.09934914,-0.48886508,0.3459698,0.8279705,0.21666968,0.06458795,0.3601867,0.8398233,0.3868534,0.26657712,-0.084490806,0.022576623,0.2877649,0.416582,0.92238164,0.9348259,0.5669065,-0.72647285,-0.40704578]},{"bias":-0.8188126,"weights":[-0.3968838,-0.8496423,0.30703032,0.28533065,-0.97053885,0.25013912,0.7772285,0.18492639,0.8403762,0.8668113,-0.8953805,-0.8630824,0.9315779,0.12933624,0.9697837,-0.08290708,1.0,-0.40329248,0.29994893,-0.41683382,-0.9591389,-0.74697465,0.4956683,-0.20145902,-0.20847857,0.48632038,-0.5857932,0.65714955,-0.53366274,0.614012]},{"bias":0.5294738,"weights":[0.830663,-0.60602474,-0.9563756,0.41029948,-0.5625903,0.072531104,-0.7834132,-0.87867904,-0.4855339,-0.48877972,-0.8943322,0.72695756,-0.16426408,-0.9162324,-0.7294898,-0.14389002,-0.2091645,-0.68322706,0.682046,-0.14443308,-0.53266066,0.30911887,0.4898122,-0.19290829,0.97091043,0.27223313,0.03979504,0.0214473,-0.37485617,0.39699662]},{"bias":-0.0012899637,"weights":[-0.62716603,-0.9509449,0.8912213,0.32189834,0.355775,-1.0,0.13504523,0.7372761,0.10786903,-0.28940338,-0.6381607,0.19214284,-0.33067912,-0.88403803,1.0,0.76997256,0.27082598,-0.4186905,0.32549512,0.8899362,0.48087174,0.5950122,-0.21100414,-0.60872984,-0.8543277,0.6119264,0.596226,0.46033752,0.13170397,0.27109897]},{"bias":0.018293738,"weights":[0.44066676,-0.5582568,-0.2351321,0.7907717,0.47961047,-0.9463527,0.11591047,-0.9400277,-0.08449519,-0.22670323,-1.0,-0.3003592,0.18362653,-0.14095044,-0.4628505,0.5919254,-0.74870324,-0.14841735,0.14364398,0.037821412,0.05899658,-0.54690206,-0.44275445,-0.7468674,0.43083918,0.072852634,0.42306545,0.9256296,0.48982513,-0.5854214]},{"bias":0.6200266,"weights":[0.7011161,-0.1968286,-0.98008895,0.94735104,-0.09270775,-0.62241936,-0.7666831,-1.0,0.7033599,0.38338077,-0.3526575,0.13261282,0.23945248,0.66251206,0.8952758,-0.84636307,-0.31072178,0.25214353,0.8920659,-0.6050583,0.759478,0.074667096,0.6105406,0.96813035,0.7084592,0.058962464,-0.11265099,0.05283799,0.9251771,0.52356577]},{"bias":-0.32741493,"weights":[-0.055004,0.5356946,0.6033087,0.3657112,-0.6679715,-0.009770751,0.90353775,0.09582926,0.6742145,0.9873216,-0.14446962,-0.41642565,0.54140264,0.21855581,-0.41485772,-0.35930365,-0.24581763,-0.16601099,-0.3236526,0.723218,-0.79832363,0.4152837,0.49950778,0.44841793,-0.20962465,-0.08193004,-0.5683941,-0.70311236,-0.21874702,0.42490116]},{"bias":0.18792903,"weights":[-0.02105166,0.81890863,0.93030727,-0.7713599,-0.23424181,0.9604882,-0.57856554,0.24375927,-0.23930705,-0.87869424,0.037335753,-0.6969702,-0.8101228,-0.43667907,0.35821044,0.56825584,-0.74185395,-0.30297226,-0.5292019,0.9934788,-0.23820937,-0.48815244,0.9074025,-0.948817,0.09872337,0.07570519,-0.423536,0.9625666,-0.3816039,-0.61935085]},{"bias":-0.870522,"weights":[-0.14908636,-0.73286366,-0.73959196,0.33843648,-0.18247736,0.5583899,0.5174575,-0.30554533,-0.64955425,-0.44872898,-0.11135541,0.6413447,-0.09817203,0.45661652,0.8942525,-0.29214132,-0.7460838,-0.11270821,0.090725064,0.25473416,0.4833225,-0.11287081,0.23780143,-0.71611226,-0.072315335,-0.05208253,-0.36770028,-0.5937559,-0.09359082,-0.13197935]},{"bias":-0.59584993,"weights":[0.30652225,-0.8508699,-0.9990782,0.80701995,-0.2876457,0.14875114,0.9652746,-0.76657486,-0.76929736,0.32489955,0.35189044,-0.33497685,-0.98639965,-0.49327487,-0.56623095,0.6106286,-0.83533597,-0.031443477,0.85346746,-0.008702941,-0.42221078,-0.2125951,-0.7161595,0.5959585,-0.9278548,0.6431198,0.4274323,-0.25842518,-0.8317825,-0.16838698]},{"bias":-0.42899603,"weights":[-0.58431786,0.7479918,-0.26350892,-0.47098035,-0.5544345,-0.074634194,-0.30001014,0.2927477,-0.62558866,-0.7643812,0.027514853,0.6503483,-0.61481756,-0.31216735,0.2994975,0.69747996,-0.23444664,0.59552217,-0.2672425,-0.3753242,0.87543416,-0.6284232,0.025363088,-0.1260184,-0.28128672,-0.6355297,0.40582216,-0.7072956,0.85087204,-0.1460031]},{"bias":0.6024809,"weights":[-0.45105052,0.19284546,0.1159116,0.45353496,0.7682586,0.040259242,-0.9509523,-0.36832112,0.79078496,0.56309533,-0.18038741,-0.58581007,-0.97225964,0.8806083,0.6060657,-0.68655825,0.27535298,-0.9516132,-0.94682074,-0.12042332,-0.6873335,0.77985287,-0.6239957,-0.5356118,-0.9045235,-0.059153438,0.17922652,-0.81804913,-0.24083316,-0.950754]},{"bias":-0.67516804,"weights":[0.32762468,-0.09385812,0.25132477,0.8241606,-0.9297061,0.5316839,-0.36716002,0.5509269,-0.3966517,-0.27975124,0.5535631,-0.8718574,-0.10668861,-0.26981142,0.6052079,0.9055877,0.09330785,-0.23112619,-0.3496706,-0.7145555,0.688575,0.7783082,0.91919565,0.30487078,0.16814005,0.3933543,-0.5248367,0.37604964,0.65066004,-0.5458016]},{"bias":-0.9578831,"weights":[-0.35613722,0.05135286,-0.43425626,0.44563282,0.06945002,-0.3085119,0.0766927,-0.6550038,-0.3345427,0.06567557,0.68708444,0.8220563,-0.03901422,-0.43909353,0.21507347,-0.30824393,0.48593986,-0.15486106,0.9440849,0.31143916,-0.4963321,-0.26173872,0.33888757,-0.36233872,0.63149905,0.6256697,0.14407742,-0.49526662,0.097944856,-0.098107934]},{"bias":0.9755311,"weights":[0.30896294,-0.029735684,0.47281134,0.607517,0.43645775,-0.3248424,0.92344904,0.8356483,-0.18849838,-0.5284333,-0.69221044,0.9633024,0.78195524,0.8781998,0.8847513,-0.015869737,0.93389684,-0.5541005,-0.657073,0.11910188,-0.18497564,0.90586996,0.986006,0.9586844,0.12457431,0.24537212,0.20857203,-1.0,-0.10591483,0.99123]},{"bias":0.5100174,"weights":[0.75468946,0.99335074,0.65855837,0.41662133,-0.35998392,0.5049589,1.0,-0.6818874,-0.25197345,-0.17295086,0.835214,-0.04996741,-0.24656165,-0.8092537,0.36683547,0.6983447,0.58862907,-0.45198855,-0.58923,0.73591805,-0.795563,-0.305211,0.06678164,-0.74336714,0.9192867,-0.6134193,-0.18654594,0.54384446,-0.7197914,0.69862795]},{"bias":-0.23814261,"weights":[0.07789474,0.6023221,0.61690736,-0.7407744,-0.70860934,-0.2827542,-0.1598512,0.14215878,0.09190452,-0.6755774,0.54752994,0.69450665,-0.6870916,0.6812496,-0.34890503,-0.35546055,0.58584565,0.15964782,0.61948735,-0.6391651,0.60269976,-0.84562993,0.92468715,0.120587945,0.052401513,-0.23471987,0.98690534,0.43119752,0.33935654,-0.7493434]},{"bias":0.601702,"weights":[0.4642774,0.40342677,-0.5650837,-0.69786096,0.70009136,0.8528538,-0.87830114,-0.11341274,-0.4829635,-0.6942816,0.17873538,0.87078,0.86740303,0.96909666,-0.81766653,0.58243763,-0.71986175,0.22040686,-0.31617555,-0.45509738,0.5048213,-0.55567807,-0.33831733,-0.38459057,0.7651777,0.56983423,-0.008051276,-0.5567598,-0.6081423,-0.015571475]}]},{"neurons":[{"bias":0.81700087,"weights":[-0.6028244,0.22158611,-0.80900955,-0.2930939,0.86071205,0.9260485,0.09304291,0.83083344,0.6156173,-0.79392385,0.7163343,-0.26842064,0.6697929,-0.3712663,-0.3625682,-0.16060306,-0.043840766,-0.3687479,0.48232442,0.6158738,-0.39519924,-0.2177409,0.08005631,0.9762082,0.5256429,0.14989412,0.98214304,-0.8537028,0.10347244,-0.4270941]}]}]}