{"layers":[{"neurons":[{"bias":0.68942213,"weights":[-0.47569934,0.34359547,0.17016497,-0.78778505,-0.60015386,-0.4186915,0.104001164,-0.584675,-0.94847876,-0.7615651,-0.72679734,-0.7381405,-0.31934112,0.011082031,0.3483423,-0.45967025,0.7388043,0.385172,0.51907516,-0.57333153,-0.99139285,0.58111334,0.19622254,-0.5790283,0.36037886,0.8553319,0.8015184,0.88659334,-0.82850313,-0.15088809]},{"bias":0.08741486,"weights":[-0.2598161,0.23670042,-0.26439255,0.24550188,0.63488394,0.044592977,0.25371158,0.80471087,-0.60791165,-0.44227594,-0.8433559,0.539696,0.9638052,-0.29755092,0.9856572,-0.15075314,0.23389146,-0.9226818,-0.77025723,-0.44040173,0.8403366,0.79199797,-0.70834315,-0.40033,-0.13326235,0.46614206,0.4415306,-0.0785085,0.60387135,0.5034859]},{"bias":0.057526708,"weights":[0.86255646,0.36561704,-0.4791345,0.78186345,0.5083139,-0.47277874,0.55141425,0.77213717,0.85932446,-0.909636,-0.43882412,-0.23053062,-0.7633748,-0.9668427,0.67821455,-0.09546997,0.008163944,0.75815916,0.15177333,-0.68351364,-0.462963,0.96107006,0.8614726,-0.5224001,-0.60455936,0.40188706,0.25779903,-0.80496883,0.95298386,-0.28267783]},{"bias":-0.083309054,"weights":[0.17344797,0.37312257,0.78171515,-0.04754412,0.06939576,0.8358011,-0.6015612,-0.70112246,-0.9123173,0.1956532,0.1058656,0.08106673,0.28612316,-0.28451842,0.39124405,0.39513123,-0.11071861,-0.14637792,-0.6442268,-0.23765866,0.64036936,0.41781032,-0.67936134,-0.44078702,0.3464249,0.24393046,0.8617394,-0.11025544,-0.18622863,0.2109235]},{"bias":0.036855817,"weights":[-0.53883547,0.82776284,0.5230117,-0.16559494,0.48720577,-0.10357058,0.8586216,0.6932428,0.62591684,-0.28076476,0.5264108,-0.54754376,-0.5382696,0.52122146,0.05927068,-0.9571793,-0.1619469,0.9155929,0.49700105,0.31557906,-0.01071576,-0.8088901,0.6696143,-0.3122248,-0.47283208,-0.065463014,-0.16866052,0.9780803,0.8946004,0.55689967]},{"bias":0.49900472,"weights":[-0.828321,-0.5468897,-0.729163,0.6271894,0.47994936,0.3850037,0.9146948,0.23200119,0.048585244,0.84725714,-0.36640877,0.57963204,0.9641888,0.8340311,-0.09221041,-0.40712407,-0.8170166,0.2980925,0.45703307,0.9713559,-0.65058684,0.28448808,0.88321114,0.87909174,0.46416318,-0.73822784,0.21551907,-0.38443846,0.45711088,-0.14919893]},{"bias":0.60260606,"weights":[-0.0596997,-0.46344942,0.40655243,-0.010393739,0.43575847,-0.39629704,-0.3706674,-0.57877034,-0.7984358,0.20153868,-0.6385846,-0.65492845,-0.2344948,0.81017804,-0.4664554,-0.4854278,0.6325686,0.9386823,0.9645405,-0.85022616,0.78666914,-0.14963448,0.13793957,0.15342513,-0.8548956,0.3984884,0.70917535,-0.6908674,-0.5491652,0.5505804]},{"bias":-0.5281748,"weights":[0.07243992,0.28908122,0.23482072,-0.6504688,-0.13522351,0.8702662,-0.6271496,-0.37864727,0.020031571,0.77432585,0.50558126,-0.124678016,0.8353081,-0.04022777,0.018813923,0.017843366,0.7844665,0.47313416,0.496189,-0.21573317,-0.0029727593,-0.7805338,-0.3914923,-0.26044673,-0.6947743,-0.19266021,-0.56530374,0.7927563,0.79062176,0.70428795]},{"bias":0.9460094,"weights":[0.019909501,0.09114635,-0.55879277,-0.12935293,-0.8837271,-0.43444103,0.38516152,0.94106823,-0.25712627,-0.3950321,-0.29905814,-0.6334858,-0.46510762,0.509917,0.30659115,-0.56666654,0.15327251,0.71179104,0.038066268,0.33201206,-0.03177631,-0.30108893,0.07429993,-0.6975112,0.281994,-0.37399143,0.6709756,0.89200926,-0.6809077,-0.49547237]},{"bias":-0.009210944,"weights":[-0.2874099,-0.34562367,0.7795894,-0.8628502,-0.77494717,0.20574507,0.32524365,0.8469081,-0.31063813,0.7690192,-0.1244725,0.24836713,-0.9431269,-0.64114094,-0.60370773,0.37670195,-0.5944161,0.47043765,-0.032291055,-0.91954637,0.69907475,-0.7243464,0.32389492,0.1981467,-0.6494632,-0.3683762,-0.31247348,-0.26435608,0.0030337572,0.6978433]},{"bias":0.2004143,"weights":[0.20633256,-0.06904733,0.7157545,-0.97307503,0.56577206,0.9297462,-0.82006645,-0.44062746,-0.42270243,0.05764222,-0.09639728,0.91706586,-0.031336427,0.68923235,-0.15806568,0.4023385,-0.70416117,-0.7672458,-0.89774966,0.56935483,-0.30655617,-0.7168907,0.14367425,-0.12336838,0.50361896,-0.4504909,0.36893594,-0.40971902,0.22720778,0.36629593]},{"bias":0.69605136,"weights":[0.9113288,-0.085771136,0.70866513,0.71655774,0.57752657,0.8013363,-0.9944217,-0.5633983,0.3718369,1.0,0.5836973,0.056686096,0.005805373,-0.68190837,0.4527508,-0.6705327,0.24939358,0.70172524,-0.8655722,0.7600273,-0.50707525,0.73905987,0.9828576,-0.25828174,-0.46556205,-0.7484014,-0.7036247,-0.7824786,-0.26111883,-0.52867854]},{"bias":-0.1157881,"weights":[0.6772163,0.19240868,0.72353196,0.51263,-0.5795345,0.6711583,-0.75567293,-0.9427211,-0.5866211,0.716367,-0.45838588,0.09934914,-0.40943807,-0.7045138,-0.33700532,-0.71458125,-0.6906388,0.42274553,-0.39020842,-0.972512,0.3270587,0.95644975,-0.7621002,-0.7979219,-0.6582544,0.4500767,0.860631,0.5669065,-0.72647285,0.9141722]},{"bias":-0.8188126,"weights":[0.40153873,-0.8496423,0.30703032,0.28533065,-0.66149044,-0.6771505,0.7772285,0.18492639,-0.28272885,0.9361603,-0.007386565,-0.986361,0.23041022,0.19068807,0.7629807,-0.08290708,0.5721171,-0.38818318,0.21667111,-0.45336574,0.9631009,-0.7208834,0.3777889,0.46355784,-0.14777863,0.69114065,-0.6267218,0.4994973,-0.034181476,0.614012]},{"bias":0.70694923,"weights":[0.7452226,-0.60602474,-0.9563756,0.41029948,0.39902008,0.85827637,-0.7834132,-0.87867904,-0.4855339,-0.44297934,-0.8943322,-0.3724031,-0.7524886,0.35904205,-0.7294898,-0.14389002,-0.1988722,0.8027551,0.6977047,-0.14443308,0.9728842,0.30911887,0.74908066,-0.027269483,0.97091043,-0.8204305,0.03979504,0.9344599,0.8948641,0.36267024]},{"bias":-0.8853879,"weights":[0.3036002,-0.9700223,0.8912213,-0.102378964,0.92248535,-1.0,0.13777557,0.7372761,0.15620649,-0.4090175,-0.628007,-0.4060542,-0.38267824,-0.80031806,-0.008859754,-0.43516582,0.27082598,-0.4186905,-0.7776098,0.8899362,-0.1739322,0.5950122,0.5124326,-0.018226743,-0.8543277,0.34747732,0.83514786,-0.4991731,0.62982893,0.27109897]},{"bias":-0.24004734,"weights":[-0.9017062,-0.5875757,0.63747,0.7907717,0.36765563,0.59307003,0.097324036,-0.8747184,-0.79887176,-0.51435584,-0.9841902,-0.812191,-0.31251186,-0.29160255,-0.4628505,-0.7153425,-0.489299,-0.12656844,0.10995985,0.15729606,-0.29492754,-0.54431975,-0.44091636,0.84739876,0.43083918,0.13221712,0.40147096,0.9559535,0.40342993,0.76747775]},{"bias":0.6200266,"weights":[0.7391535,0.4966544,0.54752636,0.8931443,-0.05977261,-0.7160428,-0.7666831,-0.7810657,0.80852437,-0.6096384,-0.3526575,0.13261282,0.3083317,0.66251206,0.8952758,0.25745118,0.61278033,-0.7908981,0.9539879,0.7384441,0.759478,0.9462302,0.1111213,0.88798356,0.36203706,0.15469587,-0.13095781,0.05283799,-0.57943696,0.596354]},{"bias":0.90640235,"weights":[-0.043847375,0.5356946,-0.6457064,0.44635627,0.73140144,-0.009770751,0.21171868,0.027158327,0.17773616,-0.7859514,0.6341896,0.7982733,0.54140264,0.19397914,-0.41485772,-0.34019202,-0.14836824,-0.7942312,-0.66368365,0.63909554,-0.78754807,-0.8502691,0.41316074,-0.4461624,0.9179785,-0.036962442,0.14632952,-0.70311236,-0.21874702,0.32900217]},{"bias":0.18792903,"weights":[-0.09615554,0.6373129,0.93030727,-0.7014702,-0.23048611,0.9604882,-0.57856554,0.8982513,-0.22132576,0.36472476,-0.0964731,-0.6969702,-0.780699,-0.4391764,0.5513489,0.56825584,0.9835799,0.049429774,-0.88222766,1.0,-0.21050939,-0.47331068,0.96972084,-0.87426496,0.3553444,-0.73040056,-0.423536,0.84247565,-0.5772919,-0.61935085]},{"bias":-0.870522,"weights":[-0.24548239,-0.7305923,0.23680508,0.42365605,0.95765233,0.87967944,0.5174575,0.44985878,0.7104778,-0.44872898,-0.027661853,0.292915,-0.09817203,0.45661652,0.8942525,0.88819766,-0.6469094,-0.16082248,0.15929526,-0.6784556,0.55309427,-0.06694398,0.030091166,-0.7064865,-0.12138647,-0.2261113,-0.42305398,-0.5190627,-0.09359082,-0.13197935]},{"bias":-0.59584993,"weights":[0.3024825,-0.8508699,0.46586764,0.82317007,0.6528492,0.3359872,0.8905795,-0.76657486,-0.23419154,-0.9504144,0.35189044,-0.3065173,-0.15888822,0.7487123,-0.37824005,0.6882192,-0.76209486,-0.031443477,0.08769214,0.37599695,-0.42221078,-0.27293995,-0.65119076,0.5465841,-0.9278548,-0.54325145,0.48639724,0.11570442,-0.8317825,-0.18357551]},{"bias":-0.42899603,"weights":[0.8114605,0.6766534,-0.8518307,-0.47098035,-0.5544345,-0.16976881,-0.30001014,0.2927477,-0.62558866,-0.7643812,0.027514853,0.6503483,-0.6157773,-0.31216735,-0.80777264,0.3786553,0.26536524,0.6080271,-0.33745468,0.80397534,0.9042454,-0.60024726,0.11628052,-0.1260184,-0.48797745,-0.66393006,-0.8068042,-0.64226186,0.6823578,-0.106736876]},{"bias":-0.34096116,"weights":[-0.6664207,0.19284546,-0.98318744,0.5140779,0.80753076,0.6035857,-0.19424284,-0.498532,0.7195964,-0.022819161,-0.034893632,-0.5771314,0.13008797,0.83469486,0.6060657,-0.62084025,0.54238725,-0.9516132,-0.94682074,-0.08176225,-0.6873335,0.77985287,-0.8852234,-0.5356118,-0.95382905,-0.059153438,0.17922652,-0.81804913,-0.27084377,-0.99566555]},{"bias":-0.67516804,"weights":[-0.56439394,-0.03542637,-0.39678425,0.57805943,-0.83879256,0.5316839,0.27719057,0.6191069,-0.3966517,-0.90417695,-0.39593142,-0.8718574,0.08777249,-0.8421469,0.6052079,0.80807877,0.15332758,-0.28217962,-0.3496706,-0.7145555,-0.5926358,0.7783082,-0.61263293,0.3125288,0.096615106,-0.25642818,-0.57322025,0.55342317,0.6585781,-0.5458016]},{"bias":0.058132052,"weights":[-0.19109523,-0.46310657,-0.47373882,-0.40346354,0.5495541,-0.3085119,0.0766927,-0.5837764,-0.17986429,0.038796127,0.6425689,0.7559826,-0.03901422,0.48656404,0.98697186,-0.30824393,-0.049261212,-0.3779847,0.9440849,0.31143916,0.40693915,-0.26173872,0.3338772,0.42115533,0.99521184,0.8982649,0.9537735,0.73941493,0.5739281,-0.4602887]},{"bias":-0.8018775,"weights":[0.26189876,-0.084390394,0.47281134,0.35165417,0.94984484,-0.3248424,0.92344904,0.8356483,0.7496495,-0.99304056,-0.8769474,0.9633024,-0.8239479,0.39183605,-0.65235186,-0.053458516,0.96377593,-0.64975476,0.35094392,-0.34421366,-0.21850982,0.05734718,-0.4593994,0.2596203,0.87909317,0.3163813,0.20857203,0.9784193,-0.68629575,-0.89908814]},{"bias":0.5100174,"weights":[0.081340194,0.99335074,-0.5770499,0.41662133,-0.35998392,0.49907893,1.0,-0.55099744,0.20656168,0.8258393,0.76282656,-0.008524157,0.35677063,-0.8092537,0.17223823,-0.8885586,0.07777274,-0.45198855,0.3408996,0.73591805,-0.34195346,-0.25345033,0.9273317,-0.54266876,0.1681081,-0.66654235,-0.039277673,0.54384446,0.49178183,0.4137231]},{"bias":0.47671282,"weights":[0.07789474,0.6023221,0.81623197,-0.7407744,0.6182053,0.20844996,-0.098534465,-0.79218006,-0.13529003,-0.6755774,-0.549956,-0.47319525,-0.014636159,0.6812496,-0.34890503,0.41244495,0.38212717,0.058675885,0.61948735,0.38710964,0.14504445,-0.83854866,0.24922502,0.5399096,0.12961414,-0.38935274,1.0,0.43119752,0.33935654,-0.7493434]},{"bias":0.10552657,"weights":[0.09358108,0.31442434,-0.342318,-0.60236037,-0.6106104,0.8528538,-0.7825634,0.15355909,-0.48992166,-0.6942816,0.088530995,-0.7915306,0.91634405,0.12701404,-0.81766653,0.47950447,-0.71986175,0.2750681,-0.31617555,-0.3996296,0.46639955,-0.62886786,-0.33831733,0.84626675,-0.5712394,-0.4307477,-0.008051276,-0.5567598,-0.8447361,-0.089512825]}]},{"neurons":[{"bias":0.81700087,"weights":[-0.6257913,0.21326727,-0.9084604,-0.9331393,0.82970136,0.9260485,0.30657566,0.76382005,0.6156173,-0.79392385,-0.98356247,0.3007568,0.762196,-0.9077668,-0.3625682,-0.16060306,0.6363766,0.5117469,-0.8529093,0.685143,-0.3472885,-0.2177409,0.08005631,0.9762082,-0.80134726,0.20586383,1.0,0.71862674,-0.8089876,-0.4270941]}]}]}