{"layers":[{"neurons":[{"bias":0.68942213,"weights":[-0.258712,0.28318268,0.17016497,-0.7609904,-0.66448575,0.6988542,0.17086026,-0.21380699,0.4764496,-0.8005831,-0.83454704,-0.67027384,-0.40145692,-0.06538088,0.3483423,-0.41030127,0.765758,0.385172,0.7253556,0.6890743,0.6516447,0.44856083,0.19622254,0.7656512,0.107028365,0.8553319,0.8015184,0.97286093,0.6421561,-0.16856588]},{"bias":0.08741486,"weights":[-0.6736369,0.23459932,-0.92046165,0.24550188,0.63488394,0.044592977,0.16923289,-0.8300829,0.39575183,-0.36698732,0.9655371,-0.036217332,-0.58422107,0.686151,1.0,-0.13178957,0.028059363,-0.6986377,-0.31081003,-0.11490667,-0.09757292,0.18121588,-0.6493248,-0.38979858,-0.13326235,0.2174617,0.36866575,0.014791645,0.5471111,0.58907413]},{"bias":0.057526708,"weights":[0.8690526,0.36561704,-0.4791345,0.6633315,0.9418404,0.41459644,0.55141425,-0.6296971,0.9482136,-0.2634024,-0.43882412,0.5558281,-0.7208977,-0.9897873,0.63829273,0.4629084,0.008163944,0.11379683,0.09586919,-0.63460004,-0.96033,-0.042224288,0.17455566,-0.5224001,-0.60455936,-0.35311645,0.17402895,-0.7160755,-0.9622669,0.48178518]},{"bias":-0.083309054,"weights":[0.17344797,0.37312257,0.78171515,0.046177544,0.06939576,0.8358011,-0.5189106,0.6684756,-0.9123173,0.98022246,0.083579645,-0.01451049,0.8877337,0.6466162,0.419802,0.39461175,-0.16936326,-0.11444455,-0.6442268,0.90908384,-0.07248533,0.36221856,-0.7847445,0.575341,0.3464249,0.24393046,0.8092754,-0.08127473,0.5755627,0.37952673]},{"bias":0.036855817,"weights":[-0.53883547,0.78291893,0.5230117,-0.045476317,0.5558052,-0.39059132,0.2912215,0.6932428,-0.40948147,-0.28076476,-0.30947322,-0.54754376,-0.5382696,-0.8559625,0.752285,-0.96711284,-0.1619469,0.8327026,-0.61155385,0.27032647,-0.3061952,-0.8367273,0.6696143,-0.24533057,-0.47283208,-0.065463014,-0.6941469,-0.7247579,0.9601228,-0.09932363]},{"bias":0.49900472,"weights":[-0.7991672,-0.5468897,-0.708942,0.7066723,0.5424669,-0.18204272,0.9786275,-0.035762906,-0.031916574,0.84725714,-0.3976768,0.3825332,-0.09043872,0.77231634,-0.5385234,0.40862048,0.77300644,0.020015597,-0.3118822,0.9720716,-0.65058684,-0.08684027,0.88321114,0.6114056,0.46644413,-0.010866046,-0.38722676,-0.36212122,-0.090075135,0.5345371]},{"bias":-0.30495995,"weights":[-0.05393541,-0.46434104,-0.8056848,-0.8058891,0.33476937,0.8777778,0.30361497,-0.57877034,-0.7984358,0.20153868,-0.6385846,-0.65492845,-0.2344948,0.81017804,0.62396026,-0.5688508,0.6400328,-0.93525386,0.9645405,-0.85022616,0.1252085,-0.72934675,0.12661883,0.09381713,0.39273775,0.3984884,-0.5537073,-0.34738368,-0.38601083,0.6258639]},{"bias":-0.45914048,"weights":[0.07243992,-0.875587,0.36369717,-0.96353006,0.7048111,0.8702662,0.5776844,-0.37864727,0.008968197,0.069012046,0.5651536,0.33997,0.8353081,0.72800684,0.4261104,0.36066163,-0.5674712,0.96189284,-0.24299824,-0.28522706,-0.12951505,-0.7805338,-0.3914923,-0.26044673,-0.6947743,-0.23626532,-0.56530374,0.5578561,-0.38717335,-0.43632978]},{"bias":0.9460094,"weights":[-0.11871183,-0.7376847,0.8137133,-0.12935293,-0.90399927,-0.43444103,0.7515001,0.94106823,-0.2888903,0.9644642,-0.26906726,0.30423677,-0.37456626,0.509917,0.3504766,0.9137261,0.15331325,0.7382382,-0.6009888,0.33330417,0.2734884,-0.34724993,-0.6377554,-0.7600581,0.25813878,-0.37399143,-0.8592279,0.99811816,-0.25663108,-0.35782403]},{"bias":0.5085268,"weights":[-0.99144244,0.51548624,-0.008212209,-0.91152644,-0.7289728,-0.19151676,0.6669235,0.6717322,-0.8341954,0.7690192,-0.1244725,0.24836713,-0.9431269,-0.64114094,-0.8180485,-0.8860717,-0.10590565,0.47043765,0.099402785,-0.7626569,0.73604536,-0.79945683,0.32389492,0.8056543,-0.6460841,-0.3683762,-0.8971062,-0.79040456,0.96107006,-0.9116566]},{"bias":0.2004143,"weights":[0.20633256,0.17098844,0.90608335,-0.97307503,0.56577206,-0.7408047,-0.8909962,-0.44062746,-0.103633285,0.14657292,-0.09639728,0.835909,-0.553034,-0.62685895,-0.24384582,0.41568005,0.06815112,-0.16807115,-0.86075354,0.56935483,-0.30655617,-0.782695,0.16655716,-0.19045258,-0.31591457,-0.4504909,0.3846168,0.22279966,0.26418054,0.36629593]},{"bias":0.9362502,"weights":[-0.86949587,-0.085771136,0.78732973,0.7586555,-0.120394826,-0.302036,-0.9944217,-0.55460083,0.42721283,0.9777117,-0.43891376,0.7278373,-0.022084415,-0.090792775,0.4527508,0.086539865,0.21812388,0.70172524,-0.8655722,0.7334694,-0.5895385,0.7637836,-0.14150465,-0.19949237,0.010524869,-0.7484014,-0.7036247,0.9137454,-0.2900811,-0.52867854]},{"bias":-0.1157881,"weights":[0.7227866,-0.28872794,0.77642906,0.123817325,0.7161765,0.6711583,-0.748255,-0.9427211,0.5230546,-0.8754344,-0.45838588,-0.91922164,-0.3567626,0.4028772,-0.33700532,-0.54578704,-0.72293043,0.41668126,0.5013118,0.07332575,0.34023142,0.66936827,-0.7621002,-0.7979219,-0.6582544,0.4500767,-0.9077034,0.61080855,0.09347117,0.16683018]},{"bias":-0.8188126,"weights":[-0.321104,0.31685197,0.30703032,0.603889,-0.9433768,-0.6771505,0.7021255,-0.3109135,-0.20246014,-0.11594617,0.0019897893,-0.986361,-0.65304255,-0.49823827,0.7055862,-0.09455348,0.5721171,-0.45944798,-0.19438922,0.25243938,-0.62974167,-0.6248165,0.39337867,0.4699001,-0.12668693,-0.4482419,-0.9527559,0.46386886,-0.11285961,-0.94296193]},{"bias":0.5865278,"weights":[0.7452226,0.24342,0.6602957,-0.8298614,0.39902008,-0.68578863,-0.24428976,0.7092178,-0.37861747,-0.44297934,-0.8352972,-0.28204292,-0.7524886,-0.43666548,0.25085056,-0.113253884,-0.1988722,0.8027551,0.5294237,-0.24414814,0.9728842,0.37821642,0.8100465,0.41153157,0.97091043,-0.8953166,0.0874933,0.9344599,0.9484266,0.24203265]},{"bias":-0.8853879,"weights":[-0.1434859,0.06475508,0.14318812,0.46414483,0.92248535,-1.0,0.13777557,0.8104489,-0.99132395,-0.4090175,-0.628007,0.42601454,-0.38267824,-0.80031806,-0.9690287,-0.008738399,-0.00540936,-0.4724236,-0.9713886,0.39021003,0.96755505,-0.8505571,0.2867986,-0.111837626,-0.82637763,0.22908032,0.83514786,0.045540452,0.48103583,0.24142598]},{"bias":-0.50613207,"weights":[-0.9175257,-0.007912517,0.69340086,0.24162209,0.35620058,-0.08657324,0.81585026,0.8952191,-0.79887176,-0.71426153,-0.9841902,-0.89807755,-0.40306664,0.45327175,-0.5340348,-0.11482561,-0.50749177,-0.12656844,-0.5405857,-0.16191971,-0.20150587,-0.009399056,-0.44091636,0.67622447,-0.22029483,0.24178588,0.40147096,1.0,0.48139602,0.38471568]},{"bias":-0.53312105,"weights":[0.7132664,0.470811,0.54752636,-0.6045069,-0.23603618,-0.769161,-0.7666831,0.7236142,0.80852437,-0.6096384,-0.3526575,-0.8642945,0.7533107,0.6255174,-0.94497824,0.3177719,-0.80769277,-0.7908981,0.9539879,-0.7146187,0.3108145,0.9462302,0.1111213,0.88798356,-0.14721239,0.15469587,0.08611858,0.05283799,0.7577443,0.7778945]},{"bias":0.90640235,"weights":[-0.043847375,-0.102009416,0.27848637,-0.4964978,0.73140144,-0.009770751,-0.48770946,0.07505299,0.17773616,0.5072665,0.9476516,0.7284232,-0.29362434,0.19397914,-0.22346771,-0.34019202,-0.9157996,-0.7942312,0.07072103,-0.11511648,-0.78754807,0.43959606,0.44873106,-0.45839,0.9625939,-0.036962442,0.065363914,-0.94521,-0.21874702,0.64072466]},{"bias":-0.7366586,"weights":[-0.09615554,0.6373129,0.9883597,0.85087514,0.53537154,0.05102241,-0.3973183,0.8693046,0.5097592,0.26126754,-0.27921647,0.25575006,-0.780699,-0.52559626,-0.62805676,-0.14316332,0.9835799,-0.45540804,-0.8317607,0.013441682,-0.18990913,0.60738826,0.96629995,-0.78760713,-0.15586841,0.43874443,-0.5181128,0.83070064,0.50687146,-0.46667355]},{"bias":-0.41999143,"weights":[-0.24548239,-0.6109225,0.18820022,0.25013316,-0.2829017,0.7981279,-0.8729131,0.58912325,0.4718789,-0.34907934,-0.8322363,-0.10865295,-0.09817203,0.41631737,0.7066386,0.163499,0.96884966,-0.11081282,0.15929526,-0.80844116,0.56538296,-0.06694398,0.5594642,0.65886354,-0.12138647,-0.25550675,-0.43456587,-0.34670752,0.06664145,0.37917864]},{"bias":-0.59584993,"weights":[-0.61880225,-0.7580615,0.46586764,0.8445442,0.5547891,-0.11810267,0.9740143,-0.6727108,-0.3325013,-0.6907189,0.35189044,-0.3065173,0.061631083,0.71796066,-0.37824005,0.5731058,-0.8100016,0.028258972,0.08769214,0.074221015,-0.3316788,-0.27293995,-0.65119076,-0.76150894,0.3192376,-0.54325145,-0.9396329,0.04597771,0.5878427,0.017066598]},{"bias":0.02548945,"weights":[0.7127663,0.71403843,0.59895587,-0.16278565,-0.5643207,-0.23858583,-0.30001014,-0.06934464,-0.68036675,-0.8330953,0.027514853,-0.9764886,-0.68021333,0.6047716,-0.80777264,0.3786553,-0.8327234,0.8216047,-0.33745468,0.8481735,0.84271324,-0.17576826,0.057674877,0.46032298,-0.48797745,0.35029256,0.108852506,-0.64226186,0.6823578,0.49463618]},{"bias":-0.34096116,"weights":[-0.5030369,0.19284546,0.71710944,-0.40891784,-0.29495972,0.66347414,-0.19424284,-0.0021144152,0.6492993,-0.022819161,-0.034893632,-0.61463946,0.13008797,0.25486982,0.4456967,-0.7401917,0.54238725,-0.9516132,-0.8516029,-0.551845,0.13130677,0.96170545,0.7895341,0.65461826,-0.95382905,0.9948702,-0.53201145,0.66228604,-0.29490846,-0.99566555]},{"bias":-0.67516804,"weights":[-0.56439394,-0.79166675,-0.3306184,0.57805943,-0.83879256,0.5316839,-0.42459673,-0.49809903,-0.3966517,-0.90417695,-0.39593142,-0.8718574,0.0071355104,-0.8421469,0.6052079,0.753327,-0.97373533,-0.28217962,-0.3496706,-0.7145555,-0.72079825,-0.29270166,-0.6403935,0.22395581,0.12862805,0.7019143,-0.39595073,0.48907667,0.26015747,-0.9733684]},{"bias":0.29819214,"weights":[-0.11447362,0.84812665,-0.39932683,-0.77066207,0.6109021,-0.39849442,0.105465524,-0.31749362,-0.11222639,0.036640383,-0.7860296,0.7882346,0.026643418,0.48656404,0.98697186,-0.30824393,0.48469675,0.9548547,-0.085083604,0.22207502,0.36750785,-0.26173872,-0.927752,-0.7112739,-0.15495431,0.9254053,0.21604598,-0.98689866,0.49567074,-0.5312411]},{"bias":-0.20792902,"weights":[0.2163534,-0.12834755,0.43582976,-0.6502352,0.92873234,-0.26887548,0.92344904,0.7630817,0.7496495,-0.99304056,0.92548037,0.5389943,0.42352855,0.94415474,0.19342244,-0.053458516,0.96377593,-0.7329924,0.15002191,-0.3497214,-0.21850982,0.05734718,-0.50612557,0.35893178,0.7038002,0.25774407,0.22290704,-0.2856285,-0.6722927,-0.80494064]},{"bias":0.5100174,"weights":[0.48019516,-0.07425654,-0.5770499,-0.35103196,-0.18380153,0.094601035,0.3481158,0.6808965,0.16384137,0.8258393,0.79529303,-0.07580466,0.35677063,0.10869324,0.8637359,-0.6977408,-0.8487792,0.5841541,0.3408996,-0.16974151,-0.3647842,0.6665368,-0.39430445,0.81000257,0.18010533,-0.66654235,0.8590822,-0.089087844,0.45008332,-0.83793354]},{"bias":-0.047059655,"weights":[0.14017601,0.6023221,-0.7735193,-0.7407744,0.66542387,0.35975993,-0.12637436,-0.79218006,-0.15244392,-0.7611674,-0.6182488,-0.56809175,0.003176093,-0.97875667,0.35082304,-0.79688954,0.6710346,0.35545433,-0.6790278,-0.3869378,-0.5573477,-0.97379494,0.016756892,-0.60184854,0.18272507,-0.38935274,-0.26385397,0.71844697,0.33935654,-0.7493434]},{"bias":0.7848964,"weights":[0.43876874,0.40117234,-0.342318,-0.60236037,-0.6106104,0.8906423,0.26092875,0.72327113,-0.48992166,-0.5842523,0.088530995,-0.7915306,-0.04192984,0.12701404,-0.9167569,0.21628869,-0.7811022,0.22008067,0.40254128,-0.6556556,0.55785197,-0.4238364,-0.33831733,-0.9159112,-0.9489827,0.06461227,0.5201733,-0.8472729,-0.82620513,-0.000556089]}]},{"neurons":[{"bias":0.5838659,"weights":[-0.69840056,-0.51661843,-0.93652576,-0.9331393,0.82970136,0.9383627,0.27808803,0.745976,0.6373039,-0.79392385,0.47982848,0.042313218,0.762196,-0.22016227,0.7581687,-0.16060306,0.47219503,0.6092005,0.32208478,0.6773026,0.43915784,-0.15852737,0.06314933,0.9623965,-0.80134726,0.516484,0.9225252,0.71862674,0.35568964,0.14673603]}]}]}