{"layers":[{"neurons":[{"bias":0.68942213,"weights":[-0.258712,-0.32289094,0.93106747,0.07590687,0.65335536,0.83843803,0.17086026,-0.21380699,0.18672454,-0.8005831,-0.025029063,0.1946739,-0.40145692,-0.38316482,-0.442218,-0.41030127,0.755599,0.34735402,0.33068216,0.7304423,0.1638645,0.44856083,0.25798643,-0.57356495,0.8925047,0.72228384,0.420637,0.97286093,0.6365645,-0.8855908]},{"bias":-0.34867352,"weights":[-0.6811786,0.23016262,-0.92046165,-0.44528002,0.712292,0.47843182,0.89508367,-0.8756076,-0.44920558,0.016385913,0.97354877,0.06329351,-0.58422107,0.48353183,0.34244072,-0.13178957,0.12631929,-0.6986377,-0.23075378,0.5944321,-0.5415568,0.18121588,-0.6493248,-0.38979858,0.8757496,-0.31150407,0.33630002,0.15105331,0.5471111,0.67955655]},{"bias":0.44572318,"weights":[0.8690526,0.29498512,-0.110015035,-0.08337009,-0.6191694,0.37573,0.55141425,-0.55347806,0.9232347,-0.18933475,-0.43882412,0.5558281,-0.7208977,-0.5178856,0.70588475,0.37431657,0.008163944,0.122853056,-0.87164474,-0.6728937,0.7956526,-0.11354155,-0.10055721,0.52759767,0.41485226,0.065484405,0.17402895,0.18917406,-0.9622669,-0.68646455]},{"bias":-0.45978016,"weights":[0.1678912,0.37312257,-0.034463286,0.046177544,0.67623496,0.8522206,-0.5214403,0.1401304,0.65733075,0.22366416,0.083579645,-0.479423,0.85144734,0.6466162,0.419802,0.39461175,0.45688403,0.46034825,-0.26949328,-0.9182224,0.026474245,-0.91396713,-0.7847445,0.52241564,0.3587679,0.95188403,0.83256096,-0.08127473,0.17664516,-0.3571939]},{"bias":0.6697824,"weights":[-0.5278649,0.688186,0.7422576,0.12921607,0.8055208,-0.4011041,0.2912215,0.5958432,0.7381134,-0.28076476,-0.30947322,0.1821357,-0.52511114,0.8681793,0.72780794,-0.7165463,-0.13259873,0.8327026,-0.51760983,-0.84859896,0.67780995,0.8187685,0.6696143,0.18238199,-0.47283208,-0.017590165,-0.7912854,-0.6523671,-0.483113,0.69194555]},{"bias":0.49900472,"weights":[-0.85604,-0.5468897,0.40082586,0.7118255,0.5570347,-0.87510777,0.11956513,0.8105521,-0.24731433,0.12981665,-0.49241245,0.3123978,-0.29059237,0.8721976,-0.5385234,0.40862048,0.09595215,-0.002152048,0.65451026,-0.11403096,-0.6291496,-0.08684027,0.88321114,0.6114056,0.44020998,-0.010866046,-0.9895289,-0.29290414,-0.090075135,0.5345371]},{"bias":-0.30495995,"weights":[0.94412804,0.62815976,-0.8056848,0.23588169,0.43886578,-0.12915218,0.30361497,-0.57877034,-0.7984358,0.8773148,0.62430525,0.6988375,-0.5034537,0.81017804,0.62396026,-0.64858687,0.5429225,-0.93525386,1.0,-0.85022616,-0.5652711,0.22370327,0.13747832,0.09381713,0.39273775,0.3984884,-0.87858415,-0.34738368,-0.38601083,0.6258639]},{"bias":-0.21948206,"weights":[0.07243992,-0.6599469,-0.1499356,-0.96353006,-0.7187364,-0.1334647,0.40382922,-0.3322739,0.008968197,-0.019848488,0.13512409,-0.510946,0.8497343,0.32721484,-0.23204362,0.5055208,-0.5674712,-0.5534646,0.29212248,-0.2619226,-0.10259684,-0.7188802,-0.30445638,-0.35822725,-0.5423958,-0.23626532,0.13850176,-0.7270596,-0.33552718,0.053686976]},{"bias":-0.675936,"weights":[-0.031222172,-0.6536007,0.8137133,-0.05317501,0.62184,0.7188008,0.73548913,0.94106823,-0.687269,0.9644642,0.14442217,-0.8463347,0.98819876,0.509917,-0.17205274,0.9137261,0.15331325,0.7382382,0.95311594,0.33330417,0.2613154,-0.34724993,-0.6377554,0.052065253,0.25813878,-0.32489437,0.56728053,0.73438406,0.4093386,-0.4230643]},{"bias":-0.703953,"weights":[0.46711862,0.51548624,-0.07785463,-0.9614691,-0.55842704,-0.19151676,0.67246526,-0.30464453,0.86580133,0.7690192,-0.10902382,-0.65674424,-0.9431269,-0.22249568,-0.9002304,0.8909867,-0.3919193,-0.21666563,0.099402785,0.4221586,-0.43754715,-0.716803,0.3662243,0.25508153,0.50221467,0.6406665,-0.8971062,-0.843845,0.9734669,-0.9116566]},{"bias":0.2004143,"weights":[-0.25401443,0.11404684,-0.8533256,-0.10124266,-0.93026614,-0.7408047,0.22750819,-0.40526977,-0.72373295,0.114010744,-0.09639728,0.9320654,-0.553034,-0.63119286,0.7582555,-0.8551221,0.06815112,-0.16807115,-0.86075354,-0.67209816,0.43607867,-0.87345135,0.21747458,-0.2577777,0.6842613,-0.4504909,0.3846168,0.10946548,0.34179872,0.36629593]},{"bias":0.9362502,"weights":[-0.86949587,0.118926644,-0.6399989,0.7170038,-0.09713419,-0.5286903,-0.87249684,-0.4514491,0.42721283,-0.7943294,0.9576497,0.76173085,-0.6110603,-0.054383226,0.51140445,0.086539865,-0.32929987,0.84505105,-0.873826,0.72214866,-0.6293895,0.86369383,0.5632131,-0.19949237,0.010524869,-0.6142637,-0.7036247,-0.77022576,-0.0836581,-0.18885577]},{"bias":0.41839802,"weights":[0.3905207,-0.12480843,0.78951764,-0.32160467,-0.788187,0.6711583,-0.43415898,0.60067606,0.5230546,-0.8754344,-0.7119992,-0.89335907,0.24547875,-0.89849424,-0.2980238,-0.54578704,-0.67270565,0.38197988,0.5469365,0.07344271,-0.26838058,0.2771045,-0.76147956,-0.7979219,0.89237094,-0.31511587,0.1988653,0.5327522,0.11731288,0.83973455]},{"bias":-0.8188126,"weights":[-0.33976978,0.036340117,0.6425524,0.5227546,-1.0,-0.6771505,0.69261336,0.26450956,-0.1806351,-0.060190298,0.0019897893,-1.0,0.24003494,-0.03502071,0.11322558,0.013574243,0.6173492,-0.22949612,-0.19438922,-0.6383703,-0.6728382,-0.70638084,0.46139482,0.4699001,-0.8219459,0.76939154,-0.9343471,0.53368294,0.25029814,-0.94296193]},{"bias":0.5865278,"weights":[0.56402826,0.24342,0.6602957,-0.8298614,0.35071915,-0.68578863,-0.1518158,0.9745774,-0.32784903,-0.5262363,0.7724061,0.27584302,-0.80743104,0.4697026,0.21420866,-0.113253884,-0.1988722,0.8027551,0.45542485,-0.24414814,-0.5569231,0.37821642,0.19688761,0.42590463,0.97091043,-0.8953166,0.17970064,0.9344599,0.9944229,0.26670754]},{"bias":0.93801665,"weights":[-0.1434859,0.05637014,0.44388902,0.688823,0.933249,-0.2418803,0.20051411,0.8104489,-0.22445214,-0.98080134,-0.697405,0.42601454,-0.38267824,-0.80031806,-0.9690287,-0.008738399,-0.00540936,-0.4724236,-0.14462698,0.2916327,-0.6530831,-0.93051356,0.29063997,-0.44402856,-0.32330602,0.7372124,0.14461982,-0.20303333,0.48103583,0.24142598]},{"bias":-0.50613207,"weights":[-0.2723469,0.5941403,0.69340086,0.25138745,0.8921027,0.015673757,-0.67218685,0.8952191,-0.2685873,-0.6809504,-0.9841902,0.8068607,-0.40306664,-0.56007046,-0.5340348,-0.3158087,0.67242956,-0.5338101,-0.5405857,-0.11795492,-0.9674759,-0.009399056,-0.38129374,0.58199644,-0.14096728,-0.82338905,0.34849826,0.4873215,-0.6044559,0.17207897]},{"bias":-0.66767263,"weights":[0.7132664,0.8206687,0.54752636,-0.681627,-0.23603618,0.3945099,-0.7666831,-0.78820515,0.80852437,0.5567994,0.46448362,-0.8035426,0.47863185,0.20738637,0.87091756,0.27317452,0.25258863,-0.7908981,0.21783602,-0.2633447,0.3108145,0.9462302,0.061902553,0.100604415,0.11295593,0.08442536,-0.0729717,0.05283799,0.7577443,0.5035205]},{"bias":-0.9363582,"weights":[-0.38218778,-0.102009416,0.3433551,-0.4964978,-0.8808968,-0.104882695,-0.48538467,-0.6050028,-0.84690666,0.7078731,0.6570327,0.64488775,0.6196625,0.8282747,0.25070488,0.80927515,-0.21816647,0.5486684,0.07072103,-0.6012303,-0.78754807,0.43959606,0.52095973,0.1744374,0.94080365,-0.35074204,0.13482413,-0.975278,-0.21874702,0.89604354]},{"bias":-0.7366586,"weights":[-0.13433976,0.6373129,0.9883597,0.85087514,0.41633332,0.05102241,-0.8756821,0.87655115,-0.37470812,0.26126754,-0.27921647,-0.77694964,-0.68815887,0.7886083,-0.5978749,0.39794648,0.9835799,-0.45540804,-0.8317607,0.14538467,-0.18990913,0.60738826,-0.23626864,-0.78760713,0.80557394,0.5174898,-0.44674048,0.7526493,-0.93265486,-0.5497686]},{"bias":-0.41999143,"weights":[-0.24548239,0.21911132,-0.8155875,-0.52846545,-0.018616796,0.21052682,-0.398498,0.56070715,0.050137877,-0.28900537,-0.42703265,-0.47171515,-0.6431513,0.730407,0.57084155,0.163499,1.0,-0.11081282,0.86244726,0.13580358,-0.54311126,-0.9763675,-0.6436243,-0.50422114,-0.07549978,-0.46915406,-0.5134288,-0.34670752,0.120653026,0.37917864]},{"bias":-0.59584993,"weights":[-0.61880225,-0.7580615,-0.83934736,0.86275125,0.6914711,-0.11810267,0.9740143,-0.6727108,-0.35185185,-0.87567616,0.26326695,-0.3065173,0.010120612,0.19150388,-0.34417453,-0.8059652,0.35328352,0.24078119,0.31958735,0.074221015,-0.09586871,0.55593204,-0.71942055,-0.6647546,0.5917511,-0.27183622,-0.9396329,0.4827243,0.8812573,-0.91861224]},{"bias":0.09730661,"weights":[-0.96866107,-0.5951604,-0.65808225,-0.16278565,-0.5286993,-0.23858583,-0.39188665,0.024234176,-0.68036675,-0.7948075,0.12539017,-1.0,0.28253686,0.6591637,0.26917756,0.3334457,-0.8327234,-0.68087554,0.56485987,0.8481735,0.84271324,-0.17576826,0.08112477,0.336439,-0.48797745,0.35029256,0.108852506,-0.64226186,0.7821192,0.90914536]},{"bias":-0.98455215,"weights":[0.982918,-0.38450903,0.71710944,0.3523091,-0.29495972,0.66347414,-0.16591752,-0.092815354,0.6492993,-0.058770955,0.83900976,-0.61463946,0.13008797,-0.8502867,0.38250607,0.056704164,-0.8807149,-0.26960033,-0.8516029,-0.48436177,0.13130677,1.0,-0.65266013,-0.90198565,-0.6893313,0.9809687,0.68432426,0.66228604,-0.32704937,-0.4582731]},{"bias":-0.67516804,"weights":[-0.541053,-0.79166675,-0.3306184,0.57805943,0.49973357,0.4520578,-0.80594707,0.2603923,-0.3174665,-0.90417695,-0.39593142,-0.8718574,0.49692833,-0.8421469,0.5988569,-0.35376972,-0.97373533,0.5598693,-0.8334701,-0.5437867,-0.6764387,0.554373,0.8898628,-0.31297678,0.9198623,-0.1137532,0.9258554,0.48907667,0.63329387,-0.9733684]},{"bias":0.21127427,"weights":[-0.18656242,0.84812665,-0.36119366,0.12819207,0.45014393,-0.39849442,0.96110487,0.12069023,-0.062394664,0.03057012,-0.5680215,0.8035116,0.026643418,0.2929803,0.98697186,0.16862833,-0.29969925,-0.07996428,-0.085083604,0.22207502,0.36750785,0.76971054,-0.13651907,-0.6251511,-0.1461309,-0.7920017,0.743191,-0.40035218,-0.55517405,-0.4808203]},{"bias":0.6263349,"weights":[0.2163534,-0.1870825,0.48631203,-0.56679946,-0.5270247,-0.26887548,0.92344904,-0.09607446,0.88601995,-0.99304056,0.87763005,-0.9604535,0.3766036,1.0,0.22124916,-0.053458516,0.36242402,-0.7329924,0.15002191,-0.39614624,-0.21850982,0.05734718,-0.29626983,-0.43945664,0.7038002,0.59003115,0.35538876,0.41721666,-0.6267538,0.52332664]},{"bias":0.5100174,"weights":[0.48019516,-0.121229164,-0.5770499,0.08161557,-0.18380153,0.14812729,0.3380258,0.6293005,0.017338157,0.8258393,0.79529303,-0.027987316,0.35677063,0.09328111,0.8637359,-0.6977408,-0.8487792,0.5324906,0.593488,-0.67796445,-0.23747575,0.5999974,-0.5314099,0.111498475,0.18010533,0.20596969,0.8590822,-0.0009580329,0.29482687,-0.83793354]},{"bias":0.8634968,"weights":[-0.043150306,0.6367928,-0.8794496,0.41545475,0.74720925,0.91756773,-0.12637436,0.19412553,-0.36920065,-0.15075839,-0.68060225,-0.37910217,0.08914202,0.61292386,-0.35926932,-0.27116364,0.68442345,0.35545433,-0.76995516,0.85057425,0.34592307,-1.0,-0.03946032,-0.5941457,-0.36933535,-0.38722456,-0.26385397,0.646065,0.33935654,-0.7493434]},{"bias":0.5768647,"weights":[0.43876874,0.49936995,-0.342318,-0.68725467,-0.6106104,0.8906423,0.26092875,0.72327113,-0.48992166,-0.2868783,-0.60926956,0.8423152,0.0538935,0.12701404,0.0012522936,0.13091283,-0.80175006,0.22238627,0.40254128,-0.6556556,0.5920728,-0.4238364,-0.45014495,0.5474925,-0.9489827,0.06461227,0.92295694,-0.8773963,-0.82620513,-0.000556089]}]},{"neurons":[{"bias":0.42265236,"weights":[-0.69840056,-0.52863264,0.3259486,-0.9331393,0.82970136,0.8145418,-0.2574846,0.745976,0.6373039,-0.7674959,0.46724737,0.4247843,0.762196,0.14082158,0.7621703,-0.16060306,-0.4759888,0.6092005,0.40705582,-0.4163875,0.4476185,-0.63037443,0.43889844,-0.6202943,-0.80134726,0.516484,0.9066553,0.8181435,0.37246734,0.23633516]}]}]}