{"layers":[{"neurons":[{"bias":0.68942213,"weights":[-0.27423328,0.55739546,-0.72983766,-0.10187948,0.5643878,0.96008945,0.897357,-0.21380699,0.18672454,-0.8005831,-0.025029063,0.11574133,-0.40145692,-0.4285644,-0.442218,-0.92569876,0.755599,-0.7451143,0.56388426,0.76118594,0.2550877,0.3675251,0.8034539,0.70961857,0.8925047,0.72228384,0.420637,0.9463174,-0.7947638,-0.87184143]},{"bias":-0.34867352,"weights":[0.5338552,0.23016262,-0.82658595,0.15503561,0.07159197,-0.4457063,0.34153378,-0.8756076,0.33952415,0.051554985,-0.7906904,-0.48760837,-0.45561045,-0.3705663,0.27282703,-0.13178957,0.12631929,0.06911957,-0.23075378,0.5944321,-0.5687661,0.18121588,0.354586,-0.3755538,-0.31626314,-0.31150407,0.40059057,0.15105331,0.25491035,0.6011445]},{"bias":0.44572318,"weights":[0.9078876,0.21316633,-0.105328135,0.8560555,-0.65635276,0.26160824,0.45409068,-0.44863242,0.74354553,-0.23727876,-0.43882412,0.5669691,-0.009480596,0.47254193,0.43807256,0.37431657,0.008163944,0.122853056,-0.84040165,-0.2669031,0.7956526,-0.19815335,-0.10055721,0.13923395,-0.15383947,-0.71760964,0.17402895,0.1670085,0.137627,0.123134494]},{"bias":0.34968436,"weights":[0.7706065,-0.35039157,0.0015832558,0.046177544,0.7232416,0.8522206,-0.5214403,0.06644943,0.65733075,0.33425772,-0.981318,0.7989354,-0.5925562,-0.67244244,-0.6441643,0.4775451,0.45688403,0.44386858,-0.9131806,-0.9182224,0.4650358,0.053861022,-0.8513788,0.52241564,0.3587679,-0.68672514,0.059892774,0.016350202,-0.85622597,-0.44962174]},{"bias":0.6697824,"weights":[-0.5278649,-0.2887146,-0.5062074,0.33417642,0.54730105,-0.4627788,0.2912215,-0.27567095,0.8187999,-0.35217303,0.6946449,0.12625168,-0.52511114,0.7621901,0.82694817,-0.7165463,0.001893878,0.73787063,-0.5640375,-0.84859896,0.33538997,-0.86681485,0.6696143,-0.7225702,0.8171401,0.11860955,-0.44092625,-0.6523671,-0.483113,0.69194555]},{"bias":0.49900472,"weights":[-0.800181,0.4006077,0.40095064,0.80484307,0.4239732,-0.78217447,-0.26058477,-0.6537163,0.57980037,0.3610016,-0.4846921,0.3123978,-0.6940813,0.8721976,-0.5385234,0.40862048,-0.24607551,-0.002152048,0.66362125,-0.11403096,0.60790205,-0.18125081,0.88321114,-0.37935442,-0.40459245,0.5202265,-0.9895289,-0.29290414,0.9812472,0.4898255]},{"bias":-0.87694407,"weights":[0.50164557,-0.14647377,-0.02807033,0.23588169,0.43886578,-0.12915218,0.21569312,0.74004674,-0.7984118,0.08155596,0.26080167,0.647479,-0.46873346,0.54796124,-0.42263287,0.22931063,0.55661047,-0.93525386,0.9761898,0.48332393,-0.56643695,0.22370327,-0.07687867,0.83641815,0.41616148,0.3984884,-0.9581883,-0.3319974,-0.38601083,-0.093423724]},{"bias":-0.21948206,"weights":[0.07243992,-0.20797813,-0.1499356,-0.8569715,-0.7187364,-0.12849534,-0.75973916,-0.3651834,0.99218297,-0.019848488,0.13512409,-0.17052257,0.8497343,-0.25828356,-0.088579774,0.022881627,-0.5674712,-0.9977999,-0.449341,-0.8443978,-0.05516216,-0.37021393,0.5766349,-0.4326257,0.62810254,0.5402925,0.5421405,0.26486003,-0.34143984,0.053686976]},{"bias":-0.675936,"weights":[0.8358257,0.5248811,0.8137133,0.6216321,0.60696733,0.7517116,0.73548913,-0.9788754,-0.687269,0.9582287,0.11338256,-0.03636515,0.9553818,0.3539325,-0.17205274,0.9375418,0.23194987,0.7382382,0.96424437,-0.7378285,-0.12541687,0.016744733,-0.84085965,-0.96010685,0.25813878,0.2232064,0.254959,0.73438406,0.4093386,-0.8629339]},{"bias":0.06945646,"weights":[0.80498934,0.51548624,-0.02310121,-0.9351043,-0.55842704,-0.19151676,0.67246526,0.16590917,0.86580133,0.7690192,-0.10902382,0.01545012,-0.9757285,-0.2228593,-0.94039464,0.8909867,-0.66115737,-0.18813035,-0.51277894,-0.17547047,0.23144233,0.030902743,0.3662243,0.25508153,0.99721885,0.5492416,-0.044948697,0.6573951,0.9734669,-0.9116566]},{"bias":0.2004143,"weights":[-0.19963837,-0.9289355,-0.98379946,-0.45304555,-0.85474646,-0.7408047,0.84804463,-0.80237746,-0.72373295,-0.3971874,-0.9193094,0.15989506,0.4505025,0.9528239,0.7894704,-0.8551221,0.06140887,-0.42180723,-0.86075354,-0.599692,0.43607867,-0.9041803,0.21747458,-0.17555231,0.6842613,-0.4504909,0.47975707,-0.040789723,0.23858511,0.34035414]},{"bias":0.9362502,"weights":[-0.93053234,0.016723752,-0.6861418,-0.03741467,0.6555629,0.7388096,0.7152865,0.20491922,0.9585459,-0.7943294,0.9576497,-0.30957,-0.96959853,-0.054383226,0.5543107,0.116774775,-0.2398946,-0.71183467,-0.873826,0.62902373,-0.6293895,0.17663491,0.5423371,-0.17775892,-0.13581407,-0.6941142,-0.7036247,-0.40108198,0.46088517,-0.17406094]},{"bias":0.41839802,"weights":[0.28494155,-0.7174115,0.78951764,-0.32160467,-0.788187,-0.5397703,0.60511494,0.68420464,0.9946501,-0.7891515,-0.6854402,-0.89335907,0.24547875,0.047350526,-0.2980238,-0.5381889,0.7647085,0.37269914,0.83101416,0.8397765,-0.5740189,0.2771045,-0.34549516,0.80716896,0.8918996,-0.31511587,0.1988653,0.51727694,-0.5045969,0.83973455]},{"bias":-0.8188126,"weights":[-0.21200478,-0.17929494,0.26498663,0.5227546,0.29821312,-0.06917226,-0.645808,0.5241182,-0.19812964,-0.0271803,0.0019897893,-1.0,0.30817467,-0.03502071,-0.43559474,-0.9201088,-0.1666044,-0.22949612,0.76579523,-0.61565965,0.3703786,-0.70638084,0.4914928,-0.07668483,-0.8219459,0.76939154,-0.42324466,0.6911249,0.26838505,-0.94296193]},{"bias":-0.5876393,"weights":[0.56402826,0.24342,0.6602957,-0.7763145,0.43371013,-0.6794709,0.26022065,0.42473447,0.49062908,0.22438204,0.12073243,0.27584302,-0.2287916,0.4697026,0.76312065,-0.113253884,0.7274978,-0.37200803,0.3556314,-0.24414814,0.88391376,0.37821642,-0.680362,0.42590463,0.97091043,-0.74696755,-0.12935412,0.5660658,0.9304426,0.4874121]},{"bias":0.51057196,"weights":[0.91731215,-0.32341617,0.5917816,0.6899243,0.99663043,-0.22822931,0.20051411,0.8104489,0.68188524,0.36498535,0.26913393,-0.32071227,-0.32393467,-0.80031806,-0.9690287,-0.008738399,-0.08550062,-0.6184651,-0.7543266,-0.82319856,-0.39929456,-0.96089834,-0.7166767,-0.44402856,-0.004213214,0.7372124,-0.16894853,-0.20303333,0.9732404,0.24142598]},{"bias":0.9424741,"weights":[0.22687542,0.22576463,0.2951957,0.25138745,-0.28012317,0.22027552,-0.63751405,0.6991482,-0.124952674,-0.6809504,-1.0,0.78070396,0.7881026,-0.49939984,-0.5340348,-0.27584982,0.30765665,-0.9405043,-0.53828734,0.8460605,-0.027026057,-0.2230779,0.2592529,-0.82321215,-0.9177015,-0.8304438,0.29043484,0.9025028,-0.65436924,0.5909064]},{"bias":0.112451196,"weights":[0.37541544,-0.35101932,0.8152051,0.6070149,-0.2113241,0.3945099,-0.6685363,-0.78820515,-0.8162489,0.56139207,0.46448362,-0.936254,-0.11010659,0.20738637,0.8975606,-0.28819698,0.21946761,-0.03263867,0.993484,0.75163007,-0.8395784,-0.6552503,0.061902553,-0.93189883,0.059487134,-0.47635788,-0.008479886,0.045529924,0.7577443,0.45360705]},{"bias":-0.9363582,"weights":[-0.38218778,-0.102009416,0.3433551,-0.3544461,-0.93020105,-0.13053167,-0.091722846,0.17635739,-0.45337003,0.054181695,-0.8650217,0.73958194,-0.14504445,0.79281545,0.25070488,-0.312571,-0.19524904,-0.9657943,-0.30288213,-0.26942962,-0.83969796,-0.007950425,-0.6315434,0.08362327,0.9388499,-0.7934797,0.12552725,0.8840382,-0.21874702,-0.8081448]},{"bias":0.54459524,"weights":[-0.19605382,0.6373129,0.9814516,0.8996856,-0.48019975,0.05102241,-0.48990864,-0.8956044,-0.35852838,0.26126754,-0.29108408,-0.84853196,-0.82643294,0.7886083,0.72870255,-0.2907545,0.93255436,-0.45540804,-0.8317607,0.14538467,0.3929571,-0.752445,0.20562112,-0.8761685,-0.15722144,-0.473499,0.6627593,0.75099564,-1.0,-0.5497686]},{"bias":-0.41999143,"weights":[-0.24548239,0.21911132,-0.8155875,-0.18334162,-0.018616796,0.21052682,-0.83054924,0.5276414,-0.13177288,-0.28900537,0.89666176,-0.53178734,-0.6431513,0.7123715,0.35337055,0.163499,-0.72494626,0.5138886,0.23106301,0.13580358,0.5608015,-0.93125176,0.7375691,-0.5618116,0.47209728,-0.38341603,-0.5134288,-0.31267074,0.30015433,0.4719368]},{"bias":-0.12997353,"weights":[-0.98282385,0.7197597,-0.28616422,0.86275125,0.6914711,-0.07516086,-0.0023492575,0.3908943,-0.07954109,-0.8462267,0.3594564,-0.3065173,0.29996455,0.19150388,0.7332907,-0.8059652,0.6038892,0.22518529,0.31958735,-0.22351897,-0.09586871,0.55593204,-0.3084454,0.6208708,0.6688423,-0.2693331,0.05687487,0.4827243,0.8812573,-0.9288543]},{"bias":0.19515455,"weights":[-0.78381324,-0.5951604,-0.65808225,-0.16278565,-0.5286993,-0.22236314,-0.39188665,-0.21829784,-0.7363459,-0.8651918,0.12539017,-0.5877642,0.28253686,0.6591637,0.26917756,0.3334457,-0.91301906,-0.92864656,0.56485987,0.8092046,0.84271324,-0.7351208,0.122933544,-0.43809742,-0.9502263,0.37581462,-0.15321267,-0.64226186,0.7879729,-0.8998246]},{"bias":-0.5977945,"weights":[0.34682524,-0.8201492,0.4263643,0.33635104,-0.29495972,0.6317328,-0.25506294,-0.092815354,0.6370641,0.037727714,0.8649267,-0.3238687,0.17672652,-0.8502867,0.38250607,-0.29222244,-0.7893869,-0.26960033,-0.24757326,-0.39238146,0.092779025,0.92537653,-0.7049707,-0.97075325,-0.6229731,0.27792037,-0.058202147,0.74144804,-0.14328492,0.85955524]},{"bias":0.95581293,"weights":[-0.73015714,-0.76994056,-0.02415073,0.52820396,0.49973357,0.4423536,-0.80594707,0.36011344,-0.3174665,0.85872483,0.017285705,-0.84382534,-0.4633271,-0.8421469,0.6712482,0.42431557,-0.554892,0.57327724,-0.16606772,-0.5437867,-0.6764387,-0.6804669,0.9304255,-0.5217423,0.8844146,-0.114116155,0.9674367,0.48907667,-0.10518134,-0.9733684]},{"bias":0.07282293,"weights":[-0.18656242,0.80382335,-0.36119366,0.12819207,-0.16902506,0.88238025,0.8662637,0.12069023,0.01154194,0.015624054,0.63339686,0.9535718,-0.7697835,0.19123495,1.0,0.078380086,-0.29969925,-0.07996428,0.8835366,-0.9628792,0.31771553,0.76971054,-0.35478276,-0.37358087,-0.06006106,-0.5926301,0.7822148,-0.48452634,0.6588845,0.3001467]},{"bias":-0.43551773,"weights":[0.14206122,-0.1870825,0.6245723,-0.62746143,-0.5270247,-0.18412688,0.92344904,0.9483335,0.5700536,0.728606,0.5411494,0.3082112,-0.56018585,0.99595535,0.22124916,-0.23133624,0.35585475,0.7954838,0.15002191,0.031706214,-0.19222143,0.05734718,0.8802831,-0.43945664,-0.4709527,0.59003115,0.24161756,0.41721666,0.095544696,0.52332664]},{"bias":-0.8494899,"weights":[-0.85120463,-0.07336968,-0.48275346,0.08161557,-0.88847685,-0.7732434,0.023182511,0.6293005,-0.29953784,0.8258393,-0.61707467,0.3017925,0.29912364,0.09328111,-0.6074173,-0.6977408,0.7249861,0.76438904,0.593488,-0.7206764,-0.23985527,0.5999974,0.2654413,0.13680655,0.18216679,0.28602028,0.8590822,0.18363917,0.29482687,-0.83793354]},{"bias":0.8634968,"weights":[-0.043150306,-0.0903393,-0.9987221,-0.049248815,0.91004443,-0.26340407,-0.06930203,-0.89808726,0.2472502,-0.3382427,0.4672817,-0.32935095,0.06540829,0.74409795,-0.35926932,0.68994856,0.08190167,0.75095344,-0.2234739,0.898853,0.45870054,-0.70104146,-0.03946032,-0.058892608,-0.7231147,-0.047056317,-0.61500543,0.646065,0.33935654,-0.7493434]},{"bias":0.5768647,"weights":[0.43876874,0.011993289,-0.342318,-0.70147043,-0.6106104,0.1617676,0.26092875,0.7182868,-0.5597904,0.63383293,0.2362057,0.7663716,0.14847973,-0.3343534,0.10052153,0.13091283,0.07394683,-0.30008143,0.40254128,0.5887046,0.61849415,-0.35229138,0.85156035,0.5474925,-0.9489827,0.015477877,0.92295694,0.53475595,-0.54370755,-0.000556089]}]},{"neurons":[{"bias":-0.2072612,"weights":[0.33292878,-0.21977484,0.2959496,-0.64462376,0.74723154,0.8148604,-0.2574846,0.014303803,-0.5942685,0.10592759,0.43946457,0.4247843,0.762196,0.62869835,0.34321058,-0.16060306,-0.4759888,0.08265507,0.25903833,0.2557956,0.43884355,0.7392268,-0.39808053,-0.6202943,-0.80134726,0.60844004,0.8090162,0.5077958,-0.62005776,0.43298447]}]}]}