{"layers":[{"neurons":[{"bias":0.68942213,"weights":[-0.27423328,0.55739546,-0.72983766,-0.13148081,0.2815045,0.96008945,0.897357,0.78339267,0.17097151,0.46986473,-0.3469078,0.14112222,-0.40145692,-0.4285644,-0.442218,0.8319626,0.755599,-0.7451143,0.57906157,0.51322055,0.23541132,0.3675251,0.33130705,0.099622846,0.9150765,0.72228384,0.4344185,0.9463174,-0.5067918,0.7894304]},{"bias":-0.34867352,"weights":[0.68002224,-0.22740185,-0.82658595,0.15503561,0.10484376,-0.42531487,-0.953233,-0.4969179,-0.14353192,0.038490638,-0.72484964,-0.2198695,-0.45561045,0.6290312,0.4650141,-0.094887614,0.13838187,0.06911957,0.23642027,-0.24204361,-0.5687661,0.6425977,0.40441796,-0.4739541,-0.4185974,0.6959033,0.40059057,0.15105331,0.25491035,0.50871503]},{"bias":0.44572318,"weights":[0.9078876,0.28177434,-0.2560789,-0.95110655,-0.65635276,0.1962645,0.45409068,-0.3939941,-0.5469033,0.2166866,-0.48746803,0.5669691,-0.84602237,0.35947335,0.027344584,-0.3430993,-0.0598419,0.108181216,0.0032588243,-0.29892904,-0.5973641,0.9558644,-0.1485039,-0.69517064,-0.14087903,-0.17204034,-0.35905236,0.31093705,0.137627,0.27420032]},{"bias":0.34968436,"weights":[-0.098826766,-0.4918074,-0.08146489,0.100332886,0.71459526,0.8522206,-0.5214403,0.9851959,-0.007821202,0.40370327,-1.0,0.47055972,-0.5591571,-0.2135669,-0.55307776,0.4600582,-0.65581703,0.4869019,-0.19129217,-0.9182224,0.24035895,-0.041651584,-0.8618722,-0.79960585,-0.08051932,-0.6880452,0.10150912,-0.6658151,-0.80437696,-0.026176333]},{"bias":0.6697824,"weights":[-0.572479,0.70819545,0.56034756,0.80654025,-0.6502123,-0.46802527,-0.8116374,0.068330884,0.95687985,-0.35217303,0.6946449,0.028984532,-0.52511114,-0.15947926,0.82694817,-0.13950956,0.13918102,0.73787063,-0.5640375,0.09000194,-0.70173764,0.7758815,-0.058326125,-0.7225702,-0.49634427,0.6932826,-0.77536035,-0.5846916,-0.4198225,-0.06104195]},{"bias":0.49900472,"weights":[0.36178935,0.07581127,0.42180955,-0.106610894,0.4239732,-0.78217447,0.4884888,-0.6537163,0.06162107,0.3610016,0.29377234,0.3123978,0.7828996,0.34355056,-0.5385234,0.3508047,-0.016739488,-0.002152048,-0.71037626,-0.034940787,0.60790205,0.21905148,0.8267032,-0.4458608,-0.40459245,0.5202265,0.19100726,-0.29290414,0.18777597,0.26915467]},{"bias":-0.87694407,"weights":[-0.52239126,-0.039430976,-0.03910426,-0.007804513,0.98932433,-0.4656126,0.23755607,0.6840273,-0.49046534,0.14279634,-0.5440182,0.5672308,0.7335193,-0.42504138,0.5982039,0.326672,0.2615744,-0.86943364,0.9996211,0.54477715,-0.47346243,-0.36798662,-0.12889923,-0.96300006,0.50449014,0.31719717,-0.89346224,-0.1407479,0.1708554,-0.093423724]},{"bias":-0.21948206,"weights":[0.113208205,-0.99919605,-0.1499356,-0.11713636,-0.7187364,-0.99532413,-0.033868432,-0.3651834,0.985989,-0.019848488,0.13512409,-0.60543746,0.09291661,0.11916506,-0.01633913,0.022881627,-0.6332678,-1.0,-0.449341,-0.8443978,-0.12169348,-0.52233666,-0.08397496,-0.54597014,-0.07390392,0.58147526,0.4928038,0.26486003,-0.2484512,-0.8118093]},{"bias":-0.33006734,"weights":[0.59342957,0.5248811,-0.12836087,-0.81951904,0.041086793,0.7517116,0.73548913,0.24806297,-0.687269,0.9582287,0.11338256,0.4724518,0.92927843,0.61288786,0.0076037645,0.40280235,0.23194987,-0.62774205,0.96424437,0.43107402,0.53486395,-0.0052050203,-0.84085965,-1.0,0.2880801,0.7667563,0.18391025,0.67594594,0.47550258,-0.85695326]},{"bias":-0.6990576,"weights":[0.89679736,-0.093669295,-0.57114357,-0.8552077,0.05255449,-0.19151676,0.67246526,0.21384925,0.9325084,0.77760184,-0.14011931,0.01545012,0.77824926,-0.7485795,-0.0855881,0.8364847,-0.66115737,-0.5304846,-0.32548016,0.89689994,-0.2793724,0.32422817,-0.49590272,0.25508153,0.9158664,0.5492416,-0.055421032,0.6559422,0.25851142,0.31820524]},{"bias":0.2004143,"weights":[-0.63094807,0.32287872,-0.15311301,0.06905186,-0.8285233,-0.6906454,0.8728378,-0.5026817,-0.72373295,0.39571512,0.90404534,0.24612084,0.4235425,-0.2120167,-0.6295743,-0.8016583,0.06140887,-0.6245286,-0.29883546,-0.57148093,0.15454614,0.93318033,0.21747458,-0.17555231,0.6842613,-0.4504909,-0.4538867,-0.037570596,0.19510427,0.38552415]},{"bias":0.9362502,"weights":[-0.91579133,-0.4591617,-0.6861418,-0.03741467,0.6555629,0.7464106,0.3010763,0.33035576,-0.12019408,-0.7943294,-0.48882002,-0.30957,-0.89186984,-0.83882976,0.5317712,0.116774775,0.19751132,-0.69433665,-0.89495087,0.08230078,-0.6100919,-0.8798063,-0.044385314,-0.15652537,0.73451805,-0.6941142,-0.62293124,0.41943657,0.46088517,-0.17660743]},{"bias":0.17158043,"weights":[-0.8305795,-0.62080044,0.78951764,-0.32160467,-0.5339708,-0.5397703,0.04039061,0.61938256,0.9576032,0.5302987,-0.95016146,0.07904446,0.17442425,-0.020528384,-0.20202538,-0.5381889,0.7647085,0.42071098,0.83101416,0.8397765,0.34349573,-0.037235618,-0.43792892,0.898441,0.09775317,-0.31511587,-0.4967205,-0.44924277,0.09128344,0.8300626]},{"bias":-0.8188126,"weights":[-0.28038177,-0.17929494,0.23357669,-0.5751509,0.43491018,-0.06917226,-0.5913873,0.9204407,-0.25031826,-0.7442975,-0.91709805,-1.0,-0.8556142,-0.86402345,-0.3670768,0.9755993,-0.1666044,-0.29631764,0.8563476,-0.61565965,-0.23163235,-0.70638084,0.4914928,0.6145108,0.5096903,0.76939154,-0.5059267,0.7692691,0.26838505,0.9331777]},{"bias":-0.5876393,"weights":[0.56402826,0.9409795,-0.35086173,0.3349198,0.43371013,-0.6343938,0.32918385,0.7442639,-0.3734128,0.2635604,0.11268429,0.5118432,-0.28758708,0.4697026,0.76312065,-0.18964809,-0.56307405,-0.405266,-0.8378403,-0.24414814,0.88391376,0.37821642,0.73245454,0.48540905,0.9157954,-0.74696755,-0.06724615,0.5660658,0.9304426,-0.8650358]},{"bias":0.23032796,"weights":[0.35863984,0.1687702,0.5917816,-0.11604726,0.4267968,-0.13768661,0.55383277,0.83539146,-0.98753905,0.36498535,0.26913393,-0.26968873,-0.32393467,-0.6053371,-0.71744204,-0.9492483,-0.08550062,-0.60490954,0.30302155,-0.82319856,-0.5942394,-0.9659949,-0.70395595,-0.16990101,0.4377526,-0.22369468,-0.10696542,0.6502123,-0.5067722,0.2075268]},{"bias":0.9424741,"weights":[0.9046428,-0.10503209,0.2951957,0.17157273,0.030820966,0.22027552,-0.71494853,0.69151604,-0.1578713,-0.7696209,0.5849383,-0.82040644,-0.38381308,-0.5040277,0.43228137,-0.32581738,0.3413617,-0.9405043,-0.5362844,0.7824585,-0.11664069,-0.2971446,-0.6301551,0.3523885,-0.015596747,0.72900224,0.38888997,0.87745357,0.16324365,0.728528]},{"bias":-0.54835075,"weights":[0.36840427,-0.35101932,0.79241717,0.5913667,-0.6586797,0.37363327,0.48281467,0.9908502,-0.8162489,-0.8367281,0.46448362,-0.14524615,-0.19807687,0.23483646,0.9050843,0.059136033,0.20612192,0.008189864,1.0,0.75163007,-0.8164911,-0.69395477,0.8954103,0.12024176,0.059487134,-0.47635788,-0.5330543,-0.25960296,-0.29753798,-0.31165546]},{"bias":-0.9363582,"weights":[0.16178095,0.0048326254,0.3433551,-0.09299004,-0.93020105,-0.2167582,-0.18314326,0.15002033,-0.45337003,0.13579622,-0.7181623,0.9536209,0.5955663,0.5378156,0.25070488,-0.27676028,0.13766277,-1.0,-0.30288213,-0.09478605,0.7262578,-0.007950425,-0.6315434,0.08362327,0.9882689,-0.8791686,0.18334988,-0.008748889,0.26795185,0.32202184]},{"bias":-0.028968692,"weights":[-0.35116833,0.6373129,1.0,0.20002115,0.16655219,0.05102241,-0.27744383,-0.16660345,-0.34246403,0.6820166,-0.9104357,-0.84853196,-0.82643294,0.7886083,0.72870255,-0.2907545,0.38124645,-0.45540804,-0.1783067,-0.42997068,0.3538876,0.38765824,0.20562112,-0.8761685,-0.996964,-0.473499,0.57876223,0.75099564,0.8242364,-0.58655244]},{"bias":-0.41999143,"weights":[-0.42153543,0.12577038,-0.8327852,-0.20647848,-0.78513384,0.2506989,-0.60393685,-0.5823545,-0.36367434,-0.79416823,0.1441189,-0.48639125,-0.6431513,0.7123715,-0.93643284,0.18346307,-0.6740345,0.5138886,0.16616888,0.15053289,0.11285174,-0.93125176,-0.23254383,-0.5827341,0.45251778,-0.38341603,0.4960078,0.62143755,0.80335784,0.49694347]},{"bias":-0.34061044,"weights":[0.36084688,0.80636656,-0.38350552,-0.50552505,0.21396482,-0.07516086,0.024021745,0.48134387,0.01629851,-0.8462267,0.38719463,-0.3065173,0.4704851,-0.011891961,0.70011675,-0.70939094,0.6038892,0.22518529,0.3312322,-0.43319744,-0.8116329,0.55593204,0.7917912,0.6208708,0.32479274,-0.280243,0.050462805,0.5436169,0.8664959,0.2179817]},{"bias":0.19515455,"weights":[0.8762646,-0.6470791,0.103623986,-0.12981188,-0.5286993,0.025975585,0.8938391,-0.59850687,-0.7627712,-0.8651918,0.33161247,-0.5877642,0.31619188,0.6591637,0.9190099,0.6730137,-0.9559634,0.16986239,0.07801616,0.7184408,0.84271324,-0.6843077,0.13069144,-0.43809742,-0.9502263,-0.77451706,0.47512138,-0.64226186,-0.6993699,-0.8912517]},{"bias":-0.015448451,"weights":[-0.7843461,0.5700476,-0.5503239,0.39450073,-0.2965935,0.4594437,-0.25506294,0.26602042,0.06377852,-0.15121257,-0.9940076,-0.07485521,0.26125088,-0.9091171,0.46791017,-0.3686844,-0.7893869,-0.26960033,0.90468,-0.3769546,0.092779025,-0.22227204,-0.7844061,0.33285677,-0.6229731,0.27792037,-0.058202147,0.76609755,-0.13305795,-0.2991597]},{"bias":0.95581293,"weights":[0.46896684,-0.78452337,-0.08023322,-0.02515161,0.52016795,0.5332681,-0.80594707,0.36011344,0.658736,0.10948408,-0.2938258,-0.81206745,0.5095706,-0.8421469,-0.58841294,0.45379454,-0.75481606,0.5128727,0.034391284,-0.5437867,0.33279717,-0.73346424,0.9304255,-0.5217423,-0.07606208,-0.15654695,0.5632913,0.48907667,-0.10518134,0.041766286]},{"bias":-0.85563374,"weights":[0.4502114,0.83273077,-0.36119366,0.12819207,-0.19922054,0.88238025,0.8662637,0.5130193,0.023890108,-0.95239663,0.57791114,1.0,0.106954455,0.19123495,-0.23473251,-0.35423058,0.116077065,0.85721135,0.41887033,-0.16321146,0.35657293,0.47694337,-0.32352206,-0.45190012,0.61932683,-0.18539035,0.8116486,-0.38993838,0.618269,0.3658939]},{"bias":-0.1837405,"weights":[0.094815195,-0.5324325,0.6245723,-0.62746143,-0.5270247,0.78156185,-0.16786468,0.72944045,0.96318316,0.78154683,0.5411494,0.3082112,-0.048867345,0.99595535,-0.89107656,-0.23133624,0.35585475,-0.601428,0.32122242,0.45375836,-0.10137739,0.05734718,0.8802831,-0.36467618,0.38816726,-0.5260591,0.24161756,-0.822948,-0.52468723,0.7125194]},{"bias":-0.045426488,"weights":[0.9491391,0.61544585,-0.48275346,0.056703746,-0.89556247,0.3773464,0.023182511,-0.3374967,-0.29953784,-0.3875684,-0.5532543,0.3017925,0.29912364,-0.3963992,-0.51672083,-0.63715506,-0.7597501,-0.4635796,0.8677912,0.22374213,-0.23985527,0.5999974,0.2654413,-0.27744216,0.7298453,0.28602028,0.8590822,0.18363917,0.29482687,-0.83793354]},{"bias":0.98357344,"weights":[-0.017553926,-0.0903393,-0.031697392,-0.5770497,0.91004443,-0.26340407,-0.06930203,-0.5424203,0.25698125,-0.4213149,0.4914811,-0.25101942,0.8368523,-0.55882734,-0.64442945,0.68994856,0.08190167,0.05686772,-0.2234739,0.898853,0.61505675,-0.70104146,-0.8978479,-0.058892608,-0.14765775,-0.06338128,-0.86964107,0.7437081,0.33935654,-0.6700289]},{"bias":-0.44529742,"weights":[-0.7185967,-0.2777955,-0.39503092,0.6606047,-0.7461126,0.2165721,0.26092875,0.15504539,0.7094419,0.63383293,0.2362057,0.80116457,0.14847973,-0.23894751,-0.41871995,0.28619444,0.14166942,-0.30008143,0.40254128,0.5404575,0.61849415,-0.43344092,0.6649568,0.536912,-0.94328415,0.23025191,0.8675842,-0.09980023,-0.54370755,-0.000556089]}]},{"neurons":[{"bias":-0.2072612,"weights":[0.33292878,-0.21977484,0.52222085,-0.6772202,0.74723154,0.7790923,-0.2574846,0.10009492,-0.49475995,0.10592759,0.43946457,0.4247843,0.9813912,-0.7426133,0.4336898,-0.14727494,-0.43086183,0.058450997,0.21935534,0.2557956,0.1840688,0.77346796,-0.35542977,-0.6688856,-0.80134726,0.60844004,0.7450424,0.5948603,-0.62005776,0.43298447]}]}]}