{"layers":[{"neurons":[{"bias":0.62001824,"weights":[-0.27423328,0.45879662,-0.753966,0.43823397,0.2815045,0.3068248,0.13688147,0.78339267,0.984745,0.5215348,0.009454131,0.14112222,-0.12057459,0.5650039,-0.42286658,-0.20390451,0.755599,-0.7451143,0.6620401,-0.53867525,0.30302125,0.68630147,0.32437742,0.19291994,0.8309867,0.72866464,0.4344185,0.9128871,-0.528691,0.5094335]},{"bias":-0.6688247,"weights":[0.68002224,-0.4971177,-0.5739681,0.56720924,0.10484376,0.37020385,-0.9063875,-0.18173659,-0.32408494,0.73820305,-0.7743552,-0.12808815,0.7473912,0.6290312,0.4650141,-0.14850299,0.13838187,0.13531342,0.23642027,0.36970055,-0.5687661,-0.25670093,0.30633128,0.4249276,-0.2223078,0.6959033,0.40059057,0.91204906,-0.99284077,0.10645664]},{"bias":-0.20691931,"weights":[0.8084233,0.9484925,-0.2560789,-0.5449118,-0.65635276,0.21204656,0.41264498,0.683898,-0.5469033,0.11904866,-0.43476957,-0.43515366,-0.7853631,0.13862884,0.09986038,-0.3430993,-0.14624329,-0.3479523,-0.28458184,-0.26712677,0.20840204,0.9558644,0.62620425,-0.632592,-0.32142538,-0.6745763,0.7361109,0.23532379,0.137627,0.9215884]},{"bias":0.935375,"weights":[-0.098826766,-0.13435924,-0.08536979,-0.26463526,0.02013123,-0.7296388,-0.5663536,-0.84214115,0.070420384,-0.061023593,-1.0,0.5498475,-0.99393964,-0.6451466,-0.55307776,0.506569,0.59545374,0.6866071,0.20693386,-0.9661881,0.29271367,0.36605132,-0.43838352,0.24324358,-0.8236363,-0.7281378,0.10150912,-0.637661,0.6510241,-0.026176333]},{"bias":0.6697824,"weights":[-0.47538152,0.7920103,0.58531016,0.80654025,-0.6502123,-0.49204916,-0.8116374,-0.8396032,-0.7212224,-0.35217303,0.6866439,0.7915931,-0.52511114,-0.15947926,0.8272232,-0.13950956,0.13918102,0.73787063,0.75228333,0.48668826,0.41620243,0.7758815,-0.058326125,-0.81173664,-0.5472698,0.6718844,-0.77536035,-0.6245029,-0.46214142,-0.09861354]},{"bias":-0.36684412,"weights":[0.11007631,0.1700455,0.34746307,-0.106610894,0.16595757,0.07970083,-0.6760104,-0.7356516,0.08450696,0.43733564,0.22417307,0.87723637,0.7828996,0.3330597,0.9393766,0.006287694,-0.30821198,-0.09599439,-0.65759254,-0.45672792,0.28295076,0.23893178,0.6241715,-0.48312038,0.5874424,0.6407454,-0.21993124,-0.29290414,-0.2632684,-0.90703034]},{"bias":-0.87694407,"weights":[-0.52239126,0.4638821,-0.03910426,-0.17610562,-0.7036555,-0.43592387,0.1721019,-0.20673096,-0.80294967,0.12990886,-0.726228,0.5672308,0.7335193,-0.49385804,0.61169076,0.47908032,0.20074588,-0.93503225,-0.34867376,0.5683776,0.62336373,-0.5083472,-0.12889923,-0.584845,-0.134354,0.9124148,-0.89346224,-0.22523579,0.16033846,-0.6430309]},{"bias":-0.21948206,"weights":[-0.22451055,-0.06850302,0.7605643,-0.012066722,-0.7246239,-0.8042519,0.7240522,-0.3651834,-0.3753876,-0.34900707,0.2109145,-0.6974817,0.09291661,-0.42017525,0.40468347,-0.2631268,-0.2698335,-0.033771873,-0.449341,0.9932637,-0.12169348,-0.6402154,-0.79322934,-0.54597014,-0.07390392,-0.84252095,-0.17499769,0.17792957,0.64955235,-0.8118093]},{"bias":-0.80370045,"weights":[0.29279196,0.13455284,-0.8696847,-0.7506426,-0.7330148,0.20734894,0.64366156,-0.48043412,-0.6747114,-0.32929605,0.1986067,0.45725965,0.92927843,0.7618861,0.0076037645,0.40280235,0.49905217,-0.62774205,-0.25092357,0.43107402,0.53486395,-0.20954573,-0.84085965,-0.9861984,0.87455654,0.7667563,0.22388071,-0.15264213,0.47550258,-0.85695326]},{"bias":-0.6990576,"weights":[-0.4966411,-0.06365929,-0.08493841,-0.8527965,-0.1693052,-0.11171403,0.80039835,-0.2455846,0.9325084,-0.19032943,0.5396881,0.101038985,-0.8452449,-0.65314513,-0.8206012,0.8364847,-0.66115737,-0.5304846,0.73025274,-0.69819474,-0.2793724,0.38279626,-0.42254278,0.68380475,-0.20960987,0.5492416,-0.52095026,-0.5509023,-0.20222056,-0.13444936]},{"bias":0.2004143,"weights":[-0.55505526,0.32287872,-0.7950661,-0.6986811,0.4383577,0.19245255,0.8728378,-0.5026817,-0.550486,0.39571512,0.90404534,0.27642614,-0.054936767,-0.18873739,-0.6295743,-0.41481942,0.06140887,-0.6245286,-0.29883546,-0.5089622,-0.6063511,-0.8539982,0.5903938,-0.122039996,0.6842613,-0.20269883,0.1208905,0.0493887,0.19510427,-0.3355059]},{"bias":-0.25972837,"weights":[-0.91579133,-0.48457876,-0.26515645,-0.02980791,0.6555629,0.6513258,0.3010763,0.33035576,0.38878977,-0.76494914,-0.52005357,0.84147215,-0.87025505,-0.32798213,0.5859699,0.116774775,0.10304854,-0.69433665,0.60046244,0.17086866,0.01020205,-0.8798063,-0.101876065,-0.25097656,0.73451805,0.33005345,0.25098717,0.9087107,0.46088517,-0.5018589]},{"bias":0.17158043,"weights":[-0.7396146,-0.62080044,-0.9012165,-0.20032156,-0.23812973,-0.49827933,-0.7940922,0.61938256,-0.49199146,-0.38760847,-0.61297506,0.0933566,0.7433684,0.09771407,-0.20202538,-0.31708091,-0.19270599,0.3537949,0.83101416,0.7556746,0.39731693,-0.037235618,0.12410724,0.8096058,0.08321518,-0.24792153,-0.4967205,-0.5705671,-0.6045808,-0.32129282]},{"bias":-0.8964057,"weights":[-0.26053742,-0.17929494,0.20980515,0.6815162,-0.9578228,-0.06917226,-0.5913873,-0.5899417,-0.25031826,-0.7442975,-0.8953471,-1.0,-0.8556142,-0.5393016,-0.77542233,0.9755993,-0.25180402,0.4917041,0.29185212,-0.61565965,-0.25063726,-0.7606646,0.56339115,0.6245403,0.5077873,0.13475978,0.4343661,0.7692691,-0.27353758,0.23057973]},{"bias":-0.5876393,"weights":[0.10026848,0.57679343,-0.01051724,0.76142216,0.43371013,0.20745766,0.3916231,-0.9230144,-0.3734128,0.35396737,0.11268429,0.55024314,-0.27648258,0.4697026,-0.42146844,-0.23504335,-0.6278578,-0.20192778,0.58888197,-0.30874085,0.9768351,0.37821642,-0.26668066,0.9507358,-0.3110835,-0.12370169,-0.076164395,0.48613524,0.9415149,0.585392]},{"bias":0.5649767,"weights":[0.35863984,0.6199727,0.5917816,-0.11604726,0.4267968,-0.042723574,0.55383277,0.111337066,-0.029770494,-0.58803934,0.26913393,0.72759366,-0.36703938,-0.6053371,-0.8078467,0.9771812,0.6578841,-0.5982218,0.7941408,-0.82319856,-0.6782285,-0.9659949,-0.61516726,-0.6562505,0.14582217,0.71156716,-0.0653579,0.6968064,0.403674,0.17414427]},{"bias":0.9424741,"weights":[-0.86378,-0.10503209,0.2951957,0.11186524,0.030820966,0.6757691,-0.71494853,0.69151604,-0.12801385,0.7882173,0.5881336,0.8532946,-0.38381308,-0.78469586,0.42266548,0.39458716,0.3413617,-0.9607799,-0.5362844,0.95180273,-0.06455196,0.58918715,-0.6301551,-0.84481335,-0.015596747,0.72900224,-0.7290559,0.84899634,0.3134569,-0.68740606]},{"bias":-0.3694157,"weights":[0.3106727,0.77243567,0.79241717,0.5791976,-0.6586797,0.8334985,0.47989133,-0.6285019,-0.88965774,-0.9023277,0.4585601,0.7289517,0.2844628,0.25419325,0.9050843,0.4081875,0.20612192,0.008189864,1.0,0.75999767,0.57521725,-0.7290696,0.8954103,0.12024176,0.059487134,-0.2831251,0.22713888,-0.25960296,-0.77040815,-0.3997045]},{"bias":-0.39925855,"weights":[0.24385723,-0.52442425,0.35518605,-0.09299004,-1.0,0.17750275,-0.18314326,-0.72443056,0.69777036,0.13579622,0.13532221,0.56229496,0.88414717,0.8648577,0.2611946,-0.30478954,-0.17130864,-0.010819554,-0.58775777,-0.02122464,0.70630586,-0.007950425,-0.6595591,0.08362327,-0.23267424,-0.6317172,0.014406085,-0.008345686,0.22832146,0.30011776]},{"bias":-0.028968692,"weights":[-0.35116833,-0.036813855,-0.7289486,0.20002115,0.7478578,0.12070996,-0.5695011,-0.16660345,0.16281927,0.6820166,-0.4523546,-0.89044315,-0.82643294,0.7886083,-0.03856504,-0.32254642,0.3444358,0.4599954,0.2918769,-0.072298646,0.30384797,0.38765824,0.20562112,-0.40604752,0.26744378,-0.41763607,0.57876223,0.75099564,0.75052756,-0.49817306]},{"bias":-0.41999143,"weights":[-0.42835608,0.12577038,-0.7619227,-0.9692595,-0.7501819,-0.80388904,0.5725107,-0.5823545,0.3726188,0.2070843,0.1441189,0.962476,-0.23100555,0.30609167,-0.26331562,0.9647291,0.7769296,0.5138886,0.29398143,0.071128584,0.18639073,-0.08113134,-0.50043887,0.9958024,-0.711092,-0.4486885,-0.18647897,0.46835482,0.24674904,-0.5762114]},{"bias":0.43698752,"weights":[0.36084688,0.80636656,-0.55322903,-0.50552505,0.31204602,0.16475952,0.76166344,0.65085125,0.01629851,-0.82735157,0.38719463,0.9628179,0.09504187,-0.09046213,0.27866614,-0.7059458,0.6038892,0.22518529,0.3312322,-0.43319744,0.70981836,0.47411874,0.7917912,0.61818206,0.1881603,-0.280243,0.9399824,0.5436169,0.90725625,0.16740096]},{"bias":0.19515455,"weights":[0.8762646,0.16512072,0.6801872,-0.12219632,-0.5286993,0.025975585,0.8938391,-0.59850687,-0.7627712,-0.8651918,0.33161247,0.40333116,0.36847806,-0.48222822,0.22223961,-0.30991286,-0.4562022,0.16986239,0.07801616,0.7184408,0.89913774,-0.69537556,0.4431721,0.14545548,-0.88547283,-0.77451706,0.47512138,-0.29898614,0.5027008,0.6061225]},{"bias":-0.015448451,"weights":[-0.7524061,0.27912366,0.37957275,-0.41594452,-0.26941022,0.4594437,-0.25506294,0.24175936,-0.6274328,-0.15121257,0.9775083,0.9046869,0.34582436,-0.99826396,0.46791017,0.4175955,-0.8348211,-0.47493118,0.90468,-0.3769546,0.16299379,0.6980665,-0.7717495,0.12491667,0.8549762,0.31705347,-0.058202147,0.5588393,-0.101472974,-0.2991597]},{"bias":0.95581293,"weights":[0.46896684,-0.78452337,-0.46166748,0.71580434,0.96339726,0.9755995,-0.8366709,-0.25112575,0.33671057,-0.7704935,-0.2938258,-0.61809367,0.5380195,0.3083638,-0.66893953,0.45379454,0.31677425,0.30056632,0.04828942,-0.1791023,-0.19936907,-0.73346424,0.9272047,-0.5193081,-0.07606208,0.75102997,0.5632913,0.8268862,-0.14106381,0.041766286]},{"bias":-0.13181937,"weights":[0.4502114,0.83273077,0.18270552,0.12819207,0.9736998,0.7965316,0.84952235,0.074415326,-0.21860397,-0.95239663,0.46689212,0.720387,0.14379197,0.56766176,-0.0062116385,0.083188176,-0.8933761,0.85721135,0.41887033,-0.16321146,0.38566825,0.38520014,-0.46907634,-0.45190012,0.9352355,-0.25168297,0.84124947,-0.38993838,-0.41173214,-0.38574928]},{"bias":0.34762442,"weights":[-0.49411887,-0.5684601,0.59631854,-0.5627221,0.8522868,0.78156185,-0.122472174,0.46861064,0.96318316,0.13400757,-0.19432557,0.3082112,-0.016468368,0.99595535,-0.7781446,-0.23133624,0.4608842,0.0851661,0.7819927,0.38951898,-0.10137739,0.05734718,0.8802831,-0.33939216,0.44655266,-0.5260591,0.102149844,-0.17093718,-0.97853994,0.8558011]},{"bias":-0.045426488,"weights":[0.67183495,-0.1836909,0.63072896,0.056703746,-0.9743676,0.12604964,-0.0519263,-0.3374967,-0.1863023,0.8680291,-0.7243762,0.38838804,-0.69843984,-0.45336077,-0.42641455,-0.5697612,-0.7774477,0.95198226,-0.9094417,0.22374213,-0.2862849,0.5999974,0.82922196,-0.43356484,0.77958447,-0.43315405,0.8057256,0.18363917,0.32628325,0.82104325]},{"bias":0.22186339,"weights":[0.039915204,-0.92859507,0.9697294,-0.64076793,-0.8044088,-0.015975356,0.6132095,-0.5424203,-0.67228794,0.44992483,0.5604234,-0.1832515,-0.39548367,-0.5551094,-0.64442945,-0.49362177,0.8545191,0.093470864,-0.9416001,-0.10833895,0.61505675,-0.769578,-0.8978479,-0.84876394,-0.06729708,0.026141882,0.51711273,0.6455487,0.25666982,-0.6700289]},{"bias":-0.44529742,"weights":[-0.8933368,-0.2777955,0.053783536,0.6606047,-0.31065744,0.2165721,0.26092875,0.71067977,0.7094419,0.55412143,0.2362057,0.8610143,-0.59399074,-0.28660738,-0.41067404,0.46350014,0.5314212,-0.37370947,0.41984528,0.26707947,-0.4784147,-0.3877494,-0.061858296,-0.50308317,0.23485482,0.1715674,0.22148335,-0.038070254,-0.54370755,-0.000556089]}]},{"neurons":[{"bias":0.37432683,"weights":[0.274027,-0.17306346,0.52222085,-0.6772202,0.7328274,-0.26864403,-0.27877727,0.10009492,-0.49475995,-0.39023298,0.75026226,-0.26039308,0.8838197,0.42325675,0.5413263,-0.14727494,-0.86554766,0.058450997,0.21935534,0.4063655,0.70204735,0.77346796,-0.35542977,-0.6068489,-0.80134726,0.563823,0.7450424,-0.28098053,0.23201883,0.43298447]}]}]}