{"layers":[{"neurons":[{"bias":0.62001824,"weights":[-0.7137196,0.41208375,-0.8383149,0.43823397,-0.49629062,-0.15788543,0.13688147,0.72707826,0.984745,-0.5121233,0.61959434,0.20135605,-0.09907496,0.48354396,-0.08979905,-0.13439846,-0.54949325,-0.6549363,0.13686979,-0.8269963,0.3760889,0.68630147,-0.030440927,0.14861529,0.7493469,0.64004064,-0.44156927,0.9128871,-0.44749182,0.5094335]},{"bias":0.29572856,"weights":[-0.8319299,0.057738185,0.67390466,0.11524427,0.90488625,0.37020385,-0.6705358,-0.14808273,0.96403456,-0.5516543,-0.23606813,-0.99809813,-0.8458121,0.6290312,-0.47546667,-0.14850299,0.39949715,0.22705066,0.17294815,0.36970055,-0.5687661,-0.20606634,-0.37098402,0.4249276,-0.95610833,0.6959033,-0.206442,0.88729906,-0.51206607,0.7687926]},{"bias":-0.20691931,"weights":[0.44689977,0.9484925,-0.3924908,-0.5449118,0.5765939,0.5573211,0.41264498,0.8685868,-0.6355946,-0.8821907,0.43854916,-0.43515366,-0.8978503,0.22459328,0.08160747,-0.37521347,-0.14624329,0.5960736,-0.40114325,-0.039975524,0.17163312,-0.73164296,0.62620425,-0.04199779,0.7028849,-0.09277904,0.6118245,0.28829378,0.13419434,0.28464997]},{"bias":0.935375,"weights":[0.046613097,-0.13435924,-0.08536979,-0.34743828,-0.5716831,-0.7296388,-0.5663536,0.13167489,0.46311414,-0.094456665,0.09924829,0.5498475,0.92851496,-0.21499217,0.34653366,0.506569,0.59545374,0.59819865,0.20693386,0.81633806,0.38825944,-0.88445234,-0.43838352,0.29730597,0.9001627,-0.7281378,0.47076762,-0.7581444,0.81458855,-0.34751195]},{"bias":-0.016663909,"weights":[-0.47538152,0.5553169,0.59568036,0.80654025,0.4129938,-0.799809,-0.88811797,-0.8396032,0.71465397,-0.35217303,0.6866439,0.27536285,-0.52511114,-0.15947926,-0.25114006,-0.13950956,0.04947467,-0.29712528,0.75228333,0.48668826,0.4244988,0.7758815,-0.51888436,0.5400927,0.42202222,0.59752625,-0.77536035,-0.584202,0.25869024,-0.09861354]},{"bias":-0.6508448,"weights":[0.32347715,0.8711653,-0.6484418,0.658,0.16595757,0.04499577,-0.6760104,-0.108136296,0.11485235,0.48751494,0.21621096,0.8697681,0.020828843,0.7779367,-0.65490675,0.08665224,-0.262577,-0.09599439,0.23494256,0.97306037,-0.07582152,0.27021015,0.6241715,-0.58190674,0.5878332,0.5804677,0.64318895,-0.29290414,-0.36147702,-0.99659944]},{"bias":-0.87694407,"weights":[-0.6173499,-0.65748763,0.04615687,-0.17610562,0.4939474,-0.92817473,0.1721019,-0.20673096,0.56325746,-0.08790767,0.77412605,-0.3400852,-0.87489986,-0.41526976,0.5840068,0.56398284,0.23708212,-0.7699816,-0.72428584,0.6470599,0.62336373,-0.5370092,-0.2001487,0.73553944,-0.19286954,-0.0014442205,0.73360205,-0.21971571,0.16033846,-0.6430309]},{"bias":-0.21948206,"weights":[-0.22451055,0.30075157,0.7605643,-0.012066722,-0.7551759,0.056712747,0.7240522,-0.3651834,-0.50164646,0.96170735,0.17925535,-0.12745702,0.09291661,-0.3982947,0.5636213,-0.2631268,0.88231945,-0.033771873,-0.352055,0.9932637,-0.12169348,-0.7231975,-0.9974201,-0.6115996,-0.07390392,-0.84252095,-0.51328605,0.1021024,0.64955235,-0.8249233]},{"bias":-0.80370045,"weights":[0.29279196,-0.7317195,-0.9865856,-0.84370613,0.5955193,0.20734894,-0.7255831,-0.75809145,0.8931663,-0.0032418966,-0.14492428,0.5330457,-0.94285107,0.6960701,0.038039558,0.40280235,0.49905217,-0.62774205,-0.33668613,0.059256673,0.5593728,0.6993239,-0.84085965,-0.96473587,-0.29007548,0.7735539,0.20095244,-0.13726237,0.47550258,-0.85695326]},{"bias":-0.6990576,"weights":[-0.4966411,-0.34438103,-0.8226168,-0.82334936,0.7735212,0.85218,0.80039835,0.92860174,0.91374344,-0.091676354,-0.5956697,0.08714477,0.580904,-0.6449504,0.3068396,-0.2690572,-0.6686636,-0.5304846,-0.92090416,-0.35465044,-0.61681455,0.38709667,-0.42254278,-0.6768637,-0.19997677,-0.7014718,-0.52095026,-0.5509023,0.8601155,-0.13444936]},{"bias":-0.60288376,"weights":[-0.55505526,0.32287872,-0.7947655,-0.6986811,-0.6362586,-0.5939054,-0.7411294,-0.55873436,-0.57883,-0.2920131,0.90404534,-0.116640925,0.014219858,0.75114226,-0.58347684,-0.41481942,-0.012101725,-0.51063555,-0.35963744,-0.8195641,-0.6430413,-0.8241069,0.5560208,-0.122039996,-0.58974737,-0.16948253,-0.84958744,0.66391563,0.98927736,0.57665324]},{"bias":-0.25972837,"weights":[0.94826627,0.99335337,0.2791561,-0.09397045,0.6555629,0.6513258,0.32809892,0.33035576,0.38867715,-0.76494914,-0.74418354,0.91698575,-0.91325593,-0.32798213,-0.13398159,0.02047956,0.03925982,-0.03173864,-0.7204943,-0.525942,0.006861724,-0.5186123,-0.101876065,-0.7712829,0.73451805,-0.11267507,0.29057482,0.9087107,0.46088517,-0.5018589]},{"bias":-0.6337068,"weights":[-0.7396146,0.3058995,-0.2638139,-0.20032156,0.8299668,-0.33147615,-0.87404805,0.6989,-0.56807625,-0.48487252,0.46113288,0.30212152,-0.5990123,0.09771407,-0.20202538,-0.31708091,-0.5710177,0.3537949,0.83101416,0.684137,-0.08850801,0.39279068,0.21010196,0.8096058,0.050611377,-0.23978937,-0.58079064,-0.115679145,-0.5561258,-0.32129282]},{"bias":0.9062016,"weights":[-0.30184954,0.8921361,0.29521206,-0.64481544,0.010838866,0.13319623,-0.8420224,-0.63475394,-0.16851056,-0.7442975,-0.6895449,0.35721815,0.92263436,-0.50780976,-0.77542233,-0.01943481,-0.80864644,0.6680038,0.29185212,0.8968847,-0.7307186,-0.7606646,0.56339115,-0.30167288,0.9986305,-0.6275475,0.4343661,-0.7277255,0.66300344,-0.32035226]},{"bias":-0.5876393,"weights":[0.06491482,0.4819556,0.32782328,0.76142216,0.43371013,-0.27136296,-0.33976477,-0.96075016,-0.38547248,0.89375496,0.9445243,0.55024314,-0.30337763,0.4697026,-0.42146844,0.8463924,-0.7113455,-0.2952686,0.34666598,-0.30874085,0.49963653,-0.8110635,-0.26668066,-0.7830653,-0.38322085,-0.14593378,0.39819777,0.48613524,-0.3512382,0.585392]},{"bias":0.6210184,"weights":[-0.037421823,0.6199727,-0.124185205,-0.026930042,0.4267968,-0.042723574,0.5476677,-0.8593123,-0.029770494,0.8539033,0.39644277,0.72759366,-0.36703938,-0.093860984,-0.8078467,0.9889827,0.65380883,-0.20189583,0.7941408,-0.19964802,-0.9859402,-0.9190928,-0.98409104,-0.5743238,0.13992536,0.6443589,0.92532563,0.6968064,0.100497365,0.12951024]},{"bias":0.9424741,"weights":[-0.8329198,0.09252632,-0.9841833,-0.29232234,-0.98095894,0.6757691,0.13929021,0.4405054,0.10046661,0.7882173,0.5703859,0.66438055,-0.65584683,0.45799387,0.42266548,0.27801502,0.8788719,-0.87048084,-0.48657283,0.9670944,0.5477395,0.6067273,-0.59461933,-0.84481335,0.20562375,-0.41143793,-0.7290559,0.4177636,-0.23752463,-0.99066496]},{"bias":-0.3694157,"weights":[0.3106727,0.8382569,-0.681381,-0.34352154,-0.6586797,0.86211705,-0.6094479,-0.635228,-0.88965774,-0.9023277,0.4585601,0.8724301,0.28901717,-0.57583255,0.9050843,0.8989253,0.12670189,0.016542397,0.8692653,0.41869843,0.6718114,-0.77524704,0.8954103,0.18792829,0.49771821,-0.93200135,0.32248607,-0.28062958,-0.77193165,-0.6045405]},{"bias":0.5917051,"weights":[0.16651821,-0.5099083,0.7169478,-0.059988163,-0.6252029,0.094687626,-0.49268144,0.052705646,-0.9043114,0.103089966,0.13532221,0.52269775,0.8491318,-0.14322436,0.1996926,-0.30478954,-0.24798113,0.00583899,-0.45331925,-0.02122464,0.5345123,-0.007950425,-0.3301658,0.08362327,0.48437107,-0.6317172,0.25332224,-0.008345686,-0.78980064,-0.3844096]},{"bias":0.3714677,"weights":[-0.30323118,-0.036813855,0.9020922,0.20002115,0.45474994,-0.5074977,-0.04558122,-0.16660345,0.1997059,-0.9022763,0.6915562,-0.89044315,0.13384211,0.72042143,-0.03856504,-0.413145,0.3444358,0.50236046,0.9693706,0.8087363,0.3210162,0.38765824,0.94275546,-0.61922497,0.26744378,-0.43164295,0.57650375,0.21062696,0.75052756,-0.25592703]},{"bias":-0.41999143,"weights":[-0.34459767,0.15382555,-0.7692516,0.041006207,-0.69300723,-0.7208404,0.6389722,-0.5823545,-0.12627494,0.6128204,0.00487411,1.0,-0.23100555,0.30609167,-0.26331562,0.9647291,0.7769296,0.5138886,0.29398143,0.92894983,0.19787347,-0.08113134,0.39283383,0.7517245,-0.80059135,-0.44213894,0.12912571,0.5311167,0.71261644,-0.5762114]},{"bias":0.8482704,"weights":[0.36084688,0.80636656,-0.30954546,-0.47458318,0.31204602,0.93531823,0.7914904,-0.90941715,0.45612085,0.68200994,0.38719463,0.8692425,0.15991187,-0.7723186,-0.14425981,0.571352,-0.32990497,0.58725715,-0.21941364,0.96652555,0.70981836,0.86792946,0.43383634,0.11376536,-0.94787526,-0.086748004,0.03162968,-0.37782377,-0.82215905,-0.8025768]},{"bias":0.19515455,"weights":[0.8097178,0.29577315,0.6801872,-0.0707557,-0.5286993,0.5723529,0.8938391,-0.59544486,0.0029376745,-0.8651918,-0.53766674,0.40333116,0.28895068,-0.4518307,0.96768236,0.51779985,-0.42804712,0.86308265,-0.14592636,-0.06795609,-0.32511538,-0.69537556,0.3974942,0.14545548,-0.88547283,-0.70737636,0.13551223,-0.2769239,0.48702705,0.6061225]},{"bias":-0.79401565,"weights":[-0.81454766,0.27912366,-0.43828624,0.6688485,-0.3532142,-0.2260884,-0.39570564,0.14467624,0.60528445,-0.15121257,0.9067255,0.9693352,0.34582436,-0.93314713,0.7562299,0.38098097,-0.92147166,0.40546453,0.90468,-0.4205553,0.4044031,-0.115765214,-0.12627876,-0.8918247,0.8549762,0.5252874,-0.058202147,-0.15855062,-0.101472974,-0.2991597]},{"bias":0.507828,"weights":[0.40735966,-0.78452337,-0.388686,0.6350999,0.44439852,0.9755995,-0.8366709,-0.3045805,-0.6212,-0.03637731,0.50421095,-0.67291474,0.025508761,0.27210498,0.42538226,0.5226436,0.98601294,-0.29361814,0.04828942,-0.2615754,-0.19936907,0.60867214,0.9272047,-0.46350312,-0.07479909,0.50238895,0.5080434,0.7737009,-0.07566295,0.077857755]},{"bias":0.12010515,"weights":[0.6115043,-0.56520575,0.14859533,0.12819207,0.91411155,0.85792536,0.7831087,0.14515468,-0.21304402,-0.49539536,-0.3268482,-0.50862974,-0.3039021,0.661799,-0.42484015,-0.656127,-0.8933761,0.8518118,0.60667706,0.9075165,0.38566825,-0.44267768,-0.46907634,-0.45190012,0.2147075,-0.25168297,-0.53842276,-0.38993838,-0.45497566,0.5216315]},{"bias":-0.11663926,"weights":[-0.37570113,-0.3589129,-0.6577282,-0.52589035,0.75360405,0.30633128,0.9506662,0.4994966,0.888446,0.1355303,-0.19432557,0.84848,-0.022810668,0.9231904,-0.578803,0.9741156,0.42428973,-0.26834816,0.8792084,0.8272598,-0.19901946,0.05734718,-0.32883924,-0.28653988,0.42468494,-0.36716503,0.066167146,-0.17093718,-1.0,0.8558011]},{"bias":-0.045426488,"weights":[0.37110627,-0.82288265,-0.48313135,-0.54315346,-0.9978237,-0.1467737,0.22865212,-0.6982889,-0.1863023,-0.92336774,-0.22531879,0.11682594,-0.69843984,-0.20354784,-0.42641455,0.09738886,-0.63805246,0.37622416,-0.9094417,-0.7632022,0.5997,0.652698,0.82922196,-0.43356484,0.77958447,-0.43315405,-0.83256054,0.24021617,0.425512,0.52633214]},{"bias":0.9720986,"weights":[0.039915204,-0.58817786,0.23459136,-0.27853626,-0.8044088,-0.10461986,-0.78268385,-0.76296926,-0.8582065,0.77965856,0.5604234,-0.107496716,-0.7219174,-0.47558153,0.14952958,-0.49362177,-0.5808272,0.011965901,-0.9416001,-0.6988723,-0.9190469,-0.769578,0.147138,-0.9194162,0.5878408,0.49753726,-0.30695504,-0.9273076,0.25671843,-0.6606636]},{"bias":-0.44529742,"weights":[0.15353143,-0.2777955,0.053783536,-0.9525943,-0.3190331,0.2956015,0.26092875,0.71067977,-0.79410887,0.5397354,0.2362057,0.8610143,0.76996994,-0.28660738,0.7016084,0.46350014,0.694263,-0.8842764,0.13841355,0.19152525,-0.25215572,-0.82555413,-0.5560748,-0.50308317,0.39977753,-0.9169376,0.22148335,0.34023654,-0.54370755,-0.000556089]}]},{"neurons":[{"bias":0.37432683,"weights":[0.6542077,0.81960154,0.52222085,0.052063346,-0.02064979,-0.29447117,-0.20166916,0.18360601,-0.42842978,0.4735762,-0.27120584,-0.4410302,0.8838197,0.42325675,-0.7223511,-0.10133035,-0.15312278,-0.17624366,0.1973961,0.79343796,0.7282323,0.8619827,-0.036742568,-0.6068489,-0.72574615,-0.5274622,0.25725663,-0.2360102,-0.823658,0.43298447]}]}]}