{"layers":[{"neurons":[{"bias":-0.053018212,"weights":[-0.70545495,-0.801026,-0.597372,-0.024764657,0.09267914,-0.29421538,-0.25220793,-0.35307568,0.4069692,0.031956017,0.32664812,-0.08832967,0.121405795,0.6414201,0.20743126,-1.0,0.36961687,0.76891685,-0.8809657,-0.16154298,-0.6381645,0.07323086,0.99870825,0.30623496,0.91712046,-0.0620028,0.2571541,-0.70978045,-0.42893308,-0.92070603]},{"bias":-0.30672735,"weights":[-0.0010858774,0.22288382,0.9435365,-0.6960337,-0.038651347,-0.90548563,0.60433793,-0.052066386,0.15766433,-0.88924026,0.53761005,0.9506166,-0.88730574,-0.28732055,-0.47545117,0.2096945,0.8767762,0.82389194,0.8903562,-0.29442185,-0.7587425,-0.002054572,-0.014745355,-0.006323695,0.9169075,-0.4194147,0.5043583,0.92847013,0.04478395,0.94311094]},{"bias":0.28644,"weights":[-0.1851021,0.005146332,0.75110245,-0.8154181,-0.77383924,-0.8582308,-0.66092086,0.045739055,-0.4747409,0.88076425,-0.5174253,-0.23408496,-0.5330039,-0.5269899,0.8627448,0.090543866,0.616091,-0.95779324,0.24838391,0.59691447,0.95233876,-0.37914294,-0.20527422,0.17520368,0.92770743,0.8027086,0.8845014,0.80353904,0.23477425,0.060091615]},{"bias":0.07409179,"weights":[0.26107967,0.9540112,0.074892975,-0.5318082,0.27778062,0.3059126,0.23245275,0.6663983,0.21407306,0.35818183,0.15263136,0.9920745,0.56787586,0.9075682,0.2986864,0.22530943,-0.08407205,0.5841105,-0.10416984,0.5974262,0.37083924,0.46577805,0.37369525,0.8377464,-0.68212223,-0.6404164,-0.49038047,0.26377755,0.76897645,0.20172036]},{"bias":-0.13987148,"weights":[0.93428934,0.97967005,-0.36982244,0.08838254,-0.7884898,0.008627534,0.8148315,0.62139165,-0.6348972,-0.65198934,-0.19724405,0.9017687,0.30909216,0.28907168,-0.78735805,0.9330003,0.15989816,0.16388804,0.63801813,-0.87402844,0.39737502,0.44177115,-0.19092643,-0.5643248,-0.40049574,-0.17569077,-0.8430097,-0.68215394,-0.74618244,-0.5277292]},{"bias":0.34875596,"weights":[0.84105206,-0.4285273,0.510766,0.6583297,0.64099693,-0.33228844,-0.4170829,0.3073008,-0.7020862,-0.4615509,-0.70731586,0.7910259,-0.16548559,-0.9350952,-0.6317961,-0.40794128,-0.89870995,-0.49862665,0.61415637,-0.886909,0.51976275,-0.5968613,0.26678193,-0.62796354,0.643363,0.8429315,-0.5064594,-0.38134283,-0.31957048,0.48369205]},{"bias":0.047500014,"weights":[-0.28615037,-0.46577924,0.33119,-0.95990086,0.99377584,0.21323788,-0.4032655,0.91764235,-0.7195158,-0.0720421,0.25208834,0.05951798,-0.9105401,0.7780943,-0.08597982,0.3084737,0.05823362,0.78669906,-0.2547559,-0.81058526,0.3938192,0.32291806,0.4205252,0.72974205,-0.3133275,0.135097,-0.20344913,0.76103795,0.9781976,-0.9542098]},{"bias":-0.7147944,"weights":[0.0067430735,-0.9008902,0.6787112,-0.24431066,-0.7180474,-0.7508924,-0.120628476,-0.75178766,0.701422,-0.3980003,0.45974818,-0.8110154,-0.7672832,0.90216684,0.4737841,-0.66454494,-0.33327883,0.9689088,-0.15485108,0.3530537,-0.4932446,-0.4149652,0.6487026,-0.12846005,-0.014264941,-0.60564345,0.16927871,-0.51363724,-0.28930897,-0.21730864]},{"bias":0.122455716,"weights":[-0.88093686,0.44837224,-0.8612703,0.7531989,-0.8764415,0.2029812,0.27512443,-0.76786375,-0.6528256,0.7417135,-0.34725115,-0.07859433,-0.48984736,0.58765316,-1.0,0.7756252,-0.37301868,-0.40056756,-0.6645136,0.5762584,-0.56282794,-0.6768478,-0.60819185,0.20045683,-0.2759835,-0.5044264,0.27030075,-0.6871834,0.8503643,-0.8832566]},{"bias":0.050320268,"weights":[-0.82815784,-0.9153619,-0.68019354,0.1503216,-0.5620269,0.24939574,0.10835744,-0.75745654,0.46477187,-0.4672862,0.28953195,0.22478259,0.3107568,-0.73632383,-0.38825077,-0.40081447,0.24063933,-0.29363492,0.9107218,0.98449254,-0.31642598,-0.33273304,0.9534652,0.32447183,-0.12549889,0.40636003,0.27204394,-0.9096682,-0.8333073,-0.27838844]},{"bias":-0.84851503,"weights":[0.524963,-0.6170675,0.95566154,0.6418314,0.25689945,0.11703503,-0.75243306,-0.1259774,-0.32407948,0.9947746,0.61425674,-0.014793158,-0.848282,0.8475488,0.51867867,-0.48813576,-0.4316098,0.0754205,-0.74422765,0.9441354,-0.07513821,-0.7378261,-0.2444638,-0.26440322,0.02450192,-0.75205827,0.47393477,0.052718177,-0.041732907,0.29371294]},{"bias":-0.4575705,"weights":[-0.36657208,-0.8660047,-0.3596453,0.4520145,-0.8553803,0.1750158,0.012758043,0.76249194,0.034508348,-0.4390999,0.9502163,0.85180235,-0.3669231,0.09290711,-0.65905553,-0.79730916,0.52266574,0.91924715,-0.82834125,-0.3361656,0.21922767,-0.79183984,0.20370615,0.74206114,-0.7647412,-0.36961144,0.3570534,0.32084596,0.6305678,0.1801871]},{"bias":-0.48288935,"weights":[-0.07682407,0.4394158,0.2828499,-0.33258408,-0.30239508,0.60122514,0.6541381,0.18485859,-0.49733716,-0.43710655,0.23856103,-0.31650853,0.56824636,-0.9230046,-0.10863221,-0.47850344,-0.93642575,0.8010221,-0.11924088,0.309235,0.13033354,0.4443866,-0.16022837,-0.1396561,0.9694295,0.27573645,0.4586333,-0.74247766,0.82837844,0.23021773]},{"bias":-0.6253929,"weights":[-0.0073454306,0.7165313,0.60069704,0.77225405,0.29118073,-0.35246128,-0.05236827,0.66426563,-0.56511635,-0.5410859,-0.97702956,-0.871083,-0.7305417,0.61833644,-0.04026878,-0.95666474,-0.47010213,0.36881673,0.41237983,-0.20489848,-0.54949594,0.96853703,0.79730844,0.06619465,0.75701606,-0.99806905,-0.36919087,-0.13169324,-0.88214874,-0.92117596]},{"bias":0.6297302,"weights":[-0.85992455,0.6689214,0.98879194,0.34905446,0.6380296,0.70784736,0.6066045,-0.3133158,0.70726824,-0.26187867,-0.80992675,-0.7561929,-0.6031766,0.8554523,0.97724104,-0.52611345,0.28481042,-0.25545803,-0.31163728,0.88484216,0.1217252,-0.7977133,0.32769597,0.6349337,0.05773151,-0.3381365,0.24444067,-0.09175956,-0.8957893,-0.43767565]},{"bias":-0.6716838,"weights":[0.71269757,-0.5317079,1.0,-0.97389126,0.46101367,0.87409854,-0.5477085,0.31418622,-0.89497423,-0.65080786,0.3154956,-0.30145925,-0.95162606,0.42974845,-0.5415422,0.21513736,-0.77834153,0.29796207,-0.8106425,-0.30808514,-0.7889538,-0.34564295,-0.8181682,0.8223276,-0.13461626,0.7259412,-0.9249351,-0.8065424,-0.044740796,-0.48121947]},{"bias":-0.13239276,"weights":[0.43622106,0.75248003,0.37603223,-0.5290765,-0.4520325,0.57576656,-0.9219351,0.6542103,0.2843758,0.65928066,-0.4996912,-0.0037373304,0.5057502,-0.82478666,0.546803,0.6378467,-0.8376548,0.45982113,0.6622726,0.8573754,-0.26558465,0.614349,0.3080877,-0.6817284,-0.7247169,-0.39481205,-0.55216736,0.18337238,-0.14185235,-0.6105992]},{"bias":0.5372555,"weights":[-0.9059053,-0.33831447,0.66515374,-0.010077737,0.3142346,0.88460326,0.57729644,0.7548089,-0.4468965,-0.8786738,0.9827242,-0.81990266,0.8250158,0.67773104,-0.25186723,0.32914078,-0.3986475,0.82060313,-0.67658925,-0.6427944,-0.6661718,-0.8941343,-0.54213685,0.5594511,-0.7926307,0.4234296,0.81708574,-0.98701,0.94787264,-0.4101786]},{"bias":-0.5168981,"weights":[0.07790601,-0.8961616,0.9780631,-0.48970765,0.36931002,0.27332222,-0.29369345,0.7342255,-0.92228556,0.0012139082,-0.84808445,0.2373637,-0.65349436,0.12287838,0.99371505,0.050558448,0.43373454,0.38888967,0.7161293,-0.57439035,-0.30011624,-0.018624425,0.97935987,-0.5927401,-0.03287065,-0.56178325,0.60362077,-0.56157655,-0.17244875,-0.28530687]},{"bias":-0.76163054,"weights":[-1.0,0.5880141,0.045686364,0.5791533,-0.6880231,-0.90292203,-0.26363856,-0.9563265,0.16709101,-0.38703632,-0.5591947,-0.58091277,0.24203083,-0.21206701,-0.10326874,-0.4902529,0.9275226,-0.30362195,-0.10693184,-0.24841034,0.8644891,-0.5241584,0.9221308,-0.05063331,-0.61625236,-0.13559878,-0.5560159,0.9185929,-0.9677198,-0.87579656]},{"bias":-0.7320132,"weights":[0.5450437,0.4910046,0.5593536,0.15982378,0.9622867,-0.39302036,0.9259455,0.29350603,-0.73871064,0.563699,-0.1790252,0.1188348,0.17197193,-0.10133517,-0.8783171,0.4650122,0.65707815,0.57914066,-0.6242566,0.911978,-0.7523117,-0.070727706,-0.53189224,-0.06680945,-0.8953755,-0.28799647,-0.063885756,0.6460321,0.30034983,-0.34551805]},{"bias":0.81136155,"weights":[0.67836356,-0.054588914,0.5048897,-0.36698884,0.2556169,0.29884866,-0.023119807,-0.8989823,-0.9603107,0.7885215,-0.0101123825,0.9135154,-0.7041273,0.6293278,0.7913242,-0.98669696,-0.44311255,-0.50762457,-0.35536242,0.3547319,-0.79170084,-0.73407364,-0.86223125,-0.8836994,-0.10370081,0.02292049,0.55918,0.7087546,-0.6926386,-0.75853723]},{"bias":0.7852819,"weights":[0.7831104,0.2773166,0.34395158,0.07546318,0.5625733,-0.5956952,-0.16344616,0.5825081,-0.52477306,-0.11228667,0.18687356,-0.19341893,-0.20842421,0.5977726,-0.47665292,0.26535192,0.94898057,-0.039860606,-0.7578447,-0.5367431,-0.20182025,0.20040357,0.7839763,-0.41861856,0.26836535,-0.75843143,-0.20010129,0.67475796,-0.49711367,0.62344885]},{"bias":0.44260347,"weights":[-0.648335,0.036415696,0.47060692,-0.018462777,-0.1257292,-0.67141795,-0.14273322,0.44132745,-0.24792713,0.5775447,0.66557956,0.51413906,-0.3554191,-1.0,-0.6359012,-0.45247668,0.5601988,-0.72297025,-0.8411113,0.2995926,-0.7240288,-0.18840992,0.044695973,1.0,-0.8119111,-0.8263967,0.6428574,-0.26200265,0.8820002,-0.8974824]},{"bias":-0.59841865,"weights":[-0.59024304,-0.12485999,-0.19783151,0.9294214,0.009380765,0.84749055,0.81108236,0.029971972,0.9557557,0.57275724,0.17588861,-0.8968022,-0.54362214,-0.7637522,0.8041049,0.28429273,-0.32519716,-0.8462982,0.60118246,0.59586024,-0.59847254,0.7536837,0.45067132,0.2654935,-0.3867132,0.36288202,-0.18108097,0.019074798,-0.6581435,0.6541052]},{"bias":0.73182344,"weights":[-0.16749084,0.16031277,-0.9129923,0.24269164,-0.35447448,-0.9041156,-0.4203164,0.7972255,0.98859215,-0.74770904,-0.037831664,0.16611803,0.3065945,-0.2765674,0.16944331,0.5231315,-0.24431646,-0.48827547,0.2520072,-0.5400638,0.7907424,-0.08760772,0.08500699,-0.7393131,0.7045965,-0.37139082,0.5639766,-0.63694584,-0.9902334,0.9135749]},{"bias":0.15656793,"weights":[0.5997691,0.66519165,0.23309672,0.07487619,-0.42218035,0.32262552,-0.5170847,0.5480089,-0.39951372,0.69548684,0.19171607,-0.6359916,-0.6370888,0.9408126,0.14863908,0.9482322,0.38215858,-0.7211096,-0.2454592,0.064145684,-0.9571531,-0.20345509,0.4353387,-0.5616673,0.023467422,0.6926239,-0.901953,0.75063974,-0.3380306,0.6187167]},{"bias":0.29069078,"weights":[-0.9888046,0.67363566,-0.62499136,-0.044579357,-0.29333204,-0.69159365,0.48224124,-0.42881808,0.24873793,-0.53755754,0.77109104,-0.7224195,-0.9203136,0.110872865,0.8430984,-0.47884583,0.71559477,-0.24605978,-0.2894475,-0.29737276,0.58010125,-0.42793483,0.48368728,0.7559984,-0.64955306,-0.54468983,-0.90271664,-0.6296556,-0.5536198,0.6055157]},{"bias":-0.023005605,"weights":[-0.3246984,0.34884948,0.23670638,0.34508073,0.27171367,-0.4223091,-0.14118159,0.118192315,-0.9930618,-0.47333068,-0.8247254,-0.040141307,-0.98036385,-0.1537553,-0.5138847,0.18835856,0.45302212,-0.51550645,-0.5105788,0.7247641,0.11507237,0.33461607,0.029284358,-1.0,-0.173298,-0.0789355,0.13825142,0.38917005,-0.3205971,0.15926492]},{"bias":0.9543662,"weights":[0.4502889,0.8389354,0.86040235,0.11226761,0.90868497,-0.8257828,-0.8219707,-0.6051623,0.1200186,0.91342545,-0.9306874,0.13020766,-0.48688787,0.46821064,0.9038238,-0.5964274,0.8133669,-0.27738294,0.93795824,-0.054989696,0.22505486,0.644894,-0.43895262,0.49714625,0.36831987,-0.46153572,0.14354177,0.79430485,0.7561821,0.56970555]}]},{"neurons":[{"bias":-0.28563064,"weights":[-0.81108356,0.8293743,-0.15247738,0.73348165,-0.62803936,0.21745265,-0.68992853,-0.7003062,-0.7580459,0.52014786,-0.38103855,-0.48196906,-0.8756188,0.7507086,-0.7504504,0.04929602,-0.08301818,0.8229134,-0.9330838,-0.9126694,0.51381207,0.24345839,0.03033936,0.9782032,0.27978432,0.66786385,-0.16927624,-0.120382905,-0.7438007,0.28929222]}]}]}