{"layers":[{"neurons":[{"bias":-0.5472674,"weights":[-0.61091036,0.9474242,-0.031338573,-0.5315148,0.57460546,-0.5502929,0.9762571,-0.8605399,-0.91620445,0.025580764,-0.6646316,0.003280282,-0.747674,-0.6305096,-0.7060032,-0.7800534,-0.3321609,-0.43909425,-0.7207773,-0.123049855,-0.12920368,0.36312807,0.08740318,0.21006691,0.9018009,-0.9780369,-0.15813339,0.823087,-0.090953946,-0.9362178]},{"bias":-0.67303324,"weights":[-0.76560116,0.7184603,-0.0769912,0.617085,-0.53239626,-0.5929112,-0.68118095,-0.69593,-0.49308723,0.1206187,0.51920414,-0.4384038,0.8243296,-0.34727567,0.69487333,0.7494447,0.7207086,0.13655055,-0.1529969,0.18520606,-0.92228365,-0.6250441,0.59263515,0.5543351,-0.7449143,0.9428623,0.87292147,0.90851283,-0.6541195,0.9082992]},{"bias":0.17002308,"weights":[-0.5164003,-0.34812874,0.96380687,-0.49751753,0.90656996,0.021122575,0.9494858,-0.7093899,0.6394825,0.4547552,-0.28530496,-0.15888107,-0.25704545,-0.923187,-0.16573656,-0.3577022,0.3098706,0.9538114,0.16989958,-0.10761917,-0.90471315,-0.7235255,-0.3117234,-0.9995208,0.18038762,-0.8853831,0.40610206,-0.7637131,0.3653952,0.88356996]},{"bias":-0.032704473,"weights":[0.3765806,-0.43138903,-0.83632135,-0.5785505,0.09579265,0.6726227,-0.15677464,-0.32578605,-0.6193387,-0.7113452,-0.45371026,0.09487307,-0.08561742,-0.10224545,0.27413237,0.5896354,0.586308,-0.6230497,0.37940013,-0.8856051,0.6381879,-0.80283856,-0.9666519,0.7387762,-0.78123355,-0.66828394,0.72474384,-0.64207697,0.24894178,0.13599694]},{"bias":-0.0431,"weights":[0.5317924,0.69452715,0.945555,0.9234643,-0.030186057,0.6562753,-0.7811215,-0.40385598,0.36862385,-0.42445606,0.9972031,-0.45656985,0.6893499,0.24728596,0.90955853,0.7318611,0.91125035,-0.96789336,0.8832221,0.7230358,-0.49294752,0.7314522,0.05754149,0.031320453,0.13400543,-0.69301224,-0.72720075,0.07611263,-0.16117322,-0.041846633]},{"bias":0.6232796,"weights":[-0.40939802,-0.43069333,-0.8941567,0.46715343,-0.5397236,-0.7338953,-0.8117635,-0.91937876,0.9505379,0.07980263,-0.58868283,0.0627898,-0.09782064,-0.39789408,0.20168698,0.8663728,0.7465346,0.5626316,0.07640135,-0.55473965,0.5445919,0.6693845,-0.41106528,-0.33693403,0.050526023,0.7389097,0.30116642,0.24886835,-0.07779777,0.227054]},{"bias":0.26588047,"weights":[-0.884336,0.5003493,0.047677398,-0.3101446,0.6160505,0.5752225,0.63116145,0.7156811,-0.59495944,-0.3102464,-0.6057922,0.195799,-0.35645932,-0.6933625,-0.8416703,-0.32491988,0.97452617,-0.3385722,-0.7329426,-0.7839227,-0.59287065,0.81012344,-0.1878618,-0.08463013,-0.4068765,0.21450794,-0.54188126,0.12884891,-0.05549276,-0.68889666]},{"bias":-0.14433849,"weights":[-0.5880806,-0.0064388514,-0.16598189,0.12106502,-0.7150438,-0.88900447,-0.6519458,-0.7815347,-0.86189604,-0.5107643,-0.7013674,-0.16633332,-0.09277427,-0.6651654,-0.9317174,0.039782643,0.8196261,-0.85634375,0.32236922,0.8357873,0.090667844,0.07542646,0.45790875,-0.03252065,-0.012436509,-0.016723037,0.7496047,0.05104983,0.40725434,0.13950479]},{"bias":0.48889744,"weights":[0.51350856,-0.97560763,-0.83158064,-0.7601414,0.19871342,0.3517934,-0.13105595,0.60316324,0.075319886,0.60396886,0.6042466,-0.10919917,0.9238994,-0.04282844,-0.8894427,-0.5570983,0.9281144,-0.64201665,0.4788221,0.8598521,0.41715896,-0.34737486,-0.9436338,-0.9381988,0.6816344,0.31320107,-0.12546384,0.8545985,-0.9528196,-0.7416954]},{"bias":0.48144853,"weights":[-0.9742687,-0.8789265,-0.93271756,0.44314802,0.40923107,0.38797486,-0.6150009,0.54027104,0.44446194,0.6968627,-0.38041967,-0.45972103,0.5383611,0.74129534,-0.24172843,-0.20806396,-0.9333153,0.07073963,0.7447214,-0.5320851,0.42484295,0.48934925,-0.9741709,0.23400962,-0.26438445,0.21385849,-0.6960268,0.220739,0.04588735,-0.61386317]},{"bias":-0.56439894,"weights":[0.19837606,-0.76291513,-0.50273794,0.23425615,0.507555,-0.91649055,-0.27444524,0.23023498,-0.63087845,-0.4531514,-0.29714507,0.25801647,-0.36048454,0.5785363,0.18156683,0.9354987,0.40510762,-0.32737273,0.90693164,0.53790164,-0.9206457,-0.36479133,-0.70766425,-0.7627573,0.08201659,0.5861232,0.8213179,0.37516463,-0.12676513,0.323954]},{"bias":0.27312076,"weights":[0.5257635,0.7302971,-0.8574445,-0.39205378,0.95510983,0.5130913,0.6860497,0.014411807,0.28645456,-0.9851868,0.6171429,0.96938205,-0.76761985,-0.5918068,-0.2852587,0.39090312,-0.056177974,-0.9506197,0.5869632,-0.4400391,0.067970395,0.52550936,-0.70875525,-0.89571595,-0.28157896,0.75561595,-0.92323685,0.091816545,-0.22754419,0.7959235]},{"bias":-0.3314225,"weights":[-0.59972996,-0.92104864,-0.013206363,-0.38104266,-0.6716428,0.25396526,-0.37333292,-0.218835,-0.27288836,0.7124629,0.6117375,0.25382078,-0.80909824,0.12768137,-0.42723316,0.14038408,-0.14113557,-0.6748166,0.94857144,-0.05569589,-0.26539677,-0.23384178,-0.2834546,-0.61752576,0.7490854,-0.55478543,0.1843077,0.33938372,-0.31363028,0.53494716]},{"bias":-0.70412755,"weights":[-0.74135375,0.40203893,-0.2855026,-0.10121715,-0.7660384,-0.51883954,-0.5927672,-0.21362555,-0.96504116,-0.37612623,0.49330008,-0.11716139,-0.22362792,-0.41783208,0.089330316,0.7850678,0.4585358,0.37646067,-0.48054975,0.14880335,-0.4274842,-0.6184754,-0.27503055,0.7966058,0.58507943,-0.73048663,0.16637766,-0.50974244,-0.75653076,-0.92932963]},{"bias":-0.9522586,"weights":[0.5811949,-0.7836938,0.3090309,0.58755183,0.48813784,0.66237307,0.3838657,0.7381747,0.6549537,0.15854871,0.7596576,-0.4587559,-0.42087978,-0.9006369,-0.9906187,-0.5011861,-0.96121764,0.94305015,0.5356636,0.39435852,-0.14623725,-0.26944178,-0.040017247,0.9387214,0.77366257,0.38550127,0.10415876,-0.8526945,0.3821615,0.28287113]},{"bias":-0.02613771,"weights":[-0.20786464,-0.88610196,-0.9303465,0.58474493,0.9721265,-0.9537151,-0.8713963,0.37403977,0.45266497,-0.46446365,-0.6291411,-0.800226,-0.7218673,-0.71074677,-0.9394717,0.5982573,0.29368746,-0.8247051,0.90662336,-0.44825143,-0.40455145,-0.9867234,0.7111194,0.5464499,-0.49485344,-0.2418145,-0.43477625,-0.25441092,0.59821486,0.8739135]},{"bias":0.85349584,"weights":[-0.75661564,0.634681,-0.88384604,-0.6418526,-0.10880005,-0.50072736,-0.8529012,-0.5668184,-0.15849507,-0.47591585,0.063524365,0.20922911,0.26552093,-0.49283212,-0.7799773,0.52251387,-0.5185155,-0.60164994,-0.82752347,-0.30926007,0.564301,-0.23751175,0.96526766,-0.68004155,-0.26410574,0.7263231,0.83680844,-0.6776867,0.55245614,-0.623763]},{"bias":-0.30144995,"weights":[0.68042827,-0.14426005,-0.8711524,0.25575244,0.11860955,-0.15652764,-0.062219262,-0.40507,0.626585,-0.63145185,-0.5849597,0.6372824,-0.60021275,-0.69256425,-0.6848254,0.17886913,0.96906424,-0.39386314,-0.87605166,-0.3228876,0.06660879,-0.2196058,0.6676774,0.82767534,-0.06669152,-0.6948793,0.8889916,-0.8876717,-0.9885495,-0.5738322]},{"bias":0.13603532,"weights":[0.818604,0.59744525,-0.52367824,0.81511855,0.30554473,-0.12989867,-0.8929832,0.4778098,0.72964454,-0.045195222,-0.26762933,-0.55268544,-0.90247416,-0.063642144,0.5902636,-0.5145075,0.21275294,0.2911824,0.00990212,-0.6668668,-0.12039244,-0.6603768,0.10041392,-0.6268027,0.48607194,-0.8770416,-0.07939708,0.15468729,-0.69923306,-0.059282184]},{"bias":0.27907288,"weights":[0.26277602,0.5604558,-0.70547986,0.42277372,0.10527933,0.59554553,0.78733087,-0.16739762,-0.7304609,-0.34022802,-0.053840518,-0.3038413,0.851527,0.61751485,0.48872745,0.020776153,0.86854434,-0.25749534,0.3262223,0.19710886,-0.44763035,-0.9585893,-0.24931681,0.27596986,0.9627776,0.9179585,0.93751216,0.45847023,0.98436,-0.6838236]},{"bias":-0.26971906,"weights":[-0.9465649,-0.30179638,-0.43558782,-0.4597363,-0.71307707,-0.26853245,-0.52380365,-0.57262677,-0.4551639,0.84946513,0.6223726,-0.28325576,0.88249445,0.15222156,-0.26266807,0.20419633,0.9076071,0.8416972,-0.3041212,0.87733483,0.89736056,-0.9945605,0.5214007,-0.50696605,0.1263684,0.5462384,0.2162081,-0.588376,0.3214575,-0.38587517]},{"bias":-0.332107,"weights":[0.5722983,-0.43734068,-0.8545065,0.6757333,0.3576492,-0.20874679,0.64844775,0.15917742,-0.56740063,-0.5485508,-0.56564635,-0.96230197,0.10549271,-0.22394359,0.86913586,0.9114857,0.2788602,0.7444868,-0.13030303,0.024076343,0.6169493,-0.21533835,0.51337934,-0.12113297,-0.033842683,0.6977229,0.745373,0.83633447,0.6774502,-0.2169429]},{"bias":-0.7926984,"weights":[0.9377456,-0.5456912,0.006947398,0.041731,0.46718204,0.024281144,-0.48428673,-0.19292271,-0.85063195,0.02433145,-0.29778308,0.83373284,0.8479111,-0.77280736,-0.59385604,-0.7559283,-0.88508534,0.30826938,0.99357295,-0.073762536,0.33958995,0.5444243,0.8580897,-0.05292046,-0.12255609,0.7736466,0.11343038,-0.90408635,-0.7201886,0.011112571]},{"bias":0.82497025,"weights":[-0.79787636,-0.9351518,-0.090895295,-0.7186074,-0.06323612,0.058149457,0.22077477,-0.40846962,0.118301034,0.99466014,0.904161,-0.054927707,0.3144654,0.80904865,0.8136976,-0.5647914,0.22577226,0.22072542,-0.89240646,0.83586645,0.80827594,0.789788,-0.105477214,-0.062576175,0.333789,0.99240327,-0.34912914,0.21784198,0.5550916,-0.25281352]},{"bias":0.25142586,"weights":[0.9911921,-0.9729135,-0.66844726,-0.5960826,-0.36941785,-0.22192395,-0.32418174,-0.44966644,-0.7005398,0.119593024,-0.90226245,-0.5799832,-0.38320607,0.47561586,0.17660296,-0.570831,0.16545641,-0.8578503,0.17159617,0.06764662,0.68566585,-0.89936185,-0.6005134,-0.42242473,0.09056914,0.8538585,-0.9835081,-0.48907632,0.1755706,0.2861582]},{"bias":-0.6476209,"weights":[-0.23116696,0.6828227,0.85236764,0.16628206,0.73682404,0.43677723,0.051983953,-0.11849964,0.48519218,0.38193595,0.21956384,0.099648595,-0.9440439,0.4585489,0.6093559,0.72715735,0.75885916,-0.44152445,0.92200875,0.7048743,0.5954597,-0.14997375,0.11037004,-0.13898599,0.15141976,0.93008995,0.3024801,0.45410287,-0.7125633,-0.9958961]},{"bias":-0.1744796,"weights":[0.64114714,-0.12538373,-0.69624805,0.86070514,0.37621605,-0.3769285,-0.5521006,-0.58907956,-0.914927,-0.13250244,0.6685562,0.06532514,0.015776515,0.21390045,0.41713464,-0.066936135,-0.843848,0.62264943,0.89899397,-0.17746842,-0.10637677,0.8008194,0.7743528,-0.45463365,-0.054112792,-0.6673696,-0.97311854,0.38964307,-0.98629665,0.38878667]},{"bias":0.5942135,"weights":[-0.8471091,-0.22644722,0.2736603,-0.12567985,0.14750087,-0.9820032,-0.8371079,0.713408,0.9092748,0.77229595,0.4641434,0.1210798,-0.49531192,0.25643075,0.24846852,-0.9722011,-0.7106085,0.625757,-0.53439134,-0.94167185,-0.8600702,-0.87748456,0.13202608,0.21788967,0.6352434,-0.7710564,-0.16260159,0.694221,0.5171969,0.8952563]},{"bias":0.71964526,"weights":[-0.6550319,0.023118615,-0.019195676,-0.03033793,0.62240314,-0.6646657,-0.21682656,0.46320832,-0.37428898,0.40559375,-0.83037853,0.75630856,-0.44400495,-0.020388246,0.09082568,-0.5685584,0.3224064,-0.5967743,0.8923359,0.053388715,0.74933815,-0.42304057,0.7174156,0.08649552,-0.89119625,0.32454073,0.27876222,0.8508804,0.8349695,0.90835357]},{"bias":-0.17554128,"weights":[-0.8025937,-0.6293037,-0.7509227,-0.7810309,0.87632227,-0.9365282,0.88342595,0.23766434,0.025782704,-0.33547968,-0.39349788,-0.5701491,-0.68950653,0.091308,-0.45971197,-0.016640782,0.0084735155,0.089733005,-0.92468643,-0.27295512,0.64237714,-0.7430513,0.10391796,0.9138949,-0.5916359,-0.7843199,-0.48098105,0.6355498,-0.85930157,0.1353687]}]},{"neurons":[{"bias":0.017641664,"weights":[-0.3529758,-0.080423474,0.39017427,0.9033117,0.5536623,-0.038736463,-0.0052496195,0.8665621,-0.44491118,0.9593165,-0.8725033,0.55043316,-0.2014817,-0.87412786,-0.84381866,0.58241725,0.54817486,-0.46471113,0.8810725,-0.7620952,-0.8232455,-0.6906841,-0.9146929,-0.76058364,-0.8128514,0.19057405,0.7927196,0.6658709,-0.97627807,0.24914467]}]}]}