{"layers":[{"neurons":[{"bias":-0.07506502,"weights":[0.8407552,0.497779,-0.031338573,-0.91308546,-0.03941524,-0.27064723,-0.89475083,0.44516027,0.16551626,-0.5708329,-0.039831996,0.9415343,0.42504704,-0.7432709,-0.7060032,-0.3198933,0.98667955,0.118520856,0.2972771,0.8032291,-0.12920368,0.25185096,0.9664538,-0.79919505,-0.646461,-0.75032663,0.9771645,-0.63150907,-0.7595229,-0.9362178]},{"bias":-0.28849834,"weights":[0.0057729483,-0.8040533,-0.09893453,0.617085,-0.31522983,0.6715789,0.19046867,-0.18532741,-0.26107353,0.7160139,0.9669845,-0.34192365,0.20948827,-0.07847679,-0.32136267,-0.6266794,0.80754447,0.60496235,0.4541341,0.6117029,-0.010573268,-0.6250441,0.24192774,-0.63888764,-0.22112,0.21586382,-0.6434512,-0.70727134,-0.37922782,-0.63410187]},{"bias":0.52666974,"weights":[0.30593956,0.027876496,0.6960573,0.7035885,-0.84078026,0.25566304,0.9494858,0.75162244,0.6394825,-0.17903554,-0.78195643,0.61199,-0.20989072,0.65774417,-0.6846678,0.07505047,0.080311656,0.8474307,0.6722255,-0.74146223,0.07129824,0.34825027,0.71271515,0.85546064,0.33932674,0.57488394,-0.8563502,0.78625894,-0.8151331,0.8547251]},{"bias":-0.98818874,"weights":[-0.11495268,-0.51128906,0.8383858,0.748672,-0.87750864,-0.7401881,0.77356577,-0.40705007,-0.6193387,0.07537663,-0.04368651,-0.2631809,-0.61057824,-0.13739002,-0.66929793,-0.4524266,0.586308,0.59234524,0.36240566,0.15606868,-0.9167247,-0.80283856,0.61409235,0.7387762,-0.8005779,0.016540885,0.65936065,-0.31271738,-0.662477,0.44076717]},{"bias":-0.094174266,"weights":[0.56796837,-0.20016396,0.20684588,0.9234643,0.07515919,0.7259333,0.7416518,0.24670613,-0.4463901,-0.370279,-0.57542676,0.63175225,0.6893499,0.19594014,0.06834328,0.7318611,0.6818242,0.17970431,0.43586457,-0.3728332,-0.3545441,0.7314522,0.795758,-0.36288303,-0.7270522,-0.8365419,-0.9490609,-0.6460278,-0.5128817,-0.20516074]},{"bias":-0.47432584,"weights":[-0.58818835,-0.28659934,-0.05464971,0.9917815,-0.9831548,-0.017890573,0.32784522,0.97871184,-0.6197085,0.8860893,-0.58137053,-0.6978283,0.0226928,0.12824714,-0.4474911,0.8162441,-0.5186426,0.08028829,0.080412745,0.53504276,-0.59971493,-0.5998487,-0.5801949,-0.75793743,0.050526023,0.7389097,-0.9607129,-0.33500785,0.06954372,-0.54163855]},{"bias":-0.5606703,"weights":[-0.27794594,0.10857499,0.6556432,0.9454217,-0.3482105,0.81782675,-0.49005598,0.7156811,-0.64809465,-0.3528306,-0.10986793,0.20139539,0.21990573,0.021553159,-0.3008775,-0.9674318,0.3420018,-0.04048097,-0.024707675,0.5198853,0.94809675,0.8128722,-0.6232092,0.17435229,0.07177937,0.88781714,0.6913357,0.9183552,0.38416994,0.78082347]},{"bias":-0.092360854,"weights":[0.63779926,0.7698765,0.52870893,0.3085314,-0.10588324,-0.88900447,0.9058769,-0.3669328,-0.88130283,0.33060706,0.4812938,-0.1827389,-0.5825564,-0.054628015,-0.8542268,0.14771879,-0.26371187,-0.85634375,0.32236922,0.5820415,-0.23890531,0.2556914,-0.07594955,-0.03252065,0.9953146,0.37477314,0.22498024,-0.6890056,-0.9768653,0.1748575]},{"bias":0.12792337,"weights":[0.04334581,-0.9755719,-0.94713616,0.28576386,0.19871342,-0.6057448,0.5558555,-0.27469724,-0.3525042,0.7754059,-0.6201257,-0.93450284,0.9238994,-0.54167575,0.7257409,0.49879062,-0.9829316,-0.56416386,0.07392633,0.47733653,-0.26788467,0.0859853,0.34800255,-0.9381988,-0.3262517,0.6700163,0.4372834,-0.47208685,0.75086975,0.86723423]},{"bias":-0.4624688,"weights":[-0.73904204,-0.20836914,-0.18055499,0.44314802,0.40923107,-0.643836,-0.0816201,-0.44909972,-0.66356206,-0.24165547,-0.66434646,0.96115685,0.5383611,0.74129534,-0.62595725,0.58633256,0.15938127,0.91405654,0.65853333,0.8908925,0.24222076,0.62231016,0.10556495,-0.70159054,0.20597279,0.35403383,-0.66911435,0.09036553,0.6967523,0.017421126]},{"bias":-0.93886924,"weights":[0.8919382,0.715708,-0.65384173,0.5850806,-0.6660416,-0.38943762,0.12876952,-0.41378182,-0.04510033,0.4460405,0.76905465,0.7304838,-0.29861206,-0.675936,-0.3856675,-0.46115083,-0.8729887,0.38678157,-0.6506026,-0.27507204,-0.9206457,0.30899203,-0.78275967,0.693557,-0.1804105,-0.5972304,-0.19338238,0.93032146,0.62529063,-0.9595475]},{"bias":0.69248295,"weights":[0.8470769,-0.17238033,0.54321885,0.52157664,0.005246997,-0.6225235,-0.92913604,-0.19582236,0.85639715,-0.053299546,0.34517896,-0.24183714,0.8543711,-0.45783728,0.2460047,0.08468139,-0.4828524,0.6549375,-0.72352743,-0.4400391,0.03091538,0.19259942,0.5115955,-0.679863,-0.96319556,0.79095435,0.849982,0.5961139,-0.79870176,0.99162793]},{"bias":-0.7110882,"weights":[0.09014499,0.049033523,0.028647065,-0.15406644,-0.6939945,0.03235948,-0.88969946,0.75353384,0.23505127,-0.031444907,0.6117375,-0.262937,0.41036832,0.18202198,-0.273719,-0.4126944,0.64954853,0.09544408,0.48401892,-0.6441493,-0.928504,0.10508382,-0.23279846,-0.61752576,-0.13714874,0.5141833,0.96230674,0.5075257,0.3238622,-0.1773876]},{"bias":-0.70412755,"weights":[-0.74135375,-0.2625212,-0.3404917,0.90770507,-0.7660384,-0.48651809,-0.2417103,-0.34725922,0.37920249,0.9836533,0.562551,-0.11716139,0.8958521,-0.030456662,-0.32552356,0.9786475,0.23127806,0.98215175,0.47309697,0.229236,-0.62712,0.76147985,-0.7414491,-0.41954035,0.5650325,0.31162488,0.35776007,0.7569897,-0.0360471,0.22286618]},{"bias":-0.16492736,"weights":[0.675601,-0.059153914,0.30148113,-0.16449654,0.11442077,-0.40601796,0.21966541,0.39640033,0.09999573,0.1660198,-0.7858305,-0.885061,0.08547437,0.04141009,-0.9906187,-0.5011861,-0.6610346,0.315673,-0.4425401,-0.5560519,-0.14623725,0.62408304,-0.8539939,-0.7615988,-0.9665303,0.9896207,0.4793192,-0.26700157,0.83735514,0.28287113]},{"bias":0.43720782,"weights":[0.19022405,0.34980118,0.55844927,-0.8741102,0.99817395,-0.73230577,-0.802706,-0.6276367,0.22810447,-0.5365357,-0.75930405,-0.24853432,-0.121840835,-0.8619356,-0.9188118,0.5276425,0.7782893,-0.33364576,-0.73736334,-0.9277563,-0.40455145,0.92256737,-0.31363052,0.98699594,-0.29144138,-0.47608703,0.5365975,-0.25441092,0.17843068,0.881541]},{"bias":-0.6717942,"weights":[0.8369374,-0.7989006,-0.93798685,0.9571719,-0.10880005,-0.50072736,0.910918,0.9650235,0.76686406,-0.45972174,-0.21222079,-0.46263903,0.13915145,0.053929448,0.104968905,-0.049597144,0.9814789,-0.2601046,0.4615711,-0.34863752,-0.6116714,-0.23751175,-0.799217,0.098415256,0.5201192,-0.32521623,0.82863116,0.43510258,0.465963,0.23362935]},{"bias":0.039986253,"weights":[0.8900368,0.26132905,0.09758365,0.80605984,0.11860955,-0.15652764,-0.30418032,0.6521945,0.69241095,-0.572133,-0.34789556,0.6372824,-0.7909682,0.7960572,0.1472143,0.11608565,0.183864,0.9338906,0.820709,-0.72057676,-0.97994757,0.3458494,0.879802,0.82767534,-0.040617585,-0.6948793,-0.14782178,-0.8876717,0.15450943,-0.45785254]},{"bias":0.118563294,"weights":[-0.9260261,-0.47582144,-0.52367824,-0.13512695,-0.6977408,-0.07635009,-0.2697646,0.8588221,-0.9766798,0.78148985,0.80493474,-0.73463964,-0.94722176,-0.063642144,-0.10386121,0.45816982,-0.31192082,0.8251419,0.69831514,-0.3776254,-0.12039244,-0.299241,-0.7355888,-0.6268027,0.48607194,0.35999525,0.280913,-0.8750346,0.61356616,-0.19437253]},{"bias":0.5671935,"weights":[0.8680053,-0.013038754,-0.73587704,0.42277372,-0.34215087,-0.8324423,-0.59507126,-0.45749515,0.12114823,0.7781551,-0.04129398,0.37585628,0.2865547,0.91502666,-0.08946097,0.50952816,0.86854434,-0.074056506,0.4027685,-0.41230792,-0.9082651,-0.018317103,0.13005388,0.91184044,0.48954427,-0.98540497,0.052190185,-0.56384987,0.9661372,0.31269014]},{"bias":-0.26971906,"weights":[-0.31641787,-0.21860492,-0.7737832,0.40921795,-0.81083393,-0.32122558,-0.52380365,-0.9228654,0.480924,-0.587207,0.37004673,-0.28325576,-0.8091159,0.92681646,-0.41586512,0.5833814,0.1678592,-0.28971308,-0.8985276,-0.1967665,0.06099665,0.9860554,-0.67738223,0.74898744,0.9278815,-0.4282841,-0.8081174,-0.10332239,-0.1278516,-0.014205098]},{"bias":0.18656433,"weights":[0.47651207,0.3737961,-0.51915663,0.60105205,-0.9043975,0.36585224,0.11414468,-0.60502046,-0.56740063,-0.306009,-0.7361262,0.16965926,0.7305434,0.3474549,0.86913586,0.9114857,-0.5914151,-0.056835532,0.97274375,-0.6475296,-0.059359193,-0.0363127,0.51337934,-0.7199354,-0.6527331,0.8805461,-0.20810592,0.83633447,-0.28791136,0.14219582]},{"bias":-0.06380427,"weights":[0.81901574,-0.86380076,0.8843005,0.108593106,0.12467039,0.15574396,-0.83331585,0.35030472,0.6609459,-0.22431815,-0.5932719,-0.5412261,-0.14259756,0.35551417,-0.7148943,0.5887146,0.3968011,-0.9238918,-0.57472295,-0.76291966,0.33958995,-0.14393651,-0.6172914,-0.074887395,0.48811448,0.97414565,0.11343038,0.46081388,-0.289118,0.12679946]},{"bias":0.065859675,"weights":[-0.83214617,-0.17925823,0.7044189,0.04976523,-0.06323612,-0.31054562,0.6238482,-0.9833672,-0.6921456,0.99466014,0.26622307,-0.8510287,-0.011951566,-0.04478085,0.9699321,0.31031716,-0.2071737,-0.9520707,0.64369273,0.13862503,-0.391416,0.65213513,-0.974658,0.3250922,-0.24621499,-0.85850596,-0.34912914,-0.82432985,-0.11133969,-0.9787302]},{"bias":0.73438334,"weights":[-0.76447845,0.38057077,-0.8888147,0.2519158,-0.5793943,0.95864654,0.3190986,0.98921084,0.43807662,0.81894326,0.8066895,-0.7932205,0.683867,0.47561586,-0.6732228,-0.17602599,0.4599315,-0.8578503,0.17159617,-0.9848969,-0.911077,0.99933124,-0.6005134,0.533546,-0.9967656,-0.45851797,0.12972796,0.96940565,-0.16839659,-0.3941025]},{"bias":-0.23896849,"weights":[-0.711117,-0.8600137,-0.5836956,0.92413545,0.7115691,0.008065581,0.81716585,-0.11849964,-0.4719929,0.33612716,-0.08099735,0.997159,0.64299226,-0.49402875,0.057329774,-0.8901746,-0.86178684,-0.18409097,-0.9139035,0.9992571,-0.67540956,0.40845025,0.8767035,0.006293416,0.9377017,0.58789825,0.07144177,0.94419885,-0.7125633,0.24904287]},{"bias":0.8320811,"weights":[0.64114714,-0.7871702,0.48418367,-0.27105373,-0.5037667,0.71243095,0.48909366,-0.39845294,0.5032065,-0.51460975,-0.5967273,-0.3747682,0.18388832,0.79354215,0.06823194,-0.12431276,-0.9951215,-0.10166824,0.9936819,-0.5529682,-0.39662522,0.42005026,-0.77392316,-0.9616747,-0.19710004,0.59586453,0.096704125,0.9417691,0.87376285,0.38878667]},{"bias":-0.3689236,"weights":[-0.23413384,-0.69256496,-0.43642014,-0.29893965,0.9442842,-0.15726912,0.31538737,-0.06403029,0.38891733,-0.88651586,-0.076367736,-0.8961067,-0.49531192,0.2025615,-0.01120317,0.5400667,-0.40707654,0.67932343,-0.8960974,-0.56177086,-0.092333674,-0.04022634,-0.42508167,-0.03239453,0.053352475,-0.045171857,0.43351352,0.5717182,-0.47559494,-0.47951168]},{"bias":0.71964526,"weights":[0.82258797,0.35590994,-0.83716846,0.6230397,-0.15553653,0.3564328,-0.21682656,-0.06651676,-0.37428898,-0.41594428,-0.20367801,0.6625643,-0.3012132,-0.020388246,-0.35078138,0.77980065,-0.09473908,0.8761463,0.7052877,-0.33654827,0.9148302,-0.13644326,0.76140404,0.40827382,-0.041630387,0.3306178,-0.42549485,-0.8550627,-0.17909873,-0.16424239]},{"bias":-0.46530575,"weights":[0.5908046,-0.00035488605,0.39260995,0.9228802,0.46262443,-0.7558589,-0.12931979,-0.560229,-0.20441711,-0.4870736,-0.99875546,-0.2683553,-0.28347987,-0.09501779,0.14356816,0.2343291,-0.5154893,0.19946682,-0.58543485,0.2759384,0.8378029,-0.009971499,0.10391796,0.48581493,0.62482095,-0.56447667,-0.82723427,0.6355498,-0.25011867,-0.5915815]}]},{"neurons":[{"bias":0.5427065,"weights":[0.691417,0.5099964,0.20103562,-0.61878055,0.98816776,-0.76166606,-0.06342304,-0.52815264,-0.9324262,-0.76103663,0.76113653,0.51118493,-0.23204648,-0.87412786,-0.54105943,0.58241725,-0.022008777,0.2941743,0.40383995,0.17150271,-0.4435684,0.23579895,-0.9146929,-0.6891115,-0.9409182,0.13801515,0.18171775,0.6658709,-0.33803982,0.12509549]}]}]}