{"layers":[{"neurons":[{"bias":-0.3192746,"weights":[-0.7192645,0.4910828,-0.6140503,0.9562175,0.86242723,-0.0424217,-0.55156726,0.06192863,-0.10725653,-0.643522,0.08722651,-0.76277256,0.05090344,0.6355827,0.5587485,-0.3198933,0.98667955,0.18069708,-0.8015969,0.40734303,-0.8980849,-0.85347414,0.6281016,-0.79919505,-0.8484473,-0.75032663,0.68535185,-0.89825153,-0.7595229,-0.259916]},{"bias":-0.42666858,"weights":[0.108460546,0.6691444,-0.7243655,0.8816612,0.50190496,0.8571794,-0.85875845,-0.18532741,-0.057283044,-0.14832866,0.67136526,0.42235863,-0.07994497,0.81863904,-0.30361885,0.48282158,-0.3428933,0.9518833,-0.33898157,0.7526016,-0.25202316,-0.94793177,0.743721,-0.63888764,-0.73740244,-0.026188254,-0.46589392,-0.67388153,0.31595027,-0.63410187]},{"bias":0.52666974,"weights":[-0.7254391,-0.30144876,0.6960573,-0.6324799,0.33914912,0.8223212,-0.62288326,0.75162244,-0.5062172,0.49369657,-0.40103263,-0.21745503,-0.19379532,-0.3462848,-0.45173162,0.27974975,-0.6415889,0.85628533,-0.4721822,0.44816196,-0.2575156,0.34825027,-0.7643628,-0.813421,-0.880177,-0.0975157,-0.8563502,-0.18789089,0.3366865,-0.10328972]},{"bias":0.5633776,"weights":[0.9157295,-0.9840975,0.7267535,-0.5625593,0.38735735,-0.7401881,0.77356577,-0.40705007,0.2416209,0.060331225,-0.8415754,0.38586462,0.1389941,-0.13739002,-0.645175,-0.32100576,-0.37881082,-0.79145,0.8861778,-0.9392929,-0.29391283,0.97602963,0.61409235,0.7387762,-0.6767535,-0.45388383,0.65936065,-0.31271738,0.081621766,-0.060453773]},{"bias":0.9756985,"weights":[-0.13733065,-0.7468896,0.20684588,0.7510147,0.49997985,-0.83186436,0.39950192,0.24104202,0.741369,0.28506625,-0.57542676,0.023863196,0.15710247,0.2890278,0.7568352,-0.31527275,0.13004148,0.64854383,0.58926296,-0.346492,-0.16922557,-0.56184024,0.7814071,-0.416161,0.44771087,-0.058845162,0.18811953,0.5593965,-0.42119044,0.8905854]},{"bias":-0.89661694,"weights":[0.28025854,-0.2741167,-0.18932402,-0.598319,-0.21369731,-0.91655755,0.2309922,0.97871184,0.83317256,-0.4660508,-0.58137053,-0.49934477,0.2978133,0.023655295,0.53719807,0.6508534,0.8185935,-0.3521542,0.62137556,-0.2031411,0.9748306,-0.23461282,0.49571407,0.24784887,0.050526023,0.7116575,0.26554477,0.3451935,-0.06537998,-0.464899]},{"bias":-0.7880573,"weights":[0.3284372,-0.06717789,-0.49046987,-0.3776273,-0.081252694,0.8190212,0.49276507,-0.6641371,-0.3640167,0.68733644,0.5956814,-0.52772015,0.9091821,-0.35205787,-0.3008775,-0.9674318,-0.2621705,-0.8284755,-0.024707675,-0.72514224,0.94809675,0.77643704,-0.6232092,0.17435229,0.34113348,-0.82339406,-0.3242349,0.08648884,0.9435575,-0.71081114]},{"bias":-0.32268423,"weights":[-0.050273776,-0.9486661,0.75936484,-0.99836755,-0.091371655,0.36853945,-0.55125684,-0.31505817,-0.42963356,0.33060706,-0.18488157,-0.68986773,0.9060931,0.06338298,-0.270379,-0.57403034,0.4150952,-0.85634375,-0.8264835,0.3313781,0.6017959,0.4706477,-0.7761147,0.46722925,0.9953146,-0.7667935,0.22498024,0.69710803,0.17315543,0.65986776]},{"bias":0.12792337,"weights":[-0.22241795,-0.67174053,0.51687646,0.5188668,0.26666677,0.9294379,0.5558555,-0.97691107,-0.3525042,0.45798314,-0.272098,-0.11796725,0.051969886,0.1855551,0.7184329,-0.69643736,0.5824094,0.9808445,0.14012873,-0.0420264,-0.21315897,0.25466478,-0.20864522,-0.15192306,0.76363945,0.124403834,-0.49878734,-0.25280613,0.6294086,-0.6529763]},{"bias":-0.20391476,"weights":[-0.66150117,0.9040587,-0.5216457,0.7836981,-0.19883406,0.52796173,0.14600956,0.38238776,-0.53938526,-0.6130714,0.9201207,0.115012765,0.11064875,0.5977297,-0.15827286,-0.9644377,0.9307294,0.91405654,-0.9000125,-0.1615721,0.51330733,-0.021997094,-0.07777488,-0.46471232,0.20597279,0.5770838,-0.66911435,-0.10274041,-0.7726259,0.81293416]},{"bias":-0.6885817,"weights":[0.8919382,0.8445556,-0.40878028,-0.32077664,0.47965348,-0.28080624,0.35491574,-0.41378182,0.17503583,0.13674557,-0.0092173815,-0.611772,0.38416636,0.08618772,-0.44737452,-0.46115083,-0.8729887,-0.6808839,0.002447009,-0.093069434,-0.9206457,-0.8547702,-0.8860991,-0.23799694,0.18703234,-0.68803453,0.21214402,-0.8484304,0.9320388,-0.78226423]},{"bias":-0.5370845,"weights":[0.54529214,0.7438731,0.01723826,-0.19728124,-0.25743884,-0.67940927,0.53212905,-0.81406045,-0.32309598,-0.053299546,-0.024896264,0.7871702,-0.5047259,-0.98150396,0.7036507,0.08468139,-0.042100787,0.520792,-0.056607127,-0.13602984,-0.38858742,0.9995134,0.2653426,0.86814237,0.3163463,0.79095435,0.6703048,-0.41909045,0.049085975,0.21399796]},{"bias":-0.8808863,"weights":[0.6816869,0.111893296,0.13645232,-0.7550647,-0.53742164,0.6339562,0.72357106,0.75353384,-0.9426143,-0.4861905,0.6117375,0.91391516,-0.2464577,0.49173963,0.0931586,-0.8592353,-0.3396203,0.6902425,-0.80104375,-0.87721777,-0.23906577,-0.8445549,-0.06270325,-0.13730514,0.26964915,-0.45397753,0.5148885,-0.52604717,0.3238622,-0.1773876]},{"bias":0.30275404,"weights":[-0.2639205,0.42073786,0.84283066,0.24627054,-0.7660384,0.9303286,-0.13567293,-0.813427,0.37920249,0.9836533,0.1633755,-0.54885834,-0.7034266,0.21348298,-0.07076752,0.08335817,0.25181878,0.4434284,0.5714321,0.064704776,0.7956431,0.7409136,-0.44719547,0.79955673,-0.15013444,0.60410666,0.976887,-0.0060089827,-0.0360471,0.22286618]},{"bias":0.7454407,"weights":[0.47955954,-0.19045842,-0.41608685,-0.13825881,0.54786277,-0.40601796,0.25561988,0.92706394,0.54962754,0.4879018,-0.6773329,-0.9038615,-0.60932153,0.79055166,0.52368116,-0.87906957,-0.03809774,0.29544508,-0.54818195,0.9740062,-0.2248069,0.62408304,-0.7676022,0.7236674,0.43811762,-0.17983377,-0.52477306,0.7589383,0.83735514,0.7885926]},{"bias":0.9471874,"weights":[-0.7439718,0.2428788,0.1432656,0.9489567,0.77295613,0.31127465,-0.6260245,0.34223783,-0.0700444,0.14268601,-0.023495317,0.124932885,-0.0039867163,-0.70362854,0.59718776,-0.29998416,0.9927826,-0.5024175,0.16272867,-0.9277563,0.5157583,0.3292557,-0.31363052,-0.04132092,-0.22181332,-0.47608703,0.5365975,0.48210323,0.56058455,-0.112413764]},{"bias":-0.6717942,"weights":[0.3636371,0.60757995,0.91989017,0.9571719,0.6499646,0.06124699,-0.34379214,-0.04811895,0.76686406,-0.45972174,-0.6864748,0.29781473,0.31516135,0.053929448,-0.35954875,0.6892276,0.9814789,0.047447324,-0.3225984,-0.5292124,0.6231692,-0.9743519,0.18148124,0.8120992,-0.2072779,0.066594005,0.82863116,0.31025398,-0.46293396,0.071487784]},{"bias":0.039986253,"weights":[0.8900368,-0.1418699,-0.25023025,-0.99499226,-0.024230123,-0.123666644,0.62924933,0.15360725,-0.38079947,0.7336674,-0.41278785,0.44128907,-0.79963446,-0.7129843,-0.9470227,0.7824402,0.183864,0.9572995,0.34734714,-0.72057676,0.23902428,0.71841764,-0.1594752,-0.4393801,0.117948174,0.86098766,-0.63089657,-0.80904245,0.53674173,0.55871534]},{"bias":-0.66275215,"weights":[-0.79695344,-0.47582144,-0.67213273,0.9643419,0.24888337,-0.44073647,0.40459454,0.57318187,-0.9766798,-0.008057475,0.83122253,0.26290572,-0.70442915,0.27743256,0.9778099,-0.06578767,0.5216129,0.27507675,0.3702072,-0.32684916,-0.4815833,0.8751273,-0.7355888,-0.61264724,-0.92659307,0.24235475,-0.5097813,-0.4260897,0.102360845,0.9847398]},{"bias":0.7717378,"weights":[-0.6468494,0.05520141,-0.73587704,0.4311186,0.17363417,-0.39558262,0.18701875,-0.4025976,-0.14210212,0.9991312,0.9307587,-0.79028106,-0.5075974,0.37780225,-0.7029791,-0.4077279,0.5352709,0.6112213,0.096298814,-0.029739976,-0.58758324,-0.018317103,0.9933431,0.19531286,0.91863155,0.6566715,-0.32815856,0.9428766,0.7930467,-0.057916045]},{"bias":-0.39268392,"weights":[-0.31641787,0.7426989,-0.67133427,0.40921795,-0.024134278,0.49898565,0.637007,0.1864332,-0.8779733,0.42039168,-0.428034,0.3432337,0.25700533,0.014542699,0.14058793,0.9692521,-0.2882139,0.44183552,0.40112984,0.9088011,-0.5891716,-0.4869339,-0.16318929,-0.67984295,0.9973178,-0.07078707,-0.5099947,-0.53339094,-0.3734886,0.022389531]},{"bias":0.21744835,"weights":[-0.7176428,0.3737961,-0.083694816,0.13713014,-0.72966623,0.83957696,-0.0016251802,0.79390216,0.7085242,0.63501406,0.6515682,0.7050421,-0.4284851,-0.05002439,-0.99271965,0.92188287,0.7031524,-0.7472348,-0.20639026,0.5410197,-0.1714629,0.08020818,-0.6273961,-0.5314686,-0.7379439,-0.7585864,-0.20810592,0.32958257,0.96768355,0.032397628]},{"bias":0.58351874,"weights":[-0.6234581,0.5437031,0.291381,-0.75389695,-0.83935785,0.7439318,-0.83883715,0.4834813,0.13143933,0.95360994,0.8142736,-0.6578455,-0.4374196,0.46441615,0.44378817,-0.5422928,-0.34078783,0.12305534,-0.57472295,-0.08414018,0.3488921,-0.29510587,0.96365404,-0.074887395,0.13637698,-0.25807852,-0.30329984,0.43223107,0.11498463,0.017687678]},{"bias":0.6091955,"weights":[0.17150962,0.8324516,0.5115659,0.04976523,-0.2644679,0.47506583,-0.36294025,-0.01609099,-0.0120049715,-0.45173806,-0.49215907,0.25634778,0.012435079,-0.38740367,0.26634562,0.34089172,-0.012049794,-0.9520707,0.788918,-0.63520336,0.5773642,0.8756225,-0.08621442,0.3250922,0.8590462,-0.85850596,0.48258936,-0.25767463,0.8575947,0.5170777]},{"bias":0.73438334,"weights":[-0.8230746,0.4013654,-0.69334865,-0.85042906,-0.86987567,-0.34655803,-0.8896661,0.98921084,0.030776143,0.22798574,0.9400306,0.024791598,-0.20668519,0.14622295,-0.3542015,0.09322345,0.4599315,-0.6838753,0.59896016,-0.91874623,0.9920585,0.834537,0.6181698,-0.37835687,-0.86471987,0.149171,0.34270084,-0.068648696,-0.98896813,-0.3941025]},{"bias":-0.055117965,"weights":[-0.7627065,-0.8600137,0.48320448,0.6950264,-0.0017668009,-0.5059716,0.10816324,0.061722875,0.17345536,-0.78767014,-0.58142275,0.997159,-0.28936356,-0.28118604,-0.3817746,0.574558,0.7645266,0.8676212,-0.5691251,0.9992571,0.26638854,-0.06129706,0.48158348,0.74123216,-0.9935596,0.6158314,0.07144177,0.94419885,-0.010816693,-0.4648375]},{"bias":0.04055631,"weights":[0.6018777,-0.7871702,-0.5190832,-0.5916814,0.88066626,-0.5377118,0.48924506,-0.7736833,-0.23381436,-0.40726846,-0.5967273,0.23983395,0.6045921,-0.88032794,0.025765061,-0.12431276,-0.9951215,-0.26952285,-0.47278827,-0.3113634,0.48041213,-0.0670563,0.53233767,0.31666148,-0.60995597,-0.8107872,0.096704125,0.5672264,0.9970231,0.5325258]},{"bias":-0.38053364,"weights":[-0.23413384,-0.5632853,-0.8109355,-0.6771867,0.4251696,-0.15726912,0.1962856,0.26886117,-0.77596736,0.52502847,0.57168746,-0.8961067,-0.929482,0.24160945,0.118454814,0.5400667,-0.9328606,-0.077881455,0.21763933,0.7595446,-0.15066516,-0.65524673,-0.7447872,0.79740953,0.7717464,-0.35915798,-0.68248844,-0.8910234,-0.91574955,-0.44570893]},{"bias":-0.8915622,"weights":[0.64547586,-0.89582896,0.5131357,-0.016011357,-0.4118139,-0.8114197,0.66098,0.734452,0.97393775,-0.9508505,0.82688594,0.9103675,0.6645694,0.5366206,-0.80764246,0.39448035,-0.09473908,-0.62020797,-0.47876877,-0.33654827,0.6212826,-0.13644326,0.43124592,0.40827382,-0.2803449,-0.35977358,-0.2759878,-0.007729411,-0.017902017,-0.16424239]},{"bias":0.18719947,"weights":[0.5977888,-0.00035488605,-0.032992005,-0.3640284,-0.61352366,0.14511168,0.04645312,-0.45442194,0.28100693,-0.2267915,-0.3787281,-0.9003074,0.1144613,0.48045528,0.7207577,-0.83958817,0.9462669,0.19946682,-0.6048965,-0.31942052,-0.41509598,-0.056690097,0.25172102,-0.95579505,0.62140894,0.39841163,0.75328875,-0.64961004,0.5116925,-0.52830523]}]},{"neurons":[{"bias":0.5517752,"weights":[0.9543576,-0.87913847,-0.6674149,0.7401869,0.98816776,-0.7329006,0.7235911,-0.37207526,0.6693673,0.6190095,0.76113653,0.21029913,0.5085039,-0.16725314,-0.09650481,0.5764556,0.11420071,-0.3707003,0.34322155,-0.14275992,0.6109314,0.3706857,-0.17037833,-0.85750914,-0.1513654,-0.21762192,-0.99119735,-0.23756397,-0.37613505,0.3376218]}]}]}