{"layers":[{"neurons":[{"bias":-0.33167595,"weights":[-0.9359164,0.964067,-0.8553541,0.7100594,-0.19754612,0.6628926,-0.20149648,-0.78520966,-0.3625328,-0.726897,-0.8333349,0.28613126,-0.7590296,0.6355827,0.56074524,-0.3198933,-0.3572783,-0.030274272,-0.9137573,0.57799697,0.97241926,0.6889584,-0.63389707,0.075630784,-0.8484473,-0.1874069,0.30629623,0.6898608,-0.31596893,-0.92543507]},{"bias":-0.42666858,"weights":[0.77363825,0.0024672747,0.18951118,0.37343204,-0.39558667,0.13906491,0.040098786,0.45654666,-0.7205832,-0.6250529,-0.27815145,-0.9930537,-0.5550577,-0.468162,-0.044195294,0.0038648844,-0.56674546,-0.23311222,-0.3466398,0.19582307,-0.7261925,0.051217675,-0.093945146,-0.63888764,-0.33064288,-0.7447419,0.7293124,-0.036592603,-0.63907886,0.94531655]},{"bias":-0.35679072,"weights":[0.36220682,0.38383925,0.6960573,-0.6324799,0.40887058,0.11352575,-0.62288326,0.75162244,-0.28899473,-0.529993,-0.67738247,0.086705565,0.34191453,0.48114097,0.2516979,-0.5813963,-0.10270488,-0.95125866,0.27789867,-0.05887854,-0.56845444,0.8289733,0.3538872,0.7636452,-0.880177,0.6749475,-0.28449482,-0.4207031,-0.2670595,0.5077987]},{"bias":-0.852654,"weights":[-0.4796595,-0.5611896,0.49575198,-0.5625593,0.22412288,0.7071185,-0.17603266,-0.97922206,0.846056,0.91688967,-0.8415754,0.38586462,0.9623811,-0.19831645,-0.37785834,0.9070883,-0.70487285,0.24997556,0.96601534,-0.91886353,-0.072334886,0.97602963,-0.948447,0.7387762,-0.52409667,0.40525758,0.3761047,-0.13163722,0.9506657,0.9256022]},{"bias":0.8725169,"weights":[0.78650236,0.26831257,0.9184079,-0.6084668,0.08269107,0.8335645,0.64091635,-0.6919658,0.4164008,0.5541928,-0.8787527,-0.04427111,0.37350214,0.93699074,-0.50303644,-0.5580148,-0.047106147,0.64854383,-0.24910057,-0.9630978,0.88648796,-0.17425144,0.7814071,-0.0061358213,-0.9133482,-0.770591,-0.03482926,0.13023436,0.18192708,0.7621105]},{"bias":-0.09599745,"weights":[0.20946848,-0.2741167,-0.52934474,0.8336189,-0.66414165,0.9153993,0.5669539,-0.74157524,-0.13888395,-0.82111907,0.95148134,-0.0006505251,0.2978133,0.059796453,0.5358548,0.6508534,-0.27844876,-0.9381945,0.9582701,0.7733009,0.025983453,0.09051788,0.89465404,0.98680496,0.050526023,-0.2974047,0.26554477,-0.0052312613,-0.06537998,-0.464899]},{"bias":-0.88955927,"weights":[0.9059186,-0.15129125,-0.93344545,-0.29168147,-0.71754813,0.12455213,0.5677662,-0.6932769,0.6957376,-0.7564409,0.3186897,0.2808286,0.16559899,0.08228719,0.38797128,-0.025991559,-0.29945487,0.106600404,-0.50631064,0.95083356,-0.3722586,-0.22889745,-0.30532187,-0.34965223,-0.6874664,-0.9676218,-0.70382977,0.08648884,-0.33868998,0.1560973]},{"bias":0.27752197,"weights":[-0.020552516,-0.7450559,0.8965099,0.41062653,-0.8220005,0.36853945,-0.3588497,-0.6383786,-0.88883185,0.26202762,-0.35819715,-0.0671078,0.9060931,0.78117657,-0.06249869,-0.7100432,0.97602177,-0.746027,0.23878157,0.54294276,-0.07451427,0.595618,0.33030784,0.46722925,-0.97046137,-0.8084843,0.046130776,0.2498604,0.17315543,0.38863194]},{"bias":-0.022901893,"weights":[-0.7646327,-0.29026765,0.5998266,-0.35951942,0.7337005,0.63510084,0.6823385,-0.15791118,-0.5494513,0.7558305,0.29462683,0.05344951,0.3218683,0.1855551,-0.6334808,0.4592644,0.049654365,0.9808445,-0.88079596,-0.10172331,-0.21315897,-0.063646436,-0.7877748,-0.80228853,0.3552822,0.7220166,-0.69976974,0.23982108,-0.9937575,-0.8905668]},{"bias":0.7233181,"weights":[0.8757751,0.029618382,-0.5370166,-0.17463243,0.19689548,-0.40455002,-0.48115176,-0.7632053,0.27089393,0.87339735,0.52264357,0.6593511,0.19312799,-0.42196625,-0.34920925,-0.7307668,-0.49616355,0.92240214,0.54550433,0.0945636,0.4203719,0.64073634,0.8557303,-0.2187339,-0.2738616,-0.21704853,0.6311245,-0.34748667,0.94996214,-0.61048836]},{"bias":-0.79710126,"weights":[0.68332195,0.8445556,0.050119042,-0.32077664,-0.14912641,-0.95840406,0.9207432,-0.525413,0.17808926,0.13674557,0.63031316,-0.7938223,0.41365016,-0.46348614,-0.85142636,0.006760478,0.79226613,-0.6808839,0.002447009,-0.17863,-0.4339592,0.87108016,0.2742623,0.73021674,-0.18448651,-0.8475735,-0.60383433,0.37910187,0.782104,-0.009740233]},{"bias":-0.16747487,"weights":[0.9854517,0.81097627,0.01723826,0.48936737,-0.25743884,0.6197946,0.07809365,0.3724295,0.6827872,-0.33051676,0.5600531,0.18599784,-0.17032015,-0.033492923,-0.021867156,-0.6569526,0.012367129,-0.85094976,0.5365014,0.9305701,-0.88998795,-0.21332633,-0.8720546,-0.8239398,0.10569537,0.79095435,0.55613256,-0.9471133,-0.7939465,-0.060138106]},{"bias":0.63586617,"weights":[0.6816869,0.4428829,0.69195056,0.9235449,-0.53742164,0.6339562,0.8390546,-0.41133565,-0.99607396,0.5835917,0.42006838,0.7288525,-0.053890347,0.80287313,-0.07525003,0.9529662,-0.3396203,0.95952797,-0.80104375,0.072389245,-0.72339535,0.24543059,-0.44947046,0.23942697,0.57581997,0.09548867,-0.021166205,-0.8153796,0.23625052,-0.0052713156]},{"bias":-0.8510518,"weights":[-0.00086939335,0.39669096,0.85705996,0.24627054,-0.6173462,0.8794329,0.029238343,-0.87206864,0.1871413,0.48599184,0.30643618,0.77965117,0.74225855,-0.55882496,-0.07076752,0.5195713,-0.12455881,-0.48106784,0.33464372,-0.563857,0.07663286,-0.24085152,-0.75621915,0.6391802,-0.15013444,-0.19085228,0.49103057,-0.4106943,-0.9110019,0.8630116]},{"bias":0.46083748,"weights":[0.77212405,0.82429934,0.56486535,0.3535124,0.54786277,-0.014067769,-0.8384342,-0.37221712,-0.51992005,0.4879018,-0.78113174,0.5553441,-0.48870915,0.23195207,-0.5053014,0.16726887,-0.6739762,-0.16993392,0.40239704,0.8283353,-0.5595469,0.64694595,0.102237344,0.029389024,-0.7779441,0.07092655,0.8742268,-0.8637214,0.9434254,0.63144875]},{"bias":0.9471874,"weights":[-0.40749305,0.12250388,0.10853183,0.42314947,-0.14256728,-0.76852155,0.09724748,0.577847,-0.23378122,-0.50969905,0.25072372,0.7741201,0.80640626,-0.71857095,-0.97740555,0.9200959,0.3544978,0.95999384,-0.9032197,0.7130985,0.17301619,0.20537841,-0.91100264,0.8938308,0.033952594,-0.9292176,-0.56095475,-0.7152717,0.9354038,-0.112413764]},{"bias":-0.3630132,"weights":[0.6349406,-0.26870912,0.11598194,0.15306199,-0.7935097,-0.6756766,0.65547395,-0.0014377832,-0.5785238,-0.090794206,-0.9360945,0.7433405,0.9369006,-0.14033282,0.5683534,0.6892276,0.04532492,-0.5339226,0.10419142,-0.7489569,-0.5156595,-0.051672816,0.707968,0.54224443,0.63187146,-0.7155175,0.03381288,-0.22072017,-0.42807692,-0.5383081]},{"bias":-0.08379829,"weights":[-0.081023574,-0.23923409,-0.95281863,-0.66390705,0.5007787,-0.123666644,0.70074296,-0.09877503,-0.10144365,0.9373822,-0.28333157,-0.015583634,0.69641423,0.7008121,-0.46938008,0.25615847,0.183864,-0.07689965,0.26748264,-0.06902969,-0.30872387,-0.24504149,-0.64763045,0.37806857,-0.9109347,-0.6559913,-0.29316562,-0.70552564,0.53674173,0.07636058]},{"bias":0.65072155,"weights":[0.24114478,-0.45197648,-0.33225673,-0.6307697,-0.53267735,-0.33551162,0.69813824,0.60019135,0.49655116,0.28711092,-0.041645408,0.2388736,0.87311316,-0.7742624,-0.9243562,-0.47422165,0.28099144,0.15821326,-0.64407325,-0.20961797,0.83306503,0.8751273,-0.38198775,-0.3974132,-0.6019098,-0.9844272,-0.61255664,0.22430885,0.102360845,-0.33915728]},{"bias":0.98073673,"weights":[-0.87102985,0.86647105,-0.24873412,-0.82135844,0.70417714,-0.8410144,-0.38948435,0.7494304,-0.9324577,0.19009244,-0.34845346,-0.9806638,-0.5075974,0.34450758,-0.71472406,-0.16271985,0.6484692,0.6112213,0.14056122,0.56160665,-0.9835613,-0.17343295,-0.37355942,-0.065072894,0.67029953,-0.5506012,-0.3475241,0.94281554,0.041083932,-0.04822862]},{"bias":-0.011093497,"weights":[-0.9425771,-0.52167124,0.7644315,-0.49510854,-0.024134278,-0.18169749,0.095196605,0.8267107,0.8319917,0.42039168,-0.19026744,-0.8281934,0.7858703,-0.7838285,0.17560875,0.6864927,-0.79408526,0.95287275,0.768703,-0.22115576,-0.54064673,-0.4869339,-0.7619066,-0.67984295,-0.83470464,-0.07078707,-0.5099947,0.79967,-0.3734886,0.34604657]},{"bias":-0.7345073,"weights":[0.5069859,0.37199342,0.97022915,-0.8073306,-0.72966623,-0.19203866,-0.0016251802,0.6952114,0.5592878,0.7997155,-0.860749,0.770694,-0.34742707,-0.5191876,0.30552137,0.041526437,-0.77286935,0.17899787,-0.8279805,0.19380438,-0.1714629,0.4444977,-0.43195003,0.1424805,0.06851876,0.41229188,-0.20810592,-0.60607547,-0.7414448,-0.5080063]},{"bias":-0.096806645,"weights":[-0.39539832,-0.237934,-0.25158423,0.4746269,-0.64366865,-0.14002907,0.65121436,-0.9105549,0.9262967,-0.14126742,-0.44473785,-0.6578455,0.0123595,-0.49631637,-0.56759113,-0.122820735,0.9666517,0.9566982,0.74676514,0.7085972,0.42602432,-0.37539762,-0.70057654,0.7132561,0.13743627,-0.25807852,0.7701063,-0.70743513,0.09428704,-0.19247639]},{"bias":-0.3749811,"weights":[-0.11940968,0.2806779,0.5115659,0.73930407,-0.6987102,-0.65816784,0.30624115,-0.01609099,-0.16580284,0.10237777,0.6964791,-0.0056284666,-0.09532893,-0.57951015,-0.83923674,-0.8074391,0.4446057,-0.8405521,0.97948,-0.77769566,0.37889373,-0.8872802,-0.3414206,0.011131406,-0.52634186,-0.5118837,0.48258936,-0.02519381,0.8667934,-0.026727557]},{"bias":0.56020856,"weights":[0.3163556,0.43650806,-0.19697392,-0.29007214,0.42738473,-0.48617572,-0.6635189,-0.18972623,0.030776143,0.46985304,-0.17740905,-0.3212728,-0.9296284,-0.5761625,-0.3542015,-0.017796397,0.73962855,-0.5209746,0.59896016,-0.60854,0.35297167,-0.26324767,-0.87440395,0.9560826,-0.25175995,0.8981991,-0.50284284,-0.14977205,-0.51939243,0.15372074]},{"bias":0.56079555,"weights":[-0.7627065,-0.8600137,0.9662218,-0.9476173,-0.26624316,-0.5059716,0.908463,-0.86676574,-0.85699105,-0.97189665,-0.901124,0.48115957,0.28713715,0.24082768,0.033945203,0.6727259,-0.5440895,-0.1528846,0.100630164,-0.09720075,-0.7564709,-0.06129706,0.25920093,0.3194486,-0.9935596,0.07471883,-0.35346955,0.17022598,-0.010816693,0.32914412]},{"bias":-0.29202002,"weights":[-0.78707504,-0.31201333,0.9725497,0.5249193,0.69730306,-0.90149784,0.84923196,-0.30098718,0.8043511,-0.88189006,0.2870003,0.4482733,0.38638747,-0.6635859,0.04614103,-0.55058545,-0.9167397,-0.8708098,0.6224644,-0.26641577,0.5353761,-0.7119963,-0.53096336,0.09459889,-0.6040959,0.74268126,0.8503008,-0.13810503,-0.20607364,-0.6762078]},{"bias":0.93456984,"weights":[0.015018821,-0.5632853,0.09561288,0.2986058,0.08632171,-0.3884291,-0.4205019,-0.9197316,-0.043780446,0.2308482,-0.42874902,-0.36507982,-0.96038246,-0.037091613,-0.83139896,-0.06406391,-0.2030195,-0.21057451,0.44280183,0.52248883,-0.8723419,0.94991636,0.0050970316,-0.29581445,-0.17503202,-0.17398965,-0.33040303,0.6907475,-0.051318765,0.14041841]},{"bias":0.5711732,"weights":[-0.040835977,0.9253969,-0.1417464,0.29841363,-0.21964777,-0.1214968,0.4970113,-0.7381308,0.35897768,-0.85664463,-0.1733743,0.1329912,-0.3822078,-0.50976175,0.9261844,0.68160105,-0.8857126,-0.7185652,-0.0015741587,-0.49096793,-0.75807977,0.7014973,0.8574598,0.29394615,-0.2803449,0.021779418,-0.13623512,-0.27500838,-0.78142333,-0.6132783]},{"bias":0.5482912,"weights":[-0.53815407,0.37412512,-0.68085337,-0.19792998,-0.38822502,-0.53327745,0.8757205,0.15553844,0.28410017,0.5052104,0.0034102201,-0.9003074,-0.44634145,-0.5774109,0.30839574,-0.23856628,0.9020834,0.15587604,0.2912258,0.34713113,0.78300714,-0.75914645,0.3987285,-0.57917684,0.91734815,0.70754147,0.38565552,0.43166125,-0.60529464,-0.52830523]}]},{"neurons":[{"bias":0.9190078,"weights":[0.9198086,0.7125819,-0.2628774,-0.70201087,0.98816776,0.121174455,-0.2625031,0.7431531,-0.5218968,-0.61671823,0.576221,0.36141384,0.94076777,0.2383219,-0.85382724,0.4819268,0.6411221,-0.3517322,0.9834199,-0.9720206,0.9692862,0.6657202,0.65562654,-0.6630299,0.31163776,0.76508856,0.35732615,-0.35402292,-0.37613505,-0.4888453]}]}]}