{"layers":[{"neurons":[{"bias":-0.65614676,"weights":[-0.011668563,-0.6569662,0.97801685,0.8938558,-0.028532147,-0.6437044,0.9725795,-0.78520966,0.3076161,-0.71008635,0.32382762,-0.026551843,-0.15105784,-0.8581271,-0.28612012,-0.3198933,-0.69210744,0.8158939,-0.9137573,0.1645912,0.97241926,-0.8276932,-0.64277935,0.96480465,0.003221631,-0.57891387,0.30629623,-0.1955005,0.24350536,-0.70210505]},{"bias":-0.3774528,"weights":[0.6364989,-0.18458736,0.098581195,0.3262769,0.63435054,0.13906491,-0.5038287,0.18697965,-0.2081989,0.67113066,-0.27815145,-0.07696569,0.37113965,-0.6278026,-0.044195294,-0.86769104,0.5568428,-0.16128957,0.32492912,0.19582307,-0.111088395,-0.524146,0.3406402,-0.6349466,0.46936095,-0.7447419,0.7293124,-0.0664531,-0.25173396,0.94531655]},{"bias":-0.35679072,"weights":[0.36220682,0.9253197,-0.10471237,-0.08598125,-0.016065478,0.26865685,0.69912386,-0.57735723,0.3604673,0.16650856,-0.20138705,0.29548872,0.9551022,-0.3140034,0.15189683,0.13649428,-0.6068639,0.9089565,-0.88328123,-0.05887854,-0.3334338,-0.9216225,0.11765802,0.22808611,0.9501085,-0.5538263,-0.5956959,0.46368015,-0.6693609,0.11856449]},{"bias":0.24397552,"weights":[0.8956828,0.7630274,-0.6313045,0.09849799,0.22412288,0.912025,0.1982354,-0.5283918,0.2208575,0.93708205,0.70364666,-0.3053133,0.65266275,0.66281366,-0.46087617,0.4243809,-0.38672584,-0.44800037,0.17838013,0.5567157,-0.37559193,0.3806249,-0.5236799,0.35911977,0.64492726,0.08309662,-0.01285398,-0.07706702,0.32534802,0.9256022]},{"bias":0.53850746,"weights":[0.65974545,0.54140306,0.42794,-0.3267979,0.08269107,-0.11697447,-0.41639632,0.9329474,0.7577996,0.019751906,-0.75323176,0.014778972,-0.9021771,0.93699074,-0.54049176,0.51520586,-0.25011295,0.25509775,0.27637374,0.19610345,0.88648796,-0.54606146,0.7814071,-0.37391156,-0.9991138,0.8434,-0.21625555,0.21416843,-0.83089566,-0.6175079]},{"bias":-0.5487897,"weights":[0.018153548,-0.01922834,-0.55229133,0.18862212,-0.5450739,-0.94585705,-0.19960487,-0.886425,0.28213608,-0.82111907,0.34592378,-0.77024674,-0.8861978,0.611779,0.62142277,0.6508534,0.24151409,-0.75858593,0.24677455,-0.6342015,0.32626688,-0.3285517,0.6437392,0.98680496,-0.057523847,-0.76363134,-0.004630208,-0.28641433,-0.49640793,-0.96146727]},{"bias":-0.8592756,"weights":[0.06916511,0.7014446,0.72387934,0.19121397,0.6802349,0.9034877,-0.6657655,0.21763909,-0.6254196,0.9563873,-0.08373392,0.30939734,0.49349868,-0.06299603,0.38797128,0.8931935,0.31608212,0.47690022,0.08828533,-0.15878737,0.8771832,-0.6500435,-0.35258573,-0.45101112,0.18321002,0.16454637,0.99497986,0.97533274,0.20324099,-0.013025641]},{"bias":0.33805168,"weights":[0.7355292,-0.7921634,-0.18445933,0.51867676,0.72288656,-0.72351575,-0.26198572,0.39261067,-0.8169086,-0.980752,0.17078102,0.27693546,-0.83169556,0.78117657,-0.19518673,-0.113829255,-0.9346194,-0.6674311,-0.12016451,-0.85894537,0.75309205,0.595618,0.33030784,0.9405863,-0.55691403,-0.8084843,-0.18270266,0.20458186,-0.2461983,0.707654]},{"bias":0.3862461,"weights":[0.53328776,-0.3903224,0.23618805,-0.35951942,-0.76144624,0.8102875,-0.7183254,-0.61621326,-0.88957477,0.7147014,0.14186895,0.19643414,0.5382471,-0.17181838,-0.94486,0.85489845,-0.67213297,0.121297,0.121050954,0.14691794,-0.7438338,-0.10772169,-0.084132314,-0.4489116,0.27114117,0.57731247,-0.33190626,0.12224567,-0.9117942,-0.36413902]},{"bias":0.20130074,"weights":[0.75585914,0.24856985,0.33263767,0.67910695,0.34390533,0.72343564,-0.48115176,-0.014079452,0.27089393,0.87339735,-0.7444699,0.39266217,0.05595529,-0.38127702,-0.9816699,0.5957444,0.0058790445,0.6216309,0.39018166,-0.8876908,-0.5548677,-0.5248372,0.8557303,-0.5008196,0.03774631,0.26362193,0.49307978,-0.52203625,-0.68238163,-0.7797258]},{"bias":0.16019952,"weights":[0.0018521547,0.43654644,-0.7618766,-0.32077664,0.625391,-0.10331333,-0.7492788,-0.8553901,-0.044400573,-0.85213447,-0.11082327,0.65462255,0.7594447,0.37369478,0.3880912,-0.6560261,-0.6032807,0.26038444,0.3557862,-0.19454896,-0.64549637,0.559345,-0.096677184,0.31819904,-0.18448651,0.5542414,0.7270014,-0.3825094,-0.16277754,-0.075892806]},{"bias":0.13783681,"weights":[0.97976255,-0.6806946,-0.18953311,0.471619,0.15656888,-0.66615963,0.3758992,-0.5753476,0.34850752,0.7932818,-0.120814204,0.91505647,-0.47609013,-0.90358686,0.7212968,-0.16411412,0.012367129,0.8666415,-0.5738651,0.9305701,0.34123147,-0.45590585,-0.54991645,0.21389925,0.45312464,0.47216928,0.55613256,0.059286237,0.6700463,-0.3403446]},{"bias":-0.31803864,"weights":[0.7167537,0.26956928,0.35535204,-0.16756451,-0.4865679,-0.8214109,-0.90290356,0.93086076,-0.4391083,-0.752615,0.87283754,0.9626446,0.5843866,0.6511133,-0.07525003,0.9529662,-0.07627332,0.4920088,-0.53729147,-0.6417749,-0.49215454,0.6653683,0.6401534,0.13522398,-0.67155695,0.09548867,-0.6177091,-0.5836229,-0.7689719,-0.0052713156]},{"bias":0.28911102,"weights":[-0.88429666,0.34948242,-0.55778855,-0.84471273,-0.74785066,0.8794329,-0.8188038,0.51724243,-0.63903403,-0.11964524,0.4232999,-0.1198982,0.42387474,0.57786846,-0.9652295,0.55612826,-0.29671997,0.8273711,0.33464372,-0.62025493,-0.5245618,-0.5220377,0.44611108,-0.07641089,-0.59232754,0.1974994,-0.84039354,0.92922354,-0.8690758,-0.66854477]},{"bias":-0.50242823,"weights":[-0.6842172,0.18229783,-0.71573806,0.75116444,0.54786277,-0.07977283,0.82495356,0.09136355,-0.20417869,0.3706211,-0.858716,-0.0562402,-0.9124944,-0.7731025,0.1862725,-0.66293883,0.82232404,-0.24992263,-0.85403776,-0.418415,-0.5887527,0.85838604,0.102237344,-0.37769502,-0.564495,-0.8177633,-0.181157,0.65035677,-0.27665251,-0.29577726]},{"bias":0.26778066,"weights":[-0.8556397,0.71624136,-0.84644294,-0.81070256,-0.12113845,0.024496913,0.32667744,0.66765475,0.48264015,0.064947486,-0.7596071,0.21794307,0.80640626,0.91802096,-0.5813243,0.475155,0.807816,0.95999384,0.93556404,0.7130985,-0.40030402,-0.63745165,0.36001527,-0.2144574,0.5845587,0.9977939,-0.7335291,0.841553,0.9616122,-0.68492866]},{"bias":-0.5551545,"weights":[-0.9729047,0.083510995,-0.8421035,0.8077729,0.66796494,-0.06892073,-0.28493232,0.08071697,-0.15425408,0.027930617,-0.34938234,-0.12652886,0.3248936,-0.3529579,0.34220827,0.5792184,0.30270064,-0.7817135,-0.6188285,0.48442924,0.29031742,0.32468235,0.25932395,0.54224443,-0.35556668,0.5680113,-0.040096164,-0.58157176,0.24259174,0.34265196]},{"bias":0.8868911,"weights":[-0.9080105,0.6753974,-0.95281863,0.22087348,0.7708454,0.074338794,-0.011547923,-0.8129556,-0.0028330088,0.74628377,-0.18381155,-0.015583634,-0.34912056,0.50379133,0.9492104,0.22376549,0.9160292,-0.21261775,-0.56978697,0.6033993,0.40214074,0.8594022,0.7627137,0.7838526,-0.9109347,-0.4570591,-0.35636848,0.9740977,-0.23788583,0.37649]},{"bias":0.895488,"weights":[0.24114478,-0.37446994,-0.52791256,-0.04654777,-0.4685704,-0.36724132,-0.45841163,-0.067412496,-0.746768,0.23065317,0.87241435,0.9099271,-0.12790787,-0.5411193,0.9667208,-0.45139307,0.93206763,0.9793327,-0.1527623,-0.86347866,0.83306503,0.5043261,0.80357385,-0.40272492,0.03868258,0.97161365,-0.33930725,0.69073296,0.61015487,-0.6093778]},{"bias":0.98073673,"weights":[0.43401372,-0.34855217,0.06592739,-0.35445708,-0.95659065,0.5739198,0.71927834,0.41485894,0.6258011,-0.021788716,-0.18703973,0.5380423,-0.9132669,-0.16629088,-0.15255773,-0.4823653,0.87272286,0.4087993,-0.12080085,-0.13197315,-0.22953475,0.7453983,-0.8786266,-0.88666606,0.9821694,-0.09751785,0.0599221,-0.9818306,0.6619673,0.034211993]},{"bias":-0.77561617,"weights":[-0.5146,-0.23007596,-0.58355516,-0.5679957,0.41022098,-0.9097843,-0.22071016,-0.027901053,0.88365555,0.4724468,-0.66278243,0.82386637,0.9272466,-0.91260433,-0.29516476,-0.3178808,0.6441438,-0.065265775,-0.13522065,-0.33049172,-0.5580556,-0.22335494,0.7991216,0.25919402,0.42767155,-0.07078707,0.9712126,0.79967,0.30842197,0.9229822]},{"bias":-0.7345073,"weights":[-0.17745912,-0.4390549,0.97022915,-0.52078813,-0.2704379,-0.081750035,0.31231368,0.33623683,0.7244725,0.21309412,0.1516453,-0.91944194,-0.28619593,-0.12652457,0.30552137,-0.30704468,0.6353948,-0.8784547,0.17590678,0.3797878,0.36732352,0.19385159,-0.43195003,-0.48332042,-0.8615916,-0.5142893,0.73448634,0.24260652,0.45032227,0.5389793]},{"bias":-0.88655305,"weights":[0.58601093,0.49581778,-0.91434574,0.5592756,0.05377972,-0.14002907,-0.76412034,-0.9311178,0.15621126,-0.73523426,-0.45656532,0.33967602,-0.25588363,0.4542488,0.28241503,-0.033956647,-0.30410355,-0.12882936,-0.31329626,-0.4783122,0.08687508,-0.3013062,0.3970412,0.7132561,0.4644221,-0.72637486,-0.42769712,0.68657756,0.760365,0.49115837]},{"bias":-0.3749811,"weights":[0.7900548,0.6049099,0.8775275,0.8694153,0.48523867,-0.91150117,-0.5508475,0.6198921,-0.49875325,-0.7187629,-0.6694212,-0.0056284666,-0.6622951,-0.35029048,-0.9886713,-0.5249714,0.46592605,-0.031021714,0.17494261,-0.77769566,-0.7859354,0.26956928,0.3136927,0.3063854,-0.6547029,-0.5118837,-0.13855064,0.43634808,-0.018279672,0.8160515]},{"bias":0.56020856,"weights":[-0.049761415,0.92127275,-0.68906903,0.10619056,0.023410201,0.6861582,0.80526805,0.621176,0.17779624,-0.87338877,-0.17740905,-0.4364676,-0.9296284,-0.5761625,0.5277574,-0.5928201,0.9635072,-0.14954126,-0.75949144,-0.8235824,0.0134881735,0.34864342,-0.135167,-0.80158234,0.48305428,-0.06593096,-0.3975169,-0.7309594,-0.24683297,0.34337866]},{"bias":-0.1986419,"weights":[-0.79255414,-0.23001325,0.9662218,-0.66919446,0.061000466,-0.055161595,0.3092345,0.9705713,-0.24163473,0.3437549,0.6264491,-0.83571243,0.7076638,0.24082768,0.13489878,-0.22445834,-0.57441944,0.9181082,-0.95351195,0.3772515,0.12177074,0.423921,0.48131526,0.23145854,0.39794862,0.7012198,-0.35346955,-0.29116672,-0.876524,-0.046329856]},{"bias":0.017980456,"weights":[0.44288075,0.30401123,-0.20222104,-0.9457667,0.8590195,0.018628716,0.7831559,-0.05887401,-0.7601583,0.4841348,0.44657314,0.26893985,-0.94739676,-0.60464257,0.3891393,0.84644866,-0.6530962,-0.1682409,0.25732982,-0.2284249,0.8356397,-0.7119963,-0.6115262,0.029960513,-0.110143065,0.8658533,-0.124812484,0.26526582,-0.20607364,-0.6762078]},{"bias":0.37309325,"weights":[-0.8944495,-0.40234584,-0.1938802,0.06373918,-0.36074227,0.7358713,-0.81001353,-0.9197316,0.99449944,0.6857884,0.7522392,-0.03650105,-0.37263602,0.37910736,-0.82274914,-0.9800136,0.5026753,0.088317275,-0.98777294,-0.7239959,0.42738092,0.16926157,-0.9818468,-0.29581445,-0.57512563,-0.17398965,0.16056955,0.23589766,-0.3263213,0.14041841]},{"bias":0.20181024,"weights":[0.3197986,-0.06605446,0.6398735,0.38544047,0.29153502,-0.1214968,-0.63358855,0.8282449,-0.0863837,-0.9810777,0.014839053,0.93405414,-0.36285895,-0.49272913,0.9261844,-0.14934981,0.5072651,0.83250713,-0.95299673,0.041245103,0.21468604,0.7014973,0.53558564,0.4700557,0.74536777,-0.18385279,-0.63387537,0.14436948,-0.94288206,0.1605109]},{"bias":0.5482912,"weights":[0.16888964,-0.1929537,0.2603339,0.39189875,-0.6556699,0.873996,0.61341715,0.99928975,0.45892775,-0.12788928,0.89601064,-0.24313128,0.94796515,0.93154573,-0.9813273,0.03086555,0.81985617,0.6572001,-0.46279138,0.13729942,-0.78252625,-0.75914645,0.7396598,0.9015579,0.91734815,0.2735356,0.108157516,0.22456086,-0.22676647,0.38341868]}]},{"neurons":[{"bias":0.9879875,"weights":[-0.66373086,-0.70167136,-0.051996112,-0.19593012,0.5049012,-0.17723572,-0.611268,0.007596135,-0.5218968,0.7620368,0.8749528,0.36141384,0.47679532,0.4656793,-0.56263703,0.4819268,-0.68358254,-0.7469876,0.9289689,-0.3015675,-0.40675896,-0.26281375,-0.5983669,-0.7476661,0.9138372,0.8504851,-0.85488963,-0.8742244,0.807353,0.18665469]}]}]}