{"layers":[{"neurons":[{"bias":-0.92395854,"weights":[-0.64276457,0.20707595,0.97801685,0.25905263,0.19312727,-0.17803061,0.32674038,-0.20162356,-0.3341443,-0.88643503,-0.7995596,0.7176149,-0.15105784,0.7518406,0.0150312185,0.9164636,-0.71745205,0.38047135,0.7449634,-0.041042924,0.8868656,-0.615117,-0.6494694,-0.5927152,0.33589542,-0.56782335,0.8357725,-0.1955005,0.09579408,0.55508447]},{"bias":-0.63408065,"weights":[-0.13158023,0.42775238,-0.78208494,0.80039215,0.63435054,-0.096333146,-0.5038287,0.50186706,-0.2081989,-0.44929284,-0.53692406,-0.14841974,-0.26550573,-0.62605095,0.8493552,-0.35592526,-0.3582732,-0.38741535,0.32492912,0.100715995,0.7859075,0.57833123,0.78760433,0.170066,-0.29772133,-0.7447419,-0.5260379,-0.58672327,-0.7006521,-0.46469253]},{"bias":0.36295903,"weights":[0.02032888,0.4897827,-0.7411921,-0.5308439,-0.016065478,0.26865685,0.33727896,0.35671246,0.96925664,-0.3299269,-0.4146561,0.2787739,0.58281136,-0.3140034,-0.36765307,0.13649428,0.22660816,0.9089565,-0.41294354,0.36898553,0.61984205,0.5135572,-0.5656602,-0.90272284,0.28516996,0.1876775,-0.5112056,0.064198375,0.590111,0.23868]},{"bias":0.8783698,"weights":[-0.8911309,0.34135234,0.6072891,-0.88667727,0.7269113,-0.040105462,0.6689453,-0.49922436,-0.43699044,-0.23606813,0.93219376,-0.3053133,-0.8793292,-0.3065893,-0.44062537,0.73487353,0.06758082,0.95455265,0.6157167,-0.21766484,0.7641928,-0.33943385,-0.57853025,0.8992536,0.45866406,-0.39696783,-0.60596675,0.17783797,-0.1901778,0.9256022]},{"bias":0.7587967,"weights":[-0.45639247,0.54140306,0.42794,0.7714157,0.08269107,0.8175647,0.077160716,0.63595724,0.7523742,-0.58474773,-0.06801283,0.25881612,-0.9021771,-0.51133555,0.07767522,0.51520586,0.5678332,0.99830484,0.27637374,0.7807696,-0.19386089,0.47911108,-0.9783101,-0.38640517,0.8784175,0.7830248,0.24929821,0.24928033,0.6162238,0.63514185]},{"bias":-0.5487897,"weights":[0.018153548,0.8070824,-0.55229133,0.18862212,0.86361337,0.041794896,-0.19960487,-0.74492717,0.9779608,0.74500775,0.90442944,-0.77024674,-0.2644295,0.5106511,0.62142277,-0.6136009,-0.9966061,-0.15518486,0.5727682,-0.68988276,-0.45032376,-0.8122666,-0.11654794,-0.79202986,0.34422505,-0.21669471,-0.27027005,-0.8083813,-0.49640793,-0.96146727]},{"bias":-0.8456805,"weights":[-0.7963338,0.8365505,-0.5952322,0.19121397,-0.14561355,0.9034877,-0.4804024,-0.05106485,-0.07738292,0.72299457,0.01119864,0.70308113,-0.59238476,0.3274461,0.7616348,0.44766676,0.16242301,-0.77040553,0.3517028,-0.6567261,0.52855635,-0.6500435,-0.35258573,0.31212103,0.99093986,0.9168284,-0.16452038,0.30843174,0.100917935,0.18078506]},{"bias":0.6018777,"weights":[0.037639976,-0.5923683,-0.37042254,-0.58325833,-0.121135116,-0.5359213,-0.3773617,-0.08021176,-0.8169086,-0.10575259,0.37816632,-0.927371,-0.83169556,0.5251281,0.06811631,0.3726021,0.08597481,-0.6674311,-0.6201803,0.8647702,0.74597025,0.39854705,-0.679687,-0.14840376,-0.52301496,0.78223777,-0.7642422,-0.78439665,-0.8108094,0.89285946]},{"bias":0.9574237,"weights":[-0.56672853,-0.4473123,-0.48500603,0.35413682,-0.76144624,-0.94393826,0.073470235,-0.33005804,-0.14958394,0.7540486,0.063509345,-0.78006864,0.9476299,-0.27391618,0.98785233,0.7662332,0.94251275,-0.15562427,0.121050954,-0.35999984,-0.5674059,-0.9882357,-0.51119846,0.34985507,0.1539787,-0.9322674,-0.28339332,0.12224567,0.8726373,-0.36413902]},{"bias":-0.96830726,"weights":[-0.2478534,0.24856985,-0.110321164,-0.7105253,0.9830041,0.64443326,-0.9750283,0.89017177,0.37259948,-0.88643765,0.4862498,-0.50309867,-0.025299668,0.49688613,0.61030555,0.34224188,0.4479164,0.45940578,-0.0866729,-0.28111356,-0.9219885,-0.96425676,-0.70140195,0.38261926,-0.56936663,0.055165887,-0.3030817,-0.060316443,-0.68238163,-0.03919232]},{"bias":-0.5492632,"weights":[-0.7019563,-0.22282636,0.38051236,0.16305625,0.2448684,0.89064884,-0.26890916,0.783931,-0.15159714,-0.03278768,0.8284261,-0.24693978,0.58516455,0.069221616,-0.02541411,-0.58500236,-0.053794503,-0.46935123,-0.30445474,0.1624459,-0.28527278,0.036871552,0.4860016,0.15802777,0.40733802,0.15447176,0.43460238,-0.4692065,-0.40970367,0.8895705]},{"bias":-0.17495406,"weights":[0.14943182,0.6688075,0.06110251,-0.8290539,-0.3567328,-0.5312862,-0.3508398,-0.36209315,-0.19759881,-0.9524934,-0.120814204,-0.20826733,-0.32928652,-0.5345902,-0.7346294,0.43680036,-0.13107288,-0.9795971,0.45278704,-0.568273,0.75116587,-0.6292505,-0.23241794,0.21389925,0.2105056,-0.62338704,-0.29807395,0.29553235,0.03623402,0.6579511]},{"bias":-0.1155411,"weights":[0.16750991,-0.78608084,-0.013528705,0.7555411,0.46546137,0.30483735,-0.8847499,-0.32289952,-0.62056226,-0.15208852,0.030426145,0.8475728,0.38751853,-0.14323771,0.54535604,-0.8008902,-0.2952866,0.5653181,-0.4292521,0.31344068,0.8641021,-0.28066033,-0.985127,0.13522398,-0.3930797,-0.9037149,0.62458134,0.70322394,-0.7962532,0.8448386]},{"bias":0.24655855,"weights":[0.084586024,0.1143471,-0.17008317,-0.91916966,0.06869209,-0.28632373,-0.8188038,0.4298035,0.009326816,-0.9851072,-0.91806555,-0.05497825,0.42387474,0.5358157,-0.9652295,0.59383464,-0.8716936,-0.21265519,0.27223718,0.047697425,-0.46528095,-0.6103384,-0.7065542,-0.38278717,0.36609828,-0.62304705,-0.6630647,0.92922354,-0.00144279,-0.6133854]},{"bias":0.07917774,"weights":[-0.661242,0.20112741,-0.15194643,-0.76762676,-0.15529287,-0.92705464,0.9150841,-0.3223464,-0.20417869,0.5842421,-0.6471293,-0.93391657,0.47287333,-0.44955105,0.2788931,0.3714403,0.035303712,-0.27602285,-0.6363909,-0.83303714,0.30933535,-0.6223175,-0.62433404,0.5561874,-0.564495,0.8457439,-0.057287097,0.65035677,-0.9283209,-0.57032245]},{"bias":-0.622672,"weights":[-0.1293174,-0.22471654,0.41642296,-0.5019211,-0.011403203,0.024496913,0.32667744,-0.33805698,-0.09953129,-0.612101,0.8258593,-0.77899194,-0.024626374,0.20678174,-0.6764798,-0.9536269,-0.42752737,0.615669,0.29086196,-0.009476066,-0.5843405,-0.7850168,0.63657975,-0.095671296,-0.34140438,-0.74557734,-0.6527302,0.841553,0.9616122,0.72551847]},{"bias":-0.65780187,"weights":[0.43103302,0.021763206,-0.8363714,0.64844203,-0.864712,-0.81174564,0.8198924,0.14218676,-0.047073722,0.032102704,0.17513168,-0.12652886,-0.6002769,-0.4193117,-0.12128365,0.49670923,-0.28032964,-0.9227891,0.9793658,-0.75648737,-0.7493365,0.7859597,0.25932395,-0.403557,0.19437587,-0.9670341,0.14286435,-0.14249885,-0.7397275,0.27826464]},{"bias":0.95489097,"weights":[0.25109255,0.99526906,-0.95281863,0.22087348,0.91932845,-0.6605525,0.06662762,-0.79617524,-0.9636817,-0.35728735,-0.5738775,0.28727448,0.10828626,-0.16588652,0.45629632,-0.9610882,0.9160292,0.5912988,0.5737779,0.018934608,-0.35786885,0.99419785,0.8919573,-0.42042583,-0.7586608,-0.51567286,0.11180341,0.015868545,-0.23788583,0.15578043]},{"bias":-0.87460876,"weights":[0.044856906,-0.014468789,-0.32041425,0.6180239,0.29981077,0.36118472,-0.45841163,-0.7257831,0.66606164,-0.092556596,0.5597415,0.33745563,0.6263821,0.27718675,0.28838432,-0.45139307,0.93206763,-0.4152946,-0.1527623,-0.23379767,-0.22634923,0.5043261,0.47324097,0.37933052,0.17890656,0.1107527,-0.63484836,0.6101432,-0.7351692,-0.4289903]},{"bias":-0.4989447,"weights":[0.50291324,-0.6213724,0.45601666,-0.38038415,0.52354527,0.65345263,-0.64300585,-0.18705547,0.6258011,-0.6267679,-0.109986424,0.5413983,-0.68182254,-0.6378603,0.7859006,-0.14443314,0.18291104,-0.42583603,-0.12080085,0.66016245,-0.8818226,0.4052385,0.2746135,-0.51606745,0.65210485,0.9055841,0.3220166,0.42542207,0.50146866,0.26601636]},{"bias":0.6498697,"weights":[0.6454675,-0.23007596,0.027455926,-0.94149923,0.512697,-0.6304965,0.43334806,-0.30001563,-0.1549834,-0.8788643,0.8308723,0.24241722,-0.8525777,-0.69515705,-0.2462138,-0.3178808,0.6441438,-0.38558263,-0.876462,-0.950814,-0.5580556,0.0018810034,-0.8093693,0.57535696,-0.5556082,0.09535396,0.35394037,0.31171358,-0.564295,-0.96341276]},{"bias":-0.38425034,"weights":[0.7308724,0.51098776,-0.43071502,0.8768902,0.68815064,-0.64427686,0.877754,0.33623683,0.6839392,-0.1214546,-0.44641203,0.8083298,-0.09250414,0.7896228,-0.33739346,-0.088798165,0.7644322,0.7313123,0.6984284,-0.4693038,0.7127235,0.19385159,0.7387252,0.43029416,-0.6490345,0.013212323,0.73448634,-0.6383965,-0.33240384,0.7987726]},{"bias":0.80651236,"weights":[-0.9043579,-0.4229905,0.0872587,-0.8539157,0.05377972,-0.72169995,0.6764636,-0.5605921,0.31906378,0.23362887,-0.18413413,0.734354,-0.9823718,-0.2503838,0.1238538,0.34001195,-0.7004237,-0.2629208,-0.31329626,0.024288058,0.87772965,0.77312255,-0.92385054,0.090999246,-0.9693248,0.13328278,-0.41410202,-0.19415772,0.102131724,-0.7198603]},{"bias":0.27706587,"weights":[-0.09427941,0.19928944,0.25149548,0.8694153,-0.34449023,0.9074104,0.81749487,-0.68762565,0.15379608,-0.08526337,0.2726599,0.68981504,-0.3619544,-0.7588842,-0.22843826,0.40101326,0.029777884,0.6343882,0.851635,0.11799967,-0.7859354,0.5563917,-0.4699635,0.04192269,-0.21568239,0.8568814,0.93991137,0.3813411,-0.018279672,-0.06318486]},{"bias":0.8982234,"weights":[-0.049761415,0.24068463,0.47993028,0.5546615,-0.71238613,0.6861582,0.25817764,0.42420876,-0.9109466,-0.87338877,0.5686772,-0.92743254,0.46987736,-0.37648028,0.2314061,-0.5928201,0.9635072,0.8087084,-0.75949144,-0.15073812,-0.1969403,0.1860975,0.29432523,0.25469053,-0.8061454,0.762707,0.9858198,-0.4104585,0.31598055,0.07979882]},{"bias":-0.75318766,"weights":[0.74430966,-0.23001325,-0.6605954,0.083906054,0.061000466,-0.71194196,0.1168443,-0.9266906,0.36313522,-0.11252272,0.78281903,0.971205,0.7076638,0.47950542,0.8561137,-0.057421565,0.61781526,-0.4863488,-0.6058778,0.3772515,0.15825474,0.09192288,-0.57434696,-0.5869002,0.33746803,0.4628712,-0.20506418,-0.29116672,0.976645,0.5246384]},{"bias":-0.5936548,"weights":[0.03172958,-0.6706836,0.1094414,0.54590344,-0.4907753,-0.31656593,0.14149225,-0.9770818,0.32419384,-0.90951586,-0.8971579,0.16341889,0.7625418,-0.38807887,-0.05728066,0.69855976,-0.37644333,-0.89869213,0.2971815,0.714849,0.7081609,0.6296637,-0.6115262,-0.9238744,-0.50155395,0.79213023,-0.7064631,-0.5577001,-0.21820056,-0.18764198]},{"bias":-0.49805874,"weights":[0.33580077,-0.40234584,0.18883431,-0.10479653,-0.5394835,-0.38382095,0.7576716,-0.45223445,0.99449944,0.6857884,0.7522392,0.7019236,-0.34258193,-0.5594608,0.44574654,-0.3236615,0.8259299,0.3683406,-0.8037584,-0.7239959,-0.84983444,0.71611214,-0.33707207,-0.30753797,-0.07902181,0.86620426,-0.54423016,-0.8867717,-0.7262795,0.07983792]},{"bias":0.20181024,"weights":[0.28210223,0.45993578,-0.35339302,0.9781771,-0.9961412,-0.2683491,-0.8834119,-0.6173827,-0.9017012,-0.61885756,0.10015786,-0.15561783,-0.5124952,0.044145226,0.9261844,-0.4826805,-0.51244825,0.83250713,0.64289975,-0.51389736,-0.14939868,-0.923192,0.25023735,0.4700557,-0.44524568,0.92655563,-0.37774867,-0.17415369,-0.08529818,-0.18092334]},{"bias":-0.047620416,"weights":[-0.62120026,-0.47770852,-0.5823366,0.98560524,0.40025795,0.873996,0.29110205,0.7573416,-0.7525139,0.17321742,0.04754293,0.84223914,-0.13734305,0.8389895,0.6294787,-0.2480694,0.04383886,0.9503484,0.4917835,-0.49607962,0.6371064,0.109802365,-0.32979482,0.93119764,-0.40166658,0.1599251,-0.65623045,0.22456086,-0.1475457,0.7895355]}]},{"neurons":[{"bias":0.7089722,"weights":[-0.895715,-0.6938517,0.98376536,-0.9095082,0.58753395,0.17951715,0.8217597,0.007596135,0.5893855,-0.2284981,0.78206897,-0.9961891,-0.28891677,-0.96648073,-0.5715849,-0.77087355,-0.6784873,0.058582425,0.33375514,-0.5767085,-0.42448825,0.89604926,0.8732798,0.99996233,0.9138372,-0.8977592,-0.82616615,0.064413905,0.8250611,0.18665469]}]}]}