{"layers":[{"neurons":[{"bias":0.7213249,"weights":[-0.40894073,0.20707595,0.79353356,0.64075947,-0.6000702,-0.8134062,0.2893182,-0.35503143,-0.95623016,-0.21135843,0.583766,-0.38567442,0.5499897,-0.8657,0.79579186,0.9164636,-0.5006866,-0.2736587,0.6577945,-0.6534085,-0.2191168,-0.615117,-0.9406066,0.7196355,-0.15910995,0.7433932,-0.61644834,-0.7281184,-0.31898373,-0.43774694]},{"bias":0.82733893,"weights":[-0.6529393,0.869467,0.27533853,-0.7604103,0.27471006,0.74587035,0.21492994,0.045644164,-0.9862287,-0.88559675,0.90805507,-0.23813093,-0.24229395,-0.62605095,-0.5487923,0.66572666,0.2856468,0.24297845,0.76058173,-0.87754464,0.605978,-0.8474469,0.2432431,-0.6122741,-0.33366865,-0.027403474,-0.67185783,0.88613176,-0.9439926,-0.46469253]},{"bias":0.6050415,"weights":[0.40465844,-0.5974948,-0.7411921,-0.5308439,0.91814256,-0.9377196,0.74197483,-0.032195687,0.8404324,0.7632861,-0.10769117,0.013273835,0.8062477,0.39593256,0.6784742,-0.014571071,-0.7676835,-0.96119857,-0.025451303,-0.7636454,0.61984205,-0.16775,-0.46252888,0.618865,0.2049681,-0.74073935,-0.51039094,0.8667309,-0.44098967,-0.72813296]},{"bias":0.8783698,"weights":[-0.87757635,-0.5295872,0.7739997,-0.5339181,0.36215937,0.29283035,-0.19956648,0.44403708,0.45177352,-0.23606813,-0.58975405,0.6931126,-0.41407913,-0.039022326,0.8589268,0.054205537,0.55737805,-0.7805617,0.40936792,-0.47940892,0.62114215,0.08643091,0.6737859,-0.57286423,-0.27510256,-0.095479846,-0.21019804,-0.23512638,-0.80592895,-0.15934598]},{"bias":0.96718526,"weights":[-0.15004766,0.43377173,0.5538013,-0.9969828,0.661191,0.5693166,0.9533813,0.076551795,0.9158771,0.31099713,-0.06801283,-0.38412946,-0.15639007,0.6344464,0.5659015,0.58420277,0.20863354,0.6965282,0.48562992,0.8003447,0.5758412,0.11004007,0.31909883,-0.38640517,0.7781,-0.86914515,0.41212976,0.61233044,-0.12739241,0.1630224]},{"bias":-0.6273649,"weights":[0.16844928,0.8070824,0.016464353,0.18862212,-0.7256808,0.5152843,-0.8950858,-0.096755385,-0.7049377,0.3403784,0.22857296,-0.5895056,-0.41212028,0.69629717,-0.4206137,0.6601012,0.41221058,0.7670951,0.20061195,-0.76138425,-0.71403337,0.64860964,-0.1401509,-0.3187601,-0.9482465,-0.82705927,-0.050409913,-0.6060249,-0.587238,-0.34560817]},{"bias":-0.3143248,"weights":[-0.74807954,0.6827662,-0.5952322,0.9152732,0.8489649,-0.58423656,-0.93951464,0.13764226,-0.07738292,0.5112655,0.01119864,-0.15055668,0.081154466,0.3274461,0.5758066,0.41113722,0.7004788,0.36465394,0.9452076,0.9905813,0.14176166,-0.3394286,-0.5407898,-0.14479339,-0.52633923,0.7529144,-0.37991685,-0.08792508,0.4713825,0.18078506]},{"bias":0.4559983,"weights":[-0.5405528,-0.35292214,-0.4549939,-0.24446237,0.3235768,-0.27274197,-0.42164892,-0.3540582,0.8351197,-0.57534045,0.19932687,-0.044301152,-0.83169556,-0.8659947,-0.9673884,-0.4027304,-0.93348527,-0.6674311,-0.71669674,-0.6709864,0.7818084,-0.6720102,-0.679687,0.37942755,0.7973325,-0.8971405,-0.7642422,-0.9773941,-0.6769259,0.2634164]},{"bias":-0.34966725,"weights":[0.18271363,0.51320744,-0.48391122,0.955565,-0.70083475,-0.74280787,0.52095103,0.5616858,-0.57324785,-0.42505592,-0.1820873,-0.78006864,0.8074031,-0.31669205,-0.51091355,-0.42646688,0.98484993,-0.15562427,0.42005026,0.56023836,-0.5674059,0.6478865,-0.672997,-0.13647997,-0.108407855,0.6588094,0.3427497,0.56208515,-0.6001052,0.3673724]},{"bias":-0.96830726,"weights":[-0.2478534,0.7167027,-0.6908119,0.8048053,0.23124182,0.2794205,0.10951817,0.66490173,-0.41741198,-0.25541252,-0.4227733,0.83134174,-0.025299668,0.13258302,0.120631814,-0.01738298,-0.015233874,0.80506706,-0.40221876,-0.06701529,-0.624088,0.21528661,-0.74186873,0.37128985,-0.5728771,-0.76729584,-0.64041543,-0.8241937,-0.8646612,-0.03919232]},{"bias":-0.76381445,"weights":[-0.61817163,0.3130852,-0.01817286,-0.34435672,-0.15508139,-0.4185428,0.10802066,-0.97539926,0.6190779,-0.03278768,-0.19732583,0.79602337,0.58516455,0.9227445,-0.39644712,-0.9299457,0.3521527,-0.46935123,-0.66343737,-0.6216318,0.17223632,0.57683253,-0.7991891,-0.66896534,-0.160792,-0.67349815,0.20410621,0.07967627,-0.21139896,0.6328144]},{"bias":0.6139355,"weights":[0.14943182,-0.8250389,0.33515894,-0.6541283,0.54174805,0.15048301,-0.72889376,0.84415793,0.016543984,0.4782871,0.85074043,0.6110859,0.6546576,0.6284368,-0.8405082,-0.6739061,0.70509195,-0.6503496,0.45278704,-0.39304203,0.28655732,0.6411252,0.8455992,0.8798301,0.2044338,0.7662163,-0.33470124,0.7077801,-0.9272771,0.20453918]},{"bias":-0.40331,"weights":[0.99021053,-0.78608084,0.45739615,0.30083215,0.46546137,0.9495399,0.77813077,0.6123333,-0.62056226,-0.41901654,-0.50846356,-0.5072996,0.38751853,0.15405428,0.8895993,0.869529,-0.51296824,-0.44095033,0.14248168,-0.48206085,-0.18104565,0.34484375,0.29017866,0.25290024,0.9733312,-0.9037149,0.62458134,0.70322394,-0.8729787,0.11908281]},{"bias":-0.7661953,"weights":[0.5034282,-0.889163,-0.0073302984,0.38102162,0.06869209,0.29591525,-0.7523606,-0.25999826,-0.18832028,0.019784093,0.29702413,-0.35192293,0.17478383,0.03065908,0.16597569,-0.77997875,-0.49897283,-0.21265519,-0.5145642,0.036954045,-0.8989103,0.8278246,-0.3390469,0.8299353,0.36609828,-0.31031436,-0.28346413,0.4991635,0.7934849,0.56291723]},{"bias":-0.6377578,"weights":[-0.7029979,0.4955479,0.9490907,0.16489041,-0.8391373,-0.6898079,0.47943437,-0.84204817,-0.9754081,0.5842421,0.7392516,-0.9851637,0.4816984,0.7425289,0.9443383,-0.96480465,-0.62138003,-0.27602285,-0.6363909,0.2571777,-0.5544233,-0.6223175,-0.6247048,0.17677343,0.73731375,-0.081835866,-0.87842655,-0.42390412,-0.4541425,-0.049158692]},{"bias":0.64589,"weights":[0.060202003,-0.6946783,-0.40938157,0.106794,0.14727175,0.9434478,-0.13737357,-0.48223156,-0.11951411,0.6975677,0.8258593,-0.09996641,0.8741665,-0.6020102,-0.7937026,-0.6621759,-0.35240406,0.8976357,0.18678868,-0.5196671,-0.53505176,-0.53583306,-0.12837374,-0.0243119,0.55448365,-0.3225786,0.35108197,0.41312468,0.060907483,0.58662367]},{"bias":-0.65780187,"weights":[0.43103302,-0.7837124,0.8761735,0.17801893,-0.864712,-0.42834228,-0.71652675,0.4676875,0.23646247,0.2132479,-0.44037575,-0.23785293,-0.27025694,-0.4193117,-0.12128365,0.43429315,-0.2526886,-0.32590097,0.032090545,-0.5725648,0.059265256,-0.0021647215,0.0136111975,0.1923939,0.19437587,0.08690798,0.7149985,-0.4106509,-0.33474034,-0.9242475]},{"bias":-0.41728467,"weights":[0.08133447,-0.10752165,-0.6991451,-0.32886547,0.2377392,-0.38154048,0.112197995,-0.6716032,-0.55486435,-0.15024364,0.647969,0.31294906,0.53613067,0.38627088,0.45629632,0.22559392,-0.28078574,0.5912988,0.015812755,-0.13230431,0.49963486,-0.11789906,0.8919573,-0.64265513,-0.85880995,0.995574,-0.31335348,0.027314305,0.16245162,0.04064405]},{"bias":-0.6723087,"weights":[0.44767845,0.19703114,0.14522684,-0.3260879,-0.8482132,-0.78188086,0.6456914,0.7730758,-0.60527724,-0.7449753,-0.47908062,0.33745563,-0.81093454,-0.40180868,-0.031850934,-0.18689525,-0.45532697,-0.599353,0.5190575,0.51693416,0.49857724,0.02280438,0.7466445,0.7320819,-0.19006717,-0.52958983,0.64407015,-0.049292207,-0.56539434,-0.4289903]},{"bias":-0.4989447,"weights":[-0.7225442,0.8657706,0.56861424,-0.595555,-0.2773909,0.65345263,-0.73877215,-0.3529927,-0.25774258,-0.9013145,-0.64272237,0.77476573,-0.7829945,0.77667856,0.7648783,0.21708524,0.6844325,-0.6889334,0.05712545,0.66016245,0.70873785,0.34066594,0.8521123,0.5593095,-0.6846001,-0.2685172,-0.08998597,0.696141,-0.73863673,-0.6997342]},{"bias":-0.50237316,"weights":[0.99285555,0.026495099,0.2616266,-0.94149923,-0.7806499,-0.5732185,0.41651165,0.8190408,0.23936498,-0.95838284,-0.93715453,-0.29318208,0.5318501,0.82559013,0.84510064,-0.6362765,-0.82881594,0.14313686,0.7614281,-0.950814,-0.4242894,-0.25026602,0.26309955,0.4791714,-0.049051642,-0.612235,-0.92014813,0.94198084,-0.6282246,-0.49565715]},{"bias":0.99761844,"weights":[0.5285187,0.571152,-0.49448913,0.6781881,0.16244042,-0.82685566,-0.8601005,0.33623683,0.16569936,0.20510328,-0.76869535,-0.773787,0.22425091,0.8945496,-0.41113776,0.32444537,-0.59848565,0.55815077,0.7379689,-0.44831127,-0.68788195,0.038918138,0.40194976,0.7288854,0.971359,0.27147162,-0.57561463,0.03452432,0.30082572,0.835181]},{"bias":-0.03390515,"weights":[0.39517128,-0.28099078,0.90402675,-0.5930738,0.05377972,0.025767207,0.8524022,0.20446527,-0.7575569,0.23362887,0.5232873,-0.97866106,0.94446206,-0.2503838,-0.591314,-0.4983191,-0.70995235,-0.8799331,-0.76860094,-0.732564,0.6608789,0.09002483,-0.8365021,-0.71532416,-0.69153714,-0.54338855,-0.41410202,0.72804236,-0.36386317,0.814445]},{"bias":0.8262472,"weights":[-0.394823,-0.7256408,0.572351,0.8694153,0.6965058,0.285406,-0.52504987,0.6871476,0.6323252,-0.80436826,0.6372013,0.3593334,0.661922,0.5231087,0.40479982,0.40101326,-0.9402082,-0.71386695,0.39028633,0.38551652,-0.77796364,0.5874431,-0.093957305,-0.18865287,-0.7597647,0.1590122,-0.008043647,0.39326298,0.33742416,0.37082303]},{"bias":-0.1513716,"weights":[0.2664653,0.83256865,0.70298576,0.9865627,-0.64812565,0.5545354,-0.28874367,0.26764095,-0.1816293,0.25325763,-0.84442043,0.001870513,0.59538436,0.27974737,-0.24757278,0.64560604,-0.7788234,-0.1752199,0.96477175,0.2530855,-0.1969403,-0.93107724,-0.8080778,0.25469053,0.71269226,0.59451294,-0.14065802,-0.71581817,0.38951337,0.32647288]},{"bias":-0.20640314,"weights":[-0.68930364,-0.8350456,0.73927927,0.79933286,-0.7880101,-0.71194196,0.3107232,0.39564788,0.36313522,0.9295168,0.58940816,-0.11330521,-0.58152956,0.651808,-0.44145364,0.16385734,0.61781526,-0.975297,0.50790405,-0.42978543,-0.32595366,-0.41558164,-0.8735769,0.72075844,-0.22502673,0.9258003,-0.46957177,0.7447834,0.8980341,0.5246384]},{"bias":0.93644094,"weights":[0.2059902,0.24275792,-0.049250007,-0.315293,0.20361602,-0.31656593,0.14149225,-0.014632583,0.8008151,0.53193307,0.11802566,0.16341889,0.26934588,0.2441417,-0.11175597,-0.74359703,0.7908156,-0.92624307,0.73413944,-0.5947215,0.7034836,-0.2556221,0.56384206,0.92354655,-0.50155395,-0.41441172,0.5923977,-0.4612276,-0.7808571,0.039376378]},{"bias":0.46997178,"weights":[-0.6191177,-0.033305526,-0.8068352,-0.09541428,0.7352848,-0.88156796,-0.47765273,-0.76081467,-0.2629642,-0.24060428,0.004457593,-0.30712432,0.2614516,-0.5594608,0.22982013,0.5588057,-0.16143382,-0.5182094,0.4429382,0.34482634,-0.8534064,0.73812866,0.44995677,-0.29393739,0.37745178,-0.98664045,0.829417,-0.18412673,0.7488587,-0.8098073]},{"bias":-0.9889076,"weights":[-0.18232453,-0.037698388,-0.39533252,0.38046896,-0.4102735,0.40564573,-0.60996765,0.77807426,-0.9017012,-0.79828835,0.10015786,-0.26047415,0.33384645,0.044145226,0.6432271,-0.17424309,0.27946818,0.8667402,-0.86079335,-0.25697106,-0.66002846,-0.47790998,0.25023735,-0.2812118,0.026558757,0.39281785,-0.5609397,-0.53798026,-0.26016182,-0.59256166]},{"bias":0.23116243,"weights":[-0.9912462,-0.47770852,0.9744377,0.073929906,-0.47336406,0.935689,-0.3686921,-0.2561218,0.6358812,-0.7497225,0.8146808,-0.03328526,-0.13734305,-0.08480108,0.6294787,0.4336394,0.41506064,0.81832576,-0.25062722,0.048745036,0.29729068,0.47890913,0.44573462,-0.17075312,-0.46387547,-0.46186632,-0.6342478,-0.6895709,-0.7256355,-0.8744347]}]},{"neurons":[{"bias":-0.65309024,"weights":[-0.7936182,0.2997049,0.76290464,0.17235768,0.25036538,0.17951715,0.8217597,-0.43315238,0.5893855,0.7580602,-0.17395937,0.999274,0.1946348,0.56860256,-0.68711424,0.78405976,0.8579302,0.00089013577,0.42269218,0.7594516,-0.5476164,0.5252619,-0.046815753,0.0055035353,0.11919391,0.22647846,0.7138548,-0.5924265,0.25020802,-0.32030672]}]}]}