{"layers":[{"neurons":[{"bias":0.22251117,"weights":[-0.3270468,0.44450295,-0.007122636,-0.17815721,-0.68393517,-0.51320547,0.59388876,0.7998972,0.72337794,0.3649603,0.583766,-0.57128376,0.9939847,-0.5236823,0.6444838,-0.5018558,-0.049182296,0.28151214,-0.6574695,-0.5980813,0.07673848,0.9019699,0.7705424,-0.8989837,0.7805629,0.7433932,0.74088764,-0.17525351,-0.5317592,0.31750405]},{"bias":0.24357569,"weights":[-0.27352518,-0.8145752,0.75603724,-0.15422142,0.3414036,0.44257796,-0.9956963,0.14074504,0.86228037,0.5956781,0.5688603,-0.9491565,-0.78399134,0.94445586,0.059334874,0.66572666,-0.36976594,0.5921092,0.608135,-0.089461684,-0.8539338,-0.8474469,0.12827122,0.21916163,-0.9170513,-0.027403474,-0.9730184,-0.28237265,-0.9439926,-0.7901995]},{"bias":-0.17819798,"weights":[-0.98358107,-0.19220507,-0.32308668,-0.33604497,-0.26855892,0.9882965,-0.95017767,-0.7464936,0.8404324,-0.34653658,0.8575778,0.013273835,0.23981154,0.38764107,-0.6269195,0.6565466,0.66712713,0.86558557,-0.23519671,-0.08483851,0.61984205,0.72915816,0.034880042,-0.3049745,0.2049681,-0.55970186,0.12633622,0.8667309,-0.62989974,-0.72813296]},{"bias":-0.80843663,"weights":[-0.33674115,-0.14272845,0.66607666,0.54853415,-0.2937929,0.16981447,-0.31705278,0.25064242,0.45177352,-0.58704776,-0.26639575,0.51981854,-0.41407913,-0.6085238,0.61840487,-0.24025285,-0.2699167,0.94709325,0.40936792,-0.35626596,0.1283828,0.90424204,0.6737859,-0.57286423,-0.27510256,0.39651358,-0.21019804,0.327155,0.61251354,-0.014883399]},{"bias":-0.24105918,"weights":[0.8304305,0.43377173,-0.21003091,-0.69624066,0.7922573,-0.22740304,0.5182357,0.33299196,0.31491196,-0.6607249,0.041669488,0.73025894,0.6885209,0.12069595,-0.38760108,0.58420277,-0.9632776,-0.75764227,0.29165113,0.74823785,0.65151787,-0.5465979,0.17964709,0.554435,0.86685014,-0.86914515,0.79114866,-0.39285988,0.53431106,0.12556016]},{"bias":-0.10809791,"weights":[-0.5371935,-0.38890666,0.5202124,0.29961812,-0.040946126,-0.8914573,-0.7353492,-0.61233896,-0.82612014,0.4635154,-0.3982696,0.9588237,0.38312304,-0.7872801,-0.7865422,0.6601012,0.6708782,-0.65595365,-0.6270304,0.24990284,-0.6597028,0.41061652,0.13688195,-0.24974668,-0.074116826,-0.82705927,0.3422538,-0.57139677,-0.889297,-0.3544969]},{"bias":0.15557468,"weights":[-0.0053209066,-0.5126187,-0.12530911,-0.19211495,0.29532874,-0.011809707,-0.9751096,-0.695235,-0.690284,0.83582354,-0.8693507,-0.33195347,0.65736556,-0.759598,0.5517874,-0.19571078,0.7004788,-0.63213515,0.9452076,0.9905813,-0.5475082,0.19927466,0.10010779,-0.19494736,0.1644839,0.7529144,0.24407709,-0.96691513,-0.94751287,0.8658283]},{"bias":-0.3171746,"weights":[-0.35352486,-0.35292214,0.19485271,0.925653,-0.21264637,-0.10470474,-0.42164892,-0.34454602,0.8351197,-0.78465986,0.65478253,-0.0018535852,0.4392177,-0.50363225,-0.9388058,0.45920932,-0.6916621,0.57532644,0.275298,-0.9703474,-0.44625038,-0.46116942,-0.18936527,0.36483634,-0.9091263,-0.91521215,-0.7642422,0.9155357,-0.5654058,-0.6015968]},{"bias":0.8111603,"weights":[0.9124999,0.96944094,0.26567996,-0.43818635,-0.48439592,-0.33161563,-0.6996398,-0.08597815,-0.34396738,-0.9617274,0.62810516,-0.72054005,0.1312834,0.5511279,0.23000133,-0.3140542,-0.60680526,0.965497,-0.4169218,0.6930957,-0.40847582,0.8785088,0.48210728,-0.13647997,-0.39497966,0.90271616,-0.5183918,0.7705002,-0.41734475,0.21907723]},{"bias":-0.34881872,"weights":[-0.8401091,0.27902687,0.9069731,0.8048053,0.67209935,0.2794205,0.10951817,-0.5935587,-0.77980375,-0.8827431,0.900331,-0.5344743,-0.09430206,-0.7578547,-0.5666289,0.10435116,-0.02064979,0.294438,-0.72557974,-0.70529175,0.7098384,-0.71536636,-0.811784,0.26410162,-0.035099864,-0.9636352,-0.6947479,0.43370688,0.8974972,0.49205458]},{"bias":-0.32728404,"weights":[-0.74160624,0.59735274,0.6379564,0.42473257,0.77783203,-0.4185428,-0.355529,-0.48328966,-0.524362,-0.03278768,0.79728794,0.19071686,0.8988726,0.042987943,-0.39644712,0.002501607,0.7963166,-0.8364556,-0.58382505,0.73189306,-0.67739224,0.1499635,-0.17624152,0.7228031,-0.37868828,-0.3233046,-0.53287596,-0.5562021,-0.21139896,-0.4110486]},{"bias":-0.42167252,"weights":[0.7579372,-0.12003815,0.33515894,0.47637713,0.90642095,-0.16662538,-0.8574009,-0.27100652,-0.19605625,-0.15809429,-0.68303585,0.6758721,0.0825969,0.75201464,0.38302624,0.47572982,0.99134994,0.040687203,0.079943776,0.9314928,0.8251076,0.68826103,-0.9335518,0.8798301,-0.54362863,-0.23524678,0.6504946,-0.35960048,0.82665324,-0.058238864]},{"bias":0.78094745,"weights":[0.23337781,-0.50763506,0.33953393,0.2733568,-0.15402043,0.5777292,-0.6597686,0.9466913,-0.19777071,0.33525336,0.59566975,-0.5072996,0.23005688,-0.4134974,0.48391974,0.869529,0.20908606,-0.44095033,-0.3812148,-0.48206085,-0.18104565,0.21879423,0.29017866,0.25290024,0.71447635,0.2791263,0.62458134,0.66735005,-0.1092571,0.13162792]},{"bias":-0.621458,"weights":[0.5034282,0.02744615,-0.0073302984,0.38102162,-0.57794327,-0.03520143,0.14360464,-0.5224442,-0.76165175,0.18739474,-0.16708696,-0.012218833,-0.77099895,0.25696385,0.4538237,0.72504544,-0.08161056,0.049806237,-0.5145642,0.70017695,0.7993784,-0.16493237,0.39671385,-0.7536144,-0.5957863,0.9920697,0.46276867,-0.2384113,0.9931412,-0.78330326]},{"bias":-0.94562435,"weights":[-0.90998745,-0.561006,-0.7897754,-0.9543569,0.46803272,0.9979763,0.16570914,-0.38977832,-0.3633644,-0.33850092,-0.218665,0.052477717,0.6670499,-0.27565116,-0.6554935,-0.96480465,-0.06021011,0.6441014,-0.42183918,0.83193994,0.7308152,0.5019767,0.80246353,-0.2307657,0.89540315,-0.49080318,-0.87842655,-0.4470312,0.08820665,0.51734066]},{"bias":-0.8270457,"weights":[0.41136014,-0.6946783,0.30864108,0.106794,0.032559514,-0.8223009,-0.6792419,-0.7557292,-0.9950609,-0.9511759,-0.045634627,-0.9444318,0.5629206,-0.07424605,0.66773367,-0.07468426,-0.42762035,0.8976357,-0.081784844,-0.7338855,0.30818665,0.5312536,0.65160465,0.8881967,0.23502052,-0.3381669,-0.10880172,-0.48065323,-0.52898425,-0.23741758]},{"bias":0.8404846,"weights":[0.2624935,-0.11850369,0.9521189,0.27421558,-0.7094941,0.1862551,-0.71652675,-0.96986294,-0.47919434,0.25841033,0.76641107,-0.5661921,-0.27025694,0.6262884,-0.5616049,0.41447842,-0.2526886,0.6713786,0.032090545,-0.5725648,0.121094584,-0.23746789,0.5303695,-0.7332263,0.29194486,-0.25932592,0.728606,-0.5384099,-0.7954304,0.987422]},{"bias":0.27549422,"weights":[0.08133447,0.0622164,-0.6734183,0.70837283,0.37212002,0.25609982,0.30155838,0.88732505,-0.05639088,-0.15024364,-0.4715435,0.9306586,0.12065637,0.38627088,0.3329631,0.6097667,-0.92084265,0.12524116,0.46029294,-0.7578721,-0.46450132,0.7218983,0.7907767,0.46335495,0.4800061,-0.30792493,0.38963664,-0.54003376,0.89165735,0.64844155]},{"bias":-0.48993057,"weights":[0.5244484,-0.55140656,-0.54700035,-0.3260879,0.19445121,-0.761302,0.1541611,0.61338663,-0.60527724,-0.8124411,0.50420785,-0.42756528,-0.81093454,-0.85703015,0.56644464,0.651248,-0.45532697,0.989681,-0.3974101,0.6570492,0.49857724,-0.21479142,-0.5766384,0.48745763,0.7461057,-0.52958983,-0.9909315,-0.173617,-0.9252565,-0.057885766]},{"bias":-0.4989447,"weights":[-0.27447313,0.95528364,-0.14838564,-0.4572453,-0.11693704,-0.8871417,0.09646475,-0.797863,0.033661008,-0.19863665,-0.3936028,0.7056155,0.22617161,0.77667856,0.8234334,-0.9174087,0.018245816,0.3953575,0.09586871,0.072083116,-0.8962226,-0.027394652,-0.5903308,0.016040444,-0.4524991,-0.7906306,-0.25707525,-0.45300764,-0.7751746,-0.9787116]},{"bias":0.58150244,"weights":[-0.7892468,-0.9955497,0.29803503,-0.5083725,0.018771768,-0.35019964,0.8315513,0.6373248,0.28649366,-0.23562515,-0.0027440786,-0.107565045,0.279796,-0.7557001,0.031222224,-0.43717092,-0.099841714,-0.6500151,0.44716465,-0.7362056,-0.4242894,0.054663777,0.20530617,0.67556953,-0.8573203,-0.91619134,0.37043226,0.8354089,-0.9736626,-0.53149575]},{"bias":0.633193,"weights":[0.39391816,0.5778463,-0.4268152,-0.08191669,0.35816848,0.8773546,0.8037422,-0.8155956,0.57884026,0.28028047,0.39248955,-0.24889934,0.22425091,-0.4593944,0.45464766,0.122617364,-0.7004185,0.55815077,0.9102938,-0.59433645,-0.68788195,0.1461643,0.571404,-0.977093,0.24081075,0.27147162,0.51086307,-0.7950032,-0.42522186,-0.06632221]},{"bias":0.060459495,"weights":[-0.1366638,0.733783,-0.4801709,0.48627222,0.60681224,0.34675348,0.8524022,-0.32362598,-0.07849014,0.07777345,0.56912565,-0.01603496,0.36937582,0.1589061,0.12843716,0.0130780935,0.48039877,0.6913934,0.7780385,0.36282647,0.6443169,-0.5334615,-0.5534093,0.7693291,-0.69153714,0.037702918,0.7020261,-0.91005063,-0.37567753,0.7383356]},{"bias":0.40171707,"weights":[0.9995277,0.08989489,-0.45158666,0.14033353,0.4333185,0.398095,-0.5069389,0.7704303,-0.73153996,-0.16489685,-0.95716,-0.18514764,0.661922,-0.03752792,-0.8459747,-0.4052047,-0.9402082,-0.7457578,-0.37572926,0.6491387,0.95906734,-0.7090881,0.71877956,-0.9441161,-0.7597647,-0.4048242,0.1847614,-0.78899074,0.33742416,0.22811115]},{"bias":-0.6447978,"weights":[0.12751997,-0.5318412,0.29149806,0.7632835,0.8970103,-0.69481635,-0.4606771,-0.078502774,-0.03787577,0.25325763,0.058339477,-0.65796256,0.94291735,-0.79552484,0.14526498,0.29588473,-0.89404273,-0.078101516,-0.63326263,-0.04839909,-0.1839782,-0.6120741,0.8400786,0.25469053,0.9417319,-0.06331456,-0.14065802,-0.37447327,0.9394562,0.02688229]},{"bias":0.83404636,"weights":[0.3935882,-0.8350456,-0.49090308,-0.122920394,-0.027179837,-0.17459428,-0.025759816,-0.42998093,0.6742182,0.5305259,-0.9507439,-0.05180967,0.6563475,-0.2827956,0.80265474,0.19812572,-0.82939243,-0.975297,-0.38400835,-0.42978543,0.22299874,0.1757108,0.19825232,0.7725389,-0.36825317,0.79688215,0.9087553,-0.89876723,-0.5523564,0.32289612]},{"bias":-0.14489543,"weights":[0.8405819,0.99728703,-0.23212278,-0.315293,-0.78061795,-0.34023446,0.28349388,-0.53071135,0.248119,-0.67738795,-0.47163457,0.16341889,0.73115516,0.815006,0.56041074,-0.76674366,0.7908156,-0.92624307,-0.30416888,-0.20328605,-0.7888911,-0.7575362,0.56384206,-0.6789732,0.8577366,0.36563933,-0.65505624,-0.9150548,-0.26926726,0.08727372]},{"bias":-0.6412902,"weights":[-0.44452876,0.21195352,0.936867,0.11179912,0.5617678,-0.41009253,0.604337,-0.83333373,0.61241174,-0.12284362,0.7471702,0.036388516,0.4440657,-0.41993898,-0.7120371,0.2029196,-0.7468035,-0.41315812,0.18556058,0.34482634,-0.44566816,0.16268837,-0.79377365,-0.633024,0.16157877,-0.6260257,-0.048864007,-0.7530589,0.7488587,-0.40787715]},{"bias":-0.8443198,"weights":[-0.79025364,-0.0658561,-0.10715377,0.7439394,-0.3740136,-0.30075878,0.7128267,0.7945392,0.9218278,0.33181655,0.7161832,0.3189925,0.8312459,0.12015545,0.7077055,-0.75227284,0.9129019,0.43846786,-0.093299985,0.6575875,-0.71262,-0.33116502,0.19451034,0.46229517,-0.35332507,0.494372,-0.7876582,-0.07933581,0.9833288,0.8053074]},{"bias":0.56422067,"weights":[-0.02655375,0.2309717,-0.82566357,0.91413665,-0.47336406,-0.30734223,0.70982623,-0.848994,-0.30603737,-0.114625335,0.68099165,-0.72666717,-0.13734305,-0.08480108,0.6357267,-0.101296544,-0.7642982,0.16604435,-0.17115939,0.06989968,0.6027913,-0.18831146,-0.10769236,-0.17075312,0.06337464,0.5559001,0.15370119,0.5255618,0.3724233,-0.8744347]}]},{"neurons":[{"bias":-0.65309024,"weights":[0.7001054,-0.9308548,0.70962715,0.7277367,-0.040405393,0.458104,-0.52821153,0.5347142,-0.37328166,-0.04045403,-0.17395937,-0.23176038,-0.2694978,-0.8978398,-0.097400546,-0.66355515,-0.092568755,0.13124573,-0.6292212,-0.0075267553,0.74016523,0.5252619,0.58658504,-0.5483026,-0.62651396,0.64414406,0.47373426,-0.1861211,0.29485142,0.22450101]}]}]}