{"layers":[{"neurons":[{"bias":-0.41898602,"weights":[-0.3270468,-0.6762123,0.6931784,0.67550945,-0.97272897,0.65839887,-0.91861725,0.67000246,-0.52746195,-0.02370274,-0.5740492,-0.5987744,-0.2049712,0.23754394,-0.4909882,0.60894847,0.54152846,0.6073642,0.61714005,-0.98652124,-0.8611226,0.5326619,0.76878023,-0.37435883,-0.19154799,0.033040643,-0.26852602,0.22734249,0.051675677,-0.8392999]},{"bias":0.037430167,"weights":[0.62887263,-0.6194555,-0.6668148,-0.15422142,0.3068024,0.73724127,0.07389939,-0.42233914,0.5738964,0.7197764,-0.6987426,-0.9491565,-0.29688066,0.9887843,-0.99054,-0.50905865,-0.17909062,0.34713542,-0.80531836,0.72880363,0.009837031,-0.28117412,0.6859782,0.45796025,0.16963494,-0.5468399,0.4391209,-0.28237265,-0.86760473,0.06480062]},{"bias":0.91542935,"weights":[0.8480377,0.8471875,0.29574454,0.8588047,-0.093815446,0.6022508,-0.95017767,0.66308856,-0.9717231,-0.19330132,-0.76118064,0.84933424,-0.7464998,0.38764107,-0.99547267,0.7027893,-0.41108125,-0.733021,-0.46459144,-0.9170859,0.55790234,-0.18621624,-0.9571352,0.02669394,-0.9058995,0.38094652,-0.93430185,-0.91721725,0.43214047,-0.3243131]},{"bias":-0.44784302,"weights":[-0.7288611,-0.08798683,0.13154638,0.667665,0.23339593,0.5182481,0.1603154,0.2896403,-0.05526817,-0.23997319,-0.51999015,-0.4331562,-0.13447034,0.031015754,0.20616424,-0.77992725,-0.62706304,-0.21502459,-0.012861371,0.20314276,-0.6634593,-0.24415457,0.44349277,0.35799086,-0.13606513,-0.49780267,0.8823333,-0.06780732,-0.84394145,0.6157968]},{"bias":-0.48771518,"weights":[-0.092166305,0.33398497,0.074876904,-0.69624066,-0.52600044,-0.6595485,0.16666973,-0.6088874,0.2480532,0.86541724,0.041669488,0.73025894,-0.32395715,-0.309143,-0.34900588,-0.4935953,-0.70333433,-0.75764227,-0.969291,0.36695802,0.15269983,0.59683824,-0.024706244,0.79352117,-0.54254836,-0.86914515,-0.945724,0.9504733,0.9305837,0.70804834]},{"bias":0.70964503,"weights":[-0.5371935,-0.9767494,0.5202124,0.05738008,-0.99996734,0.7965014,0.69143033,-0.3536393,-0.54380697,0.3974682,-0.8515749,-0.47319096,-0.3005368,0.3108498,-0.6600301,-0.8430884,-0.62089247,-0.38820738,-0.6270304,-0.41241306,-0.21890223,-0.9406512,-0.6999421,0.7471535,-0.074116826,0.46813166,-0.24538839,-0.44054955,-0.6070835,-0.7460263]},{"bias":-0.6769085,"weights":[-0.038425326,-0.38272828,0.37374437,0.2037481,0.9847927,0.6186621,-0.87812495,-0.7226236,-0.51430696,0.9953859,-0.8693507,0.52568316,-0.280616,-0.010643601,0.21128571,-0.8247564,-0.5236644,0.6197028,0.33721316,0.76117134,0.8594868,-0.85639167,-0.9837172,-0.88696957,-0.5173697,-0.42299122,-0.46828502,-0.97938824,-0.94751287,0.50832176]},{"bias":-0.086765885,"weights":[-0.35352486,-0.529355,0.6916244,0.39597237,-0.21275127,-0.7251363,0.86031437,0.010223746,0.8557379,-0.67857265,-0.8664503,0.43314016,-0.09116852,-0.1617397,-0.87560844,0.10562742,-0.6916621,-0.26534003,0.6225879,-0.19807446,-0.4334883,0.057335973,-0.18936527,-0.13339603,-0.41728276,0.95002675,-0.12001312,0.20594728,0.41585314,-0.26628846]},{"bias":0.8111603,"weights":[0.56361437,-0.14557731,0.59843254,0.51177573,0.5521281,0.28874218,0.929446,-0.221511,-0.015541673,-0.9617274,0.032475352,0.60749125,0.088724256,0.031011939,-0.38493007,-0.64861536,-0.7833462,-0.07699168,0.5884378,-0.45589012,-0.8487079,-0.34089583,0.47175467,0.983824,-0.15894186,0.8047087,-0.38828462,0.5677111,-0.5534281,0.18658412]},{"bias":-0.7415457,"weights":[0.84702206,0.2399422,0.20508802,0.7006743,-0.0286268,0.5191066,0.673661,0.75619245,0.5602124,0.4574989,0.5659838,0.8598411,-0.09430206,-0.9804647,-0.45363992,-0.94210386,0.29067528,-0.19963181,0.7222583,-0.9306197,-0.565581,0.88742065,0.782042,-0.8013289,0.12406242,-0.9636352,0.5543232,-0.14149344,-0.18938172,-0.77151084]},{"bias":-0.57837695,"weights":[-0.7910502,-0.61500186,0.14264476,0.33998215,0.9823885,-0.7026925,-0.31081885,-0.48328966,0.54614496,-0.11277592,0.7830639,0.19071686,0.20646489,0.022141099,0.15596378,-0.9143686,0.55914927,0.027538896,0.45735228,0.37647188,-0.15074575,0.16544354,0.35578477,0.884361,0.071775556,0.054870725,0.47653043,-0.5562021,-0.43498367,-0.694494]},{"bias":-0.15551102,"weights":[0.7579372,0.30792463,0.33515894,-0.7722788,0.06722748,0.6075361,-0.5498995,0.5246346,0.75365424,-0.9594493,-0.30075067,0.6516273,0.36886728,-0.0008009672,0.8341298,0.94062924,0.99134994,0.08793318,0.90943027,0.9314928,0.76503515,0.68826103,0.8355019,0.8798301,-0.09739983,-0.34423584,0.6504946,-0.5815577,0.4752444,-0.44176763]},{"bias":-0.2856993,"weights":[0.55979156,-0.3332352,0.7469673,-0.6964066,0.1862346,0.6443949,0.24211705,0.21800959,0.4850303,0.33525336,-0.7717397,-0.5072996,-0.49001116,-0.5176396,-0.24478853,-0.018315434,-0.772439,0.9363117,-0.77992725,-0.17211401,0.2131666,0.8682344,0.29017866,0.8666389,-0.88481283,0.8902552,0.8350444,-0.4035892,-0.1092571,-0.7929349]},{"bias":0.40987146,"weights":[-0.937953,-0.11856949,0.56412697,-0.6237983,0.051636815,0.90214014,0.5219133,-0.84934497,0.7358718,0.18739474,-0.065306544,-0.8098357,0.360808,0.28645742,-0.78989625,0.72504544,-0.23902142,-0.49480885,-0.7096164,0.22969663,0.7993784,-0.16493237,0.39671385,-0.7536144,0.5009749,0.7668679,-0.6187522,-0.4319834,0.9931412,-0.43487138]},{"bias":-0.103529096,"weights":[0.3014506,0.30073345,-0.5961632,0.9828706,-0.8246474,-0.3676507,0.031069875,-0.43936676,0.76809907,0.37997687,0.69858,-0.16142762,-0.14745057,-0.027844071,0.14124644,-0.5362641,-0.06021011,-0.7742305,0.69243455,-0.7111864,0.8753991,0.46251643,0.5024886,0.40414798,-0.29348582,-0.7962384,0.047775388,0.05129254,-0.54781,0.06966531]},{"bias":0.4946829,"weights":[-0.89964867,-0.55028623,0.62273884,0.457322,0.032559514,0.20742404,0.58952165,0.95952654,-0.9950609,-0.63159466,0.6829207,-0.7548163,-0.60511655,0.43413603,0.66773367,0.9508827,-0.2566206,0.8976357,-0.11728656,-0.7338855,0.30818665,-0.20767462,0.83939457,-0.7958696,0.63661814,0.44931424,0.25463045,-0.6889322,-0.24144137,0.16772902]},{"bias":0.05845225,"weights":[-0.10567057,-0.46511286,-0.9286816,0.050180078,0.28069723,-0.2394687,0.19648254,-0.7054682,-0.6593487,0.9020884,-0.79823613,-0.9544804,0.49673545,0.60896087,0.018651605,0.6690035,-0.21343791,-0.88019943,-0.5601608,-0.71111894,0.4383992,-0.5305907,-0.09358966,-0.7332263,0.81890583,0.9012008,0.728606,0.8003726,-0.46729392,-0.6547308]},{"bias":0.47223437,"weights":[0.40658987,0.7327423,-0.54591244,-0.014766812,0.69723296,-0.40356463,-0.15711915,0.016048789,0.47949708,-0.49676174,-0.06832898,0.8948178,-0.24392402,0.44296992,0.31881607,-0.65116405,0.07905209,-0.86248636,-0.4860658,0.19547927,0.20938575,-0.4904849,-0.7953911,0.021722913,-0.54296845,-0.30792493,-0.24130976,0.65622306,0.40801013,0.3747455]},{"bias":-0.33207768,"weights":[0.95458865,-0.22640383,-0.31948966,-0.27883977,-0.8790314,0.78271055,0.1541611,0.38946807,-0.6139671,0.36299455,0.91433215,0.019297242,-0.81093454,-0.19751775,-0.6918254,-0.41217536,-0.45532697,0.31365073,0.9352267,0.79340005,-0.056855798,0.38258827,0.032204032,-0.91564727,0.5269358,0.08631599,0.9193156,-0.0056511164,0.43146098,0.9592986]},{"bias":-0.4810292,"weights":[0.055807948,-0.8246205,0.04216063,-0.6783328,-0.11693704,0.72021246,0.09646475,-0.0651356,-0.30948395,0.7870436,-0.3936028,-0.49013323,0.22617161,-0.281707,-0.8658707,-0.62423414,0.7681308,-0.54255956,0.9714694,-0.33789366,-0.2544331,-0.3380434,0.19406784,0.98930264,-0.7349899,-0.7906306,0.38018262,0.75528455,-0.18032038,0.66114855]},{"bias":-0.57185096,"weights":[-0.70408726,-0.15167224,0.83985186,0.29627836,-0.34924978,0.49534428,-0.06383169,0.6346407,0.7452078,0.71275043,-0.0027440786,0.36398566,-0.09141219,-0.7528291,-0.95501304,-0.34743828,-0.7855637,-0.03242576,-0.49464554,-0.8065798,-0.5587477,-0.06514013,-0.90106416,0.25950325,-0.8122754,-0.24126136,-0.5471217,-0.28517932,-0.40026778,-0.46604007]},{"bias":-0.938395,"weights":[0.10647571,0.059035182,0.21095693,-0.068229795,-0.5478315,0.124127984,-0.8515649,0.52024126,-0.5594482,-0.21246374,-0.74023914,-0.24889934,-0.08774221,0.69910526,-0.29906625,-0.54929155,0.9646671,0.056693673,-0.32567638,0.9945986,-0.96295714,0.43229806,0.023226857,-0.55508417,0.18839061,-0.53934497,0.51086307,-0.4118387,-0.08346999,-0.00928247]},{"bias":0.32698905,"weights":[-0.05261886,-0.79840827,-0.16508639,-0.23130476,-0.17354,-0.6563597,-0.8632252,-0.78487945,0.020442367,0.53107905,0.19502914,0.70744777,0.6461606,-0.25903577,0.9443252,0.2858702,0.31196058,0.8660033,0.40034068,0.9977529,-0.8747597,-0.9656577,0.6090176,-0.31585735,0.995976,0.3452698,0.46783388,-0.15261972,-0.24702656,0.24065435]},{"bias":-0.7476599,"weights":[-0.067109466,-0.588427,-0.852339,0.14033353,0.10083592,-0.013533235,0.1984986,0.7973287,0.23241413,-0.54807585,0.93049884,0.59630466,0.50304437,0.48089254,-0.8459747,0.43989742,-0.90693784,0.28835976,-0.39593858,0.49173176,-0.09613526,0.70153666,-0.61963123,-0.17750418,0.07412112,-0.4048242,0.1847614,0.06092441,-0.08047092,-0.3134665]},{"bias":-0.11317909,"weights":[-0.7324252,-0.5318412,-0.76354146,-0.98320794,-0.50789803,0.13071978,-0.80188584,0.19852221,-0.74489284,-0.87439847,0.20195234,0.40377843,0.94291735,0.5888603,0.14526498,0.29588473,0.3066994,0.6159651,0.6781621,-0.35604972,0.35226738,0.6482518,-0.901031,0.089749455,-0.4261827,0.26664317,-0.65040565,0.1922363,0.51306844,0.20452869]},{"bias":0.032835603,"weights":[-0.8278518,-0.10521805,-0.466201,-0.013287187,0.30623186,-0.7891319,0.7818923,0.024205804,0.6742182,0.6390643,0.65949154,-0.70095897,-0.15429342,-0.17886984,-0.23897326,-0.81691647,0.2487377,0.7028918,-0.40906924,0.35176313,-0.8873241,-0.8259692,-0.91237617,0.7725389,0.13889539,0.9036577,-0.3056187,-0.37561244,0.9038496,0.18322837]},{"bias":-0.5878741,"weights":[0.038402915,0.0764817,-0.42752308,-0.4673335,0.069401145,-0.6070697,-0.7567749,0.5878303,0.8313682,-0.67738795,0.47178233,0.16341889,0.75662017,0.63060904,-0.16681397,-0.30666703,0.97274804,-0.33058065,-0.055827975,-0.20328605,-0.94853806,-0.7575362,0.674639,0.12517536,-0.380979,0.36563933,-0.3044538,-0.9150548,0.2410146,0.71356606]},{"bias":-0.3051309,"weights":[0.8359835,0.73672247,0.936867,0.1515845,0.5617678,0.80483174,0.604337,-0.6366699,-0.7908597,0.00297153,0.34112632,-0.6595137,0.36083472,-0.9310162,-0.7511606,0.2029196,-0.0855633,0.7039547,0.5591593,-0.82276034,0.85712504,0.20403993,0.18012488,-0.5130984,-0.14117396,-0.7340386,-0.8082142,-0.042744517,0.14737952,-0.035869718]},{"bias":0.48959792,"weights":[0.93035746,0.7027993,0.5965266,0.40851367,-0.3740136,0.73079777,-0.29960388,0.558105,-0.37474507,0.33181655,-0.26363486,-0.9839928,0.8312459,0.86973405,0.6250062,0.66992044,-0.7598169,-0.90082,0.76605797,-0.70019126,-0.15296185,0.04635966,0.07782066,0.5280628,0.29058635,0.4690715,-0.32252878,-0.07933581,-0.47995466,0.8053074]},{"bias":0.91137815,"weights":[0.8754406,0.09985912,0.8442559,0.16833317,-0.47336406,0.53918004,-0.4216115,0.7136662,-0.9098828,-0.114625335,0.68099165,-0.7860944,0.09158838,0.042363763,-0.57326645,0.018464923,-0.03040874,-0.2552883,0.797596,0.06989968,0.42034996,-0.5143425,0.45340383,-0.83674264,0.06337464,0.7435353,0.71819544,-0.81607485,0.3724233,0.39964712]}]},{"neurons":[{"bias":-0.15142477,"weights":[-0.11427271,-0.9011717,0.39378846,-0.16948473,0.31637514,0.025081277,-0.85448456,0.5347142,0.9540236,0.99440503,0.97895193,0.5905354,-0.2694978,-0.21563804,-0.7717848,0.5500171,-0.038147807,0.8021767,-0.06035316,-0.23240507,-0.19364202,0.5252619,-0.46838397,-0.89207983,0.42039526,-0.46846765,0.8582859,-0.78834105,0.29485142,0.21736825]}]}]}