{"layers":[{"neurons":[{"bias":-0.4166953,"weights":[-0.98481774,0.98339915,0.07389486,0.5728729,-0.8592527,0.5241585,-0.07079399,0.7881136,-0.46830386,0.7652931,0.54704785,-0.74400616,0.29009402,0.7141907,-0.15880978,0.012592435,-0.4668147,-0.7890012,0.21338713,-0.035619617,-0.24791873,-0.2504446,-0.28636736,-0.65381384,0.43452775,-0.4101376,-0.2790622,0.65395975,-0.30674547,0.40468466]},{"bias":0.037430167,"weights":[0.2255665,-0.66972375,-0.6668148,0.71647525,0.9618635,0.73724127,-0.756511,0.71285176,0.9711411,0.93151045,-0.495593,-0.20415318,0.5993068,0.19547188,-0.72397566,0.56698036,-0.61273783,0.7342236,-0.80531836,-0.7906406,0.2206732,-0.01231277,-0.16560185,0.06186354,0.26177275,0.5476756,-0.319462,0.49744117,-0.10569179,0.2695421]},{"bias":0.15005839,"weights":[-0.725611,0.8119118,0.29574454,-0.5886087,0.4959885,-0.6884484,-0.95017767,0.6370678,0.07330406,-0.5200271,-0.9812,0.6937916,0.14227092,0.4433831,0.9415767,0.06523526,-0.7347536,0.42259872,0.5096891,-0.14799678,-0.372163,0.7404046,0.9759822,0.0096594095,-0.20083845,-0.2395891,-0.93430185,0.19289052,0.05832064,-0.24017918]},{"bias":-0.17224109,"weights":[0.075886846,-0.38808745,0.58944535,-0.2267009,0.7382846,0.1379081,-0.6160659,-0.23065817,-0.05526817,0.62775683,-0.11364925,-0.68144417,0.7890122,0.1304313,-0.15087736,-0.77992725,0.8639407,0.8801205,-0.012861371,-0.7805476,-0.11666691,0.22200048,0.49613726,-0.9685068,-0.17312014,0.94666004,0.8823333,0.41463673,0.46415508,-0.36113542]},{"bias":0.42072856,"weights":[-0.6827433,-0.2979502,-0.13592899,0.07574928,0.44101036,-0.6595485,-0.3883931,0.24261773,-0.045065284,-0.7506523,-0.081575036,-0.8927896,0.82614994,0.40795887,0.90225315,0.050774693,-0.062457204,-0.4732079,-0.54916924,-0.1563183,-0.878412,-0.5719089,0.10194886,0.15438044,0.63706255,0.99468946,-0.12539446,0.50320554,0.60319114,0.32018173]},{"bias":-0.20694816,"weights":[-0.2536332,0.18573582,0.8178501,-0.44438785,-0.9976306,0.7965014,0.2676431,0.58752537,0.75752926,0.3974682,-0.2389673,-0.04610622,0.11795056,0.3108498,0.3746146,-0.83203864,-0.6759515,-0.17226708,-0.6270304,0.49149048,-0.6651716,-0.38496393,0.8801186,0.6990297,-0.023345113,-0.32293552,-0.9871154,0.70713997,-0.41343302,-0.57507604]},{"bias":0.16315591,"weights":[0.43064058,-0.88259697,0.13871682,-0.64080596,0.017193198,-0.6956527,-0.65249777,-0.3272366,0.20070875,-0.9785447,-0.76258874,0.21247113,-0.54723614,-0.1823138,-0.25039142,-0.9063616,0.18812954,0.08129513,-0.79705024,0.76117134,0.31559741,-0.75712156,-0.042313457,0.77851915,-0.16041434,-0.7954149,-0.39921492,-0.5063159,-0.2540192,-0.34396237]},{"bias":-0.086765885,"weights":[-0.3468005,0.19423735,0.40265906,-0.89137006,-0.6346297,-0.3526649,-0.6436446,-0.32673305,0.85139036,-0.8677957,-0.6788361,0.43314016,-0.9345536,0.0758208,0.3988191,0.47028768,0.5139911,-0.23384893,-0.7197442,-0.77587795,-0.73614573,0.057335973,-0.5330643,0.957896,-0.24302375,-0.6102304,-0.011823535,-0.1646558,-0.7648668,0.4396776]},{"bias":-0.34523624,"weights":[0.56361437,-0.23547661,0.21383202,-0.030723691,-0.7965939,-0.21706855,-0.7652044,0.8917973,0.7577424,-0.9617274,0.6794071,-0.816659,0.5754957,0.5616312,0.9868934,-0.12994015,-0.62012976,0.80421615,0.13634264,0.33621347,-0.24792993,-0.709363,0.8711083,0.38205755,0.4298116,-0.5195145,0.058635592,0.885514,-0.5534281,0.37024248]},{"bias":0.85044074,"weights":[-0.34973496,0.5215199,-0.69008994,0.9443333,0.7028465,-0.53099483,-0.18834841,0.023489594,0.29149187,0.9744017,0.44956362,0.8598411,0.8600724,-0.2843737,-0.7404058,-0.58247703,0.76635146,-0.46555537,0.26277912,-0.28390187,0.4857961,-0.14897478,0.7609308,0.9988558,-0.75415516,0.68533015,0.5543232,0.16067445,0.9668424,0.46353066]},{"bias":0.40408385,"weights":[0.6750779,-0.21817362,0.14264476,0.33998215,-0.70349,0.6285846,-0.9400041,0.16579759,0.70619106,-0.2695629,0.5796523,-0.85660195,0.38309848,-0.90073943,-0.9802685,0.43567598,-0.92517304,0.6782985,-0.84754086,0.61291885,-0.56143683,-0.44509143,0.35578477,-0.011226296,0.3516866,0.9109614,0.5297506,0.17177713,-0.43498367,-0.22631967]},{"bias":-0.17548311,"weights":[0.90007305,-0.43457144,-0.3571424,-0.7761967,-0.33821028,0.6075361,-0.07146919,0.5537121,0.06244099,0.033252597,-0.26647156,0.34378445,0.85740805,0.75415707,-0.16126907,0.10246098,0.99134994,-0.8516624,0.90943027,-0.5787279,-0.9214444,-0.08818638,-0.4722435,-0.05462849,0.94535184,0.50208855,0.6504946,0.920825,0.5720389,0.22834766]},{"bias":-0.48097152,"weights":[0.35404575,-0.22638309,-0.8455727,0.7487776,-0.9984839,0.6497731,0.12564743,-0.43068355,0.8693447,0.2457391,-0.6954322,-0.25295442,0.19157565,0.24628508,-0.5745973,0.026937604,-0.100765824,-0.50607175,0.8696902,-0.27262634,0.23592436,0.8682344,-0.5499305,0.014079928,0.14470851,0.4267043,-0.98645616,-0.83698416,-0.1092571,-0.7929349]},{"bias":0.5923152,"weights":[-0.954,0.54396105,0.8696661,0.16307604,0.5660405,-0.43988436,0.3224274,0.63309026,0.7358718,0.18739474,-0.55528086,0.49532807,-0.8554499,-0.28290194,0.5079067,-0.45746297,0.54857945,0.5853114,0.25269997,-0.7042649,-0.8464358,-0.46565884,-0.18762434,-0.43757194,-0.029307246,-0.10897958,0.9087024,0.9689698,-0.25195736,0.8684385]},{"bias":0.3441199,"weights":[-0.8287957,0.6779196,-0.5961632,-0.81611013,-0.8246474,0.3465656,0.031069875,-0.22539961,0.35368145,-0.48605222,-0.8927288,0.2822932,-0.8934138,-0.77266836,-0.5346562,-0.46247667,0.9001937,0.85513806,-0.6120178,-0.7111864,-0.3827688,-0.2754311,0.13046539,0.40414798,0.27952302,-0.7564962,-0.9729898,0.05129254,-0.54781,0.9872668]},{"bias":-0.1386534,"weights":[-0.7745526,-0.40385383,0.34421122,0.17991292,0.7236731,0.8914857,0.58952165,0.7257886,0.095670104,-0.63159466,0.6829207,-0.75635624,-0.4269573,-0.91873455,-0.14171016,0.8796947,-0.8443198,0.433452,-0.11728656,0.46727526,0.983485,-0.67836785,0.83939457,-0.04034698,0.043797612,0.7419193,-0.00276196,0.32909834,0.24733484,0.596606]},{"bias":0.761919,"weights":[0.30369747,-0.8488724,0.43185794,-0.28383893,-0.2757656,-0.7825029,0.42339194,0.13211763,0.30170023,0.9020884,-0.46404737,-0.37696284,-0.0008622408,-0.33917898,0.29585254,-0.8182864,0.49248898,-0.02643454,-0.15762174,-0.28655595,-0.13901484,0.0743798,-0.3354084,0.66216135,-0.70239305,-0.39017385,0.728606,-0.55492586,-0.20831478,0.228562]},{"bias":-0.5127894,"weights":[-0.8745487,0.9958136,0.5974531,-0.19486725,0.56162643,0.73391676,-0.9468548,0.89089227,-0.38075966,-0.702332,-0.06832898,-0.9577656,0.88490534,0.44296992,0.6617377,-0.5197322,0.2853707,0.63366175,-0.4860658,0.45279372,0.5368047,-0.19739759,-0.8603251,-0.95630383,0.61023664,0.22260559,-0.24130976,-0.5430581,0.08141649,0.93451095]},{"bias":-0.7944219,"weights":[-0.06795919,-0.6512253,0.2974831,0.6178479,0.43571675,-0.8333638,0.99994564,0.40817654,-0.67434025,0.20251882,-0.37988347,0.34174287,-0.50623125,0.51602006,-0.12225306,0.30979478,-0.29919547,0.009765267,0.5613971,-0.553214,-0.056855798,-0.67031074,0.09166777,0.3930813,-0.6706505,0.60629725,0.9444704,-0.0056511164,-0.71684885,0.9118109]},{"bias":-0.4810292,"weights":[0.56856084,-0.42788118,0.8754704,0.32855332,0.8865323,-0.9342332,0.73548985,0.024439454,-0.2892515,0.63888454,-0.3936028,-0.14301288,0.77581763,-0.281707,-0.16835725,-0.0016971827,-0.4611284,0.30242407,0.16238105,0.30445182,0.51380205,0.17490828,-0.06025064,0.75139046,0.027994037,0.23902237,0.17970502,0.0056322813,-0.62892056,0.20040953]},{"bias":-0.89496994,"weights":[-0.48564452,0.32111204,0.38861,0.19605482,0.82431316,-0.5605802,-0.049192548,-0.14924324,-0.7233691,-0.49762648,-0.665488,0.4563247,-0.7128074,-0.48812217,-0.7668338,-0.106827855,-0.17996418,0.6516094,0.564729,-0.59136385,-0.028695941,-0.06514013,-0.48457903,-0.75843143,0.84816504,-0.18264234,0.96985507,-0.30291837,-0.25825304,-0.72930455]},{"bias":0.22572005,"weights":[-0.75314736,0.77307487,-0.7924764,-0.75007033,0.7396395,0.22310627,-0.8515649,0.6600654,0.23435438,0.7439463,0.4520918,-0.49788326,-0.24691904,0.90716934,0.8330889,-0.54929155,0.14459741,0.42418945,0.61435676,0.08905971,0.5260949,0.42589867,-0.2116133,0.36457813,-0.6315384,0.9789748,-0.48289436,0.0025280714,0.88688207,0.16377008]},{"bias":0.999455,"weights":[-0.92465854,-0.3071329,-0.4366092,-0.5179135,-0.16815245,-0.95046306,-0.25689286,0.81308484,0.020442367,-0.10629523,0.5799229,-0.02910316,-0.31841248,0.9076183,0.8696909,-0.9646449,0.7879076,-0.43788904,-0.73390865,0.8615315,-0.8747597,-0.69956803,0.3816582,-0.02735269,0.2591921,0.40601647,0.46783388,-0.012382865,0.9278257,0.46958315]},{"bias":0.2008704,"weights":[0.80023,-0.26765913,-0.5741679,0.8740294,-0.9767864,-0.0782007,0.61884046,0.5943382,-0.9564378,0.920938,-0.18622267,0.4840058,-0.99171495,-0.5842299,-0.57308334,0.12661326,0.36462843,0.21980703,-0.53457683,-0.60395426,-0.37828177,0.6793294,-0.61963123,-0.49517673,0.8072324,-0.51366156,0.28978217,0.12774932,0.25990283,0.7482722]},{"bias":0.040975213,"weights":[-0.7324252,-0.443515,0.42632616,0.555856,-0.50789803,0.96136403,-0.057698846,0.90912676,0.3302349,-0.81926394,-0.729794,-0.73155165,0.6131599,-0.75247526,0.4894942,0.29588473,0.84794664,0.6159651,0.6781621,-0.3655936,-0.86191916,0.1874646,-0.044535995,0.33517563,0.69714,-0.26266664,0.60394096,-0.6834252,0.9470005,-0.5479862]},{"bias":-0.019130588,"weights":[-0.8278518,-0.10521805,-0.22284377,0.44511807,0.7290287,-0.7034626,0.34327424,0.62814426,-0.70546603,0.20984519,0.7762201,-0.11861265,0.8555653,-0.6411736,0.11048138,0.798126,0.59463334,0.36254847,-0.48266715,-0.63296294,0.54229355,-0.8259692,-0.6193864,0.7725389,-0.52767223,0.30615962,-0.58073205,-0.43129605,-0.0064464808,0.18322837]},{"bias":0.48081887,"weights":[0.23886383,-0.8667834,-0.9466939,0.306368,0.3919345,-0.5047998,0.6009145,0.78639317,0.8592496,-0.9733186,0.5551436,0.78818846,0.40129173,0.63060904,0.06693828,-0.30666703,0.66192293,-0.7200756,0.3596884,-0.7268059,-0.12255752,0.987633,-0.7547133,-0.14019549,-0.8211849,0.36563933,-0.44265383,0.27990305,-0.8267777,-0.49234718]},{"bias":-0.3051309,"weights":[0.5977273,0.73672247,0.81867814,0.083275676,-0.060512662,-0.38391918,0.5583129,-0.48245162,-0.7271848,0.85611916,0.34112632,-0.692683,0.36083472,-0.4024238,-0.6066503,0.7246442,0.2889899,0.4633683,0.72095394,0.8662467,0.5190146,0.017132401,-0.934232,-0.807704,-0.14117396,0.35865796,-0.8082142,-0.042744517,0.96762204,-0.061487794]},{"bias":-0.52507037,"weights":[0.93035746,0.3107139,0.5965266,0.40851367,-0.3760931,0.2343446,-0.9332671,0.026082158,-0.92133856,0.16979182,-0.3564393,-0.034860253,-0.49988765,-0.46014732,0.06014335,-0.17454422,0.38441432,0.36820805,-0.42145652,0.44161022,-0.15296185,-0.39463633,-0.22385728,0.10453522,-0.72429514,0.52823067,-0.32252878,-0.1483475,0.66411495,0.8053074]},{"bias":-0.4937479,"weights":[-0.7081711,-0.34881276,0.6532898,-0.5398707,-0.7440603,-0.19537675,-0.66681695,-0.6380973,-0.15270674,0.7064073,0.8679123,-0.19009006,-0.9971607,0.38492334,-0.38217396,-0.62483114,0.6283245,-0.2552883,-0.6449249,-0.5114507,0.3047129,0.38846624,0.45340383,-0.94896865,0.06337464,0.87402034,-0.30242485,-0.523514,0.10442722,0.38682044]}]},{"neurons":[{"bias":-0.27244586,"weights":[-0.09721863,0.19360054,0.8642309,-0.65063596,0.99480915,-0.020592332,0.33732593,0.47849548,-0.7267673,0.41251194,-0.90469193,0.5905354,-0.034656644,0.020401359,-0.7506933,0.5500171,-0.6818621,0.06516826,-0.06035316,0.6482949,-0.5256755,0.19420183,0.5233934,0.31400597,0.012562394,-0.46846765,-0.029129863,-0.63418007,0.656755,0.15647686]}]}]}