{"layers":[{"neurons":[{"bias":-0.053018212,"weights":[-0.724941,-0.801026,0.80895567,0.77735925,0.09267914,0.26241672,0.10713279,-0.35307568,0.39902496,-0.78951526,0.29898566,-0.08832967,0.121405795,0.85084987,0.2681967,0.039236903,0.36961687,-0.2240256,-0.8809657,-0.19345021,-0.6381645,0.119262,1.0,0.31243947,-0.8518448,-0.7245343,0.2571541,0.67151666,-0.42893308,-0.27247208]},{"bias":-0.30672735,"weights":[0.8768964,-0.7299888,0.9435365,-0.6960337,-0.038651347,-0.37646073,0.573529,0.4525262,0.21555027,0.24408495,0.11954129,0.6783743,-0.88730574,-0.26324844,-0.47545117,0.65056825,0.8767762,-0.71801496,0.98291636,-0.5626356,-0.75599277,-0.60376734,-0.0789885,-0.017128192,0.9169075,-0.4726528,0.5684487,-0.22015893,0.04478395,0.013813376]},{"bias":0.28644,"weights":[0.5782304,0.009383805,-0.6306877,-0.7745013,-0.02909863,0.7839117,-0.66092086,0.045739055,-0.3770132,0.7554283,-0.5174253,0.7174368,0.32257473,-0.5269899,0.9159175,-0.5888123,0.62810844,0.39063346,0.3148435,0.59691447,0.9451434,-0.37914294,-0.20527422,0.17520368,0.92770743,0.8027086,0.161152,0.80353904,0.23477425,0.4303547]},{"bias":0.07409179,"weights":[0.26107967,-0.71294594,0.16333473,-0.58213615,0.36137664,0.3059126,0.057991624,-0.6305921,0.17982426,0.16656482,0.93510604,-0.5877213,0.56787586,0.8721299,0.59045553,-0.60048765,-0.1778573,0.5303899,-0.5142655,0.74918556,0.041164517,0.4894851,0.062009215,0.83805805,-0.16759264,-0.31060165,-0.6377616,-0.326878,0.19732964,0.7997298]},{"bias":-0.13987148,"weights":[0.93428934,0.92061365,0.039822698,0.77188945,-0.47649807,0.008627534,0.8148315,-0.2639565,-0.6348972,-0.5577798,-0.26170415,0.92900324,0.25269735,0.28865623,-0.7540425,-0.19039118,0.11369598,-0.51261944,0.8994901,-0.87402844,0.11365783,0.19915807,-0.19092643,-0.4548568,-0.3109305,-0.17569077,-0.49826306,-0.74507403,-0.74618244,0.54048157]},{"bias":0.47552,"weights":[0.7806255,-0.35875285,-0.27801722,-0.6130082,0.64099693,-0.31222838,-0.4170829,0.3073008,0.49036038,-0.38350198,-0.6302702,-0.43632954,-0.07502193,-0.9350952,0.43489563,0.5366845,-0.846919,-0.49862665,0.58839273,-0.886909,0.59926146,-0.5968613,0.8920808,-0.6628264,0.7056689,0.8429315,-0.5064594,-0.45184225,-0.31957048,0.06673443]},{"bias":-0.5537943,"weights":[-0.23590794,0.5793128,-0.13034618,-0.95990086,-0.958416,0.21323788,-0.4032655,0.09535253,0.31352985,0.005405292,0.64210296,-0.012939237,-0.9105401,-0.3014037,0.62726307,0.3084737,-0.815851,0.4813937,-0.272258,0.09379804,0.3938192,-0.3782255,0.38634816,0.72974205,0.40538132,0.9055939,-0.64374995,0.76103795,0.34244978,-0.745131]},{"bias":-0.7147944,"weights":[0.14664066,-0.8163116,0.35459673,0.51905155,0.5916889,-0.7508924,-0.17082676,-0.7779081,-0.16872537,-0.38296264,0.46503013,-0.9455056,-0.7275796,0.19868314,0.4737841,0.9519026,-0.28082556,0.74940467,-0.15485108,-0.89980626,-0.4932446,-0.024582267,0.6709735,-0.20729232,0.3175317,0.73158216,0.16927871,-0.565657,-0.37761313,0.8080003]},{"bias":0.25260317,"weights":[-0.8053887,0.46453917,0.5210271,0.7531989,-0.8764415,0.24853611,0.6038592,-0.68551314,-0.15399325,0.4017719,-0.34725115,-0.03083957,0.83690715,-0.5961661,-0.7985792,-0.6385741,0.71300435,0.06181085,-0.60792154,0.8434191,-0.56282794,-0.69795185,-0.60819185,0.1622724,0.7046058,-0.5044264,0.27030075,-0.7323463,0.8503643,-0.971801]},{"bias":0.050320268,"weights":[0.61427784,-0.9153619,-0.68019354,0.1503216,-0.5620269,0.24939574,0.13671649,-0.0022960901,-0.19247949,-0.48734838,0.28953195,0.15415275,0.25290313,0.0065914392,-0.44243163,-0.40081447,0.25973517,0.51616764,0.9107218,1.0,-0.30314502,0.9983995,0.3433088,-0.91764164,-0.32658857,0.7875109,-0.23928821,-0.16596496,-0.6453302,0.40097845]},{"bias":-0.84851503,"weights":[0.6059487,-0.5677703,0.017736793,-0.34275478,-0.5251729,0.7498889,-0.18530953,0.6271601,-0.23978329,-0.98947906,0.61425674,-0.014793158,-0.6975918,0.7488496,0.62083125,0.5471797,0.5747068,0.0754205,-0.50139993,0.8593196,-0.07513821,-0.7768579,-0.19048637,-0.24270664,-0.9774103,-0.8168599,0.1258229,0.08346387,-0.104075976,0.039590478]},{"bias":-0.4575705,"weights":[-0.36657208,-0.8660047,-0.45608628,0.5992384,-0.23038471,-0.68111897,-0.63176036,0.76249194,-0.4394719,0.44719994,-0.089168906,-0.633965,-0.85497904,0.09290711,-0.65905553,-0.79730916,0.36817205,0.9300742,-0.82834125,-0.3498556,0.22305211,-0.72758985,-0.15354288,-0.6964412,-0.29595155,0.81019044,0.3570534,0.29004723,0.62918997,0.19364941]},{"bias":-0.48288935,"weights":[0.9589367,0.47695217,0.2828499,0.78005815,-0.3486482,0.52804565,0.58447075,0.30417788,-0.49733716,-0.3581528,0.1349808,-0.27885267,0.5006434,-0.26337165,-0.3564393,-0.47850344,0.790462,0.8010221,-0.17192763,-0.87137413,0.13033354,0.41990614,0.85354733,0.41288364,0.25522363,0.27573645,0.46296608,-0.60208315,0.82838404,0.005569577]},{"bias":0.892735,"weights":[-0.0073454306,0.5860567,0.60069704,0.77225405,0.87420535,-0.7250316,-0.05236827,0.8167503,-0.56511635,-0.4943689,-0.8894941,-0.82634485,0.5611007,0.61833644,0.6217396,0.654315,-0.3595788,-0.79941773,0.24179423,-0.21185327,-0.5568796,0.6593182,0.79730844,0.6153827,-0.08581865,-0.99806905,-0.36919087,-0.040141426,-0.9923637,-0.8441472]},{"bias":0.81147027,"weights":[-0.7800041,0.40825236,0.26105845,-0.5789949,0.7124398,0.33356702,-0.98480487,-0.40226978,0.83321667,-0.172394,-0.80992675,-0.7793967,-0.6031766,0.55567884,1.0,0.34455454,0.28481042,-0.04973805,-0.30855396,-0.41533655,-0.27594393,0.09661806,-0.006313443,-0.90076375,-0.24423039,-0.3768914,0.5087464,0.12500155,-0.8957893,-0.13857448]},{"bias":-0.6716838,"weights":[0.019721866,-0.46791095,1.0,-0.96941173,0.41640517,0.79818046,-0.83700037,0.34742808,-0.5931365,-0.106042266,0.1481992,-0.12870514,-0.95162606,0.42974845,-0.9864383,0.15243633,0.6225331,0.12106383,-0.20329559,-0.065131545,-0.19626534,0.5918381,0.0072203875,0.1954881,-0.13461626,0.80977535,-0.41722244,-0.32440537,-0.044740796,0.69764805]},{"bias":-0.7883427,"weights":[0.5723059,0.68586576,0.37857288,-0.462221,0.24905789,0.66651106,-1.0,-0.8716755,0.32626212,0.2623049,-0.5611642,0.9532485,0.49659643,-0.82478666,0.5614175,-0.13279045,0.84928894,0.45982113,0.75524396,-0.94114804,-0.26558465,0.614349,0.0064121485,-0.6817284,-0.6504779,-0.11209142,-0.5844877,0.18792571,-0.14185235,0.14949214]},{"bias":0.5372555,"weights":[-0.9059053,-0.33831447,0.72180736,0.81651807,0.2879248,0.8451508,-0.71059704,-0.061055303,0.95518565,-0.31101054,1.0,-0.0893687,0.8250158,0.20366395,-0.25186723,-0.79239345,0.47853005,0.6858275,-0.66063505,-0.71705526,-0.6661718,0.47428668,-0.50999194,0.5594511,0.15174448,0.22062981,0.5054531,0.39888895,0.94787264,-0.4101786]},{"bias":0.48885715,"weights":[0.39223492,-0.037843585,0.8366029,-0.48970765,0.29152057,0.27332222,-0.29369345,0.83219254,-0.82884604,0.086848624,-0.84808445,-0.6361108,-0.613404,-0.35502785,0.99371505,0.050558448,-0.80027246,0.32741767,0.748244,-0.63429165,-0.40823716,-0.04491657,0.97935987,-0.5927401,0.896404,-0.56178325,0.032317758,-0.56157655,-0.54309624,-0.9425819]},{"bias":-0.76163054,"weights":[-0.7073486,0.5880141,-0.96503997,0.5791533,-0.60265785,-0.96539664,0.18434393,-0.9563265,0.89239764,-0.33595386,-0.48957306,-0.5986685,-0.5039794,-0.21206701,-0.09098352,-0.5657386,0.48734224,-0.025781035,-0.10693184,-0.3235318,0.8644891,0.7095306,-0.12863767,-0.28998703,-0.61625236,-0.13417289,-0.6044505,0.9185929,-0.9138439,-0.81386507]},{"bias":-0.7320132,"weights":[0.5450437,-0.5573024,0.18150151,-0.023015141,0.9622867,-0.8697095,-0.91120434,0.06535876,0.96182156,0.36000502,0.67242074,0.021107025,0.52803636,-0.10133517,-0.9092195,-0.31758636,-0.6535125,-0.9248855,-0.075561404,0.911978,-0.5512046,-0.070727706,-0.43297678,0.03289044,0.7947216,0.54185104,-0.13023913,0.6402718,0.30034983,-0.34551805]},{"bias":0.81136155,"weights":[0.20080554,-0.21573627,0.5048897,-0.18734372,0.9586644,0.29884866,-0.70609236,-0.96283406,-0.9172365,0.7885215,-0.085535645,0.9007716,0.5464027,0.70941806,0.7913242,-0.98669696,-0.43720514,-0.5008852,0.27310956,-0.6337793,-0.79170084,-0.73407364,-0.81039983,-0.8836994,-0.7805164,-0.52857536,-0.8957722,0.72050846,0.78678536,-0.9213948]},{"bias":-0.467395,"weights":[0.7831104,0.19824126,0.34395158,0.108475685,-0.29341573,-0.68171906,-0.9356415,0.537042,-0.46345717,-0.11228667,-0.29467505,-0.19341893,-0.22389089,0.53064,-0.53957355,-0.82837653,-0.68503547,-0.49319,-0.7578447,-0.49111247,-0.63386035,0.20040357,0.04280317,-0.41861856,0.26836535,-0.6734877,0.044724107,-0.09336007,-0.25072545,0.62344885]},{"bias":0.61633825,"weights":[-0.40148872,0.49410903,0.47060692,0.15348923,0.013009429,-0.49074072,-0.048005424,0.49726978,0.99689174,-0.7321913,0.6516926,0.51413906,-0.3554191,0.4731065,0.8968952,-0.5011743,0.6442611,-0.6562113,-0.8411113,0.2995926,0.11903012,-0.9282994,0.044695973,1.0,-0.8119111,-0.63154984,0.65893924,0.8466499,0.8860321,0.17967546]},{"bias":0.67896223,"weights":[-0.2977926,-0.071569435,-0.13572785,0.7401011,-0.20185459,0.84749055,-0.62052697,-0.85659957,0.9557557,-0.7592516,0.17588861,-0.4544503,-0.54362214,-0.099324346,0.7170038,-0.057279706,-0.21726334,0.5342219,0.55185515,0.93215275,-0.2781672,0.70985115,0.45067132,0.2654935,-0.3867132,0.36288202,-0.107965685,0.7113128,-0.8324866,0.6541052]},{"bias":0.73182344,"weights":[-0.16749084,0.25862014,-0.8433052,0.19723988,0.0059820414,-0.20208514,0.8510921,-0.43494695,0.98859215,0.85558033,-0.18719566,-0.417525,0.3065945,-0.6430776,0.16944331,-0.4917354,-0.81727266,-0.48827547,0.9682312,-0.064127326,0.7787795,-0.3675117,0.14904511,-0.7393131,0.9258249,0.3534943,0.6538748,-0.63694584,-0.9902334,0.95876527]},{"bias":0.15656793,"weights":[-0.57754654,0.87734675,-0.09147847,0.80453944,-0.032192588,0.49304116,-0.038056254,0.5480089,-0.45517066,-0.62597513,-0.20454514,-0.4877817,-0.6039333,0.29157627,-0.15946972,0.9482322,0.36662427,-0.8039683,-0.2454592,-0.062379718,-0.9665268,-0.19976741,-0.90869045,-0.1317612,0.023467422,0.037489533,0.6754849,0.81827396,-0.8032074,0.6187167]},{"bias":0.3357476,"weights":[-0.93538195,-0.9301801,-0.62499136,0.19277346,0.7865362,-0.69159365,0.48224124,-0.45784652,0.33026707,-0.23151553,0.77109104,0.74471736,-0.8472458,0.11510289,0.82567227,0.48128474,0.6493126,-0.7522938,-0.14145172,0.6084006,0.58010125,-0.44032937,0.48368728,0.5215819,0.22588241,0.18214262,-0.8861873,-0.66432875,-0.4872095,0.5740671]},{"bias":0.5166137,"weights":[-0.64457273,0.8334651,0.3240223,0.34508073,-0.304851,-0.3489458,0.019008279,-0.22538269,-0.9930618,-0.5543075,-0.8247254,-0.3320884,0.90182376,-0.1537553,-0.57201874,0.18835856,-0.8833494,-0.32520622,-0.5105788,0.67734605,-0.3648979,-0.44550914,0.029284358,0.9659414,0.0065921545,0.12235558,-0.21567309,-0.38543838,0.43939793,0.10567625]},{"bias":0.40561354,"weights":[0.5406109,0.8389354,0.7637625,0.60532427,0.86009246,-0.8542862,0.3194729,0.33940876,0.18150336,0.2382828,-1.0,0.11760878,-0.19068778,0.46821064,-0.9778342,-0.2140261,0.8133669,0.5033431,0.8663755,0.5933974,0.8881662,0.695949,-0.43895262,0.49714625,0.36831987,-0.46153572,-0.12137163,0.79430485,0.63669086,0.56970555]}]},{"neurons":[{"bias":-0.84353805,"weights":[-0.8157116,-0.003807664,-0.15247738,0.73348165,0.013032556,0.86533475,-0.8421049,-0.7848548,0.48119462,0.55362684,-0.38103855,-0.48196906,-0.8756188,0.80984724,-0.7757528,-0.93579245,-0.08301818,0.08940709,-0.9330838,-0.9126694,0.51381207,-0.023721337,-0.8231089,0.43477857,0.22242135,-0.99005914,-0.274033,0.124218106,0.25287616,0.7914052]}]}]}