{"layers":[{"neurons":[{"bias":-0.60524267,"weights":[0.88067174,-0.002755046,0.7738185,0.89074826,-0.30960578,-0.21767914,0.7469599,-0.3994636,-0.45829338,-0.36487955,0.9416611,0.17691648,-0.96512055,0.4662727,0.3181528,0.109178424,-0.4958498,0.9976983,0.040232062,0.16243446,0.99264765,-0.74608874,0.034206986,0.20952284,0.754915,0.36986172,-0.036051393,0.09593165,0.67319536,0.97143364]},{"bias":0.38450992,"weights":[-0.20149195,-0.19050968,0.96857953,0.77894163,-0.44159836,0.1298784,-0.3784842,0.8026593,0.15548623,-0.21990597,0.5528953,0.12190211,0.5002749,0.862653,0.00090038776,-0.997947,-0.970778,0.36818302,0.3143376,0.90405583,0.18668807,0.03778088,-0.24891841,-0.36797112,0.31197774,0.06592715,-0.4008345,-0.66995406,-0.06991851,-0.5775098]},{"bias":-0.38514036,"weights":[0.15488923,0.7963891,-0.23368752,-0.45249933,0.7918987,0.73504233,-0.2166282,-0.31006998,0.3563987,-0.2638814,-0.86169004,-0.613908,0.17335784,-0.9397361,-0.4399113,0.96605253,0.7440736,-0.47212833,-0.830925,-0.3843605,0.21292555,0.06783831,0.6392243,-0.76561475,0.31642973,-0.29688686,-0.9159498,0.10774934,0.6282673,0.0582968]},{"bias":0.7181792,"weights":[0.54670644,-0.042542577,0.61458373,0.90659237,-0.9219072,0.78317714,0.8425672,-0.47831267,0.18178761,0.96526885,0.12198436,0.72254515,0.6171384,-0.5577473,-0.32111114,-0.6954422,0.9609306,0.14593089,0.39603078,0.81853247,-0.6882856,-0.2103945,0.3344003,0.8068378,-0.31067103,0.041861653,-0.6144988,0.07154763,0.37044966,-0.8508327]},{"bias":-0.77217126,"weights":[0.3386346,0.5685899,0.14215362,-0.21595776,0.29900348,-0.8280928,-0.9110434,-0.058215022,-0.5904953,-0.9082899,0.1150378,0.97535753,-0.63618803,-0.24410212,-0.056029916,-0.5251078,-0.64699745,-0.4357149,-0.77617526,-0.95107627,0.30816686,0.7979567,-0.007263541,0.7618971,-0.21673071,0.40963638,-0.5817029,-0.85144687,0.8607893,-0.26089138]},{"bias":0.46831453,"weights":[0.8759272,0.8428731,-0.22406924,0.34375298,-0.688622,0.25524247,-0.5977499,0.74881387,-0.220487,0.6977513,0.4548236,-0.2889077,0.7378664,0.47204816,0.4159869,-0.5225577,-0.21965301,0.5649824,0.98293066,-0.7374878,0.031747222,0.7744181,0.5420239,-0.9120872,-0.45383376,0.29024398,0.93807507,-0.74025965,-0.8961668,0.36323035]},{"bias":0.20682395,"weights":[0.6702366,0.45963967,-0.41450924,0.42572987,0.65673614,-0.050059676,0.3541633,0.3811711,-0.23389113,0.8780072,-0.3884887,-0.3054008,0.10711467,0.24253762,0.70134425,0.59972215,0.5821166,-0.718827,-0.85787606,0.08607185,-0.5525083,0.93047976,-0.3727209,0.012570024,-0.9579799,0.9083884,-0.619188,0.0303787,0.00312984,0.92542005]},{"bias":-0.7922714,"weights":[-0.9353113,-0.58224076,-0.55362314,-0.044073462,-0.53343433,0.09434211,-0.17287791,-0.3998961,-0.4083354,-0.8906038,0.8285475,0.48403323,0.6524148,-0.5227782,0.56871676,0.96320057,-0.85966563,-0.9884467,-0.067668796,0.009022832,-0.1726557,-0.5429365,-0.78514194,0.95066786,0.27068174,0.37476265,-0.2266711,0.32470906,0.21681392,-0.71851254]},{"bias":0.19751465,"weights":[-0.5258512,-0.9566207,-0.4272706,0.4387325,-0.54297847,0.3729614,-0.26848954,-0.07018936,0.050736308,0.76554775,0.8709452,-0.29355878,-0.9736054,0.81361413,0.7052028,0.86014986,-0.10807073,-0.92413473,-0.5019209,0.23424709,-0.7431655,-0.44670767,-0.2130295,0.84973884,-0.78296924,-0.6144056,-0.2524361,-0.5457546,0.51219153,0.31939495]},{"bias":-0.91049004,"weights":[0.42040527,-0.5671064,-0.57306045,-0.6787398,-0.8387213,0.5974908,0.3946079,-0.38200516,0.5630202,0.1822735,-0.7972982,0.33361733,0.3492812,-0.7455728,0.27548563,0.17139447,0.8207743,-0.96585655,0.5141151,-0.33100718,0.7699659,0.95725656,0.051520467,0.26740396,0.6224179,0.9700823,-0.4389953,-0.4077751,-0.7536316,0.6087425]},{"bias":0.679039,"weights":[-0.8040528,0.32964027,-0.6764927,0.18701112,-0.8794584,-0.8420334,0.66610813,-0.0909785,-0.27629846,0.7137997,0.9548869,-0.45908993,0.32593453,-0.24360645,-0.40172237,0.1315862,-0.5454623,-0.6513636,-0.1424185,-0.2939629,0.93284655,-0.246189,-0.17036259,-0.37426227,-0.5033402,0.5717795,-0.106699586,-0.19729626,-0.31151003,-0.7575631]},{"bias":-0.11403072,"weights":[0.7419388,0.49151528,0.5889158,0.8530061,-0.7201915,0.32200277,-0.7477362,0.59861255,-0.9223721,0.21089065,0.99372745,0.28507197,0.6480391,-0.2779612,0.18102157,-0.3569817,-0.015917659,0.31112468,-0.39434236,-0.35572785,-0.86197376,0.6067898,0.9221194,0.69563603,0.50869346,0.7279563,-0.8230586,0.7892611,0.052188993,-0.67170763]},{"bias":0.574594,"weights":[-0.21823227,-0.23976004,-0.759218,-0.94175816,-0.58061713,-0.9987006,0.41980875,-0.07660544,0.86543036,0.4769827,0.058915496,-0.69563556,0.46568048,-0.31089848,0.535305,-0.9267194,-0.23384202,-0.57478756,-0.795315,-0.73320174,0.13801372,-0.70952463,-0.83941483,0.13071644,0.64042187,-0.17240298,0.15544307,-0.4518804,0.4053594,-0.67583966]},{"bias":-0.82602334,"weights":[0.6264429,0.3643645,-0.9150305,-0.6844394,0.47078764,0.8329382,0.7636497,-0.68050003,-0.38161415,-0.2587008,0.47880828,-0.26748055,0.6845517,-0.7144644,0.6762712,-0.6713948,-0.2869298,-0.8539851,0.26726258,-0.7575381,-0.43963522,0.17878592,0.26776874,-0.42514676,-0.2200023,-0.27976412,-0.16736019,0.82633615,-0.33269614,0.32003415]},{"bias":0.34482038,"weights":[-0.8925693,0.5747943,0.9086497,-0.62780094,0.4186226,0.9371884,0.3444978,0.49915922,0.5790632,0.7880957,0.5469692,-0.014800668,-0.22458899,-0.5780007,0.52485514,-0.18868601,0.56886864,-0.0021830797,0.2183677,0.25676215,-0.07245195,-0.99877334,0.056455255,0.04199326,-0.77881193,-0.6008572,-0.31090325,0.08046472,-0.8723507,-0.7991576]},{"bias":0.31051266,"weights":[0.8493943,-0.6060509,0.43440187,0.23408496,0.08958161,0.12226832,-0.8502836,-0.29570812,0.48557436,-0.7363734,-0.72655535,0.8925259,-0.7915449,-0.8947294,-0.93738556,0.7169204,0.31653988,-0.86509466,0.27353466,-0.7788844,-0.65390396,0.47140634,0.93580604,-0.9631958,-0.008971572,0.5237694,-0.18516004,0.54636693,0.46645248,-0.7825711]},{"bias":-0.14453542,"weights":[-0.6498265,-0.86697745,-0.8146782,-0.5973334,-0.2392534,-0.96172523,0.7959914,0.6110823,-0.86070347,0.73708224,0.30175292,0.051631093,-0.48144048,0.97762346,-0.021715999,-0.9818282,-0.79411674,-0.094730735,0.6662283,0.33738554,-0.58923215,0.5317042,-0.9344816,0.78244066,0.012231469,0.3148018,0.14132035,0.021101832,0.30833137,0.289029]},{"bias":0.24278033,"weights":[0.48410976,0.14442122,-0.6044664,-0.62047404,-0.15188324,0.5555246,-0.6246161,0.87898016,0.9422121,-0.5718431,-0.21079671,0.67963386,-0.63244104,-0.30965704,0.5573499,0.44206417,0.4736377,-0.023537517,0.62546396,-0.29706258,0.047867656,-0.57838863,0.83042336,-0.7667692,-0.65295434,0.8576503,0.2643422,0.7050996,0.9491706,-0.07493937]},{"bias":0.6864033,"weights":[-0.20754516,0.446823,-0.6227657,0.4942509,-0.8381479,-0.25420278,0.7205491,-0.5300469,0.65883684,-0.8810437,-0.33315486,0.47228944,-0.62379116,0.6240816,0.35144913,0.6979058,0.5687883,0.18171799,-0.3460557,-0.52683705,0.37473118,-0.34032744,-0.5477635,-0.094478965,-0.96310997,-0.32455605,0.9069586,0.56216717,-0.16526926,0.0840317]},{"bias":-0.18144453,"weights":[0.8021395,-0.48520678,-0.75640893,0.38948166,0.43858635,0.5969653,0.40910614,-0.831959,0.38935935,0.0031000376,-0.9255066,-0.6838598,-0.7190275,0.45180976,0.16963327,0.62487745,0.6726413,0.24074233,0.72210693,0.56182766,0.006599784,0.51514554,0.43921244,0.8604605,0.30590165,0.95236087,-0.45295733,-0.8365755,-0.7610109,0.6555016]},{"bias":-0.7203119,"weights":[-0.2714123,0.2666527,0.90605617,0.39705217,0.96815896,-0.08709562,-0.23289025,-0.29143423,-0.5122959,0.7863114,-0.12949145,0.638685,0.9863603,-0.35118264,0.7735851,-0.36710685,0.5468495,-0.99682045,-0.668133,0.8063245,0.5918708,-0.8443866,-0.85698724,-0.37839216,0.5785885,-0.511501,-0.14042342,-0.42235297,0.87888145,-0.26553625]},{"bias":-0.46480292,"weights":[-0.5085494,0.07089484,-0.19155586,0.4897076,0.0057920218,0.22492611,-0.880939,-0.4815933,0.058023095,0.41097605,0.6661675,0.23485124,0.20905006,-0.27929014,0.46500766,0.5455158,-0.16335166,0.004934907,-0.26278967,-0.664824,0.50549126,-0.9241307,-0.5573775,-0.5257103,0.7124281,-0.11445367,0.5139289,0.8221538,0.58725023,0.45045483]},{"bias":0.107113004,"weights":[0.029379487,0.030126452,-0.95582795,-0.20330203,0.030808806,0.5619159,-0.6428263,-0.7358105,0.7083459,-0.90451694,0.543345,0.34417307,0.244187,0.2001015,0.5395646,0.7408962,0.4253987,0.6223903,-0.047782302,-0.3769793,-0.11647904,-0.49263757,0.4185425,0.3260833,0.13111198,0.6709435,0.40961516,-0.72431016,0.3325051,-0.31252474]},{"bias":-0.31947702,"weights":[-0.9876158,-0.2907719,-0.608736,0.39568365,-0.7715764,-0.5683071,-0.07738292,-0.34172028,-0.23967993,0.6877098,0.8080113,0.33905518,-0.083661675,-0.77495,0.45531,0.9714656,-0.18216479,0.93261576,-0.23873746,-0.29444188,-0.99534845,0.59426785,0.10939562,-0.36781472,0.33244908,0.7455232,0.3670286,-0.75232387,0.3366605,-0.31327766]},{"bias":-0.45968312,"weights":[-0.95575714,0.95057106,-0.746825,-0.25071067,-0.17554367,0.7025702,0.90486884,0.19081342,-0.030521274,0.85177755,-0.19705737,-0.68006635,0.04546845,0.99371624,0.6846082,0.1871525,-0.124013305,-0.9690764,-0.056110024,-0.32881993,-0.84015846,-0.38416356,0.7215445,-0.27386087,0.6695137,-0.6542921,-0.4654104,-0.13790095,-0.6863632,0.17213476]},{"bias":-0.6335778,"weights":[-0.4061088,-0.6221251,-0.30270785,-0.16198695,0.75703764,-0.124008775,-0.24286401,0.0044933558,0.4144231,0.05565393,0.71438265,-0.9553659,0.9026041,0.05532086,-0.86258364,0.61643887,-0.5654289,0.72711444,0.08969939,0.8507192,0.6733093,0.061499238,0.77442217,0.99020267,-0.7954922,-0.38604397,0.8363416,-0.45869154,0.35954988,0.11842668]},{"bias":-0.9783349,"weights":[0.54882216,-0.5478768,-0.15812004,-0.9507649,0.24124825,-0.72784686,0.4786135,0.6046133,-0.36981696,-0.9197812,-0.7304554,0.0816232,-0.9845655,-0.2040149,-0.68388367,-0.27464646,-0.98719525,0.030401349,-0.60564035,0.29246914,-0.91200066,0.052070737,-0.7300117,-0.14432395,0.06306422,0.9972615,-0.3587138,-0.75518274,-0.5218753,-0.13799536]},{"bias":-0.919739,"weights":[0.8424597,0.9108944,-0.5202343,-0.8648269,0.81604195,-0.45445174,0.41366255,0.02719915,0.5948622,-0.9796989,0.604892,-0.10538399,0.9562397,0.5875604,0.6145241,-0.99616313,-0.18123996,0.03965032,0.96708465,0.67981386,0.90707517,-0.49950188,0.30975902,-0.00066268444,0.39825308,-0.015489936,0.1444403,-0.5721051,0.77922106,0.59429884]},{"bias":0.6099546,"weights":[-0.0766381,0.65269375,-0.92360616,0.28516185,0.82457304,0.9182303,0.73890114,-0.3502602,-0.36951417,0.5773463,-0.87991476,0.030220628,0.21032274,-0.6057014,-0.28008908,-0.29170626,0.47854388,-0.8798344,0.017043233,0.6930871,0.7667408,-0.38965625,0.070484996,0.60388637,0.5969691,0.32400882,-0.51420087,-0.9268639,-0.6436932,0.03200257]},{"bias":0.9434211,"weights":[0.6925771,-0.29987067,-0.29509634,-0.4204468,-0.3004269,-0.8819084,-0.2674691,-0.57734627,0.35355031,0.47312272,0.2686864,-0.71367407,0.08175862,-0.75501156,-0.13270819,0.2696582,-0.7668624,-0.26502985,-0.8296051,0.15720499,0.7594149,0.929059,0.16296947,0.618768,-0.7577727,-0.17403209,0.26181448,-0.94844913,-0.028880239,-0.8746033]}]},{"neurons":[{"bias":-0.010347724,"weights":[-0.5707869,0.9082401,-0.01070416,-0.4576282,0.27466333,0.24914515,-0.25688094,0.5534344,0.9396341,-0.40806502,-0.7028403,0.20599258,-0.10885084,0.6752529,0.58023477,-0.19012964,-0.8096256,0.2864846,-0.50286,-0.7157023,0.8108816,0.70800495,-0.46595806,-0.31249613,-0.8776612,0.689327,0.3559872,0.40207636,0.21100247,0.59179974]}]}]}