{"layers":[{"neurons":[{"bias":-0.053018212,"weights":[-0.724941,-0.7227098,-0.53206724,0.8994341,0.061048277,0.79567814,0.12505674,-0.44317,0.4220288,-0.005326867,-0.95126843,-0.08832967,-0.10502422,0.752611,-0.7462292,-0.57261676,0.76308393,0.97197294,-0.3666944,0.6280272,-0.78461885,0.023528457,-0.9533098,0.779032,0.1780628,-0.7245343,-0.30558866,0.49646223,-0.4204904,-0.83709717]},{"bias":-0.30672735,"weights":[0.8261703,-0.3867516,-0.22033155,-0.6960337,-0.3045184,-0.30107,0.54750204,0.40846413,0.21555027,0.24408495,0.07588184,-0.3124463,-0.8908087,-0.2848851,-0.48643255,-0.3008551,0.94191796,-0.71801496,0.7347555,-0.47287342,-0.8271922,0.18045151,-0.0789885,-0.039901614,0.8774462,-0.46367267,0.5873203,-0.22015893,-0.0027130842,-0.55926985]},{"bias":0.28644,"weights":[0.48391783,0.009383805,-0.6306877,-0.83025354,-0.02909863,-0.7932675,-0.66092086,0.7035785,0.068336844,0.47131956,-0.0051654577,0.73759913,-0.08307183,-0.5269899,0.9159175,-0.5888123,0.9321215,0.39063346,0.2436946,-0.3774721,-0.351798,-0.3217448,-0.1575889,0.17520368,0.92770743,0.8027086,0.161152,0.19774616,-0.65911746,0.4303547]},{"bias":-0.9427428,"weights":[0.2699536,0.9107156,0.18657812,-0.5029613,0.27385524,0.27040362,0.057991624,0.07098997,0.253565,0.16656482,0.93510604,-0.5877213,0.56787586,0.8721299,0.61950064,-0.6836849,-0.72666574,-0.29665846,-0.5142655,0.8481965,0.12983662,0.4894851,0.38887966,0.75816053,-0.6650405,0.7973826,0.8079269,0.14099562,0.83919096,0.9848635]},{"bias":-0.9458256,"weights":[0.9875192,0.92061365,0.039822698,0.77188945,-0.47649807,-0.8327694,-0.7070837,0.88216877,0.51628804,-0.5577798,0.23268569,0.9614041,-0.6321819,0.35262597,0.014175057,-0.16337058,0.11369598,-0.48238733,0.36334765,-0.87402844,0.11365783,0.6393864,0.77043724,0.6694851,-0.3109305,0.7305274,-0.49826306,-0.39217156,-0.69965637,0.555431]},{"bias":0.47552,"weights":[-0.62595344,-0.26621646,-0.3177765,-0.58497256,0.64099693,0.39518154,-0.056290507,0.8845923,0.49036038,-0.45798653,-0.9854078,0.0068274736,-0.11555256,-0.9350952,0.5683198,0.45960513,-0.846919,-0.39905187,0.58839273,0.65058684,0.11022508,-0.6037971,0.8125784,-0.6628264,-0.36437768,0.3111993,-0.48395902,0.093292356,-0.9550636,0.7837632]},{"bias":-0.5537943,"weights":[0.44644725,0.6688739,-0.16062087,0.45750654,0.9491265,0.21323788,0.7020614,0.1556997,-0.95643735,0.005405292,0.6804054,-0.06839549,0.0035198927,-0.013621688,0.55205894,0.3084737,-0.815851,0.4813937,-0.23076206,0.022551514,-0.6713722,0.2309283,0.33334315,0.28861105,0.4521268,0.8376558,-0.88630724,0.76103795,0.38856736,-0.73406386]},{"bias":-0.026851296,"weights":[0.09931153,-0.765844,0.33266276,0.51905155,0.5916889,-0.20704591,-0.17082676,-0.7779081,0.3267392,-0.38651484,0.54472494,-0.9455056,-0.67010856,0.19868314,0.4737841,0.9519026,-0.28082556,0.74940467,-0.15485108,-0.96424,-0.18944705,0.010738559,0.71002954,-0.1605601,0.3175317,0.5287175,0.5992992,-0.565657,-0.3436021,0.7001033]},{"bias":0.60358953,"weights":[0.065467,0.47690332,0.441419,-0.34928602,-0.94755167,0.24853611,0.6038592,-0.68551314,-0.15399325,0.36403024,-0.3445508,0.6395068,0.78440523,-0.5961661,-0.83731985,-0.6385741,0.71300435,0.93910146,-0.09403479,0.8434191,0.38449466,0.2151674,-0.10323608,0.853847,0.88442206,-0.58211637,0.33437148,0.44399083,0.80873984,-0.20466006]},{"bias":0.050320268,"weights":[0.66436917,-0.8271835,-0.74689484,0.23198491,0.06967819,0.24939574,0.11277295,-0.0022960901,-0.7757683,-0.19556415,0.2554116,-0.086780906,0.18298708,-0.6030883,0.9333434,-0.43275753,0.6940911,0.49181092,0.51806283,1.0,-0.30314502,-0.42656177,0.3433088,-0.81521297,-0.39708662,0.7875109,-0.23928821,-0.033111215,-0.6453302,-0.8220682]},{"bias":-0.7423644,"weights":[0.9431808,-0.5677703,0.46662366,-0.031218171,-0.5251729,0.54753184,0.8540101,0.5817345,-0.5863008,-1.0,0.64082015,-0.014793158,-0.6975918,0.66474605,0.62083125,-0.40775985,-0.32836503,0.15462458,-0.55167896,0.94851655,0.00063023716,-0.8427981,0.29153907,-0.24270664,0.96938086,-0.8133123,0.118661284,-0.31947154,-0.08336597,0.0881583]},{"bias":-0.4575705,"weights":[-0.36657208,0.3716582,-0.5554354,0.2711364,-0.3073745,-0.49022287,-0.72167873,0.76249194,-0.494961,0.1342262,-0.06146293,0.89104843,0.7385974,0.15526141,-0.45908016,0.43307245,0.415934,0.9300742,-0.60419244,-0.6555221,-0.102160096,-0.7638676,0.14819443,-0.6964412,-0.19902465,0.081876636,0.20991886,-0.58222646,-0.1369263,0.19364941]},{"bias":-0.92112374,"weights":[0.9589367,0.47695217,0.2828499,0.78005815,-0.3486482,0.52804565,0.61416376,0.30417788,-0.26142973,0.91944385,0.1349808,0.75151944,-0.027258039,-0.26337165,-0.3653794,-0.5660963,0.6952933,0.8010221,-0.17192763,0.6769037,0.17879617,0.41990614,0.8531592,-0.49021047,0.25522363,0.27573645,-0.23606503,-0.60208315,0.82838404,0.39432037]},{"bias":-0.14762557,"weights":[0.28174698,-0.61737365,0.6005504,0.77225405,0.9608152,-0.14105332,0.97990894,0.7588494,-0.5086204,-0.45159358,-0.8894941,-0.82634485,0.47127488,-0.18458784,0.6217396,0.6806042,-0.8503802,-0.79941773,-0.1013633,-0.76523423,-0.55859417,0.6593182,-0.27008957,0.6153827,-0.42536587,-0.48312563,-0.36919087,0.05014634,-0.3706171,0.31382763]},{"bias":0.81147027,"weights":[-0.7800041,-0.825088,-0.32138175,-0.5789949,0.7124398,0.3518566,-0.9218632,-0.11800015,0.48904097,-0.172394,-0.6884327,-0.7793967,-0.66595644,-0.38963073,-0.699836,0.34455454,-0.5917346,-0.04973805,0.068585515,0.2840737,-0.10367668,0.16284889,-0.006313443,-0.27998656,0.47882926,-0.4686202,-0.7698209,0.27887738,-0.55271953,-0.065802164]},{"bias":-0.6716838,"weights":[0.1253506,-0.44977078,0.41055167,-0.96941173,0.49052584,-0.16415155,0.31063163,0.33473662,0.31800234,-0.106042266,0.16230454,0.8827629,-0.4105248,0.7973075,-0.30186433,0.15243633,0.5336287,-0.6778922,-0.20329559,-0.51505345,-0.629699,-0.97213197,0.012744464,0.21491325,0.7883892,-0.5706722,-0.5369944,-0.32440537,-0.8058567,0.4797207]},{"bias":-0.7883427,"weights":[-0.3984434,-0.65428543,0.37857288,-0.53327197,0.24905789,-0.6524956,-1.0,-0.6237101,-0.6861987,0.32764858,-0.96196556,-0.088353515,0.49659643,-0.82478666,0.5614175,-0.13279045,-0.69126797,0.45708078,-0.9990761,-0.9913486,-0.18320173,0.614349,0.9859302,-0.9785423,0.22077048,-0.8361633,0.050878406,-0.15741313,-0.19653103,0.9731777]},{"bias":0.035906196,"weights":[-0.8416693,-0.3845566,0.6772077,0.81651807,0.2916821,0.8451508,-0.71059704,0.8600259,1.0,-0.71354413,-0.24475443,-0.1172923,-0.8590679,0.9705272,0.893811,-0.79239345,0.1142565,0.33495033,0.37195957,-0.26415938,0.66980124,-0.8138211,-0.50999194,0.6088521,0.15174448,0.23072314,0.4508474,-0.1471914,0.04824555,-0.48482925]},{"bias":0.48885715,"weights":[-0.33139843,0.87865424,0.6538203,-0.48970765,0.5783565,0.19743833,-0.22308314,0.011344552,0.21128905,-0.5650615,-0.84808445,0.040254712,-0.613404,-0.21474326,-0.31594366,-0.68294287,-0.7474636,0.28530353,0.748244,-0.29797763,0.12270892,-0.04491657,0.15504968,0.7129264,0.77793145,-0.59659255,0.99430346,-0.56157655,0.13342512,-0.9261496]},{"bias":-0.73598504,"weights":[0.21773016,-0.16103137,-0.96503997,0.53911924,-0.60265785,-0.96539664,-0.17782843,-0.88099176,-0.22032416,-0.28597713,-0.6956408,-0.98813915,-0.11025345,0.8994005,-0.27116984,-0.20295012,0.48734224,0.8763695,-0.6004898,0.85946584,0.8644891,0.9152427,0.397354,-0.28998703,-0.65395445,-0.044501416,-0.6044505,0.30302513,-0.9138439,-0.88488877]},{"bias":-0.7320132,"weights":[0.4835347,0.84306526,0.21332482,0.6918082,1.0,-0.5905196,0.18636096,0.38920748,-0.21568906,0.30995652,0.91712165,0.5619693,0.52803636,-0.10133517,-0.8666497,-0.31758636,-0.64120173,0.07798326,-0.32254714,0.9413404,-0.97640824,-0.9235692,-0.43297678,0.99332833,0.869722,-0.17634428,-0.13023913,0.7146187,0.24946561,-0.7812929]},{"bias":0.81136155,"weights":[0.12201233,-0.056982636,0.5687359,-0.18734372,0.1470238,0.29884866,-0.69301516,0.72986555,-0.5725576,0.7885215,0.68411064,0.16472566,0.62009406,0.85866785,0.05801761,-0.98669696,-0.47764224,-0.5008852,0.27310956,-0.6337793,-0.74680775,-0.7422687,-0.81039983,0.21415961,-0.7805164,-0.37622255,0.93767405,-0.6438651,0.56491137,-0.88258076]},{"bias":0.71234655,"weights":[0.72031105,0.066209674,0.71517754,0.88226056,-0.8448634,-0.6223382,0.35302913,-0.8735819,-0.46345717,-0.11228667,-0.34657654,-0.22825791,0.9884484,-0.6401191,-0.53957355,-0.8563788,-0.33886737,-0.60418195,0.81673265,-0.27059668,-0.6769097,-0.9434531,-0.4779505,0.115166545,0.26836535,-0.7481291,0.10943184,0.1684252,0.92395854,-0.14112961]},{"bias":-0.6104836,"weights":[0.6569843,-0.6240999,0.47060692,0.34184587,0.043407537,-0.5464131,-0.548269,0.49726978,-0.9084685,-0.7069887,0.6516926,0.4992782,-0.5987217,0.4731065,0.28932297,-0.8442633,0.6442611,-0.30570644,-0.8926516,0.2995926,-0.93725777,-0.593008,0.5396533,1.0,-0.8119111,-0.55615467,0.65893924,-0.8042407,0.7870234,0.6923454]},{"bias":0.67896223,"weights":[-0.2977926,-0.071569435,-0.8151927,0.2712692,-0.14325067,0.84749055,0.33421314,-0.30765766,-0.6038043,-0.6063699,0.49400842,-0.86290765,-0.957598,-0.099324346,0.77468395,-0.057279706,-0.21726334,-0.3339538,-0.6546614,0.93215275,-0.2781672,0.8150277,0.45067132,0.2654935,-0.3867132,0.36288202,-0.107965685,0.72440606,-0.8730067,0.4594277]},{"bias":0.8860564,"weights":[0.46590793,0.15917438,-0.90379834,0.7718086,-0.27865523,-0.20208514,0.49146354,0.6666267,0.91694,-0.68995714,-0.27644056,0.15254009,-0.94530535,0.5094335,0.18680361,-0.5830332,-0.15401113,-0.48827547,1.0,0.015190721,0.8579443,-0.3597018,0.14904511,0.4811331,0.9258249,0.3534943,0.747164,-0.04807222,0.32071197,0.68108463]},{"bias":0.62308407,"weights":[-0.6390409,0.62648416,-0.35597843,0.72568434,-0.9006493,-0.122777104,0.7763605,0.5480089,-0.45517066,-0.82960725,0.16845167,-0.17035282,-0.6039333,0.35632932,-0.03871429,-0.13762438,-0.8107133,-0.8039683,-0.3128881,-0.019907929,-0.9665268,-0.19976741,0.32699835,0.055235744,-0.24724829,0.71879697,-0.6971786,0.62904024,-0.7366568,0.2604698]},{"bias":0.33801615,"weights":[0.6426995,-0.9550359,-0.685457,0.19277346,0.64029264,-0.77879435,0.48224124,0.015767932,-0.075683236,-0.16971591,0.77109104,0.74471736,-0.8677624,0.07931343,0.46575344,0.48128474,-0.23538315,-0.80210197,-0.4687454,0.5840935,0.9867759,-0.082244515,0.48964205,0.3738984,0.588325,0.18214262,-0.8861873,-0.7114229,-0.49976352,0.5740671]},{"bias":-0.95080805,"weights":[-0.64457273,-0.19405758,0.37547138,0.44340444,-0.27702227,-0.7880285,0.044644587,-0.22538269,-0.10525429,0.07245052,-0.82531923,0.11315715,0.6555767,-0.1537553,-0.56479377,0.38610375,-0.8833494,-0.32520622,-0.6912148,-0.23986447,0.8966074,-0.44550914,0.16638029,1.0,0.0065921545,0.105991445,-0.15054995,0.44982994,-0.8200419,0.13087097]},{"bias":0.40561354,"weights":[0.5406109,0.75984293,0.67701304,0.60532427,0.47490418,-0.5371496,0.2302945,0.25586313,0.33267987,0.33270055,-1.0,0.2134043,0.06878698,0.46821064,-0.90281034,-0.002739787,0.78176016,0.012354255,0.8663755,0.6101712,0.8338041,0.7076499,-0.34699348,0.49714625,0.36831987,-0.5369345,-0.92889285,0.8072354,-0.46509475,0.3705486]}]},{"neurons":[{"bias":0.52202296,"weights":[-0.8157116,-0.53989357,-0.15247738,0.79099405,0.013032556,0.01090014,-0.9629154,-0.17928016,0.48119462,-0.89664125,-0.50271386,-0.40048188,0.08978355,0.018917203,-0.6872289,-0.89195067,-0.5326957,0.08940709,-0.9330838,-0.9126694,-0.128183,-0.023721337,-0.7917958,0.10867846,0.14023298,0.77006865,-0.18602002,0.059929326,-0.39743775,0.7914052]}]}]}