{"layers":[{"neurons":[{"bias":0.0111967325,"weights":[0.88067174,-0.002755046,0.7738185,0.6295693,0.33996904,-0.21767914,0.7469599,-0.3994636,-0.45829338,-0.12617648,0.10384238,-0.8418777,-0.96512055,-0.6331444,0.3181528,0.8518417,0.7392831,-0.9211714,-0.11495435,0.16243446,0.99264765,-0.8345797,0.7030127,0.06820428,-0.9008827,0.36986172,-0.036051393,0.09593165,0.57068133,0.97143364]},{"bias":0.38450992,"weights":[-0.20149195,-0.19050968,0.35120022,0.77894163,-0.7910478,0.1298784,0.31027162,0.8026593,0.24453843,0.5528226,-0.15834868,0.7893486,0.5002749,0.862653,-0.8288226,-0.997947,0.57717943,0.36818302,0.6361413,-0.9013705,0.18668807,0.6222911,-0.24891841,-0.11700165,0.83263516,0.15019953,-0.6060149,-0.59955233,-0.06991851,-0.5735292]},{"bias":-0.38514036,"weights":[-0.7864268,-0.7949343,0.9046185,0.82404065,0.511667,0.73504233,-0.6132242,-0.31006998,0.3563987,-0.2638814,-0.86169004,-0.613908,0.17335784,-0.9397361,-0.52166814,-0.10532844,0.9354994,-0.47212833,0.5732775,-0.3843605,0.21292555,0.06783831,0.6392243,-0.76561475,0.31642973,-0.29688686,-0.9159498,-0.6198198,0.6282673,0.0582968]},{"bias":0.7908015,"weights":[0.4621426,-0.042542577,0.61458373,-0.7248213,0.82532334,0.80857635,0.8425672,0.04858458,-0.27773613,0.96526885,0.12198436,0.72254515,0.6171384,-0.2754838,-0.14122188,-0.6954422,0.9609306,-0.6804645,0.24262631,0.81853247,0.37021768,-0.2103945,0.3344003,0.8068378,-0.31067103,0.041861653,-0.6144988,-0.40059108,0.5646994,-0.5101189]},{"bias":-0.61685747,"weights":[0.3386346,-0.776716,0.088707805,0.34117305,0.29900348,-0.8280928,0.8666496,-0.058215022,0.51629496,-0.9082899,-0.8822572,0.97535753,0.8418052,-0.24410212,0.97191906,-0.47503585,0.1874007,-0.4357149,-0.77617526,-0.95107627,0.30816686,0.21633184,-0.32009834,0.7618971,-0.21673071,-0.936224,-0.5817029,-0.16997969,0.58391094,-0.26089138]},{"bias":-0.88649416,"weights":[0.78129816,0.58375597,-0.22406924,-0.28560728,0.7152631,-0.29043168,0.4922768,0.5573199,-0.004391551,0.6977513,0.5168989,-0.2889077,0.7378664,0.47204816,0.58549595,-0.3452024,-0.21965301,-0.696918,0.98293066,-0.48851174,0.031747222,-0.93112326,0.55163527,-0.9120872,-0.45383376,0.21422064,-0.6049685,-0.74025965,-0.8961668,-0.6562855]},{"bias":0.20682395,"weights":[0.6702366,-0.3836276,-0.3534252,0.42572987,-0.21373284,-0.050059676,0.3541633,0.28851616,-0.94903135,0.14523137,-0.3884887,0.27802908,0.26935542,0.24253762,-0.19518888,0.59972215,0.7861345,-0.718827,-0.45714182,0.08607185,-0.5525083,0.93047976,-0.3727209,0.012570024,0.16794455,0.9083884,-0.619188,0.0303787,0.5941644,0.92542005]},{"bias":-0.7922714,"weights":[-0.6129469,-0.62094945,-0.55362314,-0.013502717,-0.5942721,0.09434211,-0.17287791,-0.8258281,-0.4083354,-0.8906038,0.59166026,0.48403323,0.6524148,0.11439884,0.2614535,0.96320057,0.5219979,-0.9884467,-0.067668796,0.607188,0.79354715,-0.5429365,0.20194662,0.95066786,0.27068174,-0.66227436,-0.9880812,0.32470906,0.21681392,-0.71851254]},{"bias":0.19751465,"weights":[0.630388,-0.9566207,-0.4272706,-0.37058347,-0.49371046,0.11958444,-0.16090024,-0.48728126,-0.8681228,0.76554775,0.8709452,0.09445727,-0.9736054,0.81361413,0.7052028,0.07424343,-0.10807073,0.9901645,-0.7739508,0.23424709,-0.7431655,-0.44670767,0.4737221,0.84973884,-0.78296924,-0.6144056,-0.2524361,-0.45255536,0.51219153,-0.9615669]},{"bias":-0.91049004,"weights":[0.42040527,-0.5671064,-0.57306045,0.81344295,-0.8387213,0.41364038,0.3946079,-0.38200516,0.5630202,0.9727073,0.048524976,0.33361733,0.3492812,0.16354597,0.2526952,0.8797474,0.8207743,-0.96585655,0.5141151,-0.33100718,-0.31102055,0.95725656,0.051520467,0.26740396,0.17932546,0.9700823,-0.35825747,-0.93815684,-0.7536316,0.6087425]},{"bias":-0.72171545,"weights":[-0.8040528,0.9596865,0.41368687,0.95003796,-0.8794584,-0.8420334,0.66610813,-0.0909785,0.9558339,0.10497773,-0.879282,0.22681344,0.32593453,0.74555683,-0.40172237,0.1315862,-0.5454623,0.73372674,-0.1424185,-0.2939629,0.86633086,0.7079294,-0.17036259,-0.37426227,-0.37085956,0.5717795,-0.25141114,0.6027868,-0.31151003,-0.60418767]},{"bias":-0.11403072,"weights":[0.7419388,0.38620293,0.5889158,0.8530061,-0.7201915,0.4447235,-0.1027683,0.59861255,-0.9223721,-0.5081822,0.99372745,0.055060267,-0.17876875,-0.2779612,0.18102157,-0.3569817,-0.015917659,0.31112468,-0.39434236,0.14137566,-0.32107657,0.6067898,-0.46446246,0.0884825,0.6136868,0.54145694,-0.19346344,0.7892611,0.052188993,-0.67170763]},{"bias":0.574594,"weights":[-0.5272886,-0.16958225,0.31665266,-0.94175816,0.28547466,0.10330951,0.41980875,0.15227997,0.7042358,0.5014224,0.058915496,-0.69563556,0.8838496,-0.31089848,0.88101506,0.5038886,-0.52263063,0.40864646,-0.795315,0.278355,0.81376696,-0.9729841,0.7988398,0.13071644,0.64042187,-0.17240298,0.15544307,0.9178283,0.4053594,0.5575464]},{"bias":-0.82602334,"weights":[-0.085398555,0.3643645,-0.9150305,-0.0137912035,-0.13486111,-0.6058149,0.7636497,-0.68050003,0.1775974,0.67038846,0.8297124,-0.26748055,-0.25117344,-0.7144644,-0.8536296,-0.9066906,-0.2869298,-0.8539851,0.26726258,-0.7575381,-0.43963522,0.8124995,-0.44995493,-0.24986827,-0.5954661,-0.09584463,-0.36870402,0.5570004,-0.33269614,0.12968695]},{"bias":-0.59018797,"weights":[-0.25854725,0.5747943,0.23740423,-0.62780094,0.4186226,0.9371884,-0.13684523,0.49915922,0.915292,0.7880957,0.1782521,0.560585,-0.22458899,-0.5780007,-0.72766256,0.5067179,0.56886864,-0.0021830797,-0.6788151,0.25676215,-0.07245195,0.056257367,0.056455255,0.5692618,-0.77881193,-0.48288435,0.5137303,0.08046472,-0.8723507,-0.7991576]},{"bias":0.31051266,"weights":[0.8493943,-0.6060509,0.43440187,0.23408496,0.08958161,0.12226832,-0.8502836,-0.29570812,0.48557436,-0.7363734,-0.31853575,0.8925259,0.44198358,0.5661237,-0.93738556,0.7169204,0.31653988,-0.86509466,0.27353466,0.6470256,0.022911668,0.47140634,0.93580604,-0.9631958,-0.008971572,-0.6913831,0.83535075,0.54636693,-0.15735877,-0.7825711]},{"bias":-0.544182,"weights":[-0.6710031,-0.86697745,0.48916495,-0.5973334,-0.2392534,-0.96172523,-0.5664703,0.6110823,-0.86070347,0.18385279,0.30175292,0.051631093,-0.48144048,-0.1798755,-0.021715999,-0.1513685,-0.79411674,-0.56842226,-0.4913084,0.1825465,-0.58923215,0.5317042,0.8055928,0.78244066,0.012231469,-0.54369897,-0.5015761,0.7573495,0.30833137,0.41613138]},{"bias":0.24278033,"weights":[0.48410976,0.14442122,-0.6044664,-0.32079023,-0.0118614435,0.5555246,0.41347635,0.52632356,0.9422121,-0.26574868,-0.21079671,0.67963386,-0.63244104,-0.30965704,-0.15120566,0.01028645,0.4736377,-0.26109833,0.62546396,0.95418143,0.047867656,0.70760846,-0.110173106,-0.3476922,-0.65295434,0.8576503,0.2643422,0.7050996,0.9491706,0.53949547]},{"bias":0.6864033,"weights":[-0.848423,0.446823,-0.6227657,-0.76434517,-0.8381479,-0.25420278,0.4190501,-0.5300469,0.63200474,0.93487453,-0.33315486,-0.21281707,-0.62379116,0.5876975,0.35144913,0.6384702,0.5687883,-0.6008331,-0.3460557,-0.52683705,0.25111878,-0.34032744,-0.5477635,-0.094478965,0.13427436,0.89991426,-0.10863507,0.5735574,-0.16526926,-0.7525239]},{"bias":0.24757111,"weights":[0.8021395,-0.48520678,-0.21801889,0.38948166,0.43858635,0.8936837,0.00033938885,-0.831959,0.38935935,-0.03278029,-0.9255066,0.0017501116,-0.225469,0.45180976,0.16963327,0.62487745,0.22937882,0.43416083,-0.28922504,0.56182766,0.006599784,0.51514554,0.43921244,-0.9437282,-0.86399174,0.8819752,-0.45295733,0.68059564,-0.7610109,0.6555016]},{"bias":-0.4394576,"weights":[-0.2714123,0.2666527,-0.1790694,0.39705217,0.96815896,0.8629627,0.08875477,-0.29143423,0.8727455,-0.97004247,-0.12949145,0.638685,-0.659225,-0.007294059,0.7735851,0.56806207,-0.7121048,-0.99682045,-0.30293268,-0.1768645,0.5918708,0.6750767,-0.85698724,-0.37839216,-0.9517145,-0.93719816,-0.14042342,-0.42235297,0.87888145,-0.26553625]},{"bias":0.5476761,"weights":[-0.5085494,-0.29249662,-0.19155586,0.4897076,-0.5358917,0.81383896,-0.3711018,-0.4815933,-0.92405343,0.41097605,0.8752115,0.23485124,0.48643005,-0.27929014,-0.60271925,-0.24909627,-0.16335166,0.004934907,0.18599832,-0.664824,0.50549126,-0.9241307,-0.5573775,-0.5257103,0.7124281,0.8051338,-0.6508231,-0.82568645,-0.33998507,0.45045483]},{"bias":0.107113004,"weights":[0.6992886,0.030126452,-0.95582795,-0.20330203,-0.5388903,0.5619159,0.24405491,-0.7358105,0.83101535,-0.90451694,0.543345,0.34417307,0.244187,0.2001015,0.5395646,0.7408962,0.4253987,0.6223903,-0.08660662,0.36298645,-0.11647904,-0.54166,0.4185425,0.3260833,0.70490813,0.98749137,0.40961516,-0.72431016,-0.6407316,0.5488038]},{"bias":-0.31947702,"weights":[-0.75864744,0.24687898,-0.608736,-0.19748151,-0.39739674,-0.5683071,-0.49608558,0.54322267,-0.23967993,0.6877098,0.8080113,0.33905518,-0.083661675,-0.79548645,-0.42904752,0.8814373,-0.18216479,0.93261576,-0.32301205,-0.29444188,0.08272517,0.59426785,-0.38197416,-0.58127254,0.33244908,0.7455232,0.3670286,-0.91516376,0.2133683,0.37721956]},{"bias":-0.39299148,"weights":[-0.80356574,0.95057106,-0.746825,-0.25071067,-0.17554367,0.7025702,0.90486884,0.19081342,-0.030521274,0.9143429,-0.19705737,-0.008908153,0.04546845,0.8995204,0.6846082,-0.41463107,-0.124013305,-0.9690764,-0.056110024,0.43735588,-0.84015846,-0.8283653,0.01398313,-0.27386087,0.6695137,-0.6542921,-0.4654104,-0.13790095,-0.6863632,-0.084742665]},{"bias":-0.3091578,"weights":[-0.4061088,0.9221029,-0.40811867,0.23164785,0.75703764,-0.124008775,-0.24286401,0.0044933558,-0.9736285,-0.93553686,0.8952627,-0.9553659,-0.03928721,0.05532086,-0.86258364,0.61643887,-0.5654289,-0.29384655,0.08969939,0.8507192,-0.28317732,0.061499238,0.6697595,0.99020267,-0.7954922,0.57774067,0.8363416,-0.45869154,0.35954988,0.59058046]},{"bias":-0.9783349,"weights":[0.59717584,-0.5478768,-0.63218546,-0.64832664,0.24124825,-0.09284103,-0.57698363,-0.47209805,-0.12538779,-0.9197812,-0.7304554,0.0816232,-0.9271779,-0.2040149,-0.8813226,0.093155265,-0.35060304,0.030401349,-0.60564035,0.29246914,-0.91200066,0.14702451,-0.7300117,-0.14432395,0.06306422,-0.07833564,-0.3587138,-0.310795,-0.7917657,-0.13799536]},{"bias":0.3731631,"weights":[-0.14482892,0.08618271,-0.5202343,-0.8648269,0.81604195,-0.45445174,0.40351498,0.02719915,-0.008142829,-0.9796989,0.604892,0.8526404,0.9562397,-0.41472286,0.6145241,0.47852385,-0.18123996,0.03965032,0.96708465,-0.7648177,0.90707517,-0.49950188,0.30975902,-0.00066268444,0.39825308,-0.8245878,0.1444403,-0.43251127,-0.77365613,-0.650501]},{"bias":0.047853112,"weights":[-0.0766381,-0.6926675,-0.21031725,-0.95120215,-0.16860878,0.9182303,0.73890114,0.44873798,-0.05351913,0.5773463,-0.87991476,0.86174273,0.21032274,-0.77171016,-0.28008908,-0.29170626,-0.9374602,-0.015838742,0.99013996,0.6930871,0.7667408,-0.38965625,-0.15451825,0.60388637,0.20670044,0.32400882,0.3895787,-0.640852,-0.6436932,0.03200257]},{"bias":0.9434211,"weights":[0.6925771,-0.29987067,-0.29509634,-0.4204468,0.73822546,-0.8819084,-0.2674691,0.6117022,0.4541937,0.47312272,0.2686864,-0.71367407,-0.27474612,-0.27009076,-0.13270819,0.003971219,-0.7668624,0.45470202,-0.8296051,0.15720499,0.92036676,0.929059,0.44276726,-0.33625406,-0.14546359,-0.17403209,-0.3567261,-0.15547478,-0.028880239,-0.8746033]}]},{"neurons":[{"bias":0.044205785,"weights":[-0.36926645,0.9082401,0.95544434,-0.4576282,0.27466333,0.91073394,-0.25688094,0.5534344,0.9396341,-0.31610936,0.45096147,0.24119413,-0.10885084,0.6752529,-0.15148985,-0.19012964,-0.8096256,0.20606053,-0.50286,-0.24873555,0.8108816,0.81521916,0.37157595,-0.5691473,-0.33085126,-0.20067465,0.3559872,-0.21325338,0.21100247,0.3601991]}]}]}