{"layers":[{"neurons":[{"bias":0.0111967325,"weights":[0.65058374,-0.002755046,-0.8872688,0.6295693,0.35743916,0.70579624,-0.7657547,-0.3994636,-0.45829338,-0.12617648,0.10384238,-0.8418777,-0.96512055,-0.6331444,0.32487714,0.8518417,0.7392831,-0.9211714,0.14475977,0.16243446,0.99264765,-0.8345797,0.7030127,0.06820428,-0.9008827,0.36986172,-0.036051393,0.5334985,0.57068133,-0.15813458]},{"bias":0.38450992,"weights":[-0.20149195,-0.19050968,0.35120022,0.9114406,-0.7910478,0.1298784,0.34038723,0.8026593,0.24453843,0.5528226,-0.15834868,0.7893486,0.5002749,0.862653,-0.8288226,0.25527775,0.57717943,0.36818302,0.13984025,-0.9013705,0.22494495,0.6222911,0.22292101,0.033216834,0.83263516,0.7083738,-0.6060149,-0.59955233,-0.15391243,-0.5735292]},{"bias":-0.38514036,"weights":[-0.7864268,-0.7949343,0.9046185,0.06557453,0.511667,0.7072592,-0.5446097,0.7359886,0.8615627,-0.2638814,-0.86169004,-0.613908,0.17335784,-0.11558187,-0.52166814,-0.10532844,-0.1385535,0.6568606,0.5732775,-0.3843605,0.66548777,0.06783831,0.35442007,0.04886782,0.31642973,-0.29688686,-0.9159498,-0.6198198,0.29304588,0.4019631]},{"bias":0.42466605,"weights":[0.5354779,-0.042542577,0.61458373,-0.7248213,0.82532334,-0.31508058,0.70538473,0.04858458,0.00009715557,0.33519566,0.12198436,0.72254515,0.6171384,0.86291146,-0.14122188,-0.6954422,0.9609306,0.24988139,0.003673911,0.81853247,0.37021768,-0.14141166,-0.762007,-0.46297616,-0.25729388,0.041861653,-0.6144988,-0.40059108,0.5646994,-0.5101189]},{"bias":-0.61685747,"weights":[0.3386346,-0.776716,0.24899518,0.34117305,0.29900348,0.794256,0.4744383,0.61710143,0.51629496,-0.9082899,0.30920494,0.7145157,0.8418052,-0.63931584,0.97191906,-0.47503585,0.1874007,-0.4357149,-0.77617526,-0.95107627,-0.3217792,-0.88939404,-0.32009834,0.7618971,0.6047864,-0.936224,-0.5817029,0.5709379,0.58391094,0.500576]},{"bias":-0.88649416,"weights":[-0.25155014,0.9302771,-0.22406924,-0.28560728,0.83993363,-0.03061378,0.4922768,0.5573199,-0.6064245,0.6977513,0.5168989,-0.2889077,0.7378664,0.47204816,0.58549595,-0.3452024,-0.21965301,0.6220498,0.98293066,0.023270965,0.031747222,-0.93112326,0.55163527,-0.9120872,0.53961444,0.31158102,-0.6049685,-0.74025965,-0.8961668,-0.45541137]},{"bias":0.20682395,"weights":[0.6702366,-0.3836276,0.45670664,-0.5243704,0.65163255,0.078133464,0.3541633,0.11279476,-0.94903135,0.14523137,-0.3884887,0.9193387,0.26935542,0.24253762,-0.19518888,0.59972215,0.7861345,-0.718827,-0.24856913,-0.4699003,-0.5525083,-0.8066311,-0.3727209,0.81044817,0.16794455,0.9083884,-0.619188,0.0303787,0.5941644,0.92542005]},{"bias":-0.7922714,"weights":[-0.6129469,-0.7791648,-0.79055643,-0.013502717,-0.5942721,0.09434211,-0.27864093,-0.8258281,-0.4083354,-0.8906038,-0.11851752,0.48403323,0.6524148,0.11439884,0.9860041,0.96320057,0.041719317,0.25415528,-0.8310065,-0.3498885,0.79354715,0.12975252,0.20194662,0.95066786,0.27068174,-0.66227436,0.44678152,0.32470906,0.21681392,-0.71851254]},{"bias":0.19751465,"weights":[0.630388,-0.9566207,-0.4272706,-0.37058347,-0.49371046,0.01664126,0.8093853,-0.48728126,-0.0428437,0.76554775,0.8709452,0.09445727,-0.9736054,0.81361413,0.7052028,0.8637359,-0.54853123,0.9901645,0.6971965,0.23424709,-0.7431655,0.43754065,-0.25435895,0.84973884,-0.78296924,0.56377864,0.96980715,-0.45255536,0.51219153,-0.9615669]},{"bias":-0.68497777,"weights":[0.42040527,-0.13145149,-0.57306045,0.81344295,-0.8387213,0.8342774,0.3946079,-0.38200516,0.5630202,-0.5256285,0.25430167,0.33361733,0.30571496,0.16354597,0.2526952,0.74378943,0.8207743,-0.96585655,0.5308006,-0.33100718,-0.31102055,0.95725656,-0.7449744,-0.22339904,0.17932546,0.9700823,-0.35825747,-0.93815684,-0.40856785,0.6087425]},{"bias":-0.6008064,"weights":[-0.8040528,0.9596865,0.41368687,0.95003796,-0.42185706,-0.93960404,0.66610813,-0.0909785,0.9558339,0.10497773,-0.879282,0.15985048,0.32593453,-0.5799739,-0.40172237,-0.8856504,0.76084924,-0.042069793,-0.1424185,-0.2939629,0.78575754,0.9096396,-0.17036259,-0.30026168,-0.37085956,0.09179485,0.21632683,0.9546113,-0.31151003,-0.60418767]},{"bias":-0.11403072,"weights":[0.7419388,0.38620293,0.5889158,0.8530061,-0.7201915,0.4447235,-0.45610255,0.59861255,-0.43404073,-0.5081822,0.99372745,0.055060267,-0.17876875,-0.2779612,0.18102157,0.3752383,-0.015917659,-0.024182439,0.96464515,0.9544523,-0.32107657,-0.6502409,-0.46446246,0.0884825,0.6136868,0.54145694,-0.9727757,-0.96820974,-0.14762175,-0.98540926]},{"bias":0.40491188,"weights":[-0.5272886,-0.16958225,0.31665266,-0.94175816,0.28547466,0.10330951,0.41980875,0.15227997,0.7042358,-0.56922597,0.058915496,-0.15742886,0.8838496,-0.31089848,0.88101506,0.5038886,-0.52263063,0.40864646,-0.795315,0.278355,0.81376696,-0.9729841,-0.5359704,0.13071644,-0.087652564,-0.17240298,0.15544307,0.57617307,0.4053594,0.5575464]},{"bias":-0.044431806,"weights":[-0.6880624,0.3643645,-0.4384293,-0.17762196,-0.13486111,-0.6058149,0.3937682,-0.68050003,-0.36313623,0.67038846,0.8297124,-0.26748055,0.0031739473,-0.7144644,0.97932935,-0.9066906,-0.2869298,-0.8539851,0.26726258,-0.7575381,-0.43963522,0.8124995,-0.44995493,-0.24986827,-0.5954661,-0.09584463,-0.70933676,0.5570004,-0.33269614,0.12968695]},{"bias":-0.59018797,"weights":[-0.0624882,0.5747943,0.046224475,0.049481273,0.4186226,0.9371884,0.26231372,0.70826626,-0.03757775,0.7880957,0.1782521,0.6205318,-0.71750426,-0.5780007,-0.29286855,0.5067179,-0.1540035,-0.9336431,-0.6788151,0.5214274,-0.07245195,0.727942,0.056455255,-0.82976747,-0.77881193,-0.48288435,0.5137303,0.08046472,0.8108258,-0.7991576]},{"bias":0.31051266,"weights":[0.8493943,-0.094275355,0.43440187,0.49233973,0.08958161,0.20382011,-0.8502836,-0.29570812,0.48557436,-0.7363734,-0.31853575,-0.20995653,0.44198358,0.5661237,-0.93738556,0.98867655,0.31653988,-0.86509466,-0.035289645,0.6470256,0.022911668,0.6415608,0.93580604,-0.9631958,-0.008971572,-0.6913831,0.83535075,0.4215604,-0.15735877,-0.7825711]},{"bias":-0.544182,"weights":[-0.6710031,-0.86697745,0.48916495,-0.5973334,-0.2392534,-0.96172523,-0.36797518,0.6110823,-0.86070347,-0.3303823,0.30175292,0.051631093,-0.48144048,-0.8256998,-0.021715999,-0.010601163,-0.79411674,-0.56842226,-0.4913084,0.1825465,-0.58923215,0.5317042,0.8055928,0.079753995,0.5539293,-0.54369897,-0.5015761,-0.37754387,0.30833137,0.41613138]},{"bias":0.24278033,"weights":[0.48410976,0.14442122,-0.6044664,-0.4358799,-0.31856054,0.5555246,0.41347635,-0.47169966,0.23621309,0.14840424,-0.57336396,0.67963386,0.69422364,-0.30965704,-0.15120566,0.01028645,0.9910605,-0.76378584,0.62546396,0.95418143,0.047867656,-0.7957847,-0.110173106,-0.3476922,-0.65295434,0.8576503,0.5711489,-0.57850665,0.9491706,0.53949547]},{"bias":0.6864033,"weights":[-0.848423,0.48228204,0.028973222,-0.18509734,-0.8381479,0.9029603,0.4190501,0.51578665,0.63200474,0.93487453,-0.33315486,-0.21281707,-0.67098355,-0.49278945,0.35144913,-0.013173938,0.5687883,-0.6524544,-0.3460557,-0.52683705,-0.27807134,0.2090441,-0.5477635,-0.094478965,0.13427436,0.89991426,-0.10863507,0.5735574,-0.16526926,-0.7525239]},{"bias":0.70336366,"weights":[0.47722757,-0.48520678,-0.21801889,0.79182076,0.43858635,0.8936837,-0.07714641,-0.831959,0.6805129,-0.03278029,-0.9255066,0.0017501116,-0.225469,0.45180976,0.16963327,-0.18425238,0.22937882,0.70916295,-0.28922504,-0.6132559,0.006599784,0.51514554,0.43921244,-0.41712278,-0.73720336,-0.012422442,-0.45295733,0.68059564,-0.7610109,0.6555016]},{"bias":-0.7693515,"weights":[0.87171626,0.2666527,0.45504773,0.39705217,0.96815896,0.8629627,0.08875477,-0.2869634,0.8727455,-0.97004247,-0.12949145,0.638685,-0.659225,0.108881354,0.7735851,0.56806207,-0.7121048,-0.723176,-0.30293268,-0.1768645,-0.21784079,0.8967807,-0.85698724,0.073253036,-0.9517145,-0.7788882,-0.59012884,-0.42235297,0.87888145,-0.26553625]},{"bias":0.5476761,"weights":[-0.5085494,-0.29249662,-0.36828774,0.90612435,0.60648847,0.81383896,-0.3711018,0.37454832,0.32789433,0.41097605,0.14234293,-0.62680864,0.48643005,-0.27929014,-0.60271925,-0.24909627,-0.16335166,0.004934907,0.18599832,0.28132284,0.9494219,-0.43432635,-0.5573775,-0.36566252,-0.3288297,0.056206346,-0.6508231,-0.82568645,-0.4121768,-0.95136356]},{"bias":0.107113004,"weights":[0.6992886,0.030126452,-0.95582795,-0.20330203,-0.5388903,0.5619159,0.24405491,-0.9726312,0.108695865,-0.90451694,0.543345,0.34417307,-0.98637414,0.2001015,0.5395646,0.7408962,0.4253987,0.6223903,0.8594177,0.36298645,-0.11647904,-0.54166,0.4185425,-0.29832572,0.70490813,0.98749137,-0.765553,-0.72431016,-0.6407316,0.5488038]},{"bias":-0.31947702,"weights":[-0.75864744,0.24687898,-0.608736,-0.61217993,-0.39739674,-0.5683071,-0.49608558,0.54322267,-0.23967993,0.6877098,-0.5729,0.33905518,-0.083661675,-0.79548645,0.9231739,0.6040826,-0.18216479,0.93261576,-0.32301205,-0.29444188,-0.38280386,0.59426785,0.53253984,-0.58127254,0.33244908,0.7455232,0.95043325,-0.91516376,0.2133683,0.20719635]},{"bias":-0.39299148,"weights":[-0.80356574,-0.46191686,-0.746825,-0.25071067,-0.17554367,0.7025702,0.056595206,-0.6494665,-0.030521274,0.9143429,0.7841115,-0.008908153,0.04546845,0.8995204,0.6846082,-0.8310852,-0.124013305,-0.9690764,-0.056110024,0.43735588,0.6882765,-0.8283653,-0.18154037,-0.06042683,-0.48657364,-0.6542921,-0.4654104,-0.8871107,0.92790985,-0.084742665]},{"bias":-0.70408535,"weights":[-0.4061088,-0.23204458,-0.40811867,0.23164785,-0.85728526,-0.124008775,-0.24286401,0.0044933558,-0.9736285,-0.819309,-0.755625,-0.9553659,-0.03928721,0.05532086,-0.7776215,-0.69386935,-0.5654289,-0.29384655,0.08969939,0.8507192,0.66739154,0.061499238,0.6697595,0.99020267,-0.7954922,0.57774067,0.8363416,-0.45869154,-0.28068942,0.59058046]},{"bias":0.4039098,"weights":[0.17028034,0.6189544,-0.63218546,-0.2977032,0.24124825,-0.3160159,-0.57698363,-0.47209805,0.14586627,-0.9197812,-0.7304554,0.74128056,0.5582166,-0.2040149,-0.8813226,-0.3040759,-0.35060304,0.09518087,-0.68942237,0.29246914,-0.91200066,0.14702451,-0.7300117,0.96431255,0.06306422,-0.07833564,-0.3587138,-0.023691535,-0.7917657,-0.13799536]},{"bias":0.3731631,"weights":[-0.14482892,0.08618271,0.39126766,-0.8648269,0.81604195,-0.07716215,0.40351498,0.5685184,-0.5440077,-0.9796989,0.604892,0.8526404,0.9562397,-0.41472286,0.6145241,0.47852385,0.703228,0.70034075,-0.5360636,-0.7648177,0.90707517,0.029857755,-0.94543076,-0.60007757,0.39825308,-0.8245878,0.1444403,-0.3602051,-0.77365613,-0.650501]},{"bias":-0.011888623,"weights":[-0.93878555,-0.6926675,0.67019606,-0.4697768,-0.20146859,-0.3933248,0.73890114,0.44873798,-0.05351913,0.5773463,-0.87991476,0.86174273,0.21032274,-0.77171016,-0.16779792,-0.29170626,-0.9374602,-0.8038783,0.99013996,0.6930871,0.7667408,-0.026290298,-0.2927565,0.60388637,-0.4266011,0.36612976,0.87138414,-0.640852,-0.6436932,0.03200257]},{"bias":0.9434211,"weights":[-0.86300635,-0.29987067,-0.022353053,-0.4204468,0.40695393,-0.8819084,-0.2674691,0.6117022,0.4541937,0.47312272,0.2686864,-0.941237,-0.27474612,-0.32696074,-0.13270819,0.34295022,0.14168966,0.45470202,-0.24315655,0.15720499,-0.6753626,0.929059,-0.65684056,-0.33625406,-0.14546359,0.07363832,0.9020736,-0.15547478,-0.028880239,-0.8746033]}]},{"neurons":[{"bias":0.37477124,"weights":[-0.36926645,0.9082401,0.95544434,-0.4576282,0.6539221,0.91073394,0.24984705,0.77702045,0.11182225,0.18900406,0.45096147,0.39073765,-0.10885084,0.6752529,0.87604666,-0.19012964,0.3232509,0.20606053,-0.50286,-0.24873555,0.8108816,0.81521916,0.37157595,-0.16265523,-0.034208417,-0.20067465,-0.4235043,-0.21325338,0.21100247,0.3601991]}]}]}