{"layers":[{"neurons":[{"bias":0.0111967325,"weights":[0.65058374,-0.002755046,0.69086814,-0.97844005,0.35743916,0.70579624,-0.7657547,-0.3994636,-0.5608775,-0.13933909,0.7591574,-0.8418777,-0.96512055,-0.6331444,0.8290732,0.8518417,0.1820172,-0.9211714,0.14475977,0.16243446,0.50235796,-0.8751662,0.7030127,0.06820428,-0.44077557,0.9468951,0.29665935,0.5334985,0.57068133,-0.15813458]},{"bias":0.38450992,"weights":[-0.3303625,-0.19050968,0.35120022,0.45712674,-0.7910478,-0.5478274,0.85012007,0.8026593,0.9259107,0.5528226,-0.15834868,0.7893486,0.5002749,-0.6809499,0.832325,0.25527775,0.57717943,0.36818302,-0.09694636,-0.6437509,-0.4045443,0.6222911,0.22292101,0.033216834,0.83263516,0.7083738,-0.6060149,-0.59955233,-0.15391243,0.29797828]},{"bias":-0.38514036,"weights":[-0.7864268,-0.16975963,-0.55382746,0.3709675,0.32425368,0.7072592,0.4742514,0.7359886,0.8615627,-0.2638814,-0.86169004,0.04906428,-0.9898248,-0.11558187,-0.52166814,-0.10532844,-0.1385535,-0.36490887,0.5732775,-0.3843605,0.66548777,-0.5823123,0.35442007,0.14403474,0.34201014,-0.29688686,-0.9159498,-0.30049175,0.776469,0.4019631]},{"bias":0.42466605,"weights":[0.5354779,-0.042542577,0.61458373,-0.88721967,0.82532334,-0.31508058,0.70538473,0.04858458,0.00009715557,0.79799175,0.12198436,0.72254515,0.6171384,0.86291146,0.46935904,0.9398382,0.20144999,0.24988139,0.003673911,0.81853247,0.37021768,-0.7455642,-0.762007,-0.46297616,-0.25729388,0.28934324,-0.6144988,-0.40059108,0.5646994,-0.5101189]},{"bias":0.6675048,"weights":[0.3386346,-0.776716,0.24899518,-0.93516874,0.29900348,0.6472199,0.4744383,0.61710143,0.51629496,-0.9952991,0.506161,-0.82667565,0.8418052,-0.63931584,0.97191906,-0.47503585,0.1874007,-0.4357149,-0.27640647,0.8468704,-0.3217792,-0.88939404,-0.32009834,0.7618971,0.6047864,-0.936224,0.5432043,0.5709379,0.58391094,0.500576]},{"bias":-0.88649416,"weights":[-0.25155014,0.9302771,-0.22406924,-0.09971511,0.83993363,-0.05568564,0.4922768,0.5573199,0.043001533,0.38712537,0.5168989,-0.2889077,0.7378664,0.47204816,0.58549595,-0.3452024,-0.21965301,0.6220498,-0.24921954,0.023270965,0.031747222,0.047777534,0.55163527,-0.9120872,0.53961444,0.31158102,-0.06792915,-0.74025965,-0.8961668,-0.45538658]},{"bias":0.20682395,"weights":[0.6702366,0.9341893,0.45670664,-0.5243704,0.65163255,0.078133464,0.3541633,-0.95342183,-0.94903135,-0.82488585,-0.3884887,0.74482894,0.47088897,-0.033399224,-0.19518888,0.59972215,0.7861345,-0.718827,-0.24856913,-0.4699003,-0.5525083,-0.18699801,0.5470762,0.81044817,0.16794455,0.9083884,-0.619188,0.0303787,0.5941644,0.78611135]},{"bias":0.03327024,"weights":[-0.6129469,-0.7791648,-0.79055643,-0.013502717,-0.5942721,0.09434211,-0.0491513,0.38713872,-0.4083354,-0.8906038,0.3342136,0.48403323,0.6524148,0.11439884,0.9860041,0.96320057,-0.051993728,0.25415528,-0.8310065,-0.3498885,-0.6703241,-0.24736989,0.20194662,0.95066786,0.27068174,-0.66227436,0.44678152,0.1017102,0.22467291,-0.71851254]},{"bias":0.94709873,"weights":[0.58938456,-0.9566207,-0.4272706,-0.37058347,-0.49371046,0.01664126,0.8093853,0.97979283,0.14844453,0.76554775,0.43355715,0.71877456,-0.7960565,-0.33980197,0.7052028,0.8637359,-0.54853123,0.9901645,0.6971965,0.23424709,-0.7431655,-0.4527821,-0.25435895,0.46753037,-0.8550441,-0.08170259,0.96980715,-0.45255536,0.51219153,-0.9615669]},{"bias":-0.51913184,"weights":[-0.8682537,-0.5455107,-0.57306045,0.81344295,-0.8387213,0.40109217,0.3946079,-0.38200516,0.2749263,0.29052842,0.25430167,0.44308174,0.30571496,0.16354597,0.07244885,0.74378943,0.8207743,-0.96585655,0.5308006,-0.33100718,-0.31102055,0.81332684,-0.7449744,-0.22339904,0.17932546,0.435346,-0.35825747,-0.93815684,-0.40856785,-0.43432564]},{"bias":-0.6008064,"weights":[-0.8040528,0.4396292,0.41368687,0.95003796,-0.42185706,-0.93960404,0.66610813,0.33404505,0.9558339,0.66088986,-0.06860745,-0.28410834,0.32593453,-0.5799739,-0.06395924,-0.8856504,0.76084924,0.18161285,0.7583873,-0.046877265,0.78575754,0.9096396,-0.17036259,-0.30026168,-0.37085956,0.09179485,0.21632683,0.9546113,0.8173747,-0.60418767]},{"bias":-0.11403072,"weights":[-0.28331202,0.30049288,0.5889158,0.8530061,-0.7201915,0.4447235,-0.45610255,0.59861255,-0.43404073,-0.5081822,0.99372745,0.055060267,-0.17876875,0.7706492,0.4700266,0.3752383,-0.015917659,-0.024182439,0.96464515,0.5701568,-0.32107657,-0.24001753,-0.46446246,0.8560436,0.6136868,0.54145694,-0.9727757,-0.96820974,-0.14762175,-0.98540926]},{"bias":0.40491188,"weights":[-0.5272886,-0.16958225,0.31665266,-0.94175816,0.28547466,0.31823695,0.41980875,0.15227997,0.7042358,-0.56922597,0.7120855,-0.15742886,0.8838496,-0.31089848,0.88101506,0.5038886,-0.70072174,-0.42600936,-0.35564274,0.278355,0.81376696,-0.6544051,-0.033961654,0.87913775,-0.087652564,-0.17240298,0.15544307,0.57617307,0.4053594,0.5575464]},{"bias":-0.9764855,"weights":[-0.27316803,0.3643645,-0.4384293,-0.17762196,-0.67387867,-0.6058149,0.8899317,-0.68050003,0.72639036,0.67038846,0.8297124,-0.26748055,0.0031739473,-0.3290698,0.97932935,-0.9066906,-0.2869298,-0.8539851,0.26726258,-0.6566634,-0.43963522,0.8124995,-0.44995493,0.782784,-0.5954661,-0.09584463,-0.70933676,-0.423109,-0.33269614,0.12968695]},{"bias":-0.59018797,"weights":[-0.60979503,-0.71141076,0.046224475,0.049481273,0.4186226,0.9371884,0.84624434,0.70826626,-0.03757775,0.7880957,0.1782521,-0.39228386,-0.3832485,-0.5780007,-0.29286855,0.5067179,-0.1540035,-0.9336431,-0.6788151,-0.62642765,-0.10760796,0.727942,0.056455255,-0.82976747,-0.77881193,-0.48288435,0.5137303,-0.4625029,0.8108258,-0.51732916]},{"bias":0.31051266,"weights":[0.8493943,0.5617299,0.43440187,0.49233973,0.08958161,-0.78740716,0.96845746,-0.29570812,-0.6524401,0.72907114,-0.31853575,-0.20995653,0.44198358,0.5661237,-0.93738556,0.98867655,0.31653988,-0.86509466,-0.035289645,0.6470256,0.022911668,-0.19379437,0.93580604,-0.9631958,0.044060826,-0.6913831,0.83535075,0.4215604,-0.18477786,-0.7825711]},{"bias":-0.31128997,"weights":[-0.6710031,-0.86697745,0.48916495,-0.5973334,-0.20404351,-0.96172523,0.44393575,0.6110823,-0.86070347,-0.3303823,-0.7647393,0.051631093,-0.48144048,-0.8256998,-0.021715999,-0.010601163,-0.74769735,-0.56842226,0.11775792,-0.6108305,-0.58923215,0.5317042,0.13570726,0.1407522,0.5539293,-0.54369897,-0.5015761,-0.37754387,0.20381868,0.7969239]},{"bias":0.30087864,"weights":[0.48410976,0.14442122,-0.6044664,-0.4358799,-0.65603805,0.5555246,0.3513652,-0.47169966,0.23621309,0.25627244,-0.57336396,0.30701697,0.69422364,-0.30965704,-0.15120566,-0.4013645,0.9910605,-0.76378584,0.62546396,0.95418143,0.047867656,-0.7957847,-0.110173106,-0.3476922,-0.65295434,0.13459384,0.5711489,-0.57850665,0.9491706,0.53949547]},{"bias":0.6864033,"weights":[-0.848423,-0.30494946,0.59683084,0.844403,-0.8381479,0.9029603,0.4190501,0.51578665,-0.0036765337,0.93487453,-0.33315486,-0.21281707,-0.67098355,0.8447721,0.35144913,-0.08808935,0.5687883,-0.6524544,-0.6606202,0.44550383,-0.27807134,0.2090441,-0.5477635,-0.094478965,0.06649864,0.89991426,-0.10863507,0.5735574,-0.16526926,-0.7525239]},{"bias":0.70336366,"weights":[0.58343315,0.08150518,-0.21801889,0.1866523,-0.48672336,0.532321,-0.07714641,-0.831959,-0.9158547,0.24243605,-0.9255066,0.0017501116,-0.225469,0.45180976,0.16963327,-0.18425238,0.22937882,0.687114,-0.28922504,-0.6132559,-0.67568946,0.51514554,0.43921244,-0.41712278,-0.73720336,-0.012422442,-0.45295733,0.68059564,-0.24043667,0.6555016]},{"bias":-0.7693515,"weights":[0.87171626,0.90884304,0.62471795,0.39705217,0.8555093,0.8629627,0.08875477,-0.2869634,0.8727455,-0.97004247,-0.12949145,0.638685,-0.659225,-0.3876056,-0.46013874,-0.71546984,-0.7121048,-0.723176,-0.30293268,-0.1768645,-0.21784079,0.7860668,-0.86851335,0.39639652,-0.9517145,-0.7788882,-0.59012884,0.40422022,0.87888145,-0.26553625]},{"bias":-0.7042613,"weights":[-0.5085494,-0.29249662,-0.4858784,0.90612435,0.60648847,0.81383896,-0.3711018,0.37454832,0.32789433,0.6954396,0.38760984,-0.27736038,0.48643005,-0.24637568,-0.60271925,-0.24909627,-0.16335166,0.004934907,0.18599832,0.28132284,-0.18686569,0.03074348,-0.5573775,0.8430772,-0.3288297,0.056206346,-0.6508231,-0.82568645,-0.4121768,-0.95136356]},{"bias":-0.18926609,"weights":[0.6992886,0.030126452,-0.56406635,-0.20330203,-0.5388903,-0.67979026,0.24405491,-0.4406187,0.108695865,-0.6273186,0.543345,0.34417307,-0.98637414,0.2001015,0.5395646,0.7408962,0.4253987,0.6223903,0.8594177,0.36298645,-0.11647904,-0.22734559,0.4185425,-0.3112659,0.70490813,0.98749137,-0.72536635,-0.72431016,-0.6407316,-0.18817985]},{"bias":-0.31947702,"weights":[-0.39323467,0.24687898,-0.608736,-0.61217993,0.35920775,-0.5683071,-0.56106013,0.9353907,-0.23967993,0.6877098,-0.5729,0.33905518,-0.083661675,-0.79548645,0.9231739,0.6040826,-0.18216479,0.93261576,-0.32301205,-0.29444188,-0.38280386,-0.5778026,0.53253984,-0.58127254,0.33244908,0.7455232,0.95043325,-0.91516376,0.2133683,0.35685337]},{"bias":-0.39299148,"weights":[-0.80356574,-0.46191686,-0.746825,-0.25071067,0.013214946,-0.13196409,0.056595206,-0.6494665,-0.030521274,0.9143429,0.7841115,0.99509025,0.04546845,0.88138604,0.6846082,-0.8310852,-0.124013305,-0.9721668,-0.056110024,0.43735588,0.6882765,-0.8283653,0.87214684,-0.06042683,-0.48657364,-0.6542921,-0.4654104,-0.8871107,0.92790985,-0.084742665]},{"bias":-0.70408535,"weights":[-0.4061088,-0.5193879,-0.40811867,0.23164785,0.6075914,-0.124008775,-0.24286401,0.0044933558,-0.9736285,-0.819309,-0.755625,-0.23204172,0.3300165,0.26729667,-0.7776215,-0.69386935,-0.5654289,-0.05307591,0.08969939,0.8507192,0.66739154,-0.31384295,0.6697595,0.99020267,-0.7954922,-0.7762444,0.8363416,-0.45869154,-0.28068942,-0.20525324]},{"bias":0.4039098,"weights":[-0.8865342,0.6189544,-0.63218546,-0.2977032,0.24124825,-0.3160159,-0.57698363,-0.47209805,0.60990953,-0.9197812,-0.7304554,-0.74508667,0.5582166,-0.2040149,0.8845084,-0.3040759,-0.35060304,0.09518087,-0.68942237,0.29246914,-0.91200066,0.14702451,-0.2211045,0.96431255,-0.8799689,-0.07833564,-0.3587138,-0.055110812,-0.7917657,0.8762655]},{"bias":0.2927128,"weights":[0.6058781,0.03342426,0.39126766,-0.8648269,0.81604195,-0.07716215,0.40351498,0.5685184,-0.5440077,0.23550355,0.604892,0.8526404,0.9562397,-0.41472286,0.6145241,0.47852385,0.703228,-0.55647296,-0.5360636,0.565403,0.90707517,0.029857755,-0.94543076,-0.60007757,0.39825308,-0.8245878,0.43629658,-0.3602051,-0.8649757,0.24542034]},{"bias":-0.91579485,"weights":[-0.9274292,0.91079164,0.67019606,-0.4697768,-0.116901994,-0.3933248,-0.7338786,0.44873798,-0.05351913,0.5773463,-0.87991476,0.86174273,-0.56215113,-0.77171016,-0.16779792,-0.29170626,-0.9374602,-0.8038783,0.99013996,-0.4248683,0.7667408,-0.026290298,-0.2927565,0.60388637,-0.4266011,0.36612976,0.87138414,-0.640852,0.9044275,0.03200257]},{"bias":0.9434211,"weights":[-0.86300635,-0.29987067,-0.022353053,-0.4204468,0.40695393,-0.8819084,-0.2674691,0.6117022,-0.8641763,0.47312272,0.2686864,-0.941237,-0.27474612,-0.32696074,-0.13270819,-0.49156302,0.14168966,0.45470202,-0.24315655,0.15720499,-0.6753626,0.929059,-0.65684056,-0.33625406,-0.14546359,-0.056859612,0.24097478,-0.15547478,-0.028880239,-0.8746033]}]},{"neurons":[{"bias":-0.4209537,"weights":[-0.6419101,0.9082401,0.95544434,-0.4576282,0.6539221,0.91073394,0.24984705,0.77702045,0.58555627,0.18900406,0.45096147,0.39073765,-0.10885084,0.6752529,0.56105924,-0.19012964,0.3232509,0.20606053,-0.50286,-0.07809579,0.8108816,0.81521916,0.37157595,-0.16265523,-0.034208417,-0.20067465,-0.05848825,-0.21325338,0.21100247,0.3601991]}]}]}