{"layers":[{"neurons":[{"bias":-0.9832876,"weights":[0.5041528,-0.7227098,-0.53206724,0.8994341,0.061048277,0.4512571,0.55402374,-0.44317,-0.9620347,0.020637654,-0.43848604,-0.057551764,-0.06553965,0.752611,-0.7462292,-0.57261676,0.76308393,0.8731726,-0.4515738,0.69610965,-0.8322682,0.11812597,-0.9533098,-0.7132175,0.19746631,-0.7245343,-0.30558866,0.29839647,-0.4600404,-0.056557775]},{"bias":-0.83956313,"weights":[0.8261703,-0.3867516,-0.13358122,-0.9250984,-0.43958634,-0.40003973,0.5957365,-0.46788448,0.12809938,0.24408495,0.86663365,-0.3713911,-0.8428501,-0.2848851,0.60301256,0.49196613,0.9997881,0.52513266,0.97940445,-0.5432416,-0.2466718,0.099765226,-0.40632933,-0.039901614,0.8774462,-0.46367267,0.8200278,-0.2755172,0.86773133,0.9613793]},{"bias":-0.1731199,"weights":[-0.46959084,-0.052870475,-0.6306877,-0.83025354,-0.02909863,-0.777663,-0.64121485,0.9207051,0.068336844,0.4211172,-0.0051654577,0.95232844,-0.08307183,-0.6113214,-0.16861594,0.6870196,0.009681344,0.13190329,0.28708422,-0.3433282,-0.18748248,-0.3217448,0.5484264,0.1951321,-0.43821734,-0.25883144,-0.44401282,0.48108208,-0.65523934,0.19503677]},{"bias":0.72270155,"weights":[-0.85396314,0.9107156,0.21590102,-0.5087147,-0.085220695,0.27040362,0.14955765,0.07098997,0.253565,0.22691804,-0.12683523,0.7627394,0.63658476,0.73237205,0.61950064,-0.23328602,0.79903364,-0.29665846,-0.5142655,0.9131866,-0.7223594,-0.22797358,0.38887966,0.67609906,-0.283091,0.88797617,0.8079269,-0.8418863,0.78690374,0.9643953]},{"bias":-0.9458256,"weights":[-0.90836334,0.92061365,0.22856176,0.7194414,0.5827596,-0.8327694,-0.6950691,-0.3845567,0.5103351,-0.18913901,0.23122549,-0.036483407,0.6045301,0.003681779,0.15597594,-0.73389864,0.11369598,0.8176739,0.25306022,-0.7366438,0.11365783,0.5829147,0.011382222,0.74044275,-0.57848114,0.7305274,-0.4275495,-0.36827093,0.57381153,-0.37843698]},{"bias":0.5946622,"weights":[-0.62595344,0.9523976,0.7800157,0.84570336,0.25240624,0.7410786,-0.056290507,0.81815547,0.6378064,-0.5299315,-0.4885654,-0.032911673,0.8923559,0.8721187,0.5683198,0.45272288,-0.7835176,-0.39905187,0.33560956,0.65058684,0.044579796,-0.7175157,-0.23814571,-0.6628264,-0.36437768,0.3111993,-0.8375554,-0.72131395,-0.82691336,-0.18252313]},{"bias":-0.5537943,"weights":[0.32378662,0.6688739,0.945807,0.49100003,-0.6902983,0.1350972,-0.80632615,0.51664543,-0.95643735,-0.021426275,0.66852933,0.7517822,-0.055673003,0.38014376,-0.11139858,0.24139011,-0.815851,0.4813937,-0.7265916,0.037356064,0.09907329,-0.12790859,0.7789588,0.28861105,0.15719044,0.8662889,-0.7022419,-0.7282636,0.43461272,-0.73406386]},{"bias":-0.026851296,"weights":[-0.90269876,-0.765844,0.33266276,0.38068235,-0.8616307,0.30604708,0.8106122,-0.7779081,-0.44025797,0.29105413,0.54472494,-0.9803012,-0.573449,0.19868314,0.5064523,0.26576197,-0.6044063,-0.05077088,-0.8437557,-0.96424,-0.18944705,0.010738559,0.71002954,-0.64932346,0.4135214,-0.96775174,0.5992992,-0.565657,-0.39541763,0.046234727]},{"bias":0.82849455,"weights":[0.83358717,0.29464614,0.441419,-0.34928602,-0.18604314,0.24853611,-0.115009665,-0.7055461,-0.73214936,0.30100262,0.07110965,0.6395068,0.78440523,-0.81950665,0.49257934,-0.5482785,0.7906196,0.8497486,0.69630384,-0.10349953,0.38449466,0.30791932,-0.10323608,-0.4308886,0.86019677,-0.58211637,0.086675525,0.35771665,-0.37096375,-0.20466006]},{"bias":0.0008727312,"weights":[-0.9629934,0.9588337,-0.3152048,-0.3954429,0.06967819,0.24939574,0.5022502,0.077465415,-0.7757683,-0.23440231,0.17266405,-0.4263391,0.18298708,-0.6030883,0.9162608,-0.46589512,0.38605177,0.49181092,0.8459759,1.0,0.6428838,-0.42656177,0.69487023,-0.81521297,-0.42723465,-0.46466702,-0.23928821,-0.12874708,-0.27460235,-0.72994655]},{"bias":-0.7423644,"weights":[0.9431808,-0.58822376,0.46662366,0.85143256,-0.5251729,0.51838017,-0.9150107,-0.03560865,-0.5863008,-1.0,0.6902405,0.7718301,-0.5834362,0.67086554,0.5744149,0.72203135,0.26288998,0.7717016,0.63496065,-0.8460951,0.00063023716,-0.8427981,0.6257894,0.5559664,1.0,0.0095175505,0.118661284,-0.31947154,0.9605906,0.19414032]},{"bias":-0.4575705,"weights":[-0.36657208,0.3716582,-0.53847194,0.2711364,0.1251818,0.914078,-0.7316181,-0.058359027,-0.494961,-0.52532214,-0.07563855,0.9227646,0.8264605,0.84315085,-0.74970007,0.43307245,0.415934,0.9300742,0.49747765,-0.6555221,0.5451443,-0.32561105,0.14819443,-0.3362965,-0.19902465,0.081876636,0.137779,-0.5475593,0.34684312,0.19364941]},{"bias":-0.86052895,"weights":[0.87227935,-0.82603407,-0.12832797,0.8214729,-0.34093115,0.5563277,0.75317407,0.38238612,-0.13287652,1.0,0.2561797,0.75151944,-0.027258039,-0.25792512,-0.33086556,-0.2563197,0.6952933,0.6942518,0.07575834,0.6567037,-0.16298664,0.42485547,-0.5305111,0.40019524,0.5156026,0.25213265,0.48816764,-0.65948796,-0.68950844,0.56714296]},{"bias":-0.14762557,"weights":[0.19955616,-0.32296032,-0.8983464,-0.77122784,0.9383228,-0.77163744,0.906539,0.7588494,-0.5787443,-0.45535186,0.613827,0.022390723,0.51825786,-0.14950773,0.7131836,0.6806042,-0.8849127,0.03719604,-0.1013633,0.36255658,0.19105065,-0.10662258,-0.6317084,0.9185059,0.9624741,-0.4551784,-0.36919087,0.29570067,-0.3706171,0.26369733]},{"bias":0.81147027,"weights":[-0.68723774,-0.44493598,0.96675396,-0.3139965,0.7124398,0.92053366,-0.85332346,-0.11800015,-0.18552554,-0.172394,-0.61409545,-0.84037286,0.11938965,0.587621,-0.7266182,-0.31882948,-0.5924557,0.7454643,0.002573371,0.8477919,-0.10259378,-0.06897128,-0.006313443,-0.27998656,0.5139172,-0.44296384,-0.7698209,0.27887738,-0.55271953,-0.065802164]},{"bias":-0.710202,"weights":[0.071090415,-0.5985293,0.7207451,-0.11416376,-0.5154728,-0.16415155,0.4052598,0.78102493,0.79879403,-0.17727005,-0.9364166,0.6324165,-0.4105248,0.7973075,0.047866464,0.13264515,-0.33928913,0.20354092,-0.22757518,0.6350305,-0.9852791,-0.9284879,-0.15930045,0.71700907,0.17175639,-0.5706722,0.34613717,-0.32440537,0.27729547,-0.6085977]},{"bias":-0.7883427,"weights":[-0.62718153,-0.009710193,-0.5460593,0.8804467,0.3321241,-0.6524956,0.65505314,0.6122148,-0.6861987,-0.09605992,0.87913895,0.5097971,0.6233525,-0.82478666,0.5614175,-0.036163278,-0.62968403,0.45708078,-0.7849927,-1.0,-0.18320173,0.614349,0.9859302,-0.9785423,0.38234007,-0.8361633,-0.9998231,-0.15741313,-0.12209315,0.59801745]},{"bias":0.035906196,"weights":[-0.8416693,-0.3845566,0.27578008,0.88399315,0.22316647,0.8451508,-0.68726397,0.8600259,-0.40790313,-0.72532344,-0.24475443,0.6574147,-0.86174077,0.9705272,0.12512314,-0.79239345,-0.446258,-0.7309561,0.3599912,-0.26415938,0.66980124,-0.8138211,-0.45758712,-0.4260866,0.20298773,0.22299662,0.53855205,-0.6846154,0.37166274,-0.48482925]},{"bias":-0.7557521,"weights":[-0.33139843,-0.32206076,0.55914164,-0.1014334,-0.4065644,0.20272312,-0.58461756,0.9062023,0.17991337,-0.5650615,-0.8773611,0.12838283,-0.613404,-0.25481382,-0.73590374,-0.68294287,-0.8261955,0.32198542,0.748244,-0.37560853,-0.72376513,0.19623697,0.45538008,0.7129264,0.77793145,-0.59659255,0.99430346,-0.31338948,0.13969466,-0.9261496]},{"bias":0.9992602,"weights":[0.17211829,-0.16103137,-0.96503997,0.60441756,0.81874514,-1.0,-0.17782843,-0.045089602,-0.22032416,-0.38251537,0.44375813,-0.6350815,-0.11153287,0.85349405,-0.14807379,-0.20295012,0.48734224,-0.49221724,-0.61574185,0.9427425,0.8356659,0.40686905,0.397354,-0.28998703,-0.845268,0.35675514,-0.6044505,0.7876737,-0.4138984,-0.88488877]},{"bias":-0.912621,"weights":[0.4835347,0.9403138,0.24267238,-0.7334466,1.0,-0.42952102,0.18636096,0.37297052,-0.21568906,0.37858665,-0.11831558,0.57146096,-0.53203505,-0.0362057,0.8985679,-0.10797584,-0.72746277,0.048273623,-0.32254714,0.079062104,-0.97640824,-0.9235692,-0.9081254,0.22197998,0.869722,-0.07289541,0.6270902,0.26286733,0.7071886,0.111827254]},{"bias":0.49935615,"weights":[0.06397879,-0.7858112,-0.38426656,-0.24138436,0.105671294,0.39137453,-0.69301516,0.76689124,-0.3347556,-0.61496013,0.7755228,-0.013677716,0.8426976,0.8476572,0.32773507,0.74054027,0.87949944,-0.5008852,-0.0077017546,0.663332,-0.74680775,-0.7422687,0.29804957,0.20881769,0.008464932,-0.37622255,0.93767405,-0.4521603,-0.63028,0.9948294]},{"bias":0.71234655,"weights":[-0.20298469,-0.9275811,0.9297025,0.79591817,0.9369428,-0.6048493,0.7231195,-0.7169137,-0.46345717,-0.6046166,0.14287674,-0.008985162,0.9884484,-0.6401191,0.4045092,0.35243094,-0.5143239,-0.60418195,0.12568891,-0.024142385,-0.6197989,-0.858011,0.2987839,0.115166545,-0.6345656,-0.7481291,-0.7478707,0.1684252,-0.87196374,-0.14112961]},{"bias":-0.6104836,"weights":[-0.0015643835,-0.6240999,0.47060692,0.4015619,0.043407537,-0.5464131,-0.548269,0.55079186,0.9114449,-0.42203206,0.4939114,-0.31024116,-0.5886312,-0.267801,-0.3383333,-0.8442633,0.6442611,-0.30570644,-0.92511183,0.2995926,0.6923716,-0.61376065,0.5921006,-0.9176512,0.44693577,-0.55615467,0.63772225,-0.79849494,0.075749755,0.6923454]},{"bias":0.5898051,"weights":[-0.29906338,-0.071569435,-0.7839488,0.9712317,-0.37082738,0.7334187,0.33421314,-0.29653004,-0.73246264,-0.6063699,0.48222363,-0.7862985,-0.9202326,-0.099324346,-0.9187455,0.6364424,-0.21726334,0.7164669,-0.7083626,0.96485937,-0.34415257,0.8150277,0.48977214,0.2654935,-0.3867132,0.60080194,-0.13068464,0.6761949,0.58782125,-0.81229925]},{"bias":0.23802197,"weights":[-0.011918664,0.2060706,0.27404058,-0.14838612,-0.27865523,-0.15862453,0.39852154,0.6666267,-0.98832417,0.17760503,-0.93572545,0.16681814,-0.94530535,-0.30295986,0.09806512,0.4879104,-0.15401113,-0.48827547,0.96812546,0.015190721,0.11938417,-0.3597018,0.14904511,0.09080565,0.27879632,0.33955848,0.7333591,0.88751173,-0.6670122,0.68108463]},{"bias":0.62308407,"weights":[0.8592174,0.62648416,0.5134764,0.72568434,-0.9006493,-0.7459161,0.7763605,0.5480089,-0.5712549,-0.79753804,0.21834871,0.3022753,-0.3888449,0.37805325,0.6077254,-0.20142509,-0.8759198,-0.6437609,-0.31366193,-0.019907929,-0.88703513,-0.3228907,0.22878206,-0.9024236,-0.24724829,0.6393719,0.07695544,0.3125831,-0.80733776,0.7186909]},{"bias":0.5692432,"weights":[0.6426995,0.61046195,0.09237254,-0.78851175,0.559388,-0.87108535,0.99111795,0.015767932,-0.21646798,-0.19316284,-0.108229995,0.4960631,-0.8923519,0.07931343,0.5513062,0.48128474,-0.18260491,0.31549585,-0.4558351,0.5840935,1.0,-0.016258977,-0.8032272,0.3738984,-0.25980037,0.31742656,0.4198748,-0.012766242,0.43906653,0.5708056]},{"bias":0.02022469,"weights":[0.664876,-0.2611031,0.37547138,0.29152286,-0.27702227,0.034373403,-0.3131823,-0.22538269,-0.1626203,-0.20261395,-0.82531923,0.6231351,0.20012677,-0.1537553,0.46330416,0.36855587,-0.75985646,-0.32520622,-0.55286163,-0.23376666,0.99440235,-0.44723946,0.28044665,-0.28511328,0.20328534,0.107941225,0.5315163,-0.56352514,-0.8363132,0.3730303]},{"bias":0.40561354,"weights":[0.5406109,0.753389,0.43887484,0.6802832,0.6481571,-0.56788665,0.1147033,0.25586313,0.33267987,0.5508418,-1.0,0.2134043,0.0036395788,0.22034252,-0.90281034,0.45197117,0.8343866,0.012354255,0.5412953,0.6444369,0.4835378,0.7156811,-0.34699348,0.7943523,0.35115254,-0.56382704,-0.92889285,0.8072354,-0.46509475,0.3705486]}]},{"neurons":[{"bias":0.52202296,"weights":[0.5009694,-0.53989357,-0.35831255,0.7046597,0.013032556,0.01090014,-0.91031206,-0.1382032,0.48119462,0.8454416,-0.50271386,0.31915486,0.08978355,0.48682988,-0.6431071,-0.27084368,-0.49903697,0.08940709,0.8188276,0.8396838,-0.128183,0.022400968,-0.7917958,0.10867846,0.030125022,0.8609126,-0.9303515,-0.4618613,-0.8456161,0.8566904]}]}]}