{"layers":[{"neurons":[{"bias":0.0111967325,"weights":[-0.47398704,-0.052055717,-0.19989812,0.99505186,0.35743916,0.70579624,-0.7657547,-0.3994636,-0.5608775,0.97169137,0.60907006,0.4140097,0.6828222,-0.6331444,0.8612981,0.89146614,0.1820172,-0.9211714,0.9210186,0.16243446,0.5038793,-0.8751662,0.013626933,-0.041936755,-0.029194713,0.9468951,0.29665935,0.5078008,0.64876556,-0.15813458]},{"bias":0.38450992,"weights":[-0.3303625,-0.19050968,0.6839504,0.5336106,-0.32908362,-0.3635847,0.5967746,0.8026593,0.9259107,0.5528226,-0.15834868,0.7893486,0.94519687,-0.6809499,0.832325,-0.65601563,0.57717943,0.36818302,-0.09694636,-0.6437509,-0.4045443,-0.48433083,0.23186886,0.033216834,0.6977534,0.7083738,-0.6060149,-0.59955233,-0.7214048,0.29797828]},{"bias":-0.38514036,"weights":[-0.7864268,-0.50563806,-0.55382746,0.3709675,0.32425368,-0.31940073,0.28228724,0.2856766,0.8615627,0.38163698,0.21529925,0.15271294,-0.28974432,0.4313413,0.072131515,0.49850047,-0.1385535,-0.36490887,0.5732775,-0.3843605,0.66548777,0.6556721,0.35442007,0.14403474,0.34201014,0.9772272,-0.3038842,0.16465867,0.776469,-0.17037356]},{"bias":-0.61946696,"weights":[0.5354779,-0.72663116,0.61458373,0.654603,0.82532334,-0.66738653,0.33296907,0.04858458,-0.43241686,0.46902502,-0.74952507,0.72254515,-0.22709692,0.86291146,0.46935904,0.35703957,0.20144999,0.24988139,-0.33349794,0.81853247,0.37021768,-0.7455642,-0.69710994,-0.46297616,-0.25729388,0.28934324,-0.6144988,-0.40059108,0.5646994,0.31652486]},{"bias":-0.5150046,"weights":[0.8148024,0.84512186,0.24899518,-0.93516874,0.29900348,0.122094035,0.4744383,0.40216172,0.06501281,0.5082636,0.74798584,-0.82667565,0.8418052,-0.47876328,0.97191906,-0.9882519,0.1874007,0.21946108,-0.27640647,0.15080202,0.50868416,-0.7357323,-0.32009834,0.7618971,-0.4855222,-0.12833846,0.5432043,0.5709379,-0.65934014,0.500576]},{"bias":-0.88649416,"weights":[0.5891013,0.9302771,0.878819,-0.09971511,0.83993363,-0.05568564,0.4922768,0.8073125,-0.43462127,0.36504543,0.5168989,-0.2889077,0.7378664,0.47204816,0.58549595,0.32064545,0.1525358,0.6220498,-0.24921954,0.11011207,0.9995055,0.81185293,0.55163527,-0.9120872,0.53961444,0.5508802,-0.0100313425,-0.13812816,0.3745457,-0.45538658]},{"bias":0.20682395,"weights":[0.22978699,0.9341893,0.45670664,-0.5243704,0.65163255,0.078133464,-0.64334345,-0.95342183,-0.46418852,-0.799793,0.65411043,-0.5210566,0.47088897,-0.033399224,0.09449518,0.59972215,-0.9395549,-0.52955097,-0.24856913,-0.76959777,-0.5525083,-0.18699801,-0.66849947,-0.99385595,-0.7804992,0.5429833,-0.619188,0.0303787,-0.8518684,-0.032162547]},{"bias":0.03327024,"weights":[-0.6129469,-0.27813452,-0.79055643,0.700057,-0.9690635,0.09434211,-0.92434883,-0.6040749,-0.4083354,0.40876567,0.3342136,-0.7021706,0.6524148,0.6989453,0.9860041,0.96320057,0.4635805,-0.9194658,0.9085963,-0.3498885,-0.78178763,-0.24736989,0.20194662,0.95066786,-0.0077461004,-0.66227436,-0.34624738,0.1017102,0.34724152,-0.14276993]},{"bias":0.94709873,"weights":[-0.6213767,-0.9566207,-0.4272706,-0.37058347,-0.49371046,-0.9524429,0.69677067,0.97979283,0.14844453,0.76554775,0.43355715,0.71877456,-0.7960565,-0.33980197,0.7052028,0.8637359,-0.54853123,-0.8554504,-0.86546373,0.23424709,-0.7431655,-0.03638041,-0.25435895,0.043005824,-0.8550441,-0.3153941,0.96980715,-0.6983373,0.9988539,0.18476403]},{"bias":-0.0038036108,"weights":[-0.56556743,-0.69064474,-0.57306045,0.81344295,-0.86549807,0.40109217,0.7012572,-0.38200516,-0.19966686,-0.20777404,0.25430167,-0.5166146,-0.018936753,0.16354597,0.4340757,-0.051939845,-0.35514015,-0.96585655,0.2731768,0.5216794,0.25081217,0.81332684,-0.3384995,-0.22339904,0.17932546,-0.16081941,-0.35825747,0.7472677,-0.40856785,0.35104382]},{"bias":0.057795882,"weights":[0.60852504,0.8176153,0.20516098,0.95003796,-0.32376736,-0.93960404,0.95462465,0.33404505,0.9558339,0.035135865,-0.06860745,0.3149141,0.32593453,-0.5799739,0.8672347,-0.06786764,0.76084924,0.18161285,-0.07621038,-0.046877265,0.78575754,-0.15776622,-0.17036259,-0.4055013,-0.37085956,0.09179485,-0.2787506,-0.45189065,0.35420763,-0.60418767]},{"bias":-0.30464476,"weights":[0.85368085,0.30049288,0.41046822,0.8530061,-0.17321837,0.2740897,-0.45610255,0.8224087,-0.33139652,0.806762,0.99372745,0.16080558,-0.96074533,-0.27587312,0.81912994,0.22856057,-0.015917659,0.66149473,0.96464515,0.5701568,-0.32107657,-0.24001753,-0.98512745,0.18384182,0.17837775,-0.536864,-0.9727757,-0.96820974,0.39377677,-0.98540926]},{"bias":0.40491188,"weights":[-0.5272886,-0.16958225,0.31665266,-0.94175816,0.70404434,0.13605773,-0.52781147,0.15227997,0.6422219,-0.56922597,0.7120855,-0.15742886,0.8838496,-0.12039387,-0.67905784,-0.8733971,-0.70072174,0.13741815,-0.17146623,0.278355,-0.4026057,0.8400719,-0.033961654,0.87913775,-0.087652564,0.279837,0.15544307,0.57617307,-0.075389504,-0.052678466]},{"bias":-0.9764855,"weights":[-0.27316803,0.7825916,-0.4384293,-0.35238856,-0.67387867,0.68435717,-0.7284498,-0.1548549,0.72639036,0.9494729,0.8297124,0.62948227,-0.88669825,-0.17335689,0.97932935,-0.9066906,-0.2869298,0.4558767,0.26726258,-0.57138985,-0.43963522,-0.9507036,0.6997347,0.782784,0.35712636,-0.75628996,-0.70933676,-0.423109,0.50810766,0.12968695]},{"bias":-0.59018797,"weights":[-0.19296324,0.40619814,0.046224475,0.049481273,-0.50621694,0.36925137,0.84624434,-0.9032655,-0.03757775,0.7880957,0.1782521,0.54664016,-0.3832485,-0.5780007,-0.29286855,0.5067179,-0.1540035,-0.9336431,-0.6788151,-0.9934995,-0.43473428,0.727942,0.056455255,-0.82976747,-0.41756314,-0.29658407,-0.7112982,-0.4625029,0.8108258,0.6310859]},{"bias":-0.11245668,"weights":[0.8493943,0.5617299,0.43440187,0.49233973,-0.7752249,-0.78740716,-0.8601334,-0.29570812,-0.6524401,-0.8837578,-0.31853575,0.4894625,-0.10571015,0.5661237,-0.93738556,-0.6925018,0.31653988,0.35910118,-0.035289645,0.6470256,0.022911668,-0.19379437,-0.6661036,-0.9631958,0.65330625,-0.6913831,0.83535075,0.4215604,-0.18477786,-0.7825711]},{"bias":0.05176413,"weights":[0.752213,0.33887112,0.48916495,0.3452469,-0.20404351,-0.96172523,0.44393575,-0.5490195,-0.86070347,0.13510072,0.6944907,0.051631093,-0.48144048,-0.8256998,-0.021715999,-0.92781234,0.4626721,-0.56842226,-0.78756666,-0.6108305,-0.58923215,-0.553472,0.8195224,-0.8541117,0.5539293,-0.6212322,-0.5015761,-0.37754387,0.4074067,0.7969239]},{"bias":0.30087864,"weights":[0.48410976,0.14442122,-0.6044664,-0.4358799,-0.65603805,-0.8261287,0.3513652,-0.47169966,0.23621309,0.25627244,-0.57336396,0.24142063,0.69422364,-0.27335662,-0.15120566,0.7702503,-0.45858616,-0.76378584,0.62546396,0.95418143,0.45805943,-0.7957847,-0.110173106,-0.3476922,-0.65295434,0.13459384,-0.7987528,-0.57850665,0.5383446,0.53949547]},{"bias":0.6864033,"weights":[-0.9718075,-0.30494946,0.59683084,0.844403,-0.57656354,0.9029603,-0.9796748,-0.13485539,0.822443,0.93487453,-0.33315486,-0.21281707,-0.67098355,0.54335856,0.35144913,-0.08808935,0.3827461,-0.6524544,0.905833,0.44550383,-0.27807134,0.2090441,-0.5477635,-0.094478965,0.06649864,-0.6803138,-0.10863507,0.45209134,-0.021448255,-0.7525239]},{"bias":0.9757843,"weights":[0.4551183,0.08150518,-0.4798202,0.06518853,0.46431744,-0.48761815,-0.75374484,-0.831959,0.45789063,0.24243605,-0.9255066,0.0017501116,-0.225469,0.06860602,0.16963327,-0.18425238,0.6643603,0.8433976,0.47859251,0.7840929,-0.8808527,0.51514554,0.43921244,0.1344651,0.38418162,0.059744954,-0.49301285,0.24488509,-0.24043667,0.6555016]},{"bias":-0.082823396,"weights":[-0.68233013,0.40464222,0.62471795,0.33198893,0.15156615,0.085511565,-0.80794215,-0.2869634,0.020051837,0.44558513,0.48939478,-0.5879528,-0.9699793,-0.18537652,-0.46013874,-0.71546984,-0.019111753,0.28926122,-0.30293268,-0.1768645,-0.21784079,0.7860668,-0.9063785,0.86893487,-0.9517145,0.11877787,-0.59012884,0.40422022,0.87888145,-0.26553625]},{"bias":-0.55446357,"weights":[-0.5085494,-0.29249662,-0.4858784,0.90612435,0.60648847,0.81383896,0.45698726,0.5751662,0.32789433,-0.73673654,0.40388572,-0.41240305,0.48643005,-0.24637568,-0.2474531,-0.24519765,0.23639429,-0.86598015,0.18599832,0.28132284,-0.18686569,0.4788066,-0.5573775,0.8430772,-0.3288297,0.056206346,-0.8620136,-0.82568645,-0.4121768,0.6117778]},{"bias":-0.18926609,"weights":[0.6992886,0.90723777,-0.56406635,-0.20330203,-0.5388903,-0.67979026,-0.966367,-0.50303334,0.13854682,-0.988112,0.543345,0.34417307,0.56422853,0.2001015,0.5505469,0.21352279,0.4253987,0.6223903,0.74889064,0.57500577,-0.11647904,-0.133484,0.6913867,-0.64777327,0.70490813,-0.07787192,-0.72536635,-0.5414116,-0.6407316,-0.18817985]},{"bias":-0.35913557,"weights":[-0.39323467,0.24687898,-0.3775329,-0.61217993,0.38029563,-0.5683071,-0.81189823,0.9353907,0.90096784,0.6877098,-0.78339076,-0.25093406,-0.9259093,-0.79548645,-0.9897387,0.5328467,-0.18216479,0.93261576,0.6940992,-0.29444188,-0.38280386,-0.5778026,0.53253984,-0.58127254,0.33244908,0.7455232,-0.7700813,-0.91516376,0.2133683,0.35685337]},{"bias":0.98940015,"weights":[-0.80356574,0.9784014,-0.06040156,-0.9264529,-0.73692703,-0.13196409,-0.091320395,-0.6785495,-0.030521274,0.9143429,0.7841115,-0.5801253,0.04546845,0.1733836,0.6846082,-0.8310852,-0.124013305,-0.3858468,0.7780268,0.17356431,-0.40891284,-0.8719573,0.58560276,-0.09082019,-0.48657364,-0.6542921,-0.4654104,-0.8871107,0.92790985,0.31376922]},{"bias":0.48993886,"weights":[-0.4061088,-0.49703878,-0.38427418,-0.89550734,-0.7727468,-0.124008775,-0.877928,-0.8916366,-0.9736285,0.76340175,-0.020415187,-0.23204172,0.3300165,0.22867715,0.49088395,-0.69386935,0.63637805,-0.05307591,0.72067547,-0.7404885,0.66739154,0.22170007,0.6697595,0.99020267,0.3390721,-0.7762444,0.8363416,0.6456864,-0.28068942,-0.20525324]},{"bias":0.4039098,"weights":[0.5009873,0.9883747,-0.63218546,-0.2977032,0.24124825,0.35191572,-0.57698363,-0.6545007,0.60990953,-0.9197812,-0.19371927,0.75602293,0.5582166,-0.2040149,0.8845084,-0.1972667,-0.57609266,0.5018103,-0.68942237,0.29246914,-0.69336843,0.14702451,-0.2211045,0.96431255,0.5878382,-0.07833564,-0.3587138,0.26442206,-0.7917657,0.23983753]},{"bias":-0.6372032,"weights":[0.6058781,0.03342426,0.39126766,-0.8648269,0.88975,-0.07716215,-0.35244125,0.5685184,-0.93240905,-0.5962717,0.604892,0.8526404,-0.84597826,-0.41472286,0.6145241,0.47852385,0.703228,0.05813992,-0.5360636,0.565403,0.90707517,0.029857755,-0.94543076,-0.60007757,0.75051785,-0.8245878,0.43629658,-0.792876,-0.93605065,0.24542034]},{"bias":-0.91579485,"weights":[-0.9274292,0.91079164,0.5802722,-0.22786844,-0.116901994,-0.3933248,-0.7338786,0.44873798,-0.05351913,0.5773463,-0.87991476,0.86174273,-0.56215113,0.76053953,-0.16779792,-0.29170626,0.39182532,-0.3300435,-0.18154871,-0.4248683,-0.9682083,-0.026290298,0.52133083,-0.6154327,-0.6265681,0.36612976,-0.20503962,-0.1907345,0.9044275,-0.4394204]},{"bias":0.9434211,"weights":[0.32663667,-0.29987067,-0.022353053,-0.4204468,-0.05066359,-0.043947816,-0.7384963,0.9710028,-0.8641763,0.47312272,0.41942275,-0.941237,-0.27474612,-0.028760552,-0.13270819,0.524245,-0.86716723,0.45470202,-0.56053084,0.31279457,-0.6753626,0.929059,0.48195398,-0.5680513,-0.14546359,-0.33161515,-0.3043632,-0.15547478,-0.028880239,-0.8746033]}]},{"neurons":[{"bias":-0.4982695,"weights":[-0.6419101,0.9082401,0.95544434,-0.80583286,0.7362578,0.91073394,-0.27655333,0.77702045,0.58555627,0.18900406,0.7516804,0.39073765,-0.10885084,0.5041406,0.56105924,-0.8629906,0.3232509,0.20606053,0.06602299,0.60739994,0.71304107,0.81521916,-0.22582448,-0.16265523,-0.26246685,-0.31632823,0.24270451,-0.21325338,0.21100247,0.3601991]}]}]}