{"layers":[{"neurons":[{"bias":0.0111967325,"weights":[-0.30789083,-0.052055717,0.1519481,0.99505186,0.35743916,0.21754634,-0.74912906,0.69889736,-0.5608775,0.97169137,0.60907006,0.4140097,0.6828222,0.3208145,0.8612981,0.89146614,0.1820172,-0.9211714,-0.18712938,0.30157006,0.5038793,-0.41772407,0.013626933,-0.11826718,-0.029194713,0.9468951,-0.5835208,0.89211774,0.64876556,-0.03759706]},{"bias":0.96756315,"weights":[-0.3303625,-0.3786227,0.6839504,0.20506585,0.6013124,-0.3635847,0.5967746,-0.76065063,0.9259107,0.5528226,-0.15834868,0.7893486,0.94519687,-0.6809499,0.832325,-0.19852412,0.12479293,0.36818302,-0.38721174,-0.6437509,-0.4045443,-0.48433083,0.6403594,0.033216834,0.47229612,0.7083738,-0.6060149,-0.59955233,-0.7214048,0.29797828]},{"bias":0.5383017,"weights":[-0.7864268,-0.50563806,-0.55382746,0.4065827,-0.67870307,-0.31940073,0.28228724,0.2856766,-0.61483115,0.11632717,0.7273853,0.9025204,-0.44127387,0.7810066,0.072131515,0.49850047,-0.1385535,-0.36490887,0.5732775,0.560025,0.66548777,0.6556721,0.35442007,0.14403474,-0.47046965,0.9772272,-0.3038842,0.31453145,0.776469,0.9188442]},{"bias":-0.61946696,"weights":[0.5354779,0.41444886,0.61458373,-0.23551047,0.80594254,-0.66738653,0.016780257,0.04858458,-0.2522673,-0.2577409,-0.74952507,0.72254515,-0.22709692,0.44419777,0.5551863,0.35703957,0.20144999,0.21238554,-0.5009722,-0.41808838,0.8555882,-0.7455642,0.9089997,-0.46297616,-0.25729388,0.28934324,-0.6144988,0.9613948,0.5646994,-0.19770634]},{"bias":-0.06424916,"weights":[0.8148024,0.84512186,0.24899518,-0.93516874,-0.6934848,-0.81574893,0.8873379,0.72420526,0.06501281,0.5082636,0.74798584,-0.82667565,-0.0060516596,0.6413319,0.97191906,-0.9882519,0.1874007,0.21946108,-0.27640647,0.15080202,0.50868416,-0.081569314,0.079758525,0.16272223,-0.4855222,-0.12833846,0.5432043,0.5709379,-0.65934014,0.07702744]},{"bias":-0.07445872,"weights":[0.5891013,-0.28065938,0.3555156,0.18818986,0.83993363,-0.2900862,0.4922768,0.8073125,-0.43462127,0.36504543,0.5168989,-0.49302596,-0.47042888,0.47204816,0.58549595,0.32064545,-0.29820365,0.6220498,0.13904297,0.11011207,0.9995055,0.70579743,0.55163527,0.060005307,-0.87136173,0.5508802,-0.77268887,-0.13812816,0.3745457,-0.45538658]},{"bias":-0.60343903,"weights":[0.19110024,0.4179634,0.45670664,-0.5243704,0.65163255,0.078133464,-0.64334345,-0.95342183,-0.87888145,-0.799793,0.65411043,-0.5210566,0.47088897,0.84178615,0.09449518,0.59972215,-0.9395549,-0.52955097,0.44286764,-0.76959777,-0.5525083,0.66319585,-0.66849947,-0.99385595,-0.7804992,0.5429833,-0.619188,0.0303787,-0.8518684,-0.032162547]},{"bias":0.8625381,"weights":[-0.6129469,-0.27813452,-0.79055643,-0.61955494,-0.9690635,-0.35884255,-0.92434883,-0.6040749,-0.4083354,0.40876567,0.3342136,0.44710124,0.6524148,0.61350393,0.9860041,-0.12159574,0.4635805,-0.9194658,0.9085963,-0.3498885,-0.78178763,-0.24736989,0.20194662,0.95066786,0.90710163,-0.66227436,-0.34624738,0.1017102,-0.49843043,-0.50717396]},{"bias":0.94709873,"weights":[-0.6213767,-0.9566207,0.8743665,0.4498347,0.45337784,0.055367112,-0.12059462,0.97979283,0.14844453,0.76554775,0.80814624,0.3556496,-0.7960565,0.010843873,0.7052028,0.71839905,0.7861316,-0.8554504,0.32875478,0.23424709,-0.7431655,-0.03638041,-0.25435895,0.09485757,-0.8550441,-0.3153941,0.96980715,0.56842375,0.9988539,0.18476403]},{"bias":0.11938989,"weights":[-0.56556743,-0.69064474,-0.57306045,0.81344295,-0.86549807,0.40109217,-0.83992004,-0.38200516,-0.19966686,-0.20777404,0.25430167,-0.5166146,-0.018936753,0.16354597,0.6334877,-0.051939845,-0.35514015,0.47095025,0.2731768,0.472623,0.25081217,0.6194477,-0.3384995,0.9657397,0.17932546,-0.16081941,-0.35825747,0.7472677,-0.40856785,0.35104382]},{"bias":0.057795882,"weights":[0.60852504,0.8176153,0.20516098,0.95003796,-0.32376736,-0.93960404,0.95462465,0.33404505,0.9558339,0.035135865,0.9730358,0.3149141,0.32593453,-0.5799739,-0.7147665,0.48059094,0.76084924,0.39959848,-0.07621038,0.95380926,-0.97502494,-0.15776622,-0.7337513,-0.4055013,0.28390396,0.09179485,0.24741232,-0.59107584,0.35420763,-0.60418767]},{"bias":-0.30464476,"weights":[-0.60891384,0.2322489,0.41046822,0.8530061,-0.17321837,0.2740897,-0.2099055,0.8224087,-0.33139652,0.806762,-0.89317894,0.87152505,0.83435965,-0.27587312,0.81912994,0.22856057,-0.015917659,0.32192385,0.96464515,-0.7762327,-0.8834429,-0.17226708,-0.98512745,0.18384182,0.17837775,-0.536864,0.21353829,-0.96820974,0.39377677,-0.98540926]},{"bias":0.42936218,"weights":[0.32277596,-0.9565644,-0.52280945,-0.94175816,0.70404434,0.13605773,-0.52781147,0.15227997,-0.67751217,-0.56922597,0.7120855,-0.15742886,0.8838496,-0.12039387,-0.67905784,-0.24169242,-0.70072174,0.13741815,-0.17146623,0.278355,0.83542633,0.8400719,-0.033961654,0.87913775,0.36810935,0.279837,0.15544307,0.57617307,-0.075389504,-0.052678466]},{"bias":-0.9764855,"weights":[-0.27316803,0.7825916,-0.4384293,0.5798392,-0.4519965,0.68435717,-0.6434009,-0.1548549,-0.27142972,0.9494729,0.8297124,-0.59513897,-0.88669825,-0.17335689,-0.9490521,-0.71491694,0.8756285,0.4558767,0.26726258,-0.93465495,-0.43963522,-0.9507036,0.7012296,0.782784,0.35712636,-0.75628996,-0.70933676,0.9695618,0.6495745,-0.6773174]},{"bias":-0.59018797,"weights":[-0.4166202,0.40619814,-0.65950394,0.049481273,-0.50621694,0.36925137,0.84624434,-0.9032655,-0.03757775,-0.39185923,-0.83688855,0.54664016,-0.3832485,-0.5780007,-0.29286855,0.5067179,-0.1540035,-0.6269796,-0.6788151,-0.9934995,-0.6062841,-0.20926869,-0.05511582,-0.82976747,0.29035842,0.32199848,-0.7112982,-0.4625029,-0.46254557,0.6310859]},{"bias":-0.11245668,"weights":[0.8493943,0.5617299,0.43440187,0.49233973,-0.7752249,0.7918725,-0.8601334,-0.6876619,-0.6524401,-0.8837578,-0.31853575,0.45798528,-0.10571015,0.5661237,-0.48429197,-0.6925018,0.31653988,-0.7587118,-0.13382757,0.6470256,0.022911668,0.1301688,-0.6661036,-0.42016286,0.16647303,-0.6913831,-0.30113572,0.26825345,0.26075113,-0.7825711]},{"bias":0.05176413,"weights":[-0.3344993,0.43808377,0.48916495,0.3452469,-0.20404351,-0.96172523,0.44393575,-0.5490195,-0.86070347,-0.89874005,0.6944907,-0.52588123,-0.48144048,-0.8256998,0.78378916,-0.9530728,0.4626721,-0.56842226,-0.78756666,-0.6108305,0.82162714,-0.553472,0.8195224,0.45531332,-0.79243326,-0.6212322,-0.37224764,0.10396993,0.4074067,0.86754465]},{"bias":0.30087864,"weights":[-0.3316509,0.14442122,-0.6044664,-0.4358799,-0.65603805,-0.8261287,0.3513652,-0.832921,0.23621309,0.25627244,-0.57336396,0.92585206,0.69422364,-0.27335662,0.8671272,0.075692534,0.059859157,-0.76378584,0.62546396,0.95418143,0.5920131,-0.7957847,-0.40361923,-0.3476922,-0.65295434,0.3064705,0.06667507,-0.57850665,0.5383446,-0.7697418]},{"bias":0.6864033,"weights":[-0.9718075,-0.27183813,0.59683084,0.844403,-0.57656354,0.9029603,-0.9796748,-0.13485539,0.822443,-0.9868157,-0.33315486,-0.21281707,-0.055832744,0.54335856,0.35144913,-0.08808935,0.788296,0.6081133,0.905833,0.44550383,0.7680061,0.2090441,-0.5477635,-0.094478965,0.06649864,-0.19896162,0.7497475,0.15687096,-0.9237819,-0.7525239]},{"bias":0.9757843,"weights":[0.4551183,0.08150518,-0.4798202,0.9046724,0.46431744,0.39772236,0.95220876,-0.831959,0.45789063,0.24243605,-0.072803855,0.06364238,-0.225469,0.06860602,0.16963327,-0.18425238,-0.24291646,0.8433976,0.47859251,0.7840929,-0.31459373,-0.8704393,0.43921244,0.8418062,-0.8047185,0.059744954,-0.49301285,0.24488509,-0.559529,0.6555016]},{"bias":-0.0024112463,"weights":[-0.68233013,0.40464222,0.6007056,0.33198893,0.15156615,0.085511565,-0.80794215,-0.2869634,0.066055894,0.44558513,0.48939478,-0.5879528,-0.9699793,0.0040551424,-0.9596753,-0.71546984,-0.019111753,0.28926122,-0.30293268,0.26937568,-0.21784079,0.7860668,-0.9063785,-0.07006085,0.46258724,-0.7504263,0.7125213,-0.22386968,0.87888145,-0.34233063]},{"bias":-0.55446357,"weights":[-0.8281174,-0.43335837,-0.4858784,0.90612435,0.60648847,-0.82752585,0.45698726,-0.57038206,0.32789433,-0.73673654,0.671644,-0.41240305,0.7536502,-0.24637568,-0.2474531,-0.24519765,0.23639429,0.0862211,0.18599832,-0.6649265,-0.18686569,0.4788066,-0.5573775,0.8430772,-0.3288297,0.056206346,-0.8620136,-0.82568645,-0.4121768,0.6117778]},{"bias":-0.18926609,"weights":[0.6992886,0.90723777,-0.56406635,0.6723907,0.9727793,-0.67979026,0.8073404,0.65780115,0.13854682,-0.988112,0.543345,0.24517429,0.56422853,0.2001015,0.30128968,0.21352279,0.0029114485,0.14235985,0.74889064,0.57500577,-0.5335738,-0.41623682,0.97017956,-0.03888309,-0.7414601,-0.07787192,-0.72536635,0.36820042,-0.6407316,-0.7203529]},{"bias":0.39948547,"weights":[-0.39323467,0.24687898,-0.3775329,0.4684149,0.38029563,-0.5683071,-0.4348418,-0.22335088,0.90096784,0.6877098,0.7000606,-0.25093406,-0.9259093,-0.79548645,-0.9897387,0.5328467,-0.18216479,0.93261576,-0.4629609,-0.6601608,-0.38280386,-0.5778026,0.53253984,-0.58127254,0.33244908,-0.1807946,-0.7700813,-0.91516376,0.2133683,0.35685337]},{"bias":0.98940015,"weights":[-0.927829,0.9784014,-0.9605148,-0.085202575,-0.55128855,-0.13196409,-0.091320395,-0.6785495,0.50841117,0.9143429,0.7841115,0.17705429,0.04546845,-0.4914853,0.6846082,0.20662892,-0.124013305,-0.3858468,-0.4067399,0.17356431,-0.3744449,-0.8719573,0.58560276,-0.09082019,-0.48657364,-0.6542921,-0.4654104,0.037413,0.92790985,0.31376922]},{"bias":0.48993886,"weights":[0.07487142,-0.49703878,-0.38427418,-0.89550734,-0.7727468,-0.124008775,-0.877928,-0.8916366,-0.9736285,0.117443204,-0.020415187,-0.23204172,0.3300165,-0.65608835,0.49088395,-0.65630126,-0.94633293,0.22267091,0.72067547,-0.7404885,0.9459777,0.22170007,-0.579457,0.5065751,-0.277152,-0.7762444,0.8363416,0.92838764,-0.28068942,-0.20525324]},{"bias":-0.6045565,"weights":[0.5009873,0.9883747,-0.80154634,0.008444667,0.24124825,0.35191572,0.13997924,-0.6545007,0.60990953,-0.96094584,-0.19371927,-0.10227454,0.43617666,0.2920636,0.8845084,-0.1972667,-0.57609266,0.5018103,-0.68942237,0.29246914,-0.025386214,0.14702451,0.43425882,0.96431255,0.5878382,-0.07833564,-0.3587138,0.26442206,0.18215597,0.23983753]},{"bias":0.08037174,"weights":[0.6058781,0.81313515,-0.06432235,-0.8648269,0.88975,0.63559175,0.8628986,0.85808325,-0.93240905,0.176988,0.604892,0.8526404,-0.84597826,-0.41472286,0.6145241,0.47852385,0.703228,0.05813992,-0.5360636,0.565403,-0.9347987,0.029857755,-0.94543076,-0.60007757,0.75051785,-0.8180568,0.43629658,-0.9870527,-0.93605065,0.24542034]},{"bias":-0.91579485,"weights":[-0.9274292,0.91079164,0.5802722,-0.22786844,0.6662047,-0.1813575,-0.61298007,0.44873798,-0.05351913,0.5773463,-0.87991476,0.86174273,0.86988115,-0.43320316,-0.3174991,-0.29170626,0.39182532,-0.3300435,-0.8391688,-0.4248683,-0.9682083,-0.026290298,0.52133083,-0.6154327,-0.6265681,0.36612976,-0.35742372,0.8868661,0.9044275,-0.4394204]},{"bias":0.9434211,"weights":[0.32663667,-0.29987067,-0.022353053,-0.4204468,-0.05066359,0.97479343,-0.90596914,0.89589596,-0.8641763,0.47312272,0.41942275,-0.941237,0.9894705,-0.028760552,-0.13270819,-0.1938957,-0.6341493,0.45470202,-0.56053084,0.51134086,0.7259805,-0.23815715,-0.14704263,-0.3805353,-0.14546359,0.64872694,-0.9881437,-0.15547478,-0.028880239,-0.24703753]}]},{"neurons":[{"bias":0.9052777,"weights":[-0.6419101,0.9082401,0.95544434,-0.80583286,0.770484,0.91073394,-0.2960791,0.52710986,0.25383413,0.18900406,0.79785204,0.39073765,0.081745744,0.5041406,0.86078954,-0.8629906,0.23748457,0.20606053,-0.2074076,0.60739994,-0.6209504,0.81521916,-0.22582448,-0.16265523,-0.26655596,0.3050412,0.24270451,-0.21325338,0.21100247,0.3601991]}]}]}