{"layers":[{"neurons":[{"bias":0.43796432,"weights":[0.42795718,-0.07056701,-0.54708695,0.8994341,-0.9134159,0.38479125,-0.3373763,0.54609084,-0.7372236,-0.32865328,0.70659447,-0.6066503,0.00504221,-0.3674602,0.05184138,0.055476308,0.7637241,0.8731726,0.93655014,0.461779,-0.8942684,0.4127375,-0.78861094,0.8153205,0.19746631,-0.7245343,0.112769485,0.31345826,-0.43018904,0.852051]},{"bias":0.015313983,"weights":[0.8261703,0.7076571,-0.9718492,-0.9083798,-0.43958634,-0.72500587,0.5957365,-0.4256282,-0.045328498,0.24408495,0.86663365,0.8579378,-0.60520333,0.17538226,0.60301256,-0.6060919,-0.830132,-0.11985171,0.97940445,-0.5432416,-0.2893209,0.099765226,-0.40632933,-0.22517169,0.776351,0.9103823,-0.53488916,-0.2755172,-0.9736023,-0.05946791]},{"bias":-0.1731199,"weights":[0.75400066,0.9851198,0.04854715,-0.80719244,0.012638979,-0.777663,0.36445034,0.7408552,-0.41931766,0.8415189,0.7445407,0.95232844,-0.08307183,-0.602073,-0.16861594,-0.9272909,0.086683534,0.13190329,0.3190504,-0.38664728,-0.13884261,-0.417675,0.2723807,0.1951321,-0.7507765,-0.9831569,0.8446653,0.5648314,-0.67226785,-0.09707105]},{"bias":0.72270155,"weights":[0.0025399923,-0.6936319,0.21590102,-0.6022925,0.40296996,0.17810929,0.14955765,-0.028597213,0.22089484,-0.5504758,-0.6829808,0.74189544,0.594401,0.76822954,0.58093613,-0.1900141,0.86463296,0.34481752,-0.5142655,1.0,0.22301733,-0.29888675,0.3734128,0.3998965,-0.8904419,0.815105,-0.19556367,0.79740167,0.35985005,0.9643953]},{"bias":-0.64338756,"weights":[-0.501985,0.99695563,0.28275993,0.58464456,0.6539121,-0.925883,0.26906598,-0.3845567,0.81465507,-0.18990648,0.96237993,-0.036483407,0.17987978,0.003681779,0.061250806,0.27926838,0.19455513,0.8176739,0.87169886,-0.7366438,0.9277561,0.5202431,0.012656897,0.88804674,-0.57848114,0.107016444,-0.8406372,-0.8271291,0.3342172,0.4590968]},{"bias":0.9038396,"weights":[0.9388037,0.75362396,0.46636355,0.64325976,0.25240624,0.6990456,-0.6728978,0.81815547,-0.6403177,-0.5962027,-0.4885654,-0.05801335,0.9538884,0.8721187,0.5683198,0.26125658,0.23507082,-0.39905187,0.41506693,0.40784633,0.027370565,-0.304923,-0.23814571,-0.6628264,-0.36421853,0.3111993,0.97145104,0.3241235,0.35828888,-0.48128837]},{"bias":-0.5537943,"weights":[0.40826142,0.758061,0.90895104,-0.16682541,0.3815204,0.05936896,0.24236095,0.5741708,0.5357249,-0.049623266,0.78065157,0.745396,0.26384008,0.4040197,-0.11139858,-0.08741248,-0.782219,0.23593438,-0.6551659,0.29535472,0.30098474,-0.20003197,0.7789588,-0.62265867,0.15719044,-0.8322439,0.28969514,-0.7282636,0.5035132,0.5442889]},{"bias":0.7425554,"weights":[-0.90269876,-0.80205667,0.37502515,0.38068235,0.19073999,-0.364896,-0.51880306,-0.7779081,-0.65106726,0.13172638,0.54472494,-0.9803012,-0.22429526,0.24607408,0.9924264,-0.11549723,-0.36994213,-0.05077088,-0.5585937,0.09923947,0.38179958,0.35181987,0.12105787,-0.72128415,-0.584016,-0.96775174,0.1709131,0.41087878,-0.028481603,-0.3728146]},{"bias":0.3384322,"weights":[0.7512201,-0.24371827,-0.9192352,0.45614302,-0.18604314,0.24471594,0.2963935,-0.011215568,-0.7035876,0.13150561,0.22558415,0.17377031,0.4465772,0.3195573,0.5444541,-0.5482785,-0.21166003,0.8113509,0.69630384,-0.10349953,0.38449466,0.26443544,0.82058644,0.49134672,0.10634148,-0.6166566,0.086675525,-0.6935208,0.048057675,-0.20466006]},{"bias":-0.37462395,"weights":[-0.9629934,0.9835262,0.5820112,-0.3477077,0.03694094,0.24939574,0.44849497,0.15807587,-0.22701871,-0.52321213,-0.72209644,-0.38384342,-0.19954288,-0.6030883,0.93767667,0.9253764,0.36003542,0.1035341,0.34489787,1.0,-0.18927205,0.04741323,0.6831991,-0.91493624,-0.42723465,-0.36064357,-0.23928821,-0.22647488,-0.18511456,-0.6779749]},{"bias":-0.7423644,"weights":[0.88938177,0.040439248,0.46662366,0.85143256,0.39217222,0.43658173,-0.86545855,-0.03560865,0.4932214,-0.82404447,-0.69768834,-0.13057506,0.6934469,-0.35913676,0.6420081,0.72203135,-0.7170744,0.8695864,0.63496065,-0.88135195,0.3915497,-0.8427981,0.6941014,-0.04690373,-0.7243943,-0.00959865,0.118661284,0.90587425,0.9605906,-0.6783998]},{"bias":-0.27401918,"weights":[-0.30616355,0.3716582,0.61032104,0.29997718,0.1251818,0.914078,-0.6579452,0.6886411,-0.494961,-0.52532214,-0.48177308,0.73821974,0.72871447,0.84315085,0.32380855,0.43307245,0.4530517,-0.35281605,0.49747765,-0.6555221,0.558135,-0.32561105,0.14819443,-0.67263436,0.4995085,0.081876636,0.50035834,-0.30938357,0.34684312,0.10023892]},{"bias":0.11803019,"weights":[0.87227935,-0.7003031,0.8632004,-0.84064746,0.74845004,0.6128134,-0.70161533,-0.76609206,-0.21938641,-0.5589873,0.29197994,-0.00014030933,-0.6532388,-0.31799263,-0.3917845,-0.16872355,0.6952933,0.6953647,0.15412775,0.5801337,-0.064020984,0.42485547,-0.5305111,0.40019524,0.4350448,0.25213265,0.48816764,-0.630952,-0.7620199,0.7294016]},{"bias":-0.14762557,"weights":[0.68012476,-0.32296032,0.77922916,-0.6896714,0.28386104,-0.6389189,0.7898731,-0.40377396,0.47263896,-0.45535186,0.5576509,0.022390723,-0.69244576,0.80036736,0.7505407,0.11017716,0.971643,0.03719604,-0.059275694,0.32468235,0.19105065,-0.10662258,-0.6548034,1.0,-0.5811855,0.082529426,0.2297355,0.14556658,-0.3706171,0.30557334]},{"bias":0.42152655,"weights":[0.39593065,-0.44493598,-0.49732846,-0.13012993,0.7024739,0.92053366,-0.85332346,0.44398868,0.71305966,-0.62795115,-0.61409545,0.24034274,-0.7049315,0.28240144,-0.647815,0.88595366,-0.5924557,0.7454643,0.05863154,-0.47563213,-0.14770485,0.840821,-0.6100227,0.44598806,-0.7381563,-0.4337179,-0.2834007,0.15920031,-0.49153495,-0.3928451]},{"bias":-0.710202,"weights":[0.071090415,0.89514303,0.22413385,-0.15110719,-0.5154728,-0.23915228,0.5549903,0.78102493,0.79879403,-0.5433511,-0.98881364,0.2992369,-0.46968338,0.30268967,-0.11467183,0.13264515,-0.33928913,0.104670525,-0.22757518,0.17641175,-0.83865905,0.6314268,-0.50091285,-0.06652272,0.22559398,-0.5706722,0.3802574,-0.32440537,-0.004035592,0.79289913]},{"bias":-0.7883427,"weights":[-0.62718153,-0.009710193,-0.5460593,-0.70179844,-0.9807992,-0.6524956,-0.7122588,-0.6820526,-0.39361113,0.076744914,-0.37678283,0.042663217,0.7519071,-0.7320571,-0.8864198,0.78676224,-0.6414728,0.45708078,-0.7849927,0.06892431,0.85572386,0.9129789,-0.30281276,-0.9785423,0.38234007,-0.8356991,-0.62683845,-0.15741313,0.24356878,0.63943803]},{"bias":0.5766728,"weights":[-0.6072592,-0.021622777,0.4685458,0.8554542,0.22316647,0.7120631,-0.68726397,0.8600259,-0.40790313,-0.6893206,-0.22160393,-0.7205918,-0.86174077,0.4148172,-0.29211372,-0.79239345,0.8921244,0.7209008,0.28670496,-0.26415938,0.6167476,-0.23801696,-0.62987137,-0.5035885,0.13375677,0.16817227,0.30722296,-0.9670186,0.37166274,-0.42529926]},{"bias":0.171363,"weights":[-0.34636953,-0.4538731,0.55914164,-0.0324933,-0.35429597,0.12049343,-0.58461756,0.9062023,0.22197047,-0.6615815,-0.8813324,0.12815425,-0.6617651,0.7581134,-0.8246059,-0.68294287,0.21174109,-0.5723793,0.6835101,-0.37560853,-0.72376513,-0.79434633,0.45538008,0.47146237,0.77793145,0.14670908,0.99430346,-0.37756184,0.13969466,-0.9261496]},{"bias":0.9992602,"weights":[0.13582504,-0.062119603,-0.89002085,0.60441756,0.7557006,-0.5858869,-0.07930926,-0.022210456,-0.16355544,-0.23149312,0.39806235,-0.54629254,-0.11153287,0.85349405,-0.95004535,0.03559172,0.67950845,-0.96224713,-0.61574185,0.9427425,0.5370147,0.35722288,0.83569646,-0.35361445,0.14006507,0.35675514,-0.5312,0.7876737,-0.4138984,-0.88488877]},{"bias":-0.912621,"weights":[0.23130381,0.60097456,0.24267238,-0.4827022,-0.93500113,0.29945838,0.18636096,-0.37945098,0.76331544,0.72383356,0.92959714,0.5886819,-0.06411183,-0.08339843,0.9890045,-0.10797584,-0.6826217,0.048273623,-0.32254714,0.036288843,-0.9385326,-0.84069717,-0.029554725,0.22197998,0.92016464,0.911947,0.65803385,-0.07203591,0.7071886,0.49463618]},{"bias":0.49935615,"weights":[0.2951008,-0.7858112,-0.38426656,0.604687,0.77496386,0.12660897,0.8013692,0.24404156,-0.26470736,-0.4969439,-0.2570333,-0.10965266,-0.5892603,0.8476572,-0.0397588,0.95225334,0.5226555,-0.30155057,-0.0077017546,0.45286906,-0.8377057,-0.4521529,0.027224422,0.21398209,-0.59938306,-0.37622255,0.93767405,-0.4521603,-0.53515095,0.9579824]},{"bias":-0.8999164,"weights":[-0.27301103,0.015929818,-0.7763059,0.79591817,1.0,-0.6048493,0.7231195,0.034598947,0.14476454,0.18283498,-0.08707011,-0.008985162,0.0313946,-0.6269585,-0.17070019,-0.32944268,-0.5143239,-0.9995401,0.12568891,-0.024142385,-0.3241033,-0.858011,0.41485417,0.6926844,-0.6345656,-0.8309946,-0.7014875,0.1684252,-0.87196374,-0.1837183]},{"bias":-0.6104836,"weights":[0.19748223,-0.42801827,0.47060692,0.43020386,0.13769108,0.7009504,-0.31081337,-0.8635807,0.8353274,-0.67998314,0.4939114,-0.31024116,-0.5812182,-0.267801,-0.40685236,-0.8442633,-0.6001496,-0.29092854,-0.86728233,0.2995926,0.6738881,-0.61376065,0.17890131,-0.9176512,-0.48256344,-0.55615467,0.63772225,0.16183245,0.054360926,0.9881482]},{"bias":0.5898051,"weights":[-0.75461125,-0.10822342,-0.86815345,0.5268996,0.037893176,0.42196286,0.29279995,-0.6276996,-0.6651666,-0.62451303,0.48222363,0.6525936,-0.97774017,-0.099324346,-0.9187455,0.88958144,-0.21726334,0.7164669,-0.6475927,0.98173106,-0.53988045,0.8150277,-0.20735872,0.56758475,0.83740854,0.60080194,-0.3989398,0.6913748,0.58782125,-0.81229925]},{"bias":0.23802197,"weights":[-0.22747433,0.8846028,0.04142034,0.47246158,-0.27865523,-0.15862453,0.44184452,-0.34979886,-0.11140978,-0.63538,-0.93572545,0.16681814,0.8328304,-0.77813935,0.09806512,-0.762053,-0.049859643,-0.48827547,-0.020690084,-0.08258965,0.80280066,-0.9162264,0.6042628,0.09080565,0.5195675,0.33955848,0.8266256,0.88751173,-0.6670122,-0.5581929]},{"bias":-0.9928055,"weights":[0.8592174,0.62648416,0.44555885,0.8067137,0.91697574,0.3661343,0.7990788,-0.57804626,0.7358153,0.53216743,0.21834871,0.2554252,-0.66925,-0.40101165,0.642324,-0.27562112,-0.9566837,0.60094166,-0.31366193,0.030161545,0.5815377,0.3228234,0.16657904,-0.9024236,-0.83505845,0.5691571,0.07695544,-0.6276741,0.52480626,0.7186909]},{"bias":-0.50219125,"weights":[-0.19938457,0.61046195,0.7886274,0.35209978,0.62288237,-0.8104045,0.44785392,0.015767932,-0.7205608,-0.19316284,-0.1773942,0.5664972,-0.28922766,0.46410978,-0.026242852,-0.22274363,-0.52920336,0.31549585,-0.4804114,0.5840935,1.0,0.80547214,0.13395965,0.109217525,-0.25705707,0.31742656,0.47397205,0.66175866,-0.2522697,0.8352618]},{"bias":0.02022469,"weights":[-0.75106716,0.48646438,0.37547138,0.32001793,-0.2913432,-0.045274444,0.014642358,0.76391935,-0.1626203,-0.22165118,0.067049384,0.6231351,0.20012677,-0.008086562,-0.624597,0.8387928,0.31098115,-0.32520622,-0.25319022,-0.23376666,0.67949605,0.660053,0.30807412,-0.28511328,0.16182935,0.10328862,-0.6752937,-0.56352514,-0.88982195,-0.7062478]},{"bias":0.40561354,"weights":[0.5812138,0.753389,0.86195946,-0.33699363,-0.34052724,0.35343802,0.2339381,0.25586313,0.1374973,0.5325677,-1.0,0.3656131,-0.017296687,-0.4633667,0.9295254,0.45197117,-0.97045946,-0.30354422,0.5536219,0.6444369,-0.27015918,-0.8587363,0.75374603,0.7943523,0.4009704,-0.31354898,0.040842652,0.8072354,0.9807565,0.39140853]}]},{"neurons":[{"bias":0.52202296,"weights":[0.5585286,0.6851051,0.011216998,0.430102,-0.017436385,-0.0053013563,0.21501291,0.82699823,0.5622698,-0.20218909,-0.36149162,0.171471,0.07414639,0.48682988,-0.95749855,-0.24915867,-0.49903697,-0.9070158,-0.7795141,0.10698736,-0.6257634,0.04987429,-0.7917958,0.05405751,-0.029695269,0.7788327,-0.23730576,0.3290168,0.9393151,-0.25087708]}]}]}