{"layers":[{"neurons":[{"bias":-0.6836548,"weights":[-0.30789083,-0.052055717,0.1519481,-0.06457007,0.35743916,0.93479633,-0.74912906,0.69889736,-0.5608775,0.97169137,0.1361872,0.4140097,0.6828222,0.3208145,0.8612981,0.89146614,0.1820172,-0.9211714,-0.18712938,0.07989895,0.5038793,-0.41772407,-0.9132173,-0.054415584,-0.029194713,0.5313685,-0.051163316,0.89211774,0.74221087,-0.03759706]},{"bias":0.96756315,"weights":[-0.3303625,-0.3786227,0.6839504,0.20506585,-0.22312605,-0.3635847,0.5967746,-0.76065063,0.9259107,-0.75031614,-0.15834868,0.7893486,0.94519687,-0.6809499,-0.45446438,-0.19852412,0.12479293,-0.49764222,-0.38721174,0.46235573,-0.4045443,-0.43808788,0.6403594,0.033216834,0.47229612,0.7083738,0.32585847,0.56930923,-0.7214048,0.29797828]},{"bias":0.5383017,"weights":[0.5851004,-0.50563806,-0.944479,0.4065827,-0.67870307,-0.9877703,-0.07712686,0.2856766,-0.61483115,0.11632717,-0.058579326,0.9025204,0.7630732,0.7810066,0.072131515,0.9838939,0.7543149,-0.36490887,0.5732775,0.20895207,-0.007396102,0.6556721,-0.4449963,0.14403474,0.55258155,0.9772272,-0.36790365,0.31453145,0.776469,0.9188442]},{"bias":-0.61946696,"weights":[0.5354779,0.41444886,0.61458373,-0.84968615,0.80594254,-0.21160853,0.016780257,0.19274223,-0.2522673,-0.2577409,-0.74952507,0.72254515,-0.22709692,0.44419777,0.5551863,-0.6334028,0.20144999,-0.8810673,0.302467,-0.41808838,0.8555882,0.28457963,0.9089997,-0.46297616,0.72685814,0.28934324,-0.6144988,0.9613948,0.3040539,-0.19770634]},{"bias":0.83164024,"weights":[0.8148024,0.84512186,0.24899518,0.045472026,-0.6934848,0.18997204,0.8873379,0.72420526,0.06501281,0.5082636,0.74798584,-0.82667565,-0.0060516596,-0.44312352,0.97191906,0.1620928,0.1874007,0.21946108,-0.6832955,0.15080202,0.50868416,-0.081569314,0.079758525,0.16272223,-0.460746,-0.12833846,-0.7686355,0.5709379,-0.65934014,-0.17047513]},{"bias":-0.07445872,"weights":[0.5891013,-0.13521802,0.3555156,0.46598804,0.83993363,-0.2900862,0.4922768,0.8073125,0.85333276,0.9339485,0.5168989,-0.49302596,-0.47042888,0.12170231,0.300583,-0.78522587,-0.29820365,0.37152493,0.13904297,-0.8403952,0.9995055,0.70579743,0.55163527,0.060005307,-0.87136173,-0.8607855,-0.77268887,-0.13812816,0.3745457,-0.45538658]},{"bias":-0.39564556,"weights":[0.19110024,0.4179634,0.8939159,-0.5243704,0.24148023,-0.79300165,-0.64334345,-0.9419267,0.9398792,0.15337741,0.65411043,0.53892756,0.47088897,-0.3143937,0.09449518,-0.088992715,-0.9395549,-0.52955097,0.37887084,-0.76959777,-0.5525083,0.66319585,-0.66849947,-0.99385595,-0.7804992,-0.07858336,-0.619188,0.0303787,-0.8518684,0.09852588]},{"bias":0.5299983,"weights":[-0.5478694,-0.27813452,-0.79055643,-0.61955494,-0.9690635,-0.35884255,0.6857164,0.21773756,-0.69872785,0.43407977,0.3342136,0.44710124,0.6524148,0.61350393,0.9860041,-0.12159574,0.4635805,0.8337159,0.9085963,-0.3498885,-0.78178763,-0.24736989,-0.005060792,0.15262163,0.90710163,-0.90301657,-0.34624738,0.1017102,-0.49843043,-0.50717396]},{"bias":0.94709873,"weights":[-0.16088402,-0.9566207,0.8743665,0.4498347,0.45337784,0.055367112,-0.12059462,0.97979283,-0.9218776,0.76554775,-0.48830765,0.3556496,-0.7960565,0.118074775,0.7052028,0.71839905,0.7861316,-0.8554504,0.32875478,0.23424709,-0.7431655,-0.53279513,-0.25435895,-0.572148,-0.8550441,-0.3153941,0.96980715,0.56842375,0.1223582,0.18476403]},{"bias":-0.22441494,"weights":[0.85524774,-0.40894288,0.22218764,0.81344295,-0.76206136,0.40109217,-0.83992004,-0.38200516,-0.19966686,-0.20777404,0.7418418,-0.5166146,-0.74539065,0.16354597,0.6334877,-0.051939845,-0.35514015,0.47095025,0.2731768,0.472623,0.25081217,0.6194477,-0.3384995,0.9657397,-0.7623637,-0.16081941,-0.35825747,0.7472677,-0.40856785,0.35104382]},{"bias":0.057795882,"weights":[0.9683864,0.8176153,0.20516098,0.95003796,-0.32376736,-0.93960404,0.95462465,0.23667324,0.9558339,0.035135865,0.9730358,0.9969952,0.57043433,-0.5799739,-0.84788966,-0.62353224,0.20838702,0.39959848,-0.07621038,0.99154997,-0.97502494,-0.15776622,-0.7337513,-0.4055013,0.28390396,0.09179485,0.24741232,0.50679445,0.35420763,-0.60418767]},{"bias":-0.30464476,"weights":[-0.60891384,0.2322489,0.12797058,0.8530061,-0.17321837,-0.9560027,0.2925564,0.8224087,0.42028153,0.20370734,-0.89317894,0.87152505,0.83435965,-0.27587312,0.81912994,0.6504514,-0.015917659,-0.28691667,0.96464515,-0.7762327,-0.8834429,-0.17226708,-0.98512745,-0.6689513,0.6983285,0.72370625,0.21353829,-0.96820974,0.2189709,-0.98540926]},{"bias":0.42936218,"weights":[0.06848085,-0.9565644,-0.57653445,-0.94175816,0.70404434,-0.9806535,-0.76560163,0.15227997,-0.67751217,-0.56922597,0.7120855,-0.15742886,0.8838496,-0.12039387,-0.67905784,-0.24169242,-0.70072174,0.9006138,0.2092334,0.278355,0.83542633,0.8400719,-0.4091937,0.87913775,0.36810935,0.279837,0.27636135,0.57617307,-0.075389504,0.11557424]},{"bias":-0.9764855,"weights":[0.393093,0.7825916,-0.4384293,-0.99920416,-0.4519965,0.68435717,-0.827409,-0.1548549,-0.27142972,-0.48337263,0.8297124,-0.59513897,-0.88669825,-0.17335689,-0.9490521,-0.71491694,0.8756285,-0.24384606,0.26726258,-0.2792384,-0.54737824,0.7463782,0.7012296,0.782784,-0.8325691,-0.75628996,-0.70933676,0.9695618,0.6495745,-0.6773174]},{"bias":-0.59018797,"weights":[0.5482323,0.40619814,-0.65950394,-0.98868823,-0.50621694,0.36925137,0.84624434,-0.9032655,-0.03757775,-0.06920612,0.76041794,0.6979475,-0.3832485,-0.06461465,-0.29286855,0.42815173,-0.6451833,0.4096452,-0.6788151,-0.9934995,-0.6062841,0.91300917,-0.05511582,-0.82976747,-0.8630812,-0.5006792,-0.4007668,-0.4625029,-0.57313913,0.6310859]},{"bias":0.14878738,"weights":[0.8493943,0.5617299,0.43440187,0.49233973,0.3626634,0.7918725,0.3174919,-0.6876619,-0.6524401,-0.8837578,-0.31853575,0.4588102,-0.10571015,0.5661237,0.22590911,-0.46714562,-0.47458047,-0.7587118,-0.13382757,-0.9357369,-0.30186528,0.1301688,0.9272151,-0.42016286,0.16647303,0.64587045,-0.30113572,0.26825345,0.4814335,-0.7825711]},{"bias":0.05176413,"weights":[0.432243,0.43808377,0.48916495,0.85126686,-0.20404351,-0.96172523,0.44393575,-0.5490195,-0.86070347,-0.89874005,0.6944907,-0.52588123,-0.48144048,-0.8256998,0.20006001,-0.9530728,0.4626721,0.8076041,0.62931037,-0.9802704,0.82162714,0.995028,-0.62907004,0.78239226,0.831516,-0.6212322,-0.5388462,0.22500145,0.4074067,-0.27455276]},{"bias":-0.36552376,"weights":[-0.3316509,0.00032150745,-0.6044664,-0.4358799,-0.024935842,0.34578788,-0.7607956,-0.832921,0.23621309,0.25627244,-0.33382004,0.92585206,0.69422364,-0.27335662,0.8671272,-0.81736135,0.059859157,-0.76378584,0.62546396,0.95418143,0.5920131,0.24304473,0.532403,-0.3476922,-0.24743521,0.3064705,0.06667507,-0.57850665,0.5383446,-0.5570199]},{"bias":-0.39105004,"weights":[0.9370835,-0.73875403,-0.5288388,0.41706192,-0.7008679,0.9029603,-0.9796748,0.64353037,0.822443,-0.9868157,-0.33315486,0.17145121,-0.055832744,0.54335856,0.35144913,-0.08808935,0.788296,-0.944268,0.905833,0.44550383,0.7680061,0.2090441,-0.5477635,-0.094478965,0.06649864,0.5382781,0.7497475,0.15089858,-0.9237819,-0.5909416]},{"bias":-0.6485486,"weights":[0.76957226,0.08150518,-0.4798202,0.8463838,0.46431744,0.39772236,0.23554718,-0.831959,0.622278,0.24243605,-0.5774607,-0.89500976,-0.225469,-0.5902018,0.16963327,-0.96124196,-0.24291646,0.8433976,0.47859251,0.24346721,0.7633488,-0.32920903,0.43921244,0.8418062,-0.8047185,0.059744954,-0.49301285,0.24488509,-0.559529,0.6555016]},{"bias":0.25357258,"weights":[-0.68233013,0.40464222,0.6007056,0.33198893,0.6322868,0.085511565,-0.80794215,-0.2869634,0.066055894,0.44558513,0.48939478,0.08772552,-0.9699793,0.0040551424,-0.9596753,-0.38138193,-0.019111753,0.28926122,0.9795923,0.26937568,0.16452849,0.7860668,-0.91093016,-0.07006085,0.46258724,-0.7504263,0.7125213,-0.22386968,0.9995816,-0.34233063]},{"bias":0.99066377,"weights":[-0.8281174,0.9101589,-0.4858784,0.90612435,-0.51817983,0.26093018,0.45698726,-0.12801898,0.32789433,-0.73673654,0.671644,-0.41240305,-0.64492536,-0.24637568,0.28637946,-0.24519765,0.23639429,0.0862211,-0.6574731,-0.6649265,-0.18686569,0.4788066,-0.5573775,0.8430772,-0.3288297,0.056206346,-0.8620136,-0.82568645,-0.4121768,0.5738466]},{"bias":-0.34817213,"weights":[0.6992886,0.7655742,-0.56406635,0.6723907,0.9727793,-0.67979026,0.8073404,0.65780115,-0.8089881,0.7596946,0.543345,0.24517429,0.17761528,0.2001015,0.30128968,0.21352279,0.37527025,0.14235985,-0.25149816,0.57500577,-0.5335738,-0.39892477,0.97017956,-0.2795505,-0.7414601,-0.07787192,-0.72536635,0.36820042,-0.6407316,-0.7203529]},{"bias":-0.8050556,"weights":[-0.39323467,0.4603063,-0.3775329,0.4684149,0.38029563,-0.3772747,-0.4348418,-0.22335088,0.90096784,0.6877098,-0.9593508,-0.25093406,-0.9259093,-0.79548645,-0.9897387,0.5328467,-0.18216479,0.93261576,-0.4629609,-0.6601608,-0.38280386,-0.5778026,0.57464814,-0.6131074,0.33244908,0.9107604,-0.09160578,-0.5657713,0.2133683,0.35685337]},{"bias":0.3283497,"weights":[-0.927829,0.07481706,-0.9605148,-0.085202575,-0.1912061,-0.13196409,-0.091320395,-0.6785495,0.50841117,0.9143429,0.7841115,0.82156324,0.04546845,-0.4914853,0.6846082,-0.38281292,0.1657747,-0.3858468,-0.4067399,0.17356431,0.27223432,-0.8719573,0.58560276,-0.09082019,0.53981733,-0.6542921,-0.4654104,0.037413,0.018807769,0.051974654]},{"bias":0.48993886,"weights":[0.07487142,0.9636848,-0.38427418,0.6822088,-0.7727468,-0.124008775,-0.877928,0.4916209,0.10798156,0.117443204,-0.020415187,-0.23204172,0.9103317,-0.65608835,0.39128196,-0.65630126,-0.94633293,0.22267091,0.72067547,-0.7404885,0.22669923,0.22170007,-0.579457,0.5065751,-0.277152,-0.7762444,0.8363416,0.92838764,0.5732937,-0.20525324]},{"bias":-0.6045565,"weights":[-0.6613872,0.9883747,-0.80154634,-0.7446706,0.24124825,0.35191572,0.13997924,-0.6545007,0.06722486,-0.96094584,-0.19371927,-0.10227454,0.43617666,-0.102970004,0.8845084,-0.1972667,-0.57609266,0.5018103,-0.68942237,0.29246914,-0.025386214,0.14702451,0.43425882,0.35134184,0.5878382,-0.48942274,-0.07713807,0.26442206,0.70998764,0.23983753]},{"bias":0.08037174,"weights":[0.6058781,0.43626463,-0.06432235,0.13588703,0.88975,0.63559175,-0.22356021,0.85808325,-0.93240905,0.176988,-0.21437967,0.8526404,-0.84597826,-0.41472286,0.7589493,0.6366241,0.703228,0.86168504,-0.5360636,0.565403,-0.9347987,0.029857755,-0.94543076,-0.122012496,-0.6207904,-0.8180568,0.43629658,-0.9870527,-0.93605065,0.24542034]},{"bias":-0.91579485,"weights":[-0.9274292,0.91079164,0.5802722,-0.22786844,-0.64961433,-0.4784841,-0.61298007,0.44873798,-0.05351913,0.5773463,0.93895316,-0.056636214,0.86988115,0.5017891,0.43945444,-0.29170626,0.39182532,-0.3300435,0.40839827,-0.3444628,-0.9682083,0.8021803,0.52133083,0.4947635,0.072220206,-0.9908707,-0.35742372,0.8868661,0.7301321,-0.4394204]},{"bias":0.9434211,"weights":[-0.9458251,-0.29987067,0.87449646,-0.4927737,-0.05066359,0.97479343,-0.90596914,0.11928308,0.52287793,0.47312272,0.41942275,-0.75187707,0.9894705,-0.028760552,-0.13270819,-0.1938957,-0.6341493,0.8382764,-0.56053084,0.51134086,0.7042959,-0.23815715,0.0026797056,-0.13470066,-0.25652617,0.64872694,-0.57418865,-0.718585,-0.1557914,-0.5443179]}]},{"neurons":[{"bias":0.9052777,"weights":[-0.6419101,0.9082401,0.9572463,-0.45278472,0.770484,0.91073394,-0.04335177,0.52710986,0.25383413,0.18900406,-0.06073916,0.24027932,0.081745744,0.5041406,0.33681452,-0.8629906,0.23748457,-0.25598735,0.19798815,0.0023003817,-0.6209504,-0.09704721,-0.22582448,-0.6262944,-0.26655596,0.3050412,0.24270451,-0.21325338,0.21100247,0.36950433]}]}]}