{"layers":[{"neurons":[{"bias":-0.2573194,"weights":[-0.30789083,-0.052055717,0.1519481,-0.06457007,-0.060022235,0.67819667,0.75656056,-0.21205223,-0.9804237,0.97169137,0.1361872,0.4140097,0.6828222,0.19952095,-0.30449647,-0.86272216,0.9986167,-0.06977785,-0.18712938,-0.31455463,0.5038793,0.10127342,0.3055414,-0.054415584,-0.029194713,0.5313685,0.90008545,0.45030105,-0.6591222,-0.03759706]},{"bias":0.44754112,"weights":[0.88568807,-0.6523187,-0.28232783,0.20506585,-0.22312605,0.61932445,0.13164437,0.34047806,0.9259107,-0.1466471,-0.15834868,0.7893486,0.94519687,-0.9432514,-0.45446438,-0.95371175,0.6131072,0.08779538,-0.10194981,0.62677,-0.73557806,-0.43808788,0.89953685,0.4407097,0.47229612,0.7083738,0.9463093,0.56930923,0.5203109,0.8007772]},{"bias":-0.45091742,"weights":[-0.7422509,-0.99189615,-0.91131306,-0.46794456,-0.67870307,-0.9877703,-0.07712686,0.8206811,-0.76448345,0.11632717,-0.058579326,0.9025204,0.7630732,0.7810066,0.3493997,0.35387075,0.7543149,-0.080494285,0.5732775,0.20895207,-0.007396102,0.6556721,-0.4449963,-0.16102445,-0.5967075,0.31840265,-0.36790365,-0.46023124,0.42313254,-0.36978954]},{"bias":-0.61946696,"weights":[0.5354779,0.63857293,0.61458373,-0.84968615,0.41965282,0.4264561,-0.23423922,-0.13477242,-0.2522673,-0.3577239,-0.74952507,-0.9419074,-0.9584105,-0.4156887,0.774214,-0.24337041,0.20144999,-0.8810673,0.15420854,-0.41808838,0.8555882,0.28457963,0.4303254,-0.8585737,-0.28407997,0.173123,-0.435692,-0.7766359,0.3040539,0.22208464]},{"bias":0.83164024,"weights":[0.8148024,0.25625503,-0.5649738,-0.8033521,-0.6934848,0.18997204,0.47535503,0.72420526,-0.01280725,0.5082636,0.74798584,0.485947,0.84578705,-0.49591655,0.97191906,0.1620928,0.1874007,0.21946108,-0.2055763,0.13170946,-0.44477147,0.69612575,0.57193756,0.093346,-0.460746,-0.11092889,0.9821799,0.5709379,-0.65934014,-0.28712124]},{"bias":-0.5641703,"weights":[-0.8743012,-0.078871846,-0.053080678,-0.63657546,0.30352247,-0.2900862,0.4922768,0.6822965,-0.92115545,0.9339485,-0.8524318,-0.49302596,-0.3394248,0.12170231,0.300583,0.09994829,0.7453537,0.37152493,0.13904297,0.35739982,0.9995055,0.70579743,0.16414249,0.060005307,0.86756945,-0.14667666,-0.77268887,-0.27204603,0.15858543,-0.44053882]},{"bias":-0.39564556,"weights":[-0.6872668,0.4179634,0.8939159,-0.50622696,0.24148023,-0.32912487,0.3951341,-0.9419267,-0.569771,-0.28442734,0.38933694,-0.64102364,0.47088897,-0.3143937,0.9325154,-0.12851346,-0.9395549,-0.52955097,-0.7178297,-0.76959777,-0.5525083,0.66319585,0.026661754,-0.99385595,-0.688432,0.41183078,-0.619188,0.0303787,-0.8518684,-0.57129425]},{"bias":-0.8968036,"weights":[-0.5478694,-0.763237,-0.33434027,-0.61955494,-0.9690635,-0.38431925,0.6857164,-0.11963594,-0.69872785,-0.9903693,0.02456224,-0.12829506,0.6524148,0.39036238,0.8182752,-0.510106,0.4635805,0.8337159,-0.5896372,-0.3498885,-0.78178763,-0.24736989,-0.80157375,0.9222002,-0.6467314,0.562346,-0.34624738,-0.6192426,0.3581456,0.68241596]},{"bias":-0.090048194,"weights":[-0.16088402,-0.9566207,-0.7912538,0.4498347,0.45337784,-0.47522348,-0.73558855,-0.3346328,-0.16204536,0.76554775,0.082548976,-0.39936227,-0.7960565,0.118074775,0.61007977,-0.36478657,0.42852008,-0.8554504,0.32875478,0.23424709,-0.7431655,0.16142976,-0.3787257,0.43518078,-0.31820387,0.6037073,-0.9541695,0.56842375,0.1223582,0.18476403]},{"bias":0.73357916,"weights":[-0.334315,-0.40894288,0.416633,0.75716376,-0.76206136,-0.9189048,0.23197854,-0.14365351,0.74161196,-0.746876,-0.48041695,-0.66145444,-0.74539065,0.48587477,0.6334877,-0.08368766,-0.38781446,0.47095025,0.2731768,0.472623,0.520452,0.6194477,0.82184815,0.9657397,-0.7623637,-0.67503905,-0.35825747,0.7472677,0.83532786,0.35104382]},{"bias":0.8688066,"weights":[0.9683864,0.8176153,0.20516098,-0.82205653,-0.77806854,-0.93960404,0.369604,-0.11288631,-0.23634946,0.1415726,0.45443237,0.9969952,0.57043433,-0.5799739,-0.84788966,0.27837217,-0.65769863,-0.21140134,0.13260686,-0.9475887,0.09857285,-0.57435435,0.6284387,0.68901205,0.28390396,0.09179485,0.36335576,0.50679445,-0.09894717,0.19312918]},{"bias":0.80419254,"weights":[0.13490117,0.2322489,0.7354355,0.0027567148,-0.78712654,-0.9560027,0.2925564,0.555845,-0.08354795,0.68702006,0.9625764,-0.21490419,0.41652668,-0.33317012,0.81912994,0.7801051,-0.2595951,0.12880743,-0.54719275,-0.7762327,-0.23717368,-0.17226708,0.10774171,0.3129531,0.6983285,0.72370625,0.21353829,-0.23611295,0.75473356,0.9461551]},{"bias":0.42936218,"weights":[0.88628983,-0.9565644,-0.9034412,-0.6572933,0.70404434,-0.77555084,-0.76560163,0.15227997,-0.67751217,-0.56922597,-0.7170801,0.64140534,-0.40739292,-0.032635093,0.2719034,-0.23611248,-0.70072174,0.5286014,-0.061612964,-0.34920377,-0.27372426,0.5408621,-0.92364717,0.61848426,-0.1285485,-0.33953708,0.12482369,0.57617307,-0.075389504,-0.0008081198]},{"bias":0.8975067,"weights":[0.393093,-0.31279653,-0.4384293,0.22024786,-0.86129904,0.68435717,-0.827409,-0.012487769,-0.5270533,-0.027513623,0.8297124,-0.59513897,0.40398037,-0.525423,-0.58825344,-0.71491694,0.4300133,-0.24384606,-0.3072123,0.84312487,-0.54737824,0.7463782,-0.9058764,0.782784,-0.6817682,-0.25276893,-0.70933676,0.884109,0.6495745,-0.06697571]},{"bias":-0.36461443,"weights":[-0.9032862,0.83197117,-0.65950394,0.4244281,0.18645799,-0.8041353,0.84624434,-0.9032655,-0.03757775,0.312827,0.50148153,0.1300255,0.7520647,-0.06461465,0.9603479,0.42815173,-0.6451833,-0.39258808,-0.6788151,-0.092152,-0.38101453,0.91300917,0.26091802,-0.82976747,-0.01670587,0.59350514,-0.4007668,0.631119,-0.57313913,-0.15101755]},{"bias":0.14878738,"weights":[0.8493943,-0.813401,0.43440187,0.49233973,0.3626634,-0.8461473,-0.37563962,-0.6876619,-0.6524401,-0.50784105,0.058393598,0.4588102,-0.10571015,0.5661237,0.5636275,-0.19926655,-0.47458047,-0.8771739,-0.9383874,-0.41339272,-0.30186528,0.1301688,0.9272151,0.77092886,-0.63307714,0.64587045,-0.30113572,0.602993,0.4814335,0.1932944]},{"bias":0.26816142,"weights":[0.097650886,0.5370631,0.7101977,0.85126686,-0.20404351,0.29277146,0.17623961,-0.5490195,-0.86070347,-0.89874005,0.6944907,-0.52588123,0.70899224,-0.8256998,0.20006001,-0.9530728,0.4626721,-0.54916877,-0.19341362,-0.53231686,0.7551644,-0.7433891,0.6523354,0.95662117,0.7164805,0.6573479,-0.5388462,0.7949033,0.4074067,0.88972974]},{"bias":-0.37403792,"weights":[0.69617057,-0.08985627,-0.6044664,-0.6251538,-0.69320965,-0.32617086,-0.7607956,-0.832921,0.23621309,-0.14454615,0.13235605,-0.5070068,0.7016101,-0.27335662,0.8671272,-0.69710493,0.059859157,-0.76378584,0.0024462938,0.95418143,0.5920131,0.24304473,-0.7875676,-0.3476922,-0.7476094,0.16055,0.06667507,-0.7779732,0.5383446,-0.5570199]},{"bias":-0.85614896,"weights":[-0.018923402,-0.73875403,-0.54640836,-0.6938968,-0.7008679,0.9029603,-0.9796748,-0.18573534,0.822443,-0.8302598,-0.33315486,-0.74771404,-0.055832744,0.7673435,0.35144913,-0.8437121,0.023319602,-0.944268,0.5891397,0.082537055,-0.8368838,0.2090441,0.4973935,-0.094478965,0.53318477,0.5382781,0.7497475,0.15089858,-0.6169779,-0.5909416]},{"bias":-0.6485486,"weights":[0.76957226,-0.7397754,-0.6738913,0.5562005,0.46431744,-0.24693024,0.18296683,-0.831959,0.66028833,-0.99632096,-0.5774607,-0.9320922,-0.225469,0.8899598,-0.32010406,-0.96124196,0.2032057,0.8433976,0.9663818,-0.12129319,-0.857399,-0.32920903,0.43921244,-0.51205605,0.6836307,0.6547394,-0.49301285,0.61021566,0.52218676,0.6555016]},{"bias":-0.04459679,"weights":[-0.68233013,0.43962848,0.20938289,0.33198893,0.9625838,0.085511565,-0.7395084,0.3868364,0.066055894,0.8187394,0.48939478,-0.91474724,-0.38716143,0.5329571,0.51579213,0.06999552,0.29844224,0.69646,0.9795923,0.4823295,0.16452849,0.7860668,-0.36443394,-0.07006085,-0.21663082,-0.7504263,0.5316267,-0.22005856,0.2745551,-0.0523082]},{"bias":0.090842605,"weights":[-0.8281174,0.6260619,-0.4858784,-0.71350336,-0.51817983,-0.51520747,-0.4596445,-0.44247502,0.115035415,-0.73673654,0.62633014,-0.41240305,0.4740473,-0.24637568,0.28637946,-0.24519765,-0.46558136,0.5522876,-0.6574731,-0.60678285,-0.18686569,0.55622864,-0.5573775,0.2956468,-0.3288297,0.2974044,0.29765666,0.28750455,-0.10988295,0.032864213]},{"bias":-0.34817213,"weights":[-0.11965525,0.7655742,-0.2526967,0.6723907,-0.6479089,0.35500896,0.8073404,0.15381181,-0.27818626,0.51226497,0.543345,0.35955727,-0.5424802,-0.47326106,0.30128968,0.6609497,0.37527025,0.14235985,-0.25149816,0.43864834,0.9908502,-0.5919015,0.21300232,-0.2795505,0.96375227,-0.07787192,0.118442655,0.36820042,-0.47919458,-0.7203529]},{"bias":0.9633949,"weights":[-0.39323467,-0.14987147,-0.3775329,-0.7817216,0.38029563,-0.2628042,-0.4348418,0.43224537,-0.97163343,-0.8941872,0.17514074,-0.25093406,-0.9259093,-0.79548645,-0.9897387,0.5328467,-0.18216479,0.93261576,0.5482831,-0.6601608,-0.61776894,0.14650619,-0.93368983,0.17699802,0.9631269,0.062429547,-0.36128873,-0.5657713,0.33922684,0.7147591]},{"bias":-0.44178146,"weights":[0.49721134,0.07125771,-0.5599732,-0.085202575,-0.1912061,-0.23460186,0.043746352,-0.6785495,0.23026025,-0.2731833,0.76048136,-0.17116201,-0.2293855,-0.4914853,0.6846082,-0.38281292,-0.6760609,0.08614957,0.3309642,0.39206946,-0.5088286,-0.8719573,0.58560276,-0.09082019,0.5200169,0.08285797,-0.4654104,0.6418786,0.018807769,0.54943657]},{"bias":-0.34830588,"weights":[-0.11953294,0.9636848,-0.38427418,0.7545183,-0.7727468,-0.124008775,-0.877928,0.4702257,0.10798156,0.7342391,-0.020415187,-0.8888011,-0.9612014,-0.34071606,-0.56623644,-0.91768026,0.71000624,0.29327977,0.22325766,-0.7404885,-0.7292378,-0.65378785,0.6995094,-0.3898,-0.277152,-0.61150855,0.8363416,-0.70362973,-0.42731827,-0.20525324]},{"bias":-0.26962537,"weights":[0.43628585,0.9883747,-0.59869593,0.04948938,0.49285424,-0.666518,0.13997924,-0.6545007,-0.7080672,-0.3034882,-0.13212311,-0.10227454,-0.039023995,0.9099281,0.83552957,0.39969456,0.23714864,-0.736892,0.8211889,-0.054730058,-0.025386214,0.14702451,-0.8758857,0.35134184,0.43773282,-0.27483314,-0.5021586,-0.21675074,0.23172534,-0.28412384]},{"bias":-0.2603876,"weights":[0.082295775,0.43626463,-0.06432235,0.13588703,0.8795676,0.63559175,0.5411198,0.7433953,0.8151629,0.176988,-0.25851816,0.20261538,-0.07593095,-0.41472286,-0.49040622,0.5513363,0.703228,0.8221104,-0.5360636,0.565403,-0.9347987,0.7783437,-0.94543076,-0.122012496,-0.3112871,-0.8180568,0.43629658,0.836658,-0.93605065,0.29407656]},{"bias":-0.91579485,"weights":[-0.62930703,-0.62643814,0.5802722,-0.22786844,-0.64961433,0.49709928,-0.61298007,0.4830948,-0.05351913,0.786464,-0.80223083,-0.056636214,0.86988115,0.5017891,-0.6190211,0.8116064,-0.10201037,0.67344785,-0.6571655,-0.3444628,-0.9682083,-0.87281203,-0.63111997,-0.09521091,0.6905875,-0.9908707,0.40109503,-0.39852518,0.6576841,-0.66834736]},{"bias":-0.2702636,"weights":[-0.47535032,-0.29987067,0.87449646,-0.20070851,0.056542277,-0.76803136,-0.6251221,0.68804836,0.9004512,0.47312272,-0.6938939,-0.75187707,0.9894705,-0.028760552,-0.13270819,0.30157912,-0.6341493,0.8382764,-0.5537078,0.5247319,0.7042959,0.6177912,0.77398634,0.8943324,-0.75951815,0.0067390203,0.6103847,-0.25165886,-0.6511607,0.93306994]}]},{"neurons":[{"bias":-0.10155666,"weights":[-0.6419101,0.9082401,0.9572463,0.13411391,0.770484,0.91073394,-0.8162885,-0.8103013,-0.7743604,0.6869168,-0.06073916,0.07949388,0.09765351,0.5041406,-0.93964386,0.034476638,0.19436777,-0.25598735,0.19798815,0.7098639,-0.6209504,-0.62705564,0.4092201,0.4285413,-0.26655596,0.3050412,0.24270451,0.56110835,-0.5988216,0.7469673]}]}]}