{"layers":[{"neurons":[{"bias":-0.2573194,"weights":[-0.30789083,-0.052055717,-0.72894454,-0.25543398,-0.39525622,0.67819667,-0.20876443,-0.505572,-0.9804237,0.22317469,0.09924805,0.4140097,-0.12042725,0.19952095,-0.30449647,-0.86272216,0.9986167,0.055585265,-0.18712938,-0.61514515,0.8713701,0.10127342,0.3055414,-0.054415584,-0.029194713,0.5313685,0.90008545,0.45030105,-0.6591222,-0.03759706]},{"bias":0.44754112,"weights":[-0.3816933,-0.6523187,-0.60469836,0.20506585,-0.22312605,0.61932445,-0.74247694,-0.6128456,0.9259107,-0.1466471,0.649544,-0.6669252,0.94519687,-0.9432514,-0.45446438,-0.95371175,0.6131072,0.87510014,-0.10194981,0.62677,-0.27311128,-0.43808788,0.89953685,-0.81879354,-0.50576156,0.7083738,0.9463093,-0.5930752,-0.8344898,0.8007772]},{"bias":-0.45091742,"weights":[-0.7422509,0.28029764,-0.91131306,-0.37029904,-0.47558302,-0.9877703,-0.07712686,0.8206811,0.17671168,0.11632717,-0.058579326,0.9025204,0.7630732,0.7810066,0.3493997,0.35387075,0.7543149,-0.080494285,0.5732775,0.20895207,-0.007396102,-0.06895769,-0.4449963,-0.16102445,-0.5967075,0.31840265,-0.36790365,-0.46023124,0.99712825,-0.36978954]},{"bias":-0.61946696,"weights":[0.5354779,0.63857293,0.61458373,-0.84968615,0.41965282,0.4264561,-0.8193836,-0.13477242,-0.2522673,0.8451717,-0.74952507,-0.9419074,-0.30372757,-0.4156887,0.774214,-0.24337041,0.2710544,-0.8810673,0.15091312,-0.41808838,0.3881868,0.28457963,0.4303254,-0.52833337,-0.28407997,0.173123,-0.435692,-0.7766359,0.3040539,0.44841826]},{"bias":0.83164024,"weights":[0.8148024,0.25625503,-0.86786795,-0.8033521,-0.6934848,0.18997204,0.42404687,-0.3904249,-0.053483367,0.5082636,0.74798584,0.485947,0.84578705,-0.49591655,0.97191906,0.1620928,0.8444233,0.83064103,-0.2055763,0.13170946,-0.44477147,0.69612575,0.57193756,0.5632348,-0.460746,-0.11092889,0.9821799,0.5709379,-0.65934014,-0.3890931]},{"bias":-0.5641703,"weights":[-0.8743012,-0.078871846,-0.053080678,-0.63657546,0.59774756,-0.2900862,0.4922768,0.6822965,0.15146148,-0.1440624,-0.8524318,-0.33975047,-0.3394248,0.12170231,0.300583,0.09994829,0.7453537,0.37152493,0.61396575,0.35739982,0.9995055,0.70579743,0.11003435,0.4215542,0.86756945,-0.14667666,-0.77268887,-0.27204603,0.15858543,-0.44053882]},{"bias":-0.39564556,"weights":[-0.6872668,0.4179634,0.8939159,-0.50622696,0.4967922,0.8179612,0.3951341,-0.6401346,-0.569771,-0.28442734,0.38933694,-0.64102364,0.47088897,-0.3143937,0.9325154,-0.12851346,-0.5262384,-0.52955097,-0.7178297,-0.3770048,-0.7918124,0.66319585,-0.8743231,-0.99385595,-0.688432,0.35179746,-0.619188,0.0303787,0.7527423,-0.57129425]},{"bias":-0.8968036,"weights":[-0.5478694,-0.763237,0.12482321,-0.61955494,-0.9690635,-0.38431925,0.6857164,-0.11963594,-0.69872785,-0.9903693,0.02456224,0.8321631,0.6524148,0.39036238,0.8182752,-0.510106,0.4635805,0.8337159,-0.5896372,-0.3498885,-0.78178763,-0.24736989,-0.80157375,0.9222002,-0.6467314,0.19244039,-0.34624738,0.2956258,0.3581456,0.68241596]},{"bias":-0.090048194,"weights":[-0.16088402,-0.86887145,-0.7912538,0.4498347,0.45337784,-0.47522348,0.01873219,-0.7407448,-0.16204536,0.76554775,0.082548976,-0.39936227,-0.7960565,0.8160391,0.5759225,-0.6271241,0.42852008,0.1655811,0.32875478,0.23424709,-0.7431655,0.16142976,-0.3787257,0.18272126,-0.31820387,0.6037073,-0.9541695,-0.38405603,0.1223582,-0.81837463]},{"bias":0.73357916,"weights":[-0.19006479,-0.40894288,0.416633,0.75716376,-0.76206136,-0.9189048,0.23197854,-0.14365351,0.74161196,-0.746876,-0.48041695,-0.66145444,-0.74539065,0.48587477,-0.08840239,-0.08368766,-0.38781446,0.47095025,0.2731768,0.472623,-0.13467538,0.6194477,0.82184815,0.9657397,-0.7623637,-0.67503905,-0.35825747,0.7472677,0.83532786,0.35104382]},{"bias":0.8688066,"weights":[0.9683864,0.8176153,0.20516098,0.7669883,0.34253347,0.6389601,0.9574828,-0.11288631,-0.23634946,0.754796,0.8315711,0.9969952,-0.15861762,-0.5799739,-0.84788966,0.27837217,-0.65769863,-0.21140134,0.13260686,0.37225306,0.09857285,-0.57435435,0.6284387,0.68901205,-0.7668085,0.09179485,0.36335576,0.50679445,-0.09894717,0.19312918]},{"bias":0.58098865,"weights":[0.46917403,-0.94923425,-0.06656182,0.0027567148,-0.78712654,-0.9560027,0.2925564,0.555845,-0.08354795,0.68702006,0.9625764,-0.21490419,0.41652668,-0.33317012,0.28502166,0.7801051,0.40034807,0.12880743,-0.54719275,-0.856472,-0.23717368,-0.17226708,0.10774171,0.3129531,0.6983285,0.72370625,0.21353829,-0.23611295,0.75473356,0.9461551]},{"bias":0.42936218,"weights":[0.88628983,-0.3362922,-0.9034412,-0.6572933,0.70404434,-0.77555084,-0.76560163,0.15227997,0.9359195,-0.56922597,-0.9274781,0.64140534,-0.40739292,-0.032635093,0.2719034,-0.23611248,-0.846632,0.5286014,-0.061612964,-0.34920377,-0.27372426,0.06491125,-0.20464122,0.61848426,-0.1285485,-0.33953708,0.12482369,0.57617307,-0.075389504,-0.0008081198]},{"bias":0.8975067,"weights":[-0.8804529,-0.31279653,-0.4384293,0.22024786,0.050982118,0.68435717,-0.827409,-0.012487769,-0.5270533,-0.027513623,0.10419643,0.68469787,0.40398037,-0.3541152,-0.58825344,-0.71491694,0.40976465,-0.24384606,0.104899764,-0.07902777,-0.54737824,0.7463782,-0.9058764,0.782784,-0.6817682,-0.25276893,-0.8585663,0.884109,0.6495745,-0.06697571]},{"bias":-0.36461443,"weights":[-0.9032862,0.90696263,-0.65950394,0.4244281,0.18645799,-0.8041353,0.7185521,-0.22553885,-0.03757775,0.312827,0.50148153,0.1300255,0.7520647,-0.06461465,-0.4029197,0.42815173,-0.6451833,0.54913473,-0.6788151,-0.092152,-0.38101453,-0.81461906,-0.03832352,-0.0021101236,-0.01670587,0.59350514,-0.28864425,0.631119,-0.57313913,-0.15101755]},{"bias":0.14878738,"weights":[0.8493943,-0.813401,0.43440187,0.49233973,0.3626634,-0.8461473,-0.37563962,-0.83037853,-0.6524401,-0.50784105,0.058393598,0.4588102,-0.10571015,0.5661237,0.5636275,-0.71421933,-0.47458047,-0.8771739,0.48891246,-0.41339272,0.15159214,0.1301688,0.9272151,0.77092886,-0.63307714,0.64587045,-0.30113572,0.602993,0.4814335,0.1932944]},{"bias":0.39996994,"weights":[0.097650886,0.5370631,0.98199964,0.85126686,-0.19698608,0.29277146,0.17623961,-0.5490195,-0.86070347,0.013471246,0.6944907,-0.52588123,-0.3146786,-0.8256998,0.20006001,0.75785613,0.4626721,-0.54916877,-0.19341362,-0.53231686,0.7551644,-0.7433891,0.6523354,0.95662117,0.7164805,0.6573479,-0.5388462,0.7949033,0.8044841,0.88972974]},{"bias":-0.37403792,"weights":[0.69617057,-0.08985627,-0.6044664,-0.6251538,-0.69320965,-0.9742732,-0.75741243,-0.832921,0.6454656,0.15267813,0.13235605,-0.5070068,-0.7019689,-0.27335662,0.8671272,0.9245963,0.059859157,-0.76378584,0.0024462938,0.95418143,0.5920131,0.18259251,-0.7875676,-0.3476922,-0.7476094,0.16055,0.06667507,-0.7779732,0.6419039,-0.46072763]},{"bias":-0.85614896,"weights":[-0.018923402,-0.73875403,-0.54640836,-0.6150808,-0.7008679,0.9029603,-0.60319036,0.5501604,-0.18587792,-0.8302598,-0.33315486,-0.74771404,-0.055832744,0.18082869,0.35144913,0.30116737,0.7998321,-0.944268,0.5891397,0.082537055,-0.8368838,0.2090441,0.4973935,-0.094478965,0.53318477,0.5382781,0.7497475,0.15089858,-0.6169779,-0.5909416]},{"bias":-0.6485486,"weights":[0.76957226,-0.7397754,-0.6738913,0.5562005,0.46431744,-0.24693024,0.93203664,-0.831959,0.66028833,-0.99632096,-0.5774607,-0.9320922,-0.225469,0.8899598,-0.32010406,-0.96124196,0.2032057,-0.6933017,0.9663818,-0.12129319,-0.49336833,-0.32920903,0.43921244,-0.51205605,0.6836307,0.6547394,-0.49301285,0.61021566,-0.72378254,0.23435676]},{"bias":-0.8861232,"weights":[-0.68233013,0.9477689,0.20938289,-0.7429395,0.81497145,-0.3561241,-0.7395084,0.3868364,0.066055894,0.8187394,-0.48239726,-0.91474724,-0.38716143,0.5329571,0.51579213,0.2270416,0.29844224,0.69646,0.9795923,-0.5550727,0.07613981,0.7860668,-0.36443394,-0.07006085,-0.21663082,0.36296046,0.5316267,-0.22005856,0.2745551,0.6119416]},{"bias":0.090842605,"weights":[-0.6722238,0.8913901,-0.4858784,-0.71350336,0.5715523,-0.51520747,-0.4596445,-0.44247502,0.115035415,-0.78027034,0.5453558,-0.41240305,0.4740473,-0.24637568,0.28637946,-0.81833935,-0.5498242,0.5522876,0.42748535,-0.60678285,-0.18686569,0.81691957,-0.5573775,0.2956468,-0.3288297,0.2974044,0.61388564,0.28750455,-0.10988295,0.032864213]},{"bias":-0.34817213,"weights":[-0.11965525,0.7655742,-0.2526967,-0.6381793,-0.6479089,-0.5503747,0.8073404,0.15381181,-0.27818626,0.51226497,0.543345,0.35955727,-0.5424802,-0.47326106,0.30128968,0.6609497,0.37527025,0.14235985,-0.25149816,0.43864834,0.9241133,-0.5919015,0.21300232,-0.2795505,0.96375227,-0.07787192,0.118442655,0.36820042,0.90298724,-0.7203529]},{"bias":0.9633949,"weights":[-0.39323467,-0.14987147,-0.3775329,0.7560153,0.38029563,-0.2628042,0.8070872,0.43224537,-0.97163343,-0.8941872,0.17514074,-0.25093406,-0.9259093,-0.79548645,-0.9897387,0.5328467,-0.4334144,0.93261576,0.5482831,0.6981759,-0.61776894,0.14650619,-0.93368983,0.58879876,0.9631269,0.062429547,0.33814538,-0.20924342,0.33922684,0.7147591]},{"bias":-0.44178146,"weights":[0.49721134,0.07125771,-0.5599732,-0.085202575,0.3034202,-0.23460186,0.043746352,-0.6785495,0.23291361,-0.2731833,0.09174907,-0.17116201,-0.2293855,0.9638176,0.6846082,-0.38281292,-0.6760609,0.08614957,-0.5056216,0.39206946,0.6520791,-0.8719573,0.70207024,0.8769901,0.5200169,0.08285797,0.6678574,0.6418786,0.75114465,0.54943657]},{"bias":-0.34830588,"weights":[-0.11953294,0.9636848,-0.38427418,-0.77600455,-0.7727468,-0.124008775,-0.877928,0.4702257,0.5088372,0.7342391,-0.020415187,-0.8888011,-0.9612014,-0.15718424,-0.56623644,-0.91768026,0.71000624,0.29327977,0.22325766,-0.7404885,-0.7292378,-0.65378785,-0.90798664,-0.067685485,-0.277152,-0.61150855,0.42176545,0.442747,-0.42731827,-0.20525324]},{"bias":-0.84007883,"weights":[0.43628585,0.9883747,-0.59869593,0.04948938,0.49285424,-0.666518,0.13997924,-0.6545007,-0.7080672,-0.3034882,-0.13212311,-0.10227454,-0.039023995,0.9099281,0.83552957,-0.5170476,0.23769152,-0.736892,0.8211889,-0.054730058,-0.025386214,0.14702451,-0.8758857,-0.8329108,0.43773282,-0.27483314,-0.12784016,-0.21675074,0.23172534,-0.28412384]},{"bias":-0.2603876,"weights":[0.082295775,0.43626463,-0.06432235,0.13588703,0.8795676,0.63559175,0.6518426,0.7433953,0.8151629,-0.44203657,-0.25851816,-0.82070184,-0.07593095,-0.41472286,-0.49040622,0.5513363,0.703228,-0.12932408,0.049499393,0.565403,-0.80683565,0.7783437,-0.94543076,-0.122012496,0.15107381,-0.8180568,0.023379683,0.836658,0.8483114,0.975261]},{"bias":-0.91579485,"weights":[-0.62930703,-0.62643814,0.5802722,-0.22786844,-0.7345724,0.49709928,0.87147355,-0.4273681,-0.05351913,0.786464,-0.80223083,-0.056636214,0.86988115,0.6636369,-0.6190211,0.055147767,-0.8856375,0.67344785,-0.6571655,-0.3444628,-0.9682083,-0.8838136,0.14661539,-0.09521091,0.6905875,-0.9908707,0.7300708,-0.39852518,0.6576841,-0.66834736]},{"bias":-0.2702636,"weights":[-0.47535032,-0.29987067,0.87449646,0.035599828,0.056542277,0.23444784,-0.6251221,0.68804836,0.9004512,0.47312272,-0.6938939,0.16779768,0.9894705,-0.028760552,-0.13270819,0.30157912,-0.6341493,0.8382764,-0.5537078,0.5247319,0.7042959,0.6177912,0.77398634,0.8943324,-0.75951815,0.020599484,0.6103847,-0.25165886,-0.6511607,0.93306994]}]},{"neurons":[{"bias":-0.10155666,"weights":[-0.6419101,0.9082401,0.9572463,0.29722655,0.770484,0.98244405,-0.12873495,0.29249036,-0.7743604,0.2009641,-0.06073916,0.07949388,0.09765351,0.14932144,-0.93964386,0.034476638,0.19436777,-0.25598735,0.19798815,0.023788095,-0.6209504,-0.62705564,0.4092201,-0.38431877,-0.26655596,0.24991095,-0.042746663,0.32376206,-0.5988216,0.7469673]}]}]}