{"layers":[{"neurons":[{"bias":-0.2573194,"weights":[-0.30789083,-0.052055717,-0.31149977,-0.64038706,-0.39525622,0.76991296,0.8960552,-0.505572,-0.9804237,0.78046703,0.09924805,0.4140097,-0.12042725,0.18752062,0.45831263,-0.7092793,0.76661825,0.9295976,-0.37634462,-0.61514515,0.8713701,0.64012384,0.3055414,-0.054415584,-0.42301434,0.19233787,0.069636226,0.45030105,0.85499454,-0.26048845]},{"bias":0.44754112,"weights":[-0.3816933,-0.6523187,-0.60469836,0.20506585,-0.22312605,0.61932445,-0.91472983,0.52706933,0.9259107,0.31611288,0.649544,-0.6669252,0.94519687,-0.62848043,-0.45446438,-0.15091574,0.6131072,0.87510014,0.8834472,-0.7046516,-0.27311128,-0.43808788,0.8505316,-0.81879354,-0.66985345,-0.9235363,0.9463093,-0.5930752,-0.8344898,0.30514514]},{"bias":-0.88663197,"weights":[-0.7422509,-0.95647264,-0.91131306,-0.37029904,-0.47558302,-0.25701207,-0.07712686,0.8206811,0.5029292,0.19787276,-0.15274823,0.9025204,0.7630732,0.40180457,0.92596793,0.35387075,0.7543149,0.6875937,0.4125849,-0.20801961,0.30433357,-0.68008137,-0.4449963,-0.7686031,-0.5967075,-0.5898923,-0.5368404,0.8582082,-0.38338894,-0.36978954]},{"bias":-0.61946696,"weights":[0.5354779,0.63857293,0.61458373,0.3152138,0.7558031,0.4264561,0.38739717,0.82758474,-0.2522673,0.8451717,-0.74952507,-0.9419074,-0.30372757,-0.6445997,0.774214,0.40746891,0.2710544,-0.8810673,0.15091312,-0.4446568,0.3881868,0.28457963,0.4303254,0.13900936,-0.28407997,-0.12159741,-0.435692,0.6884618,-0.8982589,0.44841826]},{"bias":0.06854665,"weights":[0.8148024,0.25625503,-0.86786795,0.9775524,0.7940781,0.18997204,0.775846,-0.9702227,-0.053483367,0.60830927,0.74798584,0.485947,0.84578705,0.6034496,-0.3397743,0.1620928,0.8444233,0.83064103,-0.4475841,0.37641466,-0.44477147,0.69612575,0.2739514,0.5632348,-0.460746,0.14819992,-0.52413577,0.5709379,-0.9726596,-0.5508117]},{"bias":-0.5641703,"weights":[-0.8743012,0.1262852,-0.053080678,-0.8930266,0.59774756,-0.0046161413,0.7221432,0.6822965,-0.5995988,-0.1440624,-0.8524318,0.6181717,-0.3394248,0.652226,-0.0037494898,0.09994829,0.66981006,0.37152493,0.61396575,0.35037792,-0.54602474,0.70579743,0.11003435,0.34637654,-0.2724802,0.624763,-0.77268887,0.5109434,-0.51908225,-0.44053882]},{"bias":-0.39564556,"weights":[-0.6872668,-0.07767713,0.8939159,-0.50622696,0.4967922,0.8179612,0.5712156,-0.6401346,-0.569771,-0.28442734,0.34330833,-0.64102364,0.046650767,-0.3143937,0.9325154,-0.12851346,-0.5262384,-0.52955097,-0.7178297,-0.3770048,0.495597,-0.62865543,0.7496166,-0.99385595,-0.14008057,-0.15803444,0.9670458,0.0303787,0.1561414,0.60590506]},{"bias":-0.8968036,"weights":[-0.5478694,-0.06592548,0.7821264,-0.61955494,-0.3110568,-0.38431925,0.6857164,0.9304037,-0.8587713,-0.9903693,0.46759188,0.8321631,0.6524148,-0.45002002,0.90804434,-0.4506163,0.4635805,0.8337159,-0.5896372,0.5042193,-0.63738036,-0.551274,-0.80157375,0.9222002,0.56910634,0.19244039,-0.3901474,-0.5434043,0.5482125,0.68241596]},{"bias":-0.090048194,"weights":[0.465335,-0.86887145,0.9802766,-0.6780329,0.45337784,0.96164584,0.01873219,-0.7407448,-0.16204536,0.76554775,0.082548976,-0.6962571,-0.7960565,-0.5750913,0.0562495,0.11712754,0.12890136,-0.2714004,0.32875478,0.8329649,-0.7431655,0.9294956,0.3085128,0.18272126,0.8864336,0.6037073,-0.9541695,-0.004701972,0.1223582,0.7828202]},{"bias":0.73357916,"weights":[-0.19006479,-0.40894288,0.416633,0.75716376,0.81380415,0.23917472,0.23197854,-0.64540815,-0.7133293,-0.746876,0.9060459,0.8515885,0.2980398,-0.5054044,0.93306017,-0.08368766,-0.38781446,0.47095025,-0.056289077,0.472623,-0.13467538,0.6194477,0.82184815,0.9657397,0.5884919,-0.093898416,-0.35825747,0.4217168,0.83532786,0.35104382]},{"bias":0.5133455,"weights":[0.9683864,0.8176153,0.20516098,0.7669883,0.34253347,0.6389601,0.9574828,-0.69564867,-0.23634946,0.3665222,0.12333715,0.9969952,-0.73136973,-0.5799739,-0.84788966,-0.28513044,-0.65769863,-0.21140134,-0.78804183,0.37225306,-0.3048727,-0.57435435,0.47469652,0.68901205,-0.7668085,0.09179485,0.36335576,0.5241134,-0.09894717,0.19312918]},{"bias":0.50800276,"weights":[0.16240108,-0.647275,-0.06656182,-0.4547338,-0.78712654,-0.9560027,0.2925564,-0.9089823,-0.08354795,-0.038387418,0.9625764,-0.49780124,0.41652668,-0.33317012,0.28502166,0.7801051,0.40034807,0.60921764,0.7253394,-0.856472,-0.23717368,-0.17226708,0.10774171,0.3129531,0.6983285,-0.19789588,-0.60850614,-0.73824644,0.75473356,0.9461551]},{"bias":-0.6259754,"weights":[0.88628983,0.79213357,-0.9034412,-0.8646102,0.70404434,-0.77555084,-0.76560163,0.15227997,0.018461823,-0.56922597,0.19209874,0.042051196,-0.49585432,0.3004681,0.2719034,-0.44272178,-0.846632,0.5286014,-0.061612964,-0.34920377,0.16231668,0.9607079,-0.20464122,-0.3175363,-0.1285485,-0.33953708,0.12482369,0.57617307,0.30915868,-0.0008081198]},{"bias":0.8975067,"weights":[-0.72893476,-0.31279653,-0.4384293,0.7655456,0.050982118,0.68435717,-0.43168133,-0.012487769,-0.5270533,0.96829104,0.10419643,0.68469787,0.40398037,-0.3541152,-0.58825344,-0.71491694,0.40976465,0.58823967,0.104899764,-0.07902777,-0.54737824,0.7463782,-0.9058764,-0.94358516,0.7693465,-0.25276893,0.045565963,0.884109,-0.51238245,-0.06697571]},{"bias":-0.36461443,"weights":[-0.9032862,0.90696263,0.27296793,0.79170084,0.18645799,-0.8041353,0.7185521,-0.22553885,-0.6336117,0.312827,0.50148153,-0.33845776,0.7520647,-0.6088669,0.9625664,0.42815173,-0.40358633,0.016436696,0.9703169,-0.092152,-0.38101453,0.6038549,0.6003947,-0.958374,-0.01670587,0.59350514,-0.28864425,0.631119,-0.039110303,-0.15101755]},{"bias":0.14878738,"weights":[0.048183322,-0.813401,0.43440187,0.49233973,0.3626634,-0.8461473,-0.37563962,-0.83037853,-0.3214342,-0.50784105,0.032204032,0.4588102,-0.10571015,-0.06425798,0.5636275,-0.71421933,-0.47458047,-0.8771739,0.48891246,-0.41339272,0.15159214,0.1301688,0.9272151,0.77092886,0.4694711,-0.9697013,-0.30113572,0.602993,0.4814335,0.28347003]},{"bias":0.39996994,"weights":[-0.31190842,0.5370631,0.98199964,0.85126686,0.9647198,0.29277146,-0.35276812,-0.5490195,-0.86070347,0.07312143,0.6944907,0.14978898,-0.27125496,-0.8256998,0.20006001,-0.7956357,0.4626721,-0.91704607,-0.19341362,0.38164175,0.567796,0.64668465,0.68879724,0.95662117,0.7164805,-0.82964635,-0.5388462,-0.17685425,-0.5355789,0.88972974]},{"bias":-0.5746991,"weights":[0.093559146,-0.08985627,-0.44126815,-0.22909749,-0.8615346,-0.9742732,-0.060335994,0.029821038,0.6454656,0.15267813,0.13235605,-0.47388786,0.07973993,-0.27335662,0.8671272,0.873049,0.059859157,-0.76378584,-0.10438216,0.3924874,0.5920131,-0.16353977,-0.7875676,0.951416,-0.7476094,0.2242006,0.06667507,0.18847287,-0.9591768,0.28218853]},{"bias":-0.85614896,"weights":[-0.018923402,0.1443206,-0.4635393,-0.6150808,-0.7008679,0.9029603,-0.60319036,0.5501604,0.021449447,-0.8302598,-0.40812653,0.66636825,-0.055832744,0.34648764,0.35144913,0.30116737,0.7998321,0.38562453,0.5891397,0.082537055,-0.8368838,0.41837895,0.4973935,0.5078535,0.5818765,0.5382781,0.7497475,0.15089858,-0.6169779,0.18570006]},{"bias":-0.1990093,"weights":[-0.36549658,-0.7397754,0.20828784,0.7117996,0.46431744,-0.87501717,0.93203664,-0.831959,0.66028833,-0.99632096,0.7142956,-0.9320922,-0.225469,0.8899598,-0.32010406,0.6067574,0.2032057,-0.6933017,-0.6316211,-0.12129319,-0.49336833,-0.32920903,-0.5115301,-0.14626873,0.6836307,0.6547394,-0.49301285,0.61021566,-0.72378254,0.23435676]},{"bias":-0.8861232,"weights":[0.3245176,0.9477689,0.20938289,-0.7429395,0.81497145,-0.3561241,0.018525958,0.5403125,-0.41903037,0.8187394,-0.48239726,-0.91474724,-0.38716143,0.5868585,0.51579213,0.2270416,0.29844224,0.49787652,0.9795923,-0.5550727,-0.35404676,0.7860668,-0.36443394,-0.07006085,-0.32826585,0.36296046,0.53561187,-0.22005856,0.2745551,0.6119416]},{"bias":0.84349203,"weights":[-0.49680132,0.8913901,-0.4858784,-0.71350336,0.17035902,0.07325256,-0.039072394,-0.14066327,0.115035415,-0.78027034,0.5453558,0.5189514,0.4740473,-0.24637568,0.13801205,-0.81833935,0.65543437,0.5194974,0.42748535,-0.60678285,-0.11051786,0.7690871,-0.5573775,0.2956468,-0.3288297,0.2974044,0.67628336,-0.52296036,0.42748892,0.032864213]},{"bias":-0.34817213,"weights":[0.55466175,0.7655742,-0.2526967,-0.6381793,0.63685584,-0.04547298,0.8073404,0.15381181,0.53682375,0.51226497,0.543345,-0.9906199,0.21559775,-0.47326106,0.30128968,0.6609497,-0.57836574,0.14235985,0.4114312,0.20240605,0.9241133,0.66820216,-0.5274195,-0.27272457,-0.26858586,-0.47956628,0.118442655,0.36820042,0.90298724,-0.7203529]},{"bias":-0.34386438,"weights":[-0.988508,-0.14987147,-0.3775329,0.7560153,0.38029563,-0.2628042,-0.47280568,-0.7027216,-0.97163343,0.09537661,0.75854754,-0.25093406,-0.5448739,-0.275706,-0.9897387,0.5328467,0.9768162,-0.45755738,0.5482831,0.6981759,-0.61776894,0.14650619,-0.2029506,0.58879876,0.9631269,0.062429547,0.57998013,-0.20924342,0.33922684,0.7147591]},{"bias":-0.44178146,"weights":[0.24524057,0.07125771,-0.5599732,-0.085202575,0.3034202,-0.53680795,0.043746352,-0.6785495,0.23291361,0.23499691,0.09174907,-0.17116201,-0.9728241,-0.2957756,0.6846082,0.57175803,-0.6760609,0.08614957,-0.5056216,-0.4429173,0.6520791,-0.8719573,-0.06910622,0.22391117,0.5200169,0.08285797,0.6678574,0.0017215014,0.75114465,0.54943657]},{"bias":-0.34830588,"weights":[-0.11953294,0.22312891,0.21609819,-0.77600455,-0.7727468,-0.124008775,-0.877928,0.4702257,-0.64689994,0.709008,-0.020415187,-0.8888011,-0.9612014,0.5848379,0.136711,-0.91768026,0.71000624,0.9429405,0.22325766,-0.7404885,-0.7292378,-0.9180455,-0.53523034,-0.067685485,-0.32869595,0.36083496,0.42176545,-0.2371875,-0.42731827,-0.5102131]},{"bias":-0.84007883,"weights":[0.43628585,0.15510142,-0.59869593,-0.54236716,-0.49210113,-0.35168284,-0.70572877,0.074564815,-0.7080672,-0.48091286,-0.13212311,0.14714658,-0.039023995,0.9099281,0.83552957,-0.5170476,0.23769152,-0.93847847,0.8211889,-0.054730058,-0.025386214,0.9563961,-0.8758857,-0.6336136,0.43773282,-0.15716016,-0.12784016,0.7904203,0.32072198,0.6378257]},{"bias":0.56523204,"weights":[0.082295775,0.43626463,-0.06432235,0.13588703,0.8795676,0.33005106,0.52708197,0.7433953,-0.025171876,-0.75175405,-0.6731031,-0.82070184,-0.07593095,-0.41472286,-0.49040622,-0.29591364,0.9817996,0.8771684,-0.3004219,0.565403,-0.80683565,0.0874306,-0.94543076,0.61180115,0.7480855,-0.8180568,-0.66127944,0.836658,-0.46368068,0.975261]},{"bias":-0.91579485,"weights":[-0.62930703,-0.62643814,0.5802722,-0.22786844,-0.27972502,0.29901397,0.8261483,-0.4273681,-0.61864823,0.32015383,-0.80223083,-0.056636214,0.86988115,0.6636369,-0.6190211,0.58814716,-0.8856375,0.67344785,-0.92732763,-0.3444628,-0.9682083,-0.8838136,0.8180773,-0.09521091,0.93365645,-0.9908707,0.7300708,-0.93652105,0.6576841,-0.66834736]},{"bias":-0.2702636,"weights":[-0.47535032,-0.62683225,-0.50883716,0.035599828,0.63213897,-0.078128695,-0.6251221,0.68804836,0.9004512,0.9346669,-0.6938939,0.16779768,0.9894705,-0.028760552,0.53516984,0.30157912,-0.6341493,0.8382764,-0.9589579,0.5247319,0.7042959,0.6177912,0.77398634,0.8943324,-0.75951815,0.020599484,-0.7601323,-0.6180989,-0.6511607,0.93306994]}]},{"neurons":[{"bias":-0.10155666,"weights":[-0.6419101,0.9082401,0.2469188,-0.06852496,0.57513833,0.98244405,0.47313035,0.29249036,-0.7743604,0.3791963,0.8704252,0.07949388,0.09765351,0.14932144,-0.93964386,0.5509808,0.19436777,-0.34562224,0.19798815,0.89087415,-0.6209504,0.70323706,0.4092201,-0.38431877,-0.26655596,0.24991095,-0.042746663,0.32376206,-0.5988216,0.7469673]}]}]}