{"layers":[{"neurons":[{"bias":0.3812381,"weights":[0.8022752,-0.0450209,0.25506282,0.5206156,0.04693401,0.55548674,-0.18747652,0.68795466,-0.5889237,-0.24095985,-0.6655457,-0.52272123,0.7290187,-0.36182794,-0.77731466,0.47449458,-0.5386023,-0.9173708,0.19794619,-0.20386136,-0.92199856,-0.2590701,-0.78861094,0.8321414,-0.9546554,0.8709707,0.20608464,0.33904085,0.61223316,0.3223983]},{"bias":-0.57657117,"weights":[-0.73699784,-0.72695565,-0.32343876,0.19829404,-0.11727989,-0.6628117,0.9263854,0.06590283,-0.12042594,-0.1837014,0.86663365,-0.53318024,-0.18084252,0.39034498,0.36126888,-0.97870255,-0.7740226,-0.15347445,1.0,-0.89986205,-0.26230085,0.72089314,0.34471834,0.91232324,-0.92021275,0.15444863,0.53138065,0.2157315,0.64440536,0.8952186]},{"bias":-0.4221186,"weights":[-0.82957625,0.8277979,-0.014638171,-0.8688817,-0.32954574,-0.19342399,0.3401385,0.7408552,-0.3720114,0.8395438,0.77642584,-0.99534416,-0.45091504,-0.34559795,0.08749068,0.6768184,0.09448325,-0.43854278,-0.07893319,-0.5204851,-0.23725408,-0.41371697,0.44190514,0.111855365,-0.5174746,-0.89603055,0.46148813,-0.50219935,-0.041241527,-0.14453405]},{"bias":0.036839366,"weights":[-0.34456104,0.8745378,0.21590102,-0.26737398,0.07518256,-0.6220152,-0.8140054,0.8122208,-0.50614786,0.84735847,0.7254195,-0.09683883,-0.10665262,-0.015938401,-0.059221864,0.003759265,-0.094240546,0.74024343,-0.55445176,0.8139912,-0.7463093,0.10809028,0.4246173,0.39419496,0.83741975,-0.7651534,0.055787683,0.79740167,-0.029271722,-0.10207546]},{"bias":-0.4563076,"weights":[-0.56956244,0.89467746,-0.38206905,0.74567413,-0.3853392,0.16375053,-0.8443911,-0.3845567,-0.013665557,-0.15319714,1.0,0.1956662,0.55571854,0.36333907,0.24887025,-0.280178,0.64408994,-0.7308252,0.87169886,-0.16605127,0.4782318,-0.7580292,-0.91643333,-0.8457515,0.22537076,0.7607939,-0.7192743,0.09027517,-0.42691123,-0.58859605]},{"bias":-0.012302756,"weights":[-0.4988801,0.8313916,-0.8064885,-0.6526866,0.63469076,0.6990456,-0.57808244,0.6795165,-0.085052274,0.2967137,0.33296335,-0.98681664,-0.84763145,0.9170246,0.5683198,-0.3602377,-0.47020072,-0.9007304,0.327399,0.7686722,0.04980994,-0.10508622,-0.43902606,-0.19653523,-0.19207537,-0.012207434,0.9315328,0.030317187,0.15450394,-0.5437921]},{"bias":0.79264355,"weights":[0.21206868,0.70765895,0.3387109,0.42005122,0.5959439,0.42786825,0.28524774,0.5982368,-0.38328594,0.21831381,-0.8975084,0.2547859,0.15063073,0.6741743,0.02427876,-0.8497791,-0.8547237,0.77491426,0.297387,-0.99380994,-0.2866385,0.8835397,0.771753,0.34594643,0.46764052,-0.9394443,0.31258968,-0.8833029,-0.558562,0.15199769]},{"bias":-0.6607373,"weights":[-0.7907316,-0.6287515,-0.79650307,0.042969108,0.1727702,0.5567951,0.7926245,-0.7779081,0.0000596568,0.11707059,0.54472494,-0.9803012,-0.22429526,-0.9929595,0.9924264,-0.46264356,-0.36994213,-0.05077088,0.58131766,-0.9165354,0.81752086,-0.6053619,-0.26211107,-0.8646374,0.030079007,0.4183582,0.1709131,0.62692094,0.93983054,-0.22681296]},{"bias":0.8396802,"weights":[-0.9632659,-0.9379647,-0.8539121,0.49718747,0.7469995,0.1708206,0.17554544,-0.47487682,0.48519886,0.07264626,-0.12836611,0.48846218,0.43402445,-0.44303793,0.44954097,-0.6308515,-0.33764666,0.3618201,0.5867975,0.33414567,0.67082024,0.26443544,0.6527984,-0.6193144,0.90387344,-0.6166566,0.92062855,-0.39786023,-0.7075336,-0.3891186]},{"bias":-0.4054901,"weights":[-0.9629934,0.5975766,-0.53425545,0.75183606,0.0862025,0.30964485,-0.6686423,0.006247878,-0.23630524,0.5517125,-0.6148637,-0.3149484,0.23459375,-0.6049031,0.23715031,1.0,-0.14403403,-0.59605545,0.26736486,-0.89081454,0.6550021,-0.6260743,0.6124741,-0.95245457,0.5977628,-0.32383326,-0.15422449,0.9283407,0.8431759,0.09253204]},{"bias":0.24861467,"weights":[-0.32494992,-0.21844375,0.46662366,0.9087225,-0.8638787,0.21970943,0.41309988,-0.011992998,0.4798457,0.7993126,-0.73314357,0.70542526,0.62289345,0.6094935,-0.92416644,0.33105862,-0.2917754,-0.4090802,-0.18536317,-0.18291461,-0.3999998,0.74060297,0.5288694,-0.21280777,-0.73420864,0.019358993,-0.24283874,0.10249531,0.29941642,0.23718181]},{"bias":-0.27401918,"weights":[-0.18283117,0.5308621,0.53946114,0.24986404,0.6691773,-0.4070949,0.5716479,0.76810426,0.1527921,-0.07794988,0.7531815,0.73821974,0.5046885,0.712339,-0.83955,0.5732951,0.8372357,0.40468872,0.8226824,-0.2592842,0.60777766,-0.710469,0.76321983,-0.8747065,-0.2857272,0.14900458,0.9520216,-0.6801088,0.9903109,-0.9124701]},{"bias":-0.2686128,"weights":[0.8373265,-0.62201446,-0.72795844,-0.09777415,0.49769318,-0.6662402,0.34390485,-0.76609206,-0.24990347,0.22398388,0.27941817,-0.41290563,0.7245698,-0.19888437,-0.17941535,-0.20299566,-0.056942582,-0.5537405,-0.65871143,-0.4791307,-0.08909679,0.8643558,-0.30901998,-0.20397103,-0.5130083,0.32795402,-0.8688538,0.41517627,-0.3947159,-0.40312427]},{"bias":0.92107534,"weights":[0.81108594,-0.4592287,-0.6127669,-0.26369756,0.7863469,-0.7698307,0.6522536,-0.42927977,0.08698785,-0.39263162,-0.06441796,0.7521322,-0.58498996,0.85225326,0.7505407,0.6982224,0.4436375,0.058553144,-0.2355789,0.39471236,0.5501678,-0.15099132,-0.939507,-0.7380278,0.5245385,0.082529426,0.20758139,-0.32082695,-0.048760056,0.31475326]},{"bias":0.50790596,"weights":[-0.32208642,0.1426667,-0.41613066,-0.12559521,0.812191,0.90263397,-0.7939741,-0.7036822,-0.8081558,-0.7397878,-0.5837009,0.3448001,0.5806358,-0.8024776,-0.098836064,0.88595366,0.96414995,0.3867234,0.088392854,0.115884185,0.61176205,0.77453995,-0.8191292,-0.13984287,0.94025993,-0.4337179,-0.33540812,0.9903195,0.036855817,-0.60668725]},{"bias":0.75184774,"weights":[0.7139425,0.813488,0.17530206,0.63127565,-0.5087141,-0.02039969,0.51194423,-0.32176465,0.79879403,-0.63021827,0.888712,0.8204708,-0.38706633,-0.023066163,-0.66945195,0.2809564,0.105058074,-0.46475857,-0.5403883,0.062580466,0.4002748,0.26586276,-0.94413924,0.17558196,-0.7408774,-0.6134883,0.6018575,-0.7294822,-0.57311887,0.72868323]},{"bias":0.34880602,"weights":[0.25460184,0.5830765,-0.53466314,0.9437871,-1.0,-0.6806623,0.02468884,-0.06245339,-0.94496155,0.30606166,0.4269033,0.2988292,0.07420552,-0.71207654,-0.8864198,0.8839095,0.988456,0.9901464,-0.61913294,0.7645189,0.8789295,-0.51657146,0.8209677,-0.39834112,0.98281384,-0.70735955,-0.90233517,0.46717298,-0.58027023,0.69902754]},{"bias":0.83291006,"weights":[0.07407153,0.9456113,0.4685458,-0.8194847,0.46138752,-0.2926368,-0.6766579,-0.6733842,0.65575886,0.47862804,-1.0,-0.20784175,-0.86174077,0.39274716,0.15851176,0.8148885,0.8525016,0.60348916,0.2673758,0.7503999,0.58224267,0.6939008,-0.6090077,0.57152677,0.028579831,-0.1828233,0.7604699,-0.8316466,-0.15650666,0.46738327]},{"bias":0.30732262,"weights":[0.99591637,-0.8473308,0.62433624,0.55124235,0.72577596,0.20987013,0.84676003,0.5348225,0.5391488,-0.57201666,0.8126917,0.58962226,0.5349333,0.7581134,-0.325545,0.6152587,0.7338502,-0.5723793,-0.36483735,0.685519,-0.72376513,0.7166281,0.12542498,0.52171487,0.8718012,0.23198277,-0.16019869,-0.704041,0.69681215,0.4286784]},{"bias":0.30868423,"weights":[0.80924153,0.049019195,-0.02136423,0.59005207,0.8483958,-0.2758497,-0.19713676,-0.90221924,-0.16355544,-0.9513616,0.61526203,-0.4451794,-0.5177795,-0.3977906,0.46573007,0.69916654,0.7051799,-0.996588,-0.6957357,0.043697476,0.6580639,0.12763858,0.84357375,-0.3341486,0.5858495,-0.6008865,0.32191122,0.72621274,0.71536434,-0.9093157]},{"bias":0.36698568,"weights":[0.14826074,-0.782949,0.25924575,-0.4827022,-0.82162595,0.22166848,-0.12618196,0.11115563,0.80139995,-0.20849377,-0.14547837,0.52849185,-0.4773957,-0.6665673,0.89061606,-0.7716296,0.38595998,-0.85155916,-0.8615382,0.8843862,-0.89030707,0.84555626,0.5418606,0.28376448,0.89740837,0.8441357,-0.74005485,-0.42590255,0.68298244,0.50657725]},{"bias":-0.06233442,"weights":[0.56151676,-0.44276637,0.07715571,0.604687,0.7941303,0.12660897,0.9146094,-0.656785,-0.8224263,-0.4077252,-0.16499412,-0.60156196,0.20088398,-0.24125135,0.33551848,0.9487289,-0.68328166,-0.8779752,0.9215059,-0.059823632,-0.1529236,-0.9854412,-0.7538667,0.6425441,0.419937,0.6129658,-0.52624696,-0.5334081,-0.6078879,0.8608226]},{"bias":-0.804585,"weights":[0.17965376,0.4363569,-0.28637332,0.43829262,1.0,0.5261407,-0.87935024,0.82985735,-0.25017682,0.6844752,-0.4619071,-0.44582146,-0.52500457,-0.40481395,0.5385318,-0.15474188,0.28853714,0.19076905,0.20103872,-0.97138596,0.43901145,-0.84854364,0.108466744,0.62634444,-0.33056706,0.6142678,-0.7234175,-0.1426791,0.48733222,0.4481455]},{"bias":0.70034575,"weights":[0.2704407,-0.4242868,-0.87035894,-0.075470805,0.15144217,0.11173642,-0.69632816,0.69383216,-0.8386612,-0.56473655,0.6027543,-0.60938376,-0.582623,-0.21950898,-0.9939084,-0.744387,0.9983084,-0.06590267,0.6036296,0.08575237,0.88970506,-0.21382153,0.07949436,0.9984751,0.12779948,-0.5108747,0.76618505,0.16183245,0.24311912,-0.58231395]},{"bias":-0.025000691,"weights":[0.37249267,-0.06598132,-0.778226,0.5268996,0.017607711,0.94838285,0.48257983,-0.51992226,0.9596784,-0.79124594,-0.6117043,0.7313363,-0.01310198,-0.8729956,0.51124954,0.9446477,-0.17822099,0.008958347,-0.77000046,0.9939323,0.93228734,0.06039536,-0.24502745,-0.26199406,-0.7259836,0.89943844,-0.4407138,-0.16311991,0.8120327,0.66359735]},{"bias":0.9961331,"weights":[0.025622614,-0.34346646,0.94083,0.33648595,-0.5943615,0.9813771,0.33711872,0.40491188,-0.16385639,0.16311514,0.8151386,0.16681814,0.8578074,0.19829547,-0.59372085,-0.762053,-0.6233849,0.8478477,-0.30665594,-0.1540736,0.7714846,-0.30043072,0.75658464,-0.053305984,0.5663373,0.40503347,0.8266256,-0.12353933,-0.5988969,0.9108207]},{"bias":-0.28720444,"weights":[-0.63878536,0.3421291,-0.3189358,0.73168755,0.26539433,0.4109877,0.1564132,0.30556428,0.7349889,-0.09806001,-0.6778195,0.25899068,0.5913656,0.14512908,0.024915576,0.5801301,-0.7344341,-0.23836768,-0.60091347,0.12863123,-0.31067905,0.2229194,0.24290916,0.1496154,0.82047653,-0.94420075,0.07695544,-0.6819775,0.58523756,0.87669873]},{"bias":0.28048456,"weights":[-0.21073446,0.13733065,0.7536437,0.16533077,0.83574724,-0.7986948,-0.49060267,0.090939544,-0.6114363,-0.97849154,-0.6330435,0.5664972,-0.56974286,-0.7556479,0.116359115,-0.22274363,-0.7806611,-0.8054192,0.000704661,0.62916034,0.2801813,0.80547214,-0.26126808,-0.39581364,-0.19850051,0.9117193,0.43340778,-0.95112777,0.38801873,0.8925173]},{"bias":-0.3628034,"weights":[-0.75106716,0.5106066,0.10490053,-0.05776775,-0.5752143,-0.25356263,0.93878484,0.8387713,-0.5079004,-0.39946717,-0.26873583,0.6755983,0.19977358,0.9644853,-0.38751787,0.92627835,0.53330016,-0.59182996,0.08264172,-0.101320386,0.7845783,0.9883137,0.31472462,0.7892108,0.040935397,-0.69521165,0.83262014,0.9630029,-0.75450635,-0.7062478]},{"bias":0.40561354,"weights":[0.08011544,-0.7346544,-0.6367085,-0.28657797,0.47375357,-0.86846733,0.20404685,0.3364347,0.11207968,-0.24576342,-0.124774575,0.51102203,0.5704367,-0.6297047,-0.5448678,0.7208874,-0.7202444,-0.6043484,0.15054667,0.063295245,0.6006372,-0.19758141,0.7022034,-0.39818472,0.10065472,-0.7600689,0.96733403,-0.03194511,-0.7974067,0.5930424]}]},{"neurons":[{"bias":-0.6745572,"weights":[-0.054215074,0.6851051,0.011216998,0.005051568,0.36325014,0.040878274,0.7649238,-0.35234755,0.6490426,-0.65464044,-0.7365624,0.49876463,-0.4440307,0.418598,0.11930525,-0.84760356,0.54786515,-0.28815177,0.24187315,0.066222996,0.11850822,-0.6937517,-0.19121563,-0.5794582,-0.3133282,0.7179165,-0.6179903,0.3290168,0.9519292,-0.4997921]}]}]}