{"layers":[{"neurons":[{"bias":-0.2573194,"weights":[-0.30789083,-0.052055717,-0.33612746,-0.64038706,-0.39525622,0.76991296,0.8960552,-0.505572,-0.9804237,0.78046703,0.1708554,0.4140097,-0.12042725,-0.47274846,0.45831263,-0.7092793,0.76661825,0.82130885,-0.37634462,-0.61514515,0.8713701,0.64012384,0.3055414,-0.054415584,-0.42301434,0.19233787,0.069636226,0.45030105,-0.11904585,-0.26048845]},{"bias":0.44754112,"weights":[-0.3816933,-0.29760617,-0.60469836,0.20506585,-0.22312605,0.61932445,-0.91472983,0.52706933,0.9259107,0.83435655,0.649544,0.021065593,0.94519687,-0.62848043,-0.45446438,-0.15091574,0.6131072,0.87510014,-0.81423926,-0.7046516,-0.27311128,-0.43808788,0.069526315,-0.81879354,-0.66985345,-0.9235363,0.9463093,-0.5930752,-0.8344898,0.28381526]},{"bias":0.8189485,"weights":[-0.7422509,-0.95647264,-0.91131306,-0.37029904,-0.47558302,-0.25701207,-0.07712686,0.49852884,0.5756993,0.19787276,-0.15274823,0.9025204,0.7630732,0.40180457,0.92596793,0.35387075,0.7543149,0.6875937,0.4125849,-0.8644867,0.30433357,-0.68008137,-0.4449963,-0.6656673,-0.5967075,-0.5898923,-0.5368404,0.8582082,-0.38338894,-0.36978954]},{"bias":-0.566163,"weights":[0.5354779,0.7008314,0.61458373,0.3152138,0.7558031,0.4264561,0.38739717,0.82758474,-0.2522673,0.8451717,-0.74952507,-0.4693808,-0.30372757,-0.6445997,0.20875084,0.40746891,0.2710544,-0.8810673,0.080008626,-0.4446568,0.3881868,0.28457963,0.4303254,0.13900936,0.9895971,-0.12159741,-0.35179394,0.6884618,-0.8982589,-0.12940753]},{"bias":0.06854665,"weights":[0.8148024,-0.34808272,-0.86786795,0.9775524,0.7940781,-0.75154734,0.775846,-0.9702227,-0.053483367,0.52540565,0.74798584,0.485947,0.84578705,0.564697,-0.3397743,0.1620928,0.8444233,0.83064103,0.9191227,0.37641466,-0.44477147,0.69612575,0.2739514,0.5632348,-0.460746,0.14819992,-0.52413577,0.5709379,-0.9726596,-0.5508117]},{"bias":-0.5641703,"weights":[-0.8743012,0.1262852,-0.053080678,-0.8930266,0.59774756,-0.0046161413,0.7221432,0.6822965,-0.5995988,-0.1440624,-0.8524318,0.6181717,-0.3394248,0.652226,0.15608251,0.09994829,0.66981006,0.37152493,-0.05264151,0.35037792,-0.7812159,0.70579743,0.11003435,0.28747284,-0.2724802,0.624763,-0.77268887,0.5109434,-0.6158654,-0.44053882]},{"bias":-0.39564556,"weights":[-0.6872668,-0.07767713,0.8939159,-0.50622696,0.4967922,0.8134291,0.37551415,-0.6401346,-0.569771,-0.28442734,0.34330833,-0.33291262,0.046650767,-0.3143937,-0.34597462,0.028858304,-0.5262384,-0.70414233,-0.7178297,-0.39128846,0.495597,-0.62865543,0.7496166,-0.99385595,-0.14008057,-0.15803444,0.9670458,0.0303787,0.1561414,0.60590506]},{"bias":-0.8968036,"weights":[-0.5478694,-0.06592548,0.7821264,-0.61955494,-0.3110568,0.010160565,0.15338552,-0.17087758,-0.8587713,-0.9903693,0.46759188,0.8321631,-0.92793417,-0.45002002,0.90804434,-0.4506163,0.4635805,0.8337159,-0.5896372,0.5042193,-0.63738036,-0.551274,-0.80157375,0.9222002,0.56910634,0.19244039,-0.3901474,-0.5434043,0.5482125,0.68241596]},{"bias":-0.9533675,"weights":[0.465335,-0.86887145,0.9802766,-0.6780329,-0.19957292,0.96164584,0.01873219,-0.7407448,-0.16204536,0.76554775,0.082548976,-0.6962571,-0.59864825,-0.20382893,0.0562495,-0.7298708,0.12890136,-0.2714004,0.32875478,0.8329649,-0.7431655,0.9294956,0.3085128,0.18272126,0.8864336,0.6037073,-0.9541695,-0.004701972,-0.94561577,0.7828202]},{"bias":0.73357916,"weights":[-0.19006479,-0.40894288,0.416633,0.75716376,0.81380415,0.38185322,0.23197854,-0.64540815,-0.7133293,-0.746876,0.9060459,0.8515885,0.2980398,0.630528,0.93306017,-0.08368766,-0.38781446,0.47095025,-0.056289077,0.472623,-0.13467538,0.6194477,0.82184815,0.9657397,0.5884919,-0.093898416,0.29892528,0.4217168,0.83532786,-0.63874936]},{"bias":-0.38643044,"weights":[0.5197079,0.8176153,0.20516098,0.7669883,0.34253347,0.6389601,0.9574828,-0.69564867,-0.23634946,0.3665222,0.12333715,0.9969952,-0.73136973,-0.5799739,-0.30469793,-0.28513044,-0.65769863,-0.21140134,-0.78804183,0.37225306,0.3861524,-0.57435435,0.47469652,0.68901205,-0.7668085,0.09179485,0.36335576,-0.17604125,-0.09894717,0.19312918]},{"bias":-0.48022813,"weights":[0.16240108,-0.58852166,-0.06656182,-0.4547338,-0.78712654,0.16917694,0.2925564,-0.9089823,-0.08354795,0.57511115,0.9625764,-0.49780124,0.41652668,-0.33317012,0.28502166,0.7801051,0.40034807,0.60921764,0.7253394,0.6267183,-0.23717368,-0.17226708,0.10774171,0.3129531,0.6983285,-0.19789588,-0.60850614,-0.6502595,0.75473356,0.9461551]},{"bias":-0.7466676,"weights":[0.88628983,0.79213357,-0.9034412,-0.8646102,0.70404434,-0.77555084,0.09143984,0.15227997,0.018461823,0.08842409,0.19209874,-0.13196242,-0.49585432,0.3004681,0.2719034,-0.44272178,-0.846632,0.5286014,-0.061612964,0.48039663,0.16231668,0.9607079,-0.20464122,-0.3175363,-0.1285485,0.17772257,0.12482369,0.57617307,0.30915868,-0.0008081198]},{"bias":0.8975067,"weights":[-0.72893476,-0.31279653,-0.4384293,0.7655456,0.050982118,0.68435717,-0.43168133,-0.012487769,-0.5270533,0.96829104,0.10419643,0.68469787,0.40398037,-0.3541152,-0.42043728,-0.71491694,0.40976465,0.58823967,0.104899764,-0.07902777,-0.54737824,0.7463782,-0.11835158,-0.94358516,0.7693465,-0.25276893,0.045565963,0.884109,-0.51238245,-0.06697571]},{"bias":-0.36461443,"weights":[0.105026364,0.90696263,0.27296793,0.79170084,0.18645799,0.7512045,-0.13443029,-0.22553885,-0.6336117,0.312827,0.50148153,0.18196332,0.616832,-0.6088669,0.9625664,0.42815173,-0.40358633,0.016436696,0.9703169,-0.092152,-0.38101453,0.6038549,0.6003947,-0.958374,-0.01670587,0.59350514,-0.28864425,0.631119,-0.039110303,-0.15101755]},{"bias":0.14878738,"weights":[0.048183322,-0.813401,0.43440187,0.87930274,0.3626634,-0.8461473,-0.37563962,-0.83037853,-0.3214342,-0.50784105,0.032204032,0.4588102,-0.10571015,0.18156254,0.5636275,-0.71421933,-0.10414708,-0.8771739,0.48891246,-0.41339272,0.15159214,0.1301688,0.9272151,0.77092886,0.4694711,-0.9697013,-0.30113572,0.602993,0.4814335,0.28347003]},{"bias":0.39996994,"weights":[-0.31190842,-0.7263782,0.98199964,0.85126686,0.9647198,0.29277146,-0.35276812,-0.5319757,-0.86070347,0.07312143,0.6944907,0.14978898,-0.27125496,-0.8256998,0.20006001,-0.7956357,0.78730345,0.8264458,-0.19341362,0.38164175,-0.71459055,0.64668465,0.68879724,-0.66521764,0.7164805,-0.82964635,0.90708137,-0.65217185,0.11916816,0.88972974]},{"bias":-0.5746991,"weights":[-0.65525174,-0.08985627,-0.44126815,-0.22909749,-0.8615346,-0.9742732,-0.060335994,0.013359189,-0.7901404,0.15267813,-0.26417392,-0.66030407,0.07973993,-0.5187308,0.8671272,0.873049,0.059859157,-0.76378584,-0.10438216,0.3924874,0.5920131,0.38368165,0.558681,0.951416,-0.7476094,0.08138716,0.06667507,0.18847287,-0.5226261,0.28218853]},{"bias":-0.85614896,"weights":[-0.018923402,0.1443206,-0.4635393,-0.6150808,-0.7008679,-0.19096267,-0.60319036,0.8847046,0.021449447,0.2876507,-0.40812653,0.27281988,-0.055832744,0.34648764,0.35144913,0.30116737,0.7998321,0.38562453,0.5891397,0.082537055,-0.8368838,0.41837895,0.4973935,0.5078535,-0.23862422,0.5382781,0.52523494,-0.084032655,-0.6169779,0.18570006]},{"bias":-0.1990093,"weights":[-0.36549658,-0.7397754,0.20828784,0.7117996,0.46431744,-0.87501717,0.93203664,-0.831959,0.66028833,-0.99632096,0.7142956,-0.9320922,-0.225469,0.8899598,-0.32010406,0.6067574,0.2032057,-0.6933017,-0.6316211,-0.12129319,-0.49336833,0.7076132,-0.5115301,-0.14626873,0.6836307,0.102693915,-0.69568825,0.61021566,-0.72378254,0.23435676]},{"bias":-0.8861232,"weights":[0.3245176,0.24144232,0.20938289,-0.7429395,0.81497145,-0.3561241,0.018525958,0.5403125,-0.41903037,0.8187394,-0.48239726,-0.91474724,-0.5552365,0.5868585,0.51579213,0.2270416,-0.8357134,0.49787652,0.9795923,-0.5550727,-0.35404676,0.7860668,-0.36443394,-0.07006085,-0.32826585,0.36296046,0.53561187,-0.135028,0.2745551,-0.06506431]},{"bias":0.84349203,"weights":[-0.49680132,0.8913901,-0.4858784,-0.71350336,0.17035902,0.07325256,0.98661613,-0.14066327,0.115035415,-0.577218,0.5453558,0.5189514,-0.16303384,0.79268193,-0.2984559,-0.81833935,0.65543437,0.5194974,0.42748535,-0.23214042,-0.11051786,0.7690871,0.7858932,0.2956468,-0.3288297,0.2974044,0.67628336,0.77649164,0.43474352,-0.17241395]},{"bias":-0.34817213,"weights":[0.55466175,0.8621166,-0.3931641,-0.21550763,0.63685584,-0.04547298,0.8073404,0.15381181,0.53682375,0.51226497,0.543345,-0.86221457,0.43182957,-0.42621845,0.30128968,0.6609497,-0.57836574,0.14235985,0.4114312,-0.5767123,0.9241133,0.66820216,-0.5274195,-0.27272457,-0.25040787,0.6163683,0.118442655,0.36820042,0.90298724,-0.7203529]},{"bias":-0.03791845,"weights":[-0.988508,-0.14987147,-0.3775329,0.7560153,0.38029563,-0.2628042,0.9622395,-0.25747246,-0.97163343,0.09537661,0.75854754,-0.25093406,0.30356777,-0.275706,-0.9897387,0.5328467,0.9768162,-0.45755738,0.5482831,0.6981759,-0.61776894,0.14650619,-0.2029506,0.58879876,-0.33798093,-0.58115953,0.57998013,-0.045437694,0.33922684,0.7147591]},{"bias":0.25038946,"weights":[0.24524057,0.07125771,-0.5599732,-0.73207307,0.12500179,-0.53680795,0.043746352,-0.6785495,0.23291361,-0.041788697,-0.39720196,-0.17116201,-0.9728241,-0.8307338,0.6846082,0.57175803,-0.6760609,0.08614957,-0.5056216,-0.4429173,0.6520791,-0.8719573,-0.06910622,0.22391117,0.5200169,0.08285797,-0.11241543,0.0017215014,0.75114465,0.25850022]},{"bias":-0.34830588,"weights":[-0.11953294,0.22312891,-0.39377302,-0.77600455,-0.7727468,-0.124008775,0.9150653,0.4702257,-0.64689994,0.709008,0.2666384,-0.8888011,0.9255526,0.5848379,0.136711,-0.91768026,0.71000624,0.3548311,0.22325766,-0.7404885,-0.7292378,-0.9180455,-0.53523034,-0.067685485,-0.32869595,0.36083496,0.19842017,-0.2371875,-0.76190066,-0.5102131]},{"bias":-0.84007883,"weights":[0.43628585,0.15510142,-0.59869593,-0.54236716,-0.49210113,0.41460598,-0.22144234,0.074564815,0.5904913,-0.48091286,-0.13212311,0.14714658,-0.039023995,0.9099281,0.1987437,-0.5170476,0.23769152,-0.93847847,0.8211889,-0.054730058,-0.025386214,0.12998474,-0.8758857,-0.6336136,-0.52813905,-0.15716016,-0.12784016,0.7904203,0.6347568,0.6378257]},{"bias":0.56523204,"weights":[0.082295775,0.43626463,-0.06432235,0.13588703,0.8795676,0.33005106,0.52708197,0.7433953,-0.025171876,-0.75175405,-0.6731031,-0.82070184,-0.07593095,0.39105785,-0.49040622,-0.29591364,0.9817996,0.8964622,-0.3004219,0.565403,-0.80683565,0.0874306,-0.3306765,0.61180115,0.36519182,-0.36977333,-0.66127944,0.836658,-0.46368068,0.975261]},{"bias":-0.91579485,"weights":[-0.62930703,-0.62643814,0.5802722,-0.22786844,-0.27972502,0.29901397,0.8261483,-0.4273681,-0.61864823,0.32015383,-0.80223083,-0.056636214,0.86988115,0.6636369,-0.46873134,0.58814716,-0.8856375,0.23921216,-0.6698885,-0.3444628,-0.9682083,-0.8838136,0.9599128,-0.09521091,0.93365645,-0.9908707,0.92153263,-0.93652105,0.6576841,-0.66834736]},{"bias":-0.2702636,"weights":[-0.47535032,0.06820452,-0.50883716,0.23093379,0.63213897,-0.078128695,-0.6251221,0.30989015,-0.63220286,0.9346669,-0.66819143,0.16779768,0.9894705,0.31016362,0.53516984,0.30157912,-0.6341493,0.8382764,-0.9589579,0.5247319,0.7042959,0.6177912,0.77398634,0.8943324,0.0053468943,0.020599484,-0.7601323,-0.6180989,-0.6511607,0.93306994]}]},{"neurons":[{"bias":-0.10155666,"weights":[0.093052745,0.9082401,0.2469188,-0.06852496,-0.28258413,0.98244405,0.47313035,0.29249036,-0.7743604,0.3791963,0.8704252,0.07949388,-0.07192433,0.14932144,-0.93964386,0.5509808,0.19436777,-0.34562224,0.19798815,0.7663338,-0.6209504,0.70323706,0.4092201,-0.13360775,-0.26655596,0.24991095,-0.042746663,0.32376206,-0.5988216,0.7469673]}]}]}